solver_type L2R_L2LOSS_SVC_DUAL
nr_class 2
label 0 1
nr_feature 5000
bias -1
w
-0.1098558507497681 
0.4854188186644637 
0.06250360221174586 
-0.7365466365548841 
-1.91412995615839 
-1.815588686138707 
-0.8547014125143255 
4.665655520189079 
-0.3093665538406616 
-0.6831818745372794 
-0.4596668891062763 
-1.092919269175263 
-0.2227707347366297 
0.4314272943431546 
-0.161615518457523 
-1.110800637941219 
-0.7802358758400451 
0.79368879150688 
2.851184077717693 
-0.9722523786281942 
0.7419004405336418 
0.7650856888503582 
-1.023524733129553 
-4.29553470755107 
-0.6211529109851706 
-1.725343447338411 
0.3020229108780926 
0.5002046658722169 
-3.139632111133752 
-1.110114843509481 
-1.094065352381412 
-1.35691937381178 
-0.05752934066423387 
-0.1740788431073468 
0.519221496884978 
0.7443614875454049 
0.03026012059188092 
0.06068537126808905 
-0.6921965637181864 
-0.04800958050548966 
0.5819520874081647 
0.08457086887281254 
-0.46715629912016 
0.1644529282599247 
-0.01160415791760248 
0.632321968120073 
0.5949969133895102 
-1.495661666569808 
-0.3941423791027734 
0.9316057768420617 
-1.765872823060475 
4.675350382144957 
1.240503690104642 
0.6570592197073589 
0.6913876426611052 
0.00900701011330551 
-1.697427187157221 
-1.239455411128777 
-0.3595238381000344 
-0.2703892535000237 
1.261958150754768 
-0.4340973216206151 
-0.3376769186094459 
0.1676225567348012 
-0.5621641438085293 
-1.123078586441938 
0.007858384470275512 
2.800590830559338 
-2.802777195496851 
0.2389774894313178 
0.1090635455668162 
0.004184307575907833 
0.528638442304937 
-0.260827937421172 
-1.018018689874264 
-1.045200384837038 
-0.4724403065388801 
-0.6757830669495919 
0.01272193365900725 
-0.5136075252245975 
-0.1294884816768266 
-0.7478626956179718 
-0.2119788142192232 
2.950953167123178 
-0.5664336738007455 
-1.638093939808373 
-0.2854102180704243 
-0.5959899728782828 
-0.2430988660321439 
-0.2946160931632615 
0.3350025496439836 
-1.167554343793102 
-0.3685066228849836 
-0.3666834711951548 
-0.7121698451732771 
-1.853021019900617 
-0.5866814764417443 
0.5600719467668083 
-0.9345209187323 
-0.1803029020092672 
-0.8664464733528228 
-0.1512295034554786 
-0.8380506381936126 
-2.229053277056122 
0.559637927597849 
-0.2095758230552232 
-0.5183232905587957 
-1.417201772716756 
-0.06327572263827608 
-0.3944410543942306 
-0.5226500734915182 
-1.272982713873311 
-0.202482433531597 
-0.6721873569204679 
-0.6402509429511407 
-1.294925364849676 
0.5762136082761252 
0.1817993917944206 
1.157684196141555 
-0.2102875684158291 
-0.1559374228611066 
0.1008576695490761 
-0.03794144709869309 
0.2243659631765329 
-0.07849308334795593 
-1.079322185148042 
0.7924695098097032 
0.01549398760704006 
-0.8958221507364369 
-0.01721919483867436 
-0.03787093500051593 
-1.841683488963919 
-1.070029425811793 
-1.319141749322617 
-0.969264439275612 
-0.2425008665649665 
1.369288216616537 
2.160472191954227 
-0.7088950471140487 
-0.5402219902800965 
-0.2435406656889362 
-2.785475704843347 
-0.4851952732210733 
-0.7089358114435674 
-0.1834306390415403 
-0.9464275454638321 
0.8517112043875769 
-0.452176093743864 
-0.05788792979164217 
-1.040487624642837 
-0.4847381155708616 
-0.001028236119180896 
-0.3604207779708536 
-0.1598048268373324 
-0.3524273133252261 
-0.8830122749922725 
-0.7023248848607584 
1.093876404163032 
-1.048723585212652 
0.1283623064918535 
-0.3070949249785492 
0.208555636799359 
-0.3953283988800365 
-0.8296978375618493 
-1.385574712913342 
0.3784949315166078 
-0.4297363314374089 
0.01024525652175192 
-0.2109633987056246 
-0.05036194320271001 
3.090345979407716 
0.4703147843561684 
-0.2578746106633615 
1.122157010355125 
-0.6196892554797744 
-0.6144910696223121 
1.560869464658739 
-0.6218068666668272 
1.948516711218795 
-1.721839404393028 
-0.2982548018261162 
0.7243260650641613 
0.2672954471683476 
-0.7692372760329215 
-1.694535701820715 
-0.8025685361291867 
-1.354735859912043 
0.2092913969279972 
-3.956256487759886 
-0.6534201991942928 
0.09098212481689345 
2.464135607875718 
0.4875793550273017 
-0.08590669018291858 
-1.33952359581897 
-0.3017177266871935 
0.04297570707280426 
0.6168299564567773 
0.242240020721784 
-0.375912128441007 
-0.3590041266020823 
-1.242988072342826 
-1.460004682677536 
-0.03228725187010668 
0.1326460076688371 
-1.069275988529299 
-0.6406344015624861 
-0.03720909434992609 
-0.7070646741469879 
-2.216114194687059 
-0.1040364475802719 
2.738767265485617 
0.3288225130019992 
0.009097895935594262 
0.3001032095280069 
-0.2394430491395514 
1.360886123128245 
-0.3648278096630844 
0.352578869885218 
-0.8289737920171721 
-1.278136867968856 
0.01623666050130562 
0.4942638604662259 
-0.02854752028754656 
0.2068088114337146 
0.2198411069142432 
0.6913552216677499 
-0.5524968785885969 
0.07280180373506671 
0.04619555559253208 
0.3066708663546682 
-0.4031290773605115 
-0.7329582475445079 
1.252493145712595 
-1.18792829946664 
-1.589752337203211 
-0.405727199336479 
0.200840946214311 
0.7361743731462443 
-0.7790915697761946 
-0.36244588099305 
-0.3875967586433939 
-0.5283557222236952 
-0.6660859391708766 
-0.1992942840651988 
1.607114443180802 
0.6600287501636491 
0.4732897100481548 
-0.3173349358597972 
-0.2590889058017583 
0.6647167182061188 
-0.2769513573228295 
-1.251117700073228 
-0.3340448276199013 
-0.08236876100282026 
0.8301322380111568 
0.4963123015436913 
-0.5826591869534583 
-1.017834052791772 
0.2724899204960282 
0.1220446512804926 
-0.7423503197922028 
-1.412095003235594 
-0.4860925818435119 
-0.675802558444606 
-0.4711291294892548 
0.4691309557077598 
0.7931290432017019 
0.8594303019096831 
0.186610432060123 
-1.107274543635267 
0.227772038597482 
-0.7068401172476476 
5.854691731421724e-18 
-0.7345411177870874 
-0.7796380524363919 
0.3925705361504492 
-0.1383116747332049 
-0.2823613205627603 
0.585474724648701 
-0.08000159968091795 
-0.01984263327978972 
-0.580259888139068 
-0.6805937250925022 
-0.8022628993814416 
-0.1249210878442605 
-0.3173672004385908 
0.07427274530273692 
-0.6511966198490614 
0.360984616087386 
0.1079144502430408 
-0.1473792954230324 
0.4274595792791673 
0.9256145088472369 
1.270146022161502 
0.4827874562465964 
-0.009665550094121785 
0.2874267933486164 
2.151282315060243 
0.666110738577805 
1.161444082232711 
-0.3132796818502868 
-0.7508517385910005 
0.9924142941948341 
0.6856909994600762 
-0.442912710894011 
-0.3440160750903953 
-0.8474578019898176 
-0.4973009054858411 
-1.26532343963266 
0.01740109710198272 
0.06262326041423852 
1.450071905952717 
-0.9339908760072609 
-0.6083550610933384 
1.909658577352741 
0.8707936236447718 
-1.121658697156216 
0.2681143533728929 
-0.3952427241686961 
-0.2120506785436135 
0.1872360104299803 
0.9122136138264193 
0.9043093411430345 
0.240119074978788 
-0.1238916878127576 
-0.1063915500311599 
0.6688511211929595 
-0.5830349955969362 
-0.1507367609196456 
-0.2777200945565745 
-0.3990766797165607 
-0.1385704475868845 
0.9296346983904519 
0.08082447210844823 
0.0233259978270335 
0.06625400890434489 
0.4301503698190201 
-0.6567749583158539 
0.5064588100132676 
-2.156792314715128 
-1.474794134945691 
-0.2836499259663723 
0.0352546399132 
-1.121164202504039 
-0.2478461396842208 
-1.293410678008742 
-1.64516930181554 
-0.09041348102245295 
-0.08713669309914926 
0.07814857288645269 
1.981152752960812 
-0.6963306875497022 
-2.607457614941121 
-0.7307008328793131 
-0.04745874360023235 
-0.7707423708448217 
0.377344801427382 
0.2881227976159382 
-0.2949970575751629 
-0.5135667803974939 
-0.8328350999004737 
-0.2271577841010739 
2.337458084159467 
0.968035344796511 
0.3488225764269093 
-0.789289964226864 
-0.9953380855316063 
0.5998131257738155 
-0.4575610850588281 
-0.8619983758967671 
-0.4207759356520984 
-0.207379491623994 
-0.7208503278642731 
-2.06644715983673 
-0.03568787046461578 
0.3356323243391159 
0.7029118271143818 
1.419195387033428 
0.3226952862758058 
0.6900859851748326 
-0.1432922295730132 
-1.074228557280367 
0.4987653318216182 
-0.0009134130736655485 
-0.6242135533634103 
0.2753721114338786 
1.879852202577622 
-0.4698532488863946 
-0.5605202414129886 
-0.3888503011603393 
1.301042606982605e-18 
-0.5323554730519188 
-0.8882606995133718 
0.733766954747111 
-0.3924983799369894 
1.787834236498277 
-0.7013347724562365 
-1.088492353265295 
-0.3658635499796724 
0.1356203712919805 
0.9510057839246353 
-0.7121204081042088 
-0.2346485977543691 
-0.6741952837078623 
-0.6306682423925623 
-0.8615450468865876 
-0.4787919609648203 
0.1305828196748706 
0.1702738789020491 
1.731851233642215 
0.1090500637948305 
1.795072183575102 
0.2316142473112858 
-1.296377227374659 
0.9373716459925704 
-0.3497813863763403 
-0.09679788861901698 
-0.4446426813053925 
0.09823325593453308 
0.2289150427641442 
-0.718446035317941 
0.2540014534529372 
1.326912526377687 
-0.2013185098438865 
0.1918570116978994 
-1.698472739493057 
0.06919782311612456 
0.5005180538596126 
1.116684831474029 
0.9395214342090384 
-0.4993024302987115 
-0.7069998998015747 
0.08925220034143208 
-0.7883486749103125 
0.4466553288726203 
1.062652570210579 
-1.159126612139252 
-0.7164622561378776 
-1.870250831796229 
0.03691191057309702 
0.9802774181958978 
-0.1819121079989419 
-0.2682865194659141 
0.4185977110580879 
-0.06837383635898592 
-0.004281690344681201 
-0.4815381785188858 
0.8115866461777543 
-1.572534733864823 
0.5783849269760938 
-1.507703475501666 
-1.763712928110392 
-0.1218381117270837 
-0.8665355693779626 
0.1291814351315297 
-0.2702054940384153 
2.118761940469032 
0.1263726730609635 
-2.075285988020598 
-0.3960362007017499 
-0.1622221483611498 
-0.300498659576649 
1.71095231516702 
0.3170524709546334 
-0.9832640339294009 
0.1341243916492635 
0.2575750285650029 
0.4531061722117951 
-0.36943511433716 
-0.2747291419528302 
1.643626428437034 
-0.4446595608114773 
-1.334957033215759 
-2.028867859958526 
-0.4347154656265487 
0.4309959803554798 
0.2836142642180366 
-0.7159582622938254 
-0.5085367667204921 
-1.645848816578157 
1.825436028004863 
0.1120803373161261 
-0.3397034603723604 
-0.03973864194198719 
0.379294481365168 
1.80605825365038 
-0.3564117155018978 
-1.31896613456294 
0.3411063152168817 
1.230763409060963 
-0.07622100192254522 
-1.324998135284936 
0.1320046659184889 
0.08350158989310055 
0.0162679485432991 
1.368099015452837 
-0.7655640113791965 
-0.6560732449318821 
0.4325009464571534 
-0.6414633762046135 
1.699834994290395 
0.08533713654466345 
0.359660079746738 
-0.6075578155958058 
0.2646263002493476 
0.1542394582488428 
1.261146583172278 
0.8706689640859873 
-0.4551252131112855 
0.8657566072660565 
0.7364440732428875 
-2.061919039595471 
-0.7470671233769947 
0.1640489172362649 
-0.6100546881840242 
-1.315103766349115 
-1.179406639176334 
-0.13427363001959 
0.5885430280372678 
1.705733167807914 
-0.1936816282016987 
-0.1423591698574382 
-0.643016185596921 
-0.3259056608027809 
0.2076095196479226 
-0.03218401879624175 
-0.2874411683596705 
-0.2074581338933037 
0.9328530675713373 
0.0608019141736516 
0.5693269736108464 
-0.01269512942265417 
0.1873778661630598 
0.2350675979150648 
0.8650841232837444 
0.3109293883642841 
1.773949877541239 
-0.7908758735407966 
-0.8400529739886641 
-0.2183818737890355 
-0.1365532398876421 
-0.2875771937364822 
-0.2950082370363424 
0.1888100968928024 
0.01309850735388231 
-0.03985647754986003 
0.9052067894043283 
-0.811968260746745 
0.6473085876956062 
-0.9654500815075407 
0.03560443688673239 
0.6748678601128698 
-0.01376485291896835 
-0.3906345105754052 
0.1815112254843904 
0.3710266029968849 
1.689435658120241 
0.1082241282933534 
0.5230103384551437 
0.0716922436525321 
-0.1657659514327483 
1.099624985960025 
0.49839006999188 
-1.306384596355001 
-0.4282194206884619 
-1.483703218289858 
0.6061151269698782 
-0.2103130354486725 
0.08526029733396599 
0.8375622064886463 
1.453171473465799 
1.645270446408606 
-0.6500266272687735 
0.2563262801307931 
1.009870434486744 
-0.418876883374489 
-0.1990913992295076 
0.4872151074693264 
0.09127162456161163 
0.1827613172514871 
-0.5777104035936672 
-0.3219063294412872 
-0.9635208344864605 
0.7429037222310166 
0.2998615471920976 
0.190316988629619 
0.06917344102570351 
-0.6356680396753049 
-0.6127721373602885 
-0.1192953370313867 
0.7787580384374878 
-0.3228701600022284 
-0.4242153406633863 
0.460616931596364 
-0.4294234961621446 
-0.7390553876752393 
-0.5765217937399787 
-0.5070871868620295 
-0.1257160764983794 
-0.1720687809621261 
-0.2362961332613548 
-0.4661135009490865 
-0.0002830581727431562 
1.001480854307246 
0.4196668457607289 
-0.2545174152427959 
0.01160364852503335 
-0.5020240249199416 
-0.8939652911781385 
0.2551036327237172 
-0.6001289104696449 
-0.5605723340734228 
0.1152772339006608 
0.2217828495995541 
-0.5220025348495674 
-0.9490814077737162 
-0.5322318859034844 
-0.2352592397722175 
1.608877422029804 
0.04694204238260885 
-0.7535983945030668 
-0.3280055975469666 
0.8577630130016269 
-0.2845972629116817 
0.3929215114887288 
0.0002816831745303414 
-0.06705216478714143 
1.948242221830803 
-0.3023683896328418 
0.5393848538518666 
-0.7473051567426922 
0.4969984913020599 
0.01577111236603349 
0.6681115116787746 
-0.04759990934702045 
-0.1066514022923282 
-0.07571290341820003 
-0.3065253840282118 
0.3915047970367482 
-0.01044697176110423 
-0.7008027746715413 
0.4478742525045753 
-0.5197632453808998 
-0.02278551467676219 
-0.6458080285257353 
0.5629177650154757 
-0.01102682667176305 
2.279128917114245 
0.2141949711131105 
-0.3672375861634076 
0.5057454261414027 
-0.02825910838802657 
-0.03636082957760155 
1.610423034581542 
-0.3612946870711518 
-0.5243802118499852 
0.2316723513428574 
0.3893364227773228 
-0.3622147163094264 
-0.2397488883281441 
-0.2527520264070706 
-0.8564429626963953 
-0.2441200444986408 
-0.7749792883047434 
-1.233175109778684 
-0.7059144435695682 
-0.6992152391833528 
0.2235068801670821 
-0.1831525965690197 
1.177983715152828 
0.003282462337138602 
1.033445772588448 
0.6604433784935794 
-0.08612025504782277 
-0.7537455043957788 
-0.06859803853010926 
-0.4723322729641753 
-0.5102958771336987 
0.2240481810658874 
0.5077844690357096 
0.4099854026685195 
-0.115137662224191 
0.8396054535980545 
-0.1837102603247996 
1.537290518958894 
-0.5259391058514487 
0.4849328660952437 
-0.3272149689429356 
1.289625244458525 
1.108248358443638 
0.7084896241166045 
-0.6099428374421665 
2.521070243550444 
0.07328175451007876 
-0.3278907756016497 
-0.1950086424252084 
-0.007817856332049627 
0.02297009147623044 
0.6535065774020654 
0.934814825055348 
1.620073864505139 
0.6951029324316669 
3.050863189582554 
-0.4526816537955032 
1.061065746725264 
-0.2092612050394209 
-0.1522421634345967 
-0.08708074298521593 
-0.06544607133084795 
0.02718420331793041 
-0.7552564127651368 
-0.7501091171076847 
1.729916328317004 
0.6945510508696708 
-0.09184600471223023 
0.02141012521908063 
-0.1968487258219004 
-0.8392310826250732 
-1.672661963025065 
-0.9550325095544652 
-2.115895404670797 
0.5303647480801824 
-0.6988993800948125 
0.07146364032447826 
-2.075212846086318 
0.1504442031726353 
0.5361188345393788 
0.9720504538955164 
1.2182908147434 
0.3937602390951023 
-0.8885800049695907 
0.6242377353819364 
-0.11286192620088 
-0.4970574387691262 
-0.04955423433664217 
-0.5331885327563521 
1.814869843588072 
1.013138568419759 
-1.62893945919078 
0.4216762541824123 
-0.1023232611526187 
0.0296408063695374 
0.7560881504398812 
-0.2996959439052924 
-1.137354329303835 
0.4413843080844497 
-0.2575670301879568 
-0.2744620995557534 
-0.1581712837975672 
0.523918467710803 
-0.2438701763010624 
-0.1231736430748622 
0.1268247025386103 
-0.4518982678532461 
-0.6927317318831174 
0.469763845311 
0.2153555221580574 
-0.09027723197691585 
0.1212555208193876 
0.2502717366041554 
-0.8643317140415607 
0.9615938089982459 
-0.74295108434104 
-0.2846155537543019 
-0.6189581369289494 
0.6103585284419453 
-0.1218094027789109 
1.189237255524224 
-0.04125940440999568 
0.898172705104195 
-0.3768484220663629 
0.1665668667297922 
-1.121117943549333 
-1.053364549069905 
-0.7455325907666338 
-0.1248929628712691 
-0.418036314977635 
-1.205171584969802 
-0.0297423545184201 
0.1773342118663013 
1.370739663864606 
1.790493128270356 
-0.5856319354845553 
-0.1019956795631662 
1.525256601722403 
0.294739430844762 
-0.1725135268534171 
0.6651760743520826 
1.475176480740968 
1.60499915662582 
-0.3560854862865035 
0.9673929567293889 
-0.6323474829471801 
0.1172002707803183 
0.4299312618215895 
1.888110675075677 
-0.63425091025486 
0.3807111465951681 
0.1161848265255446 
-0.05556054698867073 
1.684800541175921 
-0.2840939667105026 
-0.8300332203186153 
1.08224552921523 
-0.2917454666744631 
0.4855843667124429 
1.95331870338924 
-1.526472224724004 
-0.04391221612195607 
0.6387094574474003 
-0.2634464721028716 
1.148430646632693 
-0.08432700308957575 
-0.02161094379166231 
1.053990544619336 
-0.2782329190883372 
0.2741890229979885 
-0.3787845170653573 
0.3139425932240739 
1.151671900314484 
1.017398794162176 
0.0700140168319997 
0.03098871648169865 
-0.1349763237653624 
-0.7734767244331997 
-0.1773527980568103 
0.03705367952751796 
0.4717576251038206 
-0.3623463156548677 
-0.1924254147353668 
0.2594232348274139 
-1.277034188320548 
-0.1783978027404418 
0.3947223966641966 
-0.5055267152254428 
-0.6385864217131706 
-0.3578479243834773 
1.360131376953698 
1.879193067638827 
-0.6627845773055944 
0.4820944855951876 
-0.9123004244622046 
0.1858932997412287 
-0.9047116298526182 
1.127396620058614 
-0.001027165294449867 
0.006915675889308237 
-0.1257642403152477 
0.45788002670054 
0.730465410782148 
-0.6903027202378543 
-1.251587385165798 
0.6618150567938754 
-0.54843483471161 
0.547820465247373 
0.9209208089791687 
0.5200255756636128 
-0.7164843475296924 
-0.6238193012109939 
0.2159785172446551 
-0.05463214069979516 
-0.03867789778314951 
2.723410518038612 
0.1473403803630932 
-0.0858084173543405 
0.1025446647598015 
-1.181860626796635 
-0.551945068751741 
0.5138725067342786 
2.364345463933751 
2.256922562724961 
-1.833251890583041 
-0.1967129354884249 
-0.2107102901252058 
0.281589912834752 
-0.6137986026221106 
-1.054447118435438 
0.462716028883187 
-0.387626863355945 
1.323075513803623 
-0.9655991449576778 
-0.3619262470666318 
1.489572875287345 
-0.1824562172884377 
0.227128374202576 
-0.4346191007945325 
0.9678399716081429 
-0.5554444555711038 
-0.3641662103814077 
0.8940614866256988 
-0.3743630895539811 
-0.2653986447658033 
0.7553589094600537 
0.4191295093084682 
-0.04376091288862015 
0.326496486668171 
-0.3827887955323852 
0.6710489794638669 
-0.03127151105452243 
-0.521374764988539 
0.2725079042360242 
-1.149207951000967 
-0.04376033952984047 
-0.005059917664086883 
0.1976124772818746 
-0.3033903562208094 
0.6309683929051567 
0.5521702134356248 
-0.7981874600280209 
0.3677704354876897 
0.1912815621558527 
-0.5121082578943139 
2.298097632083924 
1.712935654073219 
-0.3685660365492671 
0.4826149858245583 
-1.60843101971427 
1.920013270829405 
0.9764376901572359 
-0.2651293196653411 
-0.347113907096622 
-0.3807625238675235 
-0.1065147820684905 
-0.9191244803106876 
-0.8676567455605048 
-0.9229322318796807 
-0.4584650805503632 
-0.4785491662189924 
-0.8816297010819344 
-0.8511333025752449 
0.02017233417180886 
0.2241147712741809 
-0.8904108215448996 
0.5168668361802121 
0.7802637352020004 
-0.1629469398345576 
-0.2228812654674597 
1.996015343620733 
-1.813002632249616 
0.738899238720202 
0.06611680314735129 
0.9231690145487472 
0.7965177716419861 
-1.027440373506341 
0.8135466945467424 
-0.8030892887241425 
-0.1342664099959403 
-0.3728349414789542 
0.1867260101162031 
0.2546489756424341 
0.3757672303772954 
-0.1145752839075426 
0.9715813656063692 
0.06545140931780771 
-0.6163791115368665 
-0.2614808704049423 
-0.3969741332090828 
0.01155514235952334 
0.5611389316707985 
0.7704096589214817 
-0.3936086156721633 
-1.144395595107041 
-0.1917881690800828 
-0.01527928538729409 
0.510568070350287 
-0.1650814684721507 
0.2197437280168199 
1.962170759393255 
-0.4562691640050175 
-0.3175258977765825 
0.4635985888248749 
1.141583862423291 
-0.8808157900600694 
-0.1561333249231004 
0.5171561438925447 
0.7324001376085689 
-0.1245035499717721 
-0.8865297453120365 
-1.623779185207929 
-0.5474525738383654 
0.08142115355954467 
-0.3113689169468919 
-0.231804938915695 
0.009940938109312649 
0.6942138225209081 
-0.5569817953974414 
-0.4285394867238352 
0.6887822722664732 
0.307089536559993 
0.5434047495142139 
0.3684492882531944 
0.1800968048344865 
-0.2707851826768899 
3.154582546068874 
0.1355885074874028 
-0.3297128110369436 
1.593945641028856 
-0.08047066968302553 
0.2654689948130827 
1.16606071399935 
-0.1761705475784016 
-0.08492822926740068 
0.7465635234064808 
0.860662398322724 
0.3006579591474025 
-0.052551900120335 
0.5877311383862844 
1.565936245767962 
-1.013046829262457 
0.8260112045303432 
0.3600188465392357 
-0.6548463881736154 
0.32883463089677 
-0.2024533643017878 
-0.5097946034475221 
-0.6573102761062202 
-0.1211296561503522 
0.6569798333944011 
-0.3182248778144381 
-0.8060801012365167 
0.2401187666783972 
-0.1019342159604437 
-0.3182516092294542 
0.09656814628695309 
0.6055249098588456 
-0.1072670367405144 
-1.013116243761725 
-0.3911642487205152 
-0.1142868089308176 
0.2246056721028992 
-0.1043921235087777 
0.1230898939576355 
3.592501812958556 
-0.3553209668302407 
-0.5520477153043265 
-0.1246052514640418 
0.5440753738602964 
0.04975288518303551 
0.2102961163510294 
0.1444038207860151 
0.1199384948801853 
2.081435916559203 
-0.5862588608849897 
1.02272460134816 
-0.9072498821869885 
1.902688444614128 
-1.438519002962105 
1.067614137060765 
-0.2589110086674867 
-0.02129313291328542 
-0.4441977898132509 
-0.2476953568299085 
-0.7627954377879856 
-0.2855695057172027 
0.1541937782917213 
-0.5326959742665676 
-0.5559351867925837 
0.7000193450120515 
0.4729243837473848 
-0.1371055469110183 
0.1348742096904529 
-0.4075838644578016 
0.3482600567784788 
0.3882502715600412 
0.330553347998377 
-0.7782511521987598 
-0.9752107094435065 
-0.7827680907723026 
0.4862726293786997 
0.7047301586548544 
0.2033395370326914 
-1.224414940885992 
1.113940499191457 
-1.026012492716458 
-0.6881673784930316 
0.9396304859630097 
0.08743071987560067 
-0.01481751651099439 
-0.5499100784780403 
-0.2715627058517557 
-0.1682286367689765 
0.7221359662782825 
0.8724912952107812 
0.6721617583600434 
0.02885493670700518 
-0.2335646551266154 
1.602855833409928 
-0.2083755167251332 
-1.001655698029326 
0.2796912081805176 
1.930448328818569 
1.365056722856414 
-0.5503409337313523 
-0.3478079875038124 
1.012767110691275 
0.2860127145122866 
1.227028917700234 
-0.1746633157557276 
-1.126978943160497 
-2.144267058565977 
-0.2770143878524545 
0.6901830310954916 
0.07630411445742029 
1.321640609634349 
0.4901107525599047 
-0.1378092011375866 
-0.5838666545826358 
-0.135482461994597 
-0.3157657469185072 
0.6467130697850098 
0.6779127542015569 
0.9729422490978795 
0.5320001193667939 
0.3286926735637356 
0.6188707183046595 
-1.571837921841784 
0.01799721162205823 
-0.02684100972710102 
-0.8298574003587204 
0.2460250910393705 
0.6562925910422035 
0.1816212031102485 
-0.2054935429739575 
-0.01164956713384942 
0.1549589355704239 
0.337669049360294 
0.04453341995736091 
-0.4736019420173824 
0.146870655986239 
-0.3833589194472668 
0.7505960275569533 
0.9444171137650088 
-0.2102852889102399 
0.08906780576434678 
-0.03075288616025703 
-0.4239850054383062 
0.7366270321388055 
0.8734289925402703 
-1.010936454631096 
-0.2394144169364809 
-0.02870102626167817 
-0.5245625676248661 
-0.5524228373184106 
-0.4966346936092193 
-0.5228755950291051 
-0.1130975117902882 
0.07329913349145049 
-0.1787397640286969 
-1.23613570734763 
-1.145677310853587 
0.06275543160816434 
0.9830736671934442 
-0.6592590426777197 
0.8786987925198402 
0.04144439352640503 
-1.961843251861919 
-0.1744951396897434 
1.147513987450467 
-0.1386215581924254 
-0.5702881471912173 
0.3083373549069254 
0.8217170310909683 
0.01767093218600452 
-0.4381030973544408 
0.006523405881016125 
-0.03951267263246786 
0.2513554095845164 
0.553753400320351 
-0.6101348278289589 
-0.7547206297727964 
1.328707686923148 
-0.1672056160073591 
-0.3112563670353615 
-0.1861971568230613 
0.910929876160437 
-0.477656298426161 
-0.5185818991179492 
-1.144305821308975 
0.07165233910972359 
0.301672548799712 
-0.01238107632216256 
0.0989272832922479 
1.269521033518586 
-0.6938749836674294 
0.7183390033284982 
0.7822879628864449 
0.2479860719495615 
-1.234559228224494 
-0.5879831356633134 
0.1790506951783659 
0.3515718549181223 
2.07723304721994 
0.5245247601394628 
-0.7283647816884412 
0.9883475310072698 
0.04681248277599838 
0.2764380536093199 
-0.55099729788397 
-1.088867244184781 
-0.5664262876901895 
-0.1285567944404342 
-0.4385391272503064 
-1.66409519699251 
-1.004921244011061 
0.6293849203128223 
-0.1685597150655813 
-0.3518096240408651 
-0.5791498395230779 
-0.5339938269988881 
0.7571869278166533 
1.320145945467373 
0.7182611425844352 
-0.6571350191631288 
-0.3819094861143907 
-0.8807036239027315 
0 
-2.138479537438956 
-0.1426758417635045 
-0.4866684184601128 
-0.2628674706310674 
-0.1512966643833957 
-0.08653717103276119 
1.328080770305019 
-0.226153919751013 
-0.5351566616160999 
-0.6258000089236653 
1.408073840242471 
0.4461544703305239 
-0.04222050092439978 
1.322576493423629 
-0.64214090603609 
0.06393408412875816 
-0.13452796096053 
0.471780749861462 
0.1798081717316574 
0.2801063415933762 
0.9634650466159379 
1.506315078123837 
0.461983704247 
-0.4796013249972791 
0.2241464167542213 
0.4380435376657982 
0.2006167820462088 
-0.3816171507058844 
-0.4153931100859151 
-0.02007858958236596 
0.5230192208058683 
1.144006031068451 
1.670848528281476 
0.5993465999919412 
-1.558370048957119 
0.7293557263388152 
-0.5741817145703305 
-1.526451708837244 
0.1273191774446074 
-0.4426204829337771 
-1.17316283750473 
-0.3302467002728251 
0.523498050383433 
-0.6195753332430405 
-0.5260062896563457 
-0.4710848673824948 
-0.1490801308150157 
-0.6286558830182832 
-0.8913724799998406 
-2.965473745045028 
-0.4889749407149934 
-0.423684264021979 
1.685854668390759 
0.1467046403333469 
-0.6254058783086263 
1.920991692008206 
3.435610203518906 
0.2625519629157171 
-0.01370321492079137 
-0.6443334297973422 
0.3846404478734163 
-0.8757512472119259 
0.4350328836899097 
0.9098027513351737 
0.7416174172060255 
-0.2933762544713247 
0.989903234065629 
0.2668883615315339 
1.591561989312096 
-0.5075038764513379 
0.4119042178150235 
1.308565627772655 
-0.1039417756181389 
0.1558228979261621 
-0.2375551820917411 
-0.1298910827342916 
0.4401284679067973 
1.637770620974695 
-0.2620573507035438 
0.5280643747307291 
0.3666550122822912 
-0.8026941283082816 
-0.1538031723590212 
-0.03734287041418755 
-0.910447085530811 
-0.4217256463797249 
2.107689787788984 
0.5573198637203139 
0.6552877014004727 
-0.7144087448145089 
0.3328430250642093 
-0.147913245103316 
-0.3335863153932345 
-0.5329107276563015 
-0.2745507035104303 
0.08418849918202446 
-0.05095041518052417 
-0.7648919806492278 
0.07330099494864234 
-1.259458948853305 
0.292403048979203 
-0.3341207298587138 
-0.02875735445517728 
-0.4998665346076443 
0.2375612482486911 
-0.660394778086191 
-0.5562038390945578 
-0.6579104869485692 
-0.08372188166522186 
-0.008097478279698455 
-0.676213619243098 
0.3700669143342404 
0.4280379795365896 
0.2178503504273325 
0.6418599077315058 
-0.01493958880676664 
1.79337218743234 
0.06362985122742586 
0.07065303921678198 
-0.4264568988839097 
0.4284108736855116 
-0.02439095202273603 
0.2846298500848662 
-1.253087831721738 
0.1715881249564475 
-0.08943666344879485 
-0.3497967316263711 
0.1655123779207466 
-0.176279834965273 
-0.8344647052333791 
-0.01668146464301917 
-0.1319660058108461 
-0.02315325230105783 
-0.3157895835412721 
0.9823824831630968 
-1.408421197791849 
0.2294629315299079 
-0.9443897463794624 
0.5169569067070469 
1.773837728580016 
-0.6742850730530653 
0.3804684413678862 
0.4291277857610307 
0.204510355536075 
-0.8554785775923767 
1.811155945213903 
-0.3759605716573101 
0.1695373048176972 
-0.6431085093094875 
-0.2997430727420539 
-0.004610742299807359 
-0.06900270408583151 
-0.1228896370934148 
-2.166659312827697 
0.09050473334679815 
-0.1263282055006345 
0.03382009126480082 
0.1680657133065586 
1.453763895902792 
0.5461265389009599 
-1.866842421087129 
-0.2234870091777451 
0.3315341129182838 
-0.09359731435835494 
-0.145706709058887 
-0.07724466378504989 
0.5825680687592173 
-1.250408360296145 
-0.173657608907387 
0.8388693546073683 
-0.1328799138906443 
-0.6416957367763212 
-0.4247210886992054 
0.3019148865972393 
-0.8733589836563876 
1.074710357156374 
0.2929220653657851 
-0.09017907549811052 
-0.1002461172754713 
-1.130275234245294 
-0.3243676978522904 
-0.4863095075534431 
0.63230866998886 
-0.2818604568782843 
-1.373455557737476 
0.2036232676384692 
-0.2157634740953451 
0.6852422660425266 
-1.282003313554349 
-0.6328929359826061 
0.6032379068912596 
-1.248687048364785 
-0.5616828587013938 
0.6168221537563204 
-0.4924568416801898 
-0.05539103976308447 
-0.3036063268685836 
0.3015947970670608 
-0.09524566941147962 
-0.2375054753412187 
-1.141054041657447 
-0.4220683961904405 
-0.7845217691229881 
0.1337355559102286 
0.03141263780468553 
-0.1481137114024162 
0.2984800052181879 
0.3982874688553535 
1.465613471549366 
1.622392016812107 
-0.3146794611438949 
-0.4998611076905542 
1.322495648064149 
0.2256715117876227 
0.5549950737546181 
-0.7817827805754438 
-0.3062148288157842 
-0.5365750426568091 
0.4397382278362016 
0.5428132915971887 
-0.1695659003085654 
-0.1736423402100429 
-0.02540228136764446 
0.6050662109401906 
0.6842486692128011 
0.5033813355270543 
-0.2784203889223414 
-0.289819358515598 
-2.255140518769849e-17 
-0.3138870347256892 
-0.8927397358941834 
1.419250031711667 
-0.0240908299934863 
-0.5333541778847134 
0.7693221728186863 
0.5581823549476578 
0.4373594137082543 
-0.7124401094641806 
0.1379160176167108 
0.05693722088952681 
-0.1658123672028028 
-0.5998335265447098 
-0.0798653485064633 
1.170204937087538 
0.2519661243635715 
-0.4595663018280004 
-1.075852511692409 
0.7885563004293134 
0.06101738560566119 
-0.6134500820654331 
-0.4860218455733065 
0.7299316141502377 
0.06642633471468443 
0.176013110911958 
0.1155268746314686 
0.04538827516623266 
-0.08701640380911756 
-0.6955383836714373 
-0.5901993380736489 
-0.1725213458853618 
-0.6662654977378326 
-0.448628229935583 
-0.2541066812125802 
0.01780240435124548 
0.4465491229152324 
-0.5933871761231208 
-0.2062593284881976 
-0.406562880372128 
0.290373671257756 
-0.2130354849793285 
-0.2430732038134178 
-1.206856715740177 
0.5684458788414861 
-0.7427388972144848 
-0.6628826312733195 
0.8017849602371719 
1.140022356040244 
-1.08610465261697 
-0.02396811981155719 
0.5684571247699753 
0.8610325814305931 
0.5777544145325858 
-0.7867446274221553 
0.308292991476572 
0.592576692342616 
-0.0458762381701787 
0.2807037040231325 
-0.2830783917156093 
0.8935753112463521 
1.017025027177955 
0.6071994654625087 
0.0389438527597666 
-0.3924867634056756 
-0.350988009097416 
0.1401875566962483 
0.9146127450444701 
1.044480734177946 
-0.7757717083193542 
0.09277192010404041 
-1.122669182048529 
-0.2894910928087 
-0.1897550954388926 
0.8888305995100971 
-0.0724382989650758 
0.1751349775154552 
0.01167387538478448 
-0.2350534256115627 
0.5055076946387624 
0.2052954508853868 
0.748933071982533 
-0.02603891625062013 
-0.6739713603575166 
-0.2017939433074737 
-1.227164958409938 
-0.05757685673595282 
0.7026590866858455 
0.714194217890823 
0.3151490260666188 
-0.7989089938848907 
-1.023412742136429 
0.02277683279051943 
-0.7452392874429183 
-0.6398334701797456 
0.2208673975714817 
0.3276805153425716 
0.4214693344773194 
0.845491473437445 
0.4773244602336618 
1.056467758421239 
0.4747799390794494 
-0.2882321873920837 
0.1288487330838867 
-0.0699636198912825 
-0.7954197620319814 
-0.6407531040059598 
0.8578133405698845 
0.1738339046067424 
0.3948549556674939 
1.076074244539294 
0.337652060076713 
-0.4476467218599504 
0.8323186424419838 
-0.6678758187117979 
0.8190091883531789 
-0.1268368672710711 
0.3170176450943996 
-0.1789301011336574 
-1.291787423256558 
-0.2434723513939398 
0.2148334381692463 
0.1799633277376189 
-1.405163674671778 
-0.429174547241872 
-0.7994094607865091 
-0.2099840298732506 
0.5044528196089857 
-0.1213110138601915 
-1.518821177135434 
1.082914123850885 
-0.1466706407982686 
-0.151869963436258 
-0.1189295040521462 
0.381732983259621 
0.01101587892700102 
0.3062313234212576 
-0.1036920681478842 
0.1373701328719825 
-0.2020862115387462 
0.4475796718320773 
0.373085315870566 
0.07161459878482106 
-0.974294280722977 
-0.5648069241993973 
0.003883976276487025 
-0.2841386449231982 
0.7157406923255064 
0.8390297680590505 
-0.4776492646306904 
0.02131106383980441 
0.5164757577972395 
-0.3988890902141058 
1.159059353696341 
0.2244773170200547 
-0.1619593410375947 
-0.67585363857586 
0.07681650800203743 
0.6713271835159957 
-0.253407651453054 
0.08626789438732821 
1.478208689460444 
0.1469487582240272 
0.2114008285969905 
-0.8127136397130158 
-0.2191440017801238 
0.4224397525836784 
-0.1550602923333655 
-0.4994303051804427 
0.0606256966187109 
1.288457090717451 
0.1260485056416782 
0.9566069184878072 
-0.992416561104292 
-0.04257835373427275 
-0.04804365815164472 
-0.02542211674784052 
2.976868594941118 
-0.5260600708352959 
1.317169693238278 
0.08066449249147283 
0.6147976145347142 
0.4923266927700669 
-0.3843401767450241 
-0.09892724048555492 
0.6441834576734264 
-0.2132660139402815 
-1.147301086104158 
0.7785328018031594 
1.37230513298218 
-0.5305719709258171 
-0.6180618222990566 
0.2866259929837072 
-0.7876446839279601 
-0.1695478964837925 
-0.3779010700074319 
0.06668371087387398 
0.9853645549300927 
-0.5901486929082228 
-0.5046393112150026 
-0.1493528928643015 
-1.181336139043033 
-0.2777303385858494 
-0.4132145611165873 
1.461236612441357 
0.1165200096035359 
-0.1419567732456613 
1.206512406126808 
-0.2507179243121879 
0.7087393869220548 
-1.235649848506726 
-0.1602423398015278 
0.1720582624358483 
0.56880085073109 
-0.2058813855891009 
0.1705281115018437 
1.563882943915062 
-0.02177952244889354 
-0.3471381151559171 
-0.2683621912359948 
-0.0897112449044814 
0.2554421396916171 
0.5523080622561499 
0.2942696173481859 
-0.164501798763437 
-0.123675473370738 
0.1505555470498565 
0.03662867667319319 
-0.670378455436951 
-0.625798084780089 
-0.1543616422502605 
0.2765222359463407 
0.1870308959447702 
0.1557716477957389 
0.4713483585069084 
0.2515444041808241 
-0.02096974984216936 
-0.4635661333926042 
0.8117968812710589 
-1.820923545870999 
-0.4040882563137643 
-0.3657784264599604 
-1.488773517083747 
0.1719503960947324 
-0.2880087879144333 
-0.3190236496086052 
-0.2318644210386651 
0.5912288769471823 
0.07035433933613849 
0.820809462692069 
-0.4169302715193627 
-1.398375469817382 
0.9875676018079222 
-0.2094200112023855 
0.3412710109713327 
0.02548099311600121 
1.037214519854164 
0.5094759688675045 
-0.3235118060532334 
-0.2841136627403288 
-2.34137532901832 
-0.1892054531530374 
0.08353860790568711 
0.393241940678425 
-0.6306980464377898 
-0.4824848131457952 
0.8525285084562871 
-0.4297742369344141 
0.3209335981778123 
-0.6040263006229967 
1.271980011746593 
0.1564878702856178 
-0.6563131764456068 
-0.06657907308977737 
1.729774083916908 
-0.4203812384531711 
0.582521135638695 
0.05148081956210877 
-0.2412161389880463 
-0.2223529557506126 
0.9019982769490822 
-0.2076116879554077 
0.7657564719029457 
0.4610227027981683 
-1.619273418750653 
-1.405970537904915 
0.03311274400465788 
-0.4346073137718593 
0.7131872819196426 
-0.5187986294416058 
-0.7818921413445306 
0.1526930212906654 
-0.05289013147849431 
0.5294232908799049 
0.3438422008025563 
0.9736979231906263 
-0.6030101303643703 
-0.7491285073531456 
-0.1107558079658148 
0.1145198357317175 
0.3442630204608738 
0.8590586932100139 
-0.7711089542941256 
1.046195026780189 
-0.4767821698648666 
-0.09501258262230007 
0.7491427446276228 
0.4054544875938326 
1.607483577656526 
-0.1430630263154102 
0.410071409285485 
-0.2530502184443338 
1.038013165257923 
-1.038308758246612 
-0.7881142923855206 
0.3773876431197554 
1.21656366809087 
-0.003850886654253251 
0.2924449535586186 
0.944505249027389 
-0.02363736652837157 
-0.4061917185083808 
1.016229889972491 
-0.4535470901312031 
0.07729255943546667 
-0.2190583023994545 
1.489998397295812 
-0.5268021784214006 
-1.028832239971373 
0.7619159816494563 
0.05945964628937214 
0.7327615383438022 
-0.4040594424073862 
0.01365634030507364 
0.6594034288479124 
-0.1785093355964151 
-0.02530613751981184 
-0.8787026558500668 
0.2043419373419532 
-0.414056535920682 
0.4457193485626993 
-0.4524243977236719 
-0.01458634260231176 
0.2720685820892972 
-0.7150681136287472 
-1.428824470778054 
1.256542260854402 
-0.04169112326674849 
1.302171965737978 
-0.6565474778174597 
-0.6684944875611023 
0.05205578947148831 
-0.5450885014682717 
-2.439454888092385e-18 
0.871533781832308 
0.8057399087820728 
-0.2426792448796215 
-0.7372369433775018 
0.80368575585638 
0.8318425848866324 
-0.2480120325463437 
1.104597772232405 
0.02576612279062903 
-0.7432644535597621 
0.5952651291933441 
-0.4748397634983649 
0.9658205092908316 
-0.2496146402284112 
-0.9745580626073148 
-0.9175800532229097 
-0.05381625763145193 
0.3160855225176444 
1.90257490808497 
-0.1811114954802852 
-0.3777191893742637 
0.8317824421794952 
1.047395765865043 
-0.4232378065700607 
0.66398838050008 
0.9101700939040074 
1.220991611576266 
-0.5362121680243638 
1.125395177713931 
0.7573523095431097 
-0.1317876749865291 
0.1958413789801189 
0.2918638013162875 
-0.1611820786080871 
1.355536806347873 
0.6811250410659155 
-0.6840105685290594 
0.1041319198921078 
0.9769903458487105 
-0.3546983510307399 
-0.4200899186970482 
-0.201511584591947 
0.3890447932628448 
0.2987747032810788 
0.514513541487941 
0.4898259804125336 
0.9758623821780843 
-0.1337758485006078 
0.921441465752424 
-0.1435722061307283 
0.09685831625329588 
0.410463453102408 
-0.2361912374992018 
-0.7196119224578411 
-0.3555127774047371 
-0.1164676912099601 
-0.3003883928759344 
0.3097077042413956 
0.9209134713104699 
2.34205248845832 
-0.6842686058477117 
0.5174219994420249 
0.1342018690348133 
0.3065738160842409 
0.2241965878860389 
0.3354825488607283 
-0.1732696035883951 
-0.1050079960988114 
0.06884284747758616 
-0.01763673869576009 
0.1207828668051879 
-0.1140324318569892 
-0.1445547376285451 
1.10986466270636 
0.8384228558953442 
0.8078410157123659 
-0.4594890462676892 
1.179685829122347 
-0.1323712299107531 
-0.3071790530757938 
-0.5933331207291433 
-0.2118613361597569 
-0.8901109794092018 
-0.4598540661212554 
0.3866812323605208 
-0.136029502597617 
0.8504843891932474 
-0.1190728225398394 
0.7790299481297687 
0.5396863371789599 
-0.2064069577359996 
-0.1634848670702784 
0.7823896742767654 
-0.8569080719730007 
0.6635654762754427 
-0.1978211237394935 
0.1551424706955045 
-0.214174773276795 
-0.314979816855774 
0.3808965221832086 
1.738216599516744 
0.07910115676291986 
-0.5570728185042066 
0.2476514668042888 
0.5617883762449062 
0.3200381761915547 
-0.9832121492822077 
0.3717987446395922 
-0.5079369255977978 
0.2437461762532919 
-1.094067539956477 
-0.6985678451751938 
-0.9234183944357808 
8.131516293641283e-20 
0.5122471862483787 
0.08812525790625247 
-0.02311136257097763 
0.9984608015076807 
-0.4486094191627991 
-1.188538287738486 
-0.1622643494021802 
-0.07758021290675084 
-0.8486833937667478 
0.3007645124473325 
0.552739262211164 
0.0312618571275463 
-0.04469615887542266 
0.5670098000553875 
0.7519270504534772 
-0.2976826691724949 
-0.1405812869204371 
-0.2531994910186223 
-0.003781931713159058 
0.7264739086228946 
-0.2451209207167191 
-0.02060362343585657 
-0.3644939973572712 
-2.067955080570336 
1.084202172485504e-18 
-0.07939640941452396 
-0.8366840968111641 
0.1676796292658697 
0.4321710639178749 
0.9784502636134073 
0.2677774092361678 
-0.01270655736805764 
0.03259952989137989 
-0.1231096976875756 
-0.4009068158441889 
-0.2050789065869437 
-0.06530758086326846 
0.2543492156304702 
1.7997990902039 
-0.2577419115796487 
0.02076896066619387 
1.123352507799377 
0.4316427540020528 
0.1310092723116622 
-1.308815066601137 
-1.124148456927071 
0.3817027856417652 
0.3779843167090448 
0.1246033704740212 
0.4667926114200938 
-0.8422455177711721 
0.3322005014896918 
-0.1106099948972852 
0.1691973532012657 
-0.2421326618667078 
0.5329171475376979 
-0.6145190711953764 
0.04959712083430888 
0.2847852819116244 
-1.103896276566474 
-0.3175619135476351 
-0.1246990458582629 
0.004078235826977517 
-0.7034750128081551 
0.5079614802110782 
-0.2448729328948278 
0.07013258013447533 
1.384212343267907 
-0.585180869599334 
0.5604468350955834 
0.8924656449117089 
-0.8294099623654282 
-0.336510785043364 
0.8131644956001467 
0.3359051541523488 
-0.6809117746840301 
0.605872655791006 
-0.0716440754715934 
-0.2215587398406143 
-0.5193774389819931 
-0.8385339303125253 
0.1080307114858858 
-0.8817512735105502 
-1.109691021609335 
-0.260175914259795 
1.80483183677192 
0.8185686734986036 
0.8741893850297039 
0.2458853766259134 
-0.8156908348520153 
-0.2272030157522193 
0.2236106873535522 
-0.08128588074081565 
0.1500268690670871 
0.8743993493894797 
-0.2643856994584379 
-0.5352125134589566 
-0.3418954667007734 
-0.3957982454416576 
-0.07413120350891932 
0.7336696112623404 
0.7869616509811792 
-1.369053530273783 
-0.4339200143642212 
-0.2890401115146309 
-0.2693159572686149 
0.08269576963389856 
0.1805528983747856 
0.151484356436245 
0.1896239643306638 
-0.2730878440698704 
0.1032154150848891 
1.393602430696185 
-1.117124219231657 
-0.4390864753019206 
0.02607179345049053 
0.1144065429841276 
1.222744866204074 
-0.003581664700480326 
0.9646214584243834 
0.6940748014297167 
0.6889954867889222 
-0.1333793752284687 
-0.163051961797635 
0.7102814172216763 
0.5749613638352785 
0.3911645048907617 
0.3055218781998954 
0.2901025751245174 
-0.2723219009639656 
0.5840054486766311 
-0.0884894191814211 
-0.1532741892332459 
-0.558375951307491 
-0.7559443713056552 
-0.258745546386189 
0.7566973861682237 
-0.8341465928558779 
-0.3705549477052503 
-1.504843049878868 
-0.4154862569757929 
0.05634031452814636 
-0.4034647500726764 
-0.2953271130838757 
-0.6925161372307115 
-0.1492185474753996 
0.2527214263925558 
0.1045836407556628 
0.7560251679380868 
0.5872180683054967 
0.6740608854758275 
-0.7033835391266248 
-0.04940405242628706 
0.7043078723802223 
-0.4437908860592969 
0.7280856555261438 
0.2989438476452296 
0.6172409595493747 
0.1432164001537331 
-0.2932250009885879 
0.7996005488354757 
-0.09471937608237477 
1.16953708030281 
-1.019344286041251 
1.105800332255229 
-0.1214916838549816 
0.1823995588691424 
-0.2551493131954662 
-0.03153012687173014 
-0.02713200620365868 
-0.3199859898055068 
-0.6539164629798594 
-0.01333143386691175 
0.9336601013119589 
-0.1936300599835519 
-0.05751151087500381 
0.2383566478921497 
-0.1911996988416227 
-0.0990722763869851 
-0.4195879612628387 
0.4436348501702678 
0.9029355962112494 
-0.8677822750324017 
0.8836626198173863 
-0.8515694316330072 
0.4280786872509987 
-0.9271322446441385 
-0.5975851598634575 
0.4045771553869609 
0.4519499946362058 
2.825750271052747 
-0.049001997312536 
0.2726221485122078 
-0.5026786019633068 
0.7866984105609044 
-0.08351488899277508 
-0.6215216246292568 
0.2735408356378585 
-0.677253961495028 
-1.09371312848999 
0.4496152972782994 
-0.06423216554384767 
-0.5932907993873614 
-0.2235040553817375 
-0.7873674100175689 
0.1161743282840269 
0 
-0.01984798807225659 
-0.1547520220985713 
-0.038300858704623 
-0.03557523683002871 
-0.628647631615359 
0.05952956150557853 
0.08012653609776181 
-0.5320558446265069 
-0.4104795985622109 
0.5221996339066772 
-0.2891715467140986 
-0.8204062991114046 
-0.4714181116301906 
-0.04883908228129778 
0.9519028648957962 
0.1261715478955593 
1.15741495924314 
-0.08064610063217308 
-0.2148897582257807 
0.08362638850890451 
1.205536922511624 
-0.3296374741512664 
0.1355448671803652 
0.9791970645579752 
-1.384037830615297 
0.001753057427498367 
-0.4503720410266346 
1.5162185073569 
-0.7594831927498843 
-0.04752855992186038 
-0.1613597785884412 
0.6352603508434191 
-0.7981941250709097 
0.1077621479910083 
-1.1002355848308 
0.2804657701546245 
1.345061847034492 
0.000708550675423902 
1.010547874524518 
1.231311091596909 
1.159131115900952 
-1.035077659900206 
-0.5143541996417857 
-0.0972796676426452 
1.036640123172274 
0.6661178566838779 
-0.812044926556459 
0.08244455813689719 
-0.1316450228493346 
0.2659077425090353 
0.1813498950002196 
-0.00322470600496611 
0.1118109227594887 
-0.4107108188588672 
-0.04526765304817498 
-0.3053041944240697 
-0.1494630097306661 
0.5531617896545347 
-0.2056245778114808 
-0.6139854648749739 
0.7924303337222018 
0.07764682369348017 
-0.1777460752424216 
-1.741053130678141 
-0.07136364752887134 
-0.5644249821295855 
0 
0.1502029690272672 
-0.3437067921499745 
0.3409230158395171 
-0.1755189991823057 
0.009798943724418772 
0.2261704774905921 
0.4618773683503742 
-0.5899400030484819 
2.736320883708028 
-0.7897169546839277 
-0.5322370412754237 
0.166866251617754 
-0.6125318842915716 
0.3130463353265633 
0.1727486710414382 
0.1228237578404472 
-0.4979727765492458 
0.01229701417369019 
0.7345165133317709 
0.8860378800040115 
-0.03039590883627902 
0.9683132996734595 
-0.08343908486323957 
0.6851203058098431 
-0.03656492136171598 
0.5027922772199941 
-0.3546048293168192 
-0.4439724211910574 
-0.2432290928733502 
0.3117704536508681 
-0.006100926275997441 
0.2447163105627229 
-0.182944880659339 
-0.2562609257748776 
-0.57010945737368 
0.1149524785913178 
0.09178368772053143 
0.5223561087904696 
0.3260223780232741 
-0.1725107719300171 
-0.5946083631101866 
0.01961078783820822 
-0.3067367231382649 
0.1879862218696098 
0.3472228321851986 
0.03147420683036211 
0.05038340290785177 
-0.09614218481409208 
0.522307218436467 
0.1499819876127881 
0.2400292368133833 
1.03023196143722 
1.377312888881001 
-0.1101012128092677 
0.3144452292121579 
-0.06263609943231507 
-0.9041591885648158 
0.2284191964733664 
1.397730183531336 
0.2479144966954269 
-0.3323075274305077 
-0.08965419943605255 
0.128652152725458 
0.2963493490676429 
-0.2749724338519626 
0.9847339400098756 
0.6718358111521842 
0.485236669121511 
0.1506391449573668 
0.6399569605678477 
0.3301030252635324 
0.1330639792549351 
0.04250268114499654 
0.6441196445531714 
0.5341915258511869 
1.448150885440232 
0.742524532024291 
0.2883748277676985 
0.5227058723943349 
-0.1403312806634491 
-1.550823708434289 
-0.2591547744624172 
-0.1951335216897082 
0.9374016750772149 
0.1799341158035019 
0.2325851697690745 
-0.8952431166922377 
0.1414507788303514 
-0.5443852984684128 
-0.003362013293211243 
-0.05144776092116367 
-0.08708539926679527 
-0.5903719082418384 
0.3451326185334192 
0.5884482835025078 
-0.35697686146272 
-0.1471609839008436 
-0.07937001777446265 
0.1747113746346423 
-0.2165397018517826 
0.1177099269030949 
-0.354978432840363 
0.7010611547402976 
-0.1335151224908487 
0.1030400248169254 
0.02788885683012553 
-0.3899534986203719 
0.3168078665386426 
-0.1389467497189046 
0.6405908004138225 
0.9349973933512238 
0.3921419492422822 
0.4350265058111182 
-0.619617000183687 
-0.1473995060190627 
-0.899447513232902 
2.107288756488257 
1.217312204739127 
-0.4805438521343788 
0.6516411305570365 
-0.2708255026671647 
1.132472820455799 
1.366178474456426 
-0.8054231100015687 
0.4534736542351374 
0.2148103514869162 
-0.6069427782028016 
0.3763213998792105 
-0.1506225334829426 
0.005210830687700913 
1.035416061636428 
0.09762875709826724 
-0.3294716384492104 
0.5237751476905165 
-0.2127146441359105 
0.002079549889688045 
0.1773249670434179 
0.04151882809784695 
0.5602971075073938 
-0.2513724404446901 
-0.0008425246912856407 
0.7639020563110565 
-0.0927793086786803 
0.7468413968490957 
-0.01704103358222488 
-0.2541902701313596 
-0.1262986711717918 
0.1728719149830965 
-0.6047579175737375 
0.7402731299827937 
0.7375310334128031 
-0.03611471910592465 
-0.4836788193405447 
-0.1967542644121017 
-0.6814351999287375 
0.4384700925214323 
0.5309276987402722 
0.7062976154218487 
0.06053829309913203 
-0.3598932354994074 
0.7430563470097957 
0.4669457065340354 
-0.03127726931963809 
-0.05492085664892944 
0.1766444012202415 
-0.4704438174215282 
-0.3969043186922787 
0.7208941739318505 
0.2017230220750657 
-0.3708795396325703 
0.8487727984306017 
-0.1150716052767084 
-0.2435350662339178 
-0.7464754657405458 
0.8905311557267559 
0.763553135372154 
0.1708133734302712 
1.646843741201101 
0.003525376776089061 
-0.2627849066040797 
0.4085939125530791 
0.08599984701255167 
-0.5028489934094513 
0.9080668576259799 
0.1485180379862317 
-0.09025538555629951 
-0.2296032892157288 
-0.5231090147379042 
0.3610384218541448 
-1.416246380824154 
-0.4985746248883054 
0.4378249816643594 
0.3750677913079187 
-0.588031069520612 
0.08172086905514173 
-0.01825283142218697 
-0.3113612453500994 
0.885308058813265 
-0.7238991988552965 
-0.5145515014381687 
-0.8020685244382739 
-0.2670526299514657 
-0.1235798950062492 
-0.559501419467719 
-0.5674411619318879 
0 
-0.07326986397494531 
-0.05403452670708454 
2.109104207234348 
-1.374135138882631 
0.4704950184957358 
0.6879057173678859 
-0.02897593472118691 
-0.5203388925818867 
-0.362126716012574 
-0.3060076739341855 
-0.2004805293497568 
0.2808210681896617 
-0.3479119301410607 
0.4646795905566831 
0.09490234699362618 
1.171253777005728 
-0.6008772087983291 
-0.1433924774844585 
0.5816964108605244 
0.8887449214872936 
-0.1844896610233591 
-0.5678862586670604 
-2.059984127722458e-18 
-0.586050825659409 
0.9060807191379807 
-0.5880985782147103 
0.7504828492861024 
-0.678703609465278 
0.5198931588088817 
0.04842718590532895 
0.2477780281537456 
-0.1008045634483269 
-0.4285960010802073 
1.546945279158597 
0.5440422370833781 
-0.6212732140363766 
0.09965621738605857 
-0.05402001539361356 
0.7775027578293315 
-1.312922443375104 
1.867874053450913 
0.09848844788870076 
-0.1961332670081488 
1.642018167838786 
-0.2146383777907031 
-0.6236060618014454 
0.3865492618198633 
-1.243130374122747 
0.007661619780786979 
0.2560896582563958 
-0.03611808379938328 
0 
-0.07410773024153722 
-0.3047135266947922 
-0.5899324074920724 
0.1286412173966655 
0.5486746457157937 
-0.2733771401595411 
-0.6491310868992433 
1.716089226799127 
-0.573994515298291 
0.2610179754355136 
0.349482975524483 
-0.007167693065192843 
-0.8796175121206511 
-0.8953167972167855 
0.6069706157070321 
0.7099372021647647 
-0.03928910690735925 
-0.211668314349502 
0.1860595527197813 
0.7205177372528292 
-0.3899543804564262 
-0.09112175245949632 
0.682516088042722 
1.010939651162368 
-0.674566781182974 
-0.2075356066529834 
-0.04205968119675247 
-0.9543977904673148 
-0.8277271828833002 
0 
-1.452363768211696 
0.122403779870939 
1.14044054060557 
-1.363640435680066 
-0.01537660787730176 
1.122022752649765 
-0.09641316188155037 
0.0223937175081641 
0.4091654480824005 
0.0275061541575398 
-0.09704328178102152 
-0.9628873165152779 
-0.8546953770592064 
-1.315200404186048 
0.08368579497896719 
0 
0.7940242303886805 
1.322739780331047 
1.08012080486152 
1.869907561372051 
-0.3272850999444185 
0.8826140504434078 
0.1031070966327498 
0.3708106700786461 
0.5063882586926129 
-0.6248223084567304 
0.5336703862151866 
0.5975447501366857 
-0.4049133798713927 
-0.1473458261548685 
0.4679176441211501 
2.049272876892828 
2.266524516792634 
-0.2419133817729672 
-0.107183950080835 
0.8531034223873966 
-0.5345425410147028 
0.5475149732764961 
0.1155304223828883 
2.088320391966979 
-0.5551619389925518 
0.05342182832466359 
0.1073760138562384 
0.3532399219912271 
-0.01259937703122981 
-0.03218897380188742 
0.1160861699757859 
0.3990132117713339 
-0.4123354909180474 
0.7988930237854354 
-0.1261520160544702 
-1.042978011823953 
0.04767747023458865 
-0.2518855544226516 
0.7690180761293156 
-0.761563209552764 
0.6147672532780443 
0.5573283197086355 
-1.90848086365535 
0.4964603836869406 
-0.03325639094657994 
-0.0480322343331038 
-0.2123506411357542 
0.2416579426815975 
-0.2030689925272979 
-0.04449907232963395 
0.1529976602189427 
0.7355816933080939 
0.981352348996022 
0.4943307536904993 
1.127432928251648 
-1.207973351685778 
-0.1841439503326855 
1.063360154026792 
0.4831522975166768 
-0.3691721432607835 
-0.0001816724847415039 
0.8835254717363588 
0.37105974985853 
0.6369096131204199 
1.010005341123341 
0.1535453650193587 
-0.1678945642520261 
-0.4459610995965134 
0.1917821390133915 
-0.1797384612423326 
0 
0.07415872519176206 
0.1251553678240469 
0.2851610008884827 
1.476127673252697 
0.02313325717807609 
0 
0.8683472530057517 
0.2247503845470776 
0.06635285520113564 
-0.05672071378120885 
-0.1975264648924442 
-0.001858128632237783 
0.4034194338604062 
-1.163542981528487 
0.8212601707278667 
0.7339645842715752 
0.272172893789751 
-0.4168782164719557 
-0.1870669233134988 
0.1062172531473605 
0.0377843272572953 
0.8915887235216011 
-0.07271629952209568 
0.051085635669213 
0.07161667489166852 
-0.1175029678845356 
0.5297554535298334 
0.0559644040178009 
0.4623507032458951 
0.100100631284887 
-0.7846450722568745 
0.05717202455512427 
0.2875121137762653 
-0.04459693347960147 
0.1825960567877077 
-0.002727468867081506 
0.5165163968914493 
0.2481161898594869 
-0.4124888544162489 
0 
-0.07305662353001631 
-0.1100430305533131 
-0.3003077084805599 
0.2875600318203149 
-0.00920320308842106 
0.5461597576394076 
-1.267295136723333 
0.6996719265683298 
0.1038405368691946 
-0.07219611772125208 
0.1189389720200933 
-0.2494017187541639 
-0.02166075679089036 
-0.2919612555581421 
0.07584109023235418 
0.004445090562655712 
-0.287109496117075 
-0.30730296573121 
-0.03574203764632462 
0.7817761336073935 
-0.01756160208353604 
-0.01296394002146185 
1.35586757596602 
0.3365638017731732 
-0.0764624742326724 
0.5307024687000759 
0.8532249257791362 
0.1385547694410412 
0.03388313455249172 
0.5779079908357027 
-0.6141038321578755 
-0.1215023315037673 
0.1806605177703357 
-0.1874972773441944 
-0.0210954689491138 
-0.1642106270051221 
0.5355205810209752 
0.845761199402321 
0.4157018320068108 
-0.4709179910607484 
-1.999347921402232 
-0.0545762953226374 
-0.6660595755264782 
-0.06180650532297275 
-0.5404706021716927 
-0.6660055779524794 
-0.03354244074030207 
-0.9054599545479992 
-0.1881884090104268 
-0.2592398049345364 
0.2989024586996459 
0.7752397715284292 
-0.7493230378785944 
-0.8849236681124225 
0.7744314190096451 
0.3418609670469414 
-0.7450434170443216 
0.1462171715983045 
0.03106258791235702 
-0.459096694025432 
0.295841411308052 
-0.5988219527944643 
-0.3679808454030528 
0.9427761931867168 
-0.5602521173294862 
-0.3832274151445349 
0.1749624110840138 
-0.1312258515615502 
0.06326324385979146 
0.2587496602889822 
-0.9097203756365693 
-0.9450773434326715 
0.144968475014148 
-0.3176505575811157 
-0.1147260397227474 
0.2688018527329389 
0.1482533563713234 
-0.1543767385304134 
-8.673617379884035e-19 
0.1481833505940751 
0.2705329042084752 
0.09909438840197557 
0.1970492763855901 
0.7875206548202659 
0.2947905782653327 
0.4059923525396004 
0.7963672848817224 
0.2454125124662547 
0.4354129868858456 
-1.531835658901636 
-0.3101286968611236 
0.05307229708870602 
0.3053438035855354 
-0.03002804957515228 
-0.2223948567513075 
0.06028739771063844 
0 
-0.0977377485611922 
0.3551376231043147 
-0.598622609410968 
1.45622479083568 
-0.3235198931678462 
1.023696896992936 
-0.3691770422140277 
1.227289867405481 
-0.006060731376449456 
0.2712931713576889 
0.8180648629349347 
-0.1739125214145989 
-0.1975167092825104 
-0.1952236272210685 
-0.0462751416524203 
-0.03569219872666764 
1.053626931967604 
0.7701928497566617 
0.4966215381140717 
-4.336808689942018e-19 
0.3341893037576392 
0.2881537786947345 
0.4135869695438736 
-0.3868815159954138 
0.6641517790424762 
-0.389708577773218 
-0.6009490309123996 
0 
-0.03228284574299266 
0.3369265592647044 
0.08053073486945148 
-1.271241179354977 
-0.7296864073121074 
-1.094925836584664 
0.0171175803542951 
-0.03798394775874198 
0.1095822291871157 
-0.06445772627759085 
0.6366153038101807 
0.7899052107148219 
0.4331410363439869 
0.05231335497664668 
0.6540783077577714 
-0.05598631269760538 
-0.01718455498302975 
-0.02183285210031882 
-0.8493288580177172 
-0.4231411387033036 
-1.547182758819978 
0.4918509726677202 
-0.1005012380473075 
0.3327673847126735 
0.4931582759774044 
-1.010419604236798 
-0.4809057075980415 
0.434621205834106 
0.08371251466810369 
0.2847789492001445 
-0.3713076920792747 
-0.09932897484605349 
-0.5718519215162767 
-1.647555768176475 
0.5094150925061081 
0.01309958104258395 
1.180001919851678 
1.313300055093632 
-0.6684999699859938 
0.9888737962801396 
0.1155428891835644 
1.650389384349958 
-0.1870281727567991 
-0.01835929105670431 
0.9374220336733581 
1.429442581660695 
-0.05699492336299526 
0.0355494959515082 
0.07263476608294833 
1.501829307328871 
0.4030627315202827 
0.180662027827105 
0.8150481843568692 
-0.1032921761453432 
1.06485442342148 
0.5623908558861588 
-0.2562937235314909 
0.9734074587281891 
0.0183684780063007 
0.02931664580639606 
-0.1738895586944936 
-0.1690443820968095 
-1.257674520083185e-17 
0.2756681160739674 
-0.4714972233529638 
-0.3212132452789406 
0.1958654920240803 
0.9981353777586028 
-0.03891950686818332 
-0.2124764479939639 
-0.5125416750241999 
-0.3025695508475955 
0.01601358968225683 
0.2764021256505561 
0.2518606678323964 
-0.03731473183884309 
-0.04496487013391093 
-1.124079321065389 
0.792620409714062 
0.2377196429434967 
0.377371175523454 
0.4964711494870876 
0.1100984990067775 
0.4850101031890972 
0.2818979915833316 
-0.01688031980306132 
-0.5046007752533924 
1.465616569570705 
0.8886325691385263 
-1.474344862062542 
-0.3025545345439006 
-1.362718335273268 
0.181181528103198 
-0.04558100781389289 
-1.696289548899966 
-0.5194886305588594 
0.420945489075379 
0.1186943074954563 
-0.1056263823216663 
0.6180465283277292 
-0.3760532186297064 
-0.2911051011631949 
0.1433231346577486 
1.625886937838136 
0.7007726969850147 
1.384254149950462 
-0.3686711890367355 
0.1127352285959616 
-0.4095032461183568 
1.566312393878315 
0.7139490175230094 
0.6363421691829989 
1.128627286118075 
0.4129816768932107 
0.6318393511866819 
0.3257833580126697 
-0.2772829594030666 
7.589415207398531e-18 
0.001649698081888578 
0.6212216058048303 
0.3521583103759798 
-1.476750057375996 
-0.01994277701041803 
-0.001744310081667758 
0.2509697927768353 
-0.04551666443896125 
0.2334951434014335 
0.4924831039930315 
-0.1466111541903825 
-0.05889664128413774 
-0.2826333111595685 
-0.0246413156139085 
-0.08178356035641796 
0 
-0.2206413941098326 
-0.2909752002222769 
-0.5193370478055234 
-0.5379154132135463 
-0.05758461947666599 
-0.2818381939140052 
-0.7258164635629275 
0.2234616941064665 
0.1296768711823267 
1.299041216421011 
0.2621971070769486 
0.6643669853167077 
1.156912728859661 
0.0251728176675231 
0.1541874745569567 
-0.4125051201510802 
-0.3449376590299853 
1.335358846912991 
-0.01184694021970305 
-0.1130741827264174 
0.24195287895043 
0.5057107195752374 
-0.02028310339209416 
0.04943012555723238 
0.2150796864400011 
-0.2294038650702871 
0.03425551548073601 
-0.401159996633543 
-0.3144983409610742 
-0.04619780265961989 
0.007870147292329398 
-1.023093804414892 
0.2267996137893312 
-0.1754631477269212 
-0.2618819556292943 
-0.5084213151725216 
0.5554029736783243 
-0.09221185051046475 
0.2539950653391019 
0.7657469406272688 
-0.3629080125349068 
-0.1212626551514416 
-0.4672135862257669 
0.3379846363926191 
1.999115013201799 
-0.03039887133146979 
-0.9309126391928095 
0.06941295568930726 
1.692739892808773 
0.1165481661824091 
-0.1464731237749794 
0.384789624128926 
1.219329255296869 
-0.7993796291220959 
0.03873133306835248 
-1.081629516200863 
1.386318139293526 
0.1133012378611739 
-0.152491661591117 
-0.01650202486294102 
0.1187501732255421 
1.813371441985158 
0.2940877534874181 
-0.04049792925623053 
0.3198673253381107 
0.09081378188928971 
0.5811815922804274 
0.1166288105180069 
0.1973123541527368 
-1.099525521060978 
0.2921691226391706 
0.3783990330733873 
0.3495753476128114 
-0.58055311762818 
0.2298936766022349 
0.01559112198177898 
0.1899779732995411 
0.7879277011549854 
0.06083578523575643 
0.02743136288102271 
0.516992916912524 
-0.05176375657998775 
-0.0686761777982059 
-1.08356187998138 
-0.1156312799477811 
-0.02616070858970799 
0.2121003090095006 
-0.08506416743211116 
0.655933040177929 
0.02953540330107789 
-0.07010568522510957 
0.3863904610616594 
-0.09154891996677904 
-0.01573995281688451 
-0.1132665283455391 
-0.1456849709133472 
1.494729091470968 
-0.07195786363310036 
0.8321203409293676 
0.3352475998097479 
0.3256888803609563 
-0.09380881036236564 
-0.08961611525723347 
-0.0001457163454694906 
-0.6265988656451885 
-0.582628831370663 
0.1659120050205434 
-0.8420752324107232 
2.104594737808318 
-0.5050903447674606 
-0.1125678957585387 
0.3857023238354721 
-0.5428640603918893 
-0.6721417562441395 
-1.028979745493298 
-0.03619391028704123 
0.9731155499209821 
-0.02399150599162398 
-0.2070190985224376 
1.387778780781446e-17 
0.8113994360948804 
0.02030430888605851 
0.08514737727560258 
-0.1741632455421068 
0.3932953163498576 
0.3407954582314187 
0.3229952247746455 
0 
0.0276864298450754 
-0.2144446646235624 
-0.05885755940292071 
0.2291871069023641 
-0.1653830600628942 
-0.776033881507556 
0.2075932657075025 
0.7253886353825214 
0.06274452845841037 
1.137930212626809 
-0.9107629137489809 
-0.01382069429535429 
-0.0647894964205829 
-1.265876565689018 
1.153732305350213 
-0.7269273824281961 
0.7697910525802784 
-0.0977875164473431 
-0.1611143804103223 
-0.1055669601764758 
-0.1688874800573268 
-0.2867892079184863 
0.2040008290754228 
0.3930949413266156 
-0.3137067907801372 
-0.06132054608080274 
1.017471844158773 
-0.04063892069045352 
-0.5154385467296412 
0.4856905965980603 
-0.1567915243885026 
-0.7209249247062389 
-0.4646075710049793 
0.4912544601997756 
0.0543436586776312 
0.265253637649179 
0.007429578083589809 
-0.5508943329838583 
1.011391941728576 
-0.05300241716085861 
-0.06222393403723964 
-0.01573488057157693 
0.008689196165057374 
0.5884564416580947 
0.5219679889918051 
0.6337976772245086 
-0.2741441518996889 
0.1956014205522032 
0.7992205580915256 
0.4653829713045844 
-0.7121565113938648 
1.35254756514962 
-0.9335008399942168 
0.6003009107116403 
-0.8168762847836352 
0.2286613099865233 
0.09167367926689925 
1.32129394130789 
-0.1735143586244248 
0.5613626053898344 
0.1764607664147823 
0.7185136273580531 
0.2170978587008852 
-0.2334858104206021 
0.299294243969572 
0.1859933640727873 
0.1632616971182909 
0.2635106292154195 
0.3875257533231949 
0.2952558847718909 
1.161701526544469 
-0.4288869321313881 
-0.5298732735553483 
-0.2846597644604609 
0.2032927840431358 
0.174099231527963 
-0.3918770954309901 
0.3383180873086414 
-0.4954277153230239 
0.160327284078034 
0.8935886047419404 
-0.07016620459620207 
-0.2586295865310806 
-0.7426434881822722 
0.5253087201677181 
-0.5457417840608663 
-0.2244073147955319 
0.0291475450463072 
0.5409994771047254 
-0.568040588829841 
0.2181724130762222 
0.3996776579253765 
-0.06119956763103226 
-0.2277797845257623 
-0.499689863396789 
0.2413553073156647 
1.06460754110013 
1.016284518230453 
0.0194485397200582 
0 
-0.01467573703270188 
-1.229796028275192 
0.497553034742641 
-0.4209431241994067 
-1.380596007265963 
-0.08228216077412492 
1.935542040761796 
0.2426243769048496 
-0.844311630516995 
-0.03841452451188882 
-0.1992606302143831 
0.4076750786885969 
-0.4474742985036813 
0.06034930474313349 
0.25010691356332 
1.083238770191419 
-0.03399615266058114 
0.9476802799367272 
0.5631896060745103 
-0.6269613082248764 
-0.4315714047046221 
-0.05628957017650369 
0.4311594825011682 
-0.8416006958858566 
0.05880929407048165 
0.02267167838548028 
0.2468559438676059 
0.4824562787001262 
-0.4935019565935931 
-0.03949746826043853 
-0.1885030517601158 
0.01802778383951478 
8.402566836762659e-19 
-0.06425463432696356 
0.3790559238376833 
0.3808836039376109 
1.215241398712176 
-0.2485122570099406 
-0.6769436692797784 
-0.1863918473474593 
1.017155894951045 
0.4807643640871391 
0.06425174054709426 
0.09469504813784735 
0.7397944295900214 
-0.571807891305951 
0 
0.3412039504975514 
-0.272781751137937 
0.002777039614630434 
-0.01410994052187656 
-0.05298324313092848 
0 
-0.002519443126989537 
0.1453327694160719 
-0.7312857645045387 
-0.8574865034430261 
0.1637662275460864 
0.4096281301761046 
0.6742813702937039 
0.3715285131830532 
-1.490097456922704 
-0.01294981546685503 
-0.2163745824225336 
-0.5724595538439549 
0.3536927507933154 
-0.2209137009264959 
-0.3457145074720783 
1.655473255515794 
-0.4402961772775479 
-0.07227990583352965 
0.008268383694460677 
-0.5183540714002208 
0.2737520695932047 
0.7530514170617687 
-0.03186588527512988 
0.7396123453355016 
0.5199044734166515 
0.0243669248115 
0.07534460553247459 
-0.03083666294636835 
-0.3063699378374878 
0.5473104266777915 
-1.079412185628481 
1.209921861621043 
-0.2742937509967986 
-0.594441624523052 
0 
0.1054807794558758 
-0.1117945048911073 
-0.07418973011551738 
0.1795371658847179 
0.9549323854631151 
0.695594543582242 
0.367717986710299 
0.3925372954678201 
-0.3645414946979975 
0.1658817851043402 
-0.02910214277558315 
0.9320112107678546 
-0.2870585621918756 
-0.02583625245603339 
-0.5995970363494902 
0.01093192636527012 
1.244558334132223 
-0.1126140793298303 
-0.3189570723948206 
0.659828942018847 
-0.1329189742085789 
0.7494681156513687 
0.1667293882225359 
1.03346725075454 
-0.09332108715225311 
1.041452399093641 
0.4902537509815987 
0.3825446165552404 
0.6051402337407248 
0.1241679049634475 
-0.5080939316020205 
-1.083649554354688 
-0.2125399989888459 
-0.03698699535580789 
-0.6292233767376918 
0.003682238215818176 
0.4759020351082847 
0.3780638897835467 
-0.03862772994657383 
-2.486895098426197 
0.08580015142239732 
-0.4401873473546976 
0.4645875553314879 
-0.2117799163471969 
-0.263902231386254 
1.893502834816637 
-0.04469187080070823 
0.07679956887766343 
0.07755326177637743 
0.921318142256635 
-0.1220760735410391 
-0.9584581776882709 
0.6550496139130193 
0.6917401651504927 
-0.0986947618239824 
0.02296967971592691 
0.7662877662816643 
1.026789101464834 
0.3820492079374285 
-0.4328779016920924 
0.01519674344149713 
-0.5100587573352265 
-0.8354132567234032 
-0.7372961352974026 
0.1307491630437427 
0.2563538633862967 
-0.6403136097621279 
0.8242127730507114 
-0.09780335859549996 
0.1059715406831413 
-0.05051110976062673 
0.2074274574413653 
-0.8177786396382315 
-1.739560014718702 
0.4330745966308257 
0.01810677375498586 
-0.1119675781671441 
0.4896735060882876 
-0.3531645498270728 
0.8115213310483529 
0.2061084922052194 
-1.104297125557124 
0.2742937772253298 
-0.8046043744626102 
0.03553583662489886 
0.3085903061643423 
-0.2375880752478161 
0.002491554030973127 
0.1763923487550881 
0.1984418547353214 
1.900321918734584 
0.006067228644790041 
0.4191538444174074 
0.004252250604691386 
1.535100186239301 
0.5044187335310819 
-0.1015162924249426 
-0.9292182097794061 
0 
-0.737539654835187 
0.3690332881635009 
0.9318098521341706 
-0.2228191940105301 
-0.4732319404701423 
-0.554036504578894 
-0.0859277318986395 
-0.8319845671797811 
-0.3915270153704724 
-0.3009205680088922 
0.1270974345491679 
-0.05685620253727493 
-0.06078761180343102 
0.5375133985225681 
0.5952648284240329 
0.3488652238990384 
-0.7625156314344054 
-0.2886807921825025 
1.380268007179344 
1.111584216615571 
1.237221887497205 
0.47978189711677 
-0.01473471573276663 
0.5808027951750943 
-0.02989673257153158 
0.1322169866852404 
0.4730239397801544 
-1.734723475976807e-18 
-0.1275202988623937 
-0.3313163911337852 
0.983003140953126 
-0.3639429725615629 
-0.3862649401178656 
-0.2308432768928487 
-0.0622788721835197 
0.4572126133732466 
0.3444836599901329 
-0.3439119360826735 
-0.2452226750638532 
-1.078347650934876 
-0.5632251729799067 
0.4192712927270466 
-0.313662140587459 
0.1208854540790417 
0.5161838094558855 
0.2908080602868839 
0.09902831456254717 
1.063172419999833 
-0.03841086142902166 
0.6504140700558378 
0.5885324353511022 
0.5729778163316794 
0.5090577743387779 
0 
-0.03280752127051312 
-1.588073091493822 
-0.9653883870258918 
0.4909050760242699 
0.1703072793615411 
2.058121966050056 
0.3018071163756234 
0.09704336212726455 
0.3883121249718139 
0.8734119508102345 
-0.2337742303763532 
0.4192509885206549 
-0.3572423521895568 
0.193765513316376 
1.656915164670111 
-1.112077290543398 
-0.1722319309014523 
-0.05503593624391431 
-0.4179818663365303 
0.6191915955313364 
0.9311237971759052 
0.4161458466428338 
0.649819147446731 
0.251260986434105 
-0.1414606644602619 
0.1238041317506204 
0.7218386469067595 
0.02930025227408123 
0.1338544387692372 
-0.08799466204579305 
0.1634270817590443 
0.9331082142220897 
0.3539476279012373 
0.03986427236332812 
0.07808456711090286 
0.5071712196641444 
0.169883653673393 
-0.1054456240418021 
-0.6341333421387234 
0.1435157928841905 
-0.6211324515043212 
0.9021440070790386 
0.1884428009940855 
1.298507733305505 
0.5718337181548256 
-0.6373952250673255 
-0.6360755404421762 
-0.6481533602435686 
0.2479526720452026 
0.3962377759508324 
0.1703328799599238 
-0.8666915833098248 
-0.02779263632990572 
-0.3585026443765355 
-0.282106739155625 
0.04430176825673882 
-0.4246595417840125 
0.4151566078085162 
0.0008374885851033461 
0.02743264769176242 
0.4418605992411351 
0.6512660971044486 
0.1102150947063071 
0.5091966347177841 
-2.605658095430933 
0.01536834477295777 
-0.2077662803834 
-0.4954689340800225 
0.3952016758495749 
0.7349341180614983 
-0.2876291827745459 
-0.1952596399883096 
-0.06138822465633587 
-0.2372841812025087 
-0.1242220431217823 
-0.2476495258315361 
0.1447297190805195 
-0.4066998732301671 
-0.8078520909195447 
2.250206678194527 
-0.3845279320557052 
-0.5155114368453994 
-0.395665186060809 
0.485540791073128 
-0.5928918949491104 
-0.2939418274287208 
0.179781857684921 
0.3973483738846776 
0.01781276771765399 
0.00482027793450273 
-0.2232061746552305 
-0.03973397739373803 
-0.379187196650015 
0.3167800459579451 
0.02545469215707796 
0.7594731958319312 
-0.2439388375883632 
0.114119797792198 
0.04438753066792157 
-0.1322908755103731 
-0.8722920649729322 
0.3512639049626224 
0.4066250645449074 
-0.04652102162526976 
0.7259504009377542 
-0.7747093606750443 
-0.4534122953423713 
-0.6870668825510614 
0.02313686427942357 
-0.07582638988658538 
-0.003708851153489928 
-0.01707441929424544 
-0.7318360882140866 
0.3021908307685216 
0.4339675715940828 
0.2452509245762054 
0.09098546189001672 
-0.172706549222225 
0.7762876325164818 
-0.1025649077295172 
-0.02863017449186644 
-0.4346952427669448 
-0.8552111695870301 
-0.267246381494408 
0.2149581842992515 
0.1102995213347429 
0.5353359494200323 
0.1275817244310717 
0.1031905353784016 
-0.354682069600496 
-0.7545385762381495 
-0.142904284584858 
-0.06174028621156699 
0 
0.2728863252012482 
0.2310823019223936 
-0.2713147281691612 
-0.5186784769402991 
-0.2810704690253007 
1.543073142254959 
-0.05529332097247496 
0.1055205432406333 
-0.07945593680498102 
-0.0412108100528993 
0.2606333695325611 
-0.8598760334953984 
0.3774320802221189 
0.3019077620187381 
0.5233441350105176 
-0.2562054563442611 
0.4335314602751117 
-0.1870617908582567 
-0.1791455981887672 
-0.04441676348332575 
1.010498739506109 
-0.3762043498264481 
-1.515397274764673 
0.1835569013142752 
0 
-0.1406585544732683 
0.1844875551656919 
0.01926430804502833 
0.7767684914785915 
0 
0.5902715106051714 
1.017809212847117 
-0.616620630250421 
0.5293685449608516 
1.134459028049212 
-0.1746778924582111 
-0.4521519807162868 
-0.6331006096691867 
-1.802595143561825 
0.7326696522185959 
-0.1959501476725124 
-0.09125723665600857 
-0.5665853420995833 
-0.2110750404591516 
1.368906880996992 
-0.1306547071757723 
-0.09147177292634702 
-0.09799767411913607 
0.326781481385514 
0.06435313651627725 
-0.1656182612260411 
0.8376672627572896 
-1.03931734852832 
0.06602137756517869 
0.160547207799667 
0.1067159934180314 
-0.4572083126923255 
-0.07196874117570153 
1.565875617415319 
-0.3668757232785607 
0.1665136301187316 
0.1599812941904616 
1.462269374710866 
-0.5932532582236134 
0.5158141637272692 
0.5309093039245714 
0.3341932266942293 
-0.04346233224099006 
0.9800853129947439 
0.182139637694105 
0.1708634254515687 
0.5947241158991935 
-0.2301231397041204 
0.1610425184150659 
-0.5607313859103377 
-0.4026170270749285 
-0.202335914147221 
0 
1.798160133398524 
0.1537121544017048 
-0.3059690121307451 
-0.1403055721369805 
1.547888949935671 
-0.7586294567270913 
-1.549511856552553 
-0.387317532708313 
-0.4460712568919862 
-0.1411105626755991 
0.3305786388793134 
-0.2542174171574462 
0.3259140880204979 
-0.868947172154961 
0.5856327684102524 
0 
2.168404344971009e-19 
0.02171512775554554 
-0.1283735498164308 
0.03369304313448017 
0.2620170847285407 
0.346339357630053 
-0.5518366096938258 
1.132302754830355 
0.4244549805831611 
-0.03869705800536337 
-0.06600911182398203 
1.046166840970888 
0.3501012056464808 
0.8041488026654922 
-0.1173515036523177 
-0.9538844508643674 
0.3533217643328897 
0.06432676716943418 
0.6249936316305849 
-0.01895652386916629 
-0.01520704804656265 
-0.4206023575692512 
-0.3271624015949156 
-0.2018243162297322 
-0.6021103718539916 
0.7295561861888686 
0.396943195004974 
0.4781660545850662 
0.9349541958104104 
0.4011971573305487 
0.3548280755593652 
-0.9865950235000451 
0.1084040091984749 
-0.5742444697213582 
0.1777627997749621 
0 
0.2273470693018755 
0.5597887837497468 
0.2582888222240541 
0.02523318645535287 
-0.05712656327632008 
-0.6195423751981083 
0.08374476525030816 
-0.1777187661314231 
0.268119113443953 
-0.3712111009168177 
0.3293092461943994 
0.2458844494110946 
-0.2623309415691284 
1.051607714334774 
0 
-0.01330818157467723 
0.6601499720097477 
0.00292586717225215 
-0.4320514486771088 
-0.7289564836026081 
0.3552553724273125 
-0.7404950359383361 
0.2303519876446641 
-0.002112892126402489 
-0.05927461143354111 
0.3068869551732316 
-0.5664062107083936 
-0.2647801919884197 
-0.3783222290305675 
-1.049239237594957 
0 
0.03576680401404517 
0.2209951258590435 
0.3088917044870482 
0.4140315825832765 
0.3939414287872532 
-0.9486815282943291 
-4.336808689942018e-19 
0.02252332383439976 
-0.05646543217340331 
-0.6064887305919073 
-0.01267850264053543 
0.4988467709848363 
0.1352347580922694 
0.9135239038104677 
-0.6685496040205362 
0.8100345405278611 
-0.7888490067894544 
-0.4663213775110835 
-0.03796680622771561 
0.01072875293960041 
-0.983277468533259 
-0.4963628983561608 
0.283005750622188 
0.8738107260734922 
-0.1665118007980083 
0.1254169889513748 
1.139298545833291 
-0.04179561103103207 
0.9322573727547382 
0.4579633990561041 
0.5464212956667621 
0.1312386997338655 
-0.4586714368226631 
1.02749102935696 
-0.2877885221846171 
0.02712263927493205 
0.1209818476195491 
0.3497358927340555 
0.538990997253042 
0.3892416690640893 
-1.181420468454645 
1.681392296659115 
0.5141921439159464 
-0.0343118921729785 
0.2586269105918247 
0.5171177758827665 
-0.1175857972942111 
-0.324237039040407 
0.0230779984723463 
-0.2573424796997524 
0.7139960499326514 
-0.07488928008147058 
0.7960181104224375 
-0.3131394821140722 
1.181958470900349 
0.08981306893343219 
0.2727602704862158 
-0.4219358948287533 
-0.6888513389572 
0.2450217479415446 
-0.298672895775659 
0.2466369863902834 
-0.2077458667307242 
0.8591102504360245 
0.02830461382012873 
1.20457779073909 
1.721538125626414 
-0.2139208781984722 
-0.2474118514425719 
0.5648490188738493 
0.09816902862269267 
-0.08876374200915746 
-0.05636668862972061 
0 
-0.084735798179504 
0.8950162419864096 
-0.08282188649024458 
0.006844151766034691 
-0.1012533116764425 
-0.8136397321892669 
0.1019251839778699 
-0.5851605011267103 
-0.0001184213703549806 
0.341099936558128 
0.1756879487256531 
0.2668735468696081 
-0.5553119783816378 
0.5437899120557449 
-0.3928225478664454 
2.239966883762845 
0.01358117828340163 
0.8848421772515971 
-0.0258489225627422 
-0.0445819939623442 
0.8443253373307443 
0.2267447292000434 
0.001417705152737681 
0.798639643462319 
-0.7767079892459874 
0.8225215516647905 
-0.9414925189503746 
-0.9263808460078955 
-0.5577249964262836 
-0.4494441851126325 
-0.7395495640627274 
-0.8199343172308131 
0.094886390070151 
0.9292988009687887 
0.2116493436146798 
0.0881959474495229 
0.1933235222206627 
-0.1579570964876762 
0.4150264879277182 
-0.8376696133376063 
-0.1015861743406061 
0.07697352636004666 
0.09413053971791616 
0.03718099773542992 
0.01473435733220758 
-0.1429918412916567 
0.05285857161190842 
-1.299969800367522 
-0.3417309632859357 
-0.1188854827497448 
-0.2594761646411626 
-0.1924027590042873 
1.206489867212536 
0.4232976869407147 
1.163151958556641 
0.8762378749470801 
-0.03451441782762227 
-0.05141229169937279 
-0.2488990952711682 
-0.2010074338238089 
0.2112235863855138 
0.8119233389873151 
0.3305040589728698 
0.246713303014153 
-0.01687229874572641 
-0.01010748219664439 
0 
0 
0 
0.06521838154524416 
0.4334775841508951 
0.09436023030832061 
-0.6509658150452688 
0.3391942751696006 
0.4508351734993167 
0.03031296926605266 
0.2241429857675067 
-0.3424432292863532 
0.2559513144768632 
-0.006431436403696079 
0.1682054257489538 
0.3802687901506196 
-0.2553949050619349 
-0.3676591272943034 
1.177438941753715 
0.1431538112602597 
0.7445111061003935 
-0.1050033488092729 
0.06767834979853538 
0 
-1.03677047055376 
-0.4367966060049172 
-0.1909136859348227 
0.1417322245453762 
-0.3982920245745533 
0.6372348570783488 
-0.2976057363251691 
-0.7333205338088462 
-0.02249140896584059 
0.9533928935012386 
-0.1208341816974532 
0.04666562921029149 
0.2851772149238285 
-0.03860725021944292 
0.01800124136471857 
0.1891547430983014 
-1.422713499853309 
0.2947946196001298 
0.1814925847039247 
1.866538280790073 
0 
0.07257346104345132 
0.7450534350934674 
0.1757658867148907 
0.2291628732153637 
1.280014819822725 
-0.01933820022429499 
-0.111592298256646 
0.03651263570286549 
1.033601314937296 
-0.5629053715687785 
-0.1631351280928034 
1.306337482193749 
-0.0197908781258233 
0.5119584319794894 
0.07577737613371256 
0.7725396555109099 
-0.0008962366102093426 
0.1160413902636446 
-0.1630045378941978 
0.6341512807764653 
-1.113947535642299 
0.03192853126964383 
0.274738564524349 
-1.485517782515333 
-0.2707372138758527 
0.01440510837360524 
-0.2967786723542249 
0.818921971522617 
1.093313927283532 
1.625490902885617 
1.308820946335501 
0.1966855331445058 
-0.8813252366957687 
-0.06909068889442818 
0.557365461167336 
-0.05173390945832032 
0.4490014029640669 
-0.3432719599201283 
0.3678154195076418 
0.7774078143555621 
0.435666823403729 
-0.3576932863979916 
-0.04403294344713371 
-0.01968515466491133 
0.0497172103791268 
-0.3720947107978686 
-0.03248499668529899 
0.5828411489059304 
0.8491622199790005 
0.01624207622228188 
0.1248071422529081 
-1.133252888766291 
6.071532165918825e-18 
-0.09702015560266235 
-0.2429295896096046 
-0.5914033048322307 
-0.3407659203526929 
-0.4378180094831481 
0 
0.8522864073828056 
0.5514690714726651 
0.2452240090995374 
-0.1397235820311685 
-0.466286367888056 
-0.2302479473362335 
0.446020223537049 
-0.6270890952656318 
0.2247557430617501 
-0.867649844941225 
0.5800250543554052 
-0.04362796738744074 
0.009205063990540895 
-0.01427724782164719 
-0.3911939123815112 
0.158723877949544 
0.3928366653285921 
-0.2759850965832852 
-0.03079311726311488 
0.3319233488158287 
-0.1041667130160124 
0.1347795774089837 
0.06350574542030346 
0.3670620019497564 
0.2495397091884803 
0.5347721095437917 
-0.5227016061527368 
0.15591208537722 
0.2962546665963757 
0.08968176933177401 
-0.3388028390315492 
-0.2642072776238414 
0.725636586649278 
0.4287805847117298 
-0.3070720215631805 
0.09997205540338251 
-0.9792366483239144 
-0.6246374986521369 
0.428320946347168 
0.263155029470519 
1.463067550316987 
1.144036310907364 
-0.113713412072135 
0.1789294773796417 
-0.6532505905203086 
-0.03909220596754218 
-0.1073838264460181 
0.02144526903072793 
-0.3286365481466922 
-0.3639530328322202 
-0.3628274035336755 
-0.03277594766117303 
-0.307163183773647 
-0.1063369357590904 
-0.2170975740459581 
0.005703032816060788 
0.2848050533392962 
0 
0.5000610559786134 
-0.2115171315418524 
-0.2088643893256132 
-0.06182711702378798 
0.1758653842306212 
-1.452673169520337 
-0.03003173761231658 
0.175883023176899 
-0.1130009892984061 
-0.007134732123506271 
0 
0 
0.1553471701585999 
-0.4176039623320634 
0.2854472534768334 
-0.2133334483824404 
-0.004261718886418425 
0.09314892013154241 
1.421769225210286 
0.1673893195205408 
-0.4709386093202622 
-0.02737530327689659 
1.007204789730835 
0.4209761621467507 
0.01043861486393979 
-0.01128125127839127 
0.04539866555756027 
-0.3123208324202242 
-0.308984346054379 
0.03191073251013445 
0.01181088958982982 
-0.6936374891281326 
0.2899646042190327 
-0.3244247748626361 
3.361026734705064e-18 
0.3169165702917466 
1.156490024533184 
-0.02061138924220761 
-0.07234650738474956 
0.238304594330969 
0.01737345607490767 
-0.2738647259175958 
0.3241467883173735 
0.07710661352482032 
1.326715786524714 
-0.1718153924389621 
-0.7295033920697087 
-0.01565969814947998 
-0.5078592482123757 
-0.6566850448664225 
0.01811990716002626 
0.6978611555388434 
0.005226202603025278 
-0.1034350641399001 
-0.7761050417861853 
0.07494672913717515 
1.796770262069101 
-0.07538166286769596 
-0.04021878893579707 
0.3739943541633065 
-0.01132969437440123 
-0.08146097557685755 
0.01088542236773949 
-0.09662188968445855 
0 
0 
0.01640023547449326 
0.9352463447101731 
0.06820267986751409 
8.673617379884035e-19 
0.4381032511475904 
0.5557791753048591 
0.7497177979365355 
0.194863801554668 
-1.015690025630089 
-0.4035341938603815 
-0.05041907352527616 
1.105526734085031 
0.6040919384650292 
0.01611432681942452 
0.5298224225636973 
-0.05925617158520945 
0.6258553705546401 
-0.1081586582179506 
0.7509089533337646 
0.2769847128971507 
-0.5823155324874107 
1.275133100093303 
-0.6551027955504779 
-0.1085797871753348 
-0.07697628918160782 
0.7780270698680365 
-0.7762838826172062 
0.3228954392549683 
-0.3270719572669453 
-0.1550600382452698 
0.1710945750483722 
-0.04339981407751697 
0.1871752829393545 
8.673617379884035e-19 
-0.4022145428648734 
0.1710701444047725 
0 
-0.6973226784155001 
-0.00419161215312005 
-0.299413246663666 
0.04585082278613061 
-0.06007284627677488 
0.7311799986662446 
-0.5757802950602783 
0.03876586331210938 
0.04132616590453107 
0.00189526656196088 
0 
0.0983915854345485 
-0.3380538640766099 
0.3447847031419015 
-0.5882914558143958 
4.921261423547485e-19 
-0.1873594844751612 
0.08932084512096261 
-0.07991996078964259 
0.05299070530381462 
0 
0.435940741990897 
0.08601192335314227 
0.04986874612041041 
0.6975368613111685 
0.4672057128772487 
0.004859414863950061 
-0.1612481327443325 
0.2850878774837353 
0.5219477301572523 
-0.03339818235923042 
-0.7856581350150104 
0.2804010500505467 
-0.005375010828674027 
-0.6673041325044066 
-0.4334688509776605 
0.1605838756878288 
-0.1476473877428169 
0.1947499132609577 
0.327254770689894 
-0.7758650240039383 
0.7257933660508428 
-0.5760358975004247 
0.7187179702583385 
-0.3911964101903086 
-0.1538538076644711 
1.064204681755104 
-0.8780997695205082 
-0.3528729917291651 
-0.1070236191918656 
0.8238673279995147 
-0.6229460915730396 
0.03149280082361646 
1.621933436590762 
4.336808689942018e-19 
0.4435880541278656 
-0.8951209452498989 
0.1510216615154651 
0.4322621839199393 
0.03089899502178605 
-1.120528059535691 
0.5149050524890183 
0.1532176912462117 
-1.055197765761834 
0.02392620919674685 
0.07416942876156984 
0.7954017515699265 
0.8258541215734502 
-0.03580178333245621 
-1.115526703776694 
0.4310787915115963 
0.433614105057024 
-0.1015426395744155 
-0.04823565348155956 
-0.01135916318784231 
0.1920531486002506 
0.01681123550484675 
0.3822672095907639 
-0.1293739082982245 
-0.002648486656838108 
-0.4775430845839923 
0.3328001326953817 
-0.8889905048046153 
-0.006411512566946625 
-0.5205139509045243 
0.68631359436077 
0.132169769867246 
-0.2171139400531415 
-0.1790103860400861 
-0.1654634480970426 
1.071092396636083 
0.7434361116272409 
-0.2900072881932806 
-0.8279418169339386 
-0.01828005622655611 
-0.08159536398800352 
-0.8244025323248048 
0.010324842613748 
-0.07568548172191053 
0.0249081156191386 
0.2305808331725896 
-0.2385438458412998 
-0.5503428363060842 
0.2142130879452121 
-0.604592596183854 
-0.5819032216687395 
0.6708954672992606 
-0.5796807676957244 
1.58689166204524 
0.5135750691949094 
-0.2027201968931157 
1.130123972710715 
-0.6792502584496576 
0.3247264716194531 
-0.7319275695409058 
0.6583134553103804 
-0.4733339482156368 
-0.2176145503744412 
0.1913095310172932 
0.09828405941273834 
-0.7531533880011012 
1.026780216188716 
-0.7395303720476584 
0 
0.07239278781270157 
0.01185034794767583 
-0.5548496626934736 
1.221061016293434 
0.4309694942087143 
0.8254140018116386 
0.7621068748537799 
-0.04412228149822763 
-0.217138135507417 
0.2091982877898904 
0.245514728922393 
-0.3551619730269474 
1.841951793348103 
-0.8707002953022863 
0.00163288225195206 
-0.1543236379256613 
-0.3584540055001204 
0.3694794945807768 
-0.03681671972598465 
-0.07573038670222466 
-0.5354429905559018 
0.6490926777714779 
-0.2313225385444492 
0.4575338501625257 
0.2978742062848597 
0.06214983592171331 
0.172423131004234 
0.6015140960420163 
0.67346204114134 
-0.4118901421609729 
-0.4377383338794163 
0.8032769505795748 
-0.5811531814103289 
0 
0.08807321265007589 
-0.1673958923518207 
-0.1416567833807656 
-0.5694873378274251 
-0.5000350672607727 
-0.1727250893712864 
0.1490619944379409 
0.3676470770887112 
0.3130138755948964 
0.7533409760558624 
-0.1508917109486343 
0.03913583556335409 
-0.7464626725471052 
0.1459042580249285 
-0.4359611521658758 
0.08677914792154459 
0.3231679335033708 
-0.03362904373514405 
0.1097753910590807 
-0.06383169104387537 
0.5107160891199652 
-8.673617379884035e-19 
0.1816628553091035 
0.2913741381221169 
0.2649727507652773 
-0.09663866574690501 
0.3052740056499881 
-0.2292634365207423 
0 
0.03212104967930666 
-0.3386974118505651 
-0.04399642678307359 
-0.4374273708065471 
0.3906651425537941 
-0.02799844344280555 
0.6309525638694933 
1.759214838003723 
-0.2936987982066561 
0.3074880749358879 
0.07086392654163486 
0.6771389016552372 
0.2137996883565035 
0.0594412692174786 
0.2363475373248605 
-0.2816928019791667 
0.2401350803480595 
0.1664693991292985 
0.466833428606462 
-0.1669315575615053 
0.08510020851007577 
0.1944135212742644 
-0.3663367217674234 
0.483578375285079 
0.04079280857353502 
-0.311823607292011 
0.03368443350387276 
0.677177776165751 
-0.5141966974779371 
0.3120646229337736 
1.061421130146371 
0.2130724037312456 
-0.1095991850358957 
0.4062810255948797 
0.2193886033058988 
0.08647492332197791 
0.1986061221306213 
0.4123438042486413 
0.3644356955565039 
0.004346182346544868 
-0.4211059270309568 
0.4912487270539536 
-1.078856389071744 
-0.2139109970024636 
0.446519596766188 
-0.04323397210708518 
0.4716210499851676 
0 
-0.14458502875294 
1.662784902287347 
0.583399380524073 
0.1015191368688484 
0.0961182090047025 
0.7198591713855435 
-0.2508358026815184 
1.006030872158423 
0.1308900238110095 
0.06039156481090689 
-0.01019994449232062 
-0.04200153053237577 
4.336808689942018e-19 
0.01211589541786485 
0.2474012622865804 
-0.06136593243922177 
0.6327027224903718 
-0.03352020708811071 
0.665858511304149 
0.07275934108514183 
-0.372743281023124 
0.3666260173610667 
0.8318961305585413 
0.04806508960530232 
1.104667016478368 
-0.2645548499331471 
0.5396990847268088 
-0.4860801753254799 
0.04624950521310264 
-0.652914979856613 
-0.2503125352982206 
0.7707033906395306 
0.7198422948625377 
0.257221340649353 
0.1849468993784071 
-0.1053634229162872 
-0.113060938167792 
0.174764369596268 
0.2681388281946478 
0.1743392461457456 
0.8448194776721525 
-0.4071201651551986 
0.02164294929077005 
-0.06477659862101905 
-0.6464209662888908 
0.6454386242487677 
1.271048392129012 
-0.08789039296555057 
-0.1855077019504279 
0.471863496659465 
0.1971300076074273 
-0.5609122453688724 
0.3098572005982346 
0.1096260464483095 
0.7374055437009439 
1.135694315783744 
-0.8160488529914355 
1.153483988508657 
-0.7047794960999679 
0.0755674692715749 
0.289043667969263 
0.088106236460258 
-0.7824691473751922 
0.3046280091183628 
0.04638104355373487 
0 
0 
0.2883247917002095 
0.2739168678665411 
-0.5042857767422386 
-0.7047354332256317 
-0.9728422034422204 
0.1422362090847697 
0.3187970546109136 
0 
0.4547234690721161 
0.03415801665415954 
-0.2878207092882909 
-0.02196396576763868 
-0.3094526255137038 
-0.6554061595025897 
-0.04620675495188602 
-0.0002115446857708825 
0.2731205272801225 
-0.540581460673933 
-0.008917628463328622 
0.2151415690654492 
-0.1889211804842346 
-0.2596613486450084 
-0.1163753153353515 
0.5409008555835223 
0.04486446715327511 
0.1042082757943386 
0.01979945883566143 
0.3989839389404721 
0.2013758277179185 
0.09842043077689648 
-0.06528505371775722 
0.3386735201567114 
0.1483194445127099 
-0.5033344710520918 
0.4726112538062233 
0.09722772254301301 
0.02512095366531757 
0 
0.4378616404381974 
-0.3700577823860212 
-0.8239612349483324 
0.7252777300104413 
-0.03300464659281956 
-1.104151647221162 
0.3158133524232104 
0.4156451181558287 
0.1663494432317952 
0.5626510641930887 
-0.5199424424959058 
0.1605153838351131 
0 
-0.8790804636664161 
0.08173753877458356 
-0.1678615104058497 
-0.4188575430581908 
-1.168101875628689 
-0.04473106504921758 
-0.02754345610128812 
0.4425019496891994 
0.1237359958377948 
-0.07478607000952282 
1.762679640196676 
1.121865331289362 
-0.8262072001228933 
0.1338276140365031 
-0.2682031604310617 
0.04433418283273011 
0.2841115925182816 
0.4146823565613458 
-0.01862981614271068 
0.6368765978858542 
0.124499936267138 
-0.2043437194335653 
-0.01823258177973404 
0.3608105939081783 
-0.3496097016639747 
0.3937317198765506 
0 
1.409879403379067 
-0.1415697038439349 
-0.04517344802468575 
-0.05324300846197783 
0.9055598548059162 
-0.05478160457873852 
1.089056392851725 
-0.4198331641070344 
-0.1300130156024489 
-0.5657305959281421 
-0.003182467735120698 
-1.188677652003051 
0 
0.6680175690412762 
0.05272008956921769 
-0.07514207834282312 
0.1680250719728276 
-0.4520584690507531 
-0.30313193303112 
-0.364366862139656 
0.06739178602024222 
-0.3731331780050822 
0.1794605716679185 
0.05343929855739816 
-0.003771499503888649 
0 
0.1105259564263431 
-0.08716544472598922 
-0.2162214955795398 
0.249250080464225 
0.05983685493395607 
0.3124764940048968 
-0.6305195749137503 
0.2546628051298956 
0.03472009686307494 
0.08379920143532615 
-0.400922677861362 
0.2723945804577227 
0 
0.582175078567519 
0.2449179721086446 
0.5436873787982546 
0.01153799166161004 
0.1050219903177469 
0.05120867422343713 
-0.1421310597205872 
-0.08469253083581206 
-0.5339380360045102 
0.2515454158115225 
1.080541712575646 
0.02281789998766748 
-0.7324006999288462 
0.1774328263765661 
0.6547212030007139 
-0.1949870791822501 
-0.2025457859948735 
0.1441685990862334 
-0.3035027733400181 
0.4461853659640849 
0.4817744330964315 
2.168404344971009e-19 
0.5087293128403549 
0.4826520483921515 
-0.544456442697152 
0.08037355592254217 
-0.3456744226660524 
0.2601363725793246 
0 
0.2313294332581143 
0.008232528371175362 
0.0249393788755475 
0.09496401092345334 
0.08803231297669475 
0.06971540915025763 
-0.3158597524409377 
0.677036813877014 
1.124771497243177 
0.0814097786552079 
-0.06304737328850131 
0.1098874925251424 
-0.692385049650702 
-0.2834145969158112 
0.04529152184224389 
-1.188826286711718 
0.1516749125206256 
0.5040943804574496 
0.412617927849686 
0.3928584235779617 
0.7240477709811785 
1.418653337874224 
-0.4009965382853483 
0.04405297225273616 
0.1772184069750638 
-0.8786397555324436 
0.1412028243138174 
-0.05142802417049976 
1.084202172485504e-19 
0.04676011246503261 
-0.2911248515933369 
0 
0.523537681086562 
0.09472858124663917 
1.103673262255787 
0.05249427874389112 
-0.03672778165964718 
0.4826588946453458 
0.5137475149415952 
-0.2504443844484058 
-0.2239959149293982 
-0.3686831191511544 
-0.006422525219961797 
-0.04546796430668164 
0.1156553360473412 
0.4525142529879474 
-0.1699053519680011 
-0.004828186796655622 
0.06303507514894333 
0.007912916406920217 
1.163697553052182 
0.4401174315067161 
0.5075749676947016 
0.2370244657041461 
0.2551719410315779 
-0.0303866801566369 
0.001648773029681115 
1.005074345543647 
4.87890977618477e-19 
0.04066384617451583 
0.001138113479410213 
0.025869214698824 
0.5984845063671125 
-0.9439827909545556 
-0.2582546042477748 
-0.07809086363517616 
-0.5943715828146116 
0.4688769031966082 
0.4912244629429297 
-1.30157438497227 
-0.09325767000937059 
-1.156282357395975 
0.2484698424479803 
0.7458725526344201 
0.1140087083132516 
0.2862581065284604 
0.1853373766630177 
0.09290538617800631 
1.100925567417583 
-0.884844799449896 
-0.1160523562857935 
-0.06997663949412015 
0 
0.3721099078409128 
6.581869516639541e-18 
0.3528326812297995 
0.289173473961354 
0.09462308133408985 
-0.1193256007022579 
0.410394328112663 
0.4750237052199726 
-0.03084092679368211 
0.168372847429804 
0.2033749594306446 
-0.53276976767627 
-0.1087181830515594 
-2.927345865710862e-18 
0.2949171487472169 
0.5247216856492306 
-0.05045367043798034 
-0.01484950338928242 
-0.08841235421533593 
0.2319025592976977 
0.01121633388120618 
0.016769907765261 
0.03936586520706686 
6.505213034913027e-19 
-0.4199725245704036 
-0.1725667756877065 
-0.2419370702499328 
1.206962396182753 
0.2520514962962159 
-0.437970383857552 
0.06934839635737106 
0.1601923752271535 
0.4381598799068487 
-0.1107744411693311 
0.7337248898951758 
0 
-0.05927457704148231 
-0.4581754869121064 
-0.01013409683198675 
1.394442862902642 
-0.6339168887895242 
-0.06485529350747431 
-0.05206498079642827 
2.195509399283146e-18 
0.936059637520836 
-0.4800480948904794 
0.1366434072570516 
1.084202172485504e-19 
-0.2250468859971213 
-0.1281433806273393 
0.1329950998560884 
-0.4222069511267571 
-1.032996997746508 
0.6759057798097231 
-0.09112467988811247 
-0.1244341954655229 
-0.3752012509274597 
0.04906468432900939 
0.6728440177182 
0.4645970467177938 
-0.6019153067121376 
0.9501469421674617 
0.03019285067028392 
0.3125755517266721 
0.3858359421615455 
0.07475566677939231 
0.003419807044647475 
0.009991806535311173 
-0.1317143201018491 
0.2096099253757539 
0.0225809666077448 
0.2949424225363483 
-0.2151018356834256 
0.4889765840974779 
1.109562784596443 
-0.04639329143115547 
0.1007052879975017 
-0.4550823355584321 
0.06570023669050604 
0.9879428162215275 
-0.8669626035872264 
0.05928120472222934 
0.1420162152579617 
-0.9392303554087648 
-0.1187423792072709 
0.4612009997709801 
-0.8041080653932666 
1.008399186123329 
-0.702181197070152 
0.8760579964550369 
0.1300268318701278 
0.2289617719905566 
-0.104939116559417 
-0.1316630203295446 
-0.06052595450624757 
-0.297096288516627 
0.8492346635884241 
-0.1779025477881082 
-0.0937478395871971 
0.05769778334475065 
-0.500177445067797 
-0.3043137008440888 
-0.1594267509427184 
-0.7427691390886657 
-0.2153571875900405 
0.2373908979921859 
-0.2136194885908989 
0 
-0.05090093051288021 
1.349407297910016 
-0.09508105774635475 
-0.1699267810374556 
-0.9284881619027502 
0.02415172809873438 
-1.082262733395738 
1.191452114293239 
-0.1098880107056376 
-0.03727446585193309 
-0.1326996263962101 
-0.01362807831572307 
0.6148819882493495 
0.8547829291777427 
-0.1133834291104867 
-0.04002311434227226 
0.05263835674092903 
0.8491709130833358 
-0.2729085565632961 
-0.04408472181125959 
-0.5512331466835119 
0.2301859266991386 
0.3509673353523441 
-0.4004871206958321 
0.1098429459539388 
-0.1185341071332836 
0.415281882168397 
0.4476142067447604 
-0.5241335867992091 
8.673617379884035e-19 
-0.4999041165248029 
1.567310788214635 
-0.2701082875826326 
0.1381294021017404 
0.01423784384349252 
-0.01479476635894062 
0.2461341205769237 
-0.7213518970101317 
0.5994473275531794 
-1.055275439750881 
-0.4982227985813972 
-0.3005596138108879 
0.2390238688908709 
-0.01320922420780331 
0.03292719375132266 
-0.7516616485469926 
-0.8746995523087774 
0.1312028933120374 
1.103499039938129 
0 
-1.468895308024528 
-0.4060109580441951 
-0.139810674322617 
0.5829638665577658 
-0.7424721016922684 
-0.2624189730438413 
0.07721231243582929 
-0.2886420569777444 
0.2315025588961891 
-0.04417263264222107 
0.680191467952299 
0.1800461006051754 
0.2823425085862186 
0.1357231186338047 
0.0203751796768481 
0.6021251994712621 
0.2761622040234192 
-0.5230165820488922 
-0.4551541331286249 
0.06506032265081461 
0.6700083581059708 
0.1854945359693667 
0.03791752515727728 
-0.07767267182964399 
-0.1595416684003663 
0.03240921315560572 
-0.3119625381855605 
-0.4321229419470127 
-1.114538020564492 
0.6036131087650537 
-0.04217513787967944 
-0.5840814833858157 
-0.5494103509325721 
0.4539023674007129 
-0.002336301082523556 
-0.7738208810267388 
0 
-0.864286770754908 
1.140608499649801 
0 
-0.09381726185853125 
-0.6580184684430012 
0.1376532690204874 
-0.4915121130194772 
0.6076893971172261 
0.452947983653907 
0.007334888093065131 
-0.6598269868090402 
-1.164550423600123 
-0.0004679622319267147 
-0.2411695813205982 
-0.1192648557336779 
-0.5552897860908497 
-0.597069389749996 
0.005962361586790182 
-0.1618700912493846 
-0.5920218580988365 
0.7426591400444128 
-0.4977104701429781 
-0.4416292917127456 
-0.4944456404885258 
-0.02443387433619815 
-0.2773338254943792 
-0.8551741077432827 
-0.01348907999528196 
0.8058413718346168 
0.4420474396865162 
-0.4351688617070832 
-0.3377240680937688 
-0.9296573560072714 
0.06977363237131035 
0.6607664905194152 
0 
-1.351864583817863e-18 
0.1816417526465097 
-0.2843896502880939 
-0.03494099966106504 
0.6562215182075271 
0.04929781494482018 
0.2551020881503518 
-0.0003948695174313005 
-0.5659406389877333 
-0.6584530303140367 
-0.09643133039276235 
-0.002560305254532442 
0.02735485505930472 
-0.3238302608805136 
0 
0.06195647114151216 
0.134048007786383 
0.5211294655027309 
-0.3822439412276444 
-0.2835580515269907 
0.2080050693930236 
-0.05126010099867938 
-1.679728817888097 
1.542881374847005 
1.096076046560343 
0.2603669797720775 
-1.138857301841958 
-0.004096510741627171 
1.093033433982309 
0.9575153279715772 
-0.04227325360848553 
-0.01526409205215116 
-0.2403532709281075 
-0.07990277015796508 
0.2121455360938387 
-0.028177869596138 
-0.6406601438832812 
-0.03942969661165262 
0.06244258484639223 
0.2533452322346647 
0.003653452298296069 
-0.4385653234751537 
-0.133792115767885 
-0.1183097197185305 
0 
-0.02165565393254743 
-0.02764183653763993 
0.2307873258408954 
0.1520267778903332 
0.2307644339758782 
-0.2419660742064774 
-0.01762765218039017 
-0.420496946109048 
0.1129696548313739 
0.2288961324041972 
0.2029072527080271 
0.1807660078173708 
0.8280181581000068 
-0.2564548572779289 
0.4700095501844256 
0.8518926808578444 
0 
0.2205391905160894 
-0.5238591952370197 
-0.0656525592203327 
0.1486929729967575 
-0.03859525730983837 
0.06663394499056607 
0.01327306355957652 
1.319080025014436 
0.06612119805613845 
-0.1160660926713989 
0.3079229929317937 
-0.02349147516962249 
-0.05191720545536904 
-0.008417534555377252 
0.4161271809975498 
0.1481722295114103 
0.397509624383884 
0.7798060889136387 
0.0242516196570716 
0 
-0.4486275324127126 
0.4138194831954254 
0.2180579768001032 
-6.938893903907228e-18 
0.3406446200346819 
-0.1883415866206593 
-0.06141291983812702 
-0.2110384704553099 
0 
0.3627459725034514 
0.2795458656511601 
0.5467950325993139 
0.4762494394809407 
-0.9370392785935817 
0 
-0.1291707476502169 
0.2308903435008428 
0.06667122206189466 
0.3118500997783237 
-0.230631208753917 
-0.09639701840121605 
0.3806141566061427 
0.4000735711722645 
1.107664558449619 
0.2463795919548487 
-0.009043092522809876 
-0.009801028919035027 
-0.5129020711901012 
0 
-0.1451181499018963 
0 
-0.9767361149144415 
0.8722239572842633 
-0.2155823613671713 
0.1189969257611141 
-0.2692642589211083 
0.08493890810869717 
0.4132971952950337 
-0.03324038498052993 
-1.276311761006602 
0.7958840715106995 
-0.08297491058532305 
-0.003628507938057206 
-0.5446312697251919 
0.4915657132252095 
0.9141417795314859 
-0.5261144854407142 
0.7142086329871591 
0.003925612776586523 
0.4104030578006594 
0.03305372316128424 
0.01216806658431898 
0.0393232872513847 
-1.137694607494476 
-0.4270631443981254 
0 
0 
-0.1619178996192329 
-0.3321223124541371 
-0.8387300408777562 
0.1194606862742019 
-1.17254290249842 
-0.08446172977493939 
-0.02265967091205868 
0.8288439316066656 
0.3287954696158242 
