solver_type L2R_L2LOSS_SVC_DUAL
nr_class 2
label 0 1
nr_feature 5000
bias -1
w
0.9879991790741149 
0.0694812852139448 
1.579317767016428 
0.05177168707450282 
-1.061615111103349 
-1.216778979635314 
-0.3970520772285301 
5.86412751660617 
-0.04079290689387832 
-0.1600327441998948 
-0.0001258838150632471 
-0.5066197530507841 
0.2959489227562639 
0.2300293975007553 
-0.6004489254717751 
-1.967450133333127 
-0.1249165191381651 
0.4741396156162286 
4.391399504247274 
-2.175675986501068 
1.567776151933848 
0.6964649134142726 
0.1313206797921785 
-4.252116099945106 
0.1043490522201654 
-0.2680803732851931 
1.133984175309866 
-0.434050851843355 
-3.499066444077782 
-0.4124783291962665 
0.5584412732954355 
-0.04374279654991761 
0.09923941127069064 
-0.04993386893104823 
1.753485915703762 
0.01299665674267368 
-0.2390463613383671 
0.3539500395417305 
0.2747692830923769 
0.04405169924159618 
0.8636794240238177 
0.3802358946908174 
0.4223286612224745 
0.1389572719123407 
0.02694330098623454 
0.62199801503661 
0.7373727690422172 
-0.8565423993561943 
-1.390383250955065 
1.441819049296107 
-0.3166191580351739 
6.693879776140659 
0.509254006306365 
-0.04283390692840845 
0.5977052539852166 
-1.025221303569045 
-0.4035981861670745 
-1.617015316350207 
0.3627430124552333 
-0.540951463571558 
1.903892734891806 
0.07204729186284792 
0.01023036661809369 
0.3589200247057022 
-1.567268987646124 
-0.4115321482797545 
0.6717072924399138 
4.96134507927002 
-2.49509380390262 
-1.044974880103753 
0.2660840035298548 
0.5369943942626503 
0.887313408603793 
0.9949375060906733 
-2.158331163299017 
0.08279145698775582 
-0.9930536895512667 
0.1721887876806986 
-0.619484451108403 
-0.09562224224083815 
-0.0221208203010144 
-1.007953804254335 
-1.044887860186679 
3.599000490185508 
-0.226452756078717 
-0.4332683810900247 
0.2796902667467299 
0.01011019385709822 
0.2141359892342906 
0.2331681560538386 
0.8900962519185878 
-1.932615910206939 
-0.08069002092134592 
-0.2139493730872603 
0.1360265833807664 
-0.2709924875934639 
-0.9669205981284583 
0.440628827400146 
-1.612041451589004 
0.1647170077605309 
0.6082347832906635 
-0.007442814967054703 
-0.781989032739539 
-1.01790369736599 
0.2049873136805551 
0.3160845112423883 
0.7607703573284406 
-0.7287243289925036 
0.05162604834268615 
0.07835904998886785 
0.2788448060098022 
-0.4236252745969669 
0.4727140291918581 
0.8161932219114363 
0.4793424396904512 
0.6264602013342134 
-0.6260709332251425 
1.315693293069647 
0.9332841360017401 
-0.2273645825002266 
-0.2035742059672511 
-0.01113374728984229 
1.23556333421302 
-1.45483290511563 
0.5862588828489771 
-1.462032950392818 
-0.320171217866171 
0.2179143247575603 
-2.262418429413154 
-0.1919507577749329 
-0.2220582237888108 
-2.304464384762466 
-0.8933538987221701 
-0.007816736139717834 
-0.8108512324408008 
0.04973532602869971 
0.6671993127581165 
2.899730706110916 
-0.6339631344903025 
-0.5595941337685362 
0.3758838447033627 
-1.44268173795501 
-0.8843807557890589 
0.09178426462364909 
0.02227568594745029 
0.5792124368372965 
-0.2460740614334248 
-0.1966947534803519 
-0.4835687609408281 
-0.2109820472321745 
-0.2933097896072954 
-0.3799021327846973 
-0.7721848431332743 
0.8438676616133516 
0.1112590431491529 
-0.3277477600197512 
0.05800560019397696 
3.727477833209072 
0.5565405850792884 
0.30727757053245 
-0.4463920273117961 
-0.3156861155172856 
-1.843383492802396 
-1.219052026122236 
-1.16476970664022 
-0.3542283131778413 
0.9584347548811869 
0.04489698334256181 
-0.5189902286314428 
-0.2723457553024334 
1.862082840962025 
-0.3421723885276808 
0.6058101436565722 
0.9342749543187229 
-1.075867647306939 
-0.424318051969827 
1.604432499141192 
0.7142750780094177 
0.8132011086412895 
-0.6105048144984453 
0.1034039140181067 
1.362532450176007 
0.6939087304696213 
-0.338727285722328 
-0.5774211773076499 
0.1139646385606728 
-0.5048942491723276 
-0.4053067106359765 
-4.332138900462565 
0.5674616898506419 
0.2520214367400074 
2.304446986142436 
0.194672589846434 
-0.1812600536949526 
-1.14834760964465 
-0.4903105303437664 
0.187181166310008 
0.1990342503041039 
-0.3621861801559684 
0.4564556022603337 
0.1144376960868522 
-0.226065274640986 
-1.349377622545462 
0.1603088228240099 
0.3416117423687711 
-0.4289199334047203 
-0.1350409018669038 
-0.1794598521087663 
-0.7726499086929853 
-1.280416423920865 
-0.07039692574211147 
2.186107798734248 
0.3872036733474106 
0.05712908848708526 
0.451493032309664 
-0.1421738266575727 
1.843359670850979 
0.2665326104382523 
0.1882000404485271 
0.282386914784924 
-1.194986973327961 
-0.697117525490667 
0.05767233428967858 
0.3047043184421067 
0.6509612277491224 
1.694945398557046 
0.3317141665128809 
-0.4580637909248203 
-0.4926159391004142 
0.5767967319009063 
-0.1135393833611537 
0.4472839152164377 
-0.3742350806501066 
1.572898951721206 
-0.7802549833895883 
-2.012397255929161 
-0.5086183765997928 
1.826669127814899 
0.3627389110193389 
-0.3090932072741803 
-0.4684957098909184 
0.1352770860583939 
-0.3772690468766674 
-0.4479867414221101 
0.03955184134700408 
0.3646519289034457 
0.2800259938566647 
-0.9807042361052557 
-0.1765900064169699 
-1.125117524090499 
0.3249315855562431 
-0.1265805522442606 
0.0776726976292817 
-0.5280493550623493 
-0.5507589436454839 
0.7250650992947708 
-0.3666573578920737 
-0.7530265440049424 
-1.4889957535081 
0.5908277056459508 
0.01455040996565586 
0.31698514027145 
-0.4591176569814966 
0.3465887783686232 
0.3760584420216937 
0.1310958124694504 
1.104755402332749 
-0.01043812989350821 
-0.2381260604104635 
-0.09643248952143101 
-0.3724895440056099 
-0.4357318128893152 
0.3072799395200569 
0.03665833793377188 
0.2303808517343151 
-0.465678793234684 
0.3944843481313185 
0.102560474380646 
0.24347380522023 
0.385577229330547 
-0.2575383898806765 
-0.4621748609604983 
-0.04451122893915284 
0.3527641857370754 
-0.2910194641815989 
0.520621179908041 
-1.008450361180907 
1.090240418249598 
-0.2638857474002362 
0.6362470885660464 
0.1955734987941394 
-1.006142908162982 
1.94051119251236 
0.5924093165114599 
1.367377207882881 
0.05576437191000454 
0.2014011622362285 
0.1698443904486982 
1.784173454724543 
0.607222716327506 
1.041076925587945 
0.1054486584091174 
-0.437580402825311 
0.2744647181034017 
0.001154420734600994 
-0.003725136392091188 
0.005836158823403484 
-0.2198804722473824 
-0.5680147062807981 
-1.258963113113021 
0.01156451542116841 
-0.5393910690806173 
1.511834515554907 
-0.870878346288687 
0.134670346458801 
1.51735539813896 
-1.622677940721736 
-0.144497296160169 
-0.01846628660632629 
-0.5581438506221587 
0.0981853203393471 
-0.8831704737344895 
-1.055442131696394 
1.09342569083678 
-0.09792320838208153 
0.5664018271275421 
1.202411099715296 
4.052499168572372 
0.7661252186675607 
0.3734010495518389 
-0.1209171283667347 
0.1215608021262307 
0.6932233558800831 
0.3935902948410327 
-0.4698955972693908 
0.2856039146770799 
-0.5314090071089009 
0.7688953169155905 
-2.085852501520244 
0.0960735306299485 
0.007318991977425111 
-2.259236769185393 
-0.3350729063828092 
-0.3939661615635252 
-0.218458036266833 
0.2066886653528219 
-1.244258921982192 
0.2187454208279487 
0.246387312969894 
-0.8240374464675544 
0.09702133436032738 
1.403001495727059 
0.5783981528592853 
0.5894948299151433 
0.9241122328828311 
0.01050387058326577 
-0.2711473393981438 
-0.1377329165429508 
0.09053809799011282 
0.9068170450019147 
-0.2038785782038997 
-1.956107446431129 
0.5013834042233835 
0.7675263836623027 
1.40035288249963 
-0.4490651941752687 
-0.01626812495487134 
-0.6720059015438239 
1.208221482709739 
-0.2201899550824208 
-0.8206944853778509 
-0.1374554148423791 
0.1200591310642728 
0.04539140854388252 
-2.021138930690872 
-0.1378214572034313 
1.540529515976365 
0.5875862315617725 
0.7582613018921909 
0.5926275576502247 
-0.4369346377912812 
0.3545429462961476 
-0.7388957133352673 
-0.1116932331612144 
-0.3379983350944941 
0.2303537356655727 
-0.3993499345553522 
2.800431470973508 
0.2533474618704816 
0.2056509322545633 
-0.1402711812893577 
1.301042606982605e-18 
0.1638531636324267 
-0.9366140073753173 
0.399931801508206 
-0.6823247848304149 
1.747885119062687 
0.6749736204893798 
-0.7359832925458658 
0.4453668567550348 
-0.4934749448483952 
0.4035869062280547 
0.6099137398699989 
-1.127089044230206 
-0.1613610420249013 
-0.480900247798826 
0.0913398561613491 
0.4378134108671047 
0.3800804775539249 
0.03615234010903803 
1.843320044258618 
-0.7897493188664199 
2.240159195184333 
1.086981292346438 
-1.837658449908941 
0.830021023701884 
-0.7794419092076108 
-0.210309315007416 
0.5481769066879397 
0.1602800050264478 
0.2550274065613085 
-0.3986051370211318 
0.1755015519762013 
3.506039339175619 
-0.3536853235265601 
0.1771380206394941 
-0.6015532388659867 
-0.5280251721915991 
1.38048356380193 
0.9186480390895324 
-0.4386781601894834 
-0.05506455900936838 
-1.883700307959272 
0.3599827228975936 
-0.3711767764252681 
0.7695339822243015 
0.2324916704125403 
-0.4566230524376166 
-0.4110006767423167 
-0.3800794023276718 
-0.01270328539269126 
1.42077360573739 
-0.06202576157818206 
-0.5290947161500146 
-1.523417366779865 
-0.06632510440282519 
-0.2245601715191287 
0.1593127341201882 
0.4616443510538417 
-0.4581907052731252 
0.2555831877959814 
-1.159228306623239 
-1.908145612922457 
0.09972797194925713 
0.09417372056359941 
-0.08437956452423387 
0.1766504643969601 
2.204478751533675 
0.361131451975551 
-1.064470073552965 
0.5404812531144164 
0.391826081708166 
0.5117058276046127 
1.746724444575329 
0.03702685696486609 
-1.503995244141711 
0.6136054787249368 
0.2406974360004058 
0.0721291975436394 
-0.08201727921079618 
-0.1004444262327923 
2.642794952057992 
0.6999154129007861 
-0.8214696222581601 
-2.399666669719423 
0.4860221831187355 
0.2414226336802329 
-0.2910043927862502 
0.5050114789218216 
0.08535757164535131 
-1.611443578582744 
2.857931060434553 
0.1566587482376133 
-1.543394749642824 
-0.4868936953440617 
0.3123743919698301 
2.391876378391112 
-0.3337181905957115 
-1.788721161366781 
-0.6895319743388927 
0.4318103915174045 
-0.9249062205694759 
-1.186357087462106 
0.02726273155314651 
0.3113567329884075 
-1.424556374814417 
0.3151745192041337 
-0.3761519436457373 
-0.2772749384990624 
0.342953852697072 
0.351733419996039 
1.523789226628147 
0.06255220947819068 
0.9436551540127387 
-0.4791895316208888 
0.2632980403184348 
-0.4753615321004485 
0.3441399538604454 
0.2804688270345087 
-0.8132220063602248 
-0.2663847180668102 
0.70967950361204 
0.01220518785992594 
-0.616506200961491 
-0.3946099334541794 
0.2105507851154951 
-0.3189717234943841 
-0.7332746450464854 
0.1602145868346018 
-0.1491270792024967 
2.22046933508436 
0.1077140875236259 
-0.004996814605515018 
0.2436417389631418 
-0.4726504154178779 
-0.2151116809002981 
-0.9378026228680246 
-0.2029150188703672 
-0.3847048487176827 
0.2884804258027931 
-0.008186424009899482 
0.6590770440127753 
-0.6571303412713293 
-1.801251173354079 
0.4411866691702548 
2.030442501148654 
0.5342124152422811 
-0.04683541627220877 
0.006903723035115373 
0.3947215577308433 
0.4679807341157853 
0.6914337547144538 
-0.7444155380614359 
-0.06815652436884961 
0.4779246558117575 
0.3192428918128929 
0.09026717826557801 
0.3619411753167658 
-0.9511354294977638 
0.2077859734394164 
-0.5767758019406417 
-0.3668998164919869 
2.830114880852908 
0.08971122946244371 
0.761232522268764 
0.2540959034771371 
0.3160445774105067 
1.421394461861806 
0.22645374520331 
0.9122060200227518 
0.09054558827651261 
-0.5723718733281252 
0.4240585670052703 
0.573953417941693 
-1.839398985332012 
-0.6757528654695313 
-0.5431820129185203 
-1.080293632269118 
-0.1182253202205914 
-0.03372505508102674 
-0.6007464444069885 
1.765208507848401 
1.179090740053232 
0.1345816828583787 
0.1253309748350434 
1.493849280750741 
0.2351004893131598 
0.3855710725769534 
0.07979940328162149 
0.2315422950165661 
0.3074366536432666 
-0.3032171721308355 
0.5684198121301564 
-1.076404729689183 
1.105160672861729 
0.3820840511253168 
-0.2917649951979059 
-0.4095552372855913 
-0.1291429312296989 
-1.012276570310352 
0.02194167046826787 
1.02600209256945 
0.1801080256268579 
-0.3582567381348148 
1.124847577691175 
0.548113862778578 
-1.356360549608285 
-0.3810039752484214 
0.1489508567349097 
-0.2070849567004704 
-0.04256104946917327 
0.1720382998064068 
-0.5284030676730637 
0.3984127603921957 
1.328873066149709 
-0.2452844660603581 
0.626472873704803 
0 
-0.2573947392290369 
-0.2833092348986164 
-1.02487642663572 
-0.3052641317854238 
0.04382708411261447 
-0.1568657233243499 
0.7224192433145137 
-0.5570778040453134 
-0.1330186540156574 
0.6435125571137994 
-0.1511010313874929 
0.7288346505768927 
-0.4809451393613272 
-1.368717580806647 
-0.03367762018052506 
0.8334191114950139 
-0.5459849220322689 
1.243141703906106 
0.3694055028079669 
-0.4768094112857639 
2.723475897775727 
1.359910763671299 
-0.5647895934094098 
1.096268857183879 
1.401727144785447 
0.3282615209927525 
-0.8609279788064712 
-0.3738008431400481 
0.6164705419402425 
-0.09889722749944162 
0.1784082941467171 
0.08822261761800314 
0.160618015387126 
1.401791714718351 
-0.3965987717794721 
0.006344716688530198 
0.07142753744020919 
0.1319520270612337 
1.843324358069003 
-1.864370072221878 
1.11819838135972 
0.1535234672642193 
0.6243894072226422 
0.7838731133964006 
0.07951641271969542 
0.9716809968607925 
1.630381026820847 
-0.5885223489352741 
-0.07289383383363886 
0.756050559155738 
0.4549953406900991 
-0.6686553727493476 
-0.8419618191655116 
0.7134556940377372 
-1.376358301755946 
-0.944143929638817 
-0.3281965071682043 
1.02835095422183 
-0.7245168907862622 
-0.7300204438465422 
-0.4883119989821079 
-0.1593342978571121 
0.6898029536766482 
0.378466150822099 
-0.5027185358183871 
1.186750649678139 
0.05215414718162182 
0.6538165253186349 
-1.300702945936022 
-0.03970197623439981 
0.3951717883638302 
0.03707217674580358 
0.6972973445830877 
-0.09437966636342703 
-0.001840543432734339 
0.2176928649107896 
-0.1740172031019861 
1.521459327652376 
0.3170359061535639 
-0.01688335474883063 
-0.0408157328921654 
0.01530308204500698 
0.3071127616518173 
0.4632238796719941 
-0.6930168464099841 
2.832918632619673 
1.249082083983278 
0.08799143481214262 
-0.4811229345435453 
-0.1730671340348742 
-0.09766338939535091 
0.7121620379884759 
0.6352322350681058 
0.7608455567257068 
0.1425216462757803 
3.112526395585386 
0.9128589516521035 
1.662265397752427 
-0.08360757370454648 
-0.3084413505734331 
-0.1425736151983022 
0.07313967696979291 
-0.3709437144146784 
-0.7339051983149594 
-0.06406760796368002 
1.347569451216732 
-0.8309441785366785 
0.5969420446034533 
0.2061215206076263 
-0.2253096597861657 
-1.510263308162027 
-1.273561418658235 
-0.4204650923823725 
-1.698073939560478 
0.2489382241678933 
0.009679824902775604 
-0.2141659576759814 
-0.9697247624669247 
0.07784702078839577 
0.8614517396938826 
1.134815474309701 
0.9294028466213463 
0.2750322159856201 
-0.6787989463035538 
0.5210203571662834 
-0.2356082617631362 
-0.2451513016170876 
-0.2440827512205039 
0.07123728930180126 
0.9749793391588685 
0.5178285911583268 
-0.2826423094120701 
0.6507549250040604 
0.2859897424837967 
-0.1783723179869705 
-0.4460791695158004 
-0.7297115888940477 
-0.3564161453968638 
1.175947853704161 
-0.1249223580427987 
0.2651265183949904 
0.1614210585466812 
0.8869111880039783 
-0.4783451129599014 
-0.3655044436219462 
0.6621593672404277 
-0.9866431474810569 
-0.6242723067752823 
-0.3712155841603887 
-0.07220397461439489 
-1.635052797535789 
-0.02324976235970836 
-0.3235895759196972 
-1.016658016975922 
1.590801828704097 
-1.614066079851524 
-0.00792662046898133 
-0.1949409476725575 
-0.3958586396206342 
0.3757992063906099 
0.4884857086490945 
-0.2991447229189216 
-0.08091847897421539 
-0.09164069701234059 
-0.217776733704663 
0.007361662935940712 
-0.4451544098732336 
-0.7376975156345784 
-0.8781919695905592 
-0.2619217416104661 
-1.24188908883805 
0.218051392236637 
-0.4833930877991403 
0.903534657466608 
1.28220889616479 
0.4764310549515114 
0.3255679898714745 
0.3507508208854132 
0.5203343539687637 
1.224437905746336 
0.209645096847096 
0.3421950986164689 
2.004390932089477 
-0.4872604929014117 
3.281582983604715 
1.23217214439453 
-0.1759728745453041 
1.606974917054349 
2.466914500951919 
-0.3347119200868114 
0.3749701295288698 
0.6547871824695992 
0.1975877901118416 
0.1244614582426381 
-0.00777495073932706 
0.2201043041848575 
0.3866559362156685 
0.02041489977520955 
-0.7267609982286694 
1.122175894205712 
-1.941374961517752 
-0.6262164851929042 
0.2390576837541687 
0.2646002552987705 
0.6626781176331575 
0.1858520513765436 
-0.5542387159469579 
0.9885536044144875 
0.5624323622257014 
-0.7306543513722962 
0.5748602273968044 
-0.5145731665219412 
1.105928806002493 
0.9752019653181161 
0.4145292466967647 
-0.2789233013718037 
-0.07473041385271342 
0.7348619686113342 
-0.01951005076278968 
-0.5686522903889953 
0.3823629322699708 
-0.635680131829914 
-0.05271967994531918 
-1.128912637276379 
-0.1371357200889952 
0.1287579842929275 
-0.1030200923354867 
-0.4981770006167657 
0 
-0.3898515765212617 
1.212674630643857 
2.012811703697551 
0.138724711635634 
-0.9780781001778986 
-1.129231290057448 
-1.316682657417857 
-0.480100842042099 
0.4626790278639785 
-0.02329498105406676 
1.054652612197075 
0.2471472188213846 
0.06208873357456059 
0.3837197004439089 
0.02023497596880199 
-0.04503942602015172 
0.359405775988183 
0.1614737171202281 
0.675122235349283 
1.987908521596137 
0.6745606249336349 
-0.0450103016121283 
-0.01261120980699205 
0.2093404772702233 
-0.769000639731932 
0.198661258301417 
2.889285184948466 
0.5545183180647517 
0.8317189506969578 
-0.1038421481811177 
-0.5201307110073703 
-0.4418641837658224 
-0.05276742511394334 
3.292619038515389 
1.504197818257813 
-0.1976492046106259 
0.01993369173057791 
0.06904734902475368 
1.003308848093858 
-0.5379143837754671 
-1.20960298992623 
1.32102935161749 
-0.2280195144002713 
2.553539370737476 
0.3066067815508627 
0.3222075227905224 
2.634396584343266 
-1.35119590252783 
-0.8587240952421537 
-0.1510902693215248 
1.389644675910963 
-0.832612149980643 
-0.5064610797646844 
0.04501463434880155 
-0.3834814385051108 
-0.7306155128982598 
0.3083029365447643 
-0.06171464400259921 
-0.2570703887958821 
0.5107609970830578 
0.2157001447985407 
0.6275683081057158 
8.673617379884035e-19 
0.1677214677481285 
0.6004854382403826 
-0.2305545976980088 
-0.6074010735382077 
-0.1604377885881598 
0.6726661627987098 
-0.2121700107703047 
0.7848012989719432 
0.4747696697819551 
-1.078478544120351 
-0.04717430243625532 
-0.5894754521506531 
-2.152480125562628e-17 
3.182871386701241 
0.4729917375934746 
-0.5595646965417056 
-0.4652750639786187 
-1.553345926858893 
1.544901284361824 
0.2310168576564517 
-0.3344515710519073 
-1.001421404169038 
-0.5594717690714349 
0.2995189248577979 
-1.432537459699748 
0.1637327750798245 
-0.5788687869767886 
-1.395910297075087e-18 
-0.03483894238983346 
-1.07648795945386 
0.07053089234600754 
-0.1472195133844533 
0.3206983972606741 
-1.134775148669231 
-0.003391936186497715 
-0.5035796931636007 
0.1513600192777068 
-0.4168659297868821 
1.995718737971797 
-1.853940099597628 
1.198119531842529 
0.1643918144155855 
-0.8419468873196511 
0.5935163285630675 
-1.537864406581809 
1.589416692713461 
0.6245674563988715 
0.1622182567144719 
-0.6516233880291261 
1.777953075305294 
0.1207905372805066 
0.5923893058118932 
-0.01424840546751704 
0.965618029558407 
0.7273621059227947 
-0.9834362196351736 
-0.5524612204258367 
-0.5182153677654692 
0.0007690120970444499 
-0.205098168981254 
-0.3642707681927365 
-0.3367717971440534 
-0.2238032556662261 
0.4650766230112542 
-0.146263917676471 
-1.005062600323092 
0.0537701828827825 
0.1838153761937487 
0.8102939048252199 
-0.5439966098317183 
-0.6254537963811906 
0.2425587617481111 
0.365861819390531 
-0.4674699163589608 
0.8925719697624303 
0.118980831082642 
0.4725203382367678 
0.0615665010221975 
-0.7055661964005592 
-1.667505857052171 
-0.9088566098131415 
-0.04260241231955685 
-1.380082566156516 
-0.236352668310903 
0.3342461826020397 
-1.217848335301668 
0.0291676366816149 
-0.2597360446129701 
0.4890643662454808 
1.362921538735791 
0.4967305471338094 
0.5858823643252864 
0.5252844924457104 
-0.02142162646979745 
2.183705031287196 
1.444379968681307 
-0.3907285245402125 
0.6586792993986286 
-0.02684434004628209 
-0.3735278860693015 
-0.2102638999388366 
-0.210410044309089 
-0.4696868530116997 
0.4766283098050672 
0.574847361858385 
0.1684569296004111 
0.2842889761961515 
1.146484292996929 
2.685854316529089 
-0.1125822196129891 
0.6784949404865507 
0.5719789121806222 
-0.4722039250595851 
0.171014665897946 
0.1380965399009559 
-0.0004249436852058289 
0.731486015216377 
-0.275374145998896 
0.2983316213746307 
0.4674203404078238 
-0.3305735317068477 
-0.07326956966038513 
-0.5015580000604232 
0.3801904335773054 
-0.8856374555251986 
0.4550631146024193 
-0.4426853943097687 
-0.3422977058815305 
-0.3082990113876271 
-0.1324150949426959 
-0.2169537452814384 
0.01262409208922306 
0.4134699078482844 
4.661365177861065 
0.7821945728505376 
-0.1396218159558234 
-0.5698611831657077 
1.606406724592175 
0.3818100493623529 
-0.01051075166093933 
-0.3547470100198819 
-1.166910073074175 
2.836195016230944 
-0.2043925855487001 
0.4626182080266013 
0.1749073927197885 
2.423882557291504 
-1.178949103782897 
0.5100049719209594 
-0.08839441505974795 
-0.01243840779077882 
0.5349486113269658 
-0.3889696655948869 
-0.1725163464710302 
0.07286630074770517 
0.1860533714184198 
-0.4053219132233243 
-0.5466373758817855 
2.157760161760072 
0.352105679812188 
-0.2106906919437095 
-0.8212372406459141 
0.2558968430214874 
-0.4107453313490155 
0.3671404548494454 
0.2075349794703392 
-0.5214934723750447 
-0.09683792787634475 
0.3439280256236141 
0.4405003045046737 
0.889295938676062 
-0.09380015016288012 
0.116428584757907 
0.4063603108774852 
-0.6022972412003621 
-1.113717158315555 
-1.193434943953808 
0.9668192910646939 
-0.02328077588069205 
-0.166775895647763 
-0.1199600944424052 
0.09970362442817136 
0.8373704019006928 
0.5271995795257675 
0.8470556623564582 
-0.1009083425607468 
-0.3715076293154863 
1.021011573603137 
0.04215148841869929 
-1.602169857365305 
-0.3554898808310105 
2.135861267169349 
0.08668569361407125 
0.4389047050681384 
0.1503277653093907 
0.3962365187310785 
-0.1000832544082874 
0.9162037109347615 
-0.0008624932821613327 
0.4843562502766882 
-2.093415736487302 
0.2661250264794192 
0.8762296965111492 
0.7002293225753045 
2.676249835539229 
1.001654226846464 
-0.9736306881729146 
-1.212816289233034 
-0.8149469672162906 
-0.1078228220181962 
1.086488678498079 
0.9137698686671323 
-1.151029628795347 
0.126752809562842 
0.5302573337447029 
1.090256024306001 
0.006019227744876347 
-0.9309246741683183 
-0.8577379695172668 
-0.8313899947086811 
-0.6045816335538197 
-0.5236818547534794 
-0.4439266076546861 
0.1390125411293776 
2.473336205982557e-19 
0.7184650896164146 
0.2194366158428086 
0.02431873745056495 
-2.466674213570292 
0.06220034183267745 
-1.491273272696874 
0.1848193303462547 
0.08172700845479637 
-0.7700953381715282 
-0.09573602965137774 
8.673617379884035e-19 
-0.9899773669780665 
0.6633621139166086 
0.02974287449933355 
-1.10760261695693 
0.4850761962399946 
-0.008443449683246784 
-0.684208110964499 
-0.4035812039007834 
-0.9794602176055757 
0.6775635678292853 
-0.2867576462846893 
-1.046337411944062 
-0.4896208597283023 
-1.07724148800755 
0.2162298734978781 
2.024237121023542 
1.118069530085713 
0.2571013304705935 
0.6170737835961383 
-0.7853697014541423 
-1.337015634707708 
0.533115785825511 
0.3288450132933419 
-0.03169003481513741 
-0.2731267477006766 
0.2446460543289802 
1.181860603095912 
0.04023672767359043 
0.2078332031623094 
-0.03388703795044282 
0.02580847820495849 
-0.3769117404514949 
0.7824130130185073 
0.6438517124757062 
-0.5441167306691473 
1.181633724511086 
-0.248514646588749 
0.05780720234954663 
-0.2669791162966539 
0.04496117457720393 
3.220679095403738e-05 
0.4097047695187889 
-0.8570853882166865 
0.1291718504991402 
0.6815650406794019 
0.2340626383469883 
-0.5780201481094092 
0.9566434454367537 
0.296742017892075 
-0.5511248985091093 
0.6676313006113294 
0.07467547255917882 
-0.2766071067049792 
-0.8942101038477894 
0.152727757806961 
0.5016310930298958 
0.7996707699965859 
1.557449659275373 
-1.306844717155474 
-0.0919017937031861 
0.06737367529984446 
0.3178973263181672 
-0.02080891387223422 
-0.0008648217553856998 
-0.006670687867202504 
-0.7195044297873028 
0.9917557526327641 
-1.171347064986911 
-0.8719648289203394 
-0.383878773047908 
-0.5524140230227065 
0.8989559294300176 
-0.987847315513665 
-0.6318006770530479 
-0.2560519361802205 
0.8090214860176671 
-1.339201926766442 
-0.160046696138272 
-0.2822132385545347 
-0.6463906703683759 
0 
-1.944362153632599 
0.3018927951664057 
0.01399737919732511 
-0.04263735493687905 
-0.2502456487725854 
-0.3558645066211845 
2.488131819871473 
-1.004553558960977 
0.219621526608859 
-0.4013345086591 
-0.3447885157554583 
0.2346181470369083 
0.4120253026498114 
1.545298959291958 
1.282176394612864 
0.1547870014036214 
-0.02797243166293514 
-0.4052978259952854 
2.05483785118596 
0.05216482309169639 
0.0303275500285702 
1.50378044529813 
-0.8618532677116353 
-0.7823851089907315 
0.6531610821912448 
-0.1149823801945986 
0.2138895632587961 
0.222923639021786 
-0.08399653222106904 
0.03970468776300487 
0.1103786611549089 
2.502612708879906 
1.181589487365446 
0.5645875289386575 
-1.144699576528222 
0.5885742597217137 
0.1070637664916729 
-0.5790475366346982 
0.7746953568761232 
-0.667837388249052 
-1.104336843786753 
-0.4735372104960339 
-0.6211172064658231 
0.2987153740733459 
-0.1124580156190408 
0.9437901878362932 
0.1816522703965566 
-0.04486721703845212 
-0.6106113259289466 
-2.875690680773194 
-0.2208781753916734 
0.434655414368492 
0.4877282449807391 
-0.3002192508612551 
-1.894459063193931 
2.186422587369881 
3.881585710661752 
-0.1251386549105009 
0.002700840858842321 
-0.5821493468141069 
-0.04689857476093434 
-0.8239024140812649 
0.6319833904174595 
-0.8709320269883942 
-0.5094452217973796 
0.1140914375685771 
1.77322598292269 
-0.2865342294726022 
1.125996289535651 
0.1451364600006283 
0.2341798288746194 
0.5399284308376865 
0.002113081669748595 
-0.5011000424490767 
0.3668087840740378 
0.4043625788160172 
-0.2793495041476431 
2.092824455021043 
0.1978587427282946 
-0.09578857196903032 
0.3660335954812931 
0.2442899376145079 
-0.01505110451408431 
0 
-1.335340903196472 
-0.3474665609243378 
1.723044898982024 
0.8789240665106569 
0.3826149406318552 
-0.01959579149449419 
0.2843013253732632 
-0.4208947119075335 
-0.5825698679379904 
-0.2535446481143625 
-0.06032714773505939 
0.36805180201215 
-0.03272071106869954 
-0.5468132909098512 
0.1339840442006656 
-1.416112729854931 
0.5844499725544728 
-0.3865939022015155 
-0.4467702505487494 
-0.3030767350939367 
-0.05234254867264983 
-0.3527668493541811 
0.7438054252084292 
0.1086129123224953 
-0.01222249126905926 
-0.08963816243604474 
-0.1291314261993619 
0.2067528892474237 
0.02965853638026077 
0.1131283624985687 
0.5633200444658769 
0.1438862484982376 
1.456767960983341 
-0.5451398040257497 
-0.3381013638403195 
-0.06757545321371684 
0.3782835941646927 
0.455775586686866 
0.04892123725790174 
-0.3029503855190675 
-0.6971005692928499 
-0.02606334740786217 
0.1444709138457721 
0.5370379310080647 
-0.009539947201817618 
0.4119079816611375 
0.872985929264506 
-0.0643011409282313 
0.3368498240703092 
0.2102998306894847 
1.061721160688363 
-1.389163094487271 
0.9752514757473026 
-1.182771605522623 
0.6988935017202401 
1.506088034063636 
-0.9371376126388772 
0.5044850457820035 
-0.07474018677989323 
0.2131280536432536 
-0.1779819284410846 
1.509383330178998 
0.05536680800762085 
0.1528392745017831 
-0.9475902936232941 
-0.04403536461485415 
-0.1281401104203056 
-0.4754583723822008 
0.2598586992540311 
-1.177333365514891 
-0.03736683844085703 
-0.06317428967401839 
0.6177405665127912 
0.3220368329264878 
0.9837031610310405 
0.9640227921587849 
-1.102451953609521 
0.2362172362593079 
0.01848224157903744 
-0.5737307593252025 
0.008280155668983111 
-0.2065136819105448 
0.9738026399755203 
-0.7836160151565428 
-0.03238837290357942 
1.29982479157366 
-0.1231263569878396 
0.1185944343765452 
-1.418111828695922 
0.5526990447410769 
-0.166591020222661 
1.39835470886784 
-0.5185451210474615 
0.8428339964982063 
-0.007629609340721285 
-1.419118143332411 
0.1256758506350117 
0.3868318640270378 
-0.4179889054890216 
0.6637677566786613 
-1.099766020421871 
0.5239482328250171 
0.05302883742704265 
0.05051363211400138 
-0.858580027911365 
2.439454888092385e-18 
-0.2192087487027699 
-1.024068204318135 
-0.08968472024149342 
1.090931493847775 
-0.4028933828890232 
-0.2926551557280947 
0.206607946754316 
-0.1895877089509855 
-1.74603821274301 
-0.3040937998500579 
0.4122364938724518 
-0.3025890137773546 
0.002524320391948699 
-0.03599978356474186 
-0.1557017872187658 
-0.2408571110302652 
-0.1356879452634255 
0.3374195546471888 
0.600514864317746 
1.468395498336248 
-0.8330013875668822 
0.1448600275889531 
1.455604501080838 
0.3348556462109815 
-0.9395511221784109 
-0.9002587654674958 
-0.2527151482184056 
0.08327416764481181 
1.408743605368168 
-0.1615721974951093 
0.03108542446625613 
-0.1383058893155203 
-0.1317716478655843 
1.016626857712378 
0.3515831200575246 
0.8316862870471087 
1.104022288536886 
-0.1825761970786248 
-0.08232970459821544 
-0.4623702893281759 
-0.6624368278436055 
0.5329023128053796 
-0.5659199010093409 
0.05695932314536192 
-0.0941776228918586 
1.332859029634063 
-0.06961774142119424 
-0.5641804499757502 
0.1160125182749785 
0.1444346891337875 
0.2926542697551966 
-0.3628327740587167 
-0.1142758307843279 
0.6352105830336124 
0.3924817717573378 
0.1828328109732835 
0.9003090105236803 
0.413726078312876 
0.3795813886515131 
-1.117562115795778 
-0.282169450446184 
2.668459766672396 
0.770989949454894 
0.5472896723964454 
0.5058812496040112 
0.1481991392855579 
0.00619025985958151 
-0.6223067544593406 
0.4319491587492658 
1.734723475976807e-18 
-1.221271358170288 
0.4095825602147418 
-0.5326464353539864 
0.01868820711343332 
-0.01245442401501582 
-0.2965755348892522 
-0.5316668939426258 
-0.5654772751704567 
1.366640881332801 
-0.07566497039895577 
-0.7463696203862495 
-0.7980393135748107 
0.2947339439322837 
-0.3447931427055763 
-0.3840021999854872 
0.9332127940951339 
0.003334464031782658 
-0.2530120608150869 
0.1542705798013181 
0.6518147677359296 
0.04407427344192126 
0.9429808535585561 
0.5894964169423884 
0.8425830936499267 
0.3706079150939248 
-0.1144633880206267 
0.1194908682296507 
0.254275097049983 
-0.2783326707067854 
1.426169474107341 
0.3527280486536495 
-1.426280639420427 
0.1252227626451266 
-0.4035530476985563 
-0.2410036731018535 
0.5431299237733462 
0.6937495778970122 
-0.4438227442827918 
0.2371585975528977 
-1.023576625059299 
-0.6734297591212786 
0.3053274410746195 
0.7704965094611499 
1.290001711134774 
-0.1119677981813164 
0.137041059723181 
-0.2242354641476282 
-0.02238037228914249 
0.6278435199047396 
0.5297441344811625 
-0.06581758387251566 
-0.3733857646229876 
0.8782130024712027 
-1.50907500817155 
-0.02313953195377968 
-0.1804691317286479 
1.610228752618232 
0.9823932795321874 
0.6322085795075871 
0.01498576175877065 
0.02962175540493626 
0.0439874751127526 
-0.004653785197200125 
0.9849893414806737 
0.05587837649123751 
-0.04105835895450782 
-0.2132856249635087 
0.6136943115527843 
0.9143427127808145 
0.06764980338646021 
0.7254148270577272 
5.759824041329242e-20 
0.2321631202145877 
-0.3441928682300774 
-1.063902416568314 
1.303555647308074 
0.1709073689658466 
0.02651930565129985 
0.5846411137103603 
-0.297183471103481 
0.3206773620834712 
0.05089851615838469 
0.3099845786609485 
1.041647188210195 
-0.3913993896386053 
0.8207353228960976 
0 
-0.1238493517795028 
-0.1594398356370305 
0.0169820496000343 
0.2101386049892752 
-1.854531244963437 
-0.2233178655066351 
0.1599041366707482 
0.06068996173442581 
0.2305126430411655 
0.1593337055450235 
-0.8122373761668769 
0.3044519119633201 
-1.764417684079816 
0.8082152632177788 
0.01413436358905032 
-0.004406694946120223 
-0.8051107974532195 
0.4143089834418449 
-0.1026480778413625 
0.325636288358843 
-0.7752191802748134 
-1.369589683665633 
0.4380754318868078 
-0.02180188118925019 
0.07947304581078382 
-0.4696470945108628 
-0.1115206231939313 
-1.029406354580381 
0.2573077838715953 
0.7840644347476875 
-0.3442333406125772 
0.2389389043714402 
-0.3625760102766763 
1.737240736722707 
0.9292736722240511 
0.7635033492409571 
-0.002542754983058924 
-0.09107936649191481 
0.5000310398206272 
-0.07847898258498009 
-0.2554470170807712 
-0.09473411463524677 
-0.006997705920000249 
0.8243883213697102 
0.5221268929119049 
-0.06174630969036117 
-0.04883205334464596 
0.1594262522424303 
-0.01061308569221064 
-1.428639488565556 
-0.01665908625274646 
0.2514084150501064 
-1.529909838800445 
0.4527316481687354 
1.001410370058602 
-2.43699415729814 
-0.007923279510198977 
0.6281228632625977 
3.109811735981173 
0.4578501064923774 
0.6368051752426732 
-1.292388921290257 
0.8754338510040911 
1.511181628416424 
-0.003262865354592391 
-0.1722161598267372 
0.8655250491840212 
-1.136298043796794 
-0.5528636161357574 
-0.1198372602588781 
1.232700599664945 
-0.09351399064915748 
-0.432034829918885 
0.694230249749045 
-1.331172454756739 
0.8948188660180284 
0.896694183768816 
-0.1606316585008612 
1.080513559190106 
0.02803044717993469 
-1.084757041051959 
0.8067130372022433 
-1.139334256954432 
0.2264861858187107 
-1.103060232658918 
1.254087590008182 
0.03028174522264611 
-0.8228053559608725 
1.418749327098683 
-1.864419453841601 
-0.08549771289888376 
-2.881701897816128 
-0.3985060904040779 
0.03268224631907623 
-0.6752959105910165 
0.009429192482228054 
0.2758347015948788 
0.4281156454463002 
0.5679177998944536 
-0.2311392097167365 
0.1485246411642865 
1.292348182673594 
0.01221028316489973 
1.089343399915731 
0.1456599988534582 
-0.2581137714601731 
0.594787996617938 
0.274259808880427 
0.5008651601447891 
-0.6799365891367827 
-0.7206959079978528 
-0.1494858405697038 
-0.1311115031746439 
1.685453006732072 
0.004612749967135974 
0.07615751445552317 
0.3108946814335125 
0.1620952759500361 
-1.260723091948793 
1.361091525315173 
0.4601103991446266 
-0.6181899893164579 
0.05356340228944208 
-2.044912657689272 
0.316394435083942 
1.122441518770446 
-0.1005641660413303 
-0.02358549031464179 
0.8347385739870309 
0.1974700602395746 
0.8659829071358701 
-0.3450449763993397 
1.91062423277464 
1.186586294623432 
-0.03796872916732293 
0.3437909337686827 
0 
1.219128189858287 
0.9910919352424 
-0.05733951516740212 
-0.6115105308772028 
-2.191240166010242 
0.2484361659813159 
-0.02306982540730392 
-0.9750244957907532 
-0.2937941104363908 
0.3676563622873741 
0.1668366436228485 
-1.118563455481342 
0.5495835579282751 
-0.5502987684793618 
2.040395817734775 
0.2451165467396209 
0.250643592167607 
0.01485247638324257 
1.343656363035602 
-0.2353547622772187 
0.01024171391060198 
0.02945654409650996 
0.008971349867384865 
-0.4279168546949533 
1.033864124522794 
-0.4461814045712423 
1.537387329278571 
0.7610819732984628 
-0.04985813902205876 
-1.163400609561318 
0.2936994873831306 
1.127824858504466 
0.5700150464933846 
0.6412961281372553 
0.01206144673111291 
0.7747856974285799 
0.07792420005521082 
0.8089204386044909 
0.3404535227139839 
0.220167915700095 
-0.2284353972434258 
-0.7316495940509795 
-0.9986296278644921 
0.2535290789883167 
0.6342774087634649 
-0.402083906009095 
1.041071115004039 
0.2152932492078303 
0.1265150777296651 
0.04263218375900712 
0.3742318868673177 
-0.1239955405467019 
-0.3486221693822772 
-0.2589709008436065 
0.1182646703715924 
-0.02966119577364588 
-0.07186594589187115 
0.06653198333850088 
0.671054769909043 
-0.5245517291070534 
1.140749162921367 
-1.06206808051048 
0.05134226704651827 
0.5548007273024051 
0 
0.02843177864230528 
1.465181844436076 
-0.637847206614272 
1.109671035781385 
-0.3518345635450596 
1.775920382506015 
-0.2678530979216436 
-1.229761802992027 
-0.7738547692058745 
-0.05442221463770407 
-0.5384080195865134 
-0.5057108886641932 
-0.3279633592142127 
-0.02620152569049298 
-0.811104083962908 
-0.0004773464965940632 
-0.340126298178115 
0.07282614897993485 
0.391821001462086 
0.8531916496285751 
-0.3951487633495639 
-0.1101991991994115 
0.3442454015456126 
-0.4296069721941649 
-1.275064341691257 
1.464996473064575 
0.1664276244106379 
0.9656556306108344 
-0.778995719191574 
-0.7161503353343757 
-1.326230416390432 
-0.6590281583715366 
0 
1.3556163564244 
0.7151020224529059 
0 
0.132990094893695 
-0.8519159366668004 
0.9928529692927979 
-0.08211202270452504 
-0.1054354398692495 
0.1049199297393037 
-0.1458784793211741 
-0.118580268379724 
-1.220905485984206 
0.542928119991314 
-0.01571912978575708 
0.6575522430608155 
-0.3840613623593881 
0.02307909001832163 
-0.2960830177461958 
0.5350748057175575 
0 
-0.02927879682810472 
0.8869626264228178 
0.09811149121027667 
-0.04329247799554853 
0.4913466821967499 
0.2591940893151133 
0.06771272364367997 
-1.154705045950747 
0.9486749719003309 
0.2390851558876977 
0.04711614072794422 
-0.09248000756960302 
0.1223190107174085 
-0.234328772911424 
0.03845180011064757 
0.3545445398093419 
-0.4006318107077189 
-0.2724440949092694 
0.8650104936453942 
4.336808689942018e-19 
-0.1052732254352725 
0.2031318185437191 
0.5417805968102468 
-0.09055653368680258 
0.7667176695211614 
0.2498080792696407 
1.053396584440898 
0 
0.9974119910729875 
0.01387338179950377 
-0.06493813483338545 
0.4952750237156925 
-0.5961396936597406 
-0.7974258518051567 
0.1732098152181855 
0.8820935018885243 
0.8675045994833179 
-0.3193201655344321 
-0.1269438190975925 
3.304000914622515 
-0.604156545511301 
0.03507185098228972 
0.2034890976454982 
-0.4739059401518729 
0.04215322533842091 
-0.3393433651100331 
-0.7588035191432841 
-0.6694032785131608 
0.005560727423530139 
0 
-0.1743806758934356 
0.5340717989415155 
0 
1.503464999954178 
1.096351940118882 
2.008892013272608 
0.1357470126249176 
1.34478934077539 
-0.309450600709321 
0.01222761769869491 
-1.508750342695787 
0 
-0.5357816777703096 
-0.9469163381793667 
1.91039887222977 
0.7217236625192935 
0.3779114652157478 
0.03576597624665155 
0.1497618898598932 
0.7949962029272284 
0.06209095668004332 
-0.06322087845441192 
-0.384957977216045 
-0.3566902646214149 
0.1237439389616678 
-0.09259159387593344 
-0.2895571438552404 
0 
0 
3.252606517456513e-19 
0.9598530297179222 
0.4699443060234489 
0.09659901273859095 
-0.6573003139860528 
1.595319376708606 
0.1267793886005175 
-0.2163625748819041 
-0.1432336432271243 
-0.01037527616326329 
0.7141642948304843 
-1.160045806062088 
-0.6104447052653144 
-0.4730353144628218 
-6.505213034913027e-19 
-0.05881457223669206 
0.0004709802674782603 
0.006834374536030586 
1.198000299090788 
-0.1874160130286315 
0.2883791117887906 
0.07446480824540998 
0 
-1.222074099588538 
-0.6896335025543018 
0.002219131218468225 
0.2338826777057341 
0 
0.8920439626242307 
0.07476029777528603 
-0.4063345804042742 
0.02896162170997874 
0.1484909852914887 
0.3276491065848156 
0.7525844057403019 
-0.4661389836108003 
0.6064172430161522 
-0.2264253455422062 
-1.328118767891103 
0 
-1.102984278436454 
-0.152943903327776 
0.1842572714361098 
-0.8058756648341473 
0.07142115622866266 
0.7908482704603689 
-0.1688617113625575 
0.4323112035935532 
-0.05354770681436778 
-0.06994646184775477 
0.152560130761285 
-0.04204018391841677 
-0.2755549211938 
1.776999079850734 
1.109395944228357 
1.128990578123671 
1.473163239435854 
-0.9151584143384206 
0.8086853105723142 
-0.9027774037581453 
-0.02638645502068018 
0.5021289437757019 
-0.819859238907985 
0.2101259142132387 
0.6847749898185624 
0.1224279464379647 
-0.2614646528651234 
-0.6277701087911028 
0.05903821075941592 
-0.2777700351075829 
1.463834120341044 
-0.5574431038051216 
-0.875859501118379 
-0.5858711677145796 
-1.252031803435196 
-0.1962571128682288 
-0.2977365431862226 
0.1888386502450937 
-1.363521572477544 
0.3416803328292937 
-0.1492530941217244 
0.109350032788231 
0.618594915969191 
-0.5740337841246717 
-0.350804669372573 
1.273895717952231 
-1.474514097371557 
-2.629096032796099 
0.3117769924826043 
0.3153298716300884 
-0.3099623934081863 
0.8779898873999875 
-0.07692523598912615 
0.3402740041771304 
0.0185667988479875 
0.2030915543091052 
0.02025523739754697 
-0.2010731776530155 
-1.057337255392874 
-0.36224160084033 
1.297338734988314 
-0.5383993000207898 
0.7652155261170061 
0.863311451328006 
0.3994632767269346 
-0.5023046105645034 
-0.3113952120510106 
-0.2458015903892586 
0.09359244263121691 
-0.111548454644347 
-0.1340206532128392 
-0.3374385007549807 
0.1789294102652809 
0.06759585744995363 
0 
1.374479543130503 
-0.300451404804026 
-0.4517849775051607 
0.2107976931586605 
-0.2825198175189688 
-0.70842966983685 
0.2860329430612387 
-0.4146560915838494 
0 
0.2707535475192757 
0.01823706188055592 
0.4067979063844901 
1.020766308655299 
-0.2088463841877122 
-0.1053995950025917 
0.07019792072546852 
0.1533454853233394 
1.642939728942159 
-0.03308563690515813 
0.1152045428543961 
-0.3198368673791693 
1.354067509031071 
0.002048142067090052 
0 
1.019171440805269 
0.893002780781091 
0.6729967807101124 
0.0414330576380799 
0.3198708806778251 
-0.2802448460655903 
0.5580045182247599 
0.5174632251001408 
-0.4503516128021307 
2.073536654878527e-18 
-0.8346764744456989 
-0.7918854748865387 
-0.08574974480820501 
0.1942495555116057 
0.5449678565127198 
-1.334821156862375 
-0.1416984936217324 
0.07619544510667815 
0.7696720478470558 
-0.6609083204273745 
-0.572208158516319 
0.02697581271271454 
0.0263847885718161 
0.07631938001739291 
0.4037570651634492 
0.5615753630611111 
1.521376123635821 
-0.9830317273860639 
0.04916774877896319 
0.9528659999850069 
-0.6150540261513676 
0.8039309373286935 
1.006632675636574 
1.281631060718352 
-0.3146092128750965 
0.277610783476427 
2.323388419975149 
0 
1.140674925484942 
1.59407537786332 
0.1484211659219165 
-0.9323477058176165 
0.3833205390420358 
-0.1390254141771416 
0.2005619010110016 
-0.01519696406688525 
-0.1018728479174472 
0.7733775469503162 
-0.02322624949796393 
-0.4658300542022696 
-0.04974122276544816 
-0.2964162122584761 
0.7671989813829271 
-0.1059760727925208 
-0.1433162365564868 
-0.0292561377596182 
-0.2670286883845454 
0.8600141648477415 
0.006473962149173296 
-0.2355535587371813 
-1.765793877042055 
1.530282832369908 
-0.4900015062553362 
0.0007036687151452266 
0.4857289912692205 
0.1635522619715204 
1.797751511943215 
0 
-0.01782482270162376 
-0.7510649993222847 
1.068205352305623 
0 
0.161315186781557 
-0.1042187973377733 
-0.7712225868351418 
-1.579993136542885 
1.186151586651608 
-0.3360969906199464 
0.5739627885647979 
0.01573693919016456 
-0.1165495786689956 
0.03573622242347387 
-0.1184350065228913 
-0.02260833785767308 
-0.2080034173057111 
0.7336608613108855 
0.2142747706671433 
-1.79101883891672 
0.7918641567772964 
-0.7179425180647876 
-0.2893363454244143 
-0.9716765728322827 
0.1079975183093828 
-0.0739831597734374 
-0.7232094875861576 
-0.2821849249760346 
0.1458492747300394 
1.628667632795682 
0.4004560215657759 
0.8099596242896648 
-4.336808689942018e-19 
0.1121935510084775 
-0.2434561499512164 
1.066752439888721 
-1.069486614903735 
0.9437491026522628 
1.780535859513248 
-1.528097284949885 
-3.469446951953614e-18 
0.2328430933959017 
1.633400721907745 
-0.4977208369090984 
-0.01800904291363404 
1.212354139401714 
0.4004261011547236 
-1.828798522281569 
0.2973869047969091 
-0.6075851133998934 
0.3615782140491589 
0.4003723946450772 
-1.247440207499581 
1.271066156419235 
0.6799076765651765 
0.6258031258565185 
0.3171841991258021 
-0.2156412009010729 
0.5031550632688332 
0.8712773801928347 
0.06298331796274442 
-0.8776169921098722 
0.4068151966552804 
0.07932393524852449 
-0.3916422633772594 
-0.1415495735255962 
-0.02910105519086805 
0.2846760760878936 
0.5037073958067481 
0 
0.4504996312138494 
0.3211783422061547 
0.2413741161933015 
0.1947876737598651 
-0.4957660348267345 
0.6174998226604923 
0.7232200280621223 
0.06551516124402543 
-1.146482899491913 
0.7427766940071633 
-0.208482194622693 
0.5542928305889996 
0.1935821393172585 
-0.4540350305550319 
0.8433185265655164 
-0.1033449046587044 
0.3019969842214327 
0.4124531630810938 
0.5436363943255574 
-0.7200071336991306 
3.842170848951053 
-0.7800979292922732 
-0.7225696168379225 
-0.5794496804906257 
-0.7680226884968039 
-0.3106481035010941 
0.0748970092596021 
-0.009887676135814653 
1.43183023416766 
-0.09639168567230744 
0.232592173143352 
1.204544866321021 
-0.07500722197468167 
-1.515434222419412 
-0.8961928382078985 
1.038242429218247 
0.2521940322272172 
-0.8003365571676936 
1.38956767653145 
0 
-0.9096720430316251 
0.1253618324857935 
0 
-1.103592454058942 
0.09859754362142831 
-0.229561433603083 
0.07014010142302858 
-0.05481917197234105 
0.4892884583255448 
1.320013636625098 
0.1285216999955633 
0.3755199868525636 
0.09346439354348593 
0.02128469922560104 
-0.1526500344919367 
0.04107158697527156 
-0.6120026645994646 
0.009340607417266892 
-0.07009249882565101 
-0.09366288463665717 
0.5042260458362724 
-0.3459941425339462 
0.2523864746896415 
1.207946318205272 
2.350253706024608 
0.2600971389637748 
0.5835612485199543 
-0.6595186306995096 
-0.3899325530630064 
0.9253125026292595 
2.396067841041368 
0.06941432187184382 
0.1638901961351021 
-0.1296784909654002 
-0.4418658793741155 
0.4089625513144297 
0 
1.450772524692789 
0.6160032074467044 
0.5845912541311588 
-0.2085612266135001 
1.105677098395064 
0.09953139387839077 
-1.129906197085695 
1.100358182749645 
-0.4828478765138579 
0.7255040808294614 
0.9799269484051218 
-0.3127123497364687 
0.3443451455469459 
-0.1044259094652036 
0 
-0.6455534006858015 
-0.03046107648302562 
0.2533056631390014 
0.5863509585096885 
-0.08718347977548634 
0.1257170920183442 
0 
0.8513565821388317 
-0.9555108759315095 
0 
-0.1295867394286083 
-0.3882129053637272 
0.4561146373370218 
0.09185896647893556 
1.061328704581865 
0.0934350776766333 
-0.9904673224482337 
0.1879014501820815 
0.6400595071288794 
1.429579063041183 
0.1222237474781806 
-0.08532760898152487 
1.025762263027389 
0.01300837825503799 
-0.2503223203990463 
1.633079522306291e-18 
-0.4689942590716139 
1.563402723944539 
-0.404226030365309 
-0.352767319672727 
0.9414060659030337 
0.7728312998944233 
0.7408865409870564 
-0.03940811798252326 
-0.1996364658930208 
-1.143500184651614 
1.210758169705367 
-0.8960913072848258 
-0.04389803745786032 
0.284367432058 
0 
2.324962048891893 
2.012428657683449 
-0.2967464712330193 
0.4299430045997907 
0.7743418794987013 
0.1601777577279874 
1.095291778503746 
-3.523657060577889e-19 
0.1378910830036088 
-0.6219941783947615 
-0.0149858074599363 
-0.01203792912043217 
0.5042409136435015 
-0.2829392172711719 
-0.1369890823047053 
0.1812818856951195 
1.079354656644019 
0.2138119610004346 
-0.09315493557534148 
-0.04470134017819802 
-0.3411541778288185 
0.02190514117797487 
0.4178495826851503 
0.09485638036429835 
0.004734822595713429 
0.0490186745285411 
0.1345217892213363 
0.6446522036795818 
0.6904831996850119 
0.7977922525161234 
0 
-0.5085186778837615 
0.1971486417055976 
0.7216367489537873 
-0.02298361420899235 
0.009776160103843447 
0.4483199177911622 
0.2753863409009014 
-0.1853512838175585 
1.025041474030057 
0.116841021985327 
0.2992935731306754 
-0.01609041249530116 
0 
0.2769926872614851 
-0.896688881129032 
1.636248639056965 
-0.2894385679753633 
-1.131286724108149 
1.04668809690154 
-0.1222515152261939 
-0.2098899745559096 
0 
1.550476760612291 
-0.4143001548604424 
-0.01102998155348798 
-0.3061429832198846 
-0.1351562061641888 
-0.03548215249707164 
0.5040731033560477 
2.168404344971009e-19 
0.08755756546421903 
0.6022742850364536 
0.007711250081756152 
0.9174860116907093 
-0.6580026287575734 
-0.5443668118795613 
0.4120232670544982 
-1.038693875777285 
-0.657840487782108 
0.5307481947801914 
-0.6813254198237126 
0.2642300805234799 
-0.1124011074691757 
-0.07684566150302249 
0.1088538239823403 
1.373857804495199 
0.5589352707983871 
0.04967292042787315 
-0.1217979153367935 
-0.6391523664061042 
1.734723475976807e-18 
-0.1791522228018988 
-0.1297836930899898 
0 
-0.02266249814721371 
-0.2054173633529504 
1.15115298922403 
-1.365536067742179 
0.4356598686596827 
1.801688481851331 
0.1451344072630898 
-1.348648726348809 
-0.02561471898165835 
-0.09439250921565302 
0.1129567522525349 
0.2127541983681489 
0.1643944249694909 
-0.9575073934657177 
0.09641998048332773 
-0.1432387593856822 
-0.1289046092657871 
8.673617379884035e-19 
1.438522573817413 
0.9095630558442335 
0 
0.04684211926963185 
0 
2.021596057654799 
0.005671054476149003 
-0.7755680303194755 
-0.2635002545054326 
0.1495361389420498 
-0.08537606888675263 
0.9470813742473304 
-0.3805672555492158 
-0.01510669899368458 
-0.940971837385818 
0.7562822171774078 
-0.08717901394085011 
-0.8891359779069178 
0.07991939841230719 
1.164351621927455 
0.5345934010724476 
0.7525081911741175 
2.385838058987308 
-0.03220675489132383 
0 
1.286337299878687 
-0.2651550980081225 
-1.201901370374461 
0.6624067583863302 
-0.365831027443406 
0.1734555134203823 
0.1388433689837949 
-0.133240605217546 
0 
-0.2655869885105799 
0 
-0.1323461114659642 
-0.3724181703611439 
1.282619511792328 
-0.2269333573225302 
0.2302851205257208 
1.244440857967157 
-0.3965392525910403 
-0.2209513518850467 
0.6724926974458255 
0.100524562257282 
-0.4227251851757032 
-0.3535751232107643 
-0.229633256181106 
0.2981116606165155 
3.361026734705064e-18 
0.2214270780438277 
0.3528579615560814 
0.8090060617184749 
-0.5470230643706396 
0.02644742317626514 
-0.002767643870354535 
1.938310273973869 
1.322926815651603 
-0.1565924671288296 
-0.0684393201888749 
0.3397753789511839 
-0.3976554535636783 
-0.02357182051136756 
-1.227264217257273 
-0.3631879003646303 
0.6138562056954562 
-0.6886775410427602 
-0.1772499845956323 
0.5298138653789174 
0.07998195774835627 
-0.2716945692712565 
-0.1422251722994838 
-0.7237033790677855 
0.1434964986259991 
0.1155030175833261 
-1.343020380785137 
1.063183857303847 
0.5821113440672632 
0 
0.699466614128963 
2.034187720816538 
1.008438380561106 
2.053187478524464 
-0.9230395379627566 
0.4486271956474749 
0.5886564144074795 
-0.1327929951279386 
0.05743752456656959 
-0.6776378728221205 
-1.504796690337655 
0.4397083978170383 
-0.2185149747921023 
0.09607495932056606 
0.422836273877758 
2.109785721831103 
3.942819939099401 
-0.4551495807299821 
0.008455276305730218 
0.4412989326989371 
-0.9667856004372685 
0.4422942736785596 
0.9614553379825137 
1.138807464449126 
-0.5753692067998838 
0.05660675798447527 
-0.4282815960117601 
0.5717814200014384 
0.219342137558876 
-0.5384606756325043 
-0.06408379723685162 
0.9321227368430341 
0.06589070256220152 
0.4198378946097671 
-0.07364972533942374 
-0.8714228746311157 
-0.1057576019101188 
-0.3964176511053763 
0 
-0.2142257216437413 
0.3321642308480416 
0.5196427708586496 
-0.6675222950306366 
-1.058615775602173 
0.0340690265642898 
-0.5432830200260409 
0.0527916940989186 
-0.1575577725695443 
0.5138426625451619 
-0.03306671413429227 
0.2573276008689422 
0.2277162377288696 
1.529787644650721 
0.3995564670252904 
0.9558509601731963 
-1.340924335643037 
-0.08468917340112773 
0.5657080475934816 
0.5945633861937174 
0.8429185044478812 
0.04913690990917471 
0.4592077644563323 
0.06839383384420772 
1.132307089197147 
1.663827252830498 
-0.09646371367393947 
1.485929597814529 
-0.7868651586324632 
-0.101480992762915 
-0.8965900319053176 
0 
-0.0869711438851888 
0.5077676450439776 
-0.4221852171948783 
-0.6498379318290018 
0.3564371516183352 
0 
0.4329858256892307 
-0.5904192427797218 
-0.003229150213762683 
-0.4542011075601081 
-0.01704286117212519 
-0.03805256387864586 
0.06601660356466144 
-0.5735124774549641 
1.146408012017714 
-0.8962268140781972 
0.760606612444559 
-0.9392611616928253 
-0.7900536788994151 
-0.1874818273331822 
-0.1116203724721947 
0.54722739684041 
-0.02414110798639263 
0.172959981017152 
-0.03403501731323769 
0 
1.063002278320463 
0.8488784293890538 
-0.1806302719749766 
0.07428799118311007 
-0.7876596254337457 
-0.0404946073396782 
0.1660023386334995 
0.06657061072737688 
0.5201720013106443 
-0.04475649371510902 
1.053600422675944 
0.1179462181096072 
0.3713381837476512 
-0.0473883357328224 
-0.1882408149424958 
-0.8236544448749324 
0.04527173633638273 
0.7389247113635563 
-0.7161908268087158 
0.7356592367476433 
-1.126850107648565 
0.8238027602131125 
-0.1904923983309797 
-0.02100917948169974 
-0.9118416973219839 
-0.1835207427709308 
0 
0.06340243210833567 
0.5463717805649509 
-0.6095278731375154 
0.2237691945988839 
0.4266275479655498 
0 
0.4802378352772484 
1.626303258728257e-19 
-0.06460064813720841 
0.7618615447252564 
0.07881403475409911 
-0.4220220648509561 
0.6766427335195954 
1.161676377231942 
0.03651684456851131 
0.1761650607883157 
0.3991874484669674 
-1.092825561714626 
0 
0.2329452417936623 
-0.6361895407186325 
1.951563910473908e-18 
0.3626714417341244 
1.072865471733824 
0.5636734138147278 
-0.1063777671088317 
-0.1848386649243 
0.6581066680759622 
0 
0.7930464613097963 
-0.2274560403455231 
-0.172520492535599 
-0.2168273326298837 
0.5277382109903316 
-0.9830701547710364 
-0.4035591737105242 
-0.5330716854982305 
-0.2194661567974328 
0.3444869723877609 
-0.3867914444031131 
-0.2762632312427424 
1.390939460084753 
-0.7608021035933453 
-0.4089343243081212 
-0.01354845885389777 
0.7851282354549005 
-0.3115384549079796 
-0.126346538716944 
-0.6007751759468101 
-1.056870430882334 
0.6079544806718162 
-0.4331352850762445 
-0.8266988105151793 
-0.3352880245661769 
-0.3411492813637848 
1.340391095403928 
-0.1548989958162178 
-1.374122461685482 
-1.562433363921708 
0.1442972595594053 
-0.2300655626527013 
0.2266949766951003 
0.1165033454932175 
-0.5224114747320994 
-0.3865176714166836 
-0.03923200413877695 
0.5781827401966915 
-0.5268299712691985 
0.1659642903015088 
0.8479706204978427 
0.5794792062736351 
0.2395679982271949 
-0.5308799899452622 
-0.07789880153272559 
0.2845492853086536 
-0.4355073219068468 
-0.5644062180891822 
0.09643130489152454 
0.9559757552361173 
0.4223384595349661 
-0.02312474777358767 
-0.1073993370764825 
0.06925253880280027 
0 
0.2295918645338235 
0.8669236642425394 
0.1146514361026729 
1.078249634786827 
0.7275941486204195 
0.4314459143544019 
-0.2508459798576549 
0.03383685362310081 
-0.08327002048143997 
-0.7115960887057251 
0.09710841077770725 
-0.02030613761130527 
-0.3425439966858599 
-0.0379174448187416 
-0.4008976740742957 
-1.843143693225358e-18 
1.388063313587469 
-1.004994891397361 
-0.1480147476676295 
0.1554342561188514 
-0.4866634387624987 
-0.3183342019806675 
1.098776585311724 
-1.073344729539319 
0.6855173073051304 
-0.3082271539038495 
0.921787946333945 
0 
8.673617379884035e-19 
0.6434899402386146 
-0.1272509927372926 
-0.648416659130758 
-1.278597567708612 
-0.1940488697091583 
1.009709013648277 
0 
0.3768668681744934 
-0.04046712862452028 
1.049966294489563 
0.4160177947396092 
-0.03378235797278351 
-0.6472015659630288 
0.786252088956501 
-1.069685327471072 
-0.1041285210200081 
0.08525914376645426 
-1.096074403181548 
-0.3113267388646376 
-1.440552283454964 
-0.4203540023153009 
0.09481555930492451 
0.1690970611982117 
1.024412907129748 
-1.389855668945143 
-0.160593588682815 
1.316685894599358 
0.1751198616144557 
-0.1382296795893934 
-0.2955945817092869 
-0.250083083481491 
-1.42002671893439 
-1.412380072688313 
-0.2171535460057206 
0.09645277860700188 
0.1724934926444664 
1.432062336234677 
0.06192405679221828 
1.646231801729295 
1.305889738601217 
1.295945347261034 
0.6614379983402301 
0.1167948231631097 
0.6842372137997297 
-0.8273150729447551 
-1.876777115208309 
0 
1.734723475976807e-18 
1.362270253372157 
-0.2649146707256523 
-0.4145159441481415 
0.220878235489771 
0.1211631572522258 
0.3847099508807721 
0.7908653853076707 
-0.8295741186034108 
-0.02427755809679147 
0.0871555263366454 
0 
-0.1961660947165754 
-0.8085401885194712 
0.1144190195045877 
0.03506222082999146 
-0.1458665104386146 
-0.1849607737538798 
0.06168600107802191 
-0.01741226670625398 
0.4482184001759798 
0.4152448084587386 
-0.2871295124866877 
0.2371821664154606 
-0.2425407310987319 
0.05190436444031104 
-0.7881217420033432 
0 
0.9212862920004117 
-1.45880879329826 
0.7435175747553561 
0.8395465891491155 
0.4972173993191466 
0.7275186236859622 
0.2934041476352539 
0.8182938847968901 
-0.5646983322509491 
-0.1544536228745257 
-0.7656392409372992 
1.499043081096863 
0.9404861904660613 
0.3523126347785467 
0 
-1.202648178914964 
0.03447615326326691 
0.02305072653849202 
1.068619653815545 
-0.06337255382335527 
-1.011965317093079 
-0.04309076364136442 
-0.4347780671796433 
0.8903595139752875 
-0.3051655697925878 
-1.587178573220713 
0.7648977491712019 
2.238897373195962 
0.5018093520438885 
0.5167246072985866 
-1.078825319489511 
-0.8456717642896497 
-0.1881555153216137 
0.6488122170545266 
0.09053439799915969 
0.1663254261844384 
0.2769813069540906 
1.115586870991442 
0.01512003479824177 
-0.008988932136564024 
0.2794417355833638 
0 
0.07333803622668549 
-0.06588083569976276 
0.2666776703175829 
0.5709800374125041 
-1.058055673246175 
0.300099966963579 
-0.04347923053912241 
0.1263265461610399 
0.4623848369649484 
0.4310591057773386 
-0.1531040640568834 
-0.1856725524399035 
-0.1368747749614435 
0.06535668522123919 
-0.09161356651621139 
0 
0.6320058095394253 
0.3776449413099845 
0.4026014984318686 
-0.5826322727362407 
0 
-0.2830137982751382 
0.5094217215625682 
0.005596524498850061 
0.5750733357989214 
-0.01212736248364244 
0.0001969076136258411 
1.156434242892116 
1.567960484232617 
-0.1669589339303311 
0.5625516300418555 
-0.1566247129879419 
0.561143259464872 
2.98477123322581 
0.1117440502222312 
1.01331911230405 
-1.159799862057757 
0.4576339305693933 
0.04230715512361359 
-0.02716002725859893 
0.1234970024550512 
-0.0386791895111188 
-0.2109525324271527 
0.497442094536146 
0.1166666695279874 
0.5671909457023345 
0.076507807723383 
0.1115540898802556 
-2.075875338786672 
0.3723775981003527 
0.3720208059977944 
0.3533942319450672 
0.1491413679204456 
1.254669234071723 
0 
0.9705827168093933 
-0.6931326836116172 
0 
-0.02284145336046571 
-0.3228956951340221 
0.2462940450807208 
0.9196065809676056 
-0.01255316841360746 
-1.734723475976807e-18 
2.118276738891128 
0 
0.2759080901065841 
0.5100571323439518 
0.5871860054622217 
-1.184251120058861 
0.1161505740855877 
-0.8966750581884851 
0.02898512272207501 
0.1852131018332838 
1.293807284421767 
-0.2182430251160518 
0.458212701679672 
0.7557597869003927 
0.8279807123643844 
0.05730854310495022 
0.2241868676782043 
0.819027066590172 
-0.02062682066404429 
1.322726650432315e-17 
-0.7742760597464314 
0.3265572222832437 
0.1212829073648947 
-0.6938731935342122 
-0.8360675902173037 
0 
-0.8210387788038059 
-5.204170427930421e-18 
2.520725192843809 
0.7695807151547267 
-0.09188935213466039 
-0.08767159769724119 
1.711920933879931 
-0.2617724787688551 
-0.5115329060647081 
-0.5515966241075191 
0.33667370709587 
0.04561752501353476 
0.0258764160357052 
0 
0.424542313232229 
-0.01621672772835035 
-0.007361380007194749 
0.04974854822029819 
-0.2497937587709789 
0.1526908063323029 
-1.141044843661447 
0 
-0.7781954730705597 
0.3097107065863337 
0.7600838724844904 
-0.6933733485414575 
0 
-0.02743265860519669 
0.7431038551333492 
0 
0.1128427213099811 
-1.513892770767367 
-0.199131110642362 
-0.09871010067083411 
1.673607168660725 
-0.1376982156924851 
-0.183546316349555 
0.3024191297399162 
0.0736662360640519 
-0.5339905431102057 
-1.595493652291624 
-0.3672335514879526 
-0.1605776080767048 
0 
-0.3117592222185185 
0 
-0.01764539390195382 
1.613228359949003 
-1.320628249133948 
-0.1502734323587144 
0.0217082774254166 
-0.08002323245937766 
0.142342416516718 
0 
5.421010862427522e-19 
-0.1870794426547334 
0.9691817189111244 
-0.6497665257202304 
-0.3124685731525535 
-0.3868056439920897 
-0.04147952883583848 
0.5318933866881909 
0.05699781972106286 
0.240218080790614 
0.5873905317426867 
0.1436385299209975 
-0.1470059762536513 
-0.03635756879041375 
-0.3028130039163679 
-1.214827226104111 
0.5504936680080075 
-0.2670375448079009 
0.3296561760050547 
0.08727905493745916 
0.01736904234008278 
-0.06387706070422476 
0 
0.7592761361122156 
0.440502590525966 
-0.2451570866469846 
0.6907019905367429 
0 
-0.01751163177339281 
-0.4090785901244352 
-0.2914005796157576 
0.117645059101608 
0.4746314349579756 
0.5464244826252285 
0.164642779592099 
-1.120298039004145 
0.1271657678073289 
1.234432255836481 
-0.2223066851610801 
0.3786197104122181 
-0.9883000195999748 
0.06959143484790992 
0.06532362858842168 
1.049460870257652 
0.1613384554659953 
0.3721693861642685 
0.7135551450005766 
-0.06023885942402218 
0.288070696664976 
-1.170796131140279 
-0.3187945438506022 
0.9064691645732733 
-0.8907021313558279 
0.8740807207830559 
-0.4626857532166773 
0.07724477437008284 
0.275428650304782 
2.458624595557437 
-0.2093651269129957 
0.06761011261217711 
0.3426818791119052 
-0.05225382970307837 
-0.08050069547416554 
-0.1018440054359195 
0.2776263165236275 
-0.3292556910150369 
1.271338298497897 
-0.4954313155454803 
0.2857940311293914 
-0.1716420655950398 
0.09375895164928182 
-0.9592490663694305 
-0.6072089502219286 
0.2181003988204457 
0.06860303594471848 
-1.184593407727266 
-0.4558977024581554 
1.15309416968796 
-0.2496900244191178 
0.0109735026728091 
1.751864696440407 
0.3435432887482174 
1.017612787109379 
0.726726268863814 
1.30810168196211 
0.2948426385500055 
0.3682314647635616 
0.2070032993084189 
0.4433296978786528 
-0.7590893763292259 
1.066943546662008 
0.2915729796297223 
0 
-1.036424624955365 
0.5043992671486123 
0.1368598485769925 
1.216651222154732 
1.229007958040783 
0.08878775918218515 
0 
-0.2855749773153254 
-0.1677595263941828 
0.5480940835156518 
-0.9161988139771898 
-1.722952128033612 
-0.3643774901568981 
1.580537718755457 
1.142014425462343 
-0.8138113507101936 
0.1343228275731229 
0.2295941094586149 
0.8855991586831946 
-0.1819277625913364 
0.6840491695715262 
-0.07335047225934854 
-0.2911515820771309 
0.05563538356589805 
0.6078703904810897 
0.07593862736348285 
-1.016466745184632 
-0.1074927532738927 
0.2102515518911001 
0.6774235872764457 
-0.4430565500152417 
0.600512218658392 
0.03454069455830187 
0.03688685508730733 
1.125300880251687 
-1.875278555657744 
0 
-0.1185054336676156 
0.08607435252307338 
0 
0.01349885841164292 
0.2877510835842452 
0.1635233891949274 
1.098041230011538 
0.9296163985616172 
-0.6797297996781418 
-0.5909509055435332 
0.2657655849475045 
-0.009033293352795206 
0.5485129527588337 
0.1811526401831843 
-0.05448366746181322 
-0.5150702297558846 
0 
-1.581530598646228 
-0.4151104607208987 
-0.7743597642148278 
-0.387898739432777 
-1.116489799668062 
0 
0.1511649003739611 
-0.1392774401632145 
-0.8799342743269307 
-0.1447526378833291 
1.023780351486499 
-0.3795214265476518 
-0.7162437202437681 
0.8246301211029642 
-0.9121193784716766 
0.1704455662688003 
-0.7047213316690906 
0.05925329745885387 
-0.2222326386063825 
0 
0.01855635055702454 
1.01061489484892 
-0.3397299582761811 
-0.002242392619688587 
0.377436820673777 
-0.01147520895049067 
0.3152479829653882 
0.199802803961729 
0.04768673355794913 
1.407982853566772 
0.2444495867332221 
-0.3385671494672347 
0.002220530634103969 
-8.131516293641283e-18 
0.1756607921402255 
0.2815371976875842 
-0.4477138980773435 
0.3835576871174426 
0.2152147174345184 
0.3843075412370589 
-4.336808689942018e-19 
0.01748691504102285 
0.6358832112626093 
0.754075996578674 
7.589415207398531e-19 
0.8866499849060806 
0.1611979080413728 
-0.6512544674631363 
0.5425242395841723 
-0.229689225221931 
0.0008176400384008567 
-0.7178224004215886 
0.93556146801565 
-0.07596486802175123 
0 
0.117411438228939 
0.1201740873436048 
1.711225088624444 
0.06847498158169245 
-0.6871307721732067 
0.9057523426609972 
0.03444277148170519 
0.2057841856153675 
0.0981636282744089 
2.523108938369522 
0.008503333799620635 
0.777649226324333 
0.02790586065061467 
2.675109390751311 
0.147548947879582 
0.1506822519860945 
0 
-1.054689490004789 
-0.1020804999174818 
0 
-0.841735925425571 
0.07193053509410376 
0.3432017875465703 
0.2923462590401522 
0.003268495849539322 
-1.607705926738941 
-0.6682191919169159 
-0.7640664863573436 
-0.05152987712143573 
-3.469446951953614e-18 
0.01683689415878155 
2.638713938745619 
-0.4637799202740192 
1.048845416575857 
-0.3401578604891081 
0.5564797003572769 
0.08525347645791388 
-0.4159003723085222 
0.07028963537001259 
1.011422486628756 
-0.08340999242463124 
0.04756928827699741 
0.4031772067241781 
0.509163151897024 
0.6872913730925858 
0.0756219953145621 
0.5295924556636902 
0.375718045484309 
-0.07605181330832712 
-0.2979038677933949 
-0.1075022337349995 
0.2777596122576008 
1.210724878936552 
0.3984701097256512 
-0.2095253625832127 
0.0564067289836207 
-0.0122635705617192 
0.1174409055858909 
-0.8123895273249798 
-0.6156044137859012 
-0.127828242412442 
-0.6556319350418188 
-1.161377127056448 
-0.1543689990519553 
-0.2575990265527472 
1.867529355327739 
0.1033906182448952 
-0.966368752141284 
-0.07989360432053255 
1.632304632562169 
-0.005217627593622614 
0.4391899828742836 
-0.3021200383800607 
0 
-0.4769390181695773 
-0.4540565945552262 
0.5008170838562488 
0 
1.422697223758475 
-0.085814818986962 
-0.2281906094007637 
-0.04823225229180944 
-0.05397326937915347 
-0.9069147027572254 
0 
-0.7115185677520023 
-0.08740123973157438 
0.3305522566118541 
-0.03132944204698032 
-0.7224924386443325 
-0.9840107773969459 
0.3405743691322571 
1.021332112953169 
0.3465636149361159 
0.1349500650232769 
0.6579973946452797 
-0.05042340516478222 
0.2589247981582606 
1.605837289693873 
0.9353700468325155 
0.339461736321487 
-0.4836214984535989 
0.09150187261568683 
0.6576485930844174 
1.003210346365868 
0.894308302374753 
1.055107532132126 
0 
0.1443491833980373 
-0.4174013322646124 
0.1189079292220111 
-0.002783533344758726 
0.05017105023371455 
-1.303617004999422 
-0.4569534719960425 
-0.06948553427631166 
0.1083291884195283 
-0.5954283527097514 
-1.062116769236376 
0 
-0.1993862298782366 
0.1199918474663784 
0.2612445617275311 
-0.434150948342811 
-0.1866713383181215 
-1.141360879270592 
-0.7221833319019977 
0 
0.15687469175916 
-0.824518239822682 
0.7854560953837202 
-0.009808770063425194 
0.925870059422333 
-2.184574233827059 
-0.9209096552119741 
-0.204647402867462 
-0.8550357772986384 
-0.1133346629658881 
-0.04528968375219666 
-0.6179110184254406 
-1.584804047548069 
-0.5191757483891708 
0.8721984398653009 
-0.03934908933920944 
-0.4926599889920673 
0.7457796880709763 
0.2680751347078469 
0.5346176521709765 
0.04362056703642999 
0 
0.9300149234870074 
0.2359021202815092 
0.6288319155073399 
1.076489947586517 
-0.5713293121376134 
-0.9773480978885088 
0 
-0.6726460065177332 
0.09115211040522453 
0.04435544704071032 
0.4510379417221783 
0.2088336423809761 
0.008503741680451569 
0.1038789608869671 
-0.2956317156666306 
0.5826141249985402 
-0.09932028636588436 
0.6906176808876197 
-0.258892838275467 
1.739362383670854 
0.3784916837878038 
-0.06206894443505691 
0.1356232629838786 
0.2784804065437622 
-0.1937587044170457 
0.1742069818186139 
-0.438261465813881 
0.4767712458236171 
-0.1978943727946604 
-0.56064299548872 
1.564224132831553 
0.1263419451903994 
0.6761197792929936 
0.6578185951178799 
0.1393996516626509 
-0.4713105873695608 
-0.4515738259492727 
0.7850096664281825 
1.001652715868871 
0.2943257205961699 
0 
0.2336971045735291 
0.3382338611981053 
-0.581058285403306 
0.0106250202360408 
0.01554157173815388 
0.01008619761957109 
-0.3664183651176595 
0.1828998934002604 
0.03973342027175323 
0.2008003807360958 
-0.3075218797614341 
0.2921731478958665 
-1.534555337707856 
0 
-0.05910037403011211 
-0.4318408538034672 
0.5717088748321192 
0.1147144420822789 
1.219209453770954 
0 
0.09954068144041396 
-1.036763768035111 
0 
-0.002024511808146801 
0.07064561792115603 
-0.4337848818692418 
-0.8911188838766593 
0.7236860408347997 
-0.07967927747937606 
-0.8282368372291712 
-0.4129808974575989 
0.7987870705896097 
0 
0.5177662884822058 
0.2154798130265359 
0.02387229780652004 
0.006389715331335567 
0.4937320332663363 
1.068902889176649 
0.1725903339828831 
-0.7896101277235982 
1.203074994490097 
-0.1405540629477658 
0.1216472581906746 
-0.1122502733593246 
0.1136272193989998 
0.06612716067062645 
0.007982166899205938 
0.02362518989709445 
0.147452712953157 
-0.4329264523915721 
-0.2063901406062653 
0.1273391354505974 
-0.06984597993554977 
0.9926612672807837 
-0.4314170994097327 
0.03881875573561043 
-0.185282684062778 
-0.6486329477976471 
-0.01522276072533594 
0.5299701404642574 
0.1236327601616357 
-0.0002254107582542618 
0.2589286559436574 
0.04831096386588871 
-1.020308292848725 
0.5817153263705848 
-1.039319679078008 
0 
-0.7663607830164357 
-0.5173511828580818 
4.336808689942018e-18 
-0.3483277902968565 
0.196683478896868 
-1.293091130148939 
-0.4438417450754575 
-0.4375930863995313 
-0.8335033410700424 
-0.3098356258611591 
0.7243817181826973 
-0.03954459000560051 
0 
-0.128841154940363 
-0.5590281498246868 
-0.5335314624004012 
0.3044730859112143 
-0.3848839762362993 
-0.7688997509363187 
0.2245212430777764 
0.3791973623868539 
-0.04961989219650252 
0.08048934074927459 
0.2081488970635594 
-0.919169257702568 
0.02590252190966307 
0.1111169699065654 
0.06062577780434334 
-0.3137649569053994 
0.5415770452953083 
0.02219408089692017 
0.1454202567973987 
-0.6242863706804538 
0.6796093883853811 
-1.111911802264109 
0.552228124522037 
0.3989931750328392 
-0.08795632354321965 
0.2298795523974996 
0.03603553110007882 
0.4292859347004135 
0.07457360282532279 
0 
0.125556653562882 
1.391757297836628 
1.304254536724072 
0.08027041688186877 
0.3202492817125459 
-1.459991404435079 
-0.348177334600015 
-1.29405032160699 
-0.1781474789004777 
1.18386514864307 
-0.08650388080052603 
0.202039038459108 
-0.2521334969763875 
-0.4926137180740226 
0.6687141148391139 
-0.7477252817946208 
0.1421249292517056 
-9.554531645028508e-19 
0.1491755787536642 
0.004806722456617587 
0.4145800063885143 
1.080923920251895 
-0.3781288057192407 
0.6960080906723988 
0.3728505582531387 
0.08052894434582977 
-0.3035905580668283 
-0.04617110264833796 
0.4719932182562948 
-0.1248673987326047 
0.1779471729664191 
-0.000596954014012763 
0.8244876688844286 
0.09437302574123409 
0.7273986296953756 
0.05705643052765259 
0.476271202555608 
1.378086391978879 
0.3343091177601506 
-1.019664285701037 
0.1313599345493281 
0.305007019437511 
0.4608088141236709 
-1.446359534745707 
0.05613146062061292 
-0.06869387029558538 
0.3649328236185797 
0 
0.4272786618816412 
0.07250213295595381 
-0.6107675862016587 
0.4104182797188578 
1.241409050243391 
-0.0332463996439323 
-0.203637677485385 
0.04407461707962965 
0.006550787040003152 
-0.1716330453896162 
-0.2078425859190443 
0.5180122673949089 
0.001749269366552778 
-0.4586313488435763 
1.150614097576607 
0 
0.1108257804166838 
0.09651477246301378 
-0.2199701359600397 
-0.5012041660622073 
0.01864143817999622 
-0.1491145481600182 
-0.6412632604506814 
1.122272466972022 
0.2076979213131485 
0 
-0.05365724561886362 
1.186322923252252 
0.4046040491246145 
0.08344133761483259 
0.9132372774431265 
-0.2624352511809777 
0.7109277995607858 
0.1263803478758201 
0.135840133700888 
0 
0.006060020635305633 
-0.9504426312601106 
0.06033388346585641 
0.7350789808163434 
-0.7868271932925989 
-1.077667057706937 
0.05851687848379167 
-1.060994480407329 
0.6751771187684257 
0.8064968882422221 
-0.1491982942196313 
-0.2774214962895662 
0.1730455303057572 
-0.2674757307775711 
-0.123085613539058 
0.08013463573566663 
0.3745273999400209 
1.322976742837989 
0.004806894219601144 
-0.4808470513658868 
-0.1699710585796049 
-1.082315086232542 
-5.421010862427522e-20 
0.654802904014502 
0.01951708396970716 
-0.6144933151855841 
-0.01106636283173359 
1.252667982462637 
-1.09451295123704 
0.8915640143931538 
0 
-0.2636349323988502 
0.1556425164413288 
0.00299535630103158 
-0.9894768964061581 
-0.1502979083408783 
0.5255673435584974 
0.06322426349198348 
-0.01620908011960051 
-0.01217100864033177 
0 
-0.3579633972216602 
-0.3433235245193735 
0.2652403491530809 
0.5883841081385943 
-0.08667090206178175 
-1.819039318809996 
0.359837648098835 
0.363829105160942 
-0.5836476651579616 
0.4203538465721902 
0.4551412486423572 
0.02514547947400559 
0 
0.0006198040354082161 
0 
-0.428835666541714 
-0.621421793845005 
0.2835359819422911 
0.688935204460661 
0.9033936654381938 
-0.2892034073342346 
1.099851477559396 
-1.06957530331131 
0.2333594954555689 
-0.05968245231573791 
-0.3854671345111736 
-0.03854396251079503 
0.04195662810051548 
-0.4023522690082777 
-0.1129186764160734 
0 
1.400496016210299 
-0.1595558475169454 
-0.03219129550821948 
0.5281388758804083 
-1.009715924398698 
0.04098355846558259 
0.5943609099968482 
-0.0146268665668287 
0.7590589742937384 
0.2887826280771896 
0.05091699814363301 
0.5696101521472037 
0.6748864664854134 
-1.062759079554073 
-0.1054860421512706 
-0.5185237751102258 
1.16830884428733 
0.3974486525151198 
-0.09622749418823531 
2.182926759010138 
0.3469728649092015 
0 
-0.5145599001124554 
-0.4948460106152745 
0 
-0.2219138694729464 
0.1855239674090745 
0.1293277295523114 
-0.1309176246527073 
-0.004353971027715501 
0.005343065167965162 
0.6111384419220437 
-0.626713230883075 
-0.4352977879394542 
-0.6884491170316989 
-0.03185092137698346 
0 
0.05826869099621779 
0.07161713494912078 
-0.007439112096164856 
0.8184137603042666 
1.895878685810947 
-0.2108749886115154 
0.07214553977677229 
0.3233386439181813 
-0.1035171165231472 
-0.2704096220133291 
0.1361189802932927 
0.02976708189785525 
-0.228028128342119 
2.474931328531556 
0 
0 
0.8186425267739866 
0.2168875333921981 
-0.05767755997659835 
-1.135287473816553 
-0.1004104999553593 
-0.2170421906078728 
0.04412138266972605 
0.6664351462985089 
-0.5664229045373765 
-0.0697315129360514 
-0.4049607412291822 
-0.5291207107688787 
0.2310843467965987 
0.1561855618041826 
-0.6549845398223548 
-0.1331137443484191 
0.7116416732899304 
0.3736834650551966 
0 
0.9667698874259644 
0.1247525221262357 
-1.254286240460421 
0.5104410446678518 
0.452096903547379 
0.05663863965272741 
-0.7933635372484593 
0 
-0.9544690802662326 
-0.04899606016054635 
0.1470739977623045 
-0.0177780325273943 
-3.469446951953614e-18 
0.04442644730120361 
0.1434117556674692 
0.396851679455974 
-1.194872753168374 
-0.5612943393606408 
-0.4499128239725024 
0.07868075358852086 
0.1297192024914835 
-0.1097799542224619 
-0.5357229509682131 
0.05753877663724017 
-0.3550406325040575 
-0.05761047128852238 
0 
0 
-0.3767727471742859 
0.7457620110097449 
-0.3049823822306348 
0.2292048939883868 
-0.04621599373696399 
-0.0002730420714308182 
0.009949470576262092 
-0.00695168097500223 
-0.3174470508129644 
0.6987745110631386 
-0.2308424723596313 
0.2018739224098955 
-0.7828095070070173 
0 
0 
0 
0 
0 
0.256385855780922 
-1.072711199113048 
-0.1391223789265708 
-0.8537280476801545 
-1.024873098459478 
-0.1835111266673448 
2.168404344971009e-19 
-0.2174220614040648 
-0.9019949677353069 
0.02073868038947919 
-5.421010862427522e-20 
-0.9327885588444397 
-0.2662259678646878 
-0.2821617220100571 
-0.4186580681882475 
0.6086167919448372 
0.9340139720525791 
-0.1322234081226268 
0.2283321773901516 
0.3199088997645917 
0.06317572335516636 
-0.5514717357784488 
-0.7342961894420802 
0.03044910447085815 
2.751128297619857 
-0.6303204625759485 
-3.642919299551295e-17 
0.4305374229703158 
-1.037121341344855 
0.04871714762416014 
2.040316303908867 
-0.7109121263923807 
0.0711900179574676 
0.1432222124653873 
-0.3260924597369135 
0 
-0.1378579847298663 
-1.740483716459966 
0.002115373291769246 
-0.8632146615077948 
-1.20556957999371 
0.03917232115150653 
1.237926700428622 
0.6814127234895443 
0.282334174137424 
1.198266160093218 
0.7610847403539998 
-0.08250893421443981 
0.0558992174067594 
-0.6371555134820539 
0.6831252768345097 
0.02160547987333269 
0 
1.474346475591616 
0.9483954066664102 
0.00204213153695636 
0 
0.9401611953465429 
0.6471963474071031 
-0.1395175869339541 
0.6509986548951764 
0.4963034866602719 
-1.63388719362755 
-0.5955604338929201 
0.3191930750647881 
0 
-0.2635965157356253 
0.134268313344873 
-0.2524190601141361 
0.7173603306710934 
1.133873926054803 
0.9646070687201849 
-0.09923438822785166 
-0.09296935239575274 
0.3953642994537946 
0.2931783291928881 
-0.6252972324944096 
-0.9278939460445544 
-0.4444431713419827 
-0.031790929505556 
0.7420939285377814 
0.7417181442792784 
0.3885341998727477 
-0.636392626504281 
1.680513367352532e-18 
-0.05414021304088627 
-0.0004638473251920856 
0.342061618753642 
0 
0.2337797736354107 
-0.1875031329046224 
-1.048787238075763 
0.121666101777288 
-0.7730980376323872 
0 
0.07075690816048126 
-0.3078101334588661 
1.105379247290095 
-0.5887746620147736 
-0.4758478183632061 
0.3252428870354896 
0.7088460117723293 
0.3590086488316027 
0.01667806688145975 
0.6717625179822927 
-0.3970611744074086 
0.01733632929691444 
-0.09726503443321757 
0 
0.6523111241835915 
-0.9045823496755289 
-0.2094064461060264 
-2.236166980751353e-19 
0.3050598276425338 
0 
0.04370078627602255 
-0.1547145703150904 
0.02484972759041781 
0.02023558862633064 
0.1644685138111995 
-0.05781766296402809 
-0.01024832248914453 
0.2635861507566752 
-0.0865237632541109 
-0.0481553783939281 
1.085233830303461 
0.2142383401080814 
-0.6090233343116666 
0.1368465713410695 
0.3325807348894073 
0.0441992229504412 
0.9972806388192212 
0.7782954246738731 
0.8377872890334324 
0.3463020317028287 
-0.296599280914541 
1.734723475976807e-18 
0.8924282947081462 
1.269517772557581 
0.5456727395121661 
-0.522398355768809 
-0.03357777100945083 
0.497376994986216 
0.5862007544839573 
0.03783967468833113 
-0.3165830142477065 
-0.2573924908275704 
0.7457771951658391 
0.03568453241755867 
0.4410952066490378 
0.4459759349211015 
-0.1563804620390072 
0.3007788470939863 
0.1443621516969553 
0 
-0.6531371011799367 
0.1250638911368402 
0.1555378341277602 
-0.1602919655171881 
0.4313271586791843 
-1.734723475976807e-18 
1.446382978532896 
-0.3409137441759306 
-0.04726119686264148 
-1.477542321272762 
-6.911788849595091e-19 
-0.2591914523984809 
-0.05025354781108297 
0.2975747360354373 
0 
0.04854183939910297 
-0.04548791399783934 
-0.39322137500164 
0.04836885860487245 
0.2199668381337944 
0 
1.229246523202026 
0.8859703833410879 
0.389257067396422 
-0.4769982176154512 
-0.005042923669863034 
-0.2012595926782469 
0.1020937181646849 
0.3716040064904256 
0.9523161972144546 
-0.04625797551872877 
-0.8651941482345354 
-0.2464142333844448 
0.2005320277773382 
-0.2385500428270179 
-0.5919686818806268 
0.421112601821418 
0.8541661768758096 
0 
0.2544355228915948 
0.8946452803171145 
-0.03777717413340149 
0.1257598908967953 
0.7242330517837702 
-0.8881320790318227 
-0.5236568119335752 
0.2037495219247283 
0.1574845326391407 
1.823414330499916 
-0.6376756780136031 
-0.473192177026635 
0 
-0.9277830308008523 
0 
0.006353245587853549 
2.202285662861181e-19 
0.3545342489783241 
-0.00672536267561566 
-0.9781536156631008 
-0.06636956249887654 
0.9867813991994941 
-0.01402384339074428 
-0.3363673935064098 
-0.8528946529644875 
-0.01516023473445377 
0.6535684771846099 
0.1176008537372417 
-0.09654334866210286 
0.04269497442591448 
0.04524745486220516 
0.009659536369050021 
0.3734671927498622 
-0.07054795047547383 
0.1201163458040378 
-1.261683212391202 
-1.118930997670113 
1.177163672414536 
-0.1981306179860716 
-1.272910880694509 
-0.8275443298563406 
-0.04897477408844227 
-0.02547140537774425 
-0.1259210223182332 
0.2561698606930293 
0.6540633028283386 
0.389279384555295 
0.3313212890610963 
-0.6084911506093638 
0.5747683880588227 
-0.6510916765788612 
-0.5213913188973869 
1.050173152168986 
0.3569679428957371 
-0.176940024834371 
0.1538538629765102 
0.0896762295846725 
-0.4227829886253373 
0.2082419784472163 
-0.2601881281189731 
-0.04982793351071931 
-0.3600107998040235 
0.1277520263580174 
0.1423118665065596 
0.08354974117141098 
-0.4965467927974364 
6.505213034913027e-19 
0 
-1.625705442664073 
0 
-0.05208188521318942 
0.6621150734809383 
-0.6301529805368065 
0.8347826413224672 
-1.212018566033664 
0.1808901582409577 
-0.5177714297045172 
0.2257696550449666 
0 
0.102900910376645 
-0.5950293175323892 
0.5653568112368853 
0.006598453060243739 
0.04649324229894167 
0.09620010839668043 
0.3881370274682435 
-0.01746953258281646 
-0.4032808492468493 
1.734723475976807e-18 
-0.4930707030234323 
0.04018938584846161 
0.05365011264244008 
-0.2263122345639126 
0.6054732034432611 
0.6181517293685531 
-0.02870750562482818 
0.8500035891488905 
-0.1175999918410297 
0.2178767783180152 
-0.5969055381831604 
0.2304652952598713 
-0.2709325712836986 
-0.8087432785270043 
-0.168559929956156 
0.2958939926004749 
0.1693929442007963 
0.1437503019657403 
0.1425272661621093 
0.6064640581290859 
0.1058012642846392 
1.035321214292645 
1.094262311398241 
-0.4946053540075299 
0.3083004589554185 
0.3453217426520985 
-0.4026712188485838 
-0.4554734297590886 
-0.4461214605145727 
0.1410879662956133 
-0.5521572482959242 
0.009115122853597665 
-0.7099550673336024 
0 
0.1621415580889213 
0.8991501210584011 
0.06126538790264558 
0.6021776760490951 
-0.01166551333548076 
-0.07917823557443894 
1.355252715606881e-20 
0.3537695522432972 
-0.9855792710506949 
0.5489332475396083 
0.008016555324371977 
1.420081137500582 
1.301895566492704 
-1.734723475976807e-18 
0.6462915672008595 
-0.3433859391382431 
-0.6880222154510341 
-0.7038999769469506 
-0.6986828662882157 
-0.553187443187113 
0.1484463370701339 
-0.6354152830282183 
0.07405773338752902 
0.04898778516883276 
0 
0.1927406730147543 
0.03458461488939335 
0.9862397526529191 
-0.8081938563210136 
0.5742085132130109 
0.3760578555970618 
0.1282580334223535 
-1.026882694818089 
0.1598846232218711 
0.05713302420619371 
0.0684220764566885 
0.00509429807669085 
0 
-0.5517734896622126 
0.009301415607599228 
0.01806495862024423 
-0.6939962039180994 
6.207057437479513e-18 
0.06700099295360493 
0.6519601077825203 
-0.1112794762389133 
0.07233472509585298 
-0.5177226131323274 
-0.1864216152115353 
-0.1668599521185228 
-0.4612959523381951 
1.227247251619278 
-0.6279158930772394 
-1.401072219509732 
0.9692572319408868 
-0.1247753613435306 
0.5292606222535792 
-2.056141455397646 
-0.4083669187242728 
-1.09960391587529 
0.8085574456221462 
0.5978445769439472 
-0.5988052849105657 
0.5961954634672555 
-0.6393165191367701 
-0.8717538182446672 
1.007683932898898 
-0.2341013978831399 
0 
0.6806743366255674 
0.05898314995639906 
-0.395276658761177 
1.627776147746536 
-0.4782102323635714 
0.3699371606318181 
-0.3613565048111638 
0.2518750140165286 
0.3317208353198668 
0.03774756768515856 
1.166141803571169 
0 
0.6881097640436897 
0.2923688943657257 
0 
-0.485862108427549 
-0.2710426499238466 
0.3876931473482595 
-0.01307546592003474 
0.07455210497310989 
-0.9243874445185259 
-0.8696803238592656 
-0.7114411642568059 
0.05500479819361216 
0.3791950661267329 
-0.4732687359849 
0.4280178332785561 
0.03695318540531651 
0.0346536169071207 
-0.2586282662552299 
-0.0932693705041114 
0.02209017808775598 
-0.577692680402523 
0.03458307740992522 
0.09242523023842149 
0.00250739097611991 
1.051901910077703 
-0.7747868752841146 
-0.7473674807555075 
-0.6944990781787664 
0.04210842705146101 
0.2570162386678531 
0.006873103540503851 
1.370053040500085 
-0.2519384468443792 
0.08366653913609857 
0.04411209711050805 
1.054599715422968 
0.1583860339160398 
0.1217529730611684 
-0.6205451321500765 
-0.08849714982549738 
0 
-0.4871961111068317 
5.421010862427522e-19 
-0.07012685369211033 
-0.3165923472405189 
0.06138874646565834 
0.08153213851014758 
-0.5408173136906672 
-0.526357703800564 
0 
0 
-3.469446951953614e-18 
-0.7150417142696377 
0.07101076298071622 
-0.838801299957082 
0.2199251776622895 
-0.002331809997009329 
0.4385276307686182 
0.4446689911360399 
0.3068848887910374 
-0.2013349107798578 
-0.1768608884219152 
0.7278616075707793 
-0.2758356875205168 
-0.08842553280591832 
0.6826954671978254 
0.528651141369322 
0.4593745128430308 
0.03292577737211531 
0.7335421750779304 
0.03507715212245876 
0.01547579031382122 
0.1499494673688979 
0.01489409777442087 
0.2503828686390073 
-0.2762336056183269 
0.1655488508047521 
0.03160137184340538 
0.5158678565785505 
0.2807760231467039 
0.3389798184146027 
0.7431789843066939 
-0.2101957866210892 
-1.090839989844586 
-0.747280196920951 
-1.037999277800742 
0 
0.8349930237230806 
0.3130698473511406 
-0.2519804243471386 
0.009715114383024951 
-0.1487323670068787 
0.8980055105013742 
-0.9307280708511252 
0.0287615050611903 
0.3853377243030362 
-0.4691081215429943 
-0.6201542226712411 
-8.673617379884035e-19 
8.673617379884035e-19 
1.053996319371678 
1.153061788737599 
-0.5430876031463736 
0.01777826977721758 
0.5599821309930321 
0 
0.8390125219562443 
0.5508901807029759 
0.4583342748411729 
0 
-0.9713376432704083 
0.02631626206644541 
-0.04586404084771386 
0.509009508421027 
-0.01881420523143698 
0.6790655842906269 
2.276824562219559e-18 
0.03037505701997423 
0.6024751930160838 
-0.8551695522188982 
1.132837912108268 
-0.06754061858083593 
0.2730231993894364 
0.9238228786124451 
-0.1017145362766166 
0.5277385460818462 
-0.8386105603077523 
-0.2129279459703612 
-0.3711275961686785 
-0.002791864224082086 
0.5121647028486376 
0.1574950330937034 
-0.6547674888528645 
-0.02743309299638307 
0.2624050593388327 
0.2648824088634194 
0.04449000198777985 
0.382815957864882 
-0.8512844727504029 
0.7450086365798584 
0.2891281520799187 
0.2243555320671931 
0 
-0.2786032293998161 
-0.02771558358929484 
0.9055577555747947 
0.2311839765888318 
0 
-0.0926241727625962 
0.03358721685270196 
-0.6797808655713781 
0.07676690481315961 
0 
-2.168404344971009e-19 
0.3897178259866706 
0.4228496765379439 
0.2882506087494512 
-0.6722938239162233 
0.08102294951980282 
0.2260675757300971 
0.05943235596868164 
0 
0.8265119156643054 
0.0408114048010787 
0 
0.1838735721793106 
0.08056161001305777 
0.8034546528808378 
-0.6407844504023038 
-0.6227569169951409 
-1.237426418466937 
0.07657784962565219 
-0.5344791577832235 
-0.004347981837991366 
0.2402472630664967 
0.03748062870351938 
1.321259424603067 
0 
-0.1899220575073809 
0.5424446005703271 
0.01018861875686882 
-0.4251174821524345 
-0.4431438321061492 
-0.1519853905129365 
0.4667504577727191 
0.4413761427218273 
0.00611238884465648 
0.0354487845848509 
-0.8448329197754235 
0.2952519995776487 
0.02657779949440709 
-0.5553021376543605 
-0.2254190822004381 
-0.1430669337432843 
-0.8847173884847719 
0.07982480811167431 
0 
0.08460629841913037 
0.2457929908492905 
0.1692522330368406 
-0.5719883234947054 
0.1036989514494381 
0.0351788541148047 
-0.04937669237104511 
0.3199634555167968 
0.2215222774803886 
-0.02361204746684809 
-0.2714301946950435 
0.8281060517507113 
0.4716695988927693 
-0.07626685745267797 
0.1640209601964577 
0.04654320609417071 
0.1184367698203584 
-0.4433458513849098 
0.2037243102187602 
0 
-1.835900051130588 
0.07806971506463328 
0.1227023780530883 
0.05644161687497676 
-0.9626265025705016 
-0.02246194812952597 
0.005826769176645575 
0.0559975342404447 
-0.2945475388272947 
-0.2300958341668257 
1.396525913708581 
-0.8354070936886441 
-0.6651566551610449 
-0.01666433049782184 
-0.6675546346870043 
-1.517883041479706e-18 
0.0766963322797074 
-1.081471167582652 
0 
0.7303787425908327 
0.2589062866895263 
-0.8616949413783249 
0 
0.006601055206555339 
1.605597827071712 
-0.3001595226158385 
-0.009468560660464606 
0.4657734362538653 
0.2746273786525751 
0.2989238189465551 
0.3159338299033397 
1.574345165697682 
-1.734723475976807e-18 
1.414685885745975 
-0.8123653764072121 
0.2372453963881222 
-0.1807267380750235 
0 
-1.301572165171152 
-0.009021179384705206 
0.04032680951204955 
0 
0.127010125142827 
0.3843280386773771 
0.4278273646470916 
0.2104709276855083 
-1.176632028770033 
0.008591346055450602 
0.1314773735350051 
0.4667000243590595 
-0.8983653224043204 
0 
0 
0.2747966795771094 
0 
0.3471840367090797 
-0.8449994313511506 
-0.6963956080959302 
1.197155804357195 
-0.2003666212976136 
0.1121810303752544 
-2.602085213965211e-18 
0.4180276437775386 
0.7771408521601573 
-0.6013846702595927 
0.004921419584864613 
0.4190533823613543 
-0.5146555485811299 
0.1221891307667663 
-0.08646052503995787 
0.6733133316536397 
0.0308079327067362 
0.02624650143439059 
0.1535805364137096 
0.4805752592220991 
0.4874163803200742 
0.2604836437840594 
-0.1368130764550655 
-1.026184269842431 
0.1019672582336771 
0.6437580142875645 
0.371897122443907 
-0.02122832159824147 
0.1894362633231029 
-0.1031462958203694 
-0.5239750520464056 
0.05154269394837748 
0 
0.04705303709779904 
0.2380551647527973 
-0.173209821628323 
0.09227797741603208 
-1.208656335820312 
-0.6509586569647027 
-2.710505431213761e-19 
0.1470093749740258 
0.3757067254694735 
0.003192884081183624 
0.3166159353025695 
0.0982224859297149 
-0.3656921362551082 
-0.1147655971029103 
-0.1689488742724704 
0.4313276949355838 
0.1256947252866639 
-0.02073816249824615 
0.2424027961573061 
-0.3950574769727048 
-0.4457524211170988 
0.01946074693472778 
-1.251585359196646 
0.03835642996006398 
0.3975232309699103 
0.689011269646511 
-1.141479577775033 
-0.09960847872263796 
0.8413035014738046 
0.7718314585467101 
-0.7229557919332893 
0.02543116519752191 
0.7565525746051754 
-0.1670047620191852 
0.1410102753567708 
0.09733436427107521 
0.06942420981207041 
-0.3235772543103209 
0 
0.4097364682805422 
0.1137677139497605 
1.169217968230021 
0.1552106672629375 
-0.830354240013416 
-0.04557685880986686 
0.2723465352737929 
0.5135293814493349 
0.1140209940533757 
-0.1652962594550162 
-0.4557080325263648 
0.1988347667980791 
-0.6710241302049345 
0.1786202209304317 
-0.05077160617907651 
0 
-0.1880803171507103 
0.1742916846443539 
0.4859275024801142 
0.3868096312089288 
0.1908923048356702 
0.1458158535796217 
0.1954517362948457 
-0.1778839328183525 
-0.382884248723914 
0.6333298256014213 
0.005973503259077531 
0.3450365246917334 
0.02171072515643468 
0.0458956493038417 
0.4110399405954574 
0.2046973219476779 
0.632971364490596 
0.2149179974831995 
-0.7124230078339689 
0.02554212036850112 
1.103819343351278 
0.1175914694369133 
-1.680513367352532e-18 
0.05531828008674072 
0.02239208620328591 
0.7295163147486488 
-0.4056736733283152 
1.625926419042112 
0.01587349555077137 
0.7245508501967194 
0.3601208518048981 
-0.3841191346159805 
-1.437506363896782 
-0.3877855669275625 
0 
-0.8584294523694813 
-0.1769959921478825 
0.03077269752368588 
1.112569060757374 
-0.2872506830353028 
-0.07992124428970675 
0.7589389767967847 
0.07366515336388897 
-0.0371900855732565 
0.6514553213518995 
0.2340044379495927 
-0.7125043501012266 
-1.189651485935206 
0 
0.3689045334701959 
0.4270896304089007 
0 
0 
0 
-0.5265933293368159 
0.2333743069392963 
0.002549134473623857 
0.03004545404702761 
0 
-0.1482789841065129 
-0.4270794640530148 
0.01386849802438003 
0.03814233649114888 
-0.2283574053883932 
-0.6904595358378474 
-0.4083402538669343 
0.09300983720064834 
0.01557019882158682 
-0.4605066721813241 
0.6503511351670661 
0 
0.4844978130292743 
-0.850442027442716 
-0.07168666784446387 
1.432473841371242 
-0.07565828510569982 
0.01407324900060895 
-0.8612996776491554 
-0.01496930405355009 
1.012782010935714 
-0.5980192956475653 
0.3146022447502643 
0 
0.1609131962687874 
0.2660499299742333 
0.3591833255264629 
0.6420151740604705 
-1.44848601087921 
0 
-1.684805880319298 
-0.04617980380433978 
-0.8691715191050003 
0 
0.4276791393475316 
0.2761290771971341 
-0.688356600439888 
0.03617793888021444 
0.008526758293965521 
1.317787057976562 
0.06592943151720104 
0.3527456497897749 
0.3613742492320316 
-0.1041033532890755 
0.1112694315956627 
1.684871980529454 
0.01024919580923458 
0.242775338557457 
0.4502505390089934 
0.6513698697316636 
0.934401587886712 
0.4943483100720397 
0.0005388845165555042 
-0.07560197430414466 
0.4018951376345883 
0.4108811682460607 
-0.01291798459997143 
0 
0.5741702439826415 
-0.5549847095935784 
0.4895262415491453 
0.4027519305125494 
-0.2061873131453341 
1.01249581500204 
-0.2065949472604671 
-0.1007495801145643 
-0.4363512323955085 
0.9180388744929234 
0.2374430256641615 
0.04748148313788638 
-0.1157151466185961 
-1.815807720702379 
0.391498364614756 
-0.9616101567518799 
0 
0.1518759931483985 
0.4431755975230178 
-1.387778780781446e-17 
0.4567811889397551 
-1.451965800554281 
-0.1663847764030572 
0.0845373426684075 
0.00418392836310814 
0.009469270246191232 
0 
0.1410344889229954 
-0.347704225128272 
0.3949574918777446 
-0.09132022954940416 
0.9192208925635145 
0.2647808038167201 
0.4010432783660803 
0.08107225935596146 
-0.1808195613516362 
-0.2417879681008054 
1.422735257721411 
0.3920665337607103 
0.5435167057758091 
-1.022773674056771 
0.05246261867997404 
0.09882899892262399 
0.05345997915133695 
0.2640737855734154 
0 
0.009631630453409305 
0.7375899384370571 
-0.6737945526587289 
-0.05152565468936669 
-0.242216523822781 
0.2621973898871883 
-0.9839393083198059 
1.129555873904772 
-0.2849014199444622 
0 
-0.09708847522294833 
0.3981140742803884 
0.1318125632375914 
0.06736393439337564 
3.469446951953614e-18 
0.0001867143209302578 
-0.8679532099426466 
-1.609651774971421 
0.06741651512186538 
-0.2510271898287196 
-0.2758124236336852 
-0.0265590040298593 
-0.3069183827050103 
1.897353801849633e-19 
-0.3385986486635603 
-0.2652917421234219 
1.220035902804182 
0.8487488540884939 
1.458120209495074 
0.06853620895330831 
-0.179435810223352 
0.7972642816621591 
-0.5513097575831862 
0.1438170803027272 
-0.6568847697960051 
-1.127623849176184 
-0.03751921047883661 
5.827586677109586e-19 
-0.7876735220490038 
-0.1416355159650832 
0.6064709606010966 
0.1118525619393313 
0.1433220161030295 
-0.3394282592960616 
-0.01105842975200995 
0.3115847462767122 
0 
-0.1142376717605102 
0.0327665770429421 
0.3046617950844822 
-0.1295448999346246 
0.2024527454006215 
0.0741321872274015 
0.01395317693038159 
0.7101109136627854 
0 
0.2663765351517891 
-0.003139741577821399 
-1.464728928971035 
0.829655903303651 
-0.04328050918143132 
-1.13496465151189 
0 
0.2447342344234327 
0 
-0.3390963184021797 
0 
-0.7032747538259099 
0.4859327414630468 
0 
0.04995084562330309 
-0.280774509591639 
0.06743457048699633 
0.1934246503432599 
0.5281052250404777 
0.3466912341317933 
0.04196936871482851 
1.518075601897059 
-0.6552969928579339 
0 
-0.2995854283631206 
0.05984169790349075 
0.6453423391144495 
0.2034790881348778 
0 
-0.3692948898155106 
0.03363143854933966 
-0.7952531445283144 
-1.043529232917589 
-0.1913605349755399 
-0.63434252632247 
-0.006074336922721944 
-0.3537762221848555 
0.07904499798883079 
3.354250471127029e-19 
0.2037055880282163 
0.4420124648247883 
0.03488065134190589 
0.4943827128174867 
-0.5114238673827803 
0.2459353691587604 
0.3582372253651064 
0 
0.006515535586097392 
0.05393743313759408 
-0.261765488999099 
0 
0.4103640242877699 
-0.3036826229570717 
0.9766526695961033 
-0.1607377645259924 
0.7499053596861746 
0.2046828163353125 
0.1109163888091035 
-0.156570203885897 
-0.3385511634188124 
-0.5082857314441676 
0.2073153958049462 
0 
0.04853184006016877 
-0.06654519779240654 
0.009791979575549449 
0.2102227135253232 
-0.1436018100678255 
0.2888244459787152 
-0.8442182474224261 
0.8457125720966311 
0.2272452389055421 
1.150063092791264 
0.1874096344082163 
-0.2778651281382061 
0.413984613366733 
1.146648170314926 
0 
0 
-0.2596000799267765 
0.5677510349153426 
0.06015213334925427 
0 
-0.3824115290869495 
0 
-0.2672703726812478 
0.04473356730264923 
-0.3004911593990934 
0.002639074696942188 
0.7037777114573539 
0.7035062506236649 
0 
0.03676136097599102 
0.4306673715750827 
0.1318588630344021 
0.7045013089262672 
0.197149278676566 
-0.6718658384914939 
-0.4764538289610087 
-0.1258155279936461 
0.0007794589825323116 
0.0518766319729005 
0.1317020731539953 
-0.17242274187681 
1.005857385631994 
-0.110638043888426 
3.469446951953614e-18 
1.020452973484607 
0 
-1.040574418322974 
-1.22834050597245 
-0.0577664844845898 
0.9959077881934484 
0 
0.2248014148540839 
0.03858201365842485 
0.6946003483784829 
0.3652526284193525 
-0.3190156681482382 
1.004312774281697 
0.05681219124603366 
0.03333314722907042 
-1.517883041479706e-18 
0.4445491383142229 
0.02004810699561009 
-0.4079285237761031 
0.2421078952692199 
0 
0.01937859929237171 
0.785168525963583 
0.17744013995511 
0.2593749160989777 
0.2665347945929286 
0.1616429970215437 
-0.22486231049321 
-0.3684186618539926 
-0.05153574459880619 
0 
-0.03915608894721739 
-0.5431626618199765 
0.1269271619189446 
0.2700424542366481 
0.3465642741709123 
0 
-0.2152191584812875 
-0.8507774872689389 
0.1576743003016574 
0.8751427380860194 
0.3065261483081753 
0.2945196452524145 
-0.1508272316698706 
0.6503235312119888 
-0.04847252239370434 
0.04286875360454429 
0.2112112111656955 
-0.00790461861093879 
0 
-0.02016228787251167 
-0.6475280193601253 
5.204170427930421e-18 
-0.9572271055409173 
-0.200739829704224 
0.1768716638308893 
-0.1386158662259466 
-0.08434200879041125 
-0.5814893110744935 
-1.589091625996179 
0 
0.06578225404054015 
0.1892942334685277 
0.7511238584549513 
-0.4793815257998802 
-1.383829549620592 
0.1366385516242272 
-0.679635591207705 
0.8318652368408483 
0.004960162049106843 
0 
0.2364610590271536 
0.05079868342339515 
-0.3408242981710858 
-0.04504350676679612 
-0.7230555507660139 
-0.3918904723150762 
0 
0 
-0.5437344190508767 
0.3627621839252784 
-0.03590149399656564 
0.07047609733110011 
0.6071438790032797 
-0.03402283465784842 
-0.4320017582502935 
0.1361933415768076 
0.3607335006173311 
0.4247770362385594 
-0.06091715716193932 
0.117313046828596 
0.176295083388945 
2.103418473763628 
-0.01162729023066049 
-0.3498973767475576 
-0.1781997105530698 
-0.1794780866564658 
0.08381075744661255 
0.9326656177900704 
0 
-0.03181528739352325 
-0.3965844040363484 
0.3947662818914772 
-0.9605870860236885 
-0.8206492085243408 
0.03201012293697096 
-0.03686297831298194 
-0.01018281163651097 
-0.001884433971677512 
1.273569326428379 
-0.8210218549659228 
-0.03083635768674538 
0 
-0.1621733684053526 
0.4054094696869713 
0.4900813697545156 
0.6229055052958272 
0.192019409171585 
-0.5799233632644337 
0.08754848882173988 
1.113528486740933 
0.3280232726242921 
-0.3279978597911342 
-0.02659674657772052 
0.01250634518746209 
-0.6932134978481189 
0 
0.08369640863676964 
0.2585349007940363 
-1.137897232116446 
0.8417803313043463 
-1.249739895838444 
-0.2763845354056872 
0.0565267722469328 
-0.03468363458577003 
0 
0.5760941570965441 
2.168404344971009e-19 
-0.9896671434651629 
0.533142718202506 
0.1740792948687577 
0.5347144178011147 
-0.1514517825245858 
0.0647736276694717 
0 
2.644325474122045 
0.4346579329000961 
0.492750021030407 
