solver_type L2R_L2LOSS_SVC_DUAL
nr_class 2
label 0 1
nr_feature 5000
bias -1
w
-0.1383306976303288 
-0.2037588622260309 
-0.04693976223413385 
-0.1022493918185312 
-0.08766106161839156 
-0.7935557551341013 
-0.04050786590760729 
0 
-0.2710295979429707 
-0.03387233204536054 
0.03487472024276489 
-0.1030729038584323 
-0.1058863778024693 
-0.009001258390939128 
-0.02310856858601255 
-0.1944870365276845 
-0.2098179587790719 
-0.3234281351269561 
0 
-0.5094918522942565 
-0.02662009851905497 
-0.04425540101182061 
-0.03011021668294833 
-0.06223018728311569 
0 
0 
-0.1391827825939405 
-0.1025498806851224 
-0.002198045827358777 
-0.007050618211332669 
-0.1276069052249662 
0 
0.1803379376768879 
-0.1333461431530985 
-0.06765394077612391 
-0.07243875501613348 
-0.2771523556312295 
-0.1060112508050224 
-0.1033336785101489 
0 
0 
-0.02025181807373507 
-0.1550584902794452 
-0.07764124867519258 
-0.02783369141558695 
-0.02766854219059936 
-0.04840421692390675 
0.1219485226569953 
-0.03914357335399102 
-0.1173294295701145 
-0.02209868489096683 
0.06845662612336369 
-0.04828081232954056 
-0.1327644575927943 
0 
0.05936603817058281 
-0.3369824852415765 
-0.2746668806904331 
-0.01562798446228993 
-0.1843505601421834 
0 
-0.1255064639873229 
-0.01834729310128725 
0 
-0.003669961605432148 
0.05603396618840019 
-0.110163046535098 
0.003502888483766054 
-0.02591417389104053 
-0.01282017678414979 
0.02054237023141513 
-0.06747899096752537 
-0.1347076085821896 
-0.002238953167093622 
-0.4540086027353281 
-0.002785877389190272 
-0.2953550526224515 
-0.01838409029974604 
-0.3944142345706399 
-0.02526925850693594 
-0.3293313338037431 
-0.2986487547004745 
-0.1134739294270501 
0.01574033125382384 
-0.07786150982651827 
-0.1084112519709072 
-0.1748197559320677 
-0.08048235322543143 
-0.2999851106954122 
0.0005556669133400098 
-0.02280551425990533 
-0.8181854077392977 
-0.007204288522499618 
-0.3607494000183795 
-0.06385706238295474 
-0.03213704492742484 
-0.04654914496899198 
-0.4918408666014391 
-0.004629799962367455 
-0.5127652866186242 
-0.03275254208902696 
-0.09231306441609097 
-0.2424011787386679 
-2.067468039858502e-05 
-0.071246511798703 
-0.1028440466387739 
0.2866793042970183 
-0.0618113830960033 
0.00506914008764401 
-0.1214152234211622 
-0.2549762332778702 
-0.0320017707354198 
0 
0 
-0.0576161143318374 
-0.06254131322896474 
-0.04457182436527189 
0.04687177820178699 
0.07753457460777599 
-0.6634849027167916 
-0.4298095913020762 
0.1906763083428221 
-0.009037683510057657 
-0.1031690359376332 
-0.02785833518767515 
-0.1702556559166112 
-0.07914762162216941 
-0.1599016334263822 
-5.477016491932127e-06 
-0.008638704141919923 
-0.03181091643630443 
-0.02257888646232095 
-0.09618766483118317 
-0.1677485636248875 
-0.1509282826781576 
0.08057488442863889 
-0.1310486109435194 
0.02151163074957806 
0.0152129829441138 
-0.03929733271110328 
-0.01533892007724713 
0.03987800063794295 
-0.02315764118895351 
-0.04050298126022952 
-0.05445091388257757 
-0.1150929092261583 
0 
-0.003429329605591281 
-0.07353025434970693 
-0.002693460497837757 
-0.01570436289576599 
-0.007214678234332447 
-0.1872996184753627 
0 
0 
-0.001459973647511471 
0 
-0.04297055668202059 
-0.07669792913478408 
0 
0.1746641244052612 
-0.03696776382941198 
-0.09729529519933913 
-0.0001101012618073259 
0 
-0.007950719164531309 
-0.02746203514351912 
0 
-0.0001083881787076164 
-0.1297174245080061 
-0.007467429479576976 
0.01400514681717945 
-0.1831690380570588 
0.0109784311009836 
-0.01163828272197513 
-0.5398494297723908 
0.1360919780019038 
-0.0724308865219056 
-0.000914418123239582 
-0.009127792624137982 
-0.002769428149294817 
-0.006280850501350712 
-0.007308537222126814 
-0.003485140583692153 
-0.1249417877964221 
-0.009655098060728812 
-0.4221593660907057 
-0.03853774278875927 
-0.08642463020724366 
-0.01456126377746584 
-0.1592786675168528 
0 
0.0273459973681259 
-0.008433503542962217 
-0.1326121074712956 
0.287041177142769 
-0.3820804959989468 
0.04395856584397941 
-0.4189311086803697 
-0.01369777357077502 
-0.002989272941240975 
-0.0381065401841899 
-0.007868029519956026 
-0.01363068918357844 
0 
-0.03738960140974143 
-0.009914565438944608 
-0.03217903608218577 
0 
-0.04799065820313034 
-0.08747215174142071 
0.02469162886110976 
-0.004604599204891686 
-0.09152363704426997 
-0.1277516897764762 
0 
-0.2114711220800767 
0.0004784748096389675 
-0.02185483402485956 
-0.03728349882466352 
0.02311766220454757 
-0.007980695495117188 
0.0426502179887021 
0 
0 
-0.004014814397320205 
0.21026763497513 
0.04175938073310258 
-0.06134074478239403 
-0.0364709272695388 
-0.01082138338605783 
-0.1880572271515828 
0.005522859351185667 
0.007524493666229263 
0 
-0.0313662549405767 
-0.05288712063620609 
0.01580774918488323 
0.01173551719775518 
-0.007294149571470668 
-0.03255300446546507 
-0.001678033670660348 
-0.02701602459214402 
-0.3245661494345428 
-0.01949600551384907 
-0.04592691946553716 
-0.05347128361348917 
-0.1068078032683832 
-0.0649357361293303 
-0.05710092697122757 
-0.04124392211506003 
-0.04602066563547189 
0.00125099425115636 
-0.4467405336516774 
-0.01774487268271251 
-0.06402808560755467 
0 
-0.1059274335188509 
-0.101279829192659 
-0.008536451608925804 
-0.08938893829003094 
-0.02456021445789166 
-0.01921139316921274 
-0.04497571578956686 
-0.02506772420599105 
0 
0 
-0.01605033950375946 
-0.1307464948272236 
-0.003013776043477437 
-0.1764328732872153 
-0.01385400373532294 
-0.003606650280357817 
0 
0.005145533044293783 
-0.002958609428331114 
0.009955834947731159 
-0.4206012733776268 
-0.05437165905448604 
-0.006045270721060533 
-0.1624424269210512 
0 
0 
0.00519118988045382 
0 
0.07413386663927231 
0.02165081562264172 
-0.0815241860016637 
0 
-0.0002936208189362981 
-0.4423445154933459 
-0.2032662802861853 
0 
-0.05414771034189952 
0 
-0.02487229128223999 
0 
0 
0 
-0.01800059715586937 
0 
-0.3234064598815793 
0 
0.1071617296002686 
0 
-0.02894662046968048 
-0.003011068592541689 
0 
-0.212818231921251 
-0.008157040412536022 
0 
0.01419374608200518 
0.008603758192290378 
-0.234528242708912 
-0.081593183701197 
0.002512459268881613 
-0.06113058542229604 
-0.07286732891157677 
-0.07902161583826048 
-0.02098465023475785 
-0.04037007852235686 
-0.007364561828034805 
-0.06524011562601312 
-0.0463960240075028 
-0.0009102191811785304 
-0.08143986574984599 
-0.00648506571890862 
0.1779628073865412 
-0.01461205809269072 
-0.02008536701295864 
-0.04711477757065062 
-0.3785488004340088 
-0.1129571517037978 
0.009636499289648621 
-0.0142759409814021 
-0.03209976963603994 
-0.03961562660377772 
0.006326067472179716 
-0.004146611121423994 
-0.3081975223195521 
0 
-0.1292701144307525 
-0.006891681169365144 
-0.3276237178436471 
-0.02907725109362258 
-0.08534475294629426 
-0.01987422188344696 
-0.01239037893335278 
0 
-0.4768843293329073 
-0.04156801794670609 
-0.07043786027066667 
-0.01937615259618029 
-0.02470629923843957 
-0.004787801635624107 
-0.006993331064581927 
-0.1100837377204882 
-0.2190557398803528 
0 
-0.01167077403071221 
-0.09736760512374504 
-0.0005949202964615466 
-0.06078877870083464 
-0.01108440884731262 
0 
-0.07011885619086632 
-0.01047966507360643 
-0.164011423146017 
-0.02723588119895869 
0 
-0.1660959650011533 
-0.01334991753351309 
-0.1506529345355967 
0 
-0.4735977596076305 
-0.1541575355353481 
-0.06226433342416907 
-0.08539362661520053 
0.009577427910086119 
-0.00310403691415464 
-0.1945998402939717 
-0.04282804679374388 
-0.004734574286824225 
0 
-0.09306705343541294 
-0.001760392474511451 
0.1783956078425395 
0.007972370761092883 
0.003190401932946673 
-0.04646677315183506 
-0.1171015911639925 
0 
0.001304745384007479 
0.09384553801446695 
-0.0889735577870161 
0.001922068111759141 
0 
-0.03702566082660432 
-0.02771687461869829 
-0.014801679282771 
0.01962192012106662 
0.001530606148685153 
-0.108719802890032 
-0.0005586442431867292 
-0.02104635313693422 
-0.1043640588137299 
0 
-0.07686956254190974 
-0.1885196671959318 
-0.002049331249705329 
0 
-0.2736916221204558 
0.1603072625192867 
-0.01267000568093993 
-0.5936842230655084 
-0.05450336227709471 
0.03229089908098212 
-0.05270777043097898 
-0.0326598478627329 
-0.2487665878281936 
-0.01120562847928249 
0.006615547473952774 
-0.008691157728192166 
0.01803159012380458 
-0.08931803074420142 
0 
0.1260003075217243 
-0.01291421907152399 
-0.2068990706175255 
-0.02112991141067077 
0.03821611544214168 
0.09598182165425392 
0.03928652704373826 
0.01264116859892847 
-0.0468143567552019 
0.1031570109266409 
-0.004626754008122578 
-0.005558852230261285 
0 
-0.0005467969323233042 
-0.07490409702810653 
0 
-0.06396543283379041 
-0.1764338400613177 
0 
-0.5650761034608038 
-0.01524111981217761 
-0.01613886550722729 
-0.0006698571354298726 
0 
-0.1306359084174905 
0 
-0.001017739106680059 
-0.1881279713559676 
-0.05471131486863288 
-0.008341645464386685 
-0.07665858054239626 
0.0006141106967777197 
-0.002428901322304151 
-0.0846042649888174 
0.01294275877904058 
0.0949616385157226 
-0.0505144360250699 
0.002535858787681736 
-0.007171349064265076 
-0.02187588939726413 
0 
-0.006444181698866402 
-0.2377363746460749 
0 
-0.01803886971046948 
0 
0 
-0.01842589121028951 
-0.1752526303322867 
0.004354697588283594 
-0.05106344911442971 
-0.02021019512067574 
-0.08524884639200915 
-0.03989392193152836 
-0.00519519896713683 
-0.0160097690690498 
0.04770651295579955 
-0.0279274242657353 
-0.01026750711460079 
0.02915578013398729 
0 
-0.007002162173453629 
-0.0008664934142094454 
-0.03936470859004889 
-0.008647119100731751 
0.5980121237868126 
-0.01027069666986865 
0.002693362122336278 
0 
-0.1558575657522749 
-0.1487093150550327 
-0.02794015117722974 
0 
-0.07306223740621956 
0.07346208140812922 
0 
-0.04398773628560021 
-0.005365917924233644 
-0.01387090839055487 
-0.04360157105062965 
-0.1266048750272619 
-0.03916969848411094 
-0.01219926902303647 
0 
-0.05834741179425531 
-0.01273845179482314 
0 
-0.02388195251967452 
-0.09304594698694413 
-0.2229045237361214 
-0.01437779094020489 
-0.1239617264912869 
0.09508306282664078 
0 
0 
-0.007905620426524826 
-0.00334142139984783 
-0.005307260820562257 
0.1677935019723315 
0.0454282655024684 
-0.009534322228793713 
-0.04677037374917479 
-0.01570025359100759 
-0.04697965119658146 
0 
0 
0.07717605554975417 
-0.04113589670716339 
0 
0 
-0.008361506130294068 
-0.08948093729389672 
0.03678864802643604 
-0.0794915588996653 
-0.03256123327024373 
-0.01819331102323384 
-0.002757923845684623 
-0.008186833142011341 
-0.007248136586581098 
-0.01184023209054187 
0 
0 
-0.6104432973697238 
-0.0003031343895613351 
-0.2972120995163685 
-0.438856119582767 
0.0620160048041009 
0 
-0.04467495700535111 
0 
-0.04207767012906653 
0 
-0.008085083908161752 
0.9401149015069844 
0 
0 
0 
0 
-0.04165785131001429 
0 
0 
-0.2746316163897022 
0 
-0.002112255202643457 
0 
0 
0.0587966980955956 
0 
0 
0 
-0.09472529353827672 
0 
0.007924780514229223 
-0.001856341915743613 
0.0345260454114014 
-0.2965524820584722 
-0.02117336102026822 
-0.06435370473761855 
0 
-0.2777473103491823 
0 
-0.004966158166017117 
-0.003382592523152506 
-0.08929380465033919 
-0.003474537619125872 
0.01047577944662573 
0 
-0.1612705317000462 
0 
-0.002017724447448839 
-0.2068658636733769 
-0.1911968776288742 
-0.2672611648922164 
0 
-5.421010862427522e-20 
0.001315100336496313 
-0.005595643109047694 
0 
0.04190842775840046 
4.336808689942018e-19 
0.02709120733908394 
-0.00346914242565029 
0.003018501637296105 
-0.1016600900662964 
0.02206396632815937 
-0.02983969617203595 
-0.007860991879808642 
0 
-0.002966852233444132 
-0.1448575305714262 
-0.004888560512564768 
-0.03692286125795354 
-0.0156500462485203 
-0.04557695145090059 
-0.03455531596879793 
0 
0.007888990868434797 
-0.1148795445998306 
-0.004009815932058019 
-0.007756788863397107 
-0.2162247355028893 
-0.005658860592317539 
0.02403731021628396 
-0.05968576334066218 
-0.0007907797774310218 
-0.1309667413667498 
-0.309139412628708 
0 
0 
-0.01081132883644944 
-0.08870623674297118 
-0.1025223687888885 
0.001630643671384803 
-0.580083829527032 
0.01211171728117932 
0.0002842157338192597 
0 
-0.002506140559325876 
-0.00555601727355683 
-0.02560995954482491 
0 
-0.07770341851338652 
0.2416601762492802 
0 
-0.01976036368354879 
-0.08153966146668125 
0 
-0.007340905017162144 
0.004828390782652774 
0.02208078539454446 
0 
-0.1791927649530768 
0 
-0.04851950300588792 
-0.02087345639451082 
-5.421010862427522e-20 
-0.01582793609500674 
-0.02400740333768845 
0 
0 
-0.3874468717701531 
0 
0.0272671313894071 
0 
0 
-0.009249302806714576 
0.2221617667209456 
-0.00577065744032266 
-0.3960073113359229 
-0.04345710930035303 
-0.0213650260663324 
-0.04351812020472182 
-0.01202528188913373 
-0.1696322029303191 
0.02623483916752688 
-0.08271797583593986 
0.002720276769359961 
-0.008443961382392819 
-0.006138921325613253 
0 
0 
0 
-0.01277780723463617 
0 
-0.04516578522864926 
0 
-0.1883114835880735 
0.1411329477397372 
-0.007814994988869478 
0 
-0.00789002113860969 
-0.00543626754646203 
0 
-0.01905907248674355 
0 
0 
-0.09446905748517241 
-0.001157300485661067 
0 
0 
0 
0.2738302563942838 
0 
-0.1257791501184484 
-0.05855875257552794 
0.1146953622820928 
-0.1024860508529971 
0.1055862914028392 
-0.1525003248156483 
-0.04624309484716039 
-0.2036068512002734 
-0.004352852549763636 
0 
-0.006145457387722621 
0.0003953739150590472 
-0.2587947024854082 
0.1431395752533798 
0 
0 
-0.02108193653416276 
0.06383800515294158 
-0.1883364031792027 
-0.005715825647611741 
0 
0.01260731694196015 
-0.01840225302655197 
-0.08812959352726459 
0 
-0.0396864157180754 
-0.003787765438705583 
-0.1541695535162592 
0.1577399994414391 
0 
-0.03145694617056298 
-0.07604621042421161 
0 
-0.03607730094503227 
-0.02157527453708588 
-0.01385379455662308 
0 
-0.01216737759637296 
0 
-0.02416081056566902 
0.146049692377724 
0 
-0.04018619733870143 
-0.1860537066039426 
-0.08224965339910466 
-0.03348549352248042 
-0.06922833609548129 
0.00075076006975213 
0 
0.01787039544785731 
-0.1266084440781575 
-0.009194177316517223 
-0.5440993398481069 
0.01420627592032958 
-0.02295201167910789 
-0.003193640964188142 
-0.009951161386440321 
0.0209016748538812 
0.00578361195976837 
0 
-0.3597251547299909 
0 
-0.04916374871165446 
-0.1382343253674975 
-0.005390141577227996 
-0.02183988695766191 
-0.1282865151701585 
-0.1919527471022332 
0 
-0.0358133647996221 
0.0002960911055272424 
-0.05771723355115167 
0.2229690138008293 
0.02993471900689347 
-0.1025336567241478 
0.02059975676292773 
0.8134361217193079 
0.01748777569438082 
0 
0 
0 
0 
0 
0 
0.008983557190267224 
-0.1748865046200076 
0.09567520229651598 
0 
-0.0007213700087277078 
0 
-0.1325643383570903 
-0.4398743188288235 
0.04421263498198441 
0 
0 
-0.2645690251643228 
0 
-0.006192429949475868 
-0.001909744732105631 
0 
-0.01249025734405561 
0 
0.09948126295012573 
0.7291776569710642 
0 
0 
0 
-0.0006653506062254841 
0.08719572432101479 
-0.03930799153639183 
-0.0003569946871534144 
0 
-0.02631863609129801 
0 
0 
-0.06487877629723743 
0.0142162188816396 
0 
-0.01517673419582058 
0 
0 
0 
-0.1108140757908897 
-0.002653547150217959 
-0.006963266542232948 
-0.06233505706302215 
0.1197780879766471 
0 
-0.0945173048846658 
-0.1952816482690916 
0 
-0.179097131292244 
0.006934870156867634 
-0.01980522352937379 
-0.009618947655077618 
-0.3911814229170952 
0 
-0.008233758234305702 
0 
0 
-0.0115861109603286 
-0.04230441727088881 
0 
-0.002923993132666949 
-0.08783054114566083 
-0.002840229613857533 
-0.06459956852002556 
0 
-0.2203731947644517 
0 
-0.0465609067322637 
-0.1376205522245208 
-0.04184814659542067 
-0.007767142543734279 
0.5927797917213791 
0.1524062363437182 
0 
-0.01247867915701422 
-0.1083950306130591 
0 
-0.008148393709500571 
0 
0 
-0.2011710862297155 
0.01410472109230168 
0 
-0.06676080078420513 
-0.165685194211063 
-0.1255379011411403 
-0.005598485230826065 
-0.5081930801592867 
0 
-0.1342780802229827 
-0.3146673646188981 
0 
-0.06005486666332763 
-0.02122756584755133 
0.04648823578756765 
0 
-0.0840899688150013 
0.002864091949759485 
0 
0 
-0.005414682974397639 
-0.08839034274143127 
0.05674074178711005 
-0.1953601661051367 
-0.01952574210400129 
2.168404344971009e-19 
-0.01422894025784167 
0 
-0.001643439256086478 
-0.06222529309833556 
-0.5136831551949641 
0.3865069956383957 
-0.07986580069461124 
-0.02948827892350264 
0 
0.04080613865731944 
-0.05888961739226745 
-3.252606517456513e-19 
0 
0 
-0.00137121299272531 
0 
0.03753731706826059 
-0.1014006224726665 
0.1066313582695627 
0 
-0.0117714245578144 
0 
-0.002096319469890206 
0 
0.003344254861718319 
-0.00351819018239729 
-0.3982824822137844 
0.131843210710641 
-0.03528043188175303 
0 
0 
0 
0 
-0.008003792863098365 
-0.05119288838003255 
-0.01768621336923208 
0 
-0.02486776377521811 
-0.03090234662437191 
-1.172421113407738 
0 
-0.1364359358492417 
-0.005088712900097729 
-0.005638855411011416 
-0.01415777870821754 
0.0487135414225217 
-0.05859169234112978 
0.1824037699228791 
-0.003042668679409198 
-0.01330319527833587 
-0.0989077511605034 
-0.05426716383995537 
-0.06861916009636433 
0 
0 
0.0111195782005795 
0 
-0.01462606906698652 
2.168404344971009e-19 
0.01932632577581476 
0 
-0.1214039090743597 
0.044162546419476 
-0.08329336692181975 
-0.2573322323603403 
-0.003814665909468671 
0 
0 
0 
-0.005611179538848194 
-0.04134378659382842 
-0.01931226289977285 
-0.001100941140817882 
0 
-0.05021209925299375 
0 
-0.04829043702911445 
7.860465750519907e-19 
-0.1497528938527848 
0 
-0.1017473796069303 
-0.5493521057574211 
-0.005137757160928937 
-0.004006112212054357 
-0.005753080830374456 
-0.002752594903315472 
-0.01109370924083073 
-0.06083481359265346 
-0.01101357210237793 
-0.01150553516798093 
-0.006724470245876909 
0 
0 
0 
-0.01150634076190309 
-0.01325764294613961 
0 
-0.01723158406750291 
-0.001929333803639171 
0.2713078841041208 
-0.005129784331442213 
0.04757388305790965 
0 
-0.002367588506253453 
-0.1211991406417377 
-0.05162506053239693 
0 
-0.001443192082632536 
0 
0.118846288579348 
-0.01234944066039615 
-0.0105917485929004 
0 
-0.09948995396867454 
0.1003066519952087 
0 
-0.00229327308677965 
0 
-0.01437243454966868 
-0.02067103122562464 
0 
-0.07145591499707916 
0.05382699764090414 
-0.01734221392942014 
-0.004139184506923907 
-8.673617379884035e-19 
-0.0008638180889678175 
0.09551816331392968 
-0.009250769035521234 
0.0234587283324709 
-0.001040762590463506 
0 
-0.008506831538879246 
-0.01800169392411979 
0 
0.01321089278852858 
-0.02519763694469457 
0 
0.005445590566053743 
0.01481061022036955 
0 
-0.003212054364875495 
-0.06015564770301726 
0.02299947307798773 
-0.0157446465123319 
-0.01603081933365954 
0 
0 
0 
-0.001176729563530895 
-0.1097162637831306 
0 
0 
-0.02023732937955848 
0.06609570533489269 
-0.005103454037740605 
-0.08479106918851254 
-0.08126741290383979 
-0.3355165969488488 
-0.4960935969738372 
0.2127749032245221 
-0.009921504680247883 
-0.01056944596551435 
-0.07641658855918589 
0.1213964449230323 
0 
0.01169859067891194 
0.01894154336503854 
-0.1772803819909685 
-0.002912654559584987 
-0.09932796578587079 
0 
-0.02062191958325093 
0 
-0.08944974976298987 
0 
-0.1505135987137021 
-0.2184449155535863 
-0.2371440789963578 
0.09169016330998289 
0.02960786076189699 
-0.006765021214569895 
-0.01280617949257033 
-0.3735475291695897 
-0.009546086253079573 
-0.1460925210324633 
0 
0 
0 
0 
0 
0.004552355561045467 
0.02953214778229655 
0 
-0.3161349313581142 
0 
0.01773327241662094 
-0.08567646810978648 
-0.05225503392249564 
0 
0 
-0.171485297870471 
-0.04112221874542018 
-0.04059313011556051 
0.001743707657238835 
-0.005889658464742045 
0 
-0.007235786441092038 
-0.1117993609277329 
-0.009554474437476198 
0.005288164500434823 
0 
-0.1357747963514625 
-0.0127084707181197 
-0.07826492488110549 
0 
-0.1537138921078204 
0 
0 
0 
-0.0439808357446826 
-0.001105967407286242 
-0.01386532351695838 
-0.001823690722185186 
-0.2731448252432921 
-5.421010862427522e-20 
0 
-0.01452737688629033 
0.008096359623340318 
0 
-0.02138752955864339 
0 
-0.02968951751307303 
0 
0 
-0.03478081528020265 
0 
0 
0 
0.02815659237021087 
0 
-0.01679662492309951 
-0.1361266236161252 
-0.2866432383827763 
0.1124959426234962 
-0.08961894793104398 
-0.01728211950378537 
0 
-0.2834259189002009 
0 
-0.3413388279709758 
0 
-0.002411740162262574 
0 
-0.04703571796331402 
-0.4308258636283757 
0.02831258612751002 
-0.03459503574551705 
-0.2415697737664512 
0 
0.04014511658893214 
0 
-0.03421905468608416 
-0.02872302242329363 
-0.04769565633823595 
-0.3099220917218169 
-0.02752723128354091 
0 
0 
-0.0131575164981404 
0 
-0.03413157809608666 
0.06655136882205552 
-0.007359128339115766 
0.002603867225425695 
0.1664052792886317 
0.002575375135464258 
0.1216952664592643 
0 
-0.04481041474777726 
-0.1305960562919251 
0 
0 
0 
0.1545343944239888 
0.1174460453752811 
-0.1794448723235007 
-0.01158428713181798 
0 
0.1676693634129678 
-0.02409962043197453 
-0.01770815148157426 
0 
-0.01627293815367211 
-0.04244374802186839 
0 
-0.1838400611399847 
0.007859134060159523 
0.03046098001140485 
0 
-0.02333464395125543 
0 
-0.01596597154570103 
-0.03651736079046813 
0 
0 
-0.02115719656515648 
-0.08781924767856397 
0 
-0.0020089610406636 
0 
-0.007258225724453249 
0.009400033816963912 
0 
-0.01645862879775377 
-0.01519256075161559 
-0.3621216181933392 
-0.2644152428756629 
0 
-0.0534117003765737 
-0.0895348434365958 
-0.02442829121430169 
-0.005650725547084041 
-0.008237544903879205 
-0.008671812782443585 
0 
-0.1149505294095465 
-0.08093112837315117 
-0.01007821911531734 
-0.01883939043808073 
-0.009233393220308122 
0 
0.03643785611538817 
-0.0246828505791927 
0.01264292158728831 
-0.003334486922363377 
0.01518612060892017 
0.9767505432603895 
0.04052309138695844 
-0.1462627202204239 
-0.0784125385033219 
-0.1181025479533076 
0.1044150193470415 
0.04296716407200416 
-0.1067542398693977 
0.0003413099076086715 
-0.007937669306835961 
0 
0 
0.000711552864220668 
0 
0 
0 
0.4307159309407427 
-0.09159841531836908 
0 
-0.01007996242148954 
0 
-0.06551590719993904 
0 
-0.003517034409756622 
-0.02089908165298618 
0 
-0.02085531624365854 
-0.1524087779834069 
-0.08126813165898052 
0 
0 
0 
-0.01066248608632485 
-0.02329403011521117 
0.01464698689043536 
-0.04068228022135972 
-0.04782554296268426 
0 
0.4169282543182055 
-0.04896440579816661 
0 
0.02032125752551883 
-0.04522778987480533 
0 
-0.02923449232939659 
-0.06978470891180916 
-0.09299951674443582 
0 
0 
-0.008729733750115855 
-0.03315771462077302 
-0.03706818949853802 
-0.01811640418191892 
-0.0160798627750518 
0 
-0.05292169856621586 
-0.001092449239204927 
0.03298017659354812 
0 
0 
-0.007272503780343199 
-0.1108855185796372 
0 
-0.1715057240386998 
-0.007877825782221631 
0 
-0.1284673643738365 
-0.04231342532805787 
0 
0 
0 
0 
0 
-0.03730152003044394 
-0.06072832441383957 
0.0007904040559428069 
-0.09317837802478791 
0 
0 
0.07416669110573827 
0 
0 
0 
-0.2168576032293531 
-0.3952758101157576 
0.01351662560642035 
-0.4833636961674708 
-0.3601452398212355 
0 
-0.02123136630651747 
0 
0 
0 
0 
-0.1431413947653633 
-0.113845538451526 
-0.001166632156270554 
0 
0 
-0.02436330042996383 
-0.02654876837129103 
0 
0 
0 
-0.01446942832286638 
-0.01080324903032158 
0 
0 
0 
-0.04110895699765649 
-0.1300518585998461 
0 
0 
0.01107041318623687 
-0.02304860726813407 
-0.02388704463601003 
0.1937812301754399 
-0.04983776833937124 
-0.003531548047819194 
-0.3967315745837447 
-0.00493738839334042 
0 
-0.03082367006630326 
-0.05208384164488945 
0 
-0.1275464301093373 
-0.001844009707428588 
0.8322334621141887 
-0.05399836578403458 
0 
-0.01932901877191578 
0 
0 
-0.03998638051727991 
0 
-0.4469075193358326 
0 
-0.003562427414791549 
-0.01830096876662491 
0 
0 
0 
0 
-0.0006589707968877313 
0 
0 
0 
-0.05777216870441188 
-0.002757214684935307 
0 
-0.001565427615597073 
-0.007672966107942592 
0 
-0.005180595960841343 
-0.15941316350216 
0.2362069919451245 
0.00860415080376549 
0 
-0.01696026853061639 
-0.02966008327087668 
-0.01217396589511921 
-0.00414288453054014 
0.005015078088266064 
-0.03379930924179007 
-0.02996382592665571 
0 
-5.341578795507015e-05 
0.04382706319526706 
0 
0 
-0.3018103652605561 
0 
-0.01272548547386658 
-0.009958272460268952 
-0.3230185720322313 
0.07391483735289775 
-0.08055398503702491 
-0.01543053913555597 
-0.003994901120925553 
-0.03011929031567401 
-0.02404951284396806 
-0.08732314427644047 
-0.006003889381874956 
-0.2896690123692469 
-0.1578983152943881 
0 
0 
-0.004532385742009961 
-0.009432439928032419 
0 
0 
0 
-0.03310576624796372 
-0.06502102487691971 
0 
-0.002522586287062759 
0.0006726606764036261 
-0.09048442986211269 
-0.001149701728693989 
0 
0 
-0.07051073583564203 
0 
-0.02017819129341304 
-0.003647080376821087 
0 
-0.00235934153031129 
-0.007427249124189787 
0 
-0.0854082522054096 
-0.03366813432538263 
-0.009061935825009554 
-0.3648842476255627 
-0.08537205617345987 
-0.0157797191129326 
0.001515221441206543 
-0.01681294461054186 
-0.07004447056363015 
0 
0 
-0.04941712905144623 
-0.1001838881805514 
0 
0.03550326163008909 
0.1664710194917851 
-0.02364203165592231 
0 
-0.003615142286373693 
-0.1263139320248703 
0 
-0.06942778483690551 
-0.006979469884301761 
-0.01666953875622051 
-0.003629156447225128 
-0.002892430949359571 
0 
-0.01590561959828363 
0 
0 
-0.02281795102705611 
-0.0461386474096729 
0 
0 
0.002606388560196011 
0 
-0.01359504773208209 
-0.04616565967179456 
0 
0 
-0.02351549325066739 
0 
-0.001868449944834817 
0 
0 
0 
0.02465936162079998 
-0.002476621133150269 
-0.07372395391126253 
-0.01584586411762269 
3.388131789017201e-21 
0 
0 
-0.00222104956740478 
0.02880695228048673 
0 
-0.0194508447086494 
0 
-0.02674405520960291 
0 
0.006767929841436328 
-0.02623953303111451 
0 
-0.1590372748174706 
-0.06681506351454947 
-0.09546875573790836 
-0.003007948751171973 
-0.1390016621407817 
0.1097335105594535 
0 
0.1535061941364828 
-0.02118586447420236 
-0.03408573731898954 
0 
0 
0.003204208683204499 
-0.02319916680885581 
0 
0 
0 
-0.01221704026039505 
0 
-0.1824513564091705 
-0.09658334935980425 
0 
-0.003437639990500366 
-0.04565505276148545 
0 
0.2521754483869283 
0 
0 
0 
-0.00329170518974617 
0 
-0.0157145527083694 
-0.1172070561660852 
-0.3696421790804746 
0.04612140500510572 
0 
-0.1598917526706813 
-0.003240659265005386 
0 
0.09236004942500568 
0 
0 
0 
-0.005016178331705258 
-0.01242134554969066 
0.0001886487239717663 
0.005408713253379192 
0 
0 
0.006058958054840875 
-0.003061033566020457 
0 
-0.05641392581242588 
-1.13841228110978e-18 
0.1168370138485768 
-0.0008805336961853643 
0 
5.421010862427522e-20 
0 
-0.02268509332213163 
0.1786875101285645 
0 
0.1083246684337453 
-0.003505926397585245 
0 
0 
-0.08516258383350375 
-0.06011121323920453 
0 
0.02303332373709712 
0 
-3.238128349642539e-05 
-0.05938510169650864 
-0.08172659325121068 
-0.01182629810276046 
-0.006100608775654101 
-0.008873499614076226 
0.1178142856912133 
-0.0819674578518486 
0.02197265913898716 
-0.0653872318012665 
0.03823628304577129 
-0.08108914691022115 
0 
0.03360400156193553 
-0.0105935924132789 
0 
-0.1078504236041357 
-0.01161683809848788 
0.02007720544618193 
-0.002346436818535141 
0 
-0.1419764822829337 
-0.003608691370023424 
-0.002071283601790459 
0.5563679426828954 
0.06786106689842021 
0 
-0.04635322183106164 
-0.0726674668807144 
-0.0545612713445062 
0 
0.03401394729579404 
0 
0 
0 
-0.02038155327954155 
0 
0.06871900385772303 
-0.0483362145164169 
-0.01915523496415177 
-0.06704285705430854 
0 
0 
0.2137316441623187 
0 
0 
0 
-0.00857757174667198 
-0.03425272951265387 
0.04406965807196834 
0 
-0.4025238053807599 
0 
-0.01590588243853097 
-0.006337145757773663 
0 
0 
-2.168404344971009e-19 
0 
-0.08491548264729304 
-0.1079915142750546 
0 
0.0204333377968066 
0 
-0.01365867097303554 
0 
-0.105231065628359 
-5.906470780053903e-05 
0.02819560833662806 
0 
-0.1573828875357579 
-0.01061228558218963 
0 
0 
0.01828901152342273 
-0.02434139076388858 
-0.03482652781205939 
-0.2170220890201672 
-0.002452050378761601 
0 
0 
0 
0.008451447975485454 
-0.03405582977187121 
-0.08578798946366632 
-0.003738977612450028 
0 
0 
0.1879374382829568 
0.006608023498689641 
0 
0 
0.00037319510734421 
-0.005664144615511076 
0 
-0.004864368906201677 
-0.02723737911903184 
0.2087787944201803 
-6.868064825805177e-05 
0 
0 
-0.01424893009260775 
-0.002065966983665376 
-0.004261383894617944 
-0.005656103947460123 
0 
0 
-0.01332856292215322 
0 
0.3515315881075464 
0 
0.01807846687269833 
0 
0.02546129242922875 
0 
-0.00800522703656506 
0 
0 
-0.01981550395574019 
0 
0.004857824610740269 
0 
0 
0 
-0.004049620459981231 
0 
0 
-0.006960496610208337 
-0.05641837074016735 
0 
0.0712009666647703 
0 
0 
0 
-0.002139383118063734 
0 
0 
0 
0 
-0.3689477607596883 
0 
-0.2207448781475015 
0.004864008086633308 
0 
0 
0 
-0.2012002881400043 
0.05631816059067564 
0 
0 
0 
-0.0219919564722624 
7.589415207398531e-19 
0.001340949560304485 
0 
0 
-0.1157766473904268 
-0.00259256782557021 
0 
-0.004013239506925959 
0.1281132916145689 
-0.03257143259561839 
-0.0351305674939882 
0 
-0.06982219592567004 
-0.3497380775480676 
-0.003986926720723962 
0 
0.00436632581183647 
0 
0.04441391937136149 
0 
-0.01269843410623418 
-0.2950435587892565 
0 
-0.02496420942824026 
0.01666579611121268 
0.04371085453353008 
0 
0.00131600021571818 
-0.1459888688501713 
0 
-0.03050034668673255 
-0.01349431629054221 
-0.1113699322636574 
0 
0 
0 
0 
0.007245671041478963 
-0.04019493076133893 
0.1335819892212367 
-0.007702217071887292 
0.1254343325166703 
-0.008958966330189531 
-0.08907005747938579 
-0.1665285121573042 
-0.001227919469003345 
0 
0.004869763967874704 
-0.1485695301754148 
-0.1935898475415802 
0 
0 
0.005545789831857138 
0.001451206762070775 
-0.007012802023717584 
-0.04179945972628596 
-0.004471451218226703 
0.00951029412714368 
-0.007824482316570005 
0.0005534577915943677 
0 
0 
-0.09412955387007617 
-0.003956043726166323 
0 
-0.01126154200581014 
0.0537480549664982 
-0.0002951673734794666 
0 
0.01371687089259844 
0 
0 
-0.002089689981070489 
-0.01609621159228443 
0 
0 
0.06307108280270507 
0 
0 
-0.2223420514205887 
-0.03308431898252064 
-0.1174325128640644 
-0.141755219446891 
-0.08413127705394531 
0 
-0.08855305799865359 
-0.08888867754278448 
-0.001112061055764087 
0 
0 
-0.0105851893255526 
-0.008488734543929354 
-0.03101864874552086 
-0.08051752689345378 
0.05516380727595305 
0 
-0.004995862306666924 
0.02784373311495178 
0.05092398713723595 
0 
0 
-0.06593408050649702 
0 
-0.01171885477763192 
0 
-0.2112211808968191 
0 
0.5040681438229886 
0 
0.009594347292802142 
-0.006267185519952635 
0 
0 
0.0007138562172969944 
0.2046474586016018 
0.006378699899303847 
0 
0 
0 
0 
0 
-0.4100469384420792 
0 
-0.001526246429366632 
-0.06880762315027075 
-0.01862743371583436 
-0.02436539557863751 
-0.01316951056031738 
-0.01391835744308005 
-0.0003585845850238022 
0 
-0.003032140127426005 
-0.03009815592264856 
0.06749406970455728 
-0.01182840095752175 
0 
-0.1061430956470873 
0 
0 
-0.004543342366748358 
0.03461640918891409 
0 
-0.003270248441651681 
0 
0.03852499406538761 
0 
-0.005837091568829658 
-0.02588021077094375 
0 
-0.2139606306740015 
0 
0 
0.007013925688990412 
-0.08883021146413418 
0 
0 
0.2918719805953551 
0 
0.09862527051300363 
0.005583552828837896 
0 
-0.006350070916012467 
-0.1820310760981018 
0 
0 
-0.004638784078205522 
0 
0 
0 
0 
-0.009974577386852592 
-0.09417859331988758 
0 
0 
0 
0 
-0.00824878428289655 
-0.02122643502634268 
0.0002400264163049912 
-0.1275238464114667 
-0.006860696790720578 
-0.09197568212188607 
0 
-0.1106084657581293 
-0.003077786273710844 
0 
-0.07201505761284724 
0 
0 
-0.0499398353826196 
0 
-0.0248072841277587 
-0.04704344276375001 
0 
-0.0189530178891442 
0 
0 
0 
0.330388512142288 
0 
0 
0 
0 
-0.09236363331819372 
-0.02727346892588732 
0 
-0.02730173443435603 
0 
0.04171852953283597 
-0.1595444644957564 
0.1077988436807039 
-0.04718740024153146 
-0.06249082499364608 
0 
-0.00224299938773882 
-0.01703871958814293 
0 
0 
-0.01744665833323784 
0 
-0.1430998932667314 
0 
0.1173212935544361 
0.03545660048868424 
0 
0 
-0.1901075130258574 
-0.09066310535911298 
-0.1011332290028549 
0.3450970104158012 
-0.00246086731085501 
0 
-0.0214492342194364 
-0.004931650335102263 
-0.0641162232848725 
-0.03110456681734776 
-0.01801188690863851 
0.002418830297751132 
0 
-0.000604862410054958 
-0.01413871703577786 
-0.01738461969778146 
-0.01861380596620538 
-0.02095606643901532 
-0.02992665801647348 
0 
0.008969645647924901 
0.04984230849824786 
0 
0.1154877806207735 
-0.02073450356269603 
-0.05110198677528694 
0.008549508984009583 
0 
0 
-0.01145475329659669 
0 
0 
-0.2718543380398546 
0 
-0.115414729755501 
-0.01407660177689499 
0 
0 
0 
0 
-0.4303775201080101 
-0.3033724623259336 
0.01945158120224069 
-0.1897938881948695 
0.01392699446401359 
0 
-0.1486609492577247 
-0.03901088564505533 
-0.1100372870002197 
-0.01018917320180827 
0 
0.02475422277714049 
0.00378414499948233 
0.2099217644114331 
-0.08416933561110053 
0 
0 
0 
-0.007001064015433931 
0.06018909995488934 
0 
0 
-0.1936179049796585 
0 
0 
0 
0 
0 
0.0005994106368813213 
-0.01057640567868702 
0.034894757899968 
-0.1121300113330256 
0 
-0.01826568663522704 
0.002623588185200088 
0 
0 
-0.0001380729511184248 
0 
0 
0 
0 
-0.1344689114526417 
0.0003723072949358937 
-0.2963116398382947 
0 
-0.02296673100139108 
0.001662812215817912 
-0.0067426698748582 
0 
0 
-0.3508626639439724 
0 
0.08362535215619549 
-0.005925045292866588 
-0.003608128722675632 
0 
0 
0 
-0.05815647428627289 
-0.03590800127496554 
-0.01484945236414843 
-0.05208224495921022 
0 
0 
0 
0.0376769727758868 
-0.1986693350872054 
0 
0 
0 
-0.06629410314301092 
2.168404344971009e-19 
0.03820057217461308 
-0.02022634641064009 
0 
-0.104534167677812 
-0.001415810711705968 
0 
-0.02992803017113279 
-0.006926536859744602 
0.0006234543360510761 
-0.05286391200046573 
0 
0.05101950019138946 
0.04876357570140167 
-0.0154878453860974 
0 
-0.1917236945800916 
0 
-0.03769643938585438 
-0.02449081547258051 
0.1593340745668419 
0.02297983092776291 
0 
-0.02381452251199261 
0 
-0.01290831375644687 
0.02080519318052016 
0 
-0.004195275471851676 
-0.02324840239543906 
0.06019703632079985 
-0.02349892974823216 
0 
0 
0.02089268645635157 
0 
0 
0 
-0.06954032357601919 
0 
0 
0 
-0.05756625958747651 
-0.221397843714024 
-0.05156344818361645 
0.003312262550265223 
-0.335508451672788 
-0.02856327687836213 
0 
-0.0228290324776452 
-0.02978546752529488 
0 
0 
0 
-0.02869691191634634 
-0.06480987196456821 
-0.01078848126752447 
-0.09188951804668613 
0.001039519567637159 
-1.428446812519182e-05 
-0.1388859574545691 
0 
-0.01082874611161713 
-0.05048174601721544 
-0.01075703603136841 
0.005531513327995489 
0.02629738314527343 
0.004786236193708015 
-0.01740525708045041 
0 
0 
0 
0 
0.01866468995574055 
0.007414927549047737 
0.06179391260763378 
0.005854763761371685 
-0.00421307844688623 
-0.003309359928355791 
0 
-0.008216854699343116 
0 
0 
-0.1082207680746334 
0 
0 
0 
-0.3917463708921951 
-0.0006349653846237363 
-0.02815369081476958 
0.05288234690915214 
0 
-0.00674159203473023 
-0.001440340808292155 
-0.02467305797007021 
0 
0 
0 
-0.03312231672969949 
0.1532531352248294 
0 
0 
0 
0 
0 
-0.005242469643283516 
0 
0 
0 
0 
0 
0 
-0.09197982057653446 
-0.1034207491363755 
-0.007255960781079201 
-0.004507489474333932 
0 
0 
0 
-0.01960467350132549 
0.01060606853608711 
0 
-0.05474829071672305 
0 
-0.07893983419068995 
-0.1005760417658959 
-0.03219524683973979 
0 
0.002967904605266227 
-0.03396306412466633 
0 
0.05818475537294261 
-0.007265533626437963 
0 
-0.06866037309963062 
-0.03246146539220082 
0.1176297281218868 
0.008861451229937161 
0 
0.09882867663540454 
0.02942518731919724 
-0.216892407034973 
0 
-0.0218043518029233 
0.0158048668148846 
0 
0 
0 
0 
0 
0 
0 
-0.00468179121069994 
0 
0 
-0.005983097465355347 
0.01054415865859848 
0 
0 
-0.0698650837038463 
0 
0 
0 
-0.226191138942002 
0 
0 
0 
0 
0 
0.1775360248760501 
0 
0 
-0.1174234375396487 
0 
0 
0 
0 
-0.005147237467596533 
-0.02749028033283213 
0.002664275781518709 
-0.01244192931814379 
-0.007711854901527765 
0 
0 
0 
-0.07374302353251055 
-0.09875664718529129 
0 
0.02451520652353492 
-0.04377105940463904 
0.02720414712952346 
0 
-0.05061654542942119 
-0.01602404609158969 
0 
0.02810083111074713 
-0.02053089709182696 
-0.0964907072751023 
0 
-0.1891827836829286 
0 
-0.02616969825873483 
0.06158495733664252 
-0.2720175222637049 
-0.004994582207537073 
0 
0 
0.06703343154472104 
0 
-0.07452292120068016 
0 
-0.08869455834602172 
0.01555054701374318 
0 
-0.003121511694480195 
0 
0 
-0.001500854218761173 
0 
0.05346884393784478 
-0.0041008275140074 
0 
-0.0004074985529389895 
-0.007770615548323497 
0 
0 
0.2121321271931416 
0 
0.02221840119703001 
0 
0 
-0.001884215424128502 
0 
0 
-0.06668799312831773 
0 
-0.01285622169885556 
-0.0004306197002678177 
0 
0 
0 
0 
-0.02552656667635382 
0 
0.00117705074320154 
0 
0.1725435191805076 
0 
0 
0.000370345455176207 
-4.941708647592757e-05 
-0.2427370699755215 
0 
-0.2158781625206091 
0 
0 
0.02763559953252406 
0 
-0.003541592931689031 
-0.03003556513772411 
0.02229835182222063 
-0.03202655899992291 
-0.3128159904304267 
0 
0 
0 
0.01063579689129392 
-0.008522978921246708 
-0.07310601727503487 
0 
0 
0.001303952844675808 
0 
-0.01096352053672007 
0 
-0.01448895721147265 
0 
0 
0 
-0.005313046570074587 
-0.001255026584015953 
-0.03247365621304391 
0 
0 
0.01411060862670631 
-0.01187672755526314 
0 
0.03071601860315184 
0 
0 
-0.008114253680999755 
-0.0297913301811446 
0 
-0.02082419092787957 
-0.1150268509372021 
0 
0.01657620370216227 
0 
-0.01988151747691487 
-0.02442086469433613 
0 
0 
0 
0 
-0.008211010784237516 
-0.0143238957933727 
-0.01054820364704337 
0 
-0.3340954883914372 
0 
-0.002121926394593521 
0 
-0.0202495149465898 
0 
-0.001420249564804903 
-0.0009949154160188067 
0.03650637627552451 
0 
0 
-0.01600363052338583 
-0.2501308185160311 
0 
-0.03216062038294384 
-0.01854664689931612 
0 
0.006010856228073506 
-0.2015951300823591 
-0.001295447360012615 
-0.3572888955979666 
0 
0 
0 
0 
0.2428866731911165 
0 
-0.08082016516425559 
0 
-0.004345973562850757 
-0.005372528753319852 
0 
0.008455730442963124 
-0.005565294262467592 
0 
0 
-0.02049755974674641 
0 
0 
0 
-0.08999009177592757 
0 
-0.02939438555508795 
-7.290610187816981e-06 
-0.007369704665947936 
0.04588393572397552 
-0.00908802953807413 
0.06313035180137332 
-0.004470706666363071 
-0.3213684259075192 
0 
-0.3126464171338869 
-0.04633531025811371 
0 
0 
-0.1457505563768244 
0 
0.1074618955937849 
0 
0 
0.02981843281481145 
-0.007218604233560438 
-0.119396828072278 
0 
-0.03731802043447866 
0 
0 
-0.01005591241500982 
0 
-0.003930988302212666 
0 
0 
-0.0807172486292231 
0.07426918006658717 
-0.00350231531394601 
0 
-0.0003182632799157807 
-0.1781813715094094 
-0.01108075476883229 
0.05867165240114395 
0 
-0.004410303949675043 
-0.003217552691175857 
0 
-0.0122735902570229 
0 
-0.01243227703566755 
0 
0.1503517801348661 
0.1533134810460327 
0 
0 
0 
0.2746286121368555 
-0.00112033423096137 
-0.01195896793882367 
-0.0254875649972566 
-0.01229704060836979 
0 
0 
0.03454702233398506 
-0.01136638497730016 
-0.01882136484811986 
0 
-0.01349189459205799 
-0.3235781161715982 
0 
-0.01496346535093638 
0.1256740837752718 
0 
-0.08505003838014293 
-1.301042606982605e-18 
0.4449388473359621 
0.02943007350948032 
0 
0 
-0.03369794168333479 
0 
0 
0 
-0.09427033566165635 
0 
-0.01486071939036441 
0 
0 
0 
-0.007173656342564451 
0 
0 
0.01628254210684396 
-0.0002775484875167335 
0 
0 
0 
0.08379565645296996 
-0.009036262997141659 
0 
-0.004788839541171072 
-0.1043568560484952 
-0.006861380868850247 
0 
0 
0 
0 
0.03098887451010809 
-0.01757639247333036 
4.336808689942018e-19 
-0.02266067688232076 
-0.2028010059743779 
-0.002402435890572895 
0.0002631262502173799 
0.008508209952807365 
0 
0 
-0.3328699704918882 
0.01492528856202273 
-0.004115763177421156 
-0.02634962590017624 
-0.2185542199866542 
0 
-0.01062141157944745 
0 
-0.03414717088409269 
-0.03348334755402242 
-0.009275853958971158 
-0.05286944276876741 
-0.0064801298007788 
0 
0 
0 
0 
0 
0 
0 
0.01552496236512517 
-0.2242665222116808 
0 
0 
-0.01200424207238357 
0 
-0.013614324347574 
0.03682877814580327 
0 
0.009984555580461251 
-0.01878672800643789 
0 
-0.02266607172533798 
0.01231276015095261 
-0.02293576041109687 
-0.005190449927989759 
-0.0615272073001147 
0 
0 
-0.03115757191405091 
0 
0 
0 
0 
-0.1535541217037114 
0 
0 
-0.08964996206619071 
-0.0270125973516412 
-0.03599308767520418 
0.009786925364074606 
-0.02061237520542994 
-0.004647572173097189 
-0.212080596479786 
0 
0 
-0.001740213096919575 
0 
0 
-0.1080326205098705 
-0.00772279552839807 
-0.004010812171791643 
-0.7770156755474279 
0 
0 
-0.02906192975807438 
0 
0 
0 
0 
-0.004970551694513142 
0 
-0.02967330030874147 
0 
0.03196468584048771 
0.09091526861777437 
-0.004939756408945348 
0.01821910016562011 
-0.2044732962949158 
0 
0 
0 
0 
-0.003245500339529345 
0 
0 
0.02006049387300015 
0.00112596116915541 
-0.01159030801525254 
0 
0 
-0.01383554848564352 
0 
0 
0.0008272297072429171 
0 
-0.05445781038780999 
-0.2000233939874014 
0.003095747248539226 
0 
0.1060021610208247 
0.00356214449858017 
-0.03115089267116965 
0 
0.06467324031734113 
0 
0 
0.0003811670039412268 
0 
0.4688677698528424 
-0.003210638391309734 
-0.03550253463064242 
-0.00765888325923261 
0 
-0.01987796977368158 
0 
-0.03255394456066901 
0 
0 
-0.138144938663532 
0 
-0.01197036670769408 
-0.02591275598308981 
0 
0 
-0.007780131711615118 
0 
1.734723475976807e-18 
-0.002200709448390899 
0 
0 
0 
0 
-0.00331901699558359 
-0.005417526653390099 
0.07712147286855682 
0.03110194218329714 
0 
0.01282627373987718 
0 
0 
-0.1035613245439066 
0 
-0.02572275737722513 
0 
-0.002251343348463376 
-0.03645677143658323 
0 
0.005579146339758399 
-0.3917885478012858 
0 
0.05186493264504478 
-0.01845808475709423 
0 
-0.009515850397768602 
-0.02514354905869365 
0 
0 
0 
0 
0 
-0.729251470986366 
-0.0345642013679982 
0.0005478463362820461 
-0.1185186889903862 
0 
0 
0 
0 
0 
0 
0 
0 
0.04120948469305845 
0 
-0.009218671608128278 
0.001022625327330345 
0 
-0.01009978230832761 
0.1229779511003944 
0 
0 
0 
-0.09275610424618067 
0 
0 
0 
0.01490405667902059 
0 
0 
-0.06554362995356204 
-0.001657647205828418 
0 
0 
0.004337679501252183 
-0.0547101948969085 
0 
-0.001356673554583686 
-0.1020238799085676 
0 
-0.08225712111935538 
0 
-0.05532852578885422 
0 
0 
-0.05996152136055191 
0 
-0.01296121495757706 
0 
0 
-0.141245694805121 
0.0002998180932751766 
-0.1336027511021247 
-0.05101548193841311 
-0.002650582325477323 
-0.00125899069160693 
-0.01696198097436803 
-0.5417464835938376 
-0.4188763270882832 
-0.1525195386898834 
0 
0 
0.01016863505934194 
-0.01910745437829185 
0 
0 
-6.143928634364265e-05 
0 
0 
-0.00951728589471398 
0 
0.02583389052007613 
-0.002582408558862511 
-0.02133774746786184 
-0.01026736864674859 
0 
0 
-0.03675608378039574 
0 
0 
0 
-0.0006597135772096856 
0.02617484702472509 
0 
0 
0 
0 
0 
0.0004376566967826492 
-0.0010409926558318 
-0.0301524020992129 
0 
0 
-0.06610603605012709 
0 
0 
0 
-0.01267198445490886 
0 
0 
0.007494124141547137 
0 
0 
0.02145514790733777 
0.9803577647014167 
0.000858449571567369 
0.08966636388011334 
-0.0005185025579379672 
-0.03841570475287952 
-0.000514697214085921 
0 
-0.05961260034421719 
0 
0.02044728228696554 
-1.224255356779862 
-0.00727060370065974 
0 
0.02245548075156951 
0.3556139295016283 
0 
0 
0.03209760751900558 
0 
-0.2524270882548573 
0 
0.01018057606137522 
0 
0 
0.06007095233769211 
0 
0 
-0.1676224251756633 
-0.02065981161656063 
-0.114092843889276 
9.75781955236954e-19 
0 
0 
-0.01224330862781098 
-0.181428301438 
0 
0 
0 
0 
-0.2141627482513892 
-0.01956663543779829 
0.03779031273632674 
0.007044656940230338 
-0.00547772068424174 
0 
0.02108054952462601 
-0.04757844262518181 
0.001926793756186998 
-0.005588248191978513 
0.1592697248728849 
0 
0 
-0.02929777904608261 
0 
-0.008077021935173513 
-0.00684870869064967 
0 
0 
0.02193717834977519 
-0.1362900936089099 
0 
0.02027926288312673 
-0.0256923526025993 
-0.06801892880602738 
0 
0 
0 
-0.007046307759136246 
-0.1622758308603325 
-0.0117671447894714 
0 
0 
0 
-0.03256909328821075 
0 
0 
0.05150693305964122 
0 
0 
-0.006472512883078178 
0.002629288586135089 
0 
-0.02538269655869317 
-6.505213034913027e-19 
1.348537000094685 
0 
3.726944967918921e-20 
-0.157393547573448 
0 
0 
-0.006136879362194457 
0 
-0.2051511094166011 
0 
0 
0.3824959092273404 
2.710505431213761e-20 
0 
-0.0129455042484566 
0 
-0.006133216939220099 
-0.02920879341241015 
0.01295601297219607 
0 
0.03263572208382784 
0 
0 
-0.002431956415140596 
0 
0.002417663477569938 
-0.01617374404233374 
0 
-0.1971675979404626 
-0.0003030265528914459 
0 
0 
0 
0 
0 
0 
-0.03268501309988771 
0 
0 
0 
-0.01133082401005742 
-0.007318376474820502 
0 
0 
0 
0.01504386340943701 
0 
0.005855686980556656 
-0.2252951773015176 
0 
0 
0.01981727586392223 
0.1731929809012968 
0 
-0.007319117013640098 
-0.01460637669299074 
0 
-0.0158444662671055 
0 
0 
0 
0 
-0.02481353019894356 
-0.001170735937779704 
-0.07925866314227736 
0 
1.084202172485504e-19 
-0.002424384222681215 
0 
0 
0 
-0.00759421343843917 
0 
0 
0 
0.01230274392279136 
0 
-0.2757490802268261 
0 
-0.01018981520389527 
0 
-1.517883041479706e-18 
-0.1242813165703468 
0 
-0.004050752381840424 
0.1081975022138954 
0 
0 
0 
-0.04859047945242058 
0 
0 
0 
0 
-0.0003485926360407988 
0.09669656000908627 
0.01403318596437584 
0 
0 
-0.02841430844250238 
0 
0.01214878301987899 
0 
-0.09718461097207685 
0.07047209266913931 
-0.009090772982408877 
-0.01221883143558365 
0 
0 
0.06306630371239688 
0 
0 
0.01010958171415073 
-0.04028798926412996 
0 
0 
-0.08811175909850757 
0 
-0.02073596086174195 
0 
0.06840106802669346 
-0.005945736894276406 
-0.009848104700011698 
-0.004499857855797882 
-0.00680236521559536 
0.2053308456676239 
0 
0 
-0.006354633629103414 
0 
-0.004019194457271567 
0 
0 
0 
0.03855278174500025 
-0.05678373676366832 
3.88063029437171e-05 
0 
0 
0 
-0.003530848649766679 
0 
0.04783561397869624 
-0.003227082321704249 
0 
0 
0.0005113293559229771 
-0.007594866448711495 
-0.03147799704553899 
-0.0002190211528487852 
-0.07972452366163525 
-0.002659311645288053 
-0.135296542430807 
0 
0 
0.3634220353287936 
0 
0 
0 
0 
-0.01036102916508811 
-0.02553981628198682 
0 
0 
0 
-0.0350270072524479 
0 
0 
0 
-0.01687875614234585 
0 
-0.003644884168269576 
0 
-0.2535819554641424 
0 
0 
-0.1782908238161304 
0 
-0.02623448177093146 
0.2796719804252598 
0.01836507288071926 
0.01107067089698098 
0 
-0.3259686950226648 
0.1562577594106514 
-0.2476481719334304 
-0.0250790051063249 
0 
0.02514900331088844 
-0.001503440305875921 
0 
0 
0 
-0.01740317986855745 
-0.03044061814573607 
0 
-0.01152174072053787 
0.04179016959172303 
-0.01297022966066772 
0 
0 
-0.009768077583858493 
0.036931097984188 
-0.0108695501698129 
-0.003123816129028413 
-0.002240317259612399 
0 
0 
0.004431407001238275 
0 
0 
-1.734723475976807e-18 
-0.02962131143177183 
-0.0005434908989757123 
0.3133991317754066 
0 
-0.165378084584152 
0 
-0.01785563858877022 
-0.01428920285755433 
-0.010241159818357 
0 
0.003309235403960818 
5.421010862427522e-20 
-0.02415293611701822 
-4.994163203570174e-05 
0 
0 
-0.1022410282393676 
0 
-0.1485065690324129 
-0.07832872570292251 
0 
0 
0.05371488824833703 
-0.00520733804417919 
0 
0 
-0.007107746441808204 
0.0003549017533950162 
0 
0 
0 
0 
0 
-0.008847209622550719 
0.1169241270836312 
0 
-0.04091827433842645 
0 
0.0003082636676903726 
0 
0 
0 
0 
0.08201574919434222 
-0.103423535535337 
0 
-0.000994222819904932 
0.01336482051803408 
-0.1783677498337019 
-0.00962608610576828 
0 
0 
0 
0 
0 
0 
-0.02518751976173907 
0 
-0.01463952795577592 
-0.09546288509113787 
-0.1179946761359011 
0 
-0.01336785531500436 
-0.007673606152420973 
0 
0 
0 
0 
-0.02608507576193213 
0 
-0.1127805363089751 
0 
0 
-0.006916260153284714 
0 
-0.0579689081499741 
0 
-0.003810845243487951 
0 
0 
-0.006578534548362117 
-0.003781567591032777 
2.168404344971009e-18 
0 
-0.0107207010176913 
-0.01102562131657954 
0 
0 
0 
0 
0 
0 
-0.06183603601382161 
-0.1485022471771995 
-0.0118443568908141 
-0.2444000049234511 
0 
0.04673193925895046 
0 
-0.006949075238271164 
0 
0.01625977299134783 
0 
0 
0 
-0.002785156449044082 
0 
0 
0 
-0.01037837527002507 
0 
0 
0 
-0.04394672498845385 
0.006135482084688888 
0 
0 
0 
0.01263096019287309 
-9.486769009248164e-19 
0 
0 
0 
0.01802510630495368 
0 
0 
-0.004024951938672312 
0.0003888161334643767 
0 
0.251394163754937 
0 
-0.1926949075971344 
0 
-0.03861524770548226 
0 
0 
0.01166674313912962 
0 
0 
0 
0 
0.1210648389398556 
0 
0 
0 
0.1015385065222923 
0 
0 
-0.1335381337349262 
-0.004026543099900077 
-0.004597540154670943 
0 
-0.01415283313769395 
0 
-0.01927593919353814 
0 
0 
-0.04582115154783488 
0.0969590039319933 
-0.3157724482755788 
-0.2506574027855774 
0 
0 
-0.08688642021720516 
0 
-0.1282360588928943 
0 
-0.01805710307042265 
-0.009575839867771826 
0.01186785308148196 
0.04057538670756555 
0 
-0.02170979469698011 
0 
0 
-0.002315694428300777 
-0.008159652745038515 
-0.1617447723534462 
0 
0 
0 
-0.06860858005151046 
0 
0 
0 
0 
-0.205821539905144 
-0.362573833778784 
0.03926634006698587 
0.2400462456620353 
-0.02079631828323078 
-0.02348127437581808 
0 
-0.01088795925133867 
-0.01504988727062088 
0 
0 
0 
0 
0 
-0.003992543527698998 
-0.228963865291729 
-0.1507105595453174 
0 
-7.92282987373116e-05 
0 
-0.01118631606994628 
0.351377921047927 
0 
-0.02212523092799371 
0 
0.006336866797570222 
0 
0 
0.0003020502780969993 
-4.336808689942018e-19 
-0.1100540078065551 
-0.01540085570335925 
0 
0 
0 
0 
0 
-0.1995418561263159 
-0.1163249676304206 
-0.06548781860440156 
-0.1645174897837396 
-0.002885331282139846 
0 
-0.0005813985097899678 
0 
0.01847625902188339 
-0.1310142927033445 
0.4824883731190989 
0 
-0.05787066184397224 
0 
-0.02354186722320008 
0.01164345524070206 
0 
0 
0 
0 
-5.522945399040592e-05 
0 
-0.1152318748767105 
0 
0 
0 
0.02203914775444074 
0 
0 
0 
0 
0 
0.02480775171345842 
0.06974459270644601 
0 
-0.03377430287713373 
0 
-0.006596592691078196 
0 
-0.007727186972361104 
0 
0 
-0.006278518666527058 
0 
0 
-0.009499576724103134 
0 
-0.08148186002184692 
-0.002774844999142957 
0 
0 
0 
-0.04331808765644521 
0 
-0.07060930262671759 
-0.001454603924777091 
-0.09942601483925209 
0 
0 
0 
0.04046660974611217 
0.003589930552074264 
0 
0.08136041486720239 
0.03945684875372036 
0 
0 
0 
0 
-0.03014233161976593 
-0.0517802013281466 
-0.000313411277410844 
0 
0 
0 
-0.003852031675691894 
-0.1356845526697319 
-0.008483159866842433 
0 
0.005078037386191557 
-0.01581008516099256 
0 
0 
0 
-0.05911237727399753 
0.03484421959423888 
0 
0 
0 
0 
0 
0 
-0.004359302436693039 
-0.0130991951625541 
0 
0.0709154209552852 
0 
0.04312833292154911 
-0.09457135091408261 
0 
0 
0 
0 
0 
0 
0 
0 
-0.09469581375546388 
0 
0.007649726232311552 
0 
0 
0 
-0.04258711793023904 
0 
0 
0 
-0.008464934931496557 
0 
0 
-0.01585819025042521 
-0.1128665302329268 
-0.0003281581310072797 
-0.02564701124873485 
0 
0 
0 
0 
0 
-0.02642870414564793 
-0.01048686119000852 
0.02567588299871041 
-0.03844232831579681 
0 
-0.01093661713310941 
0 
-0.03055952359084504 
0 
1.734723475976807e-18 
0.0771528465629598 
0 
-0.095552362981082 
0 
-0.01581509282512827 
0 
-0.001635831008535362 
-0.06826543696863101 
-0.3840256654473902 
-0.02257313516244065 
-6.653641382787339e-06 
0 
0 
-7.932796385096982e-05 
-0.09350196804214303 
-0.05752720997997696 
0 
-0.05212333052262965 
-0.004792658684965306 
-0.01719958430944517 
0 
0 
0 
-0.2659152665357088 
-0.002665002903394809 
0 
-0.05798662070588245 
-0.08161507655448473 
0 
0 
0 
0 
0 
0 
0 
0 
0 
-0.002424706619753716 
0 
0 
0 
0 
0 
0 
-0.1687576276037968 
0 
-0.04845415688805506 
0.04444147290365182 
-0.01149069940622831 
0 
-0.1993359520967179 
0.01834839383143792 
-0.2185554914306425 
0 
-0.002147850962656125 
0 
0 
-0.008022789203935737 
-0.009056798374976005 
0 
0 
0 
0 
0 
-0.01011965051293771 
0 
0.0003511683709380596 
0 
0 
0 
0 
0.1053205695109765 
0 
0.1959115428262485 
0 
-0.05296412839545744 
0.01063780970922408 
0 
0 
-0.005783208620544009 
0 
0.0005706842423735205 
0 
-0.03299559670182239 
-0.001368259885456088 
0.0005249749317909276 
0 
0 
0.005412439575343526 
0 
-0.001317588148069501 
0 
0.1326663795100273 
-0.03071077680953773 
0 
0 
0.03311181544274781 
0 
0 
0 
-0.1703170439633065 
0.02392959295497367 
0 
-0.0452180346867431 
-0.03690564263680061 
0 
0 
0 
-0.02374650082291692 
-0.2413601808510117 
-0.02051685980345986 
0.02544955241906 
0 
0 
-0.03896878415012775 
0 
0 
0.003952323305843277 
0.01595347197603891 
-0.07148885403261669 
0.1683658311439633 
0.012833556031439 
0 
-0.07132446829899339 
1.084202172485504e-19 
0 
0 
-0.005154597195572419 
-0.2651198749161092 
-0.02511404451036709 
0 
0.02035196158129066 
0 
0 
-0.07526150847450562 
0 
-0.1356010036962151 
0 
0 
-0.01849247870692302 
-0.007583122664316713 
0 
0 
0 
0 
0 
0 
0.0005640192578847141 
0 
0 
0 
0 
0.01237819667774896 
0 
-0.03192086580974436 
0 
0 
-0.0229560500428182 
-0.001772325914186652 
-0.009155479888650992 
0 
0 
-0.003123137383338333 
0 
0 
0 
0 
-0.03371066854262014 
0 
0.08062457710103355 
-0.02690602612684433 
-0.05264544604914748 
0 
0.0006663565434158318 
0 
0.08852531175351895 
0 
-0.002438200180171051 
0 
0 
0 
0 
-0.06101291694924739 
-0.00980035113231467 
0 
-0.1487531396839698 
0 
0 
0 
0 
-0.06255146093612973 
-0.02637576819320881 
0 
0 
0 
0 
0.00443012052050463 
0 
0 
-0.003198385556585156 
0 
0.05999116845811392 
0 
-0.01514331304530132 
0 
0 
0.1147606830100129 
-0.004579996574046351 
0 
-0.205813851836145 
0 
-0.01572026686912053 
0 
-0.003329415807149577 
0.1303251420629403 
0 
0 
-0.01156227398048622 
0 
0 
-0.3661851221612109 
0 
0 
-0.0007196556750139545 
0 
0 
0.009630505579876866 
0 
0 
0 
-0.09750016793650447 
0 
0.003643323291185623 
-0.1107100174449337 
0 
0 
0 
0 
-0.07479896490746625 
0 
-0.001930121897635714 
0.004223463244714149 
-0.06772081650188817 
0 
-0.03107721395814791 
0 
0 
-0.1982561566963331 
0 
0 
0 
-0.07393059921903214 
-0.00269066538414456 
0 
-0.01004029830903574 
-0.004182792669327111 
-0.08124370896153214 
-0.02439853378319512 
0 
0 
-8.594035846388183e-06 
0 
-0.01270325024517678 
0 
-0.03704012785425795 
0.009779376862107114 
0.004792898006735925 
-0.00426692341539162 
2.168404344971009e-19 
0 
-0.02681868976997313 
-0.01768391304622381 
0 
-0.01303624486910528 
-0.2424763681289416 
0 
-0.07462723423418714 
0 
0 
0 
0 
0 
0 
-0.1042139453563705 
0 
-0.2524592145770995 
2.168404344971009e-19 
-0.002837910597399188 
-0.05639136451749705 
0 
0 
-0.009798893359269666 
0 
0 
-0.02412375918436311 
0.002933965107129206 
0 
0 
-0.247176826249082 
0.01253301612625741 
0 
0 
-0.003222612652183573 
-1.626303258728257e-19 
0 
0 
0 
-5.909282421438374e-05 
0 
0 
-0.007155288011069254 
0 
0 
0 
0 
0 
0 
0.004977898038829693 
-0.007478812690996327 
-0.01472689784133576 
0.04526838684564601 
-0.09242847502196011 
0 
0 
-0.01794880775770206 
0 
0 
-0.01698706373703023 
0 
0.005634628482697913 
-0.3441596044538905 
0 
0.009183419516008248 
0 
0 
0 
0 
-0.04111628459961105 
0 
-0.023806353238498 
-0.005977458787154427 
-0.0150357903402674 
0 
0 
-0.02128433999385297 
0 
0 
-0.02625885990991512 
0 
-0.001304872100450568 
0.0594640851483712 
0 
0 
-0.3435300680623377 
0 
0.06005455279744715 
0 
0 
0 
0 
0 
0 
0 
0 
0 
0 
-0.02713340324942743 
0 
0 
0.02321234930972921 
0 
0 
0 
-0.02380460776123628 
0 
-0.004101295190066208 
0.08534115636412778 
0 
-0.349379110765394 
0 
0 
0 
-0.02297259085194718 
0 
-0.01551862439207717 
0 
0.0008713584772031489 
0 
0 
0.003200428677799805 
1.084202172485504e-19 
-0.03922213420948438 
0.07691111322383 
0.05639913264957322 
0.1117867134497589 
0 
0.001803653863761951 
0 
-0.02801792289573181 
0 
0 
0 
0 
-0.05150029804442759 
0 
-0.0110667776832966 
-0.1089931484728196 
-0.02456742669012751 
0 
0 
0 
0 
0 
-0.007180928376092108 
0 
0 
0 
0 
-0.1321854046880037 
-0.009144223370828736 
0 
-1.084202172485504e-19 
0 
-0.004056570958301612 
0 
-0.1017710033382882 
-0.05306569518637644 
0.007481491378339722 
0 
0 
0 
-0.0390262866545628 
-0.01525466598072672 
0.03752869621846686 
-0.02851355084353049 
0 
0 
0.003203203530623252 
0 
0 
0 
0 
0.01274382770502528 
-0.01683586804356752 
0 
0 
0 
-0.09486122883450042 
-0.1150643498362252 
0 
0 
0 
0 
-0.01383908823230099 
-0.007586193529754195 
0 
0.002541847807964088 
0.002030716168731133 
0 
0 
0 
-0.1289245768868143 
-0.003924571211629695 
0 
0 
0.0887407994190436 
0.01233434873575828 
-0.01354394711327832 
-0.006335069102925317 
0 
0 
0 
0 
0 
0 
0.008468927880809706 
0 
-0.01723543641251424 
0.1556421496237382 
0 
0 
0 
0 
0 
0 
0 
0 
0 
4.336808689942018e-19 
0 
-0.0007754367206814231 
0 
-0.0103220434957322 
-0.02838474951008173 
0 
-0.5244597723376903 
0 
0 
-0.1057633631801806 
0.01368477409061417 
-0.01187569409260004 
2.168404344971009e-19 
0 
-0.04919699582327837 
0 
0 
0 
0.006397623514331941 
-0.04084453849756579 
0 
0 
0 
0 
0.002227814631936281 
0 
0 
0 
0 
0 
0 
0 
-0.009272158157955707 
0 
0 
0 
0 
0 
0 
0 
7.589415207398531e-19 
0 
0 
0 
0 
-0.009491757694743698 
0 
-0.03981312810432053 
0 
-0.09249041692848989 
0 
0 
0 
0 
0 
0 
-0.5221501261878165 
-0.01756620507886046 
0.07963068001917903 
0 
-0.02404359536638803 
0 
-0.004536163483816575 
-0.02965261929301038 
-0.06270862045297371 
0 
0 
0 
0 
0 
0.06150424464884922 
-0.02752531868359379 
-0.006173631964125754 
0.1192720224792455 
-0.02131903453310423 
0.007120374741671317 
0.05791712338815357 
0.08134333831904124 
-0.04101103877642984 
-0.01060532630566632 
0 
0 
-0.001311802898431195 
-0.00508606923180772 
-0.007575919258734603 
0 
-0.01722590391657168 
0 
0 
-0.503287725838603 
0 
0 
0 
-0.007104860737720567 
0.04179146164755227 
-0.0002977386454095528 
0 
-0.03074609642182847 
-0.0003735388560265965 
0 
0 
-0.01780680311334229 
0.0005872780910871736 
-0.2038914487700174 
0 
0 
0 
-0.02587973161584122 
0 
0.03775104221213921 
-0.0161423942184957 
0 
0 
0.0500124142327111 
-0.005669075648113794 
0.009647502469529855 
0 
0 
-0.08959625890415156 
0 
-0.005935150358196271 
0 
0 
-0.01896263890831501 
0 
0 
-0.07285788420216321 
0 
0.09772290302634874 
-0.09943422511716092 
-0.0002853384014139741 
-0.00242741082195593 
0.1984592050947969 
-0.4237825532255 
-0.004674144534713513 
0 
-0.8226441210874924 
-0.05885686116386254 
-0.002481370772450734 
-0.0004633863783896517 
-0.0310741052748807 
0 
0 
0 
0.0008900461831580829 
0 
-0.03184911030988245 
-0.2596745212006454 
6.613633252161577e-18 
0 
0 
0.005197066073989149 
0 
-0.02948286462117676 
0 
0.1611011851663153 
-0.01326887708125644 
0 
0 
0.002110900435834815 
-0.04827459475901705 
0 
-0.001320540209566402 
0.03368499055084612 
0 
0.01830636089989005 
0 
0 
0 
0 
-0.02742629818901229 
0.08728092037633305 
-0.004355264165295244 
0.03040117116044595 
-0.2051357203338469 
-0.003093960433181399 
0 
0.1871057083797698 
-0.4401803740090054 
-0.05211553516885752 
0 
0 
-0.1855123947849332 
0 
0 
0 
0 
-0.005390764868537253 
0 
-7.2139949608636e-06 
0 
-0.397494797575995 
-0.005677702746368269 
0 
-0.397494797575995 
0 
-0.01994692186165427 
0.02634871687205344 
0 
0 
0 
-2.032879073410321e-20 
0 
0 
0 
0 
-0.003759032147236939 
0 
-0.2643203304805327 
0 
0 
0 
0 
0 
0 
-0.004460096342808583 
0.04033348422863788 
-0.09385249695563418 
0 
-0.07384029053795736 
-0.0130373827490735 
-0.0165782683921474 
0 
-0.01932029120844255 
0 
-0.2421695174883736 
-0.02288943774429662 
0 
0.1119219707617698 
-0.1152965269424562 
0 
-0.008544671235106742 
0.0005152966681719166 
0 
-0.01225199333549395 
0 
0 
0 
-0.3710983944790956 
0 
0 
0 
0 
0.0314446482910208 
0 
-0.02110878945687663 
0 
0 
0 
-0.009587493451541201 
-0.005267376187887853 
-0.09470986605326322 
0 
0 
-0.04617849666686839 
0 
0 
-0.005066013620212786 
0 
-0.3537210158654423 
-0.01397475005000093 
-0.01514285409546314 
0 
0 
-0.00388305068056494 
0 
-0.008904796846160169 
0 
0 
-0.05039887868232144 
-0.02489929155572861 
0 
-0.06305789665951414 
-0.001855239458114688 
0 
0 
0 
-0.011567034637806 
0 
0 
-0.01325950022180142 
0 
0.004985500702487812 
0 
0 
-0.02156171240807075 
-0.01163944435872884 
0 
0 
0 
-0.01385002885872489 
-0.0107495576202203 
-0.01350407463314843 
0 
0 
0 
0 
0 
0 
0 
-0.04272198361201092 
0.01452537191250705 
-0.01419113665619635 
1.084202172485504e-19 
-1.084202172485504e-19 
-0.002044760947478205 
0 
-0.01843866613895741 
0 
-0.01247272677397149 
-0.02307845797058435 
0 
-0.006285454104537823 
0 
0 
0 
0 
0.04046364408096047 
0 
0.1446823185728013 
-0.07877148259071075 
-0.008811910670882205 
0 
0 
0 
0 
0 
0 
0 
0 
0 
0 
0 
0 
0 
0.00166801564839632 
0 
0 
0 
0 
0 
0 
0 
-0.1705000419932705 
-0.05299418573115648 
0 
-0.01349484344171254 
0 
-0.06702537073792122 
-0.02690616249873737 
-0.02981738855097049 
-0.0907716509379249 
-0.03296546139391932 
0.114227895254888 
0 
0 
0 
0 
0.002212715794121444 
0 
-0.0012183705347178 
0 
0 
0 
-0.00856369593053968 
-0.07627792015504245 
0.04623021367543673 
0 
-0.07248540717401884 
-0.003420506123396885 
-0.02292668837558803 
-5.811646878331532e-05 
0 
0 
0 
0 
0 
0 
0 
-0.008068498741059825 
-0.03129843340542331 
0.07076922305928504 
0.07859140305527637 
0 
-0.01152866489536642 
0 
0 
0 
0 
0 
0 
0 
-0.01580444211549343 
-0.0304120642204237 
-0.04534389696551196 
0 
0 
0.0121173344503272 
0 
0 
0 
0 
0 
0 
0.139928690101512 
0 
0 
-0.0514709734247559 
0.002130019185762084 
0 
-0.06055106809571523 
0.03328776772297901 
0 
0 
0 
0 
-0.1625060991418683 
0 
0 
-0.00110635605065214 
0 
0 
-0.02708437732982327 
-0.004792099713472041 
0.02550417160651912 
0.2626248602926308 
0 
-0.04574986624129224 
0 
-0.03399247331160767 
-0.04214991098922704 
-8.673617379884035e-19 
-0.01610514585273979 
0 
0 
0 
0 
0 
0 
-0.004449333130596167 
-0.1669919935497491 
0 
0 
0 
0 
-0.00396906956762327 
0 
0 
0 
0 
0 
0 
-0.0121520193499224 
-0.01958533466703001 
-0.00148640815019808 
0.01520514133346756 
-0.03091789743004951 
0 
0 
0 
0 
0 
0.1105733211146392 
-0.001043897802413284 
0 
0 
0 
-0.09253335138150737 
0.02208585268309632 
0 
-0.007954212000450902 
-0.00703873954060682 
0 
0 
0 
0 
-0.07008754812063296 
0 
0 
0 
-0.01832287224704844 
0 
0 
0 
0 
0.1468703029513356 
-0.001258285482515439 
0 
-5.39685575167295e-05 
0 
-0.04262030889117696 
0 
-0.2116610393630072 
0 
0 
-0.03368799040455307 
0 
-0.003227447821063219 
-0.01567203012622163 
0 
-0.0005953734675762938 
0 
0 
0 
0.02460608815439519 
0.007229628505481172 
0.3688302842251811 
0 
0 
-0.04274315496510569 
-0.2674187706664512 
0 
0 
0 
0 
0 
-0.01806746406696497 
0 
-0.03956083748003268 
-0.001780331444565383 
-0.0211350566504262 
0 
0 
-0.0190326245619694 
0.04803109165844123 
0.3422360873210261 
-0.04663298561980234 
0 
0 
0 
-0.05823644012508386 
-0.01699992200071962 
0 
-0.002090387276090288 
0 
0 
0 
0.02411338890692693 
0 
0 
0 
-0.006716858251231116 
0.07939105412777132 
0.00288709411089854 
0 
0 
0 
0 
0 
0 
-0.02991436956913841 
0 
0 
0 
0 
0 
-0.03405565056448045 
-0.01306732384683246 
2.195004610859871 
0 
-0.004856691162236713 
0 
0 
-0.004987095887827658 
-0.06807549830078201 
0 
0 
0.1313001875425283 
0 
0 
0 
-0.004127228510754431 
0 
-0.001974691490144205 
-0.002067014465326487 
0 
0.08014427885056058 
0 
-0.005241761257631445 
0 
0.07351744879445395 
-0.001097099605772583 
-0.006871797031975521 
-0.4898996512212692 
0 
-0.1518411425937847 
0 
0.01670759944222416 
0 
0 
-0.0995269664558239 
0 
0 
0.01626562142985821 
0 
0 
0.07932848785226437 
0 
0 
0 
0 
-0.03249746137790292 
0 
-0.007183993928769749 
0 
0.04999268628309035 
-0.0276114435757838 
0 
-0.009844271727229263 
0 
0.04164384585130099 
0 
0 
0 
-0.01903752550110061 
0 
0 
0 
0 
0 
-0.01295840522137669 
-0.03801404670379639 
0 
0 
0.004648500959421697 
0 
0 
-0.006967615351952275 
0 
0 
-0.005051617305235966 
-0.3200911742967051 
0 
0 
0 
0 
0 
0 
0 
-0.003352213572006253 
0 
0 
0 
0 
-0.06473569578174573 
0.03327029010630622 
-0.02286720236890151 
0 
0 
-0.0420237258561591 
0 
-0.008857202205686074 
0 
0 
0 
0 
-0.00518537492859966 
0 
0 
0.001573670362749492 
0.08811107609425409 
0 
0 
0 
0 
0 
0 
0 
-0.002974448473984044 
-0.006431031825129622 
-0.05685732350407304 
0 
-0.01585504098722367 
0 
0 
0 
-0.009571007089114403 
0 
0.02288887702339006 
0 
-0.0257680877611143 
0 
-0.005343511227761443 
-0.002737322408590524 
0.009290528960959096 
0 
0 
-0.0323130079690807 
-0.04404620567569512 
-0.01504997096618713 
0 
0.03703884226627622 
0.0007406648771934442 
0 
-0.1209036772442998 
0 
0 
0.01987389124295096 
0.002993814290307567 
-0.09150058314674611 
-0.0006495356862227995 
0 
0 
0 
0 
0 
0 
-0.01468558748208771 
0 
-0.004665525802824967 
-0.02990402173222718 
0 
0 
0 
0 
0 
-0.00772748677529764 
0 
0 
0 
0 
0 
0.005372958643983992 
-0.01442878292670004 
0 
0 
0.03184994289276581 
0 
0 
0 
-0.001041343080417634 
0 
0 
0.1656544299399777 
0 
-0.008109824815621188 
0.0007072958350928703 
0.02249991575994518 
-0.2962002472479586 
0 
0 
0.06129379565765308 
-0.003762820736426261 
-0.06300839553824066 
0 
0 
0 
0 
0 
0 
0.009389857044870765 
0 
-0.004169322081550604 
-0.0013983514206949 
0.04789789894393785 
0 
0 
0 
0 
-0.01506757559057874 
0 
0 
0 
0 
-0.05164398140223206 
0 
-0.02086747646521233 
0 
-0.003512965995823372 
0 
0 
0 
-4.336808689942018e-19 
0 
-0.0007624996038054275 
0 
0 
0 
0 
0 
-0.1442516385714587 
-0.006731564297544996 
0 
0 
0.0278778729880539 
0 
0 
-0.004774305673364329 
-0.0001063960839183146 
-0.001882769759706809 
0 
-0.483838716949062 
0 
0 
0 
-0.05109850802736114 
-0.009947239193869481 
0 
0 
0 
0 
0 
-0.04102555573302248 
0 
0.002287615462765171 
0 
-0.006499032753005661 
-0.007419506755529124 
0 
-0.03991888521117554 
0 
0 
0 
-0.008013595567242588 
0 
-0.03732056137129283 
-0.01520908112909226 
0 
0 
-0.02114692121768738 
0 
0 
-0.001932806195292944 
0 
0 
-0.008099264295026531 
-0.00720663943472363 
0 
0 
-0.00128198889720146 
0.03872743884305164 
-0.005539270361830837 
0 
-0.007992861957014041 
0 
0.03908947765944833 
0 
-0.07631393312707807 
0 
0 
0 
-0.04238010323747101 
0 
0 
0 
0.04376054889360437 
0 
0 
0 
0 
-0.01570658230930833 
0 
0 
-0.03802359085124548 
0 
0 
-0.008056886052270014 
0 
0 
0.1197133488223627 
-0.2364356595530768 
0 
-0.005817255135248623 
-0.01231387502306019 
0 
0 
0 
0 
-0.001606356211885914 
-0.01001503202513125 
0 
0 
0 
-0.3888934790105516 
0.008943138334413351 
0 
0 
-0.1700665053461143 
0 
0 
-0.01819937426693031 
0 
0 
0 
-0.01065333209273531 
0 
0 
-0.5101247679067982 
0 
0 
0.5658770112580054 
0 
0 
-0.0214873859890077 
-0.007546858490902983 
0 
-0.2104754349905281 
-0.01601398945009396 
0 
-5.743739644424687e-05 
-0.05385640534447327 
0 
0 
0 
0 
0 
0 
0 
0 
-0.2489668301432785 
0 
0 
0 
-0.1469517410627301 
-0.03309969651576386 
0 
0 
0 
0 
0 
-0.09325570913278966 
-0.1269183997095841 
-0.02180010649998444 
-0.0003829348970084505 
0 
0 
0 
-0.05762238049577181 
0 
0 
0.06368852632751729 
0 
0 
0 
-0.006870493494668769 
0 
0 
0 
0.07145650504362483 
0 
-0.04214102821445002 
0 
0 
0.03748998726829739 
0.01736436316053007 
-0.1367727351194229 
0 
0 
-0.1915645337009011 
0 
0.347670757485339 
0 
-0.01191794743104787 
0 
0 
0 
0.06328358203285935 
0 
0 
0 
0 
0 
0.0007992937631483888 
0 
0 
-0.02333166357901444 
0.003094746474678744 
-0.00988521153758546 
0 
0 
8.174316287951755e-05 
0 
-0.1099660399729292 
0 
0 
0 
-0.01051279903984353 
0 
-0.02247424338521694 
-0.02762175097413709 
0 
0 
0 
0 
0 
0 
-0.03909400742197066 
0.01821057112063389 
0 
0 
0.03321140973476665 
0 
-0.001059127505150415 
-0.1022993326078061 
0.09444713743214898 
0 
0 
0 
0 
-0.03471219855591105 
0 
0 
0 
0 
0 
0.03233254784078432 
-0.1106246757591986 
0 
0 
0 
0 
-0.00270166954944567 
0 
0 
-0.00758977402079972 
-0.03743803297742184 
0 
0 
0 
0 
0 
-0.01546642308761748 
-0.007841627900870682 
0 
0 
0 
0 
-0.01128837859567584 
-0.009535998615145027 
-0.004889061493738056 
-0.03210959041744335 
0.4433484815444981 
-0.04171419914283893 
-0.4050036510907621 
0 
0 
-6.217744108613216e-05 
0 
0 
-0.05515204156397462 
0 
0 
-0.01128724657024466 
0.490264524857618 
0 
0 
0 
0 
0 
0.005180974349202895 
0 
0 
0.08979280921742311 
0 
0 
0 
0 
0 
-0.05479671794436984 
