solver_type L2R_L2LOSS_SVC_DUAL
nr_class 2
label 0 1
nr_feature 5000
bias -1
w
-0.4608270196152852 
-0.4243206615531528 
-0.6954363299839362 
-0.4500137264551405 
-0.387498892600556 
-0.7973074518285881 
-0.3150107281894681 
0 
-0.2743041896198182 
-0.2757135226514192 
-0.1268687683048425 
-0.1122143789788561 
-0.3194416326618978 
-0.3636117382734875 
-0.3227528552123732 
-0.4907677471097698 
-0.4008301923419236 
-1.419368435763976 
0 
-0.1794057569292782 
0.06040072172916056 
-0.2441587383210179 
-0.3791556730349507 
-0.08868370318795835 
-0.2287935568022853 
-0.1866803071784366 
-0.4850873879179228 
-0.3385516522960227 
-0.01225458586654446 
-0.1430039492440394 
-0.03409684343039054 
-0.1999674503162901 
0.2907419124473962 
-0.6277833354284714 
-0.6344883033063565 
0.009925353704658666 
-0.5745512867885041 
-0.002439193179660866 
-0.3017571670229657 
-0.3280263121984462 
0 
-0.3113183907293614 
-0.1807106970491038 
-0.1629192292566659 
-0.3555477229206135 
-0.1126900074015097 
-0.07048259824370778 
0.04535477138921634 
-0.00421920341688374 
-0.04092026626328954 
-0.1803374852391449 
0.05566050285078151 
-0.2594192165632458 
-0.1885462071175006 
-0.1129254262677915 
-0.03784129046149424 
-0.177416148344211 
-0.02450935559582097 
-0.09928364771151403 
0.008050558891763249 
0 
-0.2491764706612517 
-0.2588651867753043 
-0.04488230757555935 
-0.1707934952448912 
-0.3596125458213378 
-0.4098930847621158 
-0.005204143703734215 
-0.1985665358898154 
-0.1887953818644437 
0.4927106334964095 
-0.2839651654806584 
-0.4175385336747902 
-0.130202931827888 
-0.2599582422928329 
-0.1569789480109179 
-0.4562109813406108 
-0.2204940073715875 
-0.03669961965901046 
-0.1442650452681839 
-0.4067494642586494 
-0.09742741197087156 
-0.2371227039868792 
0.05574251090837249 
-0.2398826792310166 
-0.1737712296983933 
-0.2325673355317378 
-0.2467626671389028 
-0.5987767691848895 
0.1343100134596687 
-1.626303258728257e-19 
-0.6030707117627276 
-0.07146397640127998 
-0.1978358824147397 
0.02540150809773458 
-0.100480383026357 
0.05445546744119115 
-0.2046238229815437 
-0.1399203225147819 
-0.3305697431355688 
-0.09133048130897573 
-0.2656218168783464 
-0.2668636798004166 
-0.07942178965193872 
-0.1314455790262998 
-0.07087715233723837 
0.09792040812528174 
-0.04246816196503674 
-0.0678869423772254 
-0.06450587420949996 
-0.2784993274446568 
-0.2185767549436685 
-0.1168053875028925 
-0.2163478502660179 
-0.2286136642846562 
0.03234649698055427 
-0.03906149024855169 
-0.1465293820836795 
-0.08532188051986164 
-0.4769329956958157 
-0.3885862390079643 
0.1034051594601246 
-0.2509526406415507 
-0.2312881188209687 
-0.1488639509373574 
0.04828773883906572 
-0.07904588968572182 
-0.09280592051590141 
-0.03972265517304967 
-0.1151074561258624 
-0.07487674636475256 
-0.02557224868625041 
-0.1606180011769887 
-0.09121810457930239 
0.2297400127766918 
-0.2055013021025416 
-0.3002775312240732 
0.03220326866802949 
-0.06813776704030607 
-0.1753941059256489 
-0.05855025496338118 
-0.01619955922948412 
-0.01722198231524159 
-0.1159091833455533 
-0.2557239439304518 
-0.2832242990725511 
-0.2099608650221292 
-0.1485480622050813 
-0.08401543215970003 
-0.1401904276458153 
-0.1809902889459395 
-0.06827785794273659 
-0.250753815209403 
0 
-0.04447288628480348 
-0.2979760164915126 
-0.0444404563538629 
-0.05661658249611048 
-0.1829466074266144 
0 
-0.01082608149149149 
-0.08326231918921857 
-0.2201690579466672 
-0.305590507147781 
-0.03955084030127452 
-0.0969432238626982 
-0.2192171271556311 
0 
-0.161590357909528 
-0.2561978228056512 
0.04989653616072402 
-0.2608290923790096 
-0.08463394081124051 
-0.08303860170834444 
-0.01178207860110239 
-0.381777864931297 
0.01495519311958726 
0.1455772774007142 
-0.07423360093829788 
-0.2887901046650073 
-0.0892383051999657 
-0.1053661737450277 
-0.08183889581816099 
-0.1412476569048335 
-0.1839575476758872 
-0.02742007179411689 
-0.1513904450597236 
-0.02281793751806585 
-0.08646696867080336 
-0.1905011469556904 
-0.1792239950544909 
2.032879073410321e-20 
0.01092427658418629 
-0.06950135756650763 
-0.09254748338302726 
0.2456724250144567 
-0.1334083786611241 
-0.121661011625215 
-0.2932213618983355 
-0.0802001398393998 
-0.1334477496241505 
-0.2158394576256502 
-0.004208160894183362 
-0.1473305108786696 
-0.1164874610650168 
-0.3987143895690506 
-0.016452124584904 
-0.2561242629748514 
-0.04611490929837864 
-0.3978707798520827 
-0.1246064391214273 
-0.002089797190628724 
-0.2435675748892949 
-0.2358577545896399 
-0.1105128086996086 
-0.0386859556147124 
-0.2013377419101907 
-0.03421595130995934 
-0.07402862006679217 
-0.2739535940877129 
-0.008647468883498492 
-0.03538482383605036 
0.1776074303941418 
-0.02033078505663646 
0 
-0.01261757561389104 
0.3042561239940629 
-0.1243833236959691 
-0.09476890833817493 
-0.1531388677781111 
-0.0255532317247908 
-0.4026517994108949 
-0.1387807590305371 
-0.005783929233720566 
-0.1677904374698796 
0.01685568346891535 
-0.1299654188875015 
-0.007506914079274357 
0.02034378270147265 
-0.02005897189318996 
-0.114195984360307 
-0.04054410617929924 
-0.1610243967149399 
-0.1575391275703545 
-0.08646959502601477 
-0.1718341626909063 
-0.09736980669056126 
-0.125668074428003 
0.002705437626120577 
0.003007762375249497 
0.01619243932400111 
-0.1365416155470783 
-0.1521195599347423 
-0.709900178651579 
-0.1572283607177791 
-0.009964520331060335 
-0.2047741236101109 
-0.3029208411462163 
-0.08851891785433486 
-0.1047507304876043 
-0.1036194415700677 
-0.1045088045396177 
-0.2089325203657576 
-0.2372226854956382 
-0.08982153242308642 
-0.2538880694930195 
0 
0.1630645185415485 
-0.1022744693460552 
-0.09625864667967107 
-0.2021225279942111 
-0.006170269055116591 
-0.001912290114284138 
0 
-0.0158504891604313 
-0.08436812935432017 
-0.01822843238364355 
0.04310275220186129 
-0.01400118323537635 
-0.08248569079922041 
0.1634477097012799 
0 
-0.006038586736625168 
0.01853786857429375 
-0.0571068415777532 
0.001512453869195832 
-0.03066628597107741 
-0.2212109144261568 
-0.06136104369936855 
-0.1403980322226475 
-0.2598396475935971 
-0.2077843624438317 
0 
-0.10291866048688 
0 
-0.08524001245290808 
-0.08625059934687265 
0 
0 
-0.2989540917944367 
0 
-0.1406793592325216 
-0.009629343194465075 
0.122326010264255 
-0.1087049698033501 
-0.01237030525737227 
-0.04922857838748482 
-0.08973912505348648 
-0.2132688482652065 
0.003597056916165195 
0 
-0.02092972881746697 
0.002937483322645552 
-0.4908734327224636 
-0.08266869481373522 
0.01035994267533813 
-0.172111457410605 
-0.05697782123228681 
0.01946394056823521 
-0.07115991723852982 
-0.007015258990705105 
-0.1169869137165078 
0.003143776520396495 
-0.07600457397474876 
0 
0.001197679459994484 
-0.05709401375487443 
0.2483400731920153 
0 
-0.1791786247512782 
-0.05825786390291188 
-0.4156716793672269 
-0.004658882349945146 
0.01702077961860804 
-0.1328094432875307 
-0.0525132388942994 
-0.03116118258392546 
0.01842211042356708 
-0.1180614064802908 
-0.04102701867686024 
0 
-0.1442918502664456 
0.002482293223438078 
-0.2114804661888134 
-0.001325979309840367 
-0.1536287600132397 
-0.06848423744919473 
-0.2090996902397129 
-0.1155174922785208 
-0.06952659715254603 
-0.1168016515811642 
-0.003749339963597352 
-0.05499137876111591 
-0.07686769132715357 
-0.2648962619098602 
-0.1269741696081947 
-0.06668532870895301 
-0.1214228289729246 
-0.02911622561011185 
-0.01049777729922041 
-0.1362894488638343 
-0.04405457775748418 
-0.1534966398855302 
0 
-0.0008577118304073863 
-0.3056924901204395 
-0.01338441704492794 
-0.0248129635654897 
-0.08116929111864142 
-0.1325961822248243 
-0.1576258644649738 
-0.05306817548806606 
-0.09020019205747239 
-0.06032973341968154 
-0.05177403995422317 
-0.04976150330677046 
-0.1443937082900308 
0.002519219709174366 
-0.07706739606131435 
-0.018445695089258 
-0.1185757208402438 
-0.04874340409182808 
-0.1597161869551368 
-0.15429568464024 
-0.04825875901593497 
-0.08543598721150218 
0.2041688684097167 
0.01390358071010028 
-0.08647274088310533 
-0.1118168939216115 
-0.1472626369690797 
0 
-0.009285538483493056 
0.1650124245492308 
-0.1239982272723579 
-0.1632710177632326 
-0.04332990160571242 
-0.04704799889278104 
-0.08086767524007317 
-0.02162642523474144 
-0.3465767003541558 
-0.0003082576911839961 
-0.04582136763015433 
-0.01188881864146838 
-0.08814707846187185 
-0.5713633786663513 
-0.04174847830219607 
-0.3011651007869993 
-0.1240375297564906 
-0.07129067401489071 
-0.007048500240345476 
-0.3563759102068861 
0.1455115319087502 
-0.1346523388332314 
-0.09385816622598155 
-0.08021815473530565 
-0.01953665173761255 
-0.1460129145022037 
-0.06580644542209421 
-0.2904281180964944 
-0.09572024662164201 
-0.8544059444743128 
0 
0.01270050580414693 
0.02909712918166269 
-0.1119668181428747 
-0.09948566818598367 
-0.02469392967049738 
-0.1654645437609272 
-0.05805800193083107 
0.01060832574434627 
-0.2122724728070287 
0.06500115425649421 
0.04330668156519427 
-0.01839512990179802 
0.08054490316597451 
-0.2099653257214441 
-0.001854406387148013 
-0.06648545160840674 
0.01102539417985004 
-0.1510330608471981 
0 
-0.05528301241547927 
-0.1556168683075786 
-0.07586883078473175 
-0.5909887029253517 
-0.1365480432356632 
-0.1316407918977306 
0.01500467597836403 
-0.0001889197392468044 
-0.1795087068181285 
0 
0 
-0.1118565530876319 
-0.2383991313349704 
-0.02870063940874269 
-0.00981965698682725 
-0.009521832567838435 
-0.02033895472580415 
-0.02939648551351644 
0.03792492940711851 
-0.006098496807919455 
-0.03302660254600155 
-0.158809337131199 
0.06629536483678919 
-0.04043023528170892 
-0.06396836343374927 
-0.1418790308662161 
-0.5215101419367795 
-0.02442454924299383 
-0.08317311361059702 
0 
-0.01722967898331267 
-0.0130013695621994 
-0.04301615989606718 
2.574095600395416e-05 
-0.2099144147123624 
-0.02447945230480961 
-0.03144561101654075 
-0.0539679044942946 
0 
-0.2188295352664997 
2.95405574482312e-05 
-0.10115886275896 
-0.06824941588116304 
-0.05166169357714358 
-0.07438979876022794 
-0.05412653036913139 
0 
0.05216623939123844 
-0.03734699023923745 
0.2446372476313652 
-0.01728229858980709 
-0.02160007822179175 
-0.001762214139380473 
-0.07200129840092308 
-0.01703965312264033 
-0.07267243198155485 
-0.1586986078525638 
0.04000747242246579 
0.03872466315821004 
0 
-0.1534238348456812 
-0.06085987705090221 
-0.004684561666543377 
-0.04648416078483832 
-0.1011639420491981 
-0.005105096494360374 
-0.04967902405900253 
-0.007144294243613558 
0.01207877026005697 
-0.0001477333450317583 
-0.02270341321739566 
-0.002559659155509798 
-0.01554744239573589 
-0.09438241445209627 
-0.04719229877584979 
-0.0127921055216891 
0.1011572123949553 
-0.01833806377817354 
-0.1793625261847245 
-0.007718688298470591 
-0.07516462936607136 
0 
-0.139389142076157 
-0.04929898989849913 
-0.04881089122029855 
-0.04908985056115445 
-0.04622558081370437 
0.007764753646614428 
-0.01395761438523417 
-0.05522569249611528 
0.05715832513269866 
-0.1517865592210743 
-0.02935002867847316 
0 
-0.06990318364953205 
-0.02692697700716986 
0.01924325451151627 
-0.03076114529352871 
-0.1732993601872381 
-0.0251053511762596 
-0.04421598741468932 
-0.001185095339166812 
-0.05014763990457642 
-0.04744816128410824 
-0.01295808478979531 
0 
-0.9705493193508848 
-0.05517796115095782 
-0.1391130687252326 
-0.1239994129699976 
0.05705227211520535 
0 
-0.1203270433638462 
-0.0257888676539816 
0.05791891102661197 
-0.01457727856711971 
-0.006807354593942487 
0.8012518156745549 
0 
0 
-0.01119101128904145 
-0.0008731476035693285 
-0.1517830690491677 
-0.05587312106596544 
-0.1417882497691269 
-0.1001888149507299 
-0.05908205326965452 
-0.03413926778176492 
-0.04963020180539029 
0 
0.06627874331697443 
-0.08425481659225238 
0 
-0.03692447016022547 
-0.004980630071129635 
0 
-0.02491783783918905 
0 
0.08581410362001972 
-0.02394397117564652 
-0.05796372012490637 
-0.01575201225240586 
0 
-0.0848771475519856 
-0.04671448177748446 
-0.2609810565013583 
-0.1166145551548612 
-0.02862680254422652 
-0.1367783427896107 
0.03291627147310754 
-0.03085242239675287 
-0.2393673895544527 
-0.004436338778796261 
-0.1211097432926566 
-0.1527569110085756 
-0.1031585928320004 
-0.6335570329906804 
-0.00139830235571843 
-0.09044479622854128 
-0.0754362040007846 
-0.1868283977903994 
-0.04339336844033557 
0.03010839321989662 
-0.01475603464794937 
-0.006692013764500418 
-0.06525148487070702 
-0.14009971148064 
0.001937419303982999 
0.02060429503593545 
-0.002930805991347866 
-0.05773923793706 
-0.03291037005079892 
-0.01465121688662769 
-0.08303567528827739 
-0.03126202372183212 
-0.04985446224604874 
0.03022526554214442 
-0.02283773709449824 
-0.01844549110692899 
0 
-0.04155257628154296 
-0.05910618280490777 
-0.01111691573341225 
-0.02311034734321112 
-0.01715534484453285 
-0.0167036671541312 
0.04270548634465329 
-0.1247906879241067 
-0.01615459935709898 
-0.06297245206041392 
-0.1285775098435209 
0 
-0.001250027102394436 
-0.07581546526878716 
-0.0116462508487266 
-0.3457819152006723 
0.03118916296332993 
-0.1687233054705012 
0.09256457137691276 
-0.2086949648883667 
0 
-0.07067730489272446 
-0.006253937953086668 
0.04649844242707872 
0 
-0.01553871847370537 
0.2252981035139798 
-0.0003144088633425424 
-0.2718569067047412 
-0.09167204337168622 
-0.03002978966763754 
0.01274231143622073 
4.065758146820642e-19 
-0.2140568475861935 
-0.01579737134283825 
0.009719093908145616 
-0.07532064993828792 
-0.05470064396860044 
0.07029064111139338 
-0.0100873763266288 
-0.06379538125148569 
-0.05752922640373196 
-0.01809912949859117 
-0.04364598302359781 
-0.04073158258207116 
0 
0.04394394423347989 
-0.00958458967674897 
0 
-0.04888030709356043 
0.1514971064801337 
-0.02478590593276236 
-0.3372658998372947 
-0.01372698789880106 
-0.03408231220486258 
-0.08122932922091122 
-0.02245562889060989 
0.02150332165148973 
0.01696368711150897 
-0.04044174508073522 
0.01037420302072158 
0.05735243832741244 
-0.06547548776825261 
-0.03611913787459554 
-0.09953523147166989 
-0.01660203493685417 
-0.2164893326794721 
0 
-0.07715214523191949 
0 
-0.1926546957446918 
0.1122579565848065 
-0.03909229152498449 
-0.0741620833452958 
-0.009806975006652025 
-0.09801317506635583 
-0.01370096262231538 
-0.003841080737774401 
0 
0 
-0.04389912930275851 
-0.0783690353781316 
0 
-0.1037935379927963 
-0.001239128700776561 
-0.06616016144365963 
-0.004295210931699083 
-0.03809422605365808 
-0.0138049683519025 
0.0833309520595891 
-0.007486733007655943 
0.1223083613853203 
-0.09837794626888102 
-0.2484723251558203 
0 
-0.1321645694301735 
-0.07649213434047679 
-0.1923886900273777 
-0.02502913451195949 
-0.008507022481199646 
0.1406662142569071 
-0.1338437081073081 
-0.002103897511025008 
-0.02029184707719916 
0.01319940042976967 
-0.04073195637098942 
-0.04211942523985151 
0 
-0.1042028341208087 
-0.2081053993317701 
-0.1008309090944253 
0.0124281355101846 
-0.01709963734984092 
-0.01459596203193269 
-0.1319959138738022 
0.3116455164287022 
-0.03158938629824198 
0.02195920110250141 
-0.07079477854248734 
0 
-0.002092339758777883 
0.05250815174087733 
-0.01450964767950091 
0 
0 
-0.2724279839333412 
-0.03271306059310476 
-0.1438757434864696 
0 
-0.06914524710250468 
-0.1215594761188356 
-0.06132429868270325 
-0.003589016946242073 
-0.04115001479142386 
-0.1698985760621609 
-0.07064010692946865 
-0.005407795444268333 
0.005827648271246557 
-0.02830126764147196 
-0.009371901843808086 
-0.1882585400493321 
-0.2313479843380582 
-0.1124101778390279 
-0.01477454169087876 
0.01272189666314197 
0.01008878904902873 
0 
0.01248785735884775 
0 
-0.002861062900798584 
-0.05606077616754772 
-0.2868980105028675 
-0.1681498421407218 
-0.2303756590978562 
-0.05967435097895197 
-0.02207514024015622 
-0.02372327397327612 
-1.07149667827669e-19 
0 
0.1122556870628591 
0.02108444512559387 
-0.03961935393846226 
-0.02415514097558849 
1.115731530815397 
-0.03356862989774592 
-0.1484910025650597 
0 
-0.001752112373180653 
0 
-0.01044779009482126 
0 
0.02145428940640799 
0.009026290721429284 
0.06940101847544458 
-0.02924755710322776 
-0.09631102012153409 
0 
-0.04844959069120454 
-0.06203093581539441 
-0.0464058119454749 
-0.09544162396922537 
0 
-0.450026701420593 
-0.02610753063570574 
-0.0002173145574858681 
-0.03331047959926377 
-0.002814780939439128 
-0.08288923271906121 
-0.004121129030137892 
-0.2627175358959717 
0.6392811569230572 
-0.0343587942463398 
0 
0 
-0.06093980095947731 
0.0763719198714366 
-0.05072125776374972 
-0.008587823754924215 
-0.001641499869040977 
-0.02619994177787702 
-0.0126958963931647 
-0.06884662218049971 
-0.3368006821931037 
-0.07339581977390364 
-0.03566196488595454 
0.01133315584638812 
-0.05564842809784752 
-0.0003826814168035373 
-0.0268946755746429 
-0.02005929422150276 
-0.4059099055547283 
-0.09740553278369377 
0.01603145145914554 
0.009857240173505694 
-0.01961037996132245 
-0.6369361439883149 
-0.03271325642389433 
0 
-0.03113914749376615 
0.02062212862429808 
-0.2526873664422016 
-0.02975393024849678 
-0.01682191700804167 
0 
-0.01693762685717494 
-0.0002346631799560755 
-0.006736139037801722 
-0.02907419165570946 
-0.007152008993315888 
-0.006370418699422027 
-0.01501334654514666 
-0.008298631896170578 
-0.1057686280443349 
-0.08513967175771832 
0 
-0.01844376196574642 
-0.1509360622495068 
-0.06705898214556942 
-0.01777694972947836 
0 
-0.04527187312474078 
0.4542092484415263 
0.04992828474922783 
-0.002516196573405312 
-0.04654593722109698 
-0.2335981798497969 
-0.1172086589415291 
-0.01357015332977728 
0 
0 
-0.02056331436320693 
0.03328926034223383 
-0.0289855308507746 
-0.1072882677274213 
-0.2843709285982197 
-0.1148239129308187 
-0.02116347111863687 
-0.00281859939171876 
0 
-0.0254215845549332 
-0.1965680766756419 
-0.006687803750170521 
-0.2730254929782597 
-0.07260909194578127 
0.1726697637831503 
-0.002640435262928738 
-0.5960786784594749 
-0.02083674330886505 
-0.00138591501379893 
-0.01492878983186293 
-0.2529931873697322 
-0.07436807775527268 
0.02173880819286415 
-0.2548696525542156 
-0.04636525392560582 
-0.01605746628376808 
-0.3029236680225818 
0 
-0.005775951222358465 
-0.1139153493084065 
-0.04068424098542852 
0.2935327472834225 
-0.1587345056964908 
-0.003677270983865008 
-0.1514400714776172 
0.02608873127757369 
-0.01315101847457976 
-0.03907850750588875 
-0.003236682141372789 
-0.0444316090492069 
-0.0569360567908992 
0 
-0.02312407985627465 
-0.0498050184786671 
0.08126498278252124 
-0.009328219498853043 
0 
0 
-0.05791635156784381 
-0.03982000832481866 
0.01451040948610841 
-0.0691535236069889 
-0.5823643232818119 
0.1318538303529005 
-0.008689149608131205 
-0.01714141306384533 
0 
-0.05847731636367254 
-0.001588013888251021 
-0.0091879081738144 
-0.02754776335598606 
0.07727375071992731 
-0.04597076290872462 
-0.08998372384180969 
-0.01004980832185657 
-0.4473156744550613 
0 
6.776263578034403e-21 
-0.2465703117602643 
-0.0144249375500001 
-0.05894279686933696 
-0.04232714582518715 
-0.05831487813249092 
0.1284756431738928 
-0.102108556655372 
-0.002336530324466266 
-0.1293434704919877 
0 
-0.02064779886047179 
0 
-0.0008021725342114677 
0.01331853223986418 
-0.005741339489778701 
-0.007552096404152045 
0 
0.04551507950923179 
0 
-0.1144161038292443 
-0.02197411241622441 
-0.0782200579333181 
-0.08769077291882912 
-0.03531684911286358 
-0.004591118595054839 
0 
0 
-0.07142501398500543 
-0.02358021312902945 
-0.004449148626441482 
0 
-0.193102464591794 
0.00266645320459725 
-0.001102628713411557 
-0.07949849746512182 
-0.00135339176964791 
-0.03613673304028991 
-0.02843534136180032 
0.3209508372941471 
-0.2323907420141616 
0.01616733421409585 
-0.005101599894457869 
-0.009008916372941461 
-0.04384751067955678 
-0.03731148396667143 
-0.08572331146254127 
-0.04391621620014758 
-0.01746333561943306 
-0.002394996007940241 
-0.003316158090917935 
-0.04863616700001346 
-0.000171645436990825 
-0.1943169503089238 
-0.009897807236635889 
0 
-0.08638836805196273 
-0.04142608179655762 
0.2428324517386809 
-0.02699565606616759 
0.05101450375006932 
-0.02724911366690933 
-0.1990469424176425 
-0.005589503384416473 
-0.09419063399572344 
0 
-0.05980996852832832 
-0.1228754672541081 
0.1353414421738952 
-0.009660862247976887 
0.02581703683561927 
0 
-0.004640341070193768 
0.07886424410856982 
0 
-0.004576137800058833 
-0.00824570465650588 
-0.0024758038012538 
-0.01106863650101722 
0 
-0.09648904176524614 
-0.231609181446656 
-0.01665473868211197 
-0.03660315987969997 
0 
-0.01781470280580989 
0.1226236897711028 
-0.09882716292535587 
-0.04736346292336615 
-0.05279633690358013 
-0.001749576702402454 
-0.02903597403078877 
-0.0048768987840118 
-0.01598563435515358 
0.0288177399423502 
-0.0188550478600051 
-0.002559154166958022 
0.01434233641868183 
-0.0270668835263685 
0 
0 
-0.03036743809985046 
0.02429962016760542 
-1.084202172485504e-19 
0 
0 
-0.02101619242637207 
-0.00895321441283072 
-0.02026787831982789 
-0.02687441077850791 
-0.1416044821644886 
-0.003796555401861155 
-0.02939766766519741 
0.01988043569872185 
-0.2865727391309193 
-0.1517407644639582 
0.009366333485426337 
-0.4511947716421494 
-0.1946504779050806 
0.1298185304004078 
-0.03666189918044562 
-0.03352016870986668 
-0.1836959761795469 
0.112273044636835 
0 
0.009511854099562057 
-0.05978943779498167 
0.02169978268331826 
-0.004541546009722354 
-0.01873228004771711 
0 
-0.02563374673980847 
-0.0554068238836877 
-0.2430831118907044 
-0.01554660161301812 
-0.1551139121514461 
-0.0009923642877604419 
-0.02486624772526346 
-0.05359952509271259 
-0.001109693062694041 
-0.05157612738898439 
-0.02910004764716745 
-0.1019598239772745 
-0.02952218538201794 
0 
-0.00702737531607306 
-0.03367483416116854 
0 
0 
0 
0.00789161063403877 
0.03321743978295374 
0 
-0.1911782735079354 
0 
0.1981925516282973 
-0.0736194919190567 
-2.710505431213761e-20 
0 
-0.004124434406794351 
-0.09138443962570039 
0 
-0.03244837447820643 
-0.02071198505680267 
-0.01256193610792699 
0 
-0.04720984632996172 
-0.03153312475274438 
-0.3062400908407258 
-0.003058978442877771 
-0.03199335184344503 
-0.04908691690279648 
-0.03580805096387817 
-0.07496511729609673 
-0.002140582948060766 
-0.1303910438604773 
0 
-0.002498994054308076 
-0.002114319145092932 
-0.07420494560033586 
0 
-0.004979314442214442 
-0.4114359492451681 
-0.1848223999028561 
0 
-0.000891826394451399 
-0.1428766203663117 
0.03711205570949046 
-0.03865864649872842 
0 
-0.00534297120219086 
0 
9.486769009248164e-20 
-0.01142200577818059 
-0.01492914886440922 
-0.05089939542957264 
-0.05808217788771212 
0 
0.02841282632146564 
-0.01916870305122915 
-0.002322688079195373 
-0.06153953677695997 
-0.06735786920111224 
0.09434551064644864 
-0.07200089336305179 
-0.07933292727771883 
0 
-0.4703714791374271 
-1.24683249835833e-18 
-0.01318962413036773 
0 
-0.2123200015693019 
-0.1001833205377949 
-0.01138302463216902 
-0.4285066739028199 
0.04394803184622754 
-0.006465212358748744 
-0.1443601706832238 
0 
0.04195236941899863 
-0.06631335637612583 
-0.001451573630462854 
0.01442786701254407 
-0.01191492890685101 
0.07432347951495449 
0 
-0.03152304538770023 
-0.005613944670498635 
-0.03398042706552717 
0 
-0.01250847005650311 
0.03985449355245665 
0 
-0.0011290326176951 
0.1369736232873064 
-0.08670433278370782 
0.3762357138981476 
-0.002583506386642551 
-0.03373783767939699 
-0.1082430043487539 
0 
0 
-0.07440376542954448 
0.05438453805441341 
0.07966473694352505 
-0.2121666836125994 
0.03549772220750463 
-0.006021301862206368 
0.1353867243152261 
-0.07594661715722731 
-0.0008655963663551645 
0 
-0.04846926208537741 
0.006782979805770061 
-0.01747265480391578 
-0.1545414984119513 
0.01309316970788364 
0.03027868913312695 
-0.0009757205405081491 
-0.01809723143733822 
-0.0002736690024449407 
0 
-0.003708881459221144 
-0.02329248698687119 
-0.02213926650399454 
-0.098863880227182 
-0.03164995168527876 
0 
-0.01506414607028654 
-0.01627027790102162 
-0.03382400550762037 
-0.01533492357379321 
0 
-0.006867286596513496 
0.0001594365576092414 
-0.1090742601478551 
-0.2883939877483833 
0 
-0.04858094064971184 
-0.1536046589788654 
-0.02071603142314892 
-0.02756573317884545 
-0.02981028335335332 
-0.02509471968140126 
0 
-0.2591608985560932 
-0.03206224504691525 
-0.2466909997936003 
-0.06277197195944872 
0 
0 
-0.09414329783567341 
-0.06542317118785544 
0.002905965654482464 
-0.03018675350623069 
0.01431109969182485 
1.175317120701897 
-0.009426829636783889 
-0.3325788271153334 
0.0004970755926824176 
-0.02183950891329721 
-0.3736596402205138 
0.03026381550032045 
-0.0091523039442475 
1.592421940838085e-19 
-0.04259652473802915 
0 
0 
-2.602085213965211e-18 
0 
0 
-0.01052005481470065 
0.3171817672904657 
-0.2494422283693056 
8.673617379884035e-19 
-5.88198493308612e-05 
0 
-0.08121039077006227 
-0.02809187337442828 
-0.05962258502808006 
0.02416469977254537 
0 
0 
-0.1202551948147506 
-0.01855705010231339 
-0.05343743345019682 
0 
0 
-7.589415207398531e-19 
-0.007343993919888886 
-0.02364930329021776 
0.0008008449398283833 
-0.1114487091504125 
0 
0.4492855777374306 
0.1301950375857462 
0 
-0.04424761175624745 
-0.07273572598775187 
-0.1598223637062854 
-0.04117561001792808 
-0.07529611161147516 
-0.0929841024624205 
0 
0 
-0.01326460416238681 
-0.01723107901053254 
-0.1842681826160507 
-0.02422257773699703 
-0.06057041700516509 
0 
-0.08073138994137152 
-0.03944933285838596 
0.02018916040299433 
-0.02472159557478226 
-0.08763400847486782 
-0.0007173425799880625 
-0.2573378064958324 
0 
-0.02578297983335579 
-0.04738850798915072 
0 
-0.4695384249358749 
-0.004705494530490122 
0 
0 
0 
-0.0003495887150426985 
-0.07253075587477041 
-0.05552008411122265 
-0.006757025391725754 
0.007499310589724076 
-0.00376871232694841 
0 
0 
0.02840082630794324 
-0.01221005380096257 
0 
0 
0.1851189659393211 
-0.2260783830478066 
-0.3195048292386538 
-0.4331397019843528 
-0.06023135159589851 
-0.009549714797516524 
-0.01878536193896186 
-0.006529356817358716 
0 
-0.06050972977458999 
0 
-0.03910360665021375 
-0.106785208598686 
-0.09559025162106904 
-0.08552208074137023 
-0.03955534601305937 
-0.1427951660390125 
0.01883417323398873 
0 
0 
0 
-0.05396553897497153 
-0.1579781690163972 
-0.3578364434846087 
-0.005020154392986973 
0.002893310637764512 
-0.06851095164569383 
-0.07423910886177049 
-0.09488944326478782 
-0.08142508749472709 
-0.0224681254429973 
-0.006003535479418023 
0 
0.1705527282417085 
-0.05214351734833791 
-0.005094869730856683 
0.1183668988574244 
0.05507765572328044 
-0.08495580836755087 
-0.3334015065070997 
-0.05887029982145101 
-0.0009184944045363383 
-0.009294497753368132 
-0.05467616436575837 
0.5479371934698299 
-0.003194080962262437 
0 
-0.07031021068905971 
-0.003570190390598205 
-5.421010862427522e-20 
-0.1327889557531825 
-0.001677752799662977 
-0.1375749747510355 
-0.01223483192789044 
-0.002295284761762496 
-0.1167454299524478 
-0.01022288622999531 
0 
0 
0 
-0.003812737632068981 
-0.01110600606758385 
-0.005852701808347072 
-0.02188286420624157 
-0.03463095194516691 
-0.02529098470114816 
0 
-0.008968837572696084 
-0.07153583954137926 
-0.01252736131048374 
-0.02669043694261344 
-0.07675645426982761 
0.3574522564772312 
-0.0001923602090930902 
0 
-0.02985830967838625 
-0.08802691380560305 
-0.004781139062928596 
-0.08541106919501967 
-0.01901345475362464 
-0.03343262324700005 
0 
-0.01278113250780225 
-0.01976397542107169 
0.04633312729492734 
0 
0 
0.1108351096808694 
-0.005381623304364336 
-0.06626900934181408 
-0.03130647018856562 
-0.03829224267141679 
0.0936212135455208 
-0.02037075081842792 
0 
-0.005418134432117038 
-0.04715414287067012 
-0.01973388546501291 
-0.004061686407800664 
-0.03339011277359343 
-0.1983587798996604 
-0.03085697061347301 
0 
0 
-0.003247156836412624 
-0.06827014880020439 
0 
-0.00717941503352991 
-0.2056839782584574 
-0.02252351214740772 
0 
-0.01630789880699037 
-0.04925435162274817 
0.01785203120747317 
-0.19904489019157 
-0.001200756352158871 
0 
-0.005467588491387711 
-0.04430484145716895 
-0.005995981429240976 
-0.07148586312090056 
-0.005618048561634593 
0 
0 
-0.01765070331224607 
-0.6875250765656915 
-0.1466104108677457 
0 
-0.03007931269640099 
-0.8992421010156976 
-0.08885326225035842 
-0.2154378511033513 
-0.0470966544430963 
-0.07577385212602246 
-0.123119431808273 
-0.07107243849460938 
0 
-0.007793829445274007 
-0.007662668707559332 
-0.02147700279345479 
0.1233307405918483 
0.02746050049273801 
-0.01908920752247844 
0 
-0.1423133737728416 
-0.1087666413120084 
-0.03073783815064287 
-0.04807416423200231 
-0.0513165280961095 
-0.0368285288673142 
0 
-0.01596720914310499 
0 
-0.00103719269241813 
0 
-0.002103680749172256 
-0.007032529063274058 
-0.0219061410869862 
0 
-0.002066878806498175 
-0.02938042231293361 
0 
-0.04090124501568655 
-0.06010595227911152 
0 
-0.01582289351352202 
0 
0 
-0.01248805743556354 
-0.00409298147493893 
5.421010862427522e-20 
-0.003186326606440633 
0.0153885221529771 
-0.01515145242445519 
-0.1237551749232762 
-0.01483423667569152 
-0.01148924705267217 
-0.05830552390582316 
0 
0 
0.03511598598225037 
-0.08883007292277842 
0.02992155915130369 
0 
-0.008469151355785376 
0 
-0.008500565411037215 
0.01259615854537638 
0 
-0.01539488639442622 
-0.1955343600548656 
0.01719086374229393 
-0.1595084535168357 
-0.07877325732310438 
0.0487538935421356 
-0.006107755398983692 
-0.02228017206481179 
0 
0 
0 
-0.006339140766934616 
0.0005138031579246047 
-0.05749771354502348 
-0.3817499597162828 
0 
-0.02403471507760245 
0.05022327725641135 
0 
-0.05290200239554207 
-0.3916599280415315 
-0.07700164316825329 
-0.009741834429455266 
0 
-0.03960057599427901 
0.2339656677028172 
0 
0 
-0.119501993920591 
0 
0 
-0.01535964040042492 
-0.08424581465712926 
-0.239570081473493 
0.04111393108453254 
-0.01546147832099193 
-0.3266773351718565 
-0.007220633404086698 
0 
0.04934271682180368 
0 
0 
0 
0 
-0.1028922808603322 
-0.03660663027951382 
5.183841637196318e-19 
0 
-0.0009491700719388235 
-0.3621408131931961 
-0.04156447318366868 
-0.00254982896379391 
-0.07118885124374189 
-0.01529734207317592 
0.1449156001944797 
0 
-0.003091784385330264 
-0.04619133268154404 
0 
-0.008096210964506585 
0.1406182296080488 
0 
0.06526623353513086 
-0.003905179958490958 
-0.01533058026599679 
0 
-0.04993531692210795 
-0.01863724146019437 
0 
-0.1287316566885666 
0 
-0.1658758112321253 
-0.1280206975791491 
-0.006595899649396508 
-0.00885264486223602 
-0.2356332817229172 
-0.03086237322305905 
0.1052734821910964 
-0.00842899338647104 
0.01547638799524616 
0.06579309835134922 
0.06746430243279487 
0 
-0.002689241711840079 
0.05297017539161899 
-0.07791785281829003 
-0.01474031321115514 
-0.162396215721505 
-0.07343931889426274 
0.07856412467615088 
-0.07500545649112067 
-2.276824562219559e-18 
-0.2720650571016449 
0 
-0.009084675369280879 
0.3056410282640518 
-0.05797308288484557 
-0.03336374473481117 
-0.007812748491122056 
-0.04752781871518258 
-0.2955885816315012 
-0.112740792041971 
0.004598940971638051 
-0.3150654549135933 
0 
-0.01830748127174936 
-0.002379613601363411 
-0.01537993299475906 
-0.09040216807852545 
-0.005282904662085981 
-0.03783540574162925 
0.06388605926764838 
0 
-0.1091364514739061 
0.1526852184987414 
0 
-0.02317137784854439 
-0.002890367195452243 
0 
-0.1190888633448971 
0.04742908706235056 
-0.1942001205651817 
0.009331410081776199 
-0.0009907788006342166 
-0.08157255079068206 
-0.004981104350270657 
0 
-0.002133411323639517 
-0.02766852645644093 
0 
-0.05824427106858364 
-0.05639096013422039 
0 
-0.008564935527206092 
-1.734723475976807e-18 
-0.1050989768996046 
-0.1261987624869326 
0 
-0.2185432115557077 
-0.02691463848299505 
-0.02374600314426548 
-0.16445152205161 
0 
-0.002630141775780743 
0 
0.03128706480135158 
-0.03384639758765531 
-0.04191364717836101 
-0.06634548232241259 
0 
0 
0 
0 
0.03873970805198417 
0 
-0.04045751462099389 
-0.1001862239479037 
0 
-0.007835023170436108 
0.2426806712878237 
0 
0 
0 
3.396602118489744e-19 
-0.02609845542889744 
0 
-0.03604760166631871 
-0.05117043198730723 
0.04801204610975977 
-0.007628295467920491 
0 
-0.007188572501544954 
-0.01603751650052412 
-0.2379212072048321 
-0.0007681371476470299 
-0.4509584140484084 
0 
-0.05027259686895251 
0 
0 
0.03542415704492379 
0 
-0.0311500273797369 
-0.05842662000606979 
0.03249414438336526 
0 
-0.007434333197708295 
-0.001917892391915501 
0 
-0.004046863043956488 
0 
-0.007960487110810674 
-0.0368860830238886 
0 
8.673617379884035e-19 
0 
-0.002422320676665822 
0 
-0.1940417698118452 
-0.1018530867475774 
0 
0.08273620573600166 
0 
0 
0 
-0.02455827623112306 
-0.01515534071879793 
0 
-0.3721342068250084 
0 
-0.4437834050135068 
-0.02766879329457207 
0 
-0.0008630871009935129 
0 
0 
-0.01853417640332176 
-0.07641636734495748 
0.0497809771686837 
-0.1690564965915363 
0 
0 
-0.1791128847616952 
-0.661476698434328 
-0.004649528030844484 
-0.004452774756353264 
0 
0 
-0.02610800377683799 
0 
-0.07105934443309926 
0.07953863563192606 
-0.01973993012727489 
-0.0365463385830085 
-0.001274207536663954 
-0.2566715136281967 
-0.2055601792958184 
0 
-0.002210772677173199 
0 
0 
0.1644385367140483 
-0.009083475128149559 
-0.05388365159137953 
-0.1220725463070887 
-0.002387882505881303 
0.04531265293102852 
-0.2077834045885638 
0.07623044789641432 
-0.060845028188341 
-0.01147741945023038 
-0.002122883009239607 
-0.002774870433947236 
-0.2146687210510814 
0 
-0.01953049710200968 
0 
-0.04072065053216372 
0 
-0.0007572349049711 
0.00235596946329669 
-0.07523053122356713 
0.1322856615491886 
-0.05425156796753455 
0 
-0.004103087560826031 
-0.09405781295033772 
-0.03689782577366489 
-0.00701017676459634 
0 
-0.0702365884828377 
-0.03887136800751274 
-0.04249129318255518 
0 
0 
-0.05041652620085856 
-0.06304020770828649 
0 
-0.09441152922045111 
-0.03101320967202064 
0.01565102919156502 
0 
-0.05115600106658406 
0 
0 
-0.004352877902596539 
-0.009269397529971312 
-0.007196266942478807 
0 
0.01174387313735397 
-0.003040913833356834 
0 
0.01714787431467299 
-0.002746111483179298 
0 
-0.1628683528740869 
-0.05185374536142013 
-0.1294882720260541 
-0.01129346926023117 
0.06170220308190577 
0 
0 
0.04586492471194329 
-0.07327878172803108 
-0.02672758781885833 
-0.01930102122573157 
0 
0 
-0.07425586782728144 
-0.1997755255902425 
0.00563973097150426 
0 
-0.09998704689704614 
0 
-0.09247962109727401 
-0.05181606779290548 
-0.008901247960577102 
0.02657306165640239 
0 
0.002280833729291014 
0.03035889391088993 
0.02110822907698745 
0 
-0.01528068329027347 
-0.01276727607127621 
-0.00667558143464859 
0 
0 
-0.09179209721474067 
0 
0.4619380322960578 
-0.0009889314659987714 
0.02249410441069227 
0.003893959133973573 
-0.05672132004444157 
0 
-0.2781428356164527 
0.2089056886876652 
0 
0 
0 
0 
-0.006695520411514392 
0 
-0.00402906970469435 
0 
0 
-0.112420409494738 
-0.05159502949309237 
-0.03996783033999637 
-0.02875961018786003 
-0.01657667422728476 
-0.0286148147194277 
0 
-0.5270169027669743 
-0.2638647391471299 
0.01907048012007013 
-0.1060131154879145 
0 
-0.02553449913828952 
-0.03688278757000363 
-0.00274579784704884 
-0.01787462005769146 
0.001714609877425244 
-0.007699865023662942 
0 
0 
0.02894854290948929 
0 
0 
-0.03257367878053601 
0 
-0.003979100017548282 
-0.01145009802655613 
-0.004909837940977878 
-0.03279005155202429 
-0.04011674549294584 
-0.03795812873263366 
0 
0.1533724675820189 
0 
-0.01723977549682259 
-0.06450555934310542 
0 
0.05140310336563068 
-0.002089676707678915 
0 
-0.008606598941775871 
-0.004723294606095395 
0 
0 
0 
0 
-0.1086579094611009 
-0.06145173927146887 
-0.01865721927803092 
0 
-0.001861963849533857 
0 
-0.006352469326564076 
5.819299873084767e-05 
-0.1369323160408732 
-0.07551301663981033 
-0.1329375439456723 
-0.06467050063954244 
-0.01899153136415756 
-0.01942490122870713 
0.01359720202153422 
-0.137047105689313 
-0.1010696514161322 
0 
-0.005256959917148502 
0 
-0.01120610453725474 
0 
0.005987852565605985 
0.003284653765518403 
-0.007001045212238337 
0 
0 
0 
0.3158821773797506 
-0.0138888404357809 
-0.01046864333314406 
-0.03498331457907899 
0 
-0.1407697310198722 
-0.2387217518561663 
0 
-0.08950107437200808 
-0.02905014494541725 
0.03550803892980999 
-0.09149474393762295 
0.05049571236701676 
-0.06921964696895651 
0.004068777396925276 
0 
-0.01382876969324254 
-0.009887319467882481 
-8.673617379884035e-19 
2.168404344971009e-19 
-0.01359912394748125 
-0.001774689485003279 
-0.1250930609699284 
0 
-0.04209008031983119 
-0.06118799818375616 
0 
-0.007232331597398506 
-0.0600960784821578 
-0.351926986507832 
-0.01026155670374046 
0.134987810193513 
-0.03051293402830311 
-0.007270458317556816 
-0.01811604353710039 
-0.01472167217211533 
-0.03312179546746271 
-0.01555729227365713 
-0.05841940737771756 
0.0003878657005027922 
0 
-0.01903009703917375 
0 
-0.08249537993982332 
-0.3013398018575542 
-0.02632963791268387 
0 
-0.0838895198352593 
-0.0633438575179785 
0.05208610950679542 
0 
-0.01823282497830278 
-0.2102513220010884 
-0.1056079225662225 
0.006021825459013346 
0 
0 
0 
0 
0 
-0.01518807956464639 
-0.01053831116357268 
-0.02475044297671109 
-0.007112091961807128 
-0.00357380140818899 
0 
-0.002117933518158956 
-0.00150668257802978 
-0.08465752423629579 
0.03274257940406818 
0.02919722052073422 
-0.05169484194129174 
-0.03498620114531754 
0 
-0.00130953422394768 
-0.004162106987501592 
0 
0 
0 
0.03455588941280053 
-0.1071010797746754 
0.1265556888165068 
-0.07074452857147898 
0 
0 
0 
-0.01349281024205471 
-0.004636334783906147 
0 
0 
-0.1027617862500905 
0 
0 
-0.01094347725454096 
0 
-0.007567112175841658 
0 
0 
-0.1199086967628803 
-0.06929761000005859 
0 
0.01013124560648817 
0.009291177292288188 
-0.01081187125702945 
0 
0.01310585332234026 
0 
0 
0 
0 
-0.01692925284598071 
5.929230630780102e-21 
-0.2016016671334261 
0 
0 
0.01217504087282135 
-0.0398197865822643 
-0.01440010361893192 
-0.02226654772052642 
0.02432457693614629 
0 
0.04397536052102607 
0 
-0.1297232871267473 
0 
0 
-0.1745035765880121 
-0.05428867623088618 
-0.0150289470086292 
-0.283249535190145 
-0.01097527961276118 
0 
0 
0 
0.05171391690371935 
-0.03156309081542379 
-0.0004601389185781156 
-0.01464147238749363 
0 
0.1562344354691418 
-0.000716912909887813 
0.03523853674629431 
-0.09183730355935857 
0 
-0.01124100632399625 
0 
0 
0 
0 
-0.0401239049667006 
0 
-0.1638558729466083 
-0.07976078803096109 
0.03128328496818708 
-0.02695735397092923 
0 
-0.002288271086131657 
-0.02283112845092629 
-0.07337211594494122 
-0.02191279685743767 
0.1466906395896702 
0.01726063547787383 
-0.00131688224767795 
-0.1002771249047182 
0 
-0.04240428016548074 
0.03122901973635687 
-0.01484358999551056 
-0.0310217039358166 
0 
0.05540065079224997 
0 
-0.006646156365134356 
0 
0.05301385263766593 
0 
0 
0 
0.1424528504470064 
0 
0 
0 
0.002521145478172884 
-0.3641479052196585 
-0.005247350776472075 
-0.007965500364174951 
0.009578066514892805 
0 
-0.008416466930176206 
-0.0115543947009911 
-0.004239957909254882 
0 
-0.007483612026817439 
0 
-0.07674572982597995 
-0.03198430598796861 
0 
0.0159467250743464 
0.02479108522734912 
-0.1077061405362277 
-0.02391488249253771 
0 
0.01821421191092471 
-0.1010906358802802 
-0.03401002981992762 
-0.005424995364727026 
0.02023970224860754 
0.1435152113753033 
-0.06126990300562635 
-0.07196654362238597 
-0.004444163287248317 
-0.01510725127337104 
0 
-0.002381100614188634 
-0.04519991072085432 
0.05024320425403313 
-0.01921621904835041 
-0.07107928978200918 
-0.01025463902955532 
0 
-0.1073225376879566 
-3.252606517456513e-19 
-0.03336432416424936 
0.04324494516687391 
0 
-0.002305780531695867 
0 
-0.1076282908826783 
-0.03142805701789619 
-0.228430495823382 
0.02296317750113821 
0 
-0.007642457281707492 
-0.004041569761368169 
0.01594658177451743 
-0.03170460848205815 
0 
0 
-0.1632935399304761 
0.1103665613989274 
0 
0 
-0.07781999877744102 
-0.02928303195158538 
0 
-0.07598953912573386 
0 
-0.01549537027619695 
-0.02054772555689012 
0 
0 
0 
-0.06708192806444228 
-0.1583534125664117 
0 
-0.06614858219856841 
-0.0463331620155782 
-0.04310918463329939 
0 
-0.01864344944865111 
-0.005810191548996668 
0 
-0.07066828507428163 
-0.106818311121836 
-0.009361896048047956 
-0.007545173734077659 
-0.3069890930818868 
0 
0.01521534380335559 
0 
-0.02465013597966841 
0.03932009540589627 
0 
-0.03708526016458764 
0 
-0.0183554150076624 
0.1133854448424371 
0.002669268889612525 
0 
0.02389319156928996 
0.04260069505752487 
-0.007122789309856349 
0 
-0.1097533326572576 
-0.003516759768015236 
-0.009715883634552388 
0 
-0.07109665868821717 
0 
-0.06240580859583306 
-0.001883797039684706 
0 
-0.01633144785888612 
-0.06231353884289778 
-0.02206037072109578 
-0.02211070476338865 
0.03931342421846286 
-0.001946827607131008 
0 
-0.08951274900551029 
0 
-0.1982979829075797 
-0.02634051847133669 
-0.07789636394078586 
-0.006233922368266616 
-0.003121561258538135 
-0.002148380416398146 
-0.05578210765614636 
-0.004240621662966839 
0.2940153913074241 
0 
0 
-0.08786210658887021 
0 
0 
0 
-0.008917773742681457 
0 
-0.01186649681975542 
0.001927672579667484 
-0.05595311024176858 
-0.01755224385272909 
-0.002137390015038649 
0 
0 
-0.1095021563358791 
-0.06526593331925941 
-0.05935295626711998 
-0.01127761083218977 
0.01575641925298149 
0.03422293544913458 
-0.01149786506866519 
0.08845547855858094 
-0.06370440608331424 
0 
0.01997310267278208 
-0.3933298697231916 
-0.1303496958855362 
-0.004496696095349999 
0 
-0.01825684328823832 
-0.1137551003486021 
-0.02741552019131522 
-0.09468109783922311 
-0.01886255378903242 
0 
-0.007911329895066429 
-0.3278373067011988 
-0.001852624981107742 
-0.01870589576842532 
-0.1358396298900314 
-0.01048003603870651 
-0.03933671696042416 
0 
-0.1655300415853994 
0 
0 
-0.09821943533336014 
0 
0.03591207683510633 
0.04770044125986585 
0 
-0.0734851403107384 
-0.006923330571354113 
0 
-0.01274379630582346 
0.1412126434900438 
9.486769009248164e-20 
0.03874823983348561 
0 
-0.06415601632501322 
0 
0 
-0.03355707701574043 
0 
0 
-0.02381338526695086 
0.005132262863266085 
-2.710505431213761e-20 
-0.01199581307799935 
-0.02028780209901522 
0 
-0.002247392380986907 
0 
-0.0451640425350828 
0 
0.102252375008966 
-0.01339563986331268 
0 
-0.011096961159159 
0 
-0.1363500767399016 
0 
-0.02729684622590475 
-0.1625249802649142 
0 
0.03944149076916113 
0 
-0.007222403238788608 
0 
0.03094633482537947 
-0.2304185285526879 
0 
0 
-0.1601197634194627 
0 
-0.0521573611938669 
-0.05265390617901695 
-0.107058886278075 
0 
-0.00659923449738559 
-0.3963203518434038 
-0.01183850716017138 
-0.005533869466517396 
0 
0 
0 
0 
0 
-0.004799396588975665 
-0.02308882060601405 
-0.01096281559324129 
0 
0 
0.006846736772173554 
-0.2819823453714368 
0 
-0.02854024148256889 
-0.04084339203015239 
0 
-0.003033631774634061 
0 
0 
0 
-0.1423181104616652 
0 
0.01845617824466352 
-0.01509522595514663 
-0.01991709519449774 
-0.03034388263626589 
0 
-0.02024719930557407 
0 
0 
-0.006624354289957206 
-0.07554275042087445 
0 
0 
0 
-0.005599952358817872 
-0.06659302363574063 
-0.1025584958769646 
-0.08544535627371554 
0 
0 
-0.03199284274280753 
0.06448057189472803 
0 
-0.01686115275098951 
-0.005386043881035816 
-0.06305247690977751 
0 
-0.02455510719465469 
-0.001353347279908033 
0 
0.01488120991282792 
-0.06000607804890806 
0 
0.1410201064165394 
0 
0 
-0.007921615158268197 
0 
0.1716028519912057 
-0.002973021518531808 
-0.0008482899411627207 
0 
-0.1653575854399847 
-0.002619111762711084 
0 
0.01460107668932489 
-0.02078859439370236 
-0.02167602566647941 
0 
-0.01961148153045902 
0 
-0.01044276543739217 
-2.168404344971009e-19 
-0.2442680760752997 
0 
-0.1257577870542975 
0 
0.0002301033040065967 
0.04160937315028208 
-0.03551234239958436 
0.06472225717288484 
-0.03245464728676073 
-0.01197769044835211 
-0.0144611447655909 
-0.2296039881395361 
-0.06284935245910588 
0 
0 
-0.3391661260399854 
0 
0.1224173538167757 
-0.1458838990189467 
-0.02765204643029407 
-0.007749708241469012 
-0.007757154394824595 
-0.006448365995693805 
0 
-0.03449254878933528 
0 
-0.0002723011914590575 
-0.02316172676590106 
0 
-0.05032915587768949 
-0.02717678302654709 
0 
-0.02867531361192059 
0.05231131286972163 
-0.001132114623085871 
-0.03204394768893058 
0 
-0.1651791145923125 
-0.03478473039171 
0.09849267457016801 
-0.03704451642200897 
0 
-0.01531472634589075 
0 
-0.05467278213898396 
-0.06022743118545899 
0 
-0.007092101194679306 
0.09666874583478846 
0.1436301275442546 
5.421010862427522e-20 
0 
0 
0.08353464414173523 
0.01873448282598422 
-0.04245871371468365 
-0.01801371215924001 
-0.009666396640925929 
0 
-0.07556458157894888 
0.0246161110067509 
-0.005945827271549286 
0 
0 
-0.01642759515879027 
-0.03473493990692678 
0 
-0.1002906705615415 
0.15287294725921 
-0.04173336698115554 
-0.02012136843994906 
-0.007537717550476606 
0.3733177894915816 
0.02896982482163135 
0 
0 
0 
0 
0 
-0.06730818946220277 
-0.1289072373305399 
0 
-0.03152463823610824 
0 
0 
0 
0 
-0.04855226829268786 
-0.003844451039993411 
0.01373911491917531 
0 
-0.001304873237229541 
0 
-0.0147792023211572 
0.082894739274601 
0 
-0.001418059738836187 
-0.0009973184211047423 
-4.336808689942018e-19 
-0.0675772820253534 
-0.0001246099655913057 
-0.1317007549387152 
-0.07109046791852533 
-0.0019553393456493 
0.0179551878681151 
-0.0145964976165943 
-0.007912895277473806 
-0.02121219221895413 
-0.002023999210862981 
-0.0110298320055322 
-0.001089922880657742 
-0.151995635578132 
-0.009509336919150783 
0 
-0.1025291574522087 
0.04456152628331288 
-0.007182773618712578 
-0.09310557067361523 
-0.03121468750196435 
-0.01700488836009172 
-0.001255022317870133 
-0.004796187123830504 
-0.01333666374679508 
0 
-0.06108013274754327 
-0.009379576013257805 
-0.03458924164427905 
0 
0 
0 
-0.01089894007668778 
-0.01643198944345216 
0 
-0.002868258403064159 
0.02546106961777311 
-0.0381187449042469 
1.734723475976807e-18 
-0.005293639835113962 
-0.01515449493096133 
0 
0.04833748905751264 
0.02431927845305694 
-0.0005393607875475119 
-0.1887498437783631 
-0.014235671960825 
0 
-0.03534227371466139 
-0.02461961669494694 
-0.06623385277690999 
-0.1052326289752366 
-0.06264457372842454 
0 
0 
-0.2064117163832779 
-0.02330494629340927 
-1.084202172485504e-19 
0 
0 
-0.0802118176832841 
-0.07664437307961564 
0 
-0.02027100417117714 
-0.05988748584894575 
0.03771998984195393 
0.01399688040610051 
-0.1201448692420349 
0 
-0.03224092603002898 
-0.004931017611931297 
-0.3134583818498708 
-0.0733021796260115 
0 
0 
-0.075965775160444 
0.005619602894770222 
-0.02300317761129059 
-0.1789032357233134 
-0.01074146351841309 
0 
0.01023046105977654 
0 
-0.00578801037972462 
0 
0 
0.02173625540969462 
0 
0 
-0.03768558374475835 
0.02951088569774743 
-0.00786612352825517 
-0.02324684869513712 
0.03177357616812288 
-0.007008171116749636 
0 
0 
-0.009180371388429335 
0 
5.421010862427522e-20 
0 
-0.016796635825056 
0.01850810824518782 
4.54009659728305e-19 
-0.005924550582097593 
0 
0 
-0.003895947489668814 
-0.02488671716939132 
-0.004091736228021919 
-8.385626177817573e-19 
-0.01992687661332278 
-0.1606788200676656 
-0.04146873151288964 
0.01025172066391919 
0 
0.1120166519634538 
0.006401825286218012 
-0.06744455789520244 
-0.001293335595321344 
0.03426858176374172 
-0.0299772553855561 
-0.08010992495408789 
2.795208725939191e-19 
0 
0.3861475621283343 
-0.002807178384944953 
-0.03831230261590234 
-0.07790152847774497 
-0.02828307397301289 
0 
0 
-0.007000880739408868 
0 
-0.02337897646568412 
-0.08521048987384647 
0 
-0.001569198574897183 
0 
0 
0 
-0.09400131762144272 
0 
-0.002756904098091516 
0 
0 
0 
0 
-0.04501131430330715 
-0.1375495483839343 
-0.00922435548528611 
0.05689649967867508 
0.01179186006919513 
0 
0.0201650082114353 
0 
0 
-0.03400881749409061 
0 
-0.009351295878919629 
0 
-0.01729463829601901 
-0.1046681092659626 
0 
0.02805437634255163 
-0.1119380957093196 
-0.003432683897647138 
0.05419978814599522 
-0.01508869317178225 
0 
0 
-0.01488323887500126 
-0.02325561727425488 
0 
0 
0 
-0.01099293422344682 
-0.1352066671169585 
0 
0 
-0.0190983078961338 
-0.003051007444325475 
0 
0 
-0.001267999663534863 
-0.002096786986227895 
0 
-0.04314389320121068 
0 
0.02180233641569115 
0 
-0.4704253759371014 
0.006850068292593901 
0 
-0.02366384595144915 
0.2129017606872468 
-0.008604058190253873 
0 
0 
-0.06033121940478386 
0 
0 
-0.000342308140948139 
-0.03667957381589098 
0 
0 
0 
0.03511476103552464 
-1.734723475976807e-18 
0 
-0.05665958493838345 
-0.06395667298081503 
-0.01116343700885344 
0 
0.01162501929760719 
0 
-0.3552164463889627 
0 
-0.07793394024358979 
0 
0 
-0.07647463045941447 
-0.0317671787382602 
-0.01021929104691799 
0 
-0.009834870938370516 
-0.1810566547404859 
-0.03450616986774344 
-0.04771513776042125 
0 
-0.03010735096095221 
0 
0 
0.2430794966372018 
-0.1437758115311658 
-0.03301116686375039 
0 
0 
-0.1631571545466082 
0.04412769570227226 
0 
0 
0 
0 
0 
-0.06306439766768576 
0 
0.03662265767967652 
-0.006302004418662027 
-0.02174867322528712 
0 
-0.07459000608293376 
-0.2323736936413852 
0 
0 
-0.08457325213964502 
-0.01429037712139352 
-0.04008921562365218 
0.01594627305472331 
0 
0 
0 
0 
-0.07243131967405407 
-0.04632564776095834 
0.005070277885579757 
-0.002655985484918582 
0 
0 
0 
0 
-0.06125827383149915 
-0.0003919320208765192 
-0.001870173858400302 
0 
0 
-0.01415624495275746 
-0.001638878713545194 
-0.1870579439670904 
-0.006760358840810363 
0.9865630125848746 
-0.02770267206884964 
0.03689851235557786 
-0.02520068203462739 
-0.01569574737415578 
0.0009275011678883002 
0 
-0.1541098559347208 
0 
0.01830121415576411 
-0.2438533064753743 
-0.03015671048133183 
0 
0.01290746867450185 
0.3516468978434495 
0 
0 
-0.05748683149277021 
0 
-0.01019226825067851 
0 
0.01246151722017715 
0 
0 
-0.04574011588794712 
-0.2348510666030645 
0 
-0.001023023355120084 
5.082197683525802e-20 
-0.0251001206933386 
-0.0080659234322301 
-0.006149326562399347 
0 
-0.1192581085592345 
0.008065829695853276 
0 
0 
0 
-0.001314840075655261 
0 
-0.1583863402829359 
-0.07813012284060314 
0 
0 
0 
0.01886801609900532 
-0.04898855557773658 
-0.3053729455941502 
-0.04185142982859869 
0.112975684139678 
-0.02852762920225697 
0 
-0.002468230231273964 
-0.008932914710422277 
0 
-0.004277561538109097 
0 
0 
0.00661319976323126 
-0.007523862413881862 
0 
-0.06397472315567786 
-0.2023010569950633 
0.03564505129768312 
0 
0 
-0.0354290365725789 
-0.06651057229301309 
-0.1396486954423246 
0 
-0.004606651325072597 
-0.004347633425593747 
0 
0 
0 
0 
-0.03450680360408664 
0 
0 
0 
-0.004825628179008453 
0 
-0.02974897187812783 
-0.03466000265958889 
1.590908597866498 
0 
-0.004636278742761451 
-0.06848227771289322 
-0.002871704369155053 
0 
-0.04672544359794194 
0 
-0.04617739154535085 
0 
0 
0.3587432844330788 
-0.03350804673803218 
0 
-0.09858663257351762 
0 
-4.336808689942018e-19 
-0.003992848623808614 
0.001047793338094832 
-0.01668078405774968 
0.02068800130774172 
-0.004844952405547618 
0 
-0.07835145280109548 
-0.0127091884727579 
0.09706127282841627 
5.21772295508649e-19 
0 
-0.00858340657570744 
-0.03665385160064549 
0 
0 
-0.006389629823823148 
0 
-0.0616895592777761 
-0.03511719208308825 
-0.00584156572478747 
0 
0 
-5.421010862427522e-20 
-0.0217439273490381 
-0.006731499232916068 
-0.01387825024066805 
0 
-0.3102097394238124 
-0.006106361503522117 
-0.00740448646594274 
-0.0003716041756909386 
-0.06874084989585308 
-0.0001394084319677208 
0 
-0.1217635687896902 
0.2245948200232466 
0 
-0.008998950153504357 
-0.05683348431677502 
0 
0 
-0.004030068193057325 
0 
0 
-1.626303258728257e-19 
-0.03460289087475769 
-0.03113570329283044 
-0.00481152301897116 
0 
0 
-0.009387885261621463 
0 
-0.02526576055640455 
0 
-0.0002840991302169674 
-0.01363456666833141 
0 
-0.0002839410548411695 
0.02026703662172316 
-0.01387658017156236 
-0.2750158720330155 
0 
-0.004116614234060019 
-0.004387633481942594 
-0.2358114227565042 
-0.05990127644066614 
-0.001776137555635627 
-0.06834066965861013 
0.07619314860648346 
0 
0 
0 
-0.4647400258645518 
0 
0 
-0.1147541631403281 
0 
-0.03167336723573248 
0.0235472442975261 
0.1260242363343748 
0 
0 
0 
-0.01645817407288356 
-0.0133667827183438 
-0.0184429751570688 
-0.05899547736582585 
0.08954819728105799 
-0.004095631841071016 
0 
0 
0 
0.05359426752175816 
0 
0 
0.02245780884737031 
-0.03963766450512877 
-0.001854378050989679 
0 
-0.005553310938295582 
-0.0003519169150020876 
-0.03785738606913083 
0 
0.05306404891999938 
-0.04621002142105969 
-0.006605035235610483 
-0.007527496925100889 
-0.006329808066466424 
0.1439772508642039 
0 
-0.003450848822715891 
-0.03037333753368793 
-0.01263534449821361 
0 
0 
0 
-0.1554138227466242 
0.03969661980591625 
-0.1049303086129811 
-0.00424085261257951 
0 
1.734723475976807e-18 
-0.00942054389937892 
-0.03248428692939143 
0 
0.101142408921315 
0 
0 
-0.009195588417276666 
0.00522623956249781 
-0.008513358343534819 
-0.07357292440630585 
-0.008826325481666588 
-0.04492879664294137 
-0.02179551129959894 
-0.003816476539471597 
0 
0 
0.2559754096758692 
0 
-0.04483932818651852 
0 
0 
0 
-0.06730176935933349 
0 
0 
0 
-0.1843703402838872 
-0.007895900600158457 
0 
0 
0 
0 
0 
0 
-0.2434361159285441 
0 
0 
-0.1736742442059627 
0 
-0.04114904823632614 
0.3661560492119931 
0.00785995655758096 
0.007797599602560224 
0 
-0.04127434999472623 
0.1298592028549437 
-0.006343088181838459 
-0.02797381674298656 
0 
0.04140999261010233 
-0.04974366911468793 
0 
0 
-1.931235119739805e-19 
-0.02091955182719604 
-0.1353165686095622 
0 
0 
0.05652390926229117 
0 
-0.01753405040243158 
-0.2752806948932786 
-0.01515642612318965 
0.09400740458954691 
0 
0 
-0.05125294281855096 
0 
0 
0.007827116435265537 
0 
0 
-0.001143762797374056 
-0.005971890332922157 
-0.01801562654994403 
0.3590572983841313 
-0.007085613660596715 
-0.01190404385288818 
0 
-0.0108016308043367 
-0.0222544063815671 
0 
-0.00913320948790057 
-0.00393841353813217 
-0.02020292027406094 
-0.09235714066704304 
0 
0 
0 
0 
-0.01522479741459175 
-0.1141433870335125 
0 
-0.01591380093607232 
0 
0.03783394838076356 
0 
0 
0 
0 
0.00198730534675846 
0 
0 
-0.005354374557983954 
0 
-0.04051487316221915 
0 
0.1866471426894784 
-0.01219234685590952 
-0.09733007118025486 
0 
-0.0277879856149738 
0 
0 
-0.01630877025358745 
0 
0.09678861135065576 
0.0115922038270697 
0 
-0.2814502676249368 
-0.01407194040419818 
0.001152991323695248 
0 
0 
-0.03045342854847739 
0 
-0.01964942542885833 
0 
-0.02010082613416725 
-0.09021280919973725 
0 
-0.0106742942113707 
0.02819022221381274 
0 
0 
0 
-0.01630811033646622 
-0.005335719377609247 
0 
0 
-0.04798755848557148 
-0.01114132607318356 
0 
-0.01698784302760213 
0 
-0.01687504389590118 
-0.004210992602337041 
-0.005394080781354273 
-0.02760239992375096 
0 
0 
0 
-0.003381311940291989 
-0.01849887532834019 
-0.01460468497685221 
0 
0 
0 
-0.008738444877232935 
0 
0 
0 
-0.003700278438539067 
0 
-0.02405029036104981 
-0.1067782929092526 
-0.008571566708695466 
-0.006974098818168529 
-0.02705353417603803 
0 
0.03291552557052647 
0 
0 
0 
0.02844580084862728 
0 
0 
-0.006631740287398786 
-0.01505490875840689 
0 
0 
0 
-0.002390009974097698 
-0.01206667423720869 
0 
-0.007620472018218394 
-0.02380026621115832 
0.0009838404368064651 
0 
0 
-0.01170448030870855 
-0.140461613925472 
0 
0 
0 
0 
0.0212780248587392 
-0.006204905268941283 
-0.01595371636138875 
0 
-6.776263578034403e-20 
-0.03407365188167649 
0.2196065735600229 
-0.03814722885287804 
-0.251895684235038 
0 
-0.1228853121218371 
0 
0 
-0.002443861284855805 
0 
-0.03550204321360876 
0 
-0.01570922388258759 
0.1302126785087988 
0 
0 
0 
0.08350875862503587 
-0.238265175193835 
0 
-0.05259518607759086 
0 
0 
-0.003675791755130102 
-0.006374720907642702 
0 
0 
-0.003065512086235489 
-0.01463305952948218 
0 
0.06829283406219976 
0 
-0.09390448080256679 
0 
-0.004069362318983766 
-0.09631252558600088 
0 
-0.04479871317170906 
0 
-0.002451846613810796 
-0.1606439677221892 
0.01095252566515425 
0.02113377301818425 
0 
-0.02943483018494082 
0 
0 
-0.03229692076410466 
-0.01378531462736706 
-0.0218643122304249 
-0.002214606616191179 
0 
-0.003162109352114083 
-0.1236663573317366 
-0.03276633481250048 
-0.005460248584738683 
0 
0 
0.02350207630017049 
-0.006026227837668339 
0.01100768073671951 
0.1479511297848189 
-0.008251841047107416 
-0.0009286184010633325 
-0.001928476711452105 
-0.009208701808914142 
-0.04759946269364811 
0 
0 
4.065758146820642e-20 
-0.04062311114612804 
0 
0 
-0.1235924243161739 
-0.06601749379679614 
0 
0 
0 
-0.009673765809329613 
0.4106763643206288 
0 
0 
0 
-0.0102710732350599 
0 
0 
-0.0492076807966576 
0 
-0.06478477493685256 
0 
0 
0 
-0.01260595784915223 
0 
0 
-0.01657196477879155 
-0.007955007887172006 
-0.02625867808276535 
-0.009528364491639112 
-0.1501622244677978 
0 
-0.00610756084103108 
-0.008460314605067383 
0.04819178051531604 
-0.02731473409603026 
0.4540607858766793 
-0.001767873620431245 
-0.02806430457601684 
0 
-0.01845180931116748 
0.00152142448505381 
0 
-0.00169301218084545 
-0.01251603481988975 
0 
0 
0 
-0.05020780194026379 
0 
0 
0 
0.03308121074503319 
-0.001281449209635982 
0 
-0.01339565111521312 
0 
0 
-0.01466013077815449 
0.08817702923256743 
0 
-0.004128347710550768 
0 
-0.005740255033540206 
0 
-0.03215392280481359 
0 
0 
-0.02879518024799277 
-0.0004735539897556494 
-5.421010862427522e-20 
-0.002499209197832143 
0 
-0.004373443943907304 
0 
-0.1076549290921205 
0 
0 
-0.05780892953325398 
-5.692061405548898e-19 
0.01140665493490397 
-0.03624240969982157 
0 
-0.002455383338442311 
0 
0 
0.03522878880687528 
0.0191955412442056 
0 
0.1044277064735976 
-0.0114557410374157 
0 
-0.04931761179032616 
0 
0 
0 
0 
0 
0 
-0.008290054403914823 
-0.05148665419565247 
0 
-0.1013404873110786 
-0.03773224193549372 
-0.002112584970541459 
-0.01002270814707308 
-0.03583674383988973 
-0.001110838105748642 
0 
0 
0.01527165455447287 
0.02877655639038929 
0 
-0.02264303884623684 
0 
-0.005676923965713167 
0 
0 
-0.01800409691963618 
-0.0148546889394023 
-0.01720267895271463 
0.08221084584025964 
-0.0007636380146028316 
-0.04543101386947739 
-0.1274270571235707 
0 
0 
0 
0 
-0.00821134785035941 
-0.3011779379069087 
0 
-0.1467554239269082 
-0.05968143660743899 
-0.002327803960718341 
-0.03292173385862909 
-0.003972431619665568 
-0.005977124296592648 
-0.1680712589442305 
-0.09956351493003661 
0 
-0.01804540729236956 
0 
-0.02246875548998715 
-0.03965672957328293 
-0.005315262677785084 
0 
0.01606103412464848 
0 
-0.02368068785104445 
-0.3516547356501949 
0 
-0.005909023574242856 
0 
-0.003983163078705262 
-0.007468297081547146 
-0.002884970252196546 
0.01071205469840768 
-0.02411740949811526 
-0.0006394950105509697 
-0.01236327504057831 
-0.09990243265096717 
-0.0004133223349937716 
0 
-0.0005841751939651875 
0.03817113646940927 
-0.01383702901578191 
-0.003909979069454616 
0 
0 
-0.02999066134565364 
0.002225474134843642 
-0.002088980139164202 
0 
-0.01781601652863394 
-0.05683161182950956 
0 
0 
0 
-0.09174919835966033 
0 
-0.0004601389185781156 
-0.1014985387286079 
0 
-0.01255786710952706 
0 
0 
-0.002997884010563505 
-0.1688590538921512 
0.0032929098232977 
0 
0 
-0.2288936093348432 
0 
0 
0 
0 
0 
0 
0 
0 
0 
-0.01282681973162143 
0 
0 
-0.001207604895861213 
0 
0 
0 
-0.01213353856966807 
0 
1.084202172485504e-19 
0.03130224127114181 
-0.01066329637050879 
-0.01807104290081121 
-0.2542154943714358 
0.03146352473077464 
-0.006409605496578923 
0 
-0.01948966721539145 
-0.02860986125813286 
0 
0 
-0.03464458264604361 
-0.01478113649331986 
0 
-0.003215120282090197 
-0.01948914953726286 
0 
-0.0503808649885849 
0 
-0.02120066860370257 
0 
-0.009490688317133617 
-0.02201132293910282 
0 
-0.02765595339399477 
0 
0.08975851103078127 
0 
0 
0.06054011852690028 
0 
0 
0 
0 
0.003967390769727501 
0 
-0.00512483016220523 
-0.01330289295827755 
-0.3111749771661781 
-0.1840441973875929 
0 
-0.02096378958499442 
-0.01115394134387074 
0 
0 
0.04091984571340002 
0.01727339331520761 
0 
0 
0.009288155321054668 
0 
0 
0 
0 
0.05910599461067275 
0 
-0.02280644955828643 
0.0123430758292839 
0 
-0.02088387240556721 
0 
0.07973509429506351 
-0.09374711596570638 
0 
0.04998990160704572 
-0.00351993008356686 
-0.007267398244926343 
-0.0001362697063862397 
0 
-0.01002748613963433 
0.0002159576145672189 
0.01813215702716884 
-0.06261749597829754 
0.2474762160537213 
0.0182267657466505 
-0.01964744727851425 
-0.09043580661313023 
-0.01884566618576615 
0 
0 
-0.003205605437488931 
-0.004433452240669425 
-0.06474262714974068 
0 
0.01433485368812384 
0 
0 
-0.01234155628688911 
0 
-0.1072058229336557 
-1.653408313040394e-18 
0 
-0.008903783291301669 
-0.02032057896068554 
0 
0 
0 
-0.01116212034284041 
0 
-0.001246433045161545 
0.003921055868607237 
-0.01205317339643548 
-0.01040316486764396 
0 
0 
0.008718552144942635 
0 
-0.001534772049085165 
0 
0 
0 
0 
0 
0 
-0.01391182589419089 
-0.01240795505397542 
0 
-0.01085781701211719 
0 
-0.005596345433168513 
-0.004048192349516084 
0 
0.06022934409186419 
-0.05346658351001496 
0 
0 
-0.00695599928156707 
-0.0110171422010076 
0.04616612159507048 
0 
-0.002571482221297813 
0 
0 
0 
0 
5.421010862427522e-20 
-0.03023423527241995 
-0.02710443876353409 
0.01280045752143471 
-0.02498483578810739 
-0.04098409964045624 
0 
0 
0.0159217873161615 
-0.001248589676340451 
0 
0 
-0.0004047754870505876 
4.77048955893622e-18 
-0.007173556348876092 
0 
0 
0 
0 
0.02267199214079987 
-0.00141665072471156 
0 
0 
-0.0009872628660424776 
-0.0545978161012981 
-0.2106608784864464 
-6.776263578034403e-19 
-0.04612793025400849 
0 
-0.00309796706272497 
0 
0 
0.02707827421462429 
0 
0 
-0.02342729234472909 
0 
0 
-0.1714361696613617 
-0.004590627979347195 
0 
-0.00558936002431793 
-0.01083801283325974 
0 
-0.03713192228588912 
-0.01355934691029368 
0 
0 
0.002366578413098732 
0 
0.006435138005481384 
-0.07013266300289002 
0 
0 
0 
0 
0 
0 
-0.03292347521378151 
0.007459829026583362 
-0.01786973644874026 
0 
-0.0260902882640775 
-0.01612063817718635 
0 
-0.2215700219713634 
-0.001794208416897733 
0 
0 
-0.01140677722937663 
-0.008663732187971562 
0 
-0.2606768675952638 
-0.005400800067756339 
-0.01152755779392156 
-0.001063910917042719 
0 
-0.006798752764274047 
0 
-0.01604435355373033 
-0.003637925995605987 
0 
0 
0.01111489694267888 
0.008465611655754351 
-0.08333136346754481 
-0.02853312875117505 
-0.0003738193907186553 
0 
-0.1069789119952294 
-0.05921613692087159 
0 
-0.1529709914993118 
0 
-0.01476455647657967 
0 
0 
-5.149960319306146e-19 
0 
-0.02051066874315221 
0 
-0.001702312284761435 
-0.003252885298559534 
0 
-0.007870556733135007 
-0.1040381919078844 
-0.002898893912279488 
0 
0 
0 
0 
0 
-0.04878922417404346 
0.007492282800588523 
-0.02001958067135529 
0 
7.860465750519907e-19 
0.0149651981329765 
-0.0008927644043212331 
0 
-0.03354413359146658 
-0.01286139435373748 
-0.02611525289217167 
-0.03977976178986135 
-2.320635647396328e-05 
-9.171409545245298e-06 
-0.01698217769526572 
-0.008914471421164765 
-0.02113484466157581 
-0.0003073628441129064 
0 
0 
-0.001354255970929361 
0 
0 
0.006359695091176093 
0 
-0.05184559783366649 
-0.08130238906493666 
-0.02744780377296494 
-0.0105550898585081 
-0.0220680200314705 
-0.1144972641095985 
-0.009822909528115433 
0 
-0.03049906180797963 
-0.002171588883740176 
-0.00405533737313353 
-0.04922842048036967 
0 
0.01601561420834215 
0 
-0.00366924378849647 
0 
0 
-0.01927034393913486 
0 
-2.168404344971009e-19 
-0.003235617845136553 
-0.003091847791089392 
0 
0 
-0.03089311475247053 
0 
0 
-0.002713238767420128 
-0.006930725327972981 
0 
0.02373972655586142 
0 
0 
0.3612406190913599 
0 
0.1041059164038447 
0 
0 
0 
-0.1485074851757605 
-0.003313193370436216 
0 
-0.01492233487396715 
0 
0 
-0.007158550204183155 
0.005688499271732721 
0 
0 
0.008424220943410674 
-0.1982233574962753 
-0.4254121905438977 
0 
0 
-0.0201958210013968 
-0.0105059462075187 
0.04019963451985737 
0 
-0.2142283710040389 
-0.339003254635719 
-0.03402883488022174 
0 
0 
0 
0.02190162548154991 
0 
-1.795709848179117e-19 
-0.008407995994316259 
-2.276201739590654e-05 
0.001807756392390438 
-0.05904934039132143 
0 
0.0917263641885314 
0.0237205193628826 
-0.1519120318137397 
0 
-0.08684025220934202 
0 
-0.00649852365014342 
-0.07345201897487126 
0 
-0.05107041734615051 
0 
-0.002664818296794067 
-0.01272286677775783 
-0.01729378390858254 
-0.0231442335148705 
-0.05906025572138164 
0 
0 
-0.09706027763559508 
0 
-0.004673717932278725 
-0.006945715320953724 
-0.1934013636719007 
0 
0 
0 
0 
-0.01191308957888797 
0 
-0.02839769389590399 
0 
-0.0235883007136742 
-0.6157657001695576 
0 
-5.421010862427522e-20 
0 
0 
0 
0 
-0.03248961627566219 
-0.04839635723080127 
-0.07537550753369703 
-0.01854768864059144 
-0.06138011882791623 
-0.01860979851162471 
0.005520366813209045 
0 
0 
-0.1516600836634649 
-0.00128520332437372 
-0.09565810137096613 
-0.007422740760726862 
0 
0 
0 
-0.03515915172886069 
-0.00167694832880718 
0 
0 
-0.05810958132261835 
0 
-0.02382019148246237 
-0.1877456055245786 
0 
0 
-0.0477955829373158 
-0.0006757031941949196 
0 
0 
-0.001794096019426076 
-3.794707603699266e-19 
0 
0 
-0.06992070520245523 
0.002862476319675452 
-0.0122390274734238 
-0.007428027627359533 
-0.01262663552782441 
0 
-0.001580090619024093 
0 
0 
0 
-0.02872418553385406 
-0.004336703889042745 
-0.04934502974697957 
0.1070363659903496 
-0.00230264025683467 
0 
-0.02997300965653645 
0 
-0.0004697184347533954 
0 
0 
0 
-0.00173587503707169 
-0.1040408622453816 
0 
1.084202172485504e-19 
-0.001499740096556122 
-0.05496526914846232 
-0.01345057815383508 
-0.009197455256709577 
-0.2707130319282851 
-1.897353801849633e-19 
0 
-0.005955629429908537 
0.01262366994014085 
-3.591419696358233e-19 
-0.0007920684569636505 
0 
0.1252555607729142 
-2.168404344971009e-19 
0 
0 
-0.01758589783203209 
-0.04071915470522582 
0 
0 
0 
-0.006788511503692783 
0 
0 
0 
-0.01454843455329436 
0 
-0.0184481488411935 
-0.04275010772035259 
-0.01798357225275032 
0 
-0.00702441409311464 
0 
-0.06711829507748251 
-0.01544390381806962 
0 
-0.02175104940029779 
0 
0 
0 
0 
0 
-0.01257294628514593 
0.01338862041594668 
0 
0 
0 
-0.3810073451971699 
0 
0 
0 
0 
0 
-0.009870646594455419 
-0.06118741114944094 
-0.1050962479671149 
0.1022075574824529 
-0.02313982799636894 
-1.643703827582154e-05 
0 
0 
-0.01418013606122322 
-0.2328106351167602 
-0.006595007308682523 
0 
0 
0 
0 
0.06081813742583832 
0.02496271724160531 
-0.2806375758562211 
0.1366484007840188 
-0.1544778928885587 
-0.02133674209984653 
0.01277600989762699 
0.08492040464244413 
-0.01646935507988354 
-0.001830531898032559 
0 
-0.00929764483335715 
0 
-0.01018937587457491 
-0.01011001915790447 
0 
-0.03191260598558486 
-0.002586158733432828 
0 
-0.01673340320324812 
-0.003425198629759949 
0 
0 
0 
0.02185916493362008 
-0.03294912290191669 
0 
-0.05998768144833915 
0 
0 
0 
0 
-0.01343326070273542 
-0.1386991025662449 
0 
0 
-0.01375654418512527 
-0.04424914459801287 
0 
0.09346109144369337 
-0.01303685901870191 
-0.0052644513531653 
0 
0.1009321392889246 
-0.03411848469631151 
0.04422217709728195 
0 
0 
0 
-0.008422370674756364 
-0.022723812452147 
-0.01553710843489894 
0 
-0.0470381988416425 
0 
-0.002106211478553995 
-0.1302044234575681 
0 
0.0996629536336282 
0 
-0.0407717348903063 
0 
0.3604232385626431 
-0.4264296001027937 
0.03072910756941952 
-0.007079021858476124 
-0.1816727405481535 
-0.1148177557568284 
-0.01262531891972672 
-0.01315389377824889 
-0.03203607062472274 
0 
0 
0 
-2.083701050245579e-19 
-0.105754224722587 
0 
-0.329433375784374 
-0.0009042501046989794 
0 
-0.01411184055419984 
0.0104682576611451 
-0.09278275920710122 
-0.05012978496211418 
0 
0.1142040310166801 
0 
-0.0195189512750293 
0 
0.002389485922151487 
-0.1396840295374748 
-0.03691653828770276 
-0.137410523081026 
0.03859245440395608 
0 
0.03232917144261623 
0 
0 
-0.0003732789313557586 
-0.04418288233997707 
0.00530739873063767 
0.07169409660757833 
-0.01292925968797835 
-0.01223015884378036 
-0.0947504029456802 
-0.002798344831823779 
0 
0.1850184609268685 
-0.04937497907354158 
-0.178652349930019 
0 
0 
-0.1702683476759836 
-0.2537055273500526 
-0.001413185466620433 
0 
0 
-0.005705819427035966 
-0.005601732871937412 
-0.08235976665786267 
1.084202172485504e-18 
-0.1318934751628392 
-0.05878678716136015 
0 
-0.1318934751628392 
0 
-0.01617601422029152 
0.06743650636775254 
0.003598484512376818 
0 
0 
-0.07929293232677924 
0 
-0.02752232599658657 
0 
0 
0 
0 
0 
-0.1715947413132791 
-5.421010862427522e-20 
-0.04795910615405169 
0 
0 
0 
0 
0.01537265750793009 
-0.006978617938091809 
0 
-0.0048957405384388 
-0.02737416593073072 
-0.003709515323278983 
0.007064971541941857 
-0.01322564548436656 
-0.009845456746433952 
0 
-0.06782711817203924 
0 
0.1951886333879474 
-0.1456261243191082 
0 
-0.01092383443895267 
-0.01269710148327496 
0 
0 
0 
-0.01337332289157421 
-0.0915234003787172 
-0.05995205488625127 
0 
0 
0 
-0.06962964864250619 
-4.684489130781568e-05 
0 
-0.2758686332879773 
0 
0 
0 
0 
-0.004946823692688216 
0 
0 
0 
-0.07902285696324129 
-0.1920672719599909 
0 
0 
0 
-5.082197683525802e-20 
-0.03867190878455403 
-0.04431618949205161 
0 
0 
0 
-0.004260473435248419 
0 
-0.07492754963910543 
0 
-0.004963900839281515 
0 
0 
-0.08902141912958085 
-0.004527664544245172 
0 
0 
0 
-0.1254818979089387 
0 
-0.1650425897484467 
-0.0112063997841135 
-0.01175884561304796 
0.008805802417960303 
0 
0 
-0.03252194262461567 
-0.01597838127093577 
0 
0 
0 
-0.02668965055870126 
-0.02005034553652116 
-0.03401400706938731 
0 
0 
0 
0 
0 
-0.01057024433947006 
-0.01807640784993171 
-0.04512266812862236 
0.009286556802507962 
-0.001569512939710507 
-0.03801417377762184 
-0.005434004960180887 
0.003091726970776168 
0 
-0.0009413632283901943 
-0.01114199323326383 
-0.009234042718280835 
-0.002287019286520013 
0 
0 
-0.01913426987838057 
-0.00193431500768477 
0 
0 
0.02671950244274942 
-0.01466405480716607 
0.07312248339498892 
-0.0003599783696038167 
-0.005511202605031371 
0 
-0.0003655249476705906 
-0.006648529798706341 
0 
0 
-0.002004834856520524 
-0.003411082493053553 
0 
0 
0 
0 
0 
0 
-0.1278000580162137 
0 
0 
0 
-0.006726617189551055 
0 
0 
-0.03602677824946093 
0 
-0.002939141119711859 
0 
-0.2198997225017193 
0 
0.01733624819007775 
0 
-0.01061934836872811 
-0.01142195673349283 
-0.02801015778202508 
0.08055623432579284 
-0.006340031656582573 
0 
0 
0 
0.01482696782003152 
0 
-0.01148962036474064 
0 
-0.08925188844722677 
-0.02208671734316717 
0 
0.01818638035515525 
0.06500659154342533 
0 
-0.01806897642986237 
-0.0009482796596919286 
0 
0 
-0.07570914331646886 
0 
0 
0 
0 
0 
0 
-0.002215823616143372 
0 
0.04691642068540033 
-0.4130764043672225 
0 
0 
0 
-0.03153484217684974 
-0.2291583369898206 
0 
0 
0 
0 
-0.003187074524789394 
-0.1203183870240972 
-0.006298069969465308 
0 
0 
-0.01047277525382168 
0 
0 
0 
-0.01553265591545161 
-0.002073569421372234 
0 
0.09735913318456206 
-0.02313872586344812 
0 
-0.01407787321220003 
-0.02512564378692737 
-0.004004231583156258 
-0.05282652714558307 
0.005355157257426567 
-0.0196777108241151 
0 
0 
0 
-0.07573706084965949 
0 
0 
0 
0 
0 
-0.07918433112816173 
0 
0.01264839615576323 
0.2744477060666179 
-0.007301918332924507 
-0.08324307492617256 
0 
-0.02140299618539308 
-0.001950633519432124 
0 
0.008377719412409364 
0 
0 
-0.003583709282468919 
0 
0 
0 
0 
-0.007329644684955611 
-0.001601109636717516 
0 
0 
-0.005035256486688659 
-0.01154804754304771 
0 
-0.01662064810516996 
0 
0 
-9.350961637185834e-05 
0 
-0.0156703612945674 
0 
-0.01984742833213595 
0.01236294951218992 
-0.003532493776956484 
0 
0 
0 
-0.02448200042532248 
0 
0.1766828638307533 
-0.02890305566289238 
-0.007012465627159789 
-0.005695834157195711 
0 
0.01919504338148785 
0.05467843472048704 
0 
-0.003867665029707865 
-0.01622015947521289 
0 
0 
0 
0 
-0.007422419771671274 
0 
0 
0 
0 
0 
-0.007309553914600071 
0 
0 
0.1004197174048343 
-0.05125553240890361 
-0.001954875947204948 
-0.003406276757843828 
0 
0 
0 
-0.05519173806851662 
-0.005939064604755316 
0 
0 
-0.01108977862567643 
-0.01248530086216929 
-0.01809042840068616 
-0.004248770227172367 
-0.03055764051674175 
0 
-0.01759854102394574 
-0.01094678255746986 
0.0225705236913001 
0.01112016016270988 
0.2597177616702047 
0 
-0.1475626715198896 
-0.01071363725139321 
-4.404571325722362e-20 
0 
0 
0 
-0.006912074833826939 
0 
-0.002657857649320978 
0 
0.003251378026062738 
0 
0 
0 
0 
-0.3373087503235686 
0.02696922064820962 
0.3186703657260332 
0 
-5.777997685426525e-05 
0 
0 
0 
0 
0 
0.1302762740125474 
0 
-0.06310867183330078 
0 
0.02158254032068669 
0 
0 
0 
-0.008845665671889586 
0.06991665179601285 
0.005973053744431001 
0 
0 
0 
0 
0 
-0.1170078287387911 
-0.06242054180647774 
0 
-0.1459552837898323 
0 
-0.02682250324485598 
0 
0 
-0.007469094581819074 
2.385848163779722 
0 
-0.01074567911546828 
0 
-0.02349196791201781 
0 
-0.008723169746824539 
0 
0 
0.09350609549709214 
0 
0 
0 
-0.05364900341356528 
-0.01613023370064261 
0 
-0.00867207473057768 
0 
0.05711784228615529 
0 
-0.008860576066241667 
-0.002120333532603616 
-0.02371926089546849 
0 
0 
-0.008963535984286588 
0 
-0.02242571649612881 
0 
-0.00987304858135828 
-0.008096266205180454 
0 
-0.009142170726734244 
0 
0 
-0.002407567654002579 
0 
0 
0.1375177158115863 
0 
0 
-0.000624903943796656 
-0.03651911026131902 
-0.04105286982950387 
-0.03077386003361746 
-0.001329678057365065 
0 
0.05812468985503661 
3.198396408832238e-18 
-0.0001515532011836543 
-0.005708127190574358 
0 
0.03841482231157051 
0 
-0.005354606812849129 
0 
-0.004221383788482037 
0 
-0.006039348937789765 
0 
-0.008792276349371615 
0 
1.524659305057741e-20 
-0.0263986179454884 
0 
0 
-0.2413098986154325 
-0.02855633669317013 
5.421010862427522e-20 
0 
-0.02077476460213549 
-0.02930381845678421 
-0.05674373675323934 
-0.009396414638114551 
0 
-0.01578199064900065 
0 
0 
0 
-0.02708720277631343 
-0.01690060926296725 
0 
-0.0546799561813293 
0 
0 
0 
-0.006613701599864213 
0.0664062638937003 
-0.007227244071091514 
0 
0 
0 
0 
-0.01287211295735304 
0 
0 
0 
0 
-0.02772826937841586 
0 
0 
-0.01285872890294983 
0.04784698356766448 
-4.336808689942018e-19 
-0.02929054883341624 
0 
0 
0 
0 
0 
0 
-0.009857209762568918 
-0.02109019734879031 
-0.01465193254153616 
0 
0 
0 
-0.01963017088422486 
0.02133734162674106 
-0.004611833402477146 
-0.1399293697683756 
6.776263578034403e-20 
-0.009973289482276966 
0 
0 
0 
0.001395088065105127 
0 
0 
-0.00696361318456804 
-0.04697415091320803 
-0.03196636035108444 
0 
0.02886784883667673 
0 
0 
-0.06488931699490372 
-0.001278200561924161 
0 
0.0298311165139976 
0.007349686158278734 
-0.1115956983328692 
-0.01947652155378468 
0 
0 
0 
-0.009304398160466652 
0 
0 
-0.01170587060191038 
0 
-0.002392910529770932 
-0.04853394011939505 
-0.04309062617932787 
0 
0 
-0.0005353235249619043 
0 
0 
0 
0 
0 
-0.01592929295871946 
0 
-0.01312232718315265 
-0.003426139698753946 
-0.001197143713660905 
0 
0.01285808629042178 
-0.0005843682667564066 
0 
-0.007809248361970788 
-0.031857499419666 
0 
0 
0.1494643779908007 
-0.1960622380931692 
-0.01620068261413702 
0.001276080351249144 
0.009780944831521319 
0 
0 
0 
-0.09487369302957829 
-0.02099538253771021 
-0.0005611115207011627 
0 
0 
-0.001884700320442204 
0 
-0.0138756450627448 
0 
0.01718517592618274 
-0.003147038078073182 
-0.007847260883394063 
0 
0.0548759982060552 
0 
0 
0 
0 
-0.004336589490670886 
0 
0 
0 
0 
-0.01492303663480463 
-0.1048914268645657 
-0.1265800316714682 
-0.0124548035214794 
0 
-0.001685882362497985 
0 
0 
-0.003619830919212052 
0 
0 
0 
0 
-0.1893382744751279 
0 
-0.02154163514815454 
-0.1408106140391955 
-0.01012920114539563 
0 
0 
0.02020664106988142 
-0.1009028930193536 
0 
-0.008031683431914547 
0.0008303238811192641 
-0.01339893793874464 
-0.01248985974355977 
-0.1375544410096164 
-0.006865400494083251 
0 
0 
-0.02516402459428055 
-0.006552964115154477 
-0.06745189865277035 
0 
0 
0 
-0.001251247868088364 
-0.002722258053452192 
0 
0 
0 
-0.001591989510364689 
-0.06442116939351443 
-0.002853797293707552 
-0.07122111396409159 
0 
0 
-0.01400922301330817 
0 
-0.02617474228788418 
-0.004342659600472794 
-0.2074826847464389 
-0.0005259115840608285 
-0.1221827741892366 
0.001477483183593144 
0 
0 
0 
0 
0 
-0.02583614909981324 
0 
0 
0 
-0.08012996624571636 
0.08055266547313859 
-0.00943238689493058 
0 
-0.008052954993102813 
-0.0263583238697329 
0.03481025084482554 
0 
0 
0 
0 
0 
0 
0 
0 
0 
0.04327238049400457 
-0.05899963176820302 
0 
0 
0 
0 
0 
0 
-0.02748479911822101 
0 
-0.002648219634604088 
-0.06688036606517395 
0 
-0.009782823784685545 
-0.2904639079918772 
-0.2070907573631605 
-0.005710293176754862 
-0.01439519363737128 
-0.008968691723744515 
0 
0 
8.673617379884035e-19 
0 
-0.03066636255288879 
-0.01008381553356693 
0 
0 
-0.01511392467104961 
-0.03079849137625753 
0.01009677385407986 
-0.4596679060543465 
0 
-0.002849111758264418 
0 
-0.002962492574897952 
-0.1158339534327301 
-0.02226197060296349 
0 
0 
0 
0 
-0.03668997839776512 
-0.0893240408439934 
0 
0 
0.5648896645154563 
-0.01754430287900845 
0 
-0.02305334057677279 
-0.004673557672869357 
0 
0 
0 
0 
0 
-0.003352181580269119 
0 
0 
0 
0 
0 
0 
0 
0 
-0.0875540055149899 
0 
0 
0 
-0.05810274141076162 
-0.03177946387616199 
0 
0 
0 
0 
0 
-0.0003700047465385939 
0.01632844203445195 
-0.01014740092049027 
0 
0 
0 
-0.01115856048380458 
-0.008239140202698092 
0 
-0.0774751357182487 
0.0505521006696678 
0 
0 
0 
-0.05527504249599196 
0 
0 
0 
0.05940073649391335 
0 
0 
0 
-0.429477969676886 
0.05121353670991641 
0.01223054614659215 
0 
0 
0 
-0.1494256015738096 
-0.002799662329030213 
0.361106572187924 
-0.03516353157495667 
-0.004208567643827587 
0 
0 
0 
-0.06493649841754585 
-0.1004170410106486 
0 
0 
-0.01951691349074373 
0 
0.003620909373329462 
0 
0 
0 
-0.001930929341413043 
0 
0 
0 
0.003688123644520968 
0 
-0.0241786985363325 
0 
0 
0 
-0.05198298947487294 
0 
-0.04940835252823592 
9.486769009248164e-20 
0 
0 
0 
0 
-0.006142307529204226 
0 
0.002863171647623119 
0.009585066640938923 
0 
0 
-0.004457115269523709 
-0.01237731045030543 
-0.1389986201888115 
-0.002012194733636603 
0.07292182326288706 
-0.04365626039011241 
0 
0 
-0.002545485497773365 
-0.005519315460698014 
0 
0 
0 
0 
-0.01369837425343904 
0.002816998308606201 
-0.04169799497772004 
-2.710505431213761e-19 
0 
0 
0 
0.002534385376108323 
0 
0 
0 
-0.02546076418476604 
-0.03349568099722684 
-0.04332033230929664 
0 
0 
-0.01294613532400925 
-0.04535905728867559 
0 
-0.005630040330341517 
0 
-0.02032707863959755 
0 
-0.01795319623882268 
-0.004047267211853784 
-0.005653120040582461 
-0.02901339133346236 
0.4966404719315313 
0 
-0.242710398811103 
0 
0 
0 
-0.02951880705672954 
0 
0 
0 
0 
0 
0.4028099359455696 
0 
-0.01715946262201817 
-0.004399278485533864 
0 
0 
0.009736418396260679 
0 
0 
0.05740755061399573 
-0.1858953529702032 
0 
0 
0 
0 
-0.04870349702376615 
