solver_type L2R_L2LOSS_SVC_DUAL
nr_class 2
label 0 1
nr_feature 5000
bias -1
w
0.7312987873324707 
-0.6592093332285376 
0.5873685134508662 
0.3043432246789511 
-0.2461829004274179 
0.0794641967923739 
-0.7725697396230485 
0 
-0.5228699520964247 
-0.2237853808747176 
0.01043277678796535 
0.3785635970514533 
-0.3347900773853018 
0.1860794177534297 
0.1574088035278795 
-0.1326926179653594 
-0.08673524093077696 
0.9569495103546443 
0.0007006001463677123 
0.5353693011700158 
0.5992899653326094 
0.3792506758604318 
-0.06295562795308589 
0.1560170586303466 
0.4452525994039336 
-0.6055713427110977 
-0.393468241639099 
-0.3912761655799736 
-0.02852797917153549 
0.03470401618188568 
0.4037055231582452 
0.2199616575037384 
1.078054413696396 
0.192680158930281 
0.5363282146386144 
0.5128687920307088 
0.2767723305994652 
0.3722213244215548 
-0.109307574468537 
0.1784813901074959 
0 
0.3881703328313299 
-0.8152299557840119 
0.2730073915641678 
-0.03124344628590359 
0.2752832157974748 
0.1645869318529281 
0.5371319441392182 
0.01633834258378391 
1.125412882808432 
-0.3665082435798763 
0.01960427562446412 
0.6428623883159287 
0.2493448169346897 
0.4099823793629562 
-0.1146030734614783 
-0.8416550427886234 
-0.8269479559956314 
0.2554588822124557 
0.3313061476784936 
0.1144552703313126 
-0.1330791997338143 
0.5344060712015546 
0.07773525780426996 
-0.45791669305366 
0.1113920016241002 
0.7997722442381453 
1.269222757210403 
0.324113387778819 
-0.1354325731941516 
-0.3163824139932055 
0.9592326045885757 
0.2306303824077102 
0.1359046556573818 
0.4053099755390512 
0.1191636389209359 
-1.028623761570653 
-0.1911853698592038 
0.6135822836493772 
0.120032328596827 
-0.3475200050525759 
0.1931615841970834 
0.1480464560344912 
1.237115292589376 
-0.2521475023150662 
0.2037813481637055 
0.4167327196396464 
-0.2010676768164589 
0.1648969386651711 
0.4804277257974966 
0.06581723112952839 
-0.2637877422460651 
0.1807575489885835 
-0.6843359202166753 
0.4385066955417365 
0.09157642695749586 
0.04006495803514554 
0.7913823400254529 
-0.02063642083558565 
-0.04222690475955825 
0.1962064968147946 
0.1098956500437354 
0.2531663993248354 
-0.0942895957291337 
-0.2445622808664415 
0.4816721176794999 
-0.01128608052232755 
0.02688964515860135 
0.01353592836458926 
0.2394957099876557 
0.07628598620370487 
-0.8592819687461809 
0.498162995502812 
0.4856723635788243 
-0.2126523065972061 
-0.04604597470008166 
0.1206646706979947 
0.178617433594471 
0.3242691807677789 
0.3792177684229747 
0.1144538790553997 
0.02723044834580416 
0.03798016357216368 
0.3506154811019198 
-0.2612865517278463 
0.217501891906292 
0.1926204487555389 
0.2865945935646189 
-0.03168901224103374 
0.2266222294930407 
0.2294154746915195 
-0.03810556534840951 
0.06528871082273235 
0.2972058414849553 
0.07419292207407366 
-0.5288305811534199 
0.3863411727521297 
1.350904946973444 
0.03107303456321758 
0.1165636003095008 
0.1676462803365944 
0.01822008992490885 
-0.1770935993677088 
-0.08461716854101486 
0.09544481048914219 
0.1448952353179212 
0.1556948574052549 
-0.3690805860473276 
-0.1029580602355344 
-0.1153872093736101 
-0.0636483863165932 
0.2561129772144308 
0.5956998105014478 
0.01421625595168318 
-0.06676759753706807 
-0.207729042908785 
0.03579544162269495 
0.4561133130054514 
0.2366527692410564 
0 
0.03844288025144018 
1.011456333181502 
0.0229966760396017 
0.272960998863077 
0.0222115985340937 
0.1547969856458724 
0.5145514532932131 
0 
0.3605937759609858 
0.3892994143137432 
1.389193075832749 
-0.04179995208943871 
0.2498531274463918 
0.1667516404501959 
0.0006671969422733524 
0.382410350555385 
0.8072766295861227 
0.3723343637653161 
0.3612691900496026 
-1.031195042567727 
-0.1506192656955202 
0.5450221847543665 
0.5718010443414101 
0.1232221705696842 
-0.2258470146587629 
0.03546272016786189 
1.464608040401677 
0.3190698264328744 
-0.1327231378818381 
0.1235079809705318 
0.6546586348219885 
0.6742500284378461 
0.3270724374142424 
0.07441016306644696 
-0.08005755973323243 
0.0298509732906803 
-0.2195228492230508 
0.6676823391774809 
-0.3811546062906468 
0.3297526171536655 
-0.05713128677673086 
-3.038125492556768 
0.009921613086684161 
0.2580621434621928 
0.08376648234580286 
-0.2035629759181757 
0.005593063928582416 
-0.9876971233595232 
-0.06877717650080324 
-0.8482581454966956 
-0.1730459276258182 
0.9936714764803526 
0.1616947686380819 
0.1240400865733112 
0.269765902551489 
0.03556556911531062 
0.4325780303958443 
-0.6556943408485595 
0.2353499067617479 
0.08340149330875526 
-0.3426257066164106 
0.3919311318534344 
-0.4070930670834733 
0 
0 
0.4708026445055157 
0.6030787048018048 
-0.2300705765872364 
0.07863355650654862 
-0.3168125089955415 
-0.00333820246227336 
0.05575948760003192 
0.07184863003919791 
0.5788619205726787 
-0.6821273429687933 
-0.3874433858727015 
0.1193082349601593 
0.9406239365246938 
0.07021860257299818 
0.05817296082692144 
-0.03337067022315348 
0.05678673441930567 
0.08333993567932112 
0.334577435242667 
0.04639933764689926 
-0.0734249436409556 
0.1685750413889971 
0.04651877706945812 
0.2445391751727582 
-0.09137698517000609 
-0.06002048555212171 
-0.5306242545671733 
0.5638235623542637 
-0.02182935954502206 
-0.01556096791880288 
-0.1677515626809311 
-0.01286365639092256 
-0.1368155661187683 
0.03818297875693164 
-0.1755844521368112 
-0.06879079508084912 
-0.3678015854797739 
-0.4338008972534965 
0.09367086146114384 
0.01933891113172054 
-0.3938691193795222 
0.0180498863599077 
0.2594756945790687 
0.1213001141760896 
-0.03777605658244473 
0.1735190042605448 
0.03792310210384262 
0.7431045541071367 
0 
0.1688178077923721 
-0.3403832560100007 
-0.2952481710852932 
0.05476724020804546 
0.05928601768494388 
0.04651919139796209 
0.1564758984556641 
0.005079720378402259 
-0.08142659256533638 
0.2873187737716172 
-0.1523115235071592 
0.7598349688619594 
0.2099376882446148 
0.1379843382573444 
-0.5926953246898332 
0.1477503252004943 
0.4720415695838467 
-0.983283545386642 
0 
0.268200029067503 
0.690042072141422 
-0.5996542471613977 
0.07492112816957799 
0.002233415490023982 
0.4206163155396749 
0.05021077610574649 
0 
0.3753017087867141 
-0.1073690743212073 
0.5367366059941859 
0.2399983816257924 
0.09713120577621696 
-0.327351889547328 
-0.08515659182363783 
-0.3191741565764526 
0.09738479600952775 
0 
-0.04934832355899844 
0.4933883976274024 
-0.8947344093986642 
-0.2059077077014201 
0.1407440980201655 
-0.4911156281692593 
-0.2756728229045305 
0.2851452556220204 
-0.5279403926849023 
0.4952978025836673 
-0.3491023566361048 
0.4107852860964317 
0.2191695738401944 
0.04940185947556379 
0.2429249863337186 
0.1306622034149104 
0.9726347680934665 
-0.06501699168701359 
0.2256963405100971 
-0.227762463705936 
0.361811479814777 
0.4861504716585897 
0.467848818692829 
0.1480758910644122 
0.07348073412215886 
0.1971368871240362 
0.2828691464266438 
-0.3655921978268704 
0.05668899354785235 
-0.04138348354481296 
-0.1008302273066463 
-0.03608891261099686 
-0.3618341371292719 
0.07159352827046635 
0.09091469454729646 
-0.2721268910928596 
0.03564600205199349 
0.1015536447990947 
-0.1889767390385342 
0.05588557622066294 
0.6961935693962159 
-0.1499808045969517 
-0.1270450382723392 
0.2648212677990308 
0.06545807759791249 
-0.2354949973548588 
-0.1351032909432598 
0.04222703003831615 
-0.09386447407699688 
0.05826126671440036 
-1.109457900691486 
-0.3807899977506866 
0.1880828274838416 
0.5579146133388777 
0.5497583850566904 
0.1817586953354504 
0.02834534018639464 
0.5418348071148487 
-0.09409689289752185 
-0.3161070377661824 
0.06225968629308052 
0.3957406508955155 
-0.1160686109309119 
0.2164091251807098 
-0.05729193421300072 
-0.235454771291349 
0.06418985459594495 
-0.02454605969404794 
0.1567750959493885 
-0.04444322527215749 
0.03723053166582067 
-0.01784391330099226 
0.0141017446906089 
-0.2964905658332112 
0.06306515540768264 
-0.0005561561542850821 
0.4038218759056143 
0.1001667654936965 
-0.5581268671951434 
-0.1194241620204736 
0 
-0.002751735489721677 
0.3640870182742597 
0.3625045948160859 
0.3006238124410551 
0.8745550487609158 
-0.1300303285367047 
0.1046454412818357 
-0.01124709859701292 
0.09471665474136085 
0.6306131544746189 
0.3776272314539145 
-0.03487590175631913 
0.3321219905509833 
-0.9760753518867754 
-0.04908939197965203 
0.5053090214901603 
0.4940577499820413 
0.05949440658965044 
0.9913607032974506 
-1.449350167648543 
0.7515442325446979 
0.3719502450336739 
-0.4489918311642217 
0.232206030883366 
-0.07924674234145533 
0.292840094670437 
-0.08890644788012091 
0.38589352449328 
0.3099326080838954 
-0.7466391008622558 
0.1132517695737159 
0.4272628952261082 
0.1798149638047565 
-0.3445186899843319 
-0.05473520585119009 
0.06637753136605795 
0.7766517278203605 
0.3094830056555382 
0.1777353290491529 
-0.4699372734222614 
-1.034620406212739 
0.575802314756229 
0.1187894763429467 
0.4066821460142515 
0.625045666861622 
-0.05002965318386379 
0.3374509912144286 
0.01142972063654539 
0.2597074828064522 
0.02936212518671772 
-0.01195052701332834 
0.07884990049546622 
0.01729097998116657 
0.8193466474021535 
0.1609164298292786 
0.06115210276502938 
0.5754194363533615 
0 
-1.371861009206545 
0 
8.300620903152225e-05 
1.245600229587787 
0.3549891171304128 
0.1236298224829601 
0.09719337826563314 
0.2535749054268434 
0.04938518119796265 
0.02799883904154871 
0.2665500758391087 
0.05885281525771362 
0.03455173963100808 
0.7449191471078973 
0.3520623883927454 
-1.088185030340229 
0.1845344468964746 
-0.100109704773616 
0.1568801915177845 
-0.4743884021480476 
0.1764177321438723 
0 
0.2813805355198187 
0.2541084643080952 
-0.175992288573481 
0.0242597782092561 
0.08027449514711853 
0.6349703800648863 
-0.07735330525633377 
0.1827290463233835 
0.06461896484989289 
0.1541890098342325 
0.5445894006143268 
0.243322074617297 
-0.03144418766342413 
0.5313773364281695 
0.00919912141210827 
0.2157806644970332 
-0.0289767488917537 
0.1914369231340462 
0.8171542042656949 
-0.6819074333638263 
-9.095650485091693e-05 
0.1412122062351288 
8.203779616473776e-05 
0.07871016395565983 
0.9108618166945937 
-0.006807265627356104 
0.4283489721028774 
0.2665044995338038 
0.161323308950754 
0.02713303585673014 
0.3446739030375756 
0.206160732702153 
-0.01766231580796542 
-0.5002391165456705 
0.1796254879378857 
0.8268148902165616 
0.04631165266383083 
-0.01478174184596398 
-0.04233443594010931 
0.5907592859778813 
0 
0.06434913274631622 
0.05633734724908921 
0.538023598704954 
-0.48917132589986 
0.05011985306941644 
0.3013566446854437 
0.1160815018635376 
0.6556962890615059 
0.02850457962784943 
-0.0003132289509762645 
-0.2697459564365309 
-0.3621889014181813 
0.05464810211892436 
0.0148329716413877 
0.136605646844289 
-0.09030978030598016 
0.7034209580208534 
0.01902415023100808 
0.4435446232141808 
0.5032956026181161 
-0.666090691794471 
0.4127576680213489 
0.7358674243212374 
0.167414802081297 
0.3094770264831228 
0.03578153796100409 
-0.01527731063550664 
0.05590290194637005 
0.4723543511167708 
-0.07122797167355589 
-0.02596319156748009 
0.01859234812363151 
0.3415171729515077 
0.1250062929528574 
0.3460255380575544 
-0.2346890887621279 
-0.1853580563222952 
0.09959063878133631 
0.7359125420989652 
0.665004710542191 
-0.03477283105278962 
-0.02856899308424977 
0.05062491898112534 
0.371032057978236 
0.2344564718742423 
-0.06625286427638191 
0.8340653512438824 
0 
0.3481202338957974 
0.1604778379000268 
0.02459042357825323 
-0.5871772881508655 
-0.001591175605314712 
-0.03821928004420928 
0.4693059828689221 
0.3098964342154521 
0.04893639859674362 
0.4362910212448479 
0 
0.4001164261537822 
-0.08878984201228701 
0 
0.2942072930040712 
0.132568384754218 
0.2705583884556935 
0.4200201581033139 
0 
0.1282664311363245 
0.0921528782595165 
0.9653683108912061 
0.008126549569002287 
0.2634383269840093 
0.294308472916013 
0.385464337868036 
0.01023220933071389 
-0.05745495292679796 
0.05891461529872869 
-0.01642103379715068 
0.2238365194318913 
0.04758943924446915 
0.1690392557113898 
0.1398872102436613 
0.3663102600383328 
0.4772900983082107 
0.09285980959039881 
0.309042814875068 
-0.0128169429867603 
0.01317982844083324 
0.01986230539224793 
-0.1795919050040611 
0.04236168695454813 
0.1026611282439116 
0.03290342677515831 
0.02832221695556105 
1.734723475976807e-18 
0.1790216616490369 
0.2638064418968419 
0.2467063764697567 
0.002152385526490381 
-1.133542889107862 
0.1115770504929811 
0.2258888927220331 
-0.1516670706484848 
-1.675415750057973 
0.01121180586107833 
0.2824108398718973 
0.2563440646596695 
-0.4085107716780866 
0.002276181901143989 
0.1842586812146467 
-0.2590391285119346 
0.04643132644479689 
0.4536201772551536 
0.5659898098061367 
-0.01075928020504282 
0.1348003724492591 
0.4176109913016148 
0.1183734641039622 
0.1174662143570219 
0.1525309078656887 
0.005839748834830953 
0.6850980798376739 
-0.3930022032550236 
0.4762011126464236 
-0.407986364655976 
0.2362917872914257 
0.458066234663297 
0.09579104396894378 
0.3505069825968834 
0 
0.1681631273081162 
-0.07991741921046644 
-0.3682574251557419 
0.6379545131271602 
0.08201177329422926 
0.911643203480121 
0.0434367690500158 
0.5384054478830753 
0.2814752002370838 
0.09050088387962998 
0.3171233696235457 
0.6458471394279717 
-0.2014593380799749 
-0.07739920462510545 
0.08224242083956261 
0.1457131312474642 
-0.09366174460836314 
-0.2196929410292389 
0.07517900665351096 
-0.2857974244842218 
0.1264032927694461 
0 
0.1630175258424734 
-1.044168841805975 
0 
0.2125587723744153 
0.004595803523336541 
0.1250937853843311 
-0.07972387960842725 
0.4484698836978869 
0.3662624033113645 
0.3947867307006896 
0.1011764769152421 
-0.1118471632529866 
0.377725296165407 
0.006748223580650731 
0.4720976661309686 
0.3294966172724029 
0.174341922870444 
0.1656033358102339 
0.14284938577216 
-0.3328749230740597 
0.9604890847145747 
-0.2038481232041403 
0.08544103493239566 
0.05529091554960188 
0.1211506539429378 
-0.1241830036531767 
0.4145029672171921 
-0.3909555421034883 
0.9909652254038658 
-3.035766082959412e-18 
-0.1198770791714916 
0.1668416075667714 
0.08218586611400155 
-0.009688770224903239 
0.2369048961703077 
0.2707585130167008 
0.5126197153678461 
0.2713948121509547 
0.03489809416438908 
0.3747794553461775 
0.02044758475937162 
0.0209805427367283 
0.08394245318306205 
-0.05750942709407279 
-0.08185131518010655 
0.1638833066420899 
0.4047563272897446 
0.1835076016278297 
0.1725226503462272 
0.1100522796316401 
0.6020522742754294 
0.1673676670599185 
0.1497262184048925 
0.1098436616911104 
0.2455124154700645 
0.2773433982696301 
0.03871060101773555 
-0.1403027528912593 
-0.1123537924259191 
0 
0.1766220266386174 
-0.07368171605932623 
0.8033346709250658 
0.3172347224123895 
0.2478845668733347 
-0.4252726861718022 
-0.02978100235195258 
0.09606822285474698 
0.1004233549174335 
-0.381300330893085 
0.001545420172131933 
-0.8133759598447611 
0.3732302246157025 
0.3116188044041829 
0.107018640024649 
0.02707977467065694 
0.4009102574201217 
0 
-0.03287335818029148 
0.1296599796609929 
0 
0 
-0.04679617380036421 
0.05319354677228206 
0.0914243771581148 
-0.001317776190949523 
-0.01584174016601174 
-0.3794004976420917 
-0.4633441370336287 
-0.03101401018679939 
-0.3870065715292905 
-0.3058297165755634 
0.1095761339818373 
0.111545286649206 
-0.01557591526834784 
0.2795910586452662 
0.1232451451801149 
0.2663615689697871 
0.227468999752319 
-0.03712714852973088 
-0.338887577049073 
0.1930805505675866 
-0.579608301157357 
0.4982899699897527 
0.2186478254134445 
0.04121341653050459 
0.2537282367355914 
0.1368492307117644 
0.2046926068479074 
-0.09847235571082784 
-0.1681878475824386 
-0.1539865808292045 
-0.0190497244406077 
-0.2138887847810239 
-0.05078866809090055 
0.1597377803950286 
0.1547542384128401 
1.209069880652561 
-0.005034120740715613 
0.1678841406980294 
0.5112552362074122 
0.2131786725891115 
0.2645286002330398 
0.02200991539671245 
0.4946561033885759 
0.6092700525716929 
0.01115828209376669 
1.219727444046192e-18 
-0.003170412738616487 
0.629053375477547 
0.6501436238129725 
0.6335469514217217 
0.1372658361965741 
0.01757062669975993 
0.4199617034341359 
-0.2244786661001006 
0.150795852928729 
0.003027021377742461 
0.09598942374066211 
-0.1439926760344176 
-0.03345382573529868 
0.05228991233920111 
0.689947979573042 
0 
0.1285104128129811 
0.1142438663190683 
-0.7543485238699953 
0.5427652597764588 
-0.001619404816662026 
0 
0.3160476828976473 
0.05162974011822913 
0.06053138885113831 
0.08617395343184542 
0.002403448622689684 
-0.02260164347701333 
0.8679171362558764 
0.0353371445227864 
0.009229544027435576 
0.1597384493327032 
-0.2188008925152534 
0.004736893732459745 
-0.242056832152102 
0.01598149629312444 
0.0166045587652782 
0.007828193017970941 
-0.02714706478827645 
0.0137158690547174 
-0.4808719893894827 
-0.1405335245917075 
0.1333837431647113 
-0.01940048192840988 
0.6701032768190419 
0.672647812284225 
0.03034346490994682 
-0.1491533780776582 
-0.03900916958895433 
-0.03342343843468094 
0.06610893749952394 
0.000791648461118675 
0.2698853123149538 
-0.03259864977972138 
0.007687893511998502 
0.2524520326232436 
0.1981096074155468 
0.222065365646693 
0.01490673838760619 
-0.08677340767062987 
0.03251619271826091 
-0.2724163032839751 
0.2471332110479043 
0.3627557574254389 
0.1508725192390692 
-0.05605279472372383 
0.001276260286224095 
0.2847731337242728 
0.00446592144333002 
0.3465824147833479 
0.009598160852722254 
0.8612219419614849 
0.3176671541388265 
0.02602552670731659 
-0.1087614229739404 
-0.3344451672196338 
-0.06706134067494314 
0.0005753242587870712 
0 
-0.09250151763734264 
0.2848258594086129 
0.03671418413009075 
0.1384913570138143 
0.08602153563230409 
-0.3704469061545741 
0.6830925199555564 
-0.0494315932142062 
0.7105436495669745 
0.4968688682737874 
0.1120060018913889 
0.7235260031899107 
0.3065545564671468 
0.1273151934247845 
0.7372981961106908 
0.04422043946634555 
0.357127325968129 
-0.2456661367583577 
0.0548894583339537 
0.002186728472957585 
-0.7296822811427132 
0.002367619503687341 
0.3767473431666977 
0.03126044685840444 
0.1073485590333687 
-0.1650116954333049 
0.5651283537510045 
0 
0.1836002046292438 
0.1055258739957417 
0.2219321230831337 
0.2914154463748505 
0.1727767421531098 
-0.01080740741136127 
-0.1346673131712804 
0.2970592599428277 
0.1285197369651611 
0.001148678861388095 
-0.05195475622066255 
0.1148111810353425 
0 
0.1142464356917024 
0.2916567531211781 
-0.1039044327198678 
0.08257613284148398 
-0.1235660191404963 
0.2871629165956004 
0.3151592277651 
0.04428336598147994 
0.07519564248039597 
-0.1001444346514442 
0.09953547063703516 
0.06533612794232113 
0.2307914041570983 
0.09620585578392185 
-0.06590211850234404 
0.01087880148251557 
-1.023895674719726 
0.0580496522567311 
0.003336952376542213 
0.3076498601004415 
0.09088046152546131 
0.03579380272400487 
0.01721952240040439 
0.1137787288548292 
-0.9753860340472708 
2.710505431213761e-20 
0 
0.7486709563001935 
-0.01147996716521183 
0.1006378179519903 
-0.110380697834485 
0.05952939992289387 
0.4743288648060491 
0.0686920627385897 
0.3315310199906872 
0.4020096556082133 
0.1553524608560369 
0.1313303565107684 
0.2284894259524029 
-0.01874358335997456 
0.008032512989486885 
0.2703356428521704 
0.2156782891949003 
1.621643647108246e-05 
-0.1142795472248003 
0 
-0.248262787833615 
-0.1813841039072807 
-0.162523161381135 
-0.2147442005311175 
0.1967633481090288 
0.06840162529741024 
0.2858233781372814 
0 
0.1410543523592081 
0.2327107777661374 
-0.09787868327298481 
0.2262289702230709 
0.2717797872798028 
0.2480938472375982 
0.02185168605273578 
0.5623045367535738 
0.09071414028064424 
0.1969920860003357 
-0.008586199228566399 
0.06917770993637402 
-0.2605373696152598 
-0.01566719716083707 
0.1383944525858669 
0.0381320956743056 
0.04095638139702475 
0.02433191975651488 
-0.3143940678476084 
-0.3092498708534539 
-0.1702479157426218 
0.6723872755065542 
0.1186425829925736 
0.4163563299155025 
0.09827078937357947 
0.1060614669981527 
-0.0733195714703509 
0 
0.1511455759867996 
-0.1586753998601216 
0.1975718964913613 
0.08565803562629527 
0.1400572488566088 
0.1264189362584843 
0.432599678354761 
0.3556667223685848 
0.3877061348114306 
0.9030726023427339 
0.08328490681778869 
0.02056881663893889 
0.53511638005655 
1.08867481115622 
0.1023332013085912 
0.1189793675876739 
0.1095471396240756 
0.1591594313991289 
0.1866559923310944 
0.04823358083353371 
-0.3635893300201648 
-0.02186617835020362 
0.1237336510496743 
0 
-0.04150009432225729 
0.06846484326735899 
0.1330349215506188 
0.2277598849812207 
-0.8508735567747213 
0.09775483848082124 
-0.2564310201536413 
0.3178867380645264 
0.1357496302545966 
-0.02453759463839902 
0 
-0.07755385708215036 
-0.02703278790591094 
0.00989028346985121 
1.136552977166397 
0.004737153916617731 
0 
-0.2787023500713008 
0.6055339571990066 
0.008824396567986439 
-0.01740524186029871 
0.3956551641823771 
0.05850057287240451 
0.2669907182067385 
0.5129361868388284 
0.701719029879303 
0.02232957080937163 
0.6552148301478197 
-0.0318263971549478 
0.04500305476716262 
-0.1898986903448995 
0.01041724274727486 
-0.02878652904227254 
-0.6305865697554915 
-0.5493141811503154 
0.1795911845856706 
-0.3038927597730392 
0.3933405441893005 
-0.8990517861878108 
0.3290216090147978 
0.0571530698920515 
-0.1341020208888725 
0.3760672959064725 
-0.2100130917626457 
-1.24683249835833e-18 
0.005012591544651962 
0.3863053161852265 
-0.07185530394459551 
0 
-0.25110190721083 
0.2258570495198993 
0.03476389799353577 
0.1091613370700452 
-0.498828390534841 
0.1901240723875804 
-0.5028885128132673 
0.2977103801600602 
-0.1897394624983708 
0.465550043326158 
0.1984253640733983 
0.08841961620692404 
-0.02062288595548603 
0.5577436983018469 
0.3870713685470525 
0.2274450942076724 
0.007592038713045948 
0.03744033956972236 
0.01132247974087056 
-7.453889935837843e-20 
-0.2603521595454478 
0.009753678518937341 
0.3021750845655869 
0 
0.5378795858591008 
0.02982619624454276 
0.4385360534995221 
0.3961212651692615 
0.4494425853360339 
0.2805099901989039 
-0.124442875488731 
0.03925231124901721 
0.008000549403326201 
-0.01101919299481706 
0.4233929263369957 
0.07521088137318117 
0.5845454535736826 
0.2360615190540664 
-0.03741552518985097 
-0.05909490773731783 
-0.006990135975703885 
0.0473878451783547 
1.044669485939688 
-0.122256396126435 
-0.003499607648551258 
0.232229477745459 
0.03903522496266362 
0.5803424074399303 
0.008149958854984259 
0.3321219150832643 
0.09880945565519074 
0.1723241639020986 
0.2170520191175847 
0.009646808712400182 
-0.2752002712396373 
0.2968088226305843 
0 
0.3083586217058641 
0.2068550899914328 
-0.003937392124163931 
-0.04465244708028338 
-0.01022811800318179 
0.172140964373722 
0.1462955397888328 
0.07637507401171281 
0.01189609702921404 
0.01469166619549912 
-0.05523724509531142 
0.002644390736763447 
0.120931443838436 
0.1307661575588163 
-0.0370659704490332 
0.4065537994134805 
0.09221158134266486 
0.2521872707620896 
-0.04457818237729729 
-0.1906738808654912 
0.07830172673536907 
0.1537319534033875 
0.002892272543559221 
-0.9319770922874605 
0 
0.2045400592326019 
0.05027868299557583 
0.6235144451269892 
0.2445777900180082 
0.1868919272552235 
-0.4150835914231117 
-0.925983840907511 
0.2843519523259526 
0.08411510129243406 
0.005060589423725155 
0.1800079025989373 
0.07269108795480922 
-0.05991096971214691 
0.3313860369872887 
0.01277861765702918 
0.009966964625753822 
-0.3473155107721193 
0.04291671399748712 
0 
-0.01594870130141152 
0.02614956679245131 
0.4417078766701559 
0.007396643757486412 
0.05764170793827778 
0.00731570804873214 
0.018060496294588 
0.02068311350499347 
0.1081911854181524 
0.2832294290202672 
0.1459026708703422 
0.1040128341614747 
0.1380151250583943 
0.088695214973706 
0.2010780713637068 
0.4830888314455908 
-0.09487416321798511 
0.3892107064405386 
0.1858697015409408 
-0.2699790365185499 
0.1023562058496475 
0 
0.1958638663248803 
0.2189435221330532 
0.3428550214857309 
-0.8425705073269384 
0.3075511418437586 
0.1191982395883522 
0.1182773269769874 
-0.1028050403209212 
0.03237872130441843 
0 
0.1455452079120506 
0.005704628310245307 
-0.1399579238585979 
0.1152074633468835 
-0.7584002542988175 
0 
0.2717854618864133 
-0.2930301246640292 
0.1416350120292619 
0.1179448462847067 
0.2951699833179557 
-0.1379405432226503 
0.04671606218743696 
0.06350272204789593 
0.124797352382118 
0 
0.01790645309675322 
-0.1062277573244584 
-0.3486507684536497 
0.05790976458964387 
-0.0228169517057523 
-0.08116673793057998 
0.6993143274995323 
0.002067102065436658 
-0.7390270133156848 
0.03159593049677718 
0.4402639616304296 
0.08203446077601476 
0.04364156870853528 
0.6400791623377936 
0.079428927599793 
-0.01315588847583824 
-0.001002617326189976 
0.06442945791976663 
0.5252798503839093 
0.02678779816585001 
0.1399405218829445 
0.2114915494270949 
0.2320146859633682 
-0.1186911186344724 
0.01764440507818143 
0.05224305005068311 
0.3399681225393766 
0.04691168114526717 
0 
0 
0.2587940498702008 
0.4488558044422093 
0.1028188945300959 
0.3255689895575202 
-0.08274545237197903 
0.01849739874415754 
0.03432060601568845 
0.1132353025405288 
0.0681177759542848 
0.01571427397287758 
0.0007082888147280721 
-0.5657593435252167 
0.2578024769907358 
0.007330881502609414 
-0.09626963309273102 
0.3437242913714052 
0.3035638609454203 
9.617367789037739e-05 
-0.06644899157865097 
-2.168404344971009e-19 
-0.3442430796129536 
0.2176664775250972 
0.8279165399014402 
-0.1526583079009607 
-0.02395807020444392 
0.154654321306777 
0.6407243069036157 
0.1680489723481935 
0.1258792022454684 
-0.3724681742900446 
0.1608618095080742 
-0.09346198674965227 
0.04973928674007273 
-0.08898561289642751 
0.04354705347053802 
-0.03123598804259001 
0 
0.1680528185854374 
0.3261235397591754 
-0.2821137056026682 
0.06088750629049634 
0.3053568643287011 
-0.01670210802758896 
0.08134798920843482 
0.003611400056362215 
-0.003154572891674113 
0.1413241501565084 
0.2759531085378524 
0.02600533409556172 
0.2806495566654862 
0.1625359728945908 
0.3059002291298263 
0.00311840538406901 
0 
0.0747905967469496 
0.1578533070544136 
0 
0.1320160454714561 
0.3816514105709042 
-0.8462337920621062 
0.0481331463747138 
0.03339537541116887 
0.1987796043296147 
0.02038757516041191 
0.03036646078658336 
0.1040699842705972 
0 
-0.09505401669803325 
0.08970067750148583 
0.02139667589196331 
0.03640890837467268 
-0.09560249753412217 
0.1865418866578934 
0.1051623442765812 
0.07804470063228525 
0 
0.1878573206593085 
0.0388046859821382 
0 
0 
0.0770672475551292 
0.2034754878266001 
0.1429718380260319 
-0.09789279407318202 
0.2704562810554452 
-0.02011465161052026 
0 
0.0855966392024034 
0.1085513260742979 
0 
0.2942339976752043 
0.4149031852737283 
0.07830225060400055 
0.3879953393189976 
0.002958614618165175 
0.007506642990043627 
0.02907316582766315 
0.0272496259816561 
0.09183177806703142 
-0.07844873256551085 
0.135148765533977 
0.2002122205329241 
0.07081966371687851 
0.1564888598616979 
0.2422947819994383 
0.1151252340028599 
0.09682028593193549 
9.75781955236954e-19 
0.2164457929143604 
0.03648066747219356 
0.3245646817233692 
0.07397372758162042 
0.2039094215902978 
0.02644022506539484 
0.3269721990836231 
0.5914509218675977 
-0.07347349119197008 
0.0006306538431880746 
-0.08343651730738127 
0 
-0.04531303802943788 
0.03027515107156598 
0.03928147405406106 
0.1635269695413319 
0.002163814687893806 
-0.1474992842259415 
0.01262017687481705 
-0.2965252157220087 
0.1418858422398089 
0.1948677347601628 
0 
0.04074485654039122 
0.2110415914484075 
0.3542251595999554 
0.003421773463084834 
0.02456991816256813 
-0.2803406914283938 
0.0256535519377251 
-0.0277185635528539 
0.09624279821282462 
-0.1858874668523388 
0.1096671913392692 
0.06943877038360609 
0.4021661887410372 
-0.03632528343295296 
0.06135972625583108 
0.001621523451003576 
0.1075842415535757 
-0.01896312948248326 
0.01896211300166655 
0.08277514278827912 
0.08115563434217722 
0.07390381079762295 
0.002624202680499991 
0.1181003603492426 
-0.01431292029102771 
0.01093578240723129 
0.3080534019254277 
-0.02897394291187049 
0 
0.3502416471566842 
0.3866368081898492 
0.2237883460989727 
0.07893487898637466 
-0.05576827101548192 
0.08662446551566663 
0.03151868317707694 
-0.07094656482207046 
0.03364499174163385 
0.1172148607260704 
-2.16266046504293 
0.1484948626170813 
4.336808689942018e-19 
0 
0 
-0.09014756269251771 
0.04350540935344698 
0.03971867578231789 
0.2368656944040348 
0.5927249927792836 
-0.0440386389468509 
0.02894079042643859 
0.04138351235412945 
0.1038180832691978 
-0.01562195337747987 
-0.02431620089045776 
-0.5247026092456493 
0 
0.08771453353946317 
0.1021009310372776 
-0.03758164550578603 
0.2286171199725587 
-0.3381781142261724 
0.06207389914323228 
0.003725082172093101 
0.208867050249558 
0.1608674722959209 
0.2298498642541233 
-0.2464853554460219 
0.3392861856212627 
0.4016877158014848 
0.5171140458606093 
-0.3543982779672868 
0.1405678849323699 
0.2040248735140807 
0.366082601685625 
0.1645099836077524 
-0.08958950154829523 
0.05378164186557467 
0.1870217130303378 
0.02457981975844565 
0.223714200785307 
0.4307217981730542 
0.2737192711903542 
0 
-0.06217111987292188 
0.006962182271412911 
0.125826752785948 
0.07472480622326426 
-0.000749530501312345 
0.01476842084130846 
0.6985249168532284 
0.05815131270036921 
0.2648495699524225 
-0.004988637454435512 
0 
0 
-0.05803905790369307 
0.07740892420066796 
-0.01346091399212988 
0.001912220795000876 
0.2037392073718897 
0 
0.04679602487239926 
0.01421984720073573 
0.05427774385888116 
0.08589581821601673 
0.04246829083679561 
0.00688061319267618 
-0.05254154142376491 
-0.01117099527418665 
0.1140136206670663 
0.056946336834013 
0.04115432586822348 
0.1113768387029022 
0.1962922687096978 
0.04677800475350385 
0.05961631330138229 
-0.01846331456481985 
0.05508421761957661 
0.006556033723004041 
0.1679277920460946 
0.2392611676408308 
0.1020327853073644 
0 
0.001062785327629123 
0.0403933253932745 
0.0753131955267857 
-0.1638612848439281 
0.5629101946706379 
0.1274999033701345 
0.1974963691166377 
0.4528284766445488 
0.2078605127587482 
-0.04309681760956541 
0.2380901666067078 
0.3078546070295353 
0.5519165441570425 
0 
0.01349851553390963 
0 
0 
0 
0.08379074250974725 
0.2565807543905579 
0.3644752609848406 
-0.4301415506290376 
0.1948886641356802 
0.4684504313899447 
-0.01039085923694985 
0.1788974668002478 
-0.1374620780653094 
0.04185376811126004 
0 
0 
0.08811917717713512 
0.1051674467039213 
0.06186297273255699 
0.08781987925915523 
0.02357472555260229 
0 
-0.6012211001621561 
-0.004945982179873709 
0.5524789581998099 
0.1392455262123373 
-2.168404344971009e-19 
0.3561289365205735 
0.6323820563879419 
0.1844576290447495 
-0.3243975484588802 
0.2089864033113391 
0.004336997651442655 
0.07432803763732607 
0.02094170676396122 
0.2054615543953074 
0.1146655114661935 
0.1071075387785129 
0.0543288146649229 
0.275369225401107 
-0.1272656272358806 
0.01539635457511857 
0.2919554084070208 
0.1673948451350634 
0.1730596565068298 
0.2618428971810281 
0.02508208748970537 
0 
-0.0140875884798997 
0 
0.1259464648696976 
0.2379477989400819 
0 
-0.1504231777734177 
0.07808414408536762 
0.02504768891399862 
0 
0.2906178766278845 
0.06815815547808392 
0 
-0.7537716687882751 
0 
0.1839820623098865 
0.03694813725583858 
0.1227702096799106 
-0.004328883836945763 
0.4382246604461184 
0.02613888460119109 
0.2506387230355187 
-0.1713047030520081 
0.1075844514812417 
1.06648048951434 
0.05014668013131674 
0.09974282712854822 
0.0311520806668046 
0.07971638182956417 
0.1310993201546047 
0.03367651965978385 
0.0754286349844923 
0.3368684856069485 
0.3485002037131124 
0.09600382904469786 
0.7375776609670043 
0.1165566691663341 
0.2163813094462374 
-0.2090395132036137 
0.6012340279101539 
0.07632138755771338 
0 
0.02913544052656943 
0.0583663778610758 
0.2890258687348576 
0.06318187723359912 
0.04891701266018374 
-0.2306064236006388 
0.1891479764446575 
0.02227252891325901 
0.002901446540905306 
-0.05696886344530704 
0.4153660383674091 
0.2987485924255258 
0.6213925020207661 
0.231346879322478 
0 
-0.1006999120674731 
0.311306813422548 
0.1221610429422882 
-0.08646083587566962 
0.3068833906300859 
-0.05098672371940766 
-0.7244808771524507 
0.1006670883208256 
0.005431875190269987 
-0.1354072538419703 
0.05863824439921471 
0.01037177640928673 
0.003241488176221178 
0.07166076338513824 
0.09639128823860035 
0.2381282842446866 
0.1862507207993725 
0.1009946123250904 
-1.02491691487343 
0.09782041150468768 
0.03366249266223627 
-0.002898853878748039 
0.1139310799496906 
0.003679117219336311 
-1.058677863905641 
-0.1419946850653065 
0.5936952548351336 
0.1868991585610936 
-0.02080833871459755 
0.6517470449822657 
0.1041713939905275 
0 
0.2033666624752541 
0.0190147019011391 
0.1538765084736796 
0.00202518861784901 
0.1628828814637177 
-0.00695076172251717 
-0.007542010538764709 
-0.1328676008397123 
0.09064428218533574 
0.09305248602266084 
0.2018817397865018 
0.1385655580853939 
0.02385244137673865 
0.01795128676941628 
0.2756675363445409 
0.012459372700212 
0 
0 
0.2043520221042703 
0.09036612237555161 
0 
0.04650791752744377 
-0.05110213495075524 
-0.1488133359516824 
0.04724085397269221 
0.2681875153773107 
0.0100412838035571 
-0.07037902691179748 
0.2906925577943043 
0.05936510523080644 
-0.2878802536998805 
0.07986527424734804 
0.002718098120063733 
0.1713482321064303 
0.1208572307789336 
-0.9603440053863677 
0.004036686531512965 
-0.0199464475417057 
-0.005448241766020246 
0.05540031171620292 
0.01894697527662569 
0.0207529604478431 
0.308475428819413 
0 
0.03105936320909329 
0.5584844113344668 
0.1908015377243797 
0.04977925434324589 
0.0180692912240752 
0.3041806889771974 
0.0225502159830143 
-0.037553653780432 
0.06078753058473049 
0.03067649665085067 
-0.2392407212008217 
0.01741705313739062 
0.2939737741245585 
0.005507884430574635 
0.02118240243468939 
0.2020975848154691 
0.1707361449975396 
0.06384299722226958 
-0.1382206419831088 
1.244827719667691 
0 
-0.2588910874716261 
-0.06422045550859824 
0 
0.2734030268239857 
-0.1525399073901653 
0 
-2.168404344971009e-19 
-0.08290388617299863 
0.05638407833816449 
0.03795805326908076 
0 
0.3759138294991683 
-0.5324273610550385 
0.05987304011092172 
0.08522214654747069 
-0.0132415545858267 
0.9102790799626433 
0.0378797290165899 
-0.04174360095450814 
0.01561769159058994 
0.005229622680845285 
-0.1147047182982958 
0.131437710964723 
0.1206465462390976 
-0.002714941965411774 
-3.469446951953614e-18 
-0.6590428831730885 
-0.1538102970694733 
-0.2648190591027652 
0.1132030154881547 
0.002866411790874735 
0.1805383051363335 
-0.009103928004747573 
0.08748911373982098 
-0.0410255247285715 
0.3641286443358124 
0.1345591540516258 
0.58593687164969 
0.03997881498082455 
0.004196562653729607 
0.05561302204518283 
-0.011005590074185 
0.1416237721648628 
0.2692077147099941 
0.03909864871020734 
0.1453449445285724 
0.101960900254991 
0.3862551654372464 
0 
-0.02953940331430761 
0.1833769427691496 
-0.1600269627449464 
0.09475827582867202 
0.07083591773317334 
0.03579213126484943 
0.1221584560698986 
0.01541468126308136 
0.1348133851172566 
-0.5546606716759046 
0.04206352059562524 
0.3408483456183136 
0.1708874180717934 
0.288618838421752 
0.01520833476285045 
0 
0.4415645891772789 
0.50294248096561 
0.05236012906554005 
0.2328967667097002 
0.04217558074797721 
0.1862748274484313 
0.25477079476959 
0.08615397316168251 
0 
0.07657398432546579 
0.3604343543106629 
0.5066407567181666 
0 
-0.01295298631302109 
0.1622335711384757 
0.02550917216941425 
0.007284558265656675 
0.2035254096767967 
0.6599379956596034 
0 
0.09501438643360335 
0.1813915727153343 
0.244681347617695 
0.003438756732691059 
0.705774445607289 
0 
0.008362146724980842 
0.07926638222660901 
0.2329845548653758 
0.3251132938627086 
-0.4214145901133188 
0.2702286042641342 
0 
0.2859303303554919 
-0.2042634065903328 
0.06327161804995399 
0 
-0.09829133298466695 
0.7208302285287193 
0.439316098970098 
0.246370018655903 
-0.1287595494997398 
0.1144679911955807 
0.001653934928968291 
-0.08557288210090468 
0.2449245006008984 
0.5214961081493161 
-0.07733221175843129 
0.188572796619138 
0.6788974035718044 
0.006515340656444289 
0.1396822022633017 
0.4017305439925502 
0.0246919237449274 
0.0516272901973123 
0.1198931331113685 
-0.0002237663733809074 
-0.02083642695602216 
0.03613898911032049 
0.06868838714671142 
0.02166038006743002 
0.5285125197101771 
0.1423627630295613 
0.5591689621777952 
0.01190478578885716 
0.03945094412986493 
-0.0008625643063905231 
0.02744392360560548 
0 
-0.0538213232786735 
0.1405918779882228 
0.03774666658867635 
0.1924582450674666 
0.07055064709575905 
-0.01605720717871279 
0.08384590617950512 
0.8797850434261056 
0.256289613164609 
0.04200735874817924 
0.0905987339499873 
0.2826385555827602 
0.04527571115781149 
0.04903707676912764 
0.1996987525847368 
0.06889786588255123 
0.05673681709277621 
0 
0.08398830603770829 
-0.04526734614850007 
-0.05309232277488327 
0.150280315099547 
0.388578950646669 
0.10159080459626 
0.2794833272336986 
0.08125525963289026 
0.1486615455750115 
0.0101108859935913 
0.006610064257255891 
0 
0.06507976408643239 
-0.2591781960158123 
-0.2073515117113165 
-0.02419585773180273 
0 
0.482291124094276 
0.4227980801679339 
0.04071597249387571 
0.6381147379001105 
0 
0.07321225600471888 
-0.03254439345723629 
0.09004580540819325 
0.01348481472628901 
-0.0283278766263562 
0 
0 
-0.1020131048725922 
0.2914844106846059 
0.1642643689692292 
0.2138805903403772 
0.2295730800961795 
0.5931763780271258 
0.07209047517503427 
0.03387877950032481 
0.02685969803563042 
0.001972215136189025 
0.4521381485651639 
0.1118179209935496 
0.1322780005501845 
0.1185357624076818 
-0.02647100148659769 
0.05441100268313433 
-0.01217227050908636 
0.004647633487784718 
0.3966019586681815 
0 
0.03927119907064458 
0.217914744368311 
0 
0 
0.2292877392257845 
0.1253334146484577 
-0.02101673161786075 
0 
0.1006688404206215 
0.361541339574849 
0.1935665320937338 
0 
-0.3169439617489107 
0.06068365651370534 
0.494874047905548 
0.3780556310656954 
0.1971691916349151 
-0.1209887204213313 
0.03772081421950995 
0 
0.1032921876938234 
-0.001054224534037441 
0.2625115008771604 
0.201347364787427 
0.05657013005076646 
0.1438102547472132 
-0.02896998798835346 
0.04291215323343844 
0.01266889955298392 
-0.1300499770870581 
-0.155101534403073 
0 
0.2609196098560155 
0 
0.3722432226758847 
0.001460968964179133 
0.1610716401612105 
0.07192738521607815 
-0.1714389327483674 
-0.6228987473044005 
0.05789155290589717 
0.5800505837095237 
0.3907376921046617 
-0.009251750970531103 
0.2097572423529819 
0.006362765324276453 
0.1094524102496016 
0.04107668275094536 
0.1734004341189991 
-0.1425124237404294 
0.2555759035599697 
0.3067004499665071 
0.05722303892535855 
0.01959913987699113 
-0.06578209677687423 
0.05538343874615702 
-0.03800921237308335 
0 
-0.3569789105098661 
0.3296579708354454 
0 
0.1240012690125098 
0.2056833875358727 
-0.2302755049132051 
0.3729278264613252 
0.2513809018016658 
-0.09030598293461176 
0.02992563272662703 
0.05763405450080864 
0.1833257452516701 
0.05814534312271438 
0.1662440443350603 
0.02919389627541425 
0.2196562327382147 
0.03770205663635024 
-0.1811026966039327 
0.04055609311662519 
-0.02058044005945529 
0.3447501469671435 
0.04809187418253374 
0.01324530905848418 
0.1734834269852873 
0.2933689399958956 
0.009822465322516027 
0.05069087076171601 
0.0650620631684424 
0.009912518573352538 
8.912574487570402e-06 
-0.03741546984027599 
0.2924474692486872 
-0.2229900438554684 
0.1094751692870584 
5.421010862427522e-20 
0.003179407496298226 
0 
0 
0.0119256659842108 
0.1656462002223279 
0 
0 
-0.01676750135086862 
0.004491843040356024 
0.31407341499564 
0 
0.0696028778265091 
0 
0.02480057682053736 
-0.003087387248699438 
0.04939785785870088 
-0.2393453585034303 
0.06816593267541995 
0.02422742666245011 
0.09730828274048885 
-0.01812251918402086 
0.1251590466515886 
0.04111139988055478 
0.03480743511826669 
0.02304963994300029 
-0.05863769298640563 
0 
0.2411542463829834 
0.2012830633074478 
0.5149828893911047 
0.04047751493355868 
0.05989997712718751 
-0.06773520261770979 
0.03567963049370122 
0.1160770061113958 
-0.0009273908357000341 
0.2204833735609281 
-0.7025575202857915 
0.01241488207487387 
0 
0.1170515863986369 
0 
0.009877719360825508 
0.08124635696476644 
0.08142002962747615 
0.04795271323565011 
0.1077089829346262 
-0.01579169830847096 
0.152922703373241 
0.04401950213982077 
0.2621088377719273 
0.09293263044922584 
0.02276521512324215 
0 
-0.005121165333948079 
0.4339744990003403 
0.4479035472051305 
0.2693805308096153 
0.509977634650096 
0.4593393768797714 
-0.0802626231881745 
0.2127733686565774 
0.3080472719698085 
0 
0.01387503776903894 
0.2466406331087805 
0.2661503221783358 
-7.087971702623985e-18 
-0.1158263354150515 
-0.004448774925510489 
-0.0257142827923238 
-0.05823843823885125 
-0.03118116704173177 
0.07114972141248968 
0 
0.1272992069357343 
0.07364887640303677 
0.04589840001819303 
0.6210073793171995 
0.01655669471812885 
-0.08717279625431029 
0 
0.2190594654351311 
0.002003326272294121 
0.03657330908018235 
-0.1450466479756549 
0.008012238927367025 
0 
0.02039190907777505 
0.02199929885690318 
0.1405194776735215 
-0.08785546383355804 
0.8915491912453882 
0 
-2.710505431213761e-20 
0.2167892794719517 
0.1740048201104197 
0 
-0.02966646187076873 
0.1505671156940823 
0.3667869304041444 
-1.626303258728257e-19 
0.09813993880759291 
0.04372376742255169 
0.09048391374502243 
-0.0246168765115253 
-0.09234481708698221 
0.02665390180061317 
0 
0.1990330676208601 
0.03815243003823605 
0.01996202961741157 
0.2991382621104491 
-0.6544873006557759 
0.01990499246077833 
0.3504749515006044 
0.2153029530879974 
-0.1186579070701205 
0.07423570502995067 
0.0415526357631265 
-0.05869474933591055 
-0.01592892674525603 
0.02356770918371467 
0.5348086412760922 
0.3907366694918335 
0.3256117736639352 
0 
0.04712458288066763 
0.0280349446579092 
0.5958283082519656 
0.003233180120890093 
0.190361114123604 
0.03837302709371677 
0.008899131482066143 
-0.1052340463458252 
0.0708253038633499 
0 
0.2123331147716948 
0 
0.008897972979418349 
0.1557289341403219 
0.08437208944176296 
0.05985511288097299 
0 
0.8112253000797739 
0.5675186058862056 
-0.07589522045855815 
0 
0 
0.3416934074566911 
0.03866015273856169 
0.06052186243068179 
-0.02645083175512333 
0.2727245145591982 
0.0798465938104489 
0.2510352207187965 
0.03376791429143879 
-0.08739076277632594 
0.1979222357587792 
0 
0 
0.02198850518429897 
0.1826511337000818 
0 
0.01060436928124978 
0.02168937762144603 
0.1381998582572019 
0 
0.0009638931856840912 
0.3199751753810144 
0.2595009437857017 
0.1396730886108675 
-0.03447596745927739 
-0.9725870520000952 
0.003225551977110153 
0 
0.1007867629753426 
-0.005965770873850516 
0.1619231730788557 
-0.05829889722861382 
0.3085428731287373 
0.2690605589528161 
0.2703605403692821 
-0.1709541745037444 
0.05163806881832936 
0.224723297789038 
-0.0206402127803728 
0.1493433277521182 
0.5127691466308218 
0.1686335254316176 
0.1043383819842456 
0.02274065095255874 
0.08034449402594677 
0.1579865754045185 
0.1251917384882746 
0.1387871511614643 
0.1594526918085385 
0.1451761027764782 
0.4066978919218411 
0.1650145137087309 
0.02658252746046038 
-0.004224721167350598 
0 
0 
0.08823320538083526 
0.3240167655741201 
0.000461597698700226 
0.0003396208709122145 
0.01429585303264217 
0.02755481175279728 
0.0187887913931758 
-0.0244687466684008 
-0.01769146593271679 
0.02733196227589894 
-0.0772178035985025 
0.2709783834248841 
-0.02058457073911011 
0 
0.1915664752679109 
0.05076383009480014 
0.221644981926078 
0.002509735414399119 
0 
-0.01431158237014776 
0.3084529598026673 
0.003884339066271152 
0.09277066116574473 
0.7357364694663864 
0 
0.07631279746758897 
0.3723239760259622 
0 
-0.2756517722621659 
0.03620802129846665 
0.4986234279214144 
0.4973175219326274 
0.0203475628050436 
-0.03310615503847213 
0.06259863812357085 
0.5393627792960554 
-0.001338992405219627 
0.08528623006856596 
0.1411650777847045 
0.006122434633144932 
0.04353051942064076 
0.3021874941346868 
0.07472147122402475 
0.1876393373808037 
0.04015207464084518 
0.2200334128254113 
0.06876762268462926 
0.1297565345891753 
0.162376487139544 
0.146722643917319 
0.4010036392714337 
-0.06402356088604597 
0.01168520975327491 
-0.05016579540390687 
0.146113654033848 
0.000651844808259891 
-0.1047380532198431 
0.1608262888760982 
0 
0 
0.07761873794360978 
6.505213034913027e-19 
0.03099928213247818 
-0.06527614379642051 
-0.05873743844534141 
-0.3871522768684049 
0.09723836541675246 
-0.07116706713810106 
0.0004671675826144906 
0.05345054275610961 
-0.07510170536440133 
0.03904748458827421 
-0.4273357993168791 
0.09726389334827744 
0.157640954196084 
0.0279766647990528 
0.007842239600383426 
0 
0 
0.01383846070762148 
0.03978231558233887 
0.3162226351656517 
0.604549584819753 
-0.03323804084917655 
0.2334728541715845 
0 
0 
0 
0 
0.3487122421366456 
0.06982062491717901 
0.07678449121966238 
0.008352103272135408 
0 
0.2788226495533204 
-0.3474225098403835 
0.2683231945230228 
0.001761979379902644 
0 
-0.02300101995146149 
-0.04697127975963132 
0.02634047628358621 
-0.2182314454627567 
0.05540577266278936 
-0.6233379511316449 
0.2415488352898022 
0.1875267947981304 
0.004282446247112294 
0.004590653184022832 
0.1166453479559047 
0.0653608255617774 
-0.01206146839224959 
0 
0.06391557334879923 
-0.5910297824709584 
-0.009724873015544991 
-0.03443692559299805 
0.03364278072681487 
0.1087647091888459 
0.5300744579616098 
-0.0001561296132961659 
0.1387922815048021 
0.2628204807491885 
0 
0.01482040341068606 
0.05455717841045506 
0.1124341636848573 
0.2206878637433229 
0.09254473269969847 
0.3490516555580404 
0 
0.06529539963373107 
0.1606963288838807 
-0.02691693458240712 
0.1355821302128059 
0 
0.005974691403176743 
-0.01680342675106965 
0.3611501006877069 
0 
0.2332406990651485 
-0.01855416086702422 
0.06271007007715443 
-0.008940410544761457 
0.009918050215095505 
0 
0.06141646942170994 
-0.07870826955327236 
0.002008297284672102 
0.1724495844102457 
0.03079760106205132 
0.0725555744331446 
0.004822125315092398 
0 
-0.007539271708541204 
0.1888884858310219 
0.001571441558108648 
0.01397162532524561 
-0.3477940261215912 
0.07924706028968106 
0.1053347145798922 
-1.355252715606881e-20 
-0.08403469013150749 
0.1198336311466519 
0.07047669712200898 
-0.6882621857132418 
0 
0 
0.01682285784931966 
0.3621975904258593 
0 
0.008400391615053666 
0.05569177794757785 
0.09520709583074853 
-0.01153830467243528 
0.2675471781362966 
0.04082361539472411 
0 
0.1093912009942352 
0.2694332960391393 
0.005469659401691731 
0.06137758539457719 
0.03696551017778271 
0 
-0.02085799140993682 
0 
0.2937068347373957 
-0.02715103762614041 
-0.1572646253155725 
0.07235001883443463 
-0.5613850325962731 
0.1462020134135656 
0.1864377829105656 
0.1195921419004301 
-0.01826032850485619 
-0.00752474101496113 
0.04299470307859039 
0.03295184169851396 
-0.01228492062235494 
-0.01365816076412582 
0 
0.01651596746392961 
0.4640446813141264 
-0.4104113764748891 
0.04756970082044441 
-0.03435866504533822 
-0.2891835263602908 
0.2175530570793814 
0.1705367337899434 
-0.02870115499728248 
0.0004306200502715732 
0.02423047988098115 
0.3505477586318835 
0.02611947244680642 
0.06298765383115379 
0.2286470376571311 
0.2953372388846526 
0.0341188151762737 
0.01883524757504516 
0 
0.0009362584340957873 
0.1026374719660467 
-0.004710980461479175 
0.08457883861436397 
0.0750480052432335 
-0.6680789729963916 
0.03857740797961576 
-0.008935149806943755 
-0.02164035780688301 
0 
-0.06605295090780322 
0 
0 
0.3311256062822201 
0.2606256739176323 
0 
0.2850280409589505 
0.5026393475198212 
0.07325315870430893 
0.2171176085509532 
0.2650961836258383 
0.02300127797350219 
0.1187321120595197 
-0.01713890232341232 
0 
0.1285720390047736 
0.1348301304483847 
0.2553962667460161 
0.03418596363309422 
0.5702768974886303 
-0.1365954111046542 
-0.06724536463463329 
0.001793955395648859 
0.1437332744332475 
-0.0290368099835546 
0.0243269394331047 
0.112798368661131 
-0.05972716397966973 
0.2556306403459697 
0 
-0.1893718784904535 
-0.005732961175685095 
0.06505900182474203 
0.08019535171168782 
0 
0.2692711966402113 
0.3319620680488865 
0 
0.06177576793703317 
-0.2819111662037252 
0.01505698992093757 
0.09092173202983779 
0.007597130726230427 
-0.05158793292749324 
-0.0008704814007441443 
0 
0.128144771364211 
0.0008714110625130845 
0 
0.5306709583189195 
-0.6087637738355157 
-0.698527523435666 
0.2898009129715543 
0.05795571443743264 
0 
0.002651023822541406 
0.1567557919596519 
0.1019946293777467 
0.05065705891394036 
0.1703032955024459 
0.3052148129022168 
0.4148984430504126 
-2.168404344971009e-19 
-0.002326974901962967 
0.02446438365188632 
0.03996715546106022 
0 
0.2095903451096035 
0.02275929252042571 
0.03242886370587561 
-0.02541841803089056 
-0.156610820646437 
0.07289576111792162 
-0.6728854344714544 
0.005213673270977503 
0.2333677005949534 
0.001584743948624115 
0.02594176251995627 
-0.007256811111552057 
0.3013236536155239 
-0.00474037435769066 
-0.1560399131774562 
0.2182066531739532 
0.03540658578937174 
0 
-0.5398584994401728 
0.2175227145562555 
-0.02736654738333135 
-0.2178472429938168 
-0.05877349686227588 
0.000230266302931671 
0.119157391143473 
0.003801627588881188 
-0.0980254910582216 
0.1059764618785584 
0.4363689085158374 
0.2394573694553903 
0.1107438513255923 
0.08305131169073973 
0.1729210657933375 
0.2925461139502524 
0 
0.02835704917377591 
0.09251196491611083 
0.158391009184588 
-0.08894784054427538 
0.0487736257424029 
0.1347701757766078 
0.01278241799463645 
0.1424184071404815 
0 
-0.06146357099115293 
4.336808689942018e-19 
0.2718319669309214 
0.02882974492083112 
-0.0914722840016754 
0 
0.07399086521615171 
0.2416161587121927 
0.01599611033353377 
0.5863584779111272 
0.445997878008712 
0 
0.5391025554184893 
0.5031020283372617 
0.01847122699524393 
0.003624768205065282 
0 
-2.602085213965211e-18 
0.09674139110640066 
0 
0 
0.1471065726675923 
0.06809739625406518 
0.003669079621899268 
0.002268996018321772 
0.3408151269873365 
0.001765249825052148 
0.09013836016002559 
0.0002383122226096993 
-0.05124799993109194 
0.001760800816226391 
0 
0.5652320891988978 
0.07337175369759454 
0.08944732990792931 
-0.07393059179654975 
-0.1989043659159496 
0.03623369523655598 
0 
0.2857561503032938 
0.3472347193661814 
0.001913464779877232 
0.3569302245791371 
0 
0.3234162691298964 
0 
0.07786578079889729 
0.02493676495894208 
-0.04713688867002576 
0.03333782102372187 
-0.1218770890739659 
0.1063654396957641 
0.05212103267234707 
0.0008985139323646995 
0.1769462156967609 
0 
0.2092604820101641 
0.1604093713536051 
-0.01115441181794817 
0.09638789881204113 
0.07063730918409757 
0.06396005002831177 
-0.007150117263825628 
0.05866104836332935 
0 
0.0156124161360975 
0 
0 
0.6050669843833821 
0.01092152674490583 
-0.0349553778299691 
-0.03792080879210427 
0.3530921229877313 
0.08589489340269477 
0.02088122150988597 
0.3681324091260456 
-0.0008792669086425347 
0 
-0.08567217051876923 
-0.007793764954343235 
0 
0.04436297038773016 
0.05639769473811401 
0.2175395346274054 
0.04287334654469964 
0.247441898380407 
0.00867248781589313 
0 
0.07570452231190256 
0.04513837691614576 
0.01100468545599616 
0.005945634323602671 
0.03637594383556078 
0.05758411019645251 
0.02991052021326179 
0.001792089699245468 
0.101566204344908 
0.2401047929231607 
0.004057764011671148 
-0.3341799956816788 
0.006841791014540974 
0.05611005640339329 
0.03341012551686549 
-0.09106372047467416 
0.4051623453528182 
0 
0 
-0.1098755987023903 
0.01098355323252965 
0.3416979826435975 
0.1016309387450133 
0.01765265131203337 
0.07057611295387874 
0 
0.328451295587134 
-0.3100158709975507 
0 
-0.11182465272219 
0.2444984967532616 
-0.007445429284331781 
0.01754190726006384 
0.01146040298590672 
0.008530410226386688 
-0.3186840837224596 
-0.2359186257555255 
0.07538408995903802 
0.03383839992355942 
0.3109617792198948 
0.1249014925927194 
0.3456849059982829 
-0.0328759663846922 
0.02238143272865263 
0.06673217295545894 
0.3670566279562308 
0.01441118765207972 
0.0004773650569172594 
0.03067394797021907 
-0.01253170724313097 
0.233651130629779 
-0.01821277380146894 
0.0133884945309986 
0 
0 
0.03603252075389693 
0 
0.5241256623211262 
0.1395471240257747 
0.1354344254263138 
0.1281554461013477 
-0.105314505123583 
0.2199935204006438 
-0.0180137169823739 
0.2089469330734117 
0.2000291677106706 
0.0008989676081063813 
0 
0.01530356699031974 
0.1058416467570889 
0 
0.3970250330130617 
0.08462706308156878 
0.002215051081157538 
0 
0.3825169046588001 
-0.06806002217322966 
0.02935876181075607 
0.1667251695112199 
0 
0.04620436970934324 
0.12279908979734 
-0.06561278624833476 
0 
0.1795013986420872 
0.04063548533350105 
-0.00869610912220788 
0 
-0.114707803747037 
0.05255455765305857 
0.05328390971410449 
0 
0.00330641391540631 
0.09646306224215656 
-1.084202172485504e-19 
0.05560943021269994 
0.2164338701040902 
0.00629293671041081 
0.08202982488592986 
0.007112210205684028 
0.06078445139436596 
-3.523657060577889e-19 
-0.04701839929924344 
3.469446951953614e-18 
0 
0.3604692909971227 
0 
0.2791042518323468 
0.3690151539764205 
0.1958209831477671 
0.2400547988990737 
0.05130490545079278 
-1.084202172485504e-19 
0 
0 
-0.3987923288467821 
-0.1526171308643716 
0.9918657143759901 
0.01713108563145183 
0.07897653221305526 
0.4951908852658868 
0.002389121232271676 
0.5075980387529789 
0.1030394055124781 
0.966239190968526 
0.1100546034918634 
0 
0.1536326062785692 
0.008207515426953438 
0.01880157967656881 
0 
0 
0.004656894346268419 
0 
0.09610959010874631 
0.09482336498555334 
0.07742923129450587 
0.1181610369067407 
0.4670119673586861 
0.05690680562393971 
0.05481015118607229 
-0.192608381410907 
5.421010862427522e-20 
-0.02956206627007331 
0.000904447165548604 
0.02381503982550661 
0.146838794109334 
0 
0.04523250844570669 
0.2487739502603151 
0.06699604064686715 
-0.1467148972160162 
0.2230462367097938 
0.06773420460161235 
0.06375793316025109 
0.08919091710020061 
0.02251799407048707 
0.2152570794969416 
0 
0.03966058880383801 
0.03078054029934357 
-0.05009834901703909 
0 
0.07440339490789272 
0.08228099482324804 
0.002732601048526558 
0.3411361614447845 
-0.0917613111774318 
-0.1474878561911263 
0.02432756420401902 
0.3438410351594873 
0.05494976474892004 
0.07432253262614605 
0.003690204872399365 
0.04935750285535236 
-0.003771804749064423 
0.02325290516011946 
0.004791311154580171 
0.01240567778213051 
0.02398546090780559 
-0.03847888550556137 
0 
0.004215433571081393 
0.1071259984764871 
0.05438886370729991 
0.2487321101490473 
0 
0.1927027014820701 
0.03559378954422474 
0.1707604209600986 
0.0007430453870190635 
0.3047232884966256 
0.002236828551855836 
-0.05133511577845546 
0.4637201289898041 
0.2125279126027488 
0.1991548273056784 
0.1179924530682029 
0 
0.104393422402663 
0 
0.1278348130704889 
0.1545033309850281 
0.01956822067925675 
-0.02586645726054953 
0.06203600030727784 
0.03519880350610847 
0.03359803695520311 
0 
0.0877337754258086 
0.1499242088634055 
0.02141984944552888 
0 
-0.08836390221725776 
-0.1667029722356664 
-0.008402393131117982 
0 
-0.04187430397255736 
-0.2795065848891021 
0.02242812646622026 
0 
0 
0.06189027659419331 
0.0077622782480097 
0.0209417954050015 
0.1480511673308715 
0.5012001478014074 
0.0643788193541056 
0.4835321273901718 
0.8345223383335874 
0.04185123664538572 
0.01991151308282309 
-0.2694110910386891 
0.004320136577970061 
0.6267961138777122 
0.004790077478945167 
0.02106048948231436 
0.01626907277125532 
0.06238382742240949 
0.1209536110444504 
0.1142983087729148 
0.0744998231656834 
-0.4999473679618296 
0.00304997433637331 
-0.005700994757615669 
0.1936229401604067 
-0.2287010192243871 
0 
-0.05169603047377724 
0.06302062342663456 
0.006245298667713047 
0.006583051309226035 
-0.4414532007784971 
0.01593039090063618 
0.1483456999264413 
-0.02669949508432023 
0.4520720743111017 
-0.008545620228141126 
0 
0.2780197173729161 
0.02490344671370071 
0.4217399415924549 
0.06993186750295645 
0.01205201702165359 
-0.004156400585087382 
0 
0 
0.006530727839893474 
-0.05888898767984906 
0.07346285932522491 
0.1124757850160802 
0.01836769270799164 
-0.003021309620495373 
0.2472825871242555 
0.1222505336917078 
0.1311794605485139 
-0.004245435135045742 
0.002012003773407693 
0.8727558588755259 
0.1966235739462406 
0.005983431280958011 
-0.03233165163503796 
0.2693254242937533 
0.03744668712026961 
3.469446951953614e-18 
0.09925634268354051 
0.2571168385238409 
0 
0.02855043266391746 
0.4667277662355762 
-0.04591745038922389 
-0.130260330957522 
0.01674348824788703 
0 
0.0390297107436221 
-0.02522122838779197 
0.08223374499753822 
0.04130016417349412 
-0.1715246931483873 
0.005455797767026484 
0.04344912607219222 
-0.5850360769228461 
0.02558649740586373 
0.03022882131366435 
0 
0.5956928465713769 
0.05128033194840111 
0 
0.05399578901003473 
0.004695789990822334 
0.04741531697880805 
-0.02363759823096414 
0 
0.007900727321549466 
0.02095712524861581 
-0.4211070183075609 
0.1593633307278216 
-0.0287851534379052 
-0.003247993962840902 
0.1979994502182497 
0.003979245670744483 
0.08471459056080911 
0 
0.2287782315330125 
-0.02538745102448829 
0 
0 
0 
0.1690280659930762 
0.1653783419178161 
0.006456289649528297 
-1.112380496546593 
0.0007730210815031898 
0 
0 
0.3830672995636545 
-0.07603088480454628 
-0.0531123722361433 
0.1355540329348791 
0.01837761889156913 
0.0538509117328291 
0.009724652747330918 
0 
0.1848767356572189 
0 
0 
-0.1285490674628909 
0.176197543879258 
0.1093361788877214 
-0.02817558800817111 
-0.1218530349857974 
-5.692061405548898e-19 
0.1325698733900239 
0 
0.2578915253592147 
0.1369959458868344 
0.009478687561460376 
0.003696364097441851 
0 
0.1315583481782371 
0 
0.3299977461234405 
0.03527803261716647 
0.08390082193066438 
0.000832772559938829 
-0.02207164642642672 
0 
0.1230249641708152 
0.2664281838428589 
0.2060350080639907 
0.06780574277585939 
0.0001035809937097744 
-0.01424117471277272 
0 
-0.02999632823183917 
0.01762267511817988 
0.1997076911060167 
0 
0 
0.1202029069112668 
0.1191130001672729 
0.01651599117066431 
0.1654357743100848 
-0.8922482853642663 
0.04144851444699271 
-0.04390932770255793 
-0.02819001929415626 
0.08722285048755389 
0 
0.3017260085950839 
0.2807045607863626 
-0.05536546696732787 
0.1104147923360059 
0.3407162088628626 
0.04709290561240953 
0.004994716574194473 
0.151257035148504 
0.004906080839500315 
0.5405516337974069 
-0.0213395013710735 
0.01403946555718639 
0.008371699127586476 
0.2190935349001832 
-0.4995579984700157 
0.05332317918983846 
0.03859805726500639 
0.01229761197064955 
0.003420819409677162 
-0.07214139378257024 
0.01846558713841551 
0.4387407346841194 
0.1296393603737513 
-0.05639268337245532 
1.016624011535838 
0.3486885883578383 
0.07496299475344423 
0 
-0.2519104272194001 
-0.2282883455889321 
0.1535007912169445 
0.1811063655797991 
0 
0.3285976566541277 
0.06827501213837932 
0.008201331250892618 
0 
-0.1654386290172612 
-0.01414771347164704 
0.03722189997524795 
0.5838170984481933 
0.05069260304472246 
0.2190569753583824 
0.1853827900253637 
0.05705503470688712 
0.02973021254213619 
-2.168404344971009e-19 
0.1006948768035694 
0 
-0.02740337748119723 
0.1039811056879598 
0.04562706416316913 
0 
0.2323934224042536 
0.07247400753285764 
0 
0 
0.04086375802587341 
0.4685129998322052 
0.03892495308042798 
-0.01808848301113427 
0.7373910539580484 
0.3538910088154736 
-0.01421021136314068 
-0.4051790583067837 
0.02123345496003627 
0.08853102393423158 
0.06978669165252718 
-0.005960688222716632 
0.1617282242921272 
0.1711681688894754 
0.4345421488559547 
-0.00894080343052607 
0.5006649459273136 
0.03666421102928782 
-0.08679433633356594 
0.07638589907468904 
0.004436889820933174 
0 
0.02761733027418399 
2.710505431213761e-18 
0 
0.007437508399859352 
0.2032006511061931 
0.1559064155426411 
0 
0.05028024230995329 
0 
0 
0.0128286823814592 
0.1635574557337462 
-0.1047975069634531 
0 
-0.2453109527022599 
0 
0.0428971660364647 
0.01338889964507088 
0.2277869891145192 
-0.02430367087236315 
0.04985294295134496 
0.02608451437100184 
0.07804524729563068 
-0.01080390131893736 
0.1298723825856807 
-0.01939855837284352 
-0.05756917395302073 
-0.01555121354140318 
-0.00613512853283747 
2.981555974335137e-19 
0 
-0.1362178855291327 
0.07330876695943152 
-0.03754458346659294 
0.03796578594073842 
0.01370125169280218 
0.1105113548659071 
0.02053383172699934 
3.252606517456513e-19 
0.006222425762696973 
0.06613045742085855 
0.1586436609563106 
0.008152102768980308 
0 
0 
-2.168404344971009e-19 
0.01849195839881881 
-0.02683787481425033 
0.0445715734974205 
0.03712319398228615 
0.02868328133159559 
0.03326889582729305 
-0.05690295088441751 
0.8943697787764595 
0.0304198884702244 
0 
0 
0 
0.03117197774898075 
0.5397378475354102 
5.326055570918307e-05 
0 
0 
0.07840611482292573 
0 
0 
0.2263065137778867 
0 
0 
0.3911444389021034 
0.1846772356532799 
-0.06943471909316193 
0.0963016986046001 
0.139806746208394 
0.03926597027389967 
0.009908088506577196 
0.3393285680572051 
-0.06159368944588176 
0 
0.0008269170278186924 
0.1912462067729878 
1.17238190882266 
0.01577323021390296 
0.1701250572951208 
0.001998860940837279 
-0.04037618996122063 
0.1743219024217499 
0.04852887752484557 
0 
0 
0 
3.794707603699266e-19 
0.04598946556778453 
0.3233471034201858 
0.03817356710216181 
-0.1236710339254218 
-0.02582263419632653 
-0.01224274693919291 
0 
0 
0.0125654142747925 
0.1056526464237558 
0.08373878969939089 
0.04089627049925076 
0.005113407740921988 
0.01403579000003148 
0.03440317460033538 
0.4044988969128705 
-0.001364093856148551 
0.1114607339818268 
0 
0.3236148180900362 
0.01335471580355976 
0 
0.1720061948488153 
0 
-0.06647245531917054 
0.01228025284357597 
0.008998788757118025 
0.07554882893670418 
0.01294389606051774 
0.07432671198599884 
0.9100973911646664 
-0.0621497149498687 
0.008949947557078345 
0.1109162725220546 
0.01152710782728138 
0.09067013938546123 
0 
0.02112232952653722 
0.146537882339852 
0.025482000834091 
0.07139171054314332 
-0.1460586700655698 
0.1364422903328142 
0 
0.2382907712880405 
0.05610151223501761 
-0.07280558415239412 
0.01306273521535182 
0.2101642242344964 
-0.01904360182187158 
0.04607481516599738 
0.08378702817416347 
0.001038451070374302 
-0.01250322552782537 
0.332780326453938 
0.7687729983915974 
0.019740604722877 
0 
-0.02443808153428531 
6.776263578034403e-20 
0 
-0.02141253852994473 
0.02220102325300907 
0.05726202181653474 
0.009870465635269467 
-0.009387393371458811 
0.01600062600090911 
0.3814949158632447 
0.1086051048530661 
-0.04238940052339275 
0 
0 
-0.2531618246471533 
0.289404750416003 
0.03119570895754218 
0.22465505818898 
-0.09272738607977023 
0.06205615976879503 
0.08946455222901332 
0.01650194289101972 
0.126909718455775 
0 
0 
-0.05143600471463385 
0.1199828129301324 
0.003819037335907162 
0.002427878227381251 
0.1200074581315894 
0.05600072011830232 
0.09519207307390275 
0.3770008832409894 
0 
0.4220970088524885 
0.1977441686358102 
0 
0.03584243053730436 
0 
0.1320737312066765 
0.02524863523217713 
0 
0.1545506893057945 
-0.040754811282032 
0.6412659534405653 
0.07171974042147725 
-0.1049288161515295 
0.1523347823306742 
0 
0 
0.4023840492495824 
0.2914575928671642 
0.002454140328032332 
0.06870470431739641 
0.2563441161475671 
0.1603213961571591 
0 
0.2966543345674109 
0.1103333235153002 
0.02988650077844884 
0.06609647856687847 
0.3206787699929636 
-0.07123719050065873 
-0.1010151198776752 
0.196211470003188 
0.02010702515373661 
0.01174322322552165 
-0.05982876543589185 
8.131516293641283e-20 
0 
0 
0.07136271346875223 
-0.03988485802423276 
0.406776681844759 
0 
0.03601686633861056 
0.03910732989961325 
0.004691412138535071 
0 
0.1309619104471612 
-0.05973578056964385 
0.0789613788288141 
0.03894825662620606 
-0.1247744160770105 
0.06285513391447095 
0 
0.07142625411767421 
0.01682878778211785 
-0.1720583081978631 
0.08368759159643641 
-0.3246290246720021 
0.1039446877945299 
0 
0.02081463352154976 
-0.004034485974993771 
0.03545918955224197 
0.04720000765676362 
0.07539350587455902 
0.2643843287187888 
0.05941643323572441 
0.01936393761263427 
0.09518945087238778 
0.1014915609728802 
0.1890738359356085 
0.02065197227319826 
-0.004393936182770444 
0.03389477958608479 
0.02218817669641438 
0 
0 
0.03667659521029912 
0.03040741847819362 
-0.4098952529740419 
0.008620044020617168 
-0.03694819085712141 
0.01559411624557275 
0.2847733221701308 
0 
0.01339334617927913 
0 
0.05501552407659974 
0.004507318258440562 
0.07654834741341258 
0.01705412717519243 
5.790256714137643e-05 
0.02371614991708216 
-0.06899846978828034 
0.1608098469913908 
0.2135282515676718 
0.3272938881019072 
0.05260120202015978 
-0.05017208659358016 
0 
5.624298769768554e-19 
0 
-0.1416947513452605 
0.2640044916030307 
-0.06447122724081679 
-0.002616806558777685 
0 
-0.03114392390949538 
0.01455379107577918 
0 
0.01552688556531507 
0.02170609244639808 
0.03774536749014692 
0.01104590115636406 
0.01603199128248344 
0.3182757565385763 
0 
0 
0.03885601990368368 
0 
0 
0.01977000848834247 
0.1671515596153512 
0 
3.69301551651901e-06 
0.1108397716619832 
0 
-0.00303371856135318 
0.2535097328269187 
-0.008844118992909449 
0.01064352595791203 
0.2300695802767806 
0 
0.1957403304574096 
0.04433645717814675 
-0.01017511838600379 
0.07434897503828647 
-0.218760608399839 
0.006590322749859805 
0.008725512245892922 
-0.02154737871975135 
0.01391370940666855 
0 
0.02050481792844929 
0 
0 
-0.02630643502444763 
0.1078191207878705 
0.03293379610199544 
0.08203353925433551 
-0.01945526209968359 
0.07996312656506029 
0 
0.3214852448498943 
0.08804736335730831 
0 
0.03331536458597895 
0.1130719877528279 
-0.0009020064684196576 
0.08827200367375931 
0 
0.006690945559630047 
0 
0.20070355865824 
0.004583810224420369 
-0.1044715164194256 
-0.2982477229977119 
0.380906704069671 
0 
0.0275493898236786 
0.02134530582736257 
0.06692243809301886 
0.02965818821292515 
0 
0.1208136018233486 
0.1208718123532655 
0.1911345314838349 
0.003246132344992792 
0 
0.08465246742661808 
-0.205471244448817 
0.05997945813096638 
0.004968076278487144 
0.151043185717103 
0.4384202789162988 
0.1114384627537618 
0 
0.02219691907286151 
0.06124977621622722 
0.09183536174471307 
-0.02421558649760204 
0.2997474825174641 
0.0009516682190743387 
0 
0.0317868726522138 
0.124542395824117 
0 
0.6424090144149409 
0 
0.05525433026598683 
0.2294324077021374 
-0.00157389737642078 
0.14883554618642 
0 
0.09078063482229523 
8.131516293641283e-20 
-0.01130815822399864 
0.001991705327802828 
-0.05574204429699386 
0.2020348520407972 
0.1508999947260362 
-0.06283888352409361 
-0.005867951066815155 
0 
0.005113859608969521 
-0.01374997025793511 
0.006786592368268967 
0.2104971827561028 
0.01016304540296722 
-0.008850941813740139 
0.06179854476347561 
0.02386059639206713 
0 
-0.04386610792434214 
0.1216685335750669 
0.01885146767259387 
0.006573400415515313 
0.001192306517648307 
0.6273164158636199 
0.01393258868381712 
0.1020055489531306 
0 
0.05407782660269265 
0.005143438048709006 
0 
0.340434930065948 
0.05407157907543395 
0.0360542242348423 
-0.01632628400397658 
0.03582149040042724 
0.3587418555233109 
-0.1399138075481592 
0.2084043462435653 
0.01861611482503266 
0 
-0.7858163031377453 
0 
0.01086485661217152 
0.03293742126899655 
0.03297295074404902 
0.005806283976716385 
0.06843523479008239 
-0.03294865550606848 
-0.04079752747677481 
-0.2603919803853654 
0.005884001126741297 
0.0145107355389229 
0.03669613537675052 
-0.1428455829851945 
0.1829660926394193 
-0.2976282951830791 
0.1193955176587256 
0 
0.03207788777332223 
0.0143434611380043 
0.2185090119899974 
-0.07786173728898768 
-0.04688647134002222 
0.1820080942090357 
-0.2145970306283271 
0.08148520775929585 
0.1484259893498258 
0 
-0.02820925682934788 
0.07143677845511792 
0.07656163927458792 
0.3143009641918548 
0.6187261335226159 
0.01296451104931814 
0 
0.4408332790638262 
0.01111131853438783 
0 
0.02338825947141311 
-0.02770829837969201 
0.06323559909027951 
-0.4394043915673753 
0 
0.07499878504371314 
0.01867336233604506 
0.002414192986009641 
0.1012803011652158 
0.2933475366452468 
-0.1150245700817063 
0.1393609292859286 
-0.001132827878005459 
0.1577734315519713 
0.01379140137630578 
-0.01524998487254115 
0.1179254523447027 
0.4543141647534817 
-0.2183053979864958 
0.07132977629160872 
0.06411995974948026 
-0.01613561038536227 
0 
0.07452039617463035 
0.01035142123981853 
-0.05349481580879932 
0.04943857053513898 
0.04811296176571319 
0.01853173427591604 
0 
0 
0 
0.142039123578561 
0 
0.2112974453110195 
-0.1203284087570929 
-0.1614791393912986 
0.1050162084890479 
0.09170262813154356 
0.006807504625235634 
-0.003603410151795734 
0.0008242666187345129 
0 
0.102224718333048 
-0.01544963204678331 
0.0534145810253115 
0 
0.0713981281539928 
-0.2277069155570638 
0.09976778115083028 
0.04094730106463953 
0.02547267703851495 
0.05429318189501788 
0 
0 
0 
-0.03554083482791393 
-0.02476557612987145 
0.2440343262433988 
0.4112181254573492 
0.01635904748813227 
0.0124068369149938 
0.001766353993632612 
-0.09935279550254938 
-0.09344981539651201 
0.244307721762882 
0 
0 
0.06456854710304377 
0.08795095676764454 
-0.01009592417310957 
0 
0.1070064829690454 
0.1103062628699488 
-0.07687157294203416 
0.09129352408622567 
0.09762242371358393 
0.06945033449979253 
0.3089482280667902 
-0.1288926898456159 
0.1728641746243833 
0.1573695689922109 
0.03026154793466625 
0.3861256448482194 
0.1390302056968668 
0.08743192282024825 
-0.011113553904677 
0.0664115747289095 
0.7793297229595091 
0.09337671616393654 
0 
0.0846052659268529 
0.1715882235464714 
0 
0.6107978792826501 
0.2426304668384258 
1.084202172485504e-19 
0.1985125909205162 
0 
0.3035543000298592 
0.04701496412141872 
0.02292627779277579 
0.004455278278513096 
0.08037682385944107 
0.07040288958126532 
-0.001830148867580956 
0.008739666353903256 
0.1919416461488788 
0.005075478023578705 
-0.5531833115670389 
0.0180078650669867 
0 
0 
0.01449979990830935 
0.0419719220653095 
-0.01094782232174547 
0.1612914393948187 
0 
0.0223017863979898 
0.009857329679447547 
0.02863277752704101 
-0.09387041508975633 
0.2680378305834019 
0 
0.002056807236507177 
0.04424452534001223 
0.1360931413620828 
0.021145106363593 
0.03768750854432901 
0.01317407462503749 
0.1726250992548846 
0.5812818483130361 
0.2876645318158628 
0.02518333789334517 
0.00907512115656943 
0.01618188225237724 
0.02699710183346558 
0.2069394865094964 
0.07731822191780589 
0.008945388539800149 
0.004793280558442415 
-0.01224428550776034 
0.008402276127470444 
0.02157829987682292 
0.5213186492609245 
0.1632620056723743 
0.1293694642589168 
-0.0105678168213037 
0.1391044842872341 
0.2155682262283161 
-0.1996469287249913 
0 
9.092243126942488e-05 
0.008183238352427818 
0.4757284806820763 
0.00950479126894241 
0.005696871742348045 
0.05271118590922325 
0.05016108874148825 
0.00724612699810584 
0.02076604282327298 
0.02922693536224575 
0.0002938516373179782 
-0.4263744021809044 
0.01760616977194609 
0.008776591350546838 
0.1003006930612362 
0 
-0.002015831632633075 
0.04226711252140932 
-0.3645964417279751 
0 
0.006766641932807466 
0.1765678403091117 
0.02437146161219624 
0.2781484654304238 
0.03369196251493931 
0.1121117125571668 
0 
0 
0.01167775679036543 
-0.01235390873173132 
0.09815219804463056 
0.06806027837296953 
0.1876867621919056 
0 
0 
0 
0 
0 
0 
0.03180735883077031 
1.626303258728257e-18 
0.0330901980303455 
0.07199395710926498 
0.1085169662190658 
0.007541914505906728 
0.02957543818237297 
-0.3102970366093178 
0 
0.002484912692913555 
0.007719214786181988 
0.004974104404669778 
0.02875134174243183 
0.001050652366865825 
4.336808689942018e-19 
0.03279971193580455 
0.05463629129580311 
0.01077365016245813 
-0.01334132331222982 
0 
0.03163394371746489 
0 
0.09332993809061647 
-0.01369401106885896 
-0.005757762771042277 
0.5002521248744833 
0.2262135333225927 
-0.009392822922765111 
0 
0 
0.003363327945076519 
-0.07016326882062168 
0.009514976915562632 
-0.2587422893011654 
0 
0.01904114065804374 
0.08716685370510102 
0.006534589568515332 
0.07899137718975914 
0 
0 
0.03211116436626986 
-0.03375042040310383 
0.2069744233861108 
0.03680179957395375 
0.03403447984260651 
-0.07670799890147043 
0 
-0.1047343687212498 
0.1548811806750069 
0.006366899226033612 
0 
0 
0.1374827075860554 
0.07050102126319946 
0.01265752051119428 
0.08607686069276592 
-0.06838491031446489 
-0.01979079899693548 
0.2726932314862593 
0.09034767491823036 
0.08066580148451372 
0.05139561936655745 
0 
0 
0.02324751180506754 
0.03851888858569219 
0.381586781181837 
0.4754439646554916 
0.2472652768034704 
0.1203115057732251 
0.5809662903563571 
0.03323030202860842 
0.05495266665695112 
0.03836598496798353 
0.1135681989127887 
0.1750487162829889 
-0.07456080000949195 
0.01239814800573693 
0.1090830437868343 
0 
0.7090788367067536 
-0.161268287193622 
-1.084202172485504e-19 
0.1676036979407845 
0.002891635005022099 
0.07791261289010067 
0 
-0.05142853061153742 
0.1180135022185211 
-0.07530248633868807 
0.2497636235317936 
0 
0 
0.01628924458871546 
0.02378347394261221 
0.01281417142135345 
0.2894336009071263 
0.01981883343003962 
0.02269166873579073 
0 
0.02622183786309747 
-0.0007960236435077918 
0 
1.355252715606881e-19 
0.01460059038369268 
0.03372095005722849 
0 
0.2538439351185782 
0.004269172483939404 
0.1311838025154693 
0.003650849233848152 
0.44427810556495 
0 
0.07615928900389955 
0.001626003856768698 
0.01324098423935855 
0.02637963656937183 
0.4109321542872003 
0.05692557911759457 
0.009783015838762663 
0.1841589788514398 
-3.564314642046096e-18 
0 
0 
0.07387299625446374 
0.02163994111812769 
0.00157137498792533 
0.1619061689921455 
0.005012061241428859 
0.05145862576508149 
-0.1449473289686897 
0.1636519780922848 
0.02028718142658845 
0.05054190686094559 
0.01272896339331804 
0.05307481531766024 
0.2135579358991194 
0.0007445028284984655 
0.1646131529824978 
0.2677021175146339 
0.3552377640016787 
0.4370726231789888 
7.160798134509321e-05 
0.05371123671506202 
-0.02464898464321764 
0.09930535684094977 
0.04354527746640375 
0.6626097931356496 
-0.02170224031047553 
-0.03375773109041229 
-0.005617974810108814 
0.0001915862715990959 
0 
0 
0.279382727364531 
0.09409510777192105 
0 
-0.1227433938664363 
-0.003909632096496448 
-0.7626955635394902 
0.02405540533566304 
0.06504173282897732 
0.01088576595331511 
0 
0.01737710350010605 
-0.04479623224120064 
0.001300128066564005 
0 
0 
0.03027429724933767 
-0.08375492557090503 
0.08237343285842239 
-0.1923119048192525 
0 
0.138511191523084 
0.0767430649376364 
-0.01950058230053178 
0.0005911160138231385 
0 
0.03068231364540544 
-0.1644186114991973 
0.01952278793467552 
0.03302419633938724 
0.03179097939587345 
0.01561992950417048 
-0.8318659898162303 
-0.03432272828838492 
0.2825171569922423 
0.0123335868372152 
0.05432417616071148 
0.2062839570413823 
0 
0.2435038657526732 
0.5652104796177391 
0 
0.03381256351032605 
0.1111648734679772 
0.04582527846227454 
0 
0.2452906583695697 
0.1018169811379059 
0 
0.001388566328606286 
0 
0 
0.01818345266819349 
0 
0.02890130152529222 
0.0763764399102001 
0.03541270076300562 
0.005433665398487559 
0.003349772521899397 
0 
0 
0 
0.003838370657551392 
0.06781267303687556 
0.02090162379186873 
0.02552096152554597 
0.0054526323128333 
-0.01550777805802971 
0 
0 
0 
0.04403773579910467 
0.090169559570352 
-0.05505071816267779 
0.03031989049517159 
0.2632029909905442 
0.7053247193982781 
0.1212025132280624 
-0.2042529741349698 
0.06227219226995937 
-0.002513097094237963 
0.2727909579608354 
0.4233507959155365 
-0.003577672255889779 
-4.20128341838133e-18 
0 
0 
0.0002624368841994497 
0.01403453215101404 
0.07477038665901466 
0.2162345682298122 
0.05408295939311647 
0.04215945103859439 
-0.01321370767486151 
0.03931291530439116 
0.2673531385007042 
-0.02669007058633146 
0.1835054270682889 
0 
0.04568327903213509 
0.1466319305166571 
-0.00921326026755805 
0.02583069791445945 
0.01217845368132533 
-0.15343747881986 
0 
0.0003347835560715177 
0.04134233950848031 
0.01140126372874753 
0.007122432347320498 
0.01497646508790754 
0.06407378800763797 
0.1633105638299095 
-0.02768036682936292 
0.1249881603707248 
-0.04951451183655645 
0 
0 
0.1894701638545509 
0.1265659614143538 
0.07985472908758212 
0.1676129756175509 
0.05112931455540002 
0.007528170475914617 
0.01596012906790776 
-0.002581872880491882 
0.06024947061266266 
0.1316928005896241 
0.05340082756093899 
0 
-0.01593398976633426 
0.3460578155230578 
0.5330206938675492 
0.3522039343091478 
0 
0.2308280327460647 
0.001963416976212051 
0.02770465177480973 
0.04530092038715076 
0.06364814441992431 
0.007445417487159886 
0.02376684214663124 
0.1568473379023552 
0.00446365539443331 
0.1542977320639611 
0.1449816991765964 
0.05417766926024946 
-0.08813396092225489 
0.02347707560544253 
0.01142744017973638 
0 
-0.1122580534476954 
0.03364731145103394 
0.1086312463649844 
0.09986516657237578 
0.03032307275296932 
0.0244407693381507 
0.002090706847627478 
0.4306746387344396 
0.136607950463836 
0.02457853649954669 
0 
0.2110635179118321 
0.1990536242354766 
0.004743026667578199 
-0.8332054472950283 
0.01280718840009959 
0 
0.007723479446679875 
0.2055782747816348 
0.00343844038087999 
0.505385769546855 
0.002651489283045481 
0.08396359629536201 
0.128443511527767 
0 
0.01619861565178182 
-0.001983659626804381 
0.1806763228929197 
0.001902119653819452 
0.01659462183448868 
0.06843294505681936 
0.04212883861151474 
-0.006058583112133391 
0.3008535338277771 
0.00345835902270053 
0 
0.004092692008783267 
0.1227360171502384 
-0.1353788324456196 
-0.04477164607749522 
-0.4403749093807532 
-0.07072233885286508 
0.1741926854118897 
0.03863134354722914 
0.06184340926628851 
0.4669248203024528 
0.4785452180805261 
0 
0 
0.01997406247262596 
0 
0.02952775494939518 
5.421010862427522e-20 
0.01338273262074576 
0.02544916602339831 
0.0113748171929597 
0.2838426915939442 
0.01166535454535865 
-0.4440047687702995 
-0.05842923485552371 
0 
-0.4440047687702995 
0 
-0.03991533211635027 
0.3759149203525085 
0.0142306218475846 
0 
0.636924311180648 
0.03346761025615982 
0.03977208830414625 
0 
0.2292118213324332 
0 
0.257142159438299 
0 
0.02375410232713971 
-1.130378247917288 
0.4447871772358242 
0.1134743092862799 
0 
3.469446951953614e-18 
0.030453517464752 
0.01043592020957175 
0.04905834636259201 
0.0140953808849256 
0 
0.1416839191531407 
0.1031806457566473 
0.06045461927059004 
0.004112194272240604 
-0.1093666806616497 
0 
0.6615552063585843 
-0.0260439499886713 
0.002656453069091813 
0.1697777914361029 
-0.1393503179748504 
0.009088973202171797 
-0.09834991005737931 
-0.07089700489272889 
0 
0.001922720337262417 
0 
-1.084202172485504e-19 
0.02771483973957187 
0.2797607444021796 
0.1030768199633242 
0.3881768102662638 
0.2735592965678537 
0.0313478186402866 
0.07792331014119358 
0.1449384261327779 
0.1977053437848005 
0.003986633470343687 
0.002512147777636184 
-0.03737957791204395 
0.0104455270842679 
0.02113723158621113 
0.1280296203157984 
0.04098571496995585 
0.06642588803158639 
0.4334375963489401 
-0.004060397059274087 
0 
0.003643215075518764 
0.1008772875143494 
-0.03792861534154045 
-0.006748833247578414 
0.1937562887711922 
0.02414698471410955 
-0.03690646087027885 
-1.084202172485504e-19 
0.05047953034083324 
-0.3077311087306214 
0.06266151545783871 
-0.02418633181204872 
-0.06094059468900555 
0 
0.008242023387290274 
0.1755956899612911 
0.187223392261879 
0 
0 
0.02190782840766414 
0.01441888052386054 
0.0107844844746357 
-0.1118810237722843 
-0.03791887007067524 
-0.01251427742764192 
0.01626694313302959 
0.2286190515422423 
0.1579777439074452 
0.05000265935766023 
-0.001511628406600093 
0 
0.0092077834413768 
-0.02485903312944182 
-0.2913246811411375 
-0.6776653853444971 
-0.4802535743960575 
0.004433492427825121 
0 
0.02741468510944604 
0.002419629763909374 
0.0005207187239062718 
0.01147910518622016 
0.01603724382864699 
-0.6495478441490379 
0.05755424073640778 
-0.06600177437691522 
0.05307899022610828 
0.1231547148417788 
0.1309943873619467 
0.007391084610066254 
0.03168064222447015 
-0.7234800159337238 
-0.01644592431540046 
0.03660306556329404 
0 
0.09743633828106096 
0.008185352699078425 
0.1405770158898791 
0.04985839147386647 
0.04377958417949861 
0 
0.01136758731186194 
0.01443753138602813 
0.02070189306186607 
-0.4685200435642513 
0 
0 
-0.02486568902292691 
0 
0.01423176072314507 
0 
0.0784637543608447 
2.168404344971009e-19 
0 
0.1917933433131599 
0 
0.02525763876798431 
0 
-0.02494692053025795 
0.003060722823500868 
-0.008234352721897891 
0.06741226362971908 
0.004979556625405853 
0 
0.02713087694883597 
0.2121175593767252 
0.06145164882841834 
0.01559378009368153 
0.07328807298514528 
0.1922615777042492 
0.001172941444001598 
-0.008463346389451343 
0.01410041031818689 
0.3408688614134108 
0 
0.005855419618766506 
-0.263031674064366 
-0.09137844887192684 
0.6644066578217243 
0.05091144502323036 
0.1402751945426292 
0.06169602428506727 
0 
8.183536982850821e-05 
0.007867043967430251 
0.02627561064479957 
0.007836366095110743 
0.01627591486999815 
-0.06236603571561161 
4.336808689942018e-18 
0 
-0.4037718382949597 
0.055414078348528 
0 
0.1443199312175213 
0 
0.1226117079394165 
0.01564661740604729 
0 
0.00353543497506355 
0.06066975402562753 
0.004793713170081879 
-0.008709964670741756 
0.00684395158802586 
0.2345384262710801 
0.05056605241998375 
0.01038884354631517 
0.053611032743607 
0.006905845539683079 
-0.01588643526002105 
0.2930158339130443 
0 
0.004817370737657686 
0 
0.03583548774682929 
0.04272250255002666 
0.07553892076302493 
-0.0500659790293527 
0.02685616159646463 
0.01768935950201093 
-0.05760452769024486 
-0.02476705189853286 
0 
0.01761947044996475 
0.4035158674534163 
0 
0 
0.04396328160501064 
-0.01527319346405649 
0.001440648008734162 
0.04066966406149197 
-0.03674916754630694 
-0.03403420258094523 
0.06590481513549874 
-0.005902705291749413 
-0.02340990112020534 
0 
0.05256182416166712 
0.08780351203311719 
0.2036798741850328 
0 
0.05467189676546962 
0.1999501811639904 
0.02050733067202133 
0 
-0.435683443369363 
0.03880004187221139 
0.2521960065225299 
0.1318412734661664 
0.02101183952823276 
0.01535136588678658 
0 
0.07813661267906052 
-0.08657189178572722 
0.05385374611134627 
-0.001819429240471096 
0.04533395861850778 
0.03086047294241596 
0.4288687132003484 
-0.0593564377468533 
0.08197323138811506 
0 
0.03941841163938034 
0.1814135681191679 
0 
0 
0.0347996248883566 
0.1187089560559844 
-0.006241088269467042 
0 
-0.02398690652947982 
-0.03363141988479037 
0 
0.01414877456242759 
0 
0.007355638550732177 
0.1104190308749947 
0.02694136267993051 
0 
0 
0 
0.07734712231965964 
0.1520933247741036 
-0.006605132707274373 
0 
0.0392993983104807 
0.2516287903644814 
0 
0.06163179835115242 
0.1828450469887239 
0.1119644228918193 
0.07777205017072715 
0.01408955806886307 
0.04024197071661455 
0.2112830778317871 
0 
0.007200016108266701 
0.01001432040931944 
0 
-0.01774433001733747 
-8.131516293641283e-20 
0 
-0.2260654717176942 
0 
0 
0 
0.006272840840697439 
0 
0.07563017905421703 
-0.2083453754110164 
0.1631903525181852 
0.06556427179954408 
0.01981010539598373 
0.0114862078092533 
0 
-0.01268221440484901 
0 
-0.1551618771925617 
-0.003168575365921599 
0 
0.0001767562764815331 
0.1526930594706414 
1.000554375989262e-05 
-0.01047825009335568 
1.084202172485504e-19 
0.05312400807693544 
0.04128388909315038 
0.002223570088535646 
0.02523735118044262 
0.07149744394348156 
0.02159183645436391 
0.0003734261839450505 
-0.006859336294847028 
0.1138339282903979 
0.03027391545073543 
0.004824938527244629 
0.03120633248452584 
0 
2.168404344971009e-19 
-0.02623799658215551 
0.01381258811573818 
0.5605498282167072 
0 
-0.01349979724482713 
-0.1982041583463968 
0 
-0.6308734096911627 
0.06182299869197415 
0.09217747464975347 
0.05007660094677338 
-0.001861726836791175 
1.301042606982605e-18 
0 
0.01917634528305973 
0.0009663747363134176 
0 
0.269520530721995 
0.01675162143270552 
0.07890683767106675 
0 
0 
0 
0 
0.08881344207183553 
0.02967274019150973 
0.261958175613097 
0.02952299848892972 
0.07010466012005546 
0.02516150237753905 
0.2419571430647754 
0 
0.2253057276587274 
0.01131005273692551 
0.2086539187097133 
0.04590541309348928 
0 
0.05889974389050738 
0.07348479739212965 
0.009566132157920609 
0.1509027477734646 
0.1055247674772407 
0.5680200715706273 
0.001897911879500737 
0.09006620870169096 
0.01034626449117427 
-4.336808689942018e-19 
0.001103246906464387 
0.5356138566677623 
0.2128803604769359 
0.04772172705638387 
-0.1483440779341986 
0 
0.005584082129014477 
0.07416258293249654 
0.009442158254244859 
0 
0.06601910352628024 
0.03071040746962364 
0.0233208261406963 
0.05291073667264225 
0.003391716947131979 
0.04857187010995503 
0 
0.09095454516731147 
0 
-0.02201791334545989 
0.0069116994952817 
0 
-0.127857118777369 
0.07438426452014546 
0.237715037480203 
0.01810909977477379 
0 
0.3284187091308111 
0 
0.04336122849978416 
-0.01368788956063858 
0.09983549300328341 
0.00318044223652415 
0.09516955493728625 
0 
0 
0.4107489246575506 
0.02067116046537293 
0.1220717435162386 
0 
0.009051345757023132 
0.04081599793813754 
0.002289717009241278 
-0.02409222621649683 
0.01361995192406307 
0.05314767196562035 
0.01156992497399995 
0.001687665843871758 
0.07390503524681838 
0.08643445929076457 
0.01420217572311461 
0.1897356921060093 
0.03989204720718063 
-0.03990829735785612 
0.005977473524473492 
0.06879174658615925 
0 
0.2331762898432727 
-0.04256326179042488 
0.03464869862039474 
0.03673113963320063 
0.2133227422948713 
-0.1263293097083791 
0.3631950232900545 
0.002447910937504025 
0.05619608432665973 
0.02985572254871084 
0.07670962058266512 
0.1668480980588878 
0 
-0.02611234654075053 
0.2115901677530578 
0.005596710787753659 
0 
0 
0 
0.000638667472055088 
0 
0.005609213987297642 
5.204170427930421e-18 
0 
0.02585058341187417 
0.2005927627362955 
0.01460534989226723 
0.1772637460576695 
-0.08524705048249324 
-0.2364674436781537 
-0.03466171480791248 
0.08099392343508259 
0.1803944173337736 
0 
0.3920473009818337 
0 
0.05485398088186904 
0 
0 
-0.03224785768348501 
0.09050523482348032 
0.0186927126497639 
0 
0 
0 
0.02422415328089744 
0.1526655226505867 
-1.301042606982605e-18 
-0.1236459919201129 
0.1106197539456394 
0.1606871467074487 
0.1567572412889709 
0.01627730083807565 
0.4087376620450239 
0.008089023210745701 
0.02675924084763629 
-8.673617379884035e-19 
0.1259257014689892 
0.7346632339568415 
0.0111426084209142 
0.01979636975283809 
0.1077404436006562 
0 
0.02217190497532658 
0.1014446866750503 
0 
0 
-0.01255311238625008 
0.04675243090636357 
0.3799251970043827 
0.0223073918649382 
0.07230347314089074 
-6.23416249179165e-19 
0.4900187130356534 
0.1654887058012907 
0.03311429235105698 
0.02391198998307575 
0.0059332435683124 
0.1924282294625795 
0.2128896734664278 
0.01009572878059134 
0.005380410024850728 
0.04799504377334061 
0.05109269527318554 
-0.005893143518818401 
0.02382095155912173 
0 
0.171411328438849 
0 
0 
-0.09964967078030706 
0.4422083512571586 
0 
0 
5.759824041329242e-20 
0.005490796480302863 
0.07410215427817193 
0.004625135514190106 
0.001814878614537032 
0 
-0.01201172234378936 
0.003165424052289705 
-0.08422318109683929 
0 
-0.04917144021091471 
0.06421090228961274 
0.06987472088023822 
0 
0 
0.4101839160853437 
0.07929072768030011 
0.1233106142546161 
-0.05764615429630892 
0.2082575578679685 
-0.760233194663956 
0.2865574878731756 
0.003065412649496295 
0.001819465338276322 
-0.1546208162130931 
0.01051086111226068 
0.02021325897981576 
0.1025407471719466 
0 
0.05253947282998624 
0 
0.0001046618394048003 
-1.734723475976807e-18 
0.004905976135211223 
0 
0.03075242698857774 
0.1891340065744338 
-0.3526316913159528 
0.05774598266082667 
-0.002376521319729996 
0.3508147705237963 
0.6506807485794636 
0 
0 
0 
-0.3424962500107134 
0 
0.04086784102925854 
0.286782124335404 
0 
-0.02322442976403336 
0 
-0.08615128336879217 
0 
0.1110507444690597 
0.02108400472399505 
0.101731336783541 
0 
0.001842793800077003 
0.1342482740709469 
-0.02416247632940506 
0.1656161544830806 
0.2235296930509426 
0 
-0.04028176318536383 
0.2585911757012882 
-0.08957678430720475 
-0.07284307932161724 
0 
0 
0.1167086757530636 
0.003916397885841632 
0.1379747039274098 
0.01365929011138397 
0.02107165645292682 
-0.01389594660895575 
0.0006752687556943082 
0.05780570393267578 
0 
0.02302957017575223 
0 
0.06604415955918445 
0.01813835505101517 
0.02157840689340474 
0.2169822588423582 
0 
0.02941526444535063 
0.001985777457571716 
0.0005541948552543016 
-0.02917972485813594 
0.06296814119442901 
0.08784522775167018 
-0.1152505289376543 
0.09927156208639111 
-0.001708662067880242 
0.1268819830563281 
0.04326099568684654 
0.05364576819358671 
-0.08247474286643094 
0 
0 
0.1589890748731116 
0.2798023829572781 
0 
0.001298391056061826 
0.1681460399746274 
0.017814457991833 
0 
-0.1088632102425122 
0.02779496371176986 
0 
0.01822791948350285 
0.03589525345460388 
0 
0 
0.1273727309756646 
0.182837835345976 
-0.1364686588339024 
0 
-0.02613832557584538 
2.168404344971009e-19 
0.08529059888926087 
0 
-0.02305442987482139 
0.00776343138999076 
0 
0.1237133602787521 
0.2493365766003369 
-0.0496219096488879 
0.2480735594941156 
0.03154219635770551 
0 
0.3112507475423133 
0.04906004195404084 
0.02499142380719432 
0.007306786099463395 
-0.01554046447090507 
0 
0.006944850718006088 
0.1389591697403102 
0 
0.5066828603703937 
0.1572942576718805 
0.1353668949012831 
0 
0.1126951245261621 
0.09804466774569798 
0.002617702565043829 
-0.03317545654637665 
-0.04758026923184296 
0.04670152256997537 
0.04371420318847541 
-0.041301393991553 
0.1903200401816365 
0.09773884621373213 
0 
0 
0.1668259805963997 
0.01803626932183507 
-0.003915843363788778 
0.09072250732290654 
0.3686121648985141 
0.05521270498128621 
0.0257227974793193 
0 
0.2314850287372474 
-0.2319383040280375 
-0.6615129188417554 
0 
0.02458850070921291 
-0.001267605551000644 
0.08162213879470727 
0 
0.003644561707198609 
0 
0.01348595808898948 
0.251067641622106 
0 
0 
0.03504231949980006 
-0.117897970231663 
0 
0.01131821876048002 
0.04335537681472237 
0.1727231887741308 
0.2022644521684018 
0.006024423334492066 
-0.06380196694714212 
0 
-0.04865575766532158 
0.006297227042509024 
0.08110581026881737 
0.1474757773001465 
0.08052998187160179 
0.5525865894438143 
0.2641577604557062 
0 
0 
0 
-2.168404344971009e-19 
0.2370044754942505 
0 
-0.0009644676220060041 
0 
0.01619216042165574 
0.0009841934723845097 
0.1227068117234925 
0.1653942787334637 
0.212958971257436 
0.1854147598005859 
0.03091340637573527 
0.1059119529592395 
-0.06517587406013149 
0.5964532138652904 
0.002283787129354037 
-0.1116358515647628 
0.09915550310960948 
0.0542666624359814 
0 
0.1210132585941858 
0.09192284082183376 
0.01209162913185093 
0 
-0.1470145782464207 
0.1324230562021635 
0 
0 
0 
0.3187898919551478 
-0.04649157050098483 
0.4511461904667399 
0.003822163572571585 
0.1627189595123924 
0 
0.007487790618406003 
0.001516810890320274 
0.3259521696021718 
0 
0.03979125078959437 
0.01936276370670683 
0.1713166221446499 
0.085507004937243 
0.289056461038968 
0.1196019233301026 
0 
0 
-0.03404502422492583 
0 
0.377723523048897 
0.06094022809172637 
0.07413298819776561 
0.07018474525587236 
0.01335950104711113 
0 
0 
0.009616222288866039 
0.1630687221955708 
0 
-0.08392823338563861 
0.2188092098131991 
0.004224569164094106 
-0.005585548708070587 
-0.3447492435034925 
0.3175098308583273 
-0.06742880671212434 
-0.02078533020446198 
0 
0 
0.4563625748099838 
0.005313255840257069 
0.0006010772216330465 
0.01794451367741681 
-0.07283999474370992 
0.01305052576593849 
0 
0 
-0.01479851820384909 
0 
-0.01619007263541499 
0.143662352996902 
0.09171622458359303 
-0.001976796866415074 
0 
0.07936719201442996 
0.1476847346804216 
-0.07668739324959217 
0.01417382763038625 
0 
0 
0.005239358457115872 
0 
-0.4027419193693592 
-0.06397303427849543 
0.01276715663924695 
0.02251918067796558 
0.09624038888026974 
0.009528811972030008 
0.1199357191898487 
0.05654354217878672 
0.384031710238373 
-0.4184654617958037 
-0.03326479399400412 
-0.02525264484184102 
-0.0828588556659996 
-0.0391734229453741 
0.06283058559709932 
-4.336808689942018e-19 
-9.774917639093701e-06 
0.05787837045774941 
0.00418557552554552 
0.00676071723511359 
-0.08385821474799547 
0.01304117235165939 
0.02971684482973321 
0.08410546902657055 
-0.07233343902547472 
-0.07898647882493535 
-0.01590263441145158 
0.03981110368076867 
-0.2673788272504851 
0 
0 
0.07170861915166872 
0 
0 
-4.336808689942018e-19 
0.04729524510796689 
0.04811572472432427 
0.04185356464447338 
-0.01221800653708928 
0.0385568409411437 
0.01026354082756825 
-0.0440667467659797 
0.02107589339080626 
-0.02158175507984404 
0.1021403103038611 
0.0006103640708644796 
0.004227070843606326 
0.01257266070132129 
-0.008450914271303131 
0.2015244375529525 
0 
0 
0.2039855939568508 
0.2179149439428278 
