solver_type L2R_L2LOSS_SVC_DUAL
nr_class 2
label 0 1
nr_feature 5000
bias -1
w
0.5015049390748807 
0.05565556797934088 
0.3474890794424478 
-0.0895885025585185 
0.0923460742082749 
0.2084927526263594 
0.00800808733542439 
0 
0.06478420593763565 
0.01413868773154298 
-0.09931404570767338 
-0.3574533388000721 
0.1092492691513325 
-0.0141297027928817 
0.003819843028887198 
-0.4246019049677835 
0.004236734881151902 
0.05406381600686937 
0 
-0.2693057619892573 
-0.1618011270405473 
0.2425400021075492 
0.1673107495950308 
-0.001151064986511244 
0 
-0.008460662169178292 
-0.1318804861912195 
-0.03842242169121438 
0 
-0.04328638565952686 
-0.1927216981719507 
0.001561380118439894 
-0.3142019996288362 
-0.06373566928806645 
-0.2002893101644396 
0.01214265834342064 
-0.04115968523885389 
-0.3557208940987339 
-0.03001985512158856 
-0.1826245309838486 
0 
0.2058212370791835 
0.06738529698920057 
0.1304046530717956 
-0.1089081919615543 
0.1489825550529871 
0.02777598064680448 
-0.205173817784985 
-0.03406359241546254 
-0.02015702043592528 
-0.08330305482282606 
0 
0.03175634301736414 
0.03552938153170281 
0.0002371842658467054 
0.07776504145124245 
-0.1515107564551913 
-0.330092330769334 
0.09034701620579329 
-0.3035695437190054 
0 
-0.01185327888850166 
0.02468235129762311 
0.01975860771161433 
-0.169546537483129 
0.3654632517892383 
-0.1357111469945321 
0.09035376176093948 
-0.08851883755658255 
0.152030627860371 
-0.2623873897930468 
0.02701462702162423 
-0.04592728866011218 
0 
-0.2651792652865674 
-0.01653372229542099 
-0.2028076011899543 
-0.009971832567242499 
-0.1123278994982594 
0.110557490572807 
-0.05725661613332093 
-0.0267613589213883 
-0.3061179782450842 
0.09595732745778061 
-0.1966719074266726 
-0.1034045965333566 
0.2750347842338638 
-0.193564656904191 
-0.6647755880894044 
-0.2643976145316561 
0.04854673426145251 
-0.3386453103253375 
-0.02700421126879655 
-0.2217356564913258 
-0.1497679059703805 
-0.3846942591608214 
-0.3540986801730111 
-0.1737988736194932 
-0.4437525689719367 
-0.2617222001934992 
0.1096340046348914 
-0.04517907013115573 
0.1159764422025352 
-0.04995028683077281 
-0.0906065846330746 
0.008185642135380483 
-0.04372929046905489 
0.04935951405764816 
-0.01704672503277867 
-0.2946583833900249 
-0.03970927025943106 
0.004626518778018926 
-0.01823596168514287 
0.02787842886771537 
-0.05478196658446387 
-0.08658695420514714 
0.09584390977492982 
-0.02312402343563698 
0.2904039172472608 
0.1144432592346334 
-0.3547947792960525 
-0.115890271318469 
-0.0196461577404555 
0.1061088545805877 
-0.04280832489441407 
-0.1797151201027156 
-0.01632090138325852 
0.0191941106263191 
-0.01697546541495229 
-0.02754754468815219 
0.03600020475657736 
-0.007582252872831671 
0 
-0.01989861518663012 
-0.2277420078750558 
-0.3982517457131911 
0.04561516465309428 
0.11710694689387 
-0.007526809892855365 
0.0165964404450288 
-3.252606517456513e-19 
0 
-0.006128847999106447 
-0.01492155131920599 
-2.710505431213761e-20 
0.01450932137279144 
0 
-0.004827224694525861 
-0.01840895490224864 
0 
-0.008926489745455639 
0.01326906362543303 
-0.2347994427909718 
0 
0 
0.0540692248355486 
-5.421010862427522e-20 
-0.0394656013399998 
-0.1481904781654307 
0 
0.00636122457211579 
-0.0905616373053206 
-0.2338701008646731 
-0.3061679816191281 
-0.4050216845537805 
-0.02230846817376618 
0.08354138970322084 
0 
-0.00995746163116056 
-0.1812924674493582 
0.08582435729024114 
0.2159065617569227 
-0.1071221420601038 
-0.1385073868269618 
-0.02278334283365362 
0.1689302114182618 
-0.09138703111530748 
0.07054715027677658 
0.0621124800296013 
0 
0 
0.118432574957051 
0.04772163984774763 
-0.01097357024978798 
-0.1482562423564218 
0 
-0.339554675754858 
-0.06133612926658478 
-0.01260638125510006 
-0.09539890022367607 
-0.04454633651484887 
0.01267354638458257 
0.01733108348548041 
0.01521326085618423 
-0.01341091424343539 
0.01113296695759551 
-0.3720700014599683 
-0.3585305267989616 
-0.5310126049953874 
0.09475344342966049 
-0.005747489268036299 
0.00312111047733611 
0 
-0.02577390405461028 
-5.421010862427522e-20 
0.01657551957862818 
-0.02866006401344516 
0.02817723215569643 
0 
-0.4913330032695147 
-0.1955432442124433 
0.01864412209608794 
-3.361026734705064e-18 
0.1690213267980115 
0.01131390611275123 
0.02476161916583905 
-0.09878217625382443 
-0.009054078515007601 
-0.08539474222060853 
-0.0468923928331055 
-0.07962176560398075 
-0.06272974469542633 
-0.2343854684180876 
0 
0 
0.05672587047237027 
-0.1342334859825225 
-0.1286056726493105 
0.004810504404660767 
-0.04288432768697314 
-0.1119239120312167 
-0.04421737005146876 
-0.1147407160362134 
0.02053899070519978 
0 
-0.02477227588409461 
-0.06304807926988745 
0.01612125129917781 
0 
-0.03608243461766698 
-0.03887509042485077 
0 
0.03343135058204326 
0.3873175959196412 
0.008820122968455255 
-0.0326485718775099 
-0.009075121890351128 
-0.002404413913384678 
0.02031904161630181 
0.0003598386645296731 
-0.2927484241349851 
-0.0185986723301713 
0.2021784971338547 
-0.313210338983771 
-0.008105867172079345 
-0.02643877854452596 
-0.04826041189558568 
-0.3441099753945321 
-0.03713960617967675 
0.004998020873257319 
0.0234113796104782 
0 
0.07162527455333266 
-0.01264792187239261 
-0.1600166016559223 
-3.469446951953614e-18 
-0.160217027642748 
-0.0065280661899023 
0.01351129919117912 
0 
0.2443624828721963 
0.0126570815950585 
0.2216359746023959 
0 
0.3340782525700454 
0 
0.02328344554164697 
-0.3252937057641515 
-0.2296869840689777 
-0.0390686857777579 
0.3860350748336758 
0 
0 
-0.02913955940259761 
-0.08455089109564173 
-0.3723032157214549 
0.08861069921724481 
0.2314764808898939 
-0.00555981217979839 
0 
0.4113135609016009 
0.02237762824144084 
0 
0.2470713920446045 
0.04013514942021022 
-0.01691564029162324 
1.084202172485504e-19 
0 
0 
0.05863260893609373 
0 
-0.2372950783116485 
5.421010862427522e-20 
0.2680887247414711 
0 
0.127028371709342 
-0.003890709478074353 
0.1641786373077235 
-0.012240798072961 
-0.05472678051902108 
0 
-0.06392845332334776 
0.03473430993706653 
-0.058564645484446 
0.007628239051592926 
0.6196584745334167 
-0.0009795462190869473 
-0.08305464981213738 
-0.1762481024861993 
-0.07303234459721686 
0.01304517971742136 
-0.009075639038940393 
-0.1345852128316198 
-0.002723012719787603 
0 
-0.260465972164669 
-0.006425175910279409 
0.0286407408864509 
-0.007328728252338419 
-0.05238685105906779 
0.118190680206325 
0.01090277839146677 
-0.006106302817934199 
0.1029116202259386 
-0.02192345839828276 
-0.02735362031528056 
-0.07667240782555533 
0.1015681185468537 
-0.03466800567119595 
-0.09137020938483542 
0.005007895577549174 
-0.01262968467725228 
0.2002354011862864 
-0.2097275217540266 
-0.05431492883791953 
-0.2131249705840545 
0.02106062618707219 
-0.001257686376437516 
0.01944299098550287 
-0.1912510934397178 
-0.08907409670957454 
0 
0.01558854232105136 
0 
-0.003815138114161683 
0.09728034900601223 
-0.07240953348602096 
-0.04918205697784336 
-1.084202172485504e-19 
0.01097004451159245 
0 
-0.423292856121098 
-0.113542609529207 
0.06421619315438587 
0.04301894734319536 
0.3261060349448411 
-0.02104732945876299 
-0.1394725185552194 
0.04148905534333024 
-2.168404344971009e-19 
0.1574727409150032 
-0.04037877626090854 
-0.1892549106614851 
0 
-0.1039480715138197 
-0.05623266126327277 
0.8921988804834906 
-0.112219313861378 
0.0256574053116231 
0.02240301154626631 
0.02548936083989801 
-0.01039238975534474 
-0.007548403617243122 
-0.01727369240900005 
-0.355875658467103 
0.07297050300615415 
-0.1865942401648229 
0.0568807757041613 
-0.2057095413025645 
-0.03646767753587315 
0.05405941870769864 
0 
0.02097008859969818 
-0.1389688116163657 
-0.2612242306692797 
-0.1084587318391303 
0.1362947492584184 
0.03595847339267522 
-0.1797726647395812 
0.02746705405299495 
-0.03105071671414757 
-0.3091747544092225 
-0.076343395262283 
-0.003144272147095733 
-0.1081491573994407 
0.1567821954747773 
-0.0140928285887318 
0.04148314916500067 
0.07619563179456043 
0.0191224738801335 
0.009579882772717501 
0.007018254531382866 
0.3056515011540125 
0.5116521745862407 
-0.3568555220706838 
-0.04572166223997051 
0.01138612835766581 
0.01197856421398093 
0.06638223762078768 
-0.1133096454903895 
-0.3372533564769668 
-0.3168631184581992 
0 
0 
-0.06372180971523254 
0 
-0.0501012372850458 
-0.003402221896346121 
0.6840642065230486 
0.09750390770160919 
0.04900327547437805 
-0.4976007719949352 
-0.1064120591148658 
-0.286685494025856 
-0.02071840355397099 
-0.08575312928275672 
0.005918953027179328 
-0.006322165521488174 
0.0653206608524107 
-0.01427946314804406 
-0.1179477828489784 
0 
0.470386263792505 
-0.00398390658731953 
-0.0137892079323321 
-0.4983894859137649 
-0.05723455071613931 
0.01505460132972482 
-0.05682819258380852 
0 
-0.03360783179869669 
0 
0 
-0.3340084880250362 
-0.7439082076495134 
0.00472956417055578 
0.03944896039695184 
0.04366016754287028 
-0.04488376102604804 
-0.554933513121618 
0.1652043089781931 
-0.02141832123387218 
-0.05416494065024281 
-0.05205361974094073 
-0.08056556118388981 
0 
0.01463470460562303 
0.01263291724170556 
-0.326598558940189 
0 
-0.215505418555265 
0 
0.0899992411492426 
-0.001143693531061616 
-0.005398669757978643 
0.05449227078892833 
-0.0129173560947515 
-0.4417420389926873 
0.01270100761102546 
0.08785227454529398 
-0.09287429460893262 
1.001836167482006 
0.07748732585157574 
-0.07380952719418156 
-0.007275944089555726 
-0.0889292059239862 
0.00359612756443216 
-0.004239680996655815 
-0.03356609171758234 
-0.08224889720240874 
0.02496932993181639 
0.06349359385520506 
-0.05853910915741143 
-0.003373417460948607 
0 
-0.03260826259187539 
-0.3415092488105816 
0.003409683270317484 
-0.02883685010039831 
0.2805643843701022 
-0.1648382460573407 
0.3344623370785875 
-0.04489365064474467 
0.06590936589949573 
-0.07715139954414334 
0.02050689906021991 
-0.1467165510474298 
-0.5039374730714928 
-0.007036877662744975 
0.01018775867122885 
-0.05341519564566208 
-0.004786211575830296 
0 
-0.03370740115038639 
0.04226469118512661 
-0.06454726957388913 
-0.08341213975925395 
-0.4307848020938622 
0.01335053284026521 
0.05982800618396019 
0.4423351607440147 
0 
0 
0.01362164667516888 
-0.01407897229052599 
0 
-0.01635710788093758 
-0.2182088187072108 
0 
-0.1221957359238655 
0 
0.01190682163249023 
-0.08426133745483913 
-0.005198246336272886 
-0.002836922303779142 
0.2615498324347695 
0.003048828877792496 
-0.2599785288461264 
0.06062986461509778 
-0.05896205835970425 
0.02568446376747703 
0.1649327897153909 
0 
0.05479542084694614 
0.0311831353940032 
0.0006753252534008801 
0.003098146347622154 
0.07586011870310114 
-1.237870171879104 
-0.07366356565389354 
-0.3096709313916261 
-0.177290298240345 
0.1211318574487994 
-2.168404344971009e-19 
0.007066680732387185 
0.03897507263350325 
-0.08430037720129885 
-0.006865168776688371 
-0.01960452715838244 
0.08041541142409055 
0 
0 
0.1675603013083223 
0.1276918941969309 
-0.585103144333028 
-0.182149067297771 
0 
-0.1398278551887571 
0 
0 
0 
0 
-0.006569600995090802 
0 
-0.02977709591097817 
0 
-0.3474183445156998 
0.2828055202929478 
-0.03012890914190355 
0 
-0.06788544190857559 
-0.05860461344104811 
-0.03873521468849692 
-0.02233407242602583 
0 
-0.3500242802631016 
0 
-0.01810852345004356 
-0.01300745338889184 
-0.1071511982863605 
0 
0 
0 
-0.2171156758736717 
0 
-0.1450860406707888 
-0.08192829038414326 
0.03419721746747949 
0.02458516564456182 
0 
0.02031445243283392 
-0.01108057698132395 
-0.005463752876763524 
0 
-0.0009644014971882757 
0.006753589809072048 
-0.05757913699298378 
0 
-0.3222087718988569 
-0.07013169810278715 
-0.05716876777030796 
-0.2121183915034304 
0 
-0.01457055898535316 
0.03304162830269063 
-0.1307634111150003 
0 
0.005867798215594178 
0.07065392421874535 
0.02007228785522774 
-0.05601026884527938 
0 
0.01482185454361485 
-0.01262109433510244 
0.005122548891579165 
0.2269905009758824 
0.1852186534873684 
0 
1.434544478818107 
-0.04865014187272115 
-0.05371079324136912 
-0.0523834861224362 
-0.002740293004533542 
0 
-0.03355361924680106 
-0.1267772761312988 
-0.005887441583825143 
0.0116308458125108 
-0.1285319525006281 
-0.2465754234703889 
-0.1441012400097431 
-0.00581424730668744 
0 
0.009359446487653409 
-1.084202172485504e-19 
-0.06292703904230812 
0 
-0.0467718936772517 
0 
-0.02050755782257631 
0.00342853987598177 
0.222084855599115 
0 
0.01154673081746046 
-0.001239778356917986 
-0.08495742131571994 
0.01119459537585436 
0.03070196534059592 
0 
-0.05625058874036188 
0.07180650586735056 
-0.01773140394318947 
-0.0165995644215295 
-0.02381986738681362 
0 
0.007421644126013498 
0.0007174247882069196 
0 
-0.1029134213327843 
0 
0 
0.02464725215093175 
-0.03512190369662146 
0.1665725687715758 
-0.1202017901299389 
-0.1161580531181086 
-0.01625062279736558 
-0.02219846189830221 
0.0006702767112538271 
0.02440363213116404 
0.05618323399575117 
-0.01819319911660483 
0.04429977061779525 
0.01583980660178143 
0 
0.1704004493786445 
0.0275962537147917 
0 
0 
0.00127072274680164 
-0.01058753568692149 
0.1980410634467322 
0 
0.03843251814539415 
0 
-0.006290530479214745 
-0.07630273463727244 
0.0411530317256016 
0 
0.3135153643527594 
0.03214672091817284 
0.19546907261916 
0.05872521141182028 
0 
0.1324994855407783 
0 
0 
0.01283649972174127 
0 
0.02008743507245584 
-0.004145897064786694 
0.1189813065378209 
-0.07209880048576642 
0.01191484346079237 
-0.08381426423865876 
0.0153411459932289 
1.084202172485504e-19 
-0.0396543125898336 
0.005819727435695993 
-0.02515674138893436 
-0.02001955031568094 
-0.001525290089892823 
-0.09466134379586971 
0 
0 
0 
-0.2137952903671894 
-0.1236909035964839 
0.1351297471844422 
0.01351505412935167 
0.1297755084136083 
0 
-0.04316593252917952 
0.01500843631173712 
-0.04611470170718224 
0.1706907388286246 
-0.1220022710324198 
0.05198645012910855 
0.06866070017860314 
-0.299203630698949 
0.007540088979099075 
0 
0 
0.04974833475112698 
0.008858140621988576 
0 
0 
-0.09821963624692251 
0.02810610676778257 
0 
0 
-0.0251599318972432 
0.03902795962280099 
-0.1857636508403231 
-0.553372775301324 
-0.07130630413449085 
0 
0.005381314879616361 
-0.05855530981146436 
0.09777656718946366 
-0.02163765530527452 
-0.6593243660819864 
-0.03961207664197962 
-0.3118699754723612 
-0.01897427072217963 
-0.01594157887483154 
-0.01564129841459174 
-0.0161558035847656 
0.07828978128416791 
0.07778845178077089 
0 
-0.1199359802244452 
-0.1288254634848487 
-1.084202172485504e-19 
0 
0 
-0.111408747235511 
0 
0.1224652564463953 
0 
0.03961021639268262 
-0.008715098413677002 
0 
-0.01912005331037593 
-0.01325796631941253 
0.1087795500827321 
-0.169201764313484 
0 
0 
0 
0 
0.05811675285703424 
0.01865296970541517 
0.007392000017976364 
0.1383010046052465 
-0.05616806969751491 
0 
-0.05195411618975735 
0.002353170666875988 
0.04193595742099536 
-0.9048459302098402 
0.2101574812210203 
0 
0.03151480846240878 
-0.1447907944815378 
0.03934824146378964 
-0.04498453693786235 
0.02987088351910862 
-0.02430169224267176 
-0.05171712658140055 
-0.001707268242230947 
-0.0155351438106173 
-0.1561762768164017 
-0.005675089750635691 
0 
0 
-0.1907007326532134 
-0.2399686613107536 
-0.01054276935249369 
-0.01187237173521063 
0 
-0.06172284522363513 
0 
0.007950550076344182 
-0.04879360332213886 
0.2237656636916826 
-0.008512009763492905 
0.04766974448013302 
0.1990983312001851 
-0.02334162169681853 
0 
-0.05753701245551839 
-0.06673211522130278 
0.01897045318654979 
-0.1018942460735435 
-0.01418994271889498 
0.009722618248336423 
-0.1087001297467488 
1.899221338063622 
4.336808689942018e-19 
0.04657437341097397 
-0.09579771174714941 
0 
-0.02114820111474028 
-0.005261123156226191 
0.006813210479457064 
0 
0 
0.02272712608627233 
-0.243661650577078 
0.0123817562861394 
0.003468426461353391 
-0.05074463322807545 
0.4113585427703118 
-0.006459146571138448 
-0.06275165626119349 
0.1250416417560649 
-0.06691073103814363 
-0.06033898428729653 
-0.09510098524651096 
-0.04972103074002559 
-0.07060385449536379 
-0.003768666328685799 
-0.0003998328835099154 
-0.03647221324555386 
0.007337394997016917 
-0.04393498275743626 
-0.4185494292805017 
0 
0 
0 
0 
-0.1333101811954835 
0.5310787490061727 
0 
-0.08823660357223292 
-0.4040652399194044 
0 
-0.106043708632993 
-0.1370309376835198 
0 
0.03953058456641994 
0.160502373242349 
0 
-0.1336984193724768 
-0.1197143175092534 
-0.2886740041079956 
-0.02012770910229264 
-0.0104486914519328 
0 
0 
0 
0 
0.02070654296525872 
-0.3368284999507555 
-0.3333771714185043 
0.1216461061363804 
0.05118301160959268 
-0.05691325046472557 
0 
0.01641338796906734 
0.2923885994344825 
-0.6280631565198368 
-0.03760560040074819 
0.1611165545896715 
-0.05494561820569225 
0 
0.008431153927431895 
0.03649199561733015 
-0.00328450061792708 
-0.06518121373373972 
-0.06807156430300854 
0 
0 
0 
-0.07148587967757486 
-0.01888985030063237 
-0.03413152046088454 
0 
0.04471529242084327 
0.01490957518138177 
0.05384375911769839 
-0.02684482401601746 
0.01323802725701244 
0 
-0.04666106762310997 
-0.07249488788695757 
0.01223348313425729 
0 
0 
0.02486099737910017 
0.02467078368364429 
-0.007237443789422912 
-0.09269548484120754 
0 
0 
-0.0513348955544366 
-0.6054026660548624 
0 
0 
-0.03570126529748761 
0.03523463362215556 
-0.005713514375135372 
0 
0.0967005003948935 
0 
0 
-0.1102744433720705 
-0.07020618869194123 
-0.1136406269362732 
0.01117488362805703 
0.007810692458777055 
0 
0.08622342957408356 
0.2047117939756865 
-0.7153927161267345 
0 
-0.08590989034979145 
0 
-0.3991363307216364 
0.009173259068025151 
0 
-0.05563100781507393 
-0.009069093928665048 
-0.009496206840509783 
0 
0 
0.006176361500192406 
0.1692021730021815 
0 
0 
0.2837370064487709 
0 
0 
0.02848421188597046 
0.009118801143825437 
-0.07177393058001599 
0 
0.02229233385986506 
-0.07284956218135764 
-0.001684433923833477 
0.01219600109855418 
0 
0.06556076299095973 
-0.001391239706058913 
0.02740836973640337 
-0.01629471010815765 
0.09010590566409228 
-0.04777329231720786 
0.1768640303694522 
-4.336808689942018e-19 
0 
-0.05342164429516273 
-0.001027086576116604 
0 
0.0194112129525644 
-5.421010862427522e-20 
0.007013129542094387 
0.04323615174844064 
0.007105288897328577 
0 
0.007462588627862734 
-0.02923864639660284 
-0.07212066114362559 
0.03044895815951323 
-0.01597344551589069 
0 
0 
-0.01904703533684792 
-0.1874604408508743 
0 
-0.005292250179462001 
-0.1107165693571679 
0.03478926066052049 
0.1162857908474226 
0 
-0.01113610490667032 
-0.169661479191186 
0 
-0.06766881458017429 
-0.08972891893292041 
-0.01634748814402315 
-0.109119493761296 
0.02515910158351535 
0 
-0.04829192071645042 
-0.05180696369112976 
-0.1088352274500361 
0 
0 
0.04278152700666554 
-0.2513134401651786 
-0.01894285195600745 
0 
-0.01555318240942975 
0 
-0.04049178978065255 
-0.3059764789871651 
0 
0.02464242180238052 
-0.06076463036691173 
-0.02090765496940939 
0 
0.09120047693052181 
0.02869840021040286 
-0.005190361785219284 
0 
0 
0.1735949750289066 
0 
0 
-0.009494016503842965 
-0.09144807726766364 
-0.1440761908570583 
-0.1479469293544481 
-0.1462787570280102 
-0.2126837863397971 
-0.04186126274725611 
0 
-0.02967781878471265 
0 
-0.296058660265379 
-0.2161013849640378 
0 
0.003424827727435128 
-0.04747737859985698 
-0.05502375401920895 
0 
-0.01890971481831142 
0.1767360710380381 
0.002377433311900602 
0 
-0.03913062304321428 
0.2984752236710157 
-0.07117544765292053 
0.1285367216460597 
0.5731358948231949 
-0.2176028825331026 
-0.2482548987597405 
0.1743069276497755 
-0.209232712673307 
0.006614448977459485 
-0.03875930957566333 
0 
0 
0 
-0.003308645130714204 
-0.04999582060623144 
0 
0.01080069914170979 
-0.02539762636314403 
0 
-0.1508738491099259 
0 
0.03189425000568747 
-0.03002509653684651 
0.05338298225221997 
0.6267587118244008 
0 
0.03059983634982402 
-0.0008345626991911798 
0.005637018398372854 
0.1469973918479918 
0 
0 
-0.01947539720794669 
0 
0.09746423557398713 
0.00270845617764781 
0 
0.115635262372973 
0.009630270268825869 
0.00424301083002009 
0.01278150087501104 
-0.07619558212244032 
0.001515863048318933 
0 
0 
-0.1741783784227779 
0 
-0.002629672109895481 
0.01096692911830979 
0.02832491228748714 
-0.156503065311564 
0 
-0.07409630272507001 
0 
0 
0 
0 
-0.070276910541565 
0.004109650010845682 
0.001136162003182316 
-0.04651429626837219 
0.003464501487046458 
0 
0 
-0.004236504641227372 
0.2883423908135497 
-0.04639088577312422 
-0.0136646380562686 
-0.1335787636875003 
0.1066713525115797 
0 
-0.01486833174608794 
0 
0.03257002798734435 
0 
0 
0 
0 
-0.01479133675725521 
-0.0109064732654168 
-0.8738463484639112 
0.006707197047073952 
-0.074114141805249 
-0.04526180719227035 
0.06899338886228915 
0 
0 
0.006148722409914454 
0.05264946109019739 
0.002996579712500553 
-0.2125629396409929 
-0.04393997710836878 
0 
0 
-0.0110669201261924 
0 
0 
0.0007915614620160476 
1.084202172485504e-18 
0 
-0.140865868575375 
0 
-0.3109003854929085 
0 
-0.06391672179312487 
-0.1046139436076773 
0.1855656527730535 
0 
0.03485465275038803 
-0.1215354249237656 
0.1251122662853141 
-0.1553509240573197 
-0.009584129017938906 
0 
-0.05636304161301772 
0 
0 
0 
-0.05331927072144827 
-0.07076978426210405 
-0.2227864221836445 
-0.06519839749919581 
0 
-0.001512281140353748 
0.005590779620665922 
-0.01787227209129018 
0 
0 
-0.1818502500528335 
0.008129650592604948 
-0.06368698382041504 
-0.05104721099991042 
-0.06053972517687815 
0 
0.001306175180567906 
0 
0.08484428232677807 
-0.0453449858143838 
0.01368424645717555 
-0.07876063136215963 
0 
-0.5665550569214391 
-0.03111052078643146 
0 
0 
-0.1252371535077155 
0.02007240746261712 
0.004398244842082374 
0 
0.01642401610512671 
0 
-0.03109461187225393 
0.02852229225310531 
0.0169115615364811 
0.185132476882359 
0.2353761417130855 
0.0173474064143245 
-0.04912483795142254 
0.002209859254610019 
0.02599979268829253 
0 
0 
0.1267265428646403 
-0.04238360103096287 
0.1050136146213556 
0.05775422515007734 
-0.01256930383893857 
-0.2175186589471306 
0.04743676730029604 
-0.01636040254448171 
0.00343591098486637 
-0.02696227997608361 
0 
0.003726645110856979 
-0.0002821342233326034 
1.01643953670516e-20 
0 
-0.05241438865562815 
-0.1122629477807826 
-0.08697468190292451 
-0.006411752573462368 
0.01507058225421081 
0 
-0.004829246875265356 
0 
0 
-0.1860696110957853 
-0.03251205049366277 
-0.09656704324398807 
-0.02807467534194721 
0.08974504287223306 
-0.008720813853620732 
0 
0 
0 
0.02070574693066967 
-0.06964111653572266 
-0.004354522187437709 
-0.08782375260051802 
-0.02061928283384901 
-0.07634221982429001 
0.04866203248352314 
0 
-0.3733408966898951 
-0.0688210143443319 
0 
-0.007083505536359644 
-0.03240258931457418 
-0.04400833918762011 
0 
0 
0.03116855963002687 
-0.1760054490943771 
-0.0009209998711144559 
-0.003079318576503026 
-0.06914224741114207 
0 
-9.56480734528639e-05 
0.009258704905438534 
-0.2863870852230428 
0 
-2.168404344971009e-19 
-0.005819796740473964 
-0.01162206744816041 
0.02208648958730894 
-0.1329885362968579 
0.0008548522661626088 
0 
-0.08211055822588136 
-0.0382642067835803 
0 
0 
0.00143332909710248 
0 
0.3071180224457575 
0.002899255687270418 
-0.1377924112902146 
-0.1658759015260426 
-0.01194737565727139 
0.006723342399067515 
0 
0.05835631666201515 
0 
0 
0 
0.3991001249637116 
0.1494170577059404 
-0.1894052402505431 
-0.149511064653181 
0 
-0.06410465410664293 
0.02299682462013726 
0 
0 
0.07182137791164456 
0 
-0.003197286324859658 
-0.02225299935350613 
0.06744431674636139 
0 
0 
-0.1074976419032175 
0.004008706560696356 
0 
0 
0.007424560574212965 
-0.03256233525878746 
-0.1328667656378537 
0 
0 
-0.02403798059736139 
-0.1115269958910444 
-0.05020643044252061 
0.05653588426034554 
0 
-0.01167276685386622 
-0.009674472668484693 
0 
0.0234260167941165 
-0.4921474025733749 
0.01500748253613868 
-0.04381081475480128 
-0.01330922840053083 
0 
-0.4094749499519197 
-0.08602671682547867 
0 
0.03194616610469026 
0.0106671626359418 
0.4719100814226708 
-0.3104094646125206 
0 
-0.002511999634638358 
0 
0 
-0.01674946827830103 
0.01361428705316799 
-0.03060890607992735 
0 
0 
-0.007479748398168391 
0 
0 
0 
-0.08617993419115227 
0.01492031889537265 
0 
0 
0 
-0.01585959492489065 
-0.02974414183326513 
-0.01729015430976981 
-0.001868377394025692 
0.01678782448563906 
0 
-0.1035225441798082 
-0.5396116726165864 
-0.3148007822761956 
-0.06279996098965061 
0 
-0.04318912246061818 
0.02001623211221 
2.168404344971009e-19 
-0.1190806122006736 
0.008531901981742878 
-0.01763633402931488 
0.0630312040273832 
-0.01936938104726716 
-0.00110382348927477 
0.07012753773006263 
0 
0 
-0.1524230506816769 
0 
-0.09057962102796656 
-0.003013539531333684 
-0.1644723855144315 
0.1135079486620578 
-0.1611492571712725 
-0.009565966562525291 
0.07081973647168649 
-0.02853012320648541 
-0.08492282513488775 
-0.04740023343586182 
0 
-0.3257984644309241 
0 
0 
0 
0 
-0.01242688739378095 
0.0538649691824727 
0.05092736631553818 
0.05332765027887445 
-0.2765603066435703 
-0.01948050316659672 
0.7215199869702364 
-0.02987234010873771 
0.03433391272537666 
-0.0151731488548152 
0 
0 
0.1168585348894136 
-0.0469588791334159 
-0.002111732369469884 
-0.2584606802342513 
0 
0 
0 
0.03648340539919254 
0 
-0.1133219236015409 
0 
0.03711135968797079 
-0.5269987280921699 
-0.1958090518980028 
-5.017684862064819e-05 
-0.01338986498590726 
-0.04087173817347955 
-0.08202415082556214 
-0.0004941113597815045 
-0.01685726472281077 
0.02328326487077851 
-0.0003956033533359373 
-0.02342419242583553 
-0.07337008559471241 
-0.1930991426614009 
0.1028329937728298 
0 
0 
0.02399520152911997 
0.04666417110807624 
-0.02717097896931688 
-0.01147324107092136 
-0.03281457422857731 
-0.04083525610125738 
0.0474187009729749 
-0.01607565484213874 
-0.0193295373025909 
0 
0 
0 
-0.07126573104656585 
0 
-0.3359936617869792 
-0.01400114182076931 
0 
0 
0.01040689531977917 
-0.1062669126892843 
0 
-0.06333965876558287 
0.1521995564653034 
0 
-0.06451194633784381 
0 
0 
-0.09250978509789295 
-0.0345906593009977 
0.01014543353474725 
-0.0007205876356693223 
0.2196464209541467 
-0.01341330762700686 
0.6089586379585171 
0 
-0.02178251205867543 
-0.2206371262575751 
0.006236120776154269 
0.07956999361289115 
-0.00845273301289038 
0 
0.03650586161824856 
-0.07075729662971864 
0 
-0.09695597296885974 
-0.1298076303699607 
-0.02062274710675121 
-0.4162003974787373 
-0.001042776607363289 
-0.09328537929753232 
0.08826539710520023 
-0.3955058198700546 
0 
-0.02249084406098322 
0 
-0.009698535427659947 
0 
0.001916068389426195 
0.00708035176088268 
0.020792720257999 
0 
0.02318707804778824 
0.1601546306807046 
-0.03582231696483543 
-0.06307608431084449 
-0.007164662359265758 
0 
-0.1116515913488636 
0 
0.0724114794382551 
0.7262075505543114 
0.05166985985770019 
-0.009661547617488843 
-0.006770384063370018 
0 
0 
-0.1868337846141481 
-0.1727040272720045 
-0.07541647706833784 
0 
-0.09547204781336764 
0 
0 
-0.01048826143852684 
-0.02148769965924178 
0 
-0.01302237095296757 
0 
0.01597163361055357 
0.05790476982203634 
0.008350713826310221 
0.08972544534108041 
0.8702830395062474 
-0.03169775155020568 
0 
0.06765544937291114 
-0.07605026650985686 
0 
-0.2212211185795177 
0.4573861009417212 
0 
0.02308452145000938 
0 
0.0101553806972426 
-0.1608412360557789 
0 
0.0001635049074253146 
-0.007514920375535391 
0 
0 
0.04310598931214772 
0 
0 
-0.1902997039906469 
0 
0.03796219430548878 
-0.01056898943279371 
0 
-0.009183820742676882 
-0.1205503084448651 
0.03246630002810581 
0.02567056322620751 
0.05586584166496902 
0 
0.6106327573588316 
-0.02788682187414784 
0.01707236227236093 
0 
-0.003382830235610956 
0.02601915026339663 
0.3639645713018324 
0 
0 
0 
-0.0004427711735048114 
-0.06729018910207892 
-0.2064370565260753 
0.1035022616824664 
0.03374197017745874 
-0.06954036922967485 
0.02366326785708722 
0 
-0.01534736722763647 
0 
-0.1063738833756905 
0.1563078225105357 
-0.01970851755760542 
0 
0.09080064378747513 
0 
0 
0 
0.02380572831545638 
-0.05260306569475571 
0.7116849328978369 
0.1151154130049301 
0 
0 
-0.03450820284158281 
0 
0.002742214888006907 
0 
0.009440864275278783 
-0.04024932538299206 
-0.07406228089770726 
0 
-0.2389603515882662 
0.003981441492681793 
-0.01091040175509814 
0 
0 
0.03971082419343754 
0 
0 
-0.022236072637075 
-0.001447049640072517 
0 
-0.02211482359922238 
0 
-0.01636297419470646 
-0.009054117831036157 
-0.0767818779092395 
0 
0.01792491598460983 
0 
-0.02967485941951177 
-0.01990477484889835 
-0.00460882755078973 
-0.02719043145499741 
0.02154893284373229 
-0.03175283803129027 
-0.1377013684927947 
-0.008694111953507347 
0.1517416505745557 
0 
-0.02193847077334186 
0 
0 
-0.09945711132919606 
-0.004293418613480854 
-0.007810401976020177 
0 
0 
-0.180903708615433 
0 
0 
0 
0 
-0.01236105296947981 
0 
-0.02195516255527733 
0.04840988158814382 
0.1256296818054636 
0.007037145780712223 
0 
-0.01004285877272411 
-0.1096405160060802 
-0.1200427133019847 
0.009610172979906288 
2.710505431213761e-20 
0.1869381635843738 
-0.01271892792498654 
0.002059031979072581 
0.02824399541031966 
-0.161789218288727 
0 
0.06757855986713042 
0 
-0.02201804812921477 
0 
0 
-4.336808689942018e-19 
0 
-0.1259045272582982 
0 
-0.02876784355968371 
0.01242001203827814 
0 
0 
-0.02123618842432385 
0 
-0.03569817830212305 
0 
-0.2557945912492317 
0 
0.04411911398142342 
0.05296756224773074 
0 
0 
-0.005453253007218948 
-0.006880773412862 
0 
-0.1661947813157195 
0 
-0.0177028278062604 
0 
-0.05208738932387381 
-0.01340042221985171 
0.05034648197529609 
0 
0 
-0.1118030036865 
-0.001169301225061734 
-0.003110710937304754 
-0.0150375630555464 
0 
0.006338089013184822 
-0.001432679324402768 
-4.912791094074942e-20 
0 
-0.01937633110338292 
0.01391880525917223 
-0.1730433183270313 
0 
0 
-0.0582377353069841 
0.003996236748845309 
0.05382913275877058 
0 
-0.01917640458170241 
0.08704160444499812 
-0.02754089609206123 
0 
0.01349196560642268 
0 
0 
0 
0.01735156712665841 
0.3317615402959836 
0.01058230926551186 
-0.02323111536796433 
-0.04124706660878485 
0 
0 
-0.383077378686158 
-0.2479708607949039 
0 
0.02648034921717717 
0 
-0.00327979854871501 
0.5260258071277569 
0.1939052448535599 
0 
-0.01573027381184685 
0 
-0.06162408778100372 
0 
-0.8467029429100662 
0 
-0.03790227170390974 
0.007027827431854875 
-0.04953075728273119 
0 
0.005426549363006703 
6.938893903907228e-18 
-0.1974713605606628 
0.03843617474666674 
0 
0 
-0.01308372984493975 
-0.0009976849811805424 
-0.01797714526797582 
-0.03543500647372072 
0 
0.3226508453268676 
0.01265041401855567 
-0.1463996012365337 
0 
0 
-0.2334096377704124 
-0.01452218802625082 
0 
0.1030274152992218 
-0.05091726364359052 
-0.007872790620370114 
0 
0.116458346775757 
-0.04548380721276857 
0 
0 
-0.02847292758535099 
0 
-0.03516864101182913 
0.1215416122959337 
0 
0 
0.04288739922493819 
0.01400893063367985 
-0.2848262088581538 
-0.05076361899585329 
0 
0 
0.03031774543267673 
-0.00686118526916197 
-0.005343133757448538 
0 
0 
0 
0.01030563467747228 
-0.0956932239569552 
0.02155670884358903 
0 
0 
-0.2450812332147333 
-0.05994028464462951 
0.1528254147962234 
0 
-0.02315734299913897 
-0.02698675646908535 
0 
-0.01829671556599247 
0.00641460888498322 
0 
0 
0 
0 
-0.0322263545121294 
-0.006795153328502032 
0 
0 
0.09232504009535308 
-0.09473171231200452 
0.08052380327698824 
0 
0.3738622437246967 
0 
0 
0 
0 
0 
0 
0.01036977676960443 
-0.02866924659921972 
-0.003473871732611823 
0.02566666188197778 
-0.01456472949654042 
-0.02356996871366194 
0.1772034429113895 
-0.1178279638990372 
0.02659998076695118 
-0.0505481550134907 
-0.1153040687451792 
0 
0 
0 
0 
0.0002367198044054443 
-0.05911417594908851 
0 
0 
0 
-0.04643409001414209 
0.3595527355755859 
0.01740036983913811 
-0.00969520001445413 
0.05969117349291227 
0 
0 
0.06976075028493997 
-0.03719513420518669 
-0.09663052997120912 
0 
0.006938273805299587 
-0.07685950876276433 
0.01291635155872573 
-0.02401843004011908 
-0.1247742498266702 
0 
0 
-0.1468455297494207 
-0.006277102621525907 
0 
0 
0 
0 
-0.00205016321044354 
0 
-0.01390646199942041 
0 
0 
0 
0.009155058580333391 
-0.007603777768127601 
0.007361262988342382 
0.06148162210649757 
-0.1530908472838307 
-0.05411801296663001 
-0.01325840275674842 
-0.08243088104818541 
0 
0.08170699714866218 
5.421010862427522e-20 
0.01324077065279302 
0.04202548532254374 
0 
0 
0 
0 
0 
0.08760395665005766 
0 
-0.03068602023242844 
0 
0 
0 
-0.1643971440307585 
0 
0.09019200643584825 
-0.1455966731325762 
0.01946299258156935 
-0.1233745203228332 
0.02689720503057551 
-0.15453887849487 
-0.2882208993007699 
0 
-0.05667938940691686 
0 
0.03696779069877399 
-0.1745438914338231 
0.03380707610766855 
0.2216716385875795 
0 
0 
-0.2084282990287836 
0 
-0.1388664150227384 
0 
0.13753367496727 
-0.01308167532158427 
-0.03193467614110029 
0.00700898289643505 
0 
-4.336808689942018e-19 
-0.11168343260935 
-0.1166672909266152 
-0.0120429838238027 
-0.06205522074210897 
0.04534695721005844 
0 
-0.1606898238777825 
-5.421010862427522e-19 
-0.0305381450430064 
-0.008645271179858383 
0.01365222316430409 
0 
0 
-0.09515275272290649 
-0.01831264809146178 
0.005808055937809789 
-0.5295743563305572 
-0.01942246147908092 
-0.04587197546729792 
0 
0.2589369182917568 
0.00771894850829644 
0 
-0.101094587621734 
0 
0.02384427198875977 
0.0005421849722747821 
0 
-0.05590241053562001 
0 
0.01562839383624032 
0 
-0.02129378885253666 
0.06794302925863203 
0 
-0.1218417429796133 
0.05242720899579732 
0 
0 
0 
-0.3258105093941077 
-0.005740815099390467 
0 
-0.1777128704470274 
-0.05496937910374777 
0 
-0.07594279962888627 
-0.030015915898129 
0 
0 
0.001121206239316369 
-0.001378491289175908 
0.01297730800453848 
-0.08550286118933106 
-0.1200213815658868 
0 
0 
0 
0.02278387361059083 
-0.06687069471437317 
0 
0 
-0.6705314379403647 
0 
0.02197020142811318 
0 
0 
0 
0.007757505216069814 
0.02545763404653408 
-0.01960930025097959 
0.004135407640213767 
0.05746854295406924 
-0.002142455721692319 
-0.008169155694321006 
0 
0 
-0.01869838090660911 
0 
0 
0 
0.006775136405024073 
-0.1224560942852354 
0 
-0.05069452265892943 
0.002888997670026274 
-0.002693772148731305 
-0.05344849155831608 
0.0067014968126261 
-0.004806433211946196 
0 
-0.01196705930008478 
0 
-0.02201002236803921 
0 
-0.07363955899488993 
0 
-0.1338343520091578 
0.4557311995726336 
-0.05690427650282778 
-0.2291875265154907 
-0.05550642429798279 
-0.01925942864580736 
0 
0 
-0.05471690993911881 
0.02332839158805448 
0.03509529910544137 
0 
0 
0 
-0.2553883768419997 
0 
0 
-0.008677103076250149 
-0.01326179019890604 
-0.04706828768904287 
0 
0 
-0.3050773048379752 
0.3276661411637875 
-0.008831369194673496 
-0.1128767831965006 
0 
-0.0517890540363433 
-0.2137240016305508 
-0.01788144495667996 
0 
0.01798766216596029 
-0.0007169600776235669 
-0.03385632430844589 
-0.118027587993694 
-0.02576003916927349 
-0.2421165996771073 
-0.04715425130206776 
0.04968920001661595 
0 
-0.02194384648369108 
0 
-0.5935913377021202 
0.01341033744998801 
-0.008070545911265206 
0 
0 
0 
0 
-0.0129360920440948 
-0.001320052395334541 
0 
0 
-0.131573163407653 
0 
0 
0 
-0.008705419217810324 
-0.2114262499645455 
0 
-0.0140868846156967 
-0.08886752866492534 
-0.03043642420942894 
0 
-0.03486588118483721 
0 
0 
0 
0.01590511187894548 
-0.05320270562272546 
-0.08143182727672413 
0.365989874751058 
0.0139028366222341 
-0.007249676722982584 
0 
-0.009202350192721446 
0.3202267769240649 
-0.07632297922812049 
0.2108872037764476 
-0.0153763773106862 
-0.132432341225351 
0.04378195679659287 
0.07649717504593767 
0.2800822493881308 
0 
0 
0.07032840348910881 
0 
0 
-0.03425582929533467 
0.00730193473275877 
-0.04769710845426469 
0 
-0.0001423237159397598 
0 
-0.002985088743145628 
0 
0.3401998895050825 
-0.03965346319663301 
-0.01085944781388654 
0 
0 
-0.003183472399577312 
0 
0.006070277832104949 
0 
0 
-0.1492528425073064 
-0.01414537490794344 
0.01015250488116847 
-0.008819805199734711 
0.0454737350693834 
0 
0.03924322603673908 
-0.006594375844163822 
0 
0.1263798469248151 
0 
0 
0 
-0.008392011681286247 
0 
-0.04993304747207817 
-0.007282185536642938 
0 
0 
0 
-0.04948274999134757 
0.01833142954824578 
-0.003314493456457773 
0 
0 
0 
0 
0.06171591047746727 
0.04244149721546057 
0 
0 
0 
-0.008917766937311543 
-0.002554561605658496 
-0.01683470671902591 
0.02353339108277968 
0.01377343851219106 
0 
0.003322909789426618 
-0.2450769287974505 
-0.003128923063885734 
0 
0 
0 
0.03988809899845767 
-0.005175773963084583 
0 
-0.03802580067533758 
0 
-0.02747600117157356 
0 
0 
-0.003283008144048654 
0.03708672846255828 
0 
-0.1010780540952343 
0.03647227296611185 
0 
0 
0 
0 
0 
0 
0.004843421995999152 
0 
0 
0.01153175075437657 
-0.06015613880551265 
0 
-0.008586157735647824 
0 
-0.06483277812494502 
0 
0 
-0.005509021553336092 
0 
0 
-0.0004258926406775163 
0 
0 
-0.07642285630738017 
0 
0 
-0.008930207770023492 
0 
0.05930129631218964 
0 
-0.0003282323502474134 
0 
0.0173030525369503 
-0.001852435098572919 
0 
0 
-0.00920659039436475 
-0.1316350574835409 
0 
0 
0.03864891714437379 
0.02437837678807857 
-0.02041015149813952 
-0.1222802375206613 
-0.1252293440311254 
0 
0.02236208401390905 
0 
-0.002112189777125287 
0.001866088692290802 
0 
0 
0.004943425365797853 
-0.2170483259373295 
0.08660020716813291 
0.1270861600723904 
0 
0 
-0.09782130414002427 
0 
0 
-0.02858637181827684 
-0.03593887975280632 
-0.1382608011079613 
-0.001801424381740522 
-0.06070641325326272 
0 
0.01294223848012033 
-0.08495810429943326 
0 
-0.02439018437841343 
0 
-0.09027100226701924 
-0.008427469529444393 
0 
0 
0 
0 
-0.05242733063985063 
0.0315017981348432 
0 
-0.01096898006011667 
0 
0 
-0.0002830028136487869 
-0.1837279337612165 
0 
-0.129859364101952 
-0.001309053788369657 
0 
0 
-0.008024402861364278 
0 
-0.02968366291509233 
0 
-0.03398314388713655 
-2.710505431213761e-19 
0.1190150688702034 
0 
0 
-0.03013090375611934 
0 
0.3667449627112677 
0.01346968475676107 
0 
0 
0.003039306578147364 
0.006672073805970241 
0 
-0.02148997217946474 
0 
-0.03563485615485146 
-0.03659970580941412 
-0.2164220383800008 
-0.0038738752687894 
0 
0 
-0.05448554961751469 
0 
-0.009482580868128818 
0 
0 
0 
0.002362640503617317 
-0.0243362380647592 
0 
0.3112245735101845 
0 
0 
0.006513707698968944 
-0.009532836676940501 
0 
-0.01306670647204212 
0.0211417663709997 
0 
0.003201052455326884 
-0.2786163116004894 
0 
0.0303941744938687 
0 
0 
0.01336079652014986 
0 
0 
0.01175344333074015 
0.08776328895858326 
0 
-0.01597768425902445 
0 
-0.01158161076473115 
-0.05311286156530221 
0 
-0.01151688745994293 
0 
0 
0.1335810344200327 
-0.0009417305812025348 
0 
0 
0 
0 
-0.1988919244975631 
0.04871011454976353 
-0.009787054407650219 
0 
0 
0.07345848111615018 
0.04659012922666537 
0 
0 
-0.02466328203201961 
0.3957680086289914 
0 
-0.01694470239257776 
0.004077248254246572 
0 
0.03140194330725627 
-0.08812070361522081 
-0.005477380191347717 
0.1095674706069677 
0.05086349413941609 
0 
0 
0 
-0.08668794826695922 
0 
-0.01591320301471909 
0.03804829343817583 
-0.02279509032653073 
-0.005538806625865905 
0.01582808915772465 
0 
0 
0 
0 
0 
0 
0 
0 
0.00100648446254628 
0.04430508541863553 
0.2496904364717888 
-0.0117734968846139 
-0.05883491878401705 
-0.03776135507869113 
0.2237538290152024 
-0.01393282692146971 
-2.710505431213761e-19 
0 
-0.0388841020281443 
-0.0748225588052535 
-0.036312582995364 
-0.05452176825665824 
0 
0.04249900913997139 
-0.008163983765146357 
0 
-0.000994175038415517 
0 
0.1034273046511551 
0.003282120520389434 
-0.1367211355461404 
0.02021019525936582 
-0.04394535538959527 
0.06844972988788701 
0.008237945948448001 
-0.007067507511162045 
0 
0 
0 
0 
0 
0 
0 
0 
0.4732417320093351 
-0.07220871558405559 
-0.1170320189670316 
-0.002967509495689834 
0 
-0.5224728928202697 
0 
0 
0.02608267692714105 
0 
-0.003494058454816632 
0 
-0.06063764375016502 
0.09984713976819601 
0 
0 
0 
0.3462121461789127 
0.01542404678382021 
-0.04942661580875228 
-0.0387141568136929 
-0.2029031793609214 
-0.01110795145393313 
0 
-0.01211380570999616 
-0.1167504339182506 
0 
0 
0.02494450661648794 
-0.03081396673633605 
0 
0 
-0.1226886503303421 
0 
0.01851462388836716 
0.05418185489976377 
0 
0.001381840865100165 
0 
0 
0 
0 
0 
-0.3648245434652222 
-0.04600688686956683 
0 
-0.05382646891034248 
0.1040178653053234 
0 
0 
0.07511222695111316 
-0.006766755901551728 
0 
-0.01311373892794601 
0.7481138360267467 
0 
0 
0 
0.06452456134873058 
-0.01579778127723885 
0 
0.06309905932328295 
-0.01196370846480288 
-0.02818129510501583 
0 
0.03684346960430977 
0 
0 
-0.0009479250833077003 
0.02299102947601639 
-0.003295039139873452 
-0.01964265955416801 
0.02218231119636358 
0 
-0.02303943619199643 
-0.05092000445436397 
0.007189273148845082 
0 
-0.1751710703646864 
0.01378466972866814 
0.01647013953047805 
0.07634245203392458 
-0.02609703813006893 
0 
-0.2983021422409367 
0 
-0.0274499821784937 
-0.0007415266712390624 
0.1018026208052491 
-0.07206005754188823 
-0.06892669419142509 
0 
0 
-2.168404344971009e-19 
0 
0 
0 
0 
-0.008466310281360799 
-0.06462814105080233 
0 
0.1333064425336102 
-0.001519430089730237 
0 
-0.03484782214652231 
0.02467107830034125 
0 
-0.02126094214221221 
0 
0 
0.1029331326990231 
0 
-0.02886796918557856 
0.09140137768211348 
0.06402296684461288 
0 
0 
-0.1197238968012052 
0 
0 
0 
-0.001258217259673312 
-0.01955178751771965 
0 
0 
-0.08204281618417243 
0.03496999101414268 
0.04576671600916717 
0.05810153347387149 
-0.004848357468639221 
-0.0009084782871255908 
0 
0 
0 
-0.02861775174530558 
0 
0 
-0.05231873687291051 
0.007015937768012059 
0 
-0.0693772620217927 
0 
0 
-0.09315690326413163 
0 
0 
0 
0 
-0.02658510752696233 
0 
-0.06461770953064123 
0 
-0.01684633829157621 
-0.00897490773743298 
-0.003809208169565479 
-0.01606022467910445 
0.02129607973790989 
1.192622389734055e-18 
0.02764361232362734 
0 
-0.01286444860483871 
0.06486827195831972 
0 
0.1100354240975211 
-0.02758304041316221 
0.006010178248646176 
0 
0 
0 
-0.02506474575674624 
0 
0 
0 
0 
-0.00640197530720131 
-0.09890931897809439 
0.07203500012244526 
0 
0.004355184148721388 
0.1368162112055151 
-0.07430732272203586 
0 
-0.02030185585053629 
0 
0 
0.01588589442502463 
0 
0 
0.01971613718804413 
-0.0285956276613316 
-0.02447759162344753 
0 
-0.004213199476812053 
-0.05700193100959587 
-0.04090356664420433 
0.001084033837799623 
0 
0.001097105166304662 
0 
-0.2591051829248313 
0 
0.09581005994583908 
-0.170918794321091 
0 
0 
-0.01059623700672254 
-0.01614640011955161 
0 
0 
0 
0 
-0.002746286187095278 
-0.0008106945474162352 
0 
-0.2130431653688154 
0 
0.005715940410757144 
0 
0 
-0.09133876803423785 
0 
-0.0474819967323596 
0.005633265274929911 
-0.01742864874783916 
0 
0.007664716352288189 
-0.02366094173343365 
0.01563194564348492 
0 
0.008110222249049337 
0.07416187374101366 
0 
0 
-0.1380396214884427 
0 
0 
0 
0 
0 
-0.3169122965655997 
0 
0 
-0.04364148184321442 
0 
0.05826179975228898 
0 
0 
-0.004897899351962135 
0 
0 
0.2481497617349984 
-0.03515608254017553 
0 
0.005880450011575577 
0.05639781225760458 
0 
-0.009963215071326597 
-0.1620130496292579 
0 
-0.02610481385224502 
0 
0 
0 
-0.01900542346993836 
0 
-0.001827675271267874 
0 
0.07566198506291226 
0.1550700202330363 
0.07489773611585326 
0 
-0.04164136933210845 
-0.02937577448557311 
-0.06768526213379994 
0 
0 
0.09595973917482009 
0.007480566305556473 
-0.003756401277236884 
0 
-0.09325502195559596 
-0.2294274544206418 
0 
-2.168404344971009e-19 
0 
0.0124683375402311 
0 
0 
0.1082537655471551 
-0.1196480744874956 
0 
-0.003254172416325083 
0.06142691743661476 
-0.02741031198997091 
0 
-0.4838418268216194 
0 
0.1926393493647793 
0 
0 
-0.1399649480952309 
-0.2285509569954234 
0 
0 
0 
0 
0 
-0.09372423038333987 
0 
-0.1106573971654907 
-0.01776809842399183 
-0.008394140208530363 
0 
0 
-0.2698478927725295 
0.01907393199268264 
0 
0 
0 
-0.03534246336083897 
-0.04135518709914991 
0 
0 
0 
0 
-0.01332868122162083 
-0.03915461724419991 
-0.01647267149755129 
0 
0 
0 
0.01006645275948571 
-0.01049834812085794 
0 
0 
-0.0289499906909002 
-0.08675183484279636 
0.04792514514642969 
-0.06737964687239464 
0 
0.08220989792018923 
-0.2057421819857002 
-0.3117031809940556 
0 
-0.111719300924618 
0.01327063271565923 
-0.004802669364916379 
-0.03505336079489534 
0 
0.01748840755081746 
0 
-0.0006005676052335432 
-0.3436341071332283 
0.05948601789700993 
0 
0.0266070281151321 
0 
0 
0 
-0.0888926720769055 
0 
-0.2190791390236572 
0.04753444380042043 
-0.01453772283986619 
0.0302862863819838 
0.02035196667105479 
0.02501022514947449 
0 
0 
-0.02990022934561782 
0 
-0.03893146759430756 
-0.002826887494803929 
0 
0 
-0.0006292039313877264 
-0.3994886832344494 
0 
0 
0 
0 
-0.115128006306378 
-0.04087052013903628 
-0.1549070613147272 
0 
0 
0 
0 
-0.01651476604240888 
0.1142607932999127 
0 
-0.1153797117626518 
0 
0 
-0.02920092566691971 
8.673617379884035e-19 
-2.168404344971009e-19 
-0.0184684301488405 
0 
0 
0 
0.09778847764337616 
0 
-0.01796727351162704 
0 
-0.06818119083775406 
0 
0 
0 
-0.03738515504484109 
-0.1493877169111135 
0 
0 
0 
0 
-0.01811258121620301 
0 
-0.005083856575986164 
0.2635391297711973 
0.01065550834588256 
0 
0 
-1.084202172485504e-19 
0.06623957332144399 
-0.3323980932777679 
0 
0 
0.03012285767702398 
-0.036423235809215 
-0.002575288263678195 
0 
0.01553181899076161 
-0.01805094818665829 
0 
-0.09476239408427831 
0 
0.01283298759071534 
0.036741140597381 
-8.673617379884035e-19 
0 
-0.005339968099151748 
0.00604547932631967 
-0.034042629271302 
0 
-0.01316033494633401 
0.02599495186494039 
-0.03949033178369338 
0 
0 
-0.07338909142114192 
0 
-0.3135333632463553 
0 
0.003613750791525862 
-0.3646987128147535 
-0.0242375536273814 
0 
0 
0 
0 
0 
0 
-0.2149687259377016 
0 
-0.1577454060095637 
0 
0.01887120537417627 
-0.0157915312110197 
-0.00301196330201115 
-0.004626936944812453 
0.0494056162462439 
0.1382689620510262 
4.336808689942018e-19 
0.01298101938402153 
0.016741352453327 
0.02994948605186305 
0 
0.09931853531766455 
-0.04041281575957975 
0 
-0.001896729779554661 
0.04216762046935042 
0 
-0.06006321162788912 
0 
0 
0 
0 
0.01187894310925647 
-0.08646599919731252 
0 
-0.035489888238352 
0.06068523184602578 
-0.08797346614815117 
0.01359749630974251 
0.001454168480755999 
0 
0.06304920250629595 
0.01658973272831207 
0 
0 
-0.008388457760808491 
0 
0 
0 
0 
-0.02977143185788476 
-0.1226752302474047 
-0.1010949344287867 
0 
0 
-0.04655063969333344 
0 
0 
0 
-0.1948373570795958 
0 
0 
0 
0 
0 
0 
-0.00950242310816771 
0 
0 
-0.01633975572003781 
0 
0.003861622948502943 
0 
-0.07025785889195237 
-0.02587719288423334 
-0.2216436782702116 
-0.05401285680704217 
0.07310295658207304 
-0.01447021773236406 
-0.02329189018149787 
0 
0 
-0.01843921219780179 
-0.0785530812325841 
-0.1220744497364999 
0 
-0.07043225453222193 
0 
-0.002171617243484475 
0 
-0.08897011001482345 
-0.04681425098323527 
-0.003861583069734707 
0 
0 
-0.1303103494589593 
0 
0 
-0.010837104359362 
0.006066918986267328 
0 
0 
0 
0 
-0.05150363874255029 
0.004056126963745036 
0 
0.4625890390858233 
0 
0 
0.008693466616807047 
0 
0.02383337866129685 
0 
0 
-0.00703759577763198 
-0.01256573375772485 
0.001311238019539908 
-0.01245524205819698 
-0.06405715695297193 
-0.007353132358314658 
-0.00574529539665811 
-0.009981188817364272 
0 
0 
0 
0 
0 
0 
0.001727166108009041 
-0.02833806803311744 
0 
0 
0 
0 
0 
-0.02127119460721813 
0.0492522816269711 
0 
0 
0 
0 
0 
-0.1563904116678702 
0 
0.07364726663253644 
-0.103170109419536 
0 
0.01789493055955957 
-0.1252330940816693 
0 
0 
0 
0.001303860284677571 
0.1775705006281174 
-0.07556958361337085 
-0.05179427068142022 
0 
-0.002321827247662858 
-0.07127893269620472 
0 
0 
0 
-0.01231707757365183 
0 
-0.002089507254267782 
-0.009453520135899361 
-0.03660809290760735 
-0.02968478654054396 
0 
0 
0 
0 
0 
0 
0.02751720919339778 
0 
0 
0 
0 
0 
0 
-0.01278085838428697 
0.03193378474189392 
-0.001488519810014326 
0 
-0.03088322216425547 
0 
-0.03892349661266868 
-0.02011639771079551 
-0.03140343792018691 
0 
-0.03917958661852344 
-0.01938667585180799 
-0.06733340446175931 
-0.001150073703600894 
-0.01133691985371913 
-3.252606517456513e-18 
-0.4248362948495943 
0.00692632764147974 
0.02875364065338461 
0.03204373882733064 
0 
0 
-0.06684164545578096 
0.05586818155353859 
0 
0 
0 
-0.01194900479114204 
0 
0 
0 
0 
0 
0 
0.1368717335161284 
-0.01161528965984534 
-0.05518592331469584 
0 
0 
-0.4266472478372926 
0.01491222065703496 
-0.01620536943809426 
0.1687962262473284 
-0.07894808205338788 
-0.00334174927053066 
0 
0 
-0.2695520274681604 
-0.1371988674817933 
-0.03842746000049111 
0 
0 
0 
0.001722520197248305 
-0.02412859480080163 
-0.004227746477416702 
0 
0 
-0.02674353639983029 
-0.04376116027927018 
0 
0 
0.2767444462829127 
-0.07242184763062835 
-0.006861542171503157 
0 
-0.01988857733961674 
-0.31614900579063 
0.03013630432801593 
0 
-0.04263148914509241 
0 
0 
-0.001284920118852271 
0 
-0.2076138808353662 
0.02759714951148552 
0.01682931935398721 
0 
0 
-0.009322357601812464 
-0.00666654631775819 
0 
0 
0 
-0.009428995706442208 
0 
0 
0 
0 
1.084202172485504e-19 
0 
-0.5510051561476159 
0.04558973558299202 
-0.002381081395449281 
0 
-0.04303232369106033 
0 
0 
0 
0 
-0.06300593102424734 
0 
0 
0 
0.00341495123305239 
0 
-0.03443708759694732 
0 
-0.01303124037493118 
0 
0 
0 
-0.01303093757765989 
-0.008796170643645367 
0 
0.3670821646944815 
0 
-0.05643398483703715 
0 
0 
0 
0.01464061103970685 
0.140019588573733 
0 
0 
0 
0.06201121945870287 
2.168404344971009e-19 
-0.1094015359926566 
0 
-0.3009435144639626 
4.336808689942018e-19 
0.2517330413758765 
0 
0 
0.05307485858618901 
-0.01183500848002986 
0 
-0.04860775229873879 
0 
-0.003726897792428985 
0 
0.006573703769202356 
0.01779843035067817 
0.1641865083092628 
0 
0 
-0.0954703639615426 
-0.2407916812258943 
0 
0 
-0.05948774534710621 
0 
-0.02411681212539155 
0 
0.008350878914483441 
-0.01311051078872959 
0 
0.1790996802096419 
-0.2623672208169869 
0.02703901091582156 
0 
0 
0.01122208504711386 
0 
0 
-0.001664470436853913 
-0.01631938969115025 
-0.02518469946869077 
0 
0 
-0.004108316632965272 
0 
0 
0.004651149906819666 
0 
0.3964764922539498 
0 
-0.01560183818930796 
0 
-0.002900344293846667 
0.01277529133402305 
0 
0 
0 
-0.0706392760124378 
-0.004099267383923048 
0.001040614749484862 
-0.1282420506936844 
-0.3920234159135824 
-0.1563559077627766 
-0.04568907333626962 
-0.002450499516219422 
-0.0008382009768717159 
0 
0.01547635057730834 
-0.01005212753052383 
-0.01108274100679504 
0 
0 
-0.1861124025356979 
-0.02973422892314821 
0.004272132884228385 
0 
0.05872838193086977 
0.01108182499828563 
0 
0 
0.05302698995641601 
0 
-0.01099169489974419 
0.01058298566406345 
0 
-0.162184965431443 
0 
-0.008174724715058338 
-0.03073122672628071 
0 
-0.05357490134402065 
0 
0 
0 
-0.3292451738436705 
-0.0740989755919319 
0 
-0.004245716629399598 
0 
0 
0 
-0.04699014038044442 
0 
-0.1567179853270018 
-0.04464674843378878 
0 
0.06604943415327862 
0 
0 
0.008218281840530734 
0 
0 
0 
0 
0 
0 
-0.01350555476811289 
0 
0 
0.009294115386767568 
0 
0 
0 
0.01210595257727695 
-0.06149608261591464 
1.450279511327643 
0.04108531228329117 
-0.1650892023853482 
0 
0 
0.02789613019908126 
-0.02553891257562059 
0 
0 
0.07243908506244429 
0 
0.08678466673832003 
0.02511328591564334 
0 
-0.0138966379570189 
0 
0 
0.1445979055337022 
0 
0.01667591098772165 
0 
-0.01001612339471958 
0 
-0.001941509479876229 
-0.001200028416212904 
0.3047904427729607 
0 
0 
0 
-0.006460453993480204 
-0.02260062808182314 
0 
0.03297855670331358 
-0.1100326249230694 
0 
0.2715079698769063 
0 
0 
0 
-0.006223739441016505 
-0.03603320884139853 
0 
-0.1144236171901969 
0 
0 
0.4818628745142158 
0 
-0.006198495747469539 
-0.01980654678630108 
-0.00746171969228059 
0 
0 
0 
-0.2302237646550152 
-0.01132315815454424 
0 
0.01388747190115691 
0.04498971284435938 
0 
0.04833953945412917 
0 
0 
0.009265628374678559 
-0.01278270176189427 
0 
0 
-0.1776193342276025 
-0.05558767774276608 
0 
0 
0 
0 
0.01241327323636257 
0 
0 
0 
-0.002845456017735326 
0 
-0.006746762482033959 
0.05530157254248644 
0 
0 
-0.365677227990832 
0 
0 
0.05754889700586435 
0.01832590519163775 
0 
-0.2493247134569151 
0 
0.00732072094492009 
0 
-0.002831276860399913 
0 
-0.005388710738765236 
0 
0 
0 
-0.01801629661602703 
-0.0001588083203619631 
-0.01498424906915743 
-0.00335262608298858 
0 
-0.005130350470844169 
0 
0 
0 
0.001942480680323725 
0.006961469329790537 
0 
-0.02317607371963439 
0 
-0.09612555044149407 
0 
-0.004347375682618162 
-0.008831048107487185 
0 
0 
-0.315847181509425 
0 
0 
0 
-0.2259319256575592 
-0.03015189008227713 
0 
-0.002552302854849101 
0.04258943576086171 
-0.02371610114906122 
0 
0 
0.008817288390626688 
-0.1863462030034136 
0 
0.0145312192379463 
-0.0362331805205351 
-0.1429413620991834 
0 
0 
0 
0 
0 
-0.04889672594860784 
0 
0 
0 
-0.008680514297639986 
0 
0 
0 
0 
1.734723475976807e-18 
-0.02616434742406173 
-0.3286925249542519 
-0.001558324522929926 
0 
0 
0 
0 
0 
-0.03025044748322157 
-0.02406244322427877 
0 
-0.1035958265072621 
0 
0 
0 
0.00449812046064539 
0 
0.08764133300030776 
0 
0 
0 
0.02846839105165116 
0 
-0.0109014288835757 
0.05957353033671325 
-0.03022884788486017 
0 
0 
-0.02516201035764661 
0 
-0.01386720105169103 
0 
0 
-0.006015066870134161 
0.08664566892158974 
0 
-0.01085435956950787 
0.02575746445663374 
-0.02467914818482548 
0 
-0.04443159725031538 
0 
-0.2251253537136562 
0 
0 
-0.05443824332714919 
0 
0 
0 
-0.03525055962307805 
-0.002549325346053888 
0 
0 
-0.07388693193315803 
0 
0.02671882734167746 
0 
-0.01416904638157125 
-0.2127759274636928 
0 
0 
-0.1022027409510173 
0 
0.004360381696931495 
0.006481026756327685 
0.2631370545158563 
-0.2601910867459213 
-0.007364094610836466 
-0.03624230131927359 
0.003351951874666583 
-0.01509744111192399 
0 
-0.01198186585075819 
0 
0 
0.111600096347836 
0.07931285399624796 
-0.118338699405234 
0 
0 
-0.1239554630046933 
-0.0032336993491747 
0 
0.06302443043721907 
0 
0.004649038815935543 
-0.06228852882032297 
0 
0.02444407096734943 
-0.01255082418256007 
0 
0.1118434293427387 
0 
0.01305708383004623 
-0.002909608517307634 
0 
-0.0003184150894358224 
-0.003449392676713279 
0 
0 
0 
0.01073156039614537 
0 
-0.0004015130190254224 
-0.02439092200368293 
0 
0 
0 
0 
0 
0 
0.002540097571648875 
0.002659432766076923 
0 
0 
-0.02598304821033894 
0 
0 
-0.0476806094282906 
0.04497827668892085 
0.02115386189407807 
0.001546460160738134 
8.673617379884035e-19 
0 
0.00411608670954886 
0 
0.02809013178645052 
-0.07925979762557983 
-0.1638119220514495 
-0.06712579502298618 
0.001550012994133416 
0.0001436773723137679 
-0.0391963996626025 
0 
0.04872152232078191 
0 
0 
0 
0 
0 
-0.01458499871031202 
-0.5126174944008144 
0.03860172016757041 
1.073656400779625 
0 
0.04959857475052961 
-0.03097577092788008 
0.0029032228856815 
0 
0 
0 
0.02310626554859664 
0 
-0.01269044531205309 
0 
0 
0 
0 
-0.01857020045950428 
-0.0005172418158321748 
0 
0 
0 
-1.355252715606881e-19 
-0.02346884734675912 
0 
0.3023991397528772 
0 
-0.1249628408454955 
0 
0 
-0.01405578204125197 
0 
0 
-0.02468473664413189 
0 
0 
0.4743927254140736 
0.03540344863232367 
0 
-0.01062473805642728 
0 
0 
-0.0004026485174623971 
0 
0 
0 
-0.0141375938704857 
0 
-0.03812547230437582 
0.02683949777488328 
0 
-0.0004667526221433799 
0 
0 
3.469446951953614e-18 
0.04192148206477932 
0.009841325186769617 
0 
-0.03789562433884739 
0 
0.01115395452049765 
0 
0 
-0.05222414108239978 
0.0003044611150285742 
0 
0 
-0.02040551845326761 
-0.006140391198515666 
0 
-0.01872206956664688 
0 
-0.009043464321123273 
-0.007543936254839238 
0 
-0.1334892688232197 
-0.1989751047507507 
-0.4033340598298071 
0.02910695788317728 
0 
0.01641335181179953 
-0.0001383424074959612 
0 
-0.007361530383210932 
-0.01905427735496118 
0 
0 
-0.0365860276793779 
0 
0 
-0.04101794805096769 
-2.168404344971009e-19 
-0.02118892968188955 
0 
0 
0 
0 
0.007957295322869463 
-5.421010862427522e-19 
0 
-0.0166816640241246 
0 
0 
0.04097896695469237 
0.01550542073367406 
5.421010862427522e-20 
0 
0 
0 
0 
0 
-0.001174844776811482 
2.710505431213761e-19 
0 
0.01056417976186863 
0 
-0.01731312640555577 
0 
-0.01778348917950006 
0 
0 
0 
0 
1.3612763474907 
5.421010862427522e-20 
0 
0.05635771377256529 
0 
0 
0 
0 
0 
0 
-0.02407036780310552 
0 
-0.06521989980191759 
-0.00164337956817059 
-0.02244066351677472 
0 
0 
0 
0 
0 
-0.1696154567909886 
0 
-0.03468106431210378 
0 
0 
-0.01775768259256219 
-0.01539546329532807 
-0.001306814825384672 
-0.01118503860921345 
0 
0.0144571591568613 
0 
0 
0.1218579014283567 
-0.004962156380600633 
-0.05679769684032988 
0 
-0.1978604797427446 
0 
-0.01488291838763126 
0 
0.001248188351011066 
0.04825015252189711 
-0.03671831888680004 
0 
0 
-0.09772491449646965 
0.003085489098149121 
0 
0 
0 
0 
0.1443727751051794 
0 
0.009223933438201593 
0.06359738101672086 
0 
0 
-0.03303370999166186 
-0.02802868392595743 
2.168404344971009e-19 
0 
0 
0.07353239666170737 
0 
0 
0 
0 
0.01524755235185967 
-0.03611112410918262 
-0.001518734631913018 
-0.05500390302728311 
0 
0.07034298608717816 
0 
-2.168404344971009e-19 
0 
-0.01726526824246371 
0 
0 
0.02472310573432129 
0.009420461822504814 
-0.002956080616826629 
-0.02191093023281934 
0 
-0.01537109357399409 
-0.01265596291512001 
-0.1429655035434629 
0.004287966084662252 
0.08085468664445872 
0 
-0.3216678181147158 
0.003325887521376087 
0 
0.00857306465089756 
0 
0 
0 
-0.03195095806455039 
-0.1647527829938842 
0 
0 
0 
0 
0 
-0.1431492432296422 
-0.01332733144414204 
-0.001440100522394201 
-0.01534896170921703 
0 
0 
0 
0.1240024754605677 
0 
-0.002777252783326304 
0.01613459959533102 
-0.03103774153394629 
0 
-0.02089343272004892 
-0.1344983431088038 
-0.007355659950481193 
0 
0 
0 
-0.03759425620978428 
-0.0715786495134101 
0.02789466138662073 
-0.01622836410748053 
0 
0 
0 
0 
0 
0 
0 
-0.02626244602822411 
-0.0134548942688613 
0 
0 
0 
-0.08584973419245391 
0.1735053738877923 
-0.007615539031750899 
0 
-0.01973716278633307 
0 
-0.03820256635622121 
-0.3150956646804039 
-0.1090218705048959 
0 
-0.1317694662538654 
0.02088758152539481 
0.009501639490286921 
0.01234339892090271 
0.0009215152028601265 
0 
-0.002275062799802632 
0 
0.05727633351151298 
-0.005682169574257202 
0 
0 
0 
0 
0 
0 
0 
0 
0.03285630893023159 
0 
-0.04363186206329359 
0 
0 
0 
0 
0 
0 
0 
0 
0 
0 
0 
0 
0 
0 
-0.08195351675318215 
-0.6531985154111392 
0.03688906524039016 
0 
0 
-0.08126970401147571 
0.06353732008783251 
0 
-0.03337590132299929 
0 
-0.01183793952011914 
0.004513394072545097 
-0.001972210721658966 
0 
0 
0.00355109922238831 
0.02435995122285362 
0 
0 
-0.006719300001040741 
0 
0.01873635414045505 
0 
0 
0 
-0.0004402597827726354 
0 
-7.372487875763751e-05 
0 
0 
0 
0.01288025326236276 
0 
0 
0 
0.03405615155113496 
0 
0 
0 
0 
0 
0.00408692400533604 
0.02101406280970677 
0 
-0.01583862582025485 
0 
-0.01243732822873339 
0 
0 
0 
-0.005939825385259382 
0 
0 
-0.1498771245309576 
0.01819909641236289 
-0.01718048707484982 
0.0218361575648626 
-0.06834120296241238 
0 
0 
0.1662584386371448 
0.007937083456784537 
0 
0.002828487571661031 
0 
0 
0 
0.003187334706692896 
-0.1160464167917892 
-0.01286975385408885 
-0.0001238238710640219 
-0.05588562583752694 
5.095750210681871e-18 
0 
0.244066190378228 
0.008772967960904569 
-0.02038187954752025 
-0.01545693267930157 
0 
0.02461626269438148 
0.009163938175943541 
-0.02044826562143515 
0.04851616233327063 
-0.06273919959395784 
0 
0 
-0.001213964258135757 
0 
0 
1.517883041479706e-18 
0.04172992979927849 
0.006488404172544627 
0.02479810006604316 
0 
0 
0.1318032566973993 
0 
0 
0.04977969886890182 
0.02395248994205079 
-0.03410285540857742 
0 
0 
-0.1002267636555297 
-0.004679088418216615 
0.003252640657439838 
0 
0.1892373744711567 
0 
0 
-0.10633268808798 
0.1573884715022026 
0 
0 
0 
0.07255920810839653 
0 
-0.0321147937534644 
0 
0 
0.04533008298170206 
0 
0 
-0.1178458421518346 
0 
-0.002921481485606425 
-0.02465681052081813 
-0.009935404910333651 
-0.004601109004115918 
0 
-0.3293290005345752 
-0.00182538764921298 
0 
-0.2402841180356177 
0.03409358557979507 
-0.01390298081428777 
0 
-0.01022176377293622 
0 
-0.07359653234646858 
0 
0 
-0.00338463692397829 
-0.1191206869444329 
-0.1689282382607546 
0 
0 
0 
0 
0 
-0.07312299192291823 
0 
-0.004341387899974718 
0.6894564194918411 
0 
0 
-0.01451427767688876 
-0.0138763156648018 
-0.03564252554287108 
-0.02021881173238959 
-0.005984274593022553 
0 
0.01774364943587754 
0 
0.08887909123471982 
0 
0 
0.01037729996815003 
0 
-0.01678716342472719 
0.08805008554204344 
-0.02131394598371225 
0 
-0.003378558224969799 
0 
-0.03919704261524074 
-0.04266126541074849 
0 
0 
-0.1037672320364639 
0 
0 
0 
0 
-0.004317074311434145 
0 
-0.04348517733933457 
0 
0.3684191793132258 
-0.0007623721014464168 
0 
0.3684191793132258 
0 
-0.02429486205387938 
0 
0 
0 
0 
-0.000674764800693794 
0 
0 
0 
0 
0 
0 
-0.00135202650844797 
0 
0 
0 
0 
0 
0 
-0.02560773315447058 
-0.01350369562502816 
0 
0.1150818273921596 
0.01675978032425189 
0.0737037060405611 
-0.001322418520781199 
0.04986181505730117 
-0.02240549052693238 
0 
0 
-0.1047496721402275 
0 
-0.1988600664434929 
-0.0400965587062888 
0 
0 
0 
0 
-0.002807108142443384 
0 
0 
0 
-0.006954157362479048 
0 
0 
-0.008901325590568832 
0 
-0.02440747328314987 
0 
0.05641526513954116 
0 
-0.006175056142398517 
0 
-0.002330215692852498 
0.03465282699198539 
0 
0 
0 
-0.05538550029609442 
0.02599404819098282 
0.008760646559459637 
-0.1092063513636885 
0 
-0.0299002083899891 
0 
0.09639633257789179 
0 
0.009969563732706955 
0 
0 
-0.1386949294730731 
0 
0 
0 
-0.01262576628670333 
0 
-0.02273726584885845 
0.03274223261757746 
0 
0 
0 
-0.4432090799486727 
0 
-0.08722466059930009 
0.05543774217158463 
0 
0.05090072380483647 
0 
0.004950189885540051 
0.002369910355760853 
-0.005017032731019003 
0 
0.002763784461913949 
0 
-0.05213531404991818 
0.008267365642510746 
0.01003832222206677 
0 
0 
0 
0 
8.673617379884035e-19 
0 
0 
0 
-0.02015472201489352 
-0.005631460001594867 
-0.00317524115515175 
-0.005430571112768521 
0.0138696282635632 
0 
-0.006890940923325384 
0.001710845279774274 
-0.1646590481989181 
0.02946216147757942 
0 
-0.03294632570813407 
-0.007960224887020318 
0 
0 
-0.004473371086427425 
0 
-0.1306425466747418 
0.009702544214710153 
-0.04189115620272208 
0 
-0.008519803362618745 
0 
0 
0.9454688193799142 
0.1725962068527231 
0 
0.02318683324134022 
0 
0 
0 
0 
0 
0 
0 
0 
0.02013458983342425 
0 
0 
0.01361376260316677 
0.01278069477956179 
0 
0 
0 
0 
-0.1237044319598073 
0 
-0.01284803848637625 
0 
-0.0727667457044798 
0 
-0.01869002290890273 
-0.2217872429406563 
0 
0.03986799273762993 
0 
0 
0.03083555821165281 
0 
0 
0 
0 
0 
-0.04131451792957137 
-0.07102123596983929 
0 
0 
0.2748919003097955 
-0.01401305754776988 
0 
0 
0 
0.05074198445507973 
0 
0 
0.003304054406967354 
0 
0.0403350609593333 
-0.0397892937753308 
-0.01999561560962814 
0.08140321481982152 
-0.04131472065193888 
0.01418327514559615 
-0.005048444862086252 
0 
0 
0 
0 
0 
0 
0 
-0.01745483541782865 
-0.03220192063384813 
-0.00781173937384862 
0 
0.004004393414656061 
-0.00706866986053631 
0 
-0.005439301523154515 
-0.002312285191159807 
-0.0046657576343865 
0 
0 
-0.03972370042087483 
0 
0 
-0.004146118685337611 
0.04196931060487944 
0 
-0.00198273216423536 
-0.03918358334632343 
0 
0 
-0.02231782668119463 
-8.673617379884035e-19 
-0.3272818702478588 
0 
0 
-0.1118734478533183 
0 
0 
0.150995284690527 
0 
0.08223983868720523 
-0.1144619167408515 
0 
0 
0 
0.06218017597545638 
-0.03950066074426422 
0 
0 
-0.01006054012209702 
-0.03754159257107551 
0 
0 
0 
0 
0.01637061734022436 
-0.001809551749422824 
0 
0 
0 
-0.08947081624732639 
0.007223764522466713 
0 
0 
2.168404344971009e-19 
0 
0 
0 
-0.196285004090713 
0.009366717567862023 
-0.01221071153764098 
0 
-0.03869598195477231 
0 
0 
1.626303258728257e-19 
0 
0.01406865838277169 
0 
-0.0372275453092742 
0 
0 
0 
-0.01231006288384033 
0 
0 
0 
0.03970109909976191 
0 
0 
0 
0 
-0.02065540604893545 
0 
0 
0 
0 
0 
0 
0 
0 
-0.0465654159641296 
-0.001581624252164736 
0 
0.01032784176898484 
0 
0 
0 
-0.09536636802915265 
0 
0 
0 
0 
0 
-0.02600837296504739 
0 
-0.005880799022482887 
0 
0 
0 
0 
0.04575931177600145 
0 
0 
0 
-0.02082881072263066 
0.01298646387558435 
0 
0 
0 
0 
0.0318947958106107 
-0.02785039705215505 
0 
-0.02021665916134282 
0 
-0.06670728457123556 
0 
0.002834286692938488 
-0.6151759997000059 
-0.06153160210968754 
0.0494169983359588 
0.000667380647177048 
0 
0 
0 
0 
0 
0 
-0.1507421651211471 
0 
0 
0 
0 
0 
0 
0 
0.01178281246148103 
0 
-0.1188503418097879 
0.1185088364448149 
0 
0.1364250445933315 
0 
0 
-0.00369382256536361 
0.006174170391962255 
0.01029671942550917 
-0.004980602571513965 
0 
0.03114101623506541 
0.01155955803967332 
-0.03261041589949724 
0 
-0.02307142000724176 
0 
0.0153804917656656 
0.02912597657004957 
0.1373951216097651 
0 
-0.2903765426341926 
0.00995238810288596 
0 
-0.5128855463397927 
0 
0 
0 
-0.03273608007316594 
0 
-0.02200434121211013 
-0.03310004951475807 
-1.734723475976807e-18 
0.05664075961495611 
0 
-0.01747854656895433 
0 
0.01433004883985088 
0 
0 
-0.02294095710397323 
0 
-0.01106437727701397 
0 
-0.04397294888751037 
0.04165089206970711 
0 
-0.2349696397453616 
0 
0 
0.01407250630990196 
-0.1245271620535366 
0 
0 
0 
0 
0.03216487142096754 
-0.0004625530197104716 
-0.0500499686556503 
0 
0.08894090424145018 
0 
-0.1459713009134508 
0 
0 
-0.005101195258845825 
0 
0 
0 
-0.02923194795217495 
0.09208430273964639 
-0.02109233572451545 
0 
0 
0 
0 
0 
0 
0 
0.003286417037799202 
0.06845683168552065 
0 
-0.001247288566719228 
-0.006550935793679844 
0 
-0.002204957975859446 
-0.0368815448774495 
0.03454272676131169 
0.09557353451628016 
0 
0 
0 
0 
0 
0 
0 
0.003772965251045681 
8.673617379884035e-19 
0 
0 
0 
0 
0.02372170482155245 
0.007243622248639493 
0.05202380296285897 
0 
0 
0.4346551218470718 
0.02230928404597253 
0 
0 
0 
0 
0.003556533164559793 
0 
0 
0.03952180479110224 
0.00511833023586163 
0 
0 
0 
0 
0 
0 
0 
0 
-0.02684444969447886 
-0.02534129142207606 
-0.004253604313234496 
0 
0.05132807624499847 
0 
0 
0.02203998784332699 
-0.00509279275456311 
-0.1517280650914302 
0.003120779789550223 
0 
0 
-0.00543789636230068 
0 
0 
0 
0 
0 
-0.003498448576173797 
-0.004521879036822434 
0.01476038239727428 
-0.04532397218867103 
0 
0 
0.09886587829093826 
-0.004865313497666704 
0 
0 
-0.0301765496787078 
-0.1829278686082619 
0 
0 
0 
0 
0 
0 
0 
0.06522393770409975 
0 
0 
0.003409048685630959 
0.07665000104438049 
0 
0 
0 
0 
-0.003167911130574935 
0 
0 
0 
0.07676598790857679 
0.004459926924664503 
-0.07020167346022631 
0 
-0.002343560364686756 
0 
-0.08732943901724992 
0 
0 
0 
0.006367474858471851 
0.2703213127564805 
0 
0 
0.022533061099753 
-0.09312894692742425 
0.005428960830786913 
-0.05268050057318077 
0 
0 
0.02514797133996229 
-0.02059928326580535 
-0.005371924914803802 
-0.05349164526577505 
0 
0.05293654513528685 
0 
0 
0 
0 
-0.04994051822938035 
0 
0 
0 
0 
0 
0 
0 
0 
0 
0 
0 
0 
0.01266443736346811 
-0.02423399063194805 
0 
-0.01026172854001209 
0 
-0.001269256718280207 
0 
0 
0 
0 
0 
0 
0 
0.01401108518442093 
0 
0 
0.3482474555831893 
-0.090612237936899 
0 
0 
0 
-0.01245766571971342 
0 
-0.002045892518920019 
0 
-0.01509345702535412 
-0.0001970024815805411 
-0.008390677184878454 
-0.1654912927669991 
0 
0.1177863911407154 
0 
-0.01189882231789853 
-0.007022342930210345 
0 
0 
0 
0.004496188040561042 
0 
0 
0 
0 
-0.02174590535494346 
0 
-0.001351381644490574 
0 
0 
0.00999305425329999 
0 
0 
0 
0 
-0.2741399368369202 
0.1208783753706118 
0 
0 
-0.1022364055677966 
0.01599289652854461 
0 
0.02411812230225684 
0 
4.206704429243757e-17 
-0.06564008052903846 
-0.00718257936888562 
0 
0 
-0.1696756105712097 
0 
-0.02922866221023568 
0 
0 
0 
-0.02836978505415326 
0 
-0.009856996170431081 
0 
0 
-0.01068987900744885 
-0.03944715415392999 
0 
0 
0 
0 
0 
-0.0921252376740876 
0 
0 
0 
0 
0 
-0.023507314114493 
0 
0 
-0.03092044617898952 
0 
0 
-0.005784525998086334 
-0.009708520764969485 
0 
-0.188492048713603 
0 
-0.003489346153368941 
0.007845181557812003 
-0.02593989545212555 
0 
-0.134084819633771 
0 
0.01161799212961853 
0 
0 
-0.04483420070643652 
0.04106133655834401 
0 
0 
-0.01394937048492223 
0 
-0.007373598796053393 
-0.07058751071220996 
0 
0 
0 
0 
0 
0 
-0.001891620053091146 
0 
0.01530331223132412 
-0.3406292003211552 
0.01484539568828376 
0 
0.003938493015682019 
0.04340417064957551 
0 
-0.09770186019983917 
0.05572693844086286 
0 
0 
0 
-0.003955987218574546 
0 
0 
0 
0 
0 
0.04772700336969496 
0 
-0.07583349851239192 
0 
0 
0 
-0.03715636481005743 
-0.05401723839707067 
-0.2785490588524886 
0 
0 
0 
0.01469232741037782 
-0.003037281430306192 
0.001858554216762778 
0 
0 
0.008423357944332461 
0 
0 
-0.07186662160727043 
0 
-0.01471905014175269 
-0.1114734014163115 
0 
0 
0 
-0.02647246410306873 
0 
0 
0 
-0.1656202516384144 
0 
0.429431523712629 
0 
0.09777218755681155 
-0.01853400597010919 
0.003992944268201755 
0 
0 
0 
-0.1349525116293257 
0 
0 
0.07422014514311892 
-0.02692327118608116 
0.04156890850763723 
0 
0 
-0.1102691867908549 
0 
-0.02589872124208527 
0 
0 
0 
0 
0 
-0.7879327950304936 
-0.002951763889923816 
0.04251971204388065 
0 
0 
0.01490410503568354 
0.03909349004283594 
0 
0.02404047839704838 
0 
0 
0 
-0.2668063639142077 
0 
-0.1597896421322355 
0 
0.02403092808719896 
0 
0 
0.01514187607028045 
0 
0 
0.008628192528799834 
-0.1883406683706314 
0 
0 
-0.05806851228849443 
-0.005845165006100292 
0 
-0.004457117941486336 
-0.04352421443332002 
0 
0 
0.04178520599213116 
0.1308966526102804 
-0.04684857882009587 
0 
0 
0 
-0.08578862808877487 
0 
-0.04670089688433577 
0 
-0.004403420117251656 
0 
0 
0.009669256114353725 
0 
-0.02612643273079012 
0 
0 
0.02257989858405457 
0 
0 
0.02486229169866894 
0 
0 
0.03557656769508043 
0 
0 
-0.002301691406285625 
0 
0 
0.006973503216197913 
-0.03742744311085593 
-0.008165378576400052 
-0.1170140713675678 
-0.0004785922029739624 
0.01050071111423464 
0 
0 
0 
0 
0 
0 
0 
0 
0 
0 
-0.1423290739271114 
0 
0 
0 
0 
0 
-0.004500680232570695 
0.02846189536582123 
0 
0 
0 
0 
0 
0 
-1.002287475176846 
-0.2027929963846354 
