solver_type L2R_L2LOSS_SVC_DUAL
nr_class 2
label 0 1
nr_feature 5000
bias -1
w
0.2815828966668936 
0.07468898764173618 
0.4655313725690972 
0.09603454219504839 
-0.003886432939957181 
0.503072959297254 
0.01719761068345391 
0 
0.09447517908236544 
0.02017498514970623 
0.04285565435659795 
0.09550738393419199 
0.178786087214819 
0 
-0.008587305588942088 
0.0782226891144213 
-0.04201055987742092 
0.3432978673022016 
0 
0.1899156810455178 
0.1000356619013988 
0.3396229072657563 
0.07825174727408574 
0 
0 
0 
0.3417795199288436 
0.06461538744013971 
0 
0.00508970429814669 
0.1146862921848223 
0.003858599834991218 
0.1448759693398684 
-0.009775847600512803 
0.09268495018253217 
0.05217025096615988 
0.2555440840558871 
0.03499872985517925 
0.02135971301012254 
0 
0 
0.08285182694996178 
0.1370973285310744 
0.1847637854176243 
0.2175597870693513 
0.109459621679137 
0.0881837211305717 
0.07996168814895398 
0.02615936416975938 
0.05142339077171189 
-0.01225735838396013 
0 
0.1896939276902548 
0.006561203696671176 
0.004202595521540451 
-0.01135441821962576 
0.02110861905127438 
0.1703654392281907 
0.009944518127028857 
0.06198452525979307 
0 
0.08515121533435546 
-0.08560127920749257 
0.03493886239425037 
0 
-0.1173778376210374 
-0.03450429328413071 
0.2504731806865165 
0 
0.03857641796805499 
0.1901961385995871 
-0.1878625959914574 
0.002861248186667996 
0 
0.009246886089574942 
0 
0.01117422484926977 
0.00660308817957237 
0.1588187561098715 
0.105918545572416 
0.0253307769938269 
-0.01709742506888375 
0.01064540845914643 
0.02461305218064941 
0.001264941262922405 
-0.1180339715167257 
0.2456355076629184 
-0.07604798015342706 
0.01291845154919469 
0.1385221902551488 
0.02253831778607948 
0.1426764986294031 
0.03885914564276615 
-0.031480168542872 
0.0578022199194467 
0.008103565789375251 
0.09206355397640406 
0.1733574220366034 
0 
-0.1694315796049058 
-0.1283056465197208 
0.01958292776774842 
0.002677971420011598 
0 
0.04562505754244069 
0.01105500925680563 
0.0264238476472527 
-0.007313058415901247 
0 
0.05201334425304358 
-0.04050554363478073 
0.01044536605972785 
0.006956930855661997 
0.02020910702399256 
0.03464673678737151 
0.03833168545887663 
0.05651997036681532 
-0.06008760255762714 
0.406635344061545 
0.2749103960820416 
0.0172203184515992 
0.00138705512813377 
0.01467815679395954 
-0.06712463279945632 
-0.0383646949450362 
0.01450019907503953 
0.005212970980400913 
0.1054061987235421 
0 
0 
0.02479801465427288 
0 
0 
0.1348183351334704 
0.1054903692693143 
0.06245228274107453 
0.1553146075418133 
0.004212896634550573 
0 
0.06561910905618874 
0 
0 
-0.02216792543932923 
0.02957745003311576 
0.01443406775832232 
0.07562398504667714 
0 
0 
0.02423581827188973 
0 
-0.1805214795171277 
0.003334529115714146 
0.05237185698778791 
0 
0 
0.06488814907461914 
0 
0.02092176306274723 
0 
0 
0.1120716527328525 
0 
-0.1904511705193777 
0.05043348125503853 
0 
0 
-0.1032827583095218 
0 
0.007965216946480327 
-0.1767837221647873 
0.06083717328146546 
0.2220262749689396 
0.07139124151212055 
0.04703197907157777 
0 
0.1534316637751279 
0.07090843961613866 
0.07788167772189881 
-0.03646129224461993 
0 
0 
0.1258800570536796 
0.3481908901462351 
0 
0.09064888612250657 
0 
0.06256208325762905 
0.1767437304931209 
-0.01347700534132197 
0.03461903682031989 
0.004877114601138125 
0.005967488020383352 
0.1189422673743751 
-0.0321617735136001 
0.0009526926179092526 
0.1426523562638012 
0.0952625350526351 
0.02144038416073632 
0.1256765895110391 
4.120149530994944e-05 
0 
0.00433626347856571 
0 
0.03459228445139716 
0 
0.2246601428478582 
0 
0.1725887916996797 
-0.143688851946801 
-0.2911372870360776 
0.0536106469389684 
0.05964442498095118 
0 
0.1357740170704307 
0.0683731963947337 
0.01741318812646229 
0.1089404666055273 
0.01155286503252425 
0 
0.0008520705285663477 
0 
0.001833538717555061 
0.1704516947284994 
0 
0 
-0.06116557091081239 
0.01447001788635097 
-0.009965311898072825 
0.01958484164963042 
0 
0.01120229779027213 
-0.01706809098410563 
0.03025829735083305 
0.1274883527356845 
0 
0.003607811980902199 
0.04351140701130066 
0.02505198751056207 
0 
0.0304734337492988 
0 
-0.006074188144790519 
0.04725762696821977 
0.300349371882905 
0.05513742247296958 
0.01263690397880679 
-0.0009609014318462603 
0.02022305656630069 
0.05506546806513261 
0.05617420802779088 
0.05029163915490524 
-0.01429724649106228 
0.2035682577904969 
-0.05880866427193424 
0.006709761187666833 
-0.02656906412272 
0.02009806484102563 
0.05414363834419086 
0.005087895688456641 
0.002395894243102442 
0.03855932434392518 
0 
-0.2100824584443043 
0.07112091221829157 
0.01017292230705151 
0 
0 
0.06746103119437577 
0.1005996072175077 
0 
0.04729985030894548 
0.01341310521932136 
0.05801702190980129 
0 
0.2715631422298911 
0 
0.03564393079666499 
7.453889935837843e-20 
0.01145433559136621 
0 
0.1546660170940723 
0 
0 
0 
0 
0.07180348447987855 
0.02940650833697757 
0.1312718974995327 
0 
0 
0.5766110392794865 
0.0306963871868862 
0 
0.3618568478991581 
0.06998873558129333 
-0.04388832466864311 
0 
0 
0 
-0.01622886836832355 
0 
0 
0.0044820309507683 
0.1656072750397612 
0 
0.06070501532082099 
0 
0.15147639941298 
0.006536106443554355 
0.0179333095485826 
0 
-0.01211663207899575 
0.02067389585373398 
0.001690514026042695 
-0.00241397639938833 
0.6688245246659839 
0.003973584467816873 
0.07803819767643405 
0.1164439271852141 
0 
0.02484256522835854 
0.007315473560354749 
0.07657084719635977 
0.04915470853356622 
0 
0.004840184145416215 
0 
0.02639945516661522 
0 
0.03409221688029219 
0.07821491995808674 
0.002013413878939815 
0.00326366123345247 
0.06580775511731493 
0.002481677809675847 
0.01687282422994375 
0.0153349766360858 
0.08121445973176399 
0 
0.08309644798877025 
0.004073911041180123 
0 
0.06202805000370895 
0.008518597480745568 
0.01598982981406009 
0.03984719904259952 
-0.003826308668146665 
0.07491716369069921 
0.01182540439930191 
-0.01144211101016561 
0.02270287539280454 
0 
0.02125587472832212 
-0.01757612227178282 
0.01910877939776015 
0.04200708036287779 
0.006610154854693184 
0 
-0.05625258678430498 
0.01858819862035541 
0 
0 
0.2314513498746909 
0.03487106222810775 
0.04567445150953871 
-0.06604068762371666 
0 
0.02377025314605291 
0.03027623632788791 
0 
0.1559518070206672 
0.01657409923554875 
0.012853814849358 
0 
0.06858129270980833 
0 
0.395137108850743 
0.01033222252676048 
0.02126808275862539 
0.01934180676159048 
0.04845819639009723 
0 
0 
0 
0 
0.0444426149100589 
0.0429449729859301 
0.01443505022669269 
0.09147852176048586 
0 
0.03345265809811811 
0 
0.02024401685565365 
0.008270909558160899 
0.03886033749845548 
0.0390473567572041 
0.06485382982236292 
0.03505483036589811 
0 
0.04165160394443281 
0.003498070726549542 
0.001830983570759085 
0.0135108378515946 
0 
0.01088011919030035 
-0.14529937514161 
0 
0.1098730899560008 
0.1559950584368385 
0.02292356792660061 
0.03403434923677592 
0.008231559700936756 
0.3263610293973668 
-0.6851510035506768 
0.001765179077873747 
0.02471475961121591 
0.02561402945476113 
-0.01214202380654412 
0.08335085646405484 
-0.1584617161985955 
0.04589184076643082 
0 
0 
0 
0.01607129037884351 
0 
-0.1035881349800035 
0 
0.4949028186246933 
0.06258645388320161 
0.1026512838413546 
0.06306657159541884 
0.01526730618773895 
0.03020684956611854 
0.02555575493000958 
0.007559141786880783 
0.05936380339933335 
0 
-0.005049380490671536 
0 
0.0100890080085957 
0 
0.2823185391368107 
0.01801852589887754 
0 
0.07133583610204594 
0.02658755450783814 
0.01457568868283753 
0 
0 
0.01112662171672979 
0 
0 
0.03129272454995536 
-0.2085474343252727 
0.006249950406189268 
0.04721001941852361 
0.03981667942720304 
0 
0 
0.1226830107306954 
0.01810402393721263 
0.03304765292396443 
0.1167368890574035 
0.1307545393267365 
0 
0.01072932814737819 
0.04486146972042985 
0.1109976586905296 
0 
0.02784384363416313 
0 
0.04130026701098451 
0 
0 
0.01171081562435612 
-0.01991113689664851 
0.06288446325080897 
-0.08797297158317109 
0.04867465078278502 
0 
0.544539431998898 
0.06919257768139066 
0.06733428927662892 
0 
-0.09179060887964155 
0.004265949338425527 
-0.01477680843188304 
0 
0.02178132025824455 
0.01562987640068485 
0.2817092451289233 
0 
-0.001191797504816689 
0 
0.04507478350976456 
0.07906919110503662 
0.02549579278352363 
0 
0.1364788285523099 
0.02435943405831015 
0.2849121638278475 
-0.05859207312820341 
0.04939548569912057 
0 
0.007539480437167209 
0.01021089342084872 
0.0102596771977782 
0.02291595607321524 
0.02812466122079492 
0.007738820424025601 
0 
0 
0 
0.1312468777126879 
0.05395659438305254 
0 
0.009907117742207972 
0.01830077932751555 
0.07808424919613331 
0.292745565473739 
0 
0 
-0.02350763303444782 
0 
0 
0.0009994117941369424 
-0.009492805032385074 
0 
0 
0 
0.002387638177741393 
-0.02211453022614779 
0 
0 
0.07358780151869222 
0.02329714280612974 
-0.008567675888232386 
0.02229092154943899 
0.003708993254360748 
0.01268181867619703 
0.08635870694217579 
0 
0.01583324461584981 
0.04962270333702121 
0.01263210843649406 
0.007759585157493265 
0.242653274395672 
0.1196237440097715 
0.01938006738719169 
0.1505519742756123 
0 
0.03148206477018176 
0 
0.01070512927517983 
0.01353111254281666 
0.009430206684816374 
0 
0 
0.002284546403110664 
0 
0 
0.2158503406336254 
0.1176667713098718 
0.2557141446487369 
0 
-0.06453829987430774 
0.03048471052758995 
-0.048353963687063 
0 
0 
0 
0 
0 
0 
0 
0.02718436582495106 
0.2269059520269839 
0.0062625978558417 
0 
0.02852391645183367 
0.007418555960461398 
0.001408212478275863 
2.710505431213761e-19 
0 
0.009597358609690415 
0 
0 
0 
0.004563509287027858 
0 
0 
0 
0 
0 
0.0342097152458957 
0.03752850281899875 
0.06027167016891429 
0.006015798019988079 
0 
0.01235543519758673 
0 
0 
0 
0.03225806513092353 
-0.02356796686745065 
0.03288237691327844 
0 
0.001161705067115639 
-0.02865554962518639 
0 
0 
0 
0.004083947700432938 
0.007158428569456075 
0.006459117959731015 
0 
0.01315988359768071 
0.07004921891315186 
0.01416088302430004 
0.02067774365739955 
0 
0.001533561056031911 
0.0007017646800662687 
0.003467143086693016 
0.1999449632164827 
0.1401169879034648 
0 
0.9593231660367137 
0.07078852834604706 
0 
0.06349778017656178 
0 
0 
0 
-0.03339193771677284 
0 
0.01055836950625371 
0.04649492600236876 
-0.02931112070352667 
0.001900957552148172 
-0.03009321324158602 
0 
0.01142297826223339 
0 
0.08161478079168692 
0 
0.01111707185437854 
0 
0 
0.0124251629175492 
0.1307452903557468 
0 
0.01080887026481988 
0 
-0.002024649683236098 
0.00730680356435314 
0.06004804155277816 
0 
0.006337131426798586 
0.08143497221574762 
0 
0.004520885182270467 
0 
0 
0.005686449325720435 
0.003763622347912431 
0 
0.05263912297303721 
0 
0 
0.0130093482003088 
0.04647839470493301 
0.1420639501901818 
-0.1928548680318065 
-0.001957232224097125 
0.02473923177915635 
0.05717156811623623 
-0.0002438811867346903 
0.1048082168158945 
0.02856443146192394 
0.02751739771259248 
0.03229569678952037 
0.02982963073765033 
0 
0.1588109287682459 
-0.0902482709773709 
0 
0 
0 
0.07330956584360131 
0.1683258528364247 
0 
0.008044981463733954 
0 
0 
0.004512215396071001 
0.04734233118279364 
0 
0.3326218129901607 
0.05643487975173966 
0.2300254522977207 
0.04473018650499861 
0 
0.1189969795597349 
0 
0 
0.07478897936895494 
0 
-0.2969885936338253 
0 
0.1001891775718259 
-0.2231956764275374 
0.006569780126572732 
0.09889285308696501 
0.005940209909612014 
0 
0.05206088112653433 
0 
0 
0.01268854946403293 
0 
0.01467221179384076 
0 
0 
0 
-0.003889763663893937 
0.1095395335733493 
0.211578450525209 
0.01404282232555163 
0.08085805436216895 
0 
0.04205621386341157 
0.01864457955710894 
0 
0.03152142419339859 
0 
0.01827009962755895 
0.1277272571348941 
0.05770978492857008 
0.06070702634933827 
0 
0 
0.0750163745308281 
0.008984361183765537 
0 
0 
0.0004700453783384275 
0.02122289062105381 
0 
0 
0.005733165290091261 
-0.1671401533117751 
0.005671233844968448 
0.003603291806026865 
0.04191680978299341 
0 
0.00784546834476617 
0 
0.06854320063817876 
0.03582704829244816 
0.002842458077963312 
0.02128659262404441 
0 
0 
0.01851864436242829 
0.02522426713663944 
0 
0.01778439291403042 
0.04502940019171394 
0 
0.005723187082138002 
-0.007618783746482399 
0 
0 
0 
-0.02966702403747751 
0 
-0.1182423148171502 
0 
0.04726353533299377 
0.009711956423380221 
0 
0.01135289060861829 
-0.0007637410298188153 
0.02149226339199588 
0.04223510560247182 
0 
0 
0 
0 
0.01460801386706742 
-0.02565817619041459 
0.01502548609384607 
0.1700386105024936 
-0.02524758473546147 
0 
-0.01472569223584569 
0.0147380358397939 
0.1222218111391474 
0.08332529566133845 
0.1101881325191409 
0 
0.01016283570590479 
-0.03678729158869629 
0.02349646833830211 
0.02180718912545941 
0.05572481979915626 
0 
0.01273414868171554 
0 
0 
0.07324466863201781 
0 
0 
0 
0.05086841894963972 
0 
0 
0 
0 
0.0006951029734458262 
0 
0.005828888455219206 
0 
0.1507654188082913 
0 
0.07510858055316794 
0.117372975953446 
0 
0 
0.02697236135839557 
0 
-0.266987653370348 
0.06731951193294751 
0.0279895620906503 
0.01777819735861356 
0.00138166748898614 
1.160693214009366 
0 
0.04426597141593108 
0.002045842560234436 
0 
0 
0 
0.01157428400198724 
0 
0 
0.008642653916337423 
0.01863605920650957 
0.001429090448735912 
0.00868698488372926 
0 
0.1574436950275323 
0 
-0.01091700149988037 
0.1056593064044586 
0.0207694069701557 
-0.219318523017686 
-0.01923104012633054 
0 
0 
0.01616071513477962 
0.01162432793566398 
0.001463898054388107 
0.006277342963368383 
0 
0 
0 
0 
0 
0 
0.05297293046604035 
0.316864183114736 
0 
0 
0.1626326524685406 
0 
0.3750320523136821 
0.1095612576980802 
0 
0.05052552341771035 
0.04021778752517847 
0 
0.01731428449339081 
0.04785029297160762 
0.009669061837878629 
0 
0.005960349207106921 
0 
0 
0 
0 
0.03197872302954265 
0.03145778714537024 
0.01178957548773699 
0.142616262859325 
0.04392807676016213 
0.01525589594983007 
0 
-0.01204394370562562 
0.2371588171487973 
0.2029825712387958 
0.0205252828339622 
0.1540791660758805 
0.001367134782358108 
0 
0.01315457684133531 
0.0209155192024714 
0 
0 
0 
0 
0 
0 
0.01126204446788737 
0.003948472870438996 
0 
0 
0.04428759267792658 
0.02258612434876301 
-0.03050945302426045 
0.003028403104440382 
0.03315582554608643 
0 
0.05209525874882596 
0.002571712192927469 
0.007984894064384455 
0 
0 
0.01943511337070988 
0.003389925740994983 
0 
0 
0 
0 
0.007311602742631886 
0.0495690111127499 
0 
0 
0 
0.02489923089126118 
-0.005259373227325841 
0 
0.06542018962119882 
0 
0 
0 
0.04989118552873897 
0.02304837585384107 
-0.02130500145122253 
0.005726352851445447 
0 
0.03479148479001371 
0.2173460564255376 
0 
0 
0 
0 
-0.04888811237897708 
0.006208823465293013 
0 
0.03047843076673222 
0 
-0.0535153060871352 
0 
0 
-0.0006983141888733808 
0.09341142992453999 
0 
0 
0.2975059548216364 
-0.009890821097781848 
0 
-0.004693920451528453 
0.01090473820171667 
-0.004873634181762085 
0 
0.01705678777152115 
0.01399602447302941 
0.01015130543061033 
0.007373224226716541 
0 
0.06847757377822106 
0.06168006402018787 
0.02927230682778129 
0 
0.01663983936246164 
0.03682712558191963 
0.0772852228631469 
-0.1781550365813736 
0 
-0.009898762316159259 
0 
0 
0.2629892138654226 
0 
-0.03576460389119007 
0.05855862352692186 
0.007479303157331993 
0 
0.007567464709930834 
0 
0.02425394484613507 
0.03056574673053575 
0 
0 
0 
0 
0.02376657585338724 
0 
0.003942430736174529 
0.03732108245294568 
0.03126044818924324 
0.1130427473077294 
0 
0 
0.004035557483018676 
0 
0.01657581271449148 
0.07370961094247266 
0.006143390904813237 
0.1664023618923428 
0.007353800332514246 
0 
0.01597854404340063 
0.06510407123546319 
0.003841502908366062 
0 
0 
0.03163347333079628 
0 
0 
0 
0 
0 
0.006267585415386368 
0.003885610277229198 
0 
0.02210747102460598 
0.03107215055031922 
0.05825591767280186 
0 
0.07301762847320736 
0.01151987065852014 
0 
0.002213504689059842 
0 
0.1253086177838286 
0 
0 
0 
0 
0 
0.007069235513210011 
1.084202172485504e-19 
0.03845867571032167 
0 
0 
0.01949551227569961 
0 
0.01042891986869302 
0.07366722363283432 
0 
0 
0.02997243488482989 
-0.2255244563877019 
0 
0.007995310920985748 
0.3675812040513576 
0.003763366641437576 
0 
0 
0.1546154738789652 
0.007915401466144721 
0.02211136215780514 
0.3145942386246534 
0.02561497612200254 
0.01941488057999816 
0.03450499352376759 
0 
0.07719762832302386 
0 
0 
0 
0 
0.007121008328303567 
0.007697060364242994 
0 
0.04541771521975963 
0.01778527275786395 
0 
0.02590377479643935 
0 
0.1086841088471937 
0.02800116057393896 
0.09229019727620684 
0.6177296946190517 
0 
0.02464912137904177 
0 
0.01707031003335535 
0.194499968573091 
0 
0 
0.02413151003149351 
0 
0.04233815617275816 
0.006213654288410764 
0 
0.1242907565282028 
0.02373770416424811 
0.008200499001528066 
0.01516605913129355 
0.07989908977315081 
0.003836017775558805 
0 
0 
0.01114823673076596 
0 
0 
0.05662104094232652 
0.0548831167668021 
0.001779122344412896 
0 
0.0587373020021596 
0 
0 
0 
0 
0 
0.002901872732629023 
0 
0 
-0.2182524722218195 
0 
0 
0.009319937257728894 
0.155993285810957 
0 
-0.001964192865120794 
0.09025140688030238 
0.110543707631839 
0 
0 
0 
0.07013513308702851 
0 
0 
0 
0 
0 
0.01870661761423524 
0.2546821003454592 
0.01271692901455127 
0 
-0.03884548232122013 
0.06026068066788343 
0 
0 
0.006805993199942292 
0.02310882682643121 
0.02008758078260633 
0.06588345236329674 
0 
0 
0 
-0.001630970187150671 
0 
0 
0.01006882318979887 
-0.1213930909261323 
0 
0.01576574234424099 
0 
0.01854310702868298 
0 
0.002384085070972888 
0.01859295075921899 
0.1564607011832064 
0 
0.02073516259381442 
-0.01148252115794986 
0.04530552770516495 
0.02408318095650272 
0.02377598950799736 
0 
0.0660719977575577 
0 
0 
0 
0.05894857763444838 
0.03571595165938644 
-0.02968494539034248 
0 
0 
0 
0.006600467511646468 
0 
0 
0 
0.01211094776045412 
0.01757924349247114 
0 
0.01009007224367726 
0.01048415421740188 
0 
0.03608243425862812 
0 
0.02665641567256559 
0.00580051905131396 
0.02727483454036364 
0.005604311015234865 
0 
-0.0296181081347587 
0 
0 
0 
-0.04068150814946616 
0.01062562020002426 
0.005584973946796714 
0 
0.0135666195384779 
0 
-0.04243594969353039 
0.0711864705785369 
0.008528255772002034 
0.08219484394109312 
0.1495008972853147 
-0.02288861586589974 
0.03806895617420146 
-0.009013791071163249 
0.07039862328151644 
0 
0 
0.08705704805916935 
0.006004657066109418 
0.2386621793097525 
0.0645593894784829 
0.01348271376554813 
-2.168404344971009e-19 
0.01284759721286816 
0.007454053197527594 
0.009798747214687084 
0 
0 
0.00460408814450796 
0.00223313262705065 
0 
0 
0 
0.004598108645911795 
0.007549490793822056 
0 
0.01531695231240174 
0 
0 
0 
0 
0.005527245298768515 
0 
0.002541030008936676 
0.005583229863543446 
0.1213042665917448 
0 
0 
0 
0 
0.04653784717604334 
0.01062905115032199 
0.01023398628161108 
0 
0.006817135946459137 
0 
0.06084858202478772 
0 
0 
0.009600743236555595 
0 
0.01736840782633115 
0.04024881896261863 
0.02717613310990316 
0 
0 
0.006403400754694981 
0.008851496154154145 
0 
0 
0.01119440012605891 
0 
0 
0.01019809680798973 
0 
0 
0 
0.01454008183563088 
0.05639009277729422 
0.01671856335438271 
0 
0.002620085707649401 
0 
0 
0.035477529035933 
0 
0 
0 
-0.08382878617730009 
0.2639588539744829 
0.02706553114450427 
0.01444999253929606 
0 
0 
0.007186426809501108 
0 
0.02167221629609982 
0 
0 
0 
0.320913064462907 
0.0446375378918211 
0.003439432709758329 
-0.02349115366960868 
0 
0 
0.002807883187918604 
0 
0 
0.1029890803354979 
0 
0 
0.03193453821785678 
-0.02471996391053757 
0 
0 
0.002212437935972507 
0.02669971214847332 
0 
0 
0.006406722095582885 
0.0002639800614685475 
-0.02697898614464147 
0 
0 
0 
0.02109606107871905 
0.007255561160107004 
-0.03315011172293765 
0 
0.02191753537148365 
0 
0 
0.008243246077442918 
0.02261159258773884 
0.0184745445275086 
0 
0 
0 
0.00382467994183795 
0.01210208223543777 
0 
0.05637688460067604 
0.01148788925906303 
0.4671765952720651 
0 
0 
0.036464141975883 
0 
0 
0 
0.01361798659044042 
0.005699583589847831 
0 
0 
0 
0 
0 
0 
0 
0.01427157307399309 
0 
0 
0 
0.003184160842757272 
0.01006611550026753 
0 
0 
0.06300687143607876 
0 
0.01400702676088139 
0 
0 
0.006857983865960863 
0 
0.005207273494539083 
0.02248784170058332 
0 
0 
0.01528171068638684 
0.01732029975875328 
0.04119997067656884 
0 
0.009615334924394597 
0.01860626627881129 
0 
0 
0.1892469269753884 
0 
0 
0.05487341651881273 
0.09390807475383277 
0.02418526999584012 
0 
0.006689982131034028 
0.01948898183890203 
-0.00643814054737419 
0 
0.02239220409501351 
0 
0.06792080420352066 
0 
0 
0 
0 
0.02562282992684265 
0.04998458927383673 
0.03523845264861621 
0.1153136581277467 
0.01624984894970215 
0.01389398746303768 
0.4387348782795598 
0.01296652831378426 
0.02445088105930575 
0 
0 
0 
0.08972395127225587 
0.01661590694104149 
0 
0 
0 
0 
0 
0.01950614986052406 
0 
0.03227604662636837 
0 
0.07989469516293214 
0.004514251841655353 
0.01788721239368361 
0 
0.01868136914394347 
0.02444478887856369 
0.03753996382053323 
0 
0 
0.01846687018139431 
0.02572262064864083 
0 
0.06695398787295539 
0.01301779280735824 
0.04996532295437023 
0 
0 
0.06531213448971636 
0.02685286451108069 
-0.0171914269373684 
0.005285331170933528 
0 
0 
0.0551396088280456 
0 
0 
0 
0 
0 
0.002553608572730673 
0 
0 
0.00951022203111696 
0 
0 
0.06405289256027487 
0.00333197867968567 
0 
0 
0.03825632235297122 
0 
0 
0 
0 
0 
0.005745331275319244 
0.06491382698504926 
0.01565748193026944 
0.1515111905834581 
0 
0.5754747798461932 
0 
0 
0 
0.008434355288230354 
0.03370120458750141 
0 
0 
0.02607816630678293 
0.004512671667862205 
0 
0.01728233506186917 
0.02752995320779323 
0 
0 
-0.04831497116306703 
0.01266324828041647 
0.0218905746769804 
0.03688305485936113 
0 
0 
0 
0 
0 
0.07132628741684109 
0.006572586740196374 
0.02190224233728295 
0 
0.02576756348243716 
0.3343097448828465 
0 
0.006102325477124922 
0 
0 
0 
0 
0.01755694099403667 
0.5514800434561667 
0.03179221221439846 
0 
0 
0 
0 
0 
0.1195008815514148 
0.02369684211167976 
0 
0.03334152402878612 
0 
0 
0.02174177220897543 
-0.02711693750409325 
0 
0.0095701908176036 
0 
0.007444267035754165 
0.03997978069728689 
0.008790285826460983 
0.06376534518557962 
0.7071021538632698 
0.005502937479696052 
0 
0.06183163656285071 
0 
0 
0.007533018079046687 
0.2671849058202723 
0 
0.01404021643142576 
0 
-0.01715300443387674 
0 
0 
0.01031871085100737 
0 
0 
0 
0.04704801224194061 
0 
0 
0 
0 
0.05637625529906559 
0.006881946799804227 
0 
0 
0 
0.03470248502584752 
0.01919135415165468 
0.02892088679913244 
0 
0.2624587443950936 
0.03217327544532941 
0.05330275916252324 
0 
0 
0.09248830078761336 
0.2339902394860248 
0 
0 
0 
-0.06313614393644251 
0 
0.03989749798929974 
0.05478064613881573 
0.006231122803636947 
0.001037276822942187 
0.007287269776335295 
0 
0 
-0.05498992147406153 
0.04545149447749967 
0.08463582246939774 
0.005122550851092441 
0 
0.1145830674296778 
0 
0.0005981017231358708 
0 
0.03506270624334906 
0.00890953241129065 
0.7069545274900657 
0.149317731042935 
0 
0 
0.003594015668199535 
0 
0.007154741357947241 
0 
0.008612149107587164 
0 
0.001891189372427925 
0 
0 
0.003529629938539718 
-0.05336739821344343 
0 
0 
0.01593168503040883 
0 
0 
0.008938000651011786 
0 
0 
-0.03044670565966696 
0 
0.00457236372844303 
0 
0 
-0.1154831704992898 
0 
0 
0.0005442292142488981 
0 
0 
0.01431678660588153 
0.02153685065219823 
0 
0 
0.0009107749514074444 
0.03059559070598726 
0 
-0.1129668724722653 
0 
0 
0.02370235084492964 
0 
-0.4075313286980743 
0 
0 
0.04024367635989325 
0 
0 
0 
0 
0.01418810225112651 
0 
0 
0.04777278188382775 
0.1423559831712516 
0.009953943852995552 
0 
0 
0 
0 
0.005126340073661614 
0 
0.2322599391060127 
0 
0.007088393491052547 
0.01638821129418655 
0 
0 
0.03181148628311504 
0 
1.863472483959461e-20 
0 
0 
0 
0 
-0.002897246964619264 
0 
0.004811281732099654 
-0.004612558449870892 
0 
0 
0 
0 
0 
0 
0 
0 
0.0092353421348647 
0.05372230251977711 
0 
0 
0 
0 
0 
0.01418299117388001 
0 
-0.1058500887471409 
0 
0 
0 
0.01198541159731997 
0 
0 
0.07061457204479196 
0 
0 
0 
0 
-0.08000734243628577 
0 
0 
0 
0 
0.001348383631261578 
0.008379767113769018 
0 
0 
0.04691575298405266 
-0.007550291067784244 
0.06880288921086737 
0 
0 
0.3699523858230369 
0 
0 
0.03073274071831047 
0 
0 
0 
0.01739746082686864 
0.3315980821938657 
0.01513753669988213 
0 
0 
0 
0 
-0.005791144992917777 
0.04220262786065585 
0 
0.02904593260392094 
0 
-0.0001228988881690304 
0.5307861445906836 
0.1676470493429274 
0 
0.01590781752026219 
0 
0 
0 
0 
0.002311488136776729 
0.005138429938115586 
0.02254405362336752 
0.01176200001616398 
0 
0.007423704021510706 
0 
0.008496404140312417 
0.04426664272709179 
0 
0 
0 
0.09761639306572024 
0 
0.03653846104351346 
0 
0.1545198953317214 
0.003725007086527762 
0 
0 
0 
0.0133031105111706 
0.1162228634144211 
0 
0.0175821814889721 
0.00366553070314169 
0.0008451883274856152 
0 
0.08952510221914851 
0 
0 
0 
0.0009259720478428696 
0 
0 
0.03705681733688385 
0 
0 
0.06160749153798466 
0.05115419406980981 
0.02793187636459528 
0.006463660598641103 
0 
0 
0.07812466079126963 
-0.0532050029822386 
-0.02921106209548336 
0 
0 
0 
0.01109854550452156 
0.06680190500713165 
0.02077260497578393 
0 
0 
0.005150156009269404 
0 
0.1344488480153613 
0 
0.007741610923495934 
-0.05370336079577143 
0 
0 
0 
0 
0 
0 
0 
0.0003487238378513002 
-0.05565438773472323 
0 
0 
0.09992903290020977 
0.006204352439965704 
0.09778956944972918 
0 
0.1793436555206354 
0 
0 
0 
0 
0 
0 
0.01304627320158069 
-0.01125449552792008 
0.0276434819802365 
0.02168800847427673 
0 
0.02473822790514186 
0.1756617810187937 
0 
0.01549160022006096 
0.002112217537645669 
-1.084202172485504e-19 
0 
0 
0 
0 
0.03285615117254467 
0.007416436849366051 
0 
0 
0 
0 
0.2705120359030287 
0.03383224363864535 
0.0238399132145676 
0.04700411246173795 
0 
0 
-3.469446951953614e-18 
0 
0.05147660748092923 
0 
2.168404344971009e-19 
0 
0.05349086801847636 
0 
0.08091821302031238 
0 
0 
-0.02462085851621758 
0 
0 
0 
0 
0 
0 
0 
0.01657351441843216 
0 
0 
0 
0.00671196517892993 
0 
0.007748751430974259 
0.0365222904707357 
0.005059891770427714 
0.01651178547569455 
0.002183691296833839 
0.02758829346499428 
0 
0.0562996146801002 
0 
0.008642358830519751 
0.03404642272118416 
0 
0 
0 
0 
0 
0.1097290001975626 
0 
0 
0 
0 
0 
0 
0 
0.06924939798582172 
0 
0.01811410801797943 
0.04560494529747359 
0.04434605307571578 
0.04215896391551116 
0.001021575655306017 
0 
0.008203927686946092 
0 
0.0641334953307128 
0.005114469336891351 
0.02254623346842309 
0.4102320574409269 
0 
0 
0 
0 
0.008045352886255982 
0 
0.05864222639563108 
0 
0.02672423265849782 
0.007491741399524961 
0 
0 
3.388131789017201e-21 
0 
0 
0.01071147426510534 
0.02568681520154597 
0 
0.01392698984517377 
-0.02940622335048694 
0.04591537292286213 
0 
0.01808877581347244 
0 
0 
0 
0 
0.06216296169935976 
0 
0.039277537763787 
0 
0 
0.04239247160614616 
0.01345501051223486 
0 
0.0148185105503694 
0.004543797457461184 
0.02444237091708022 
0 
0 
0 
0 
0.03914271284835363 
0 
0.04318122640743193 
0.05176851506186231 
0 
0.03875898608847099 
0.03843663021055831 
0 
0 
0 
0.1764743566382433 
0 
0 
0.001417498215493413 
0.02907800887355849 
0 
0.02878184762389545 
0.003517829390053953 
0 
0 
0 
0.01041772141147171 
0.004771182592745551 
0.01167078218307202 
0 
0 
0 
0 
0.01662540384008343 
0.0006076676032866871 
0 
0 
-0.02164810011102452 
0 
0.0224911057326681 
0 
0 
0 
0.009156678476103667 
0 
0 
0.07573788321922598 
0.01771332098743639 
0.01297298762087912 
0 
0 
0 
0.008803004678246918 
0 
0 
0 
0.004585679482082963 
0.001397949319469046 
0 
0.06814058346487233 
0.003606692313974599 
0 
0 
0.007163076562145918 
0 
-0.3316606373886972 
0.06653835409927504 
0 
0.003856459193330135 
0 
0.02360156409949814 
0 
0 
0.1701382526028029 
0.01890151132976221 
0.01397086348410782 
0 
0 
0 
8.131516293641283e-20 
0.02374497757133739 
0.0237867953033761 
-0.1597330780015518 
0 
0 
0 
0.0046566850147986 
0 
0 
0 
0 
0 
0 
0 
0.01264227666390968 
0.1422535156304862 
-0.01797381766686094 
0 
0 
0 
0.006685427177359234 
0 
0 
0.006065261334647641 
0 
0 
0.004320283729964527 
0.001697029199478334 
-0.2097090523433799 
0.008937203383186479 
0.01872321861165312 
0 
-0.03681401373953388 
0 
0 
0.04912428036608316 
0 
0 
0 
0 
0 
0 
0 
0 
0 
0.03841702060141013 
0 
0 
0 
0.01136757920620891 
0.02089206104419437 
0 
-0.01842758639660493 
-0.3804272903267649 
0.009570847225970678 
0 
0 
0 
0 
0 
0.01431884353821002 
0.02364028645454287 
0.008039252658860335 
0.4463727749871326 
-0.03532159237720268 
0 
0 
0 
0.2209344882139543 
0.007386084376389044 
0.1140094595100791 
0 
0 
0.009164765877224462 
0.04589582816957415 
-0.1886281754398594 
0 
0 
0.06541038493688255 
0 
0 
0.03422079477330497 
0 
0 
0 
0 
0 
0.03312237854101604 
0 
0.1982103401700833 
0 
0 
0 
0 
0.05333502353927246 
0 
0.01852466975382332 
0 
0 
0 
0.002254096991227794 
0.007778829536374468 
0 
0.009518901528543549 
0 
0.03509163819517078 
0 
0 
0.09545294234232712 
0 
0 
0 
1.734723475976807e-18 
0 
0.0260255667148634 
0 
0 
0 
0 
0.06629228413002805 
0.06833694084723826 
0 
0 
0 
0 
0 
0.021214695034643 
0.04141025913613123 
0 
0 
0 
0 
0.06349907564567298 
0 
0.01255338130011274 
0.002761843311728544 
0 
0.0006920468109853589 
0 
0 
0 
0 
0 
0.0550644626611269 
0.006092126786230742 
0 
0 
0 
0.01556427640590947 
-0.1044813884417982 
0 
0 
0.01342266131941324 
0 
0.0103419904004715 
0.009292747410010177 
0 
0 
0 
0 
0 
0 
0.01282444848036941 
0 
0 
0.007933545938009885 
0 
0 
0 
0 
-0.3496738100751324 
0 
0 
0.00346016639445677 
0 
-0.03673292205944798 
0.002114073606887743 
0 
0 
0.04698378813708252 
0 
0 
0.01139586976183026 
0 
0.2893119603728141 
0 
0.05222206293273927 
-0.008094593470951015 
0.02116906204557289 
-0.09757652925508045 
0 
0 
0.05013310203318527 
0.01730477731080973 
0 
0 
0.02380300122821825 
0.0400472527186823 
0.006062251611631791 
0.01402777569060856 
0.0344551788093688 
0 
0.01466209065849287 
0 
0.03240959510343791 
0.001004177875490488 
0 
0 
0.03200378102241876 
0.01031844730024701 
0.005297193967491586 
0.0455726952187975 
0 
0 
0 
0 
0 
0 
0 
0.01795860851899148 
0 
0.00698376004362423 
0 
0.01281844655635034 
-8.809142651444724e-20 
0 
-0.07132197394712236 
0 
0 
0.03399883504216932 
0 
0 
0 
0 
0 
0.007131057353832855 
0 
0.003847861252807603 
0 
0 
0 
0 
0 
0 
0.001324305605392451 
-0.04025101896485839 
0 
0 
0 
0 
0 
0.01137157217257027 
0 
0.03359617552436776 
0 
0 
0.002574572981913513 
0 
0.1855423053331094 
0.04785360802393635 
0 
0 
0.0008112399516951291 
0.008777874533476924 
0 
0.002067231400240951 
0 
0 
0.004862117980921175 
0 
0 
0 
0 
-0.01994855477553098 
0 
0.04982594815556004 
0.004546816220511229 
0 
0 
0.002094529499153534 
0.01514190663666317 
0 
0.1365369748073492 
0 
0 
0.01325633291558548 
0 
0 
0.0434379158735357 
0.01664818943893367 
0 
0.009382399171114759 
0 
0 
0.06726090313939996 
0 
0 
0.01817424519907569 
0 
0 
0.006269621543323313 
0.01351340984182382 
0.02553403960614914 
0.03720744733870637 
0 
-0.02364338523119402 
0.004447401290068187 
0 
0 
0 
0 
0.07008089035518533 
0 
0 
0 
0 
0 
-0.3438157274536608 
0.04588331561619684 
0.004065425890303702 
0 
0 
0.05306332259245112 
0.00975259348356239 
0 
0 
0.001264233812632369 
0.1368249451260131 
0 
-0.01854306329987136 
0.00615635293460881 
0 
0.01822056952251145 
0.02230970340597837 
0 
-0.1384006426261528 
0.04626157144524996 
0 
0 
0 
0.001778070017991056 
0 
0.007529999289475978 
0.02403232436357121 
0 
0 
0.01215280254595476 
0 
0 
0 
0 
0 
0 
0 
0 
-0.01554653713356454 
0.0462469244482893 
0.1519473839577314 
0 
0.002855113326069577 
0.00407421452737787 
0.3067338693462773 
0.005519704306293457 
0 
0 
0 
0.2331117373743782 
0.008578735560121913 
0 
0 
0.176306611843117 
0 
0 
0 
0 
0.03141218356610764 
0.002149062916431777 
0 
0.05061824509516088 
-0.02254563397376478 
0.06334668139019896 
0.005238908101758945 
0 
0 
0 
0 
0 
-0.03119121460934159 
0 
0 
0 
0.4055306702168363 
0.002020963041348015 
0 
0.04897655145642418 
0 
0.0008682630068778941 
0 
0 
-0.008024761455247002 
0 
0.01662234196562313 
0 
-1.01643953670516e-20 
0.07115820326065063 
0 
0 
0 
0.1520530619524657 
0.02052055498207138 
0.01126028066757024 
0.005913548330601172 
-0.02827639092876656 
0 
0 
0 
0 
0 
0 
0.05037371852844082 
0 
0 
0 
0.009538197726997039 
0 
0.02948061221137997 
0.01983048932877772 
0 
0.01071929748520713 
0 
0 
0 
0 
0 
0 
0.02307847120948583 
0 
0.002341551955765903 
0.05822640016851621 
0 
-0.04254607678924185 
0.07815090819820104 
0 
0.01315607996376761 
0.01557725675716844 
0.6857565142013752 
0 
0 
0 
0.05749514135491417 
0 
0 
0.1028812242552044 
0 
0 
0 
0.03076310152648271 
0 
0 
0.005799263576965292 
0.02114306961070104 
0.002928601372334073 
-0.009176362697377342 
0.008734366211499835 
0 
0 
0 
0.007359727814092824 
0 
0 
0.01025472005369876 
0.01296949356914603 
0.06294130207546113 
-0.1148133185536687 
0 
0 
0 
0.01171448420823185 
0.03662524797142315 
0.08010443477529777 
0.05267943397141597 
0.0054507747613589 
0 
0 
0 
0 
0 
0 
0 
0.01027378603431728 
0.0009758656177881592 
0 
0.1245119571241151 
0.001867807499881566 
0 
0.01194281305323783 
0.01982534469646229 
0 
-0.02554444433784416 
0 
0 
0.1233492865579267 
0 
-0.04096429194003495 
0.1234530901975161 
0.09793655176043155 
0 
0 
0.001015344018338552 
0 
0 
0 
0.01061819326135313 
0.01583718194063756 
0 
0 
-0.05646700556325606 
0.02978044486276429 
0.01242600329853263 
0.01590192953909322 
0.01578449299972897 
0 
0 
0 
0 
0 
0 
0 
0.03418857259599788 
0.05235437160499487 
0 
0.05573108775854122 
0 
0 
0 
0 
0 
0 
0 
-5.929230630780102e-21 
0 
0 
0 
0 
0.005958997470183565 
0 
0.004897159447986196 
-0.1502860131588213 
0 
0.02260701216036472 
0 
0 
0.06069316786449003 
0 
0.1012477528439356 
-0.02708239528449302 
0.005889936971804862 
0 
0 
0 
0.02090681625363222 
0 
0 
0 
0 
0 
0.001981255879324858 
0.0857612058932455 
0 
0.002854810395009919 
0.2509344479914933 
0.021887067697367 
0 
0.01627141403544814 
0 
0 
0.01650624487020015 
0 
0 
0.01791774825098242 
-0.03264347980723713 
0 
0 
0 
0 
0.007883325444648528 
0.003322517442431218 
0.002322906892555321 
0.01545313288958874 
0 
0 
0 
0.08689630655261907 
0 
0 
0 
0 
0.05236020406081435 
0 
0 
0 
0 
0 
0.004630857752301729 
0 
0.001321951115796018 
0 
0.01273688798084201 
0 
0 
5.082197683525802e-21 
0 
0 
0.002071102667106606 
0.003983257630020956 
0 
8.673617379884035e-19 
0.01004252286560308 
0.01966800381317253 
0 
0.006139104358474754 
0.01699421233555386 
0 
0 
0.005147260122860564 
0 
0 
0 
0 
0 
0 
8.673617379884035e-19 
0 
0 
0 
0.05399601329497524 
0 
0 
0.0003054906581617177 
0 
0 
0.04312435527359132 
0 
0 
0.02889574469558715 
0.01001808945588145 
0 
0.0009325715357688552 
0.006714536885128545 
0 
0 
0 
0 
0 
0 
0 
0 
0 
0.04116911063374254 
0.1621626405310342 
0.08986914031662306 
-0.2357028243988902 
0 
0 
0 
0 
0 
0.0912669057793131 
0.007995806112144111 
0.009264546654706251 
0 
0.03951211321714375 
0 
0 
0 
0 
0.01149279425342459 
0 
0 
0.09595674376160764 
-0.02585812956462727 
0 
0.006225441932413895 
0.05246567688511433 
0 
0 
0 
0 
0.1408070948411451 
0 
0 
0.08400528637675723 
0.006757675438759259 
0 
0 
0 
0 
0 
-0.0629810161671598 
0 
0.02417178017582993 
0.01837243381360572 
0 
0 
0 
0 
0.02169114895728659 
0 
0 
0 
0 
0.005844321074639897 
0 
0 
0 
0 
0 
0.0360447230053348 
-0.01255628398636125 
0 
0 
0 
0.0206163176131011 
0 
0 
0 
0.005644374842334062 
0 
0.0100320489771592 
0 
0 
0.1039148712971726 
0.01261929774838197 
0 
0 
0 
0.01512892746047179 
0 
0.007507853020711259 
0 
0.05387966959491632 
0 
0 
0.03512758148613717 
0.05696075252359327 
0 
0.003369746105903086 
0 
0 
0 
0 
0 
0 
0.009950264456176637 
0 
0.008391636739752939 
0.01492089760215251 
0.03149228851537791 
0 
0 
0 
0 
0 
0 
0 
0 
-0.01690730978885273 
0 
0 
0 
0 
0 
0.03000856752682999 
0 
0 
0 
0 
0 
0 
0.02349148152260895 
0.03234961010406676 
0 
0 
0 
0 
-0.1439667154326158 
0 
0 
0 
0 
0 
0 
0.07005830817431098 
0 
0.01702104174782559 
0 
-0.0226122470930606 
0 
0 
0 
-0.01134345818319869 
0.03706627025255067 
0 
0 
0 
0 
0.001601101164361061 
0 
0 
0.1962336898352044 
0.007955388234231316 
0 
0 
0 
0.06344132200484079 
0 
0 
0 
0.1011599562692433 
0 
0.0022784389257238 
0 
0.01989675183238649 
0.01299786507772126 
0 
0 
0 
0.002977020808093711 
0.0156381458201367 
0.0100473265585073 
0 
0 
0.00482012988973186 
0.01863394323546023 
0 
0 
0.01581036674720017 
-0.00576152806811368 
0 
0 
0 
0 
0 
0 
0.008290552488286307 
0 
0 
0 
0 
0 
0 
0 
0 
0 
0 
0 
0 
0.01061536348065617 
0.002598467157763163 
0.008816340835366754 
0 
0.06211486159966543 
0.002626106846804902 
0 
0.01320261997342078 
0.07423484010173342 
0.02462161844469906 
0 
0.1627986621562992 
0 
0 
0.01068937723257813 
0.06019223862481424 
0 
0 
0 
0 
0 
0 
0.01061498454870319 
0 
0 
0 
0.03176509948154497 
0 
0.01346743687456645 
-0.003109280303487574 
0 
0.1026343519267147 
0.01746299723587726 
0 
0 
0 
0 
0 
0 
0 
0 
0 
-0.001343281913085619 
0 
0 
0.07361533363611908 
0 
0 
0 
0.01286560059250998 
0 
0 
0 
0 
0 
0 
0 
0 
0 
0 
0 
0.004446565926101036 
0 
0.002450069011405535 
-0.0262428983552336 
0 
0.002805598357600071 
0.003641272309738626 
0 
0 
0 
0 
0 
-0.009238254874151681 
0 
0 
0 
0 
0.008015515852588992 
0 
0.003400151026011589 
0.01575098845800601 
0.001552672836044742 
0 
0 
0 
0 
0 
0 
0.004106330006013628 
0 
0 
0 
0 
0 
0.03287782248888422 
0 
0.3729955930740925 
0 
0 
0.01262017662416551 
0 
0.02410608770065333 
0 
0 
0 
0.006039742552819231 
0.00971994190901438 
0 
0 
0.03793761480695723 
0.01248405736350133 
-0.02056457921339699 
0 
0 
0 
0 
0 
0 
0 
0 
0 
0 
0 
0 
0 
0 
0.01030985508773776 
0 
0 
0 
0 
0 
0.01378989879391258 
0 
0.08661010809896519 
0.008662987142880722 
0 
0.02085288275143998 
0 
0 
0 
0 
-0.06619800111880868 
0.1014919825073488 
0.1064625625631195 
0.008688914517743866 
0 
0 
0.01096985675581753 
0 
0 
0 
0 
0 
0.006095642057837115 
-0.03025699886774017 
0.004032690235823115 
0 
0 
0 
0 
0 
0 
0 
0.06891931628620643 
0 
0 
0 
0 
0 
0 
0 
0.005897205565209684 
0 
0 
0.00249306797321668 
0 
0 
0.05528586046187323 
0 
0 
0.002501700016135856 
0 
-0.003221614712507957 
0 
0 
0 
0 
0.00740339308927984 
-0.6906268227811313 
0.006460962525044231 
0 
0 
0.0354022915754751 
0.00992400978223377 
0 
0 
0 
0.002266825629021043 
0 
0 
0 
0 
0 
0 
0.2318262366064938 
0 
0 
0 
0 
0.003062187387065586 
0.007231012472846031 
0.006957217430372525 
0.1503329794130725 
0.0104844252044788 
0 
0 
0 
0 
0.007951025385681147 
0 
0 
0 
0 
0.0009269209332375658 
0 
0 
0 
0 
0.01635731430885257 
0.004654313979125296 
0 
0 
0.09223614432888247 
0 
0 
0 
0 
0 
0.007574950937275855 
0 
0 
0 
0 
0 
0 
0.008578698968207437 
0.05006148117365384 
-0.02148055898708874 
0 
0 
0 
0 
0 
0 
0 
0 
0 
0 
0 
0 
0 
0 
0 
-0.01163279254335445 
0.01487146169988642 
0 
0.01189216785290061 
0 
0 
0 
0 
0 
0 
0 
0 
0.004865264980723777 
0 
0 
0 
0 
0 
0 
0 
0 
0 
0 
0.3097522184164018 
0 
0.001913778918636799 
0 
0 
0 
0.01847565817352579 
0.1675864648676828 
0 
0 
0 
0.0154113240787693 
0 
-0.02470749952387171 
0 
0 
0 
0.2513179232705511 
0 
0 
0.01039701415661212 
0 
0 
0 
0 
0 
0 
0.00444934193108922 
0 
0.06868773920505228 
0 
0 
0 
0 
0 
0 
0 
0 
0.00499828731295768 
0 
0.006321271546782776 
0 
0 
0.1963050697796728 
-0.01426434920878943 
0.02945380927344708 
0 
0 
0.02574535170750568 
0 
0 
0 
0.008483587009354712 
0 
0 
0 
0 
0 
0 
0.03014513243792511 
4.404571325722362e-20 
0.1239111586858791 
0 
0 
0 
0.05307690804042958 
0.04538664378043943 
0 
0 
0 
-0.1037124000530624 
0 
0.01303299976432734 
0.009187888620792546 
0 
0 
0 
0.01357513599596586 
0.0459269373406546 
0 
0.01010154005256532 
0 
0 
0 
0 
0.08370444818168205 
0 
0.01069993964124396 
0 
0.05549777605745299 
0.01473018581112671 
0 
0 
0.02886614730688131 
0 
-0.01624535638418386 
0.006303243987944362 
0 
0 
0 
0.106845662731211 
0 
0 
0.006604629560758085 
0 
0 
0 
0 
0 
0 
0.002136032101750335 
0.007247376018362566 
0 
0 
0 
0 
0.2191123887854535 
0 
0 
0.01767437365948435 
0 
0 
0.01002284420455399 
0 
0 
0 
0 
0 
0 
0.01881249439841448 
0 
0 
0.009783346963273227 
0 
0 
0 
0.004202865977992463 
0.02192637465377361 
0.8730119184563544 
0.1044499412031349 
0 
0 
0 
0.02066145044164515 
0 
0 
0 
-1.214306433183765e-17 
0 
0.0770538392225871 
0.04266806786289398 
0 
0.001252377139604668 
0 
0 
0.08959409435010066 
0 
0.01280375991619897 
0 
0.01483078168028674 
0 
0 
0 
0.0008639147675937918 
0 
0 
0 
0 
0 
0 
0.01080671085717027 
0.01202848652063837 
0 
0.1233558227619238 
0 
0 
0 
0 
0.003155691288942001 
0 
0 
0 
0 
0.1396237501492544 
0 
0 
0 
0 
0 
0 
0 
0 
0 
0 
0.009755398981443645 
0.01804953559144012 
0 
0.01011879308566311 
0 
0 
0.01578025547900375 
0 
0 
0 
0.02846494893364878 
0 
0 
0 
0 
0 
0.002999796153370131 
0 
0 
0 
0.02462230901335684 
0 
0 
0.04246053234174754 
0 
0 
-0.04310741647368644 
0 
0 
0.03251673382559092 
0.02593124434126075 
0 
0 
0 
0.001674770671675387 
0 
-0.00922183288538047 
0 
0 
0 
0 
0 
0.002331971428561743 
0.00402923334911928 
0 
-0.07073283791489704 
0 
0 
0 
0 
0 
0.002018417342616292 
0.001858128457139337 
0 
0 
0 
0.007147776263897645 
0 
0 
0 
0 
0 
0 
0 
0 
0 
0.04387679531228863 
0 
0 
0.04972725444609199 
0.01565825319596433 
0.02250095595749459 
0 
0 
-0.01676572147102743 
0.02720462561677471 
0 
0.01849686127506876 
0 
0.03576404367746635 
0 
-0.04155069034038351 
0 
0 
0 
0 
0 
0 
0 
0.0002824248997928888 
0 
0 
0 
0 
0.005417887773108815 
0 
0.01172691870489073 
0 
0 
0 
0 
0 
0 
0.004020229844781547 
0 
0 
0.007850369087799576 
0 
0 
0 
0.002948504726907416 
0 
0.180059714137228 
0 
0 
0 
0.02185802289867038 
0 
0 
0.01800244840779984 
0 
0 
0 
0 
0 
0.00140889398618669 
0 
0 
0.00917584383675722 
0.218146229136056 
0 
0 
0.01373976540443539 
0 
0 
0.001775165549727194 
0 
0 
0 
0 
0 
0 
0 
0 
0.01823568197485706 
0 
0 
0 
-0.139969626970708 
0 
0.01625063441247533 
-0.07838321748935505 
0 
0.02329613110611655 
-0.6080264583233006 
0 
0 
0 
0.01243521098071804 
0 
0.1963019504653125 
-0.08063173407990529 
0 
0.005521187386920246 
-0.01343207826235351 
0.002647172343431271 
0 
0 
0 
0 
0.06535770772715142 
0.2073243177421541 
0.06546104588984271 
0 
0 
0.01489363168064751 
0 
0 
0.02926939788417432 
0 
0.02124798048152966 
0.002545997428723723 
0 
0.01595484417925187 
0 
0 
0.05183593839009258 
0 
0.0106864350662005 
0 
0 
-0.003470200896918756 
0.004611865081162279 
0 
0 
0 
0.01625695934423908 
1.897353801849633e-19 
0.009001141423321245 
0 
0 
0 
0 
0 
0 
0 
0.002958420490005034 
0.002357641956546297 
0 
0 
0 
0 
0 
0 
0.01417125533646294 
0.03511474886780125 
0 
0 
0 
0.00809346084311453 
0 
0.0052153506671884 
0.005457963570356245 
0.009518661889196029 
0 
-0.05112273250076377 
0.0006495374246349317 
0.009125105162954372 
0 
0.04051789023054178 
0 
0 
0 
0 
0 
0 
0 
0.008080400093527099 
0.6981983486465081 
0 
0.02333418527481312 
0 
0.03300216313268983 
0 
0 
0 
0.01223163700804434 
0 
0 
0 
0 
0 
0 
0.002857383907071845 
0 
0 
0 
0 
0 
0 
0 
0.02984826315025725 
0 
0 
0 
0 
-0.02195617360011306 
0 
0 
0 
0 
0 
0.4248992563015669 
0.008237304403370171 
0 
0 
0 
0 
0 
0 
0 
0 
0.03042810462234909 
0 
0 
-0.01863166760737778 
0 
0.000620115366324163 
0 
0 
0.002187094348411247 
9.473431681438915e-05 
0.01490836537734215 
0 
0.01275059701488356 
0 
0.04073616719242474 
0 
0 
0.03680196158507838 
0.05938630532837452 
0 
0 
0.0115299171233209 
0 
0 
0 
0 
-0.002587546950978015 
0.006853233755667695 
0 
0 
0 
2.981555974335137e-19 
0.02036809684421893 
0 
0.01224941848440842 
0 
0 
0.02065857831570407 
0 
0 
0 
0.006188875609760039 
0 
0 
0.002278897447345161 
0 
0.02876488893541085 
0 
0 
0 
0 
0.008505370847588838 
-4.336808689942018e-19 
0 
0 
0 
0 
0.04045197091559259 
0.02945091645066594 
0 
0 
0 
0 
0 
0 
-0.02505633370162887 
0 
0 
0.001540820562241709 
0 
-0.03147662258858714 
0 
0 
0 
0 
0 
0 
0.8162968730853377 
0 
0 
0.03953278173960273 
0 
0 
0 
0 
0 
0 
0 
0 
0 
0.00281830083660508 
0 
0 
0 
0 
0 
0 
0 
0 
0 
0 
0 
0 
0 
7.453889935837843e-19 
0 
0 
0.01816826260557354 
0 
0 
0.06450724863777196 
0 
0.0139266711733407 
0 
0.00225832563798804 
0 
0 
0 
0 
0.02554191848913749 
0 
0 
0 
0 
0.01438027934815628 
0 
-0.2360277309440808 
0 
0 
0.1816361826045738 
0 
0.00184964689198838 
0.03855524460482358 
0 
0 
0 
0.003286653326871974 
0 
0 
0 
0.04275234693498885 
0 
0 
0 
0 
0.01573884512874569 
0.0106341584880373 
0 
0 
0 
0.0329187764108155 
0 
0 
0 
0 
0 
0 
0.05335349279237354 
0.009330355532653883 
0 
0 
0 
-0.08509846589012993 
0.00451040864928279 
0.001892926676635465 
0.007772101772470744 
0.1123602459090803 
0 
0.008604652746900343 
0.006518969092202003 
0 
0.01590512283043747 
0 
0 
0 
0 
0 
0 
0 
0 
0 
0 
-0.02781374942323978 
0.003371291513586908 
0 
0 
0 
0 
0 
0.06564251002580165 
0 
0 
0.05045866905872755 
0.02056677396395663 
0 
0 
0 
0 
0 
0 
0 
0.001611208038648449 
0.03329935909332542 
0.0252662611363937 
0 
0 
0 
0 
0 
0 
0 
0 
-2.168404344971009e-19 
-0.03288815690169565 
0 
0 
0 
0 
0.05994557863925387 
0 
0 
-0.02439725319291583 
0 
0 
0 
0 
0 
0.02934716052635954 
0.01699199747321815 
0.01000179489763637 
0.02212351825841621 
0.03240750986773045 
0 
0 
0 
0.05171977137364838 
0 
0 
0 
0 
0 
0 
0 
0 
0 
0.1064291415592524 
0 
0.0144005760359288 
0 
0 
0 
0 
0 
0 
0 
0 
0 
0 
0 
0 
-0.007383283172833411 
0 
0.008466702031859612 
-0.02428919257879331 
0.02165666036670804 
0 
0 
0 
0 
0 
0 
0 
0 
0.004979953921331031 
0 
0 
0 
0.01012724828079567 
0.008396271429960389 
0 
0 
0 
0 
0.01704116479524882 
0 
0 
0 
0 
0 
0 
0 
0 
0 
0.01360232974475711 
0 
0 
0 
0.04075572694157006 
0 
0 
0 
0 
0 
0 
-0.03037000594987557 
0 
0 
0 
0 
0 
0 
0 
0 
0 
0 
0.005588351649389867 
0.006662954867957272 
0 
0.003795873263926379 
0 
0 
0 
0.057993664054629 
0.007299382628264619 
0 
0.002507512525821281 
0 
0 
0 
0.0008507510469937145 
-0.07597359672440313 
0 
0 
0 
0 
0 
0.2495856979830868 
-0.01665304236778242 
-0.05512541174219514 
0 
0 
0.02024849591698515 
0.003019906007516048 
0.001259923297791296 
0.1182798097644595 
0 
0 
0 
0.00318703123878548 
0 
0 
0 
0.02872126831800531 
0.004391607800462233 
0.01219648882329112 
0 
0 
0.06125178097613838 
0 
0 
0.1045304595851998 
0.02628378667711996 
0.007651907143100463 
0 
0 
0 
0 
0.003379794908014894 
0 
0.05513351402122708 
0 
0.001651828832446269 
0 
0.05679390858940984 
0 
0 
0 
0.04415679289027728 
0 
-0.03070839397672106 
0 
0 
0.01978059718564075 
0 
0 
0.02419497385853994 
0 
0 
-0.01942260723559789 
0.004516634432361164 
0 
0 
0 
0.00514605509654895 
0 
0.01371154528949677 
0.005506999679150805 
0.012474020771926 
0 
0.003430806210861001 
0 
0 
0 
0 
0 
0 
0.02850061021889912 
0 
0 
0 
0 
0 
0.009774556389585394 
0 
0.001350681492870919 
0.4473463167632507 
0 
0 
0 
0.02944280377404705 
0.007876180972034784 
0 
3.388131789017201e-19 
0 
0.007956470934169083 
0 
0.06998828395273375 
0 
0 
0 
0 
0.009403083260345444 
0.06013359378903368 
6.776263578034403e-21 
0 
0.01937376375182029 
0 
0.002144152886095763 
0.007468895313066478 
0 
0 
-0.01674890255237805 
0 
0 
0 
0 
0.009752070184082787 
0 
0 
0 
0.2099251139154264 
0.008756581881414529 
0 
0.2099251139154264 
0 
0 
0 
0 
-4.065758146820642e-20 
0 
0 
0 
0 
0 
0 
0 
0 
0 
0 
0 
0 
0 
0 
0 
0 
0 
0 
0.06579658301384025 
0.01525584989999877 
0.01486084021752121 
0 
0.05276561091960958 
0.02060317481078559 
0 
0 
0.02320804106488345 
0 
0.002249335785698733 
0 
0 
0 
0 
0 
0.01399948915350484 
0 
0 
0 
0.01087208756423244 
0 
0 
0 
0 
0.01897962619956775 
0 
0.02642241374848386 
0 
0.01296168253322721 
0 
0 
0.007253788309210979 
0 
0 
0 
0.04504527434451857 
0.01376032666001384 
0.006631448784592776 
0 
0 
0 
0 
0.2594022554751981 
0 
-0.001354880876989373 
0 
0 
0.09763314652670518 
0 
0 
0 
0 
0 
0.06392104405649494 
0.01815970140031828 
0 
0 
0 
0.01055386788335367 
0 
0 
0.03785212874489974 
0 
0.01065491930431852 
0 
0.001494678689829468 
0.01709075644150449 
0 
0 
0.003839818459439376 
0 
0 
0.004410048381587955 
0.005354727077952199 
0 
0 
0 
0 
0 
0 
0 
-0.02296304166690839 
0 
0.006854337932462627 
0.02265719417105212 
0 
0.007421711487425413 
0 
0 
0.000920638437730234 
0 
0.00702833133402758 
0 
0 
0.001145623196662738 
0 
0 
0.008002572356599449 
0 
0 
0.01153606682789804 
0 
0 
0 
0 
0 
0.6569669975811497 
0.2014858049420509 
0 
0.008134635788349847 
0 
0 
0 
0 
0 
0 
0 
0 
0.01488789800380225 
0 
-0.0809220538815363 
0.007606077114240943 
0.01071115064504112 
0 
0 
0 
0 
0.0208835848081673 
0 
0.00777610416404006 
0 
-0.1557981737118503 
0 
-0.0217479457574942 
0.01766639771505397 
0 
0.005924061455335091 
0 
0 
0.02614107808453775 
0 
0 
0 
0 
0 
0 
0.03290511633892532 
0 
0 
0.2162634989898201 
0 
0 
0 
0 
0.03311970646821454 
0 
0 
0.003433218555800143 
0 
0.005993464017621436 
-0.0702368513511603 
0.001221329250936234 
0.09366555202946343 
0 
0.007565763062398829 
0 
0 
0 
0 
0 
0 
0 
0 
0 
-0.03387425844285412 
0 
0 
0.009186752408551227 
0 
0 
0 
0 
0 
0 
0 
0 
0 
0 
0.002760201744278126 
0.03575171559716356 
0 
0.02461740347065605 
0.03079815742912798 
0 
0 
0 
0 
0 
0 
0 
0 
0 
0 
0.05977084771623663 
0 
0.06333617639481649 
0 
0 
0 
0 
0.04241107115509899 
0.01609627596933582 
0 
0 
0 
0 
0 
0 
0 
0 
0.01488947026744985 
0 
0 
0 
0 
0 
0.01590993197240555 
0 
0 
0 
0 
0 
0 
0 
0.008312308442824507 
0 
0 
0 
0 
0 
0 
0 
0.01393409230374747 
0 
0 
0 
0 
0 
0 
0 
0 
0 
0.04163216121591265 
0 
0 
0 
0 
0.01357455351719783 
0 
0 
0 
0 
0 
0 
0 
0 
0.007155458133871555 
0 
0 
0.006901398151862364 
0 
0 
0 
0 
0 
0 
0 
0 
0 
0 
0 
0 
0 
0 
0 
0 
0.06399862979656455 
0 
0 
0 
0.001863074675376831 
0.008789750844708953 
0 
0 
0 
0 
0.01983553634794433 
0 
0 
0.008651073721564801 
0 
0.005422040919483112 
0 
0.01757324829242643 
0 
0.02990766181131746 
0.01034433481830158 
0.001880666118749572 
0 
0 
0 
0 
0 
0 
0.01679982326644118 
0 
4.336808689942018e-19 
0 
0 
0 
0 
0 
0.01167011039496694 
0 
0.01345593353818901 
0.1201974811107696 
0 
0.1079686290105472 
0 
0 
0 
0.03144994215979854 
0.008809126298608274 
0 
0 
0.03760880078509942 
0.02499594332253542 
0.002909873120958572 
-0.0302123556804153 
0.0006680606113447999 
0 
0.01137262762986254 
0.0288473879258344 
0.03839524140183063 
0 
0 
0.01047627040033444 
0 
0.04174339084897347 
0 
0 
0 
0 
0 
0 
0 
0 
0.03927120799937451 
0 
0.002803455107888036 
0 
0.01476621447032727 
0 
0 
0.004379913348076506 
0 
0.005164282670135584 
0 
0.06435967950347297 
0.01061220450299538 
0 
0 
0 
0 
0.01893025059927833 
0 
0 
0 
0 
0 
0.1142718019697301 
0 
0.01020380372218998 
0 
0.006540480254666684 
0 
0 
0 
0 
0 
0 
0 
0 
0 
0.2306333880338116 
0 
0 
0 
0 
0 
0 
0 
0 
0.004108825862911072 
0.04079829090922153 
0 
0 
0 
0 
0 
0 
0.06604279446444569 
0.06049550808354539 
0 
0 
0 
0 
0 
0 
0 
0.007867171684010802 
0 
0 
-0.3276425918577622 
0 
0 
0.02205227466454611 
0.01589452448374604 
0.01089001061356807 
0 
0 
0.2252929691668805 
0.004473611846245544 
0 
0 
0 
0 
0.01955266067183876 
0 
0 
0.01575928975500401 
0 
0 
0 
0 
0 
0 
0 
0 
0 
0 
0.008882525993321809 
0.006660591616939483 
0 
0.0107443759057925 
0 
0 
0.0144471471819382 
0 
0 
0.006639795405747982 
0 
-0.1389482625130846 
0.00416834672238747 
0 
0 
0 
0 
0 
-0.004732934360584031 
0.01161142412287192 
0.01461920000944037 
-0.02647637263100401 
0 
0 
0.03291029842639096 
0 
0 
0 
0 
0.1087330785140045 
0 
0 
0 
0 
0 
0 
0 
0.03727529095685173 
0 
0 
0.002545191174672573 
0.1000597624380099 
0 
0 
0 
0 
0 
0 
0 
3.252606517456513e-19 
0.02531007169394166 
0.01568044430551124 
3.388131789017201e-19 
0 
0.001047291947742683 
0 
0.005821466637285662 
0 
0 
0 
0.0184818524607307 
0.1131604137154122 
0 
0 
0.008284410668438691 
0.03883979572149548 
0.04046088532332524 
0.0373333349256718 
0 
0 
0.02688009098973388 
0.01803307648413361 
0 
0.003459384216735973 
0 
0.01108107261555435 
0 
0 
0 
0 
0 
0 
0 
0 
0 
0 
0 
0 
0 
0 
0 
0 
0 
0.007542960106527046 
0 
0 
0.001304571638084009 
0 
0 
0 
0 
0 
0 
0 
0 
0 
0.04977703565547182 
0 
0 
0.3227496287715077 
0.01083349561778901 
0 
0 
0 
0 
0 
0 
0 
0 
0.003587767552513597 
0 
0.001623956066948399 
0 
0.05169345072892111 
0 
0 
0 
0 
0 
0 
0 
0 
0 
0 
-1.355252715606881e-20 
0 
0 
-0.007361500352194386 
0 
0 
0.008549332402714391 
0 
0 
0 
0 
0 
0.0248700510071089 
0 
0 
0.02758178255166664 
0.01446783720429412 
0 
0.056989674977066 
0 
0 
0 
0 
0 
0 
-0.02336115198539692 
0 
0.008572339130581329 
0 
0 
0 
0 
0 
0.002966028053047232 
0 
0 
0.007541097169848952 
0 
0 
0 
0 
0 
0 
0 
0 
0 
0 
0 
0 
0.01663746959732722 
0 
0 
0.07588721472396708 
0 
0 
0 
0 
0 
0.006745419919284278 
0 
0 
0.005309928236455383 
0 
0 
0 
0 
0.01759979152526029 
0 
0 
0.008322891381066943 
0.09383338394581726 
0 
0 
0 
0 
0 
0 
0 
0 
0 
0 
0 
0 
0 
0 
0.05436791715694084 
0 
0.007918957024533643 
0 
0.001051247316333933 
0.02002477039744509 
0 
0 
0.04224664354315826 
0 
0 
0 
0 
0 
0 
0 
0 
0 
0.009990572462002738 
0 
0 
0 
0 
0 
0 
-0.01479898459908157 
0 
0 
0 
0 
0.01455179596540538 
0 
0.006275306321048349 
0 
0 
0.009003534516637225 
0 
0 
0.005721562675889995 
0 
0 
0 
0 
0 
0 
0.0006340626472745306 
0 
0 
0 
0 
0 
0.2589013157898948 
0 
0.1564452374196137 
0 
0.0507910652204405 
0 
0 
0 
0 
0 
0 
0.07965183345215718 
0.003525412895163901 
0.01059131596295569 
0 
0 
0.025131656290093 
0 
0 
0 
0 
0 
0 
0 
0 
-0.01980436610496308 
0.03863508404645796 
0 
0 
0.01476154794733508 
0.01218921707038666 
0 
0.006042726486438782 
0 
0 
0 
0 
0 
0 
0 
0.02195439546517742 
0 
0 
0.01499704471277564 
0 
0 
0.02577963078875762 
0.0111337611417237 
0 
0 
0 
-0.3456476813664357 
0 
0.03703293798894043 
0 
0 
0 
0.04138553239294376 
0.07798294086697621 
0.04512995623287131 
0 
0 
0 
0 
0 
0 
0 
0 
0 
0 
0.001938946073231966 
0 
0 
0 
0 
0.01362879852329322 
0 
0 
0.004591314376116176 
0 
0 
0.02071982569307754 
0 
0 
0 
0 
0 
0.01077257403886869 
0 
0.04931031104812564 
0.002646511466504124 
0.001571511930625739 
0.006853899656188026 
0 
0 
0 
0 
0 
0 
0 
0 
0 
0 
0.00276937775202487 
0 
0 
0 
0 
0 
0 
0.01665218176377407 
0 
0 
0 
0 
0 
0 
0.03853217337985914 
0.04048530342874404 
