solver_type L2R_L2LOSS_SVC_DUAL
nr_class 2
label 0 1
nr_feature 5000
bias -1
w
-0.1127440964994225 
-0.7024379748186842 
0.652099744000452 
0.06606053783915387 
-1.269678335270802 
0.108461937799757 
-1.454480458116878 
0 
0.04044310275300034 
-0.889504227119044 
-0.0749487511441065 
0.2559266397522668 
-0.1012377224520678 
-0.318776111717207 
0.7368662490487743 
-0.6364576172154909 
-0.2684163942404843 
0.6298450686299424 
0 
0.4084298167595432 
0.09586627173339883 
0.853173914676184 
-0.2666375942716859 
-0.02885786786585275 
0.03977536723820876 
-0.1514439319135675 
-0.2557801479716565 
-0.6761604216575472 
-0.006983013498437712 
-0.07787312211383898 
0.1614343431968402 
-0.1326461957463847 
0.4109421781823533 
-0.4337111674008052 
0.1161714942707425 
0.124677337002701 
0.0305229542307365 
0.2411393926518918 
-0.006058483759949216 
-0.1020281139965804 
0 
0.2306294685031235 
-0.02033535552798044 
-0.1289029641244573 
-0.1413901694876353 
0.04599740223588498 
0.3693180327478606 
0.0366752193214064 
0.02238558713890866 
0.3765059045979915 
-0.378614308128581 
4.743384504624082e-20 
0.5479515144770724 
-0.3510965446339956 
-0.1141788593080768 
0.004005998806869543 
-0.3314857013467916 
0.6441181176795839 
0.08608265252183751 
0.1893261476070598 
0.01254284390396828 
0.2401424542747959 
-0.1489096758179524 
0.04294538932208319 
-0.07433635660213517 
-0.8866678919156111 
0.1865015417449338 
0.1545390810003796 
0.1034690383734701 
0.1833151967932474 
0.5385504649969011 
-0.0002083036020342191 
-0.04389515208003448 
-0.08321933499615447 
0.04266977795984309 
-0.1884915471099518 
-0.4497700797317179 
-0.01352389083625525 
0.7518463704118263 
0.03412538547797599 
-0.5893735486569377 
-0.1644947070359366 
-0.9758899366417678 
0.4298591437250545 
-0.5403849177301904 
-0.3217294437040029 
-0.3157526921622074 
-0.06639945314745874 
-0.4728310450179068 
0.2495812856165157 
0.02039901466078292 
-0.2055397883896166 
-0.01637754835333192 
-0.8323662054008671 
-0.01601213430308153 
-0.1230602325151034 
0.22861942772648 
-0.07379678481083574 
0 
0.5487698766811937 
-0.1389438866693207 
-0.5871462567827586 
0.07028013993797755 
-0.01342522470714278 
-0.4785198197203031 
-0.6231860041802136 
-0.2510443973130655 
-0.4190962275419787 
-0.2458077796811703 
0.178300748884614 
-0.09042028731596788 
-0.3849296383569811 
-0.05764837813725007 
0.2653866177501268 
-0.04562596414845867 
0.05502354498958793 
0.03624101640669556 
-0.1775423509734599 
0.639212467263959 
0.3163229273762523 
0.03948159645420876 
0.03878681510617886 
-0.1355488978909486 
-0.4745108189626976 
-0.5656118170946702 
0.02938780174567125 
0.1152616982035862 
0.09219181251944462 
0 
0.007551759864002576 
0.1076014582191002 
-0.06332013804825429 
-0.07003968434079745 
0.1903709196064738 
0.1107454922582548 
-0.02930903328864714 
-0.1116712929431447 
0.2013955071540816 
-0.04985923876111392 
-0.464021289886015 
-0.09719498465784729 
0.0005611554600024577 
-0.6814606587478174 
-0.02840800453902531 
0.01001358304009375 
-0.2643380863292789 
-0.2973851818016905 
-0.02368009439278297 
-0.4488413971761008 
-0.4284528187650181 
0.106198902003635 
0.08355736119354346 
-0.3660317954844995 
0.003111153941197853 
0.02118874315227067 
0.1384945205764043 
-0.1025684504912931 
0.06895225934901357 
-0.6464346054680113 
0 
0.2554463518608354 
0.07239882644463252 
-0.8475304857358642 
-0.09252450668677004 
0.007836864952584276 
-0.02568465084328508 
0.2845900891768791 
0 
0.03944456881791215 
-0.1313561535346441 
0.5016622928304717 
0.2112409159844488 
0.108609070944735 
0.06821735644443845 
0.1857883873894043 
-0.97796429659053 
0.5322454944861201 
0.08431229857457898 
0.2576787465506832 
-0.5933858259241591 
-0.1708478988742254 
0.5853435765448782 
0.2209396472657592 
-0.3329854760166632 
-0.07592805034415617 
0.009721453016286101 
0.1717071922255907 
0.3506989259159465 
-0.05621880496822122 
-0.02052203973510055 
-0.1653527503393054 
0.06405726760567776 
0.05850004193996044 
0.1680058685322661 
-0.06493323540139233 
0.03493148806081289 
0.169483243349703 
0.0516122462900197 
0.071675210842377 
0.2304470578168696 
-0.2720750071532286 
-0.6922523023824815 
-0.01198310034846511 
-0.1895392032127593 
0.003609318043594708 
-0.8720599125678646 
-0.04282803279531934 
-0.340444549154825 
-0.4073595418738132 
-0.6140858538628381 
-0.4452174937290158 
0.1342648844137465 
1.512036730733354 
-0.07170417127713058 
0.2284296697948489 
-0.0139733596442277 
0.1646520116154743 
-0.2923912685373343 
-0.3291098392276353 
-0.1750965546348541 
-0.05927025287695508 
0.2395540237038132 
0.2023748554397491 
0.002219657843467101 
0 
0.4884004423796449 
0.1821704275861582 
-0.3924415245491642 
0.04504914100710587 
-0.4654438553772085 
-0.5078017972538001 
-0.5337589021998624 
0.1683605270440695 
0.9091896408273423 
-0.6591137030288728 
-0.02862739577681435 
-0.08432284015576702 
0.1479312919410472 
0 
-0.02666948307736125 
0.03883940857740945 
-0.1666965959359388 
0.09185013138989882 
0.8446980600325098 
-0.1278785546245684 
0.1245257206631922 
0.04288006793063042 
0.08623882762673689 
-0.00496179607886271 
-0.01619714342870448 
0.1382692761864459 
-0.2305534764081879 
0.4626452474841875 
-0.4760451937609383 
-0.01917271740916655 
0.4303678145036972 
-0.1304086565361118 
0.3477794587706242 
-0.1231818252909439 
-0.1509300805926519 
-0.04046820384256548 
-0.2979643830875337 
-0.08151153258181192 
-0.1283202582522677 
-0.1346871892408196 
-0.3877733896974543 
0.02670373070121609 
0.1608740709765691 
0.0502020237822834 
-0.03987808172989278 
-0.439991608176471 
0.0785649162241797 
0.7863536037202187 
0 
0.2492915638091558 
-0.2153740014097911 
-0.05232152522388734 
0.3992563241573945 
0.0220509068948181 
-0.05391138440132524 
-0.1669468860569659 
0.004144074259657615 
-0.2757379498331538 
0.08324872589524102 
-0.4984564848712191 
0.2158719212207993 
0.1393944766052603 
0.03612217943079349 
-0.1981608246043963 
-0.4024806442209666 
0.489836814660478 
-0.2114761018651693 
0 
0.4683340384097137 
0.03055015814219007 
-0.2331329979033142 
-0.1072430882147056 
0 
0.04004089868843721 
-0.5849834735427631 
0 
-0.009172132734848159 
-0.0323777878052569 
0.7359562557203394 
-0.01911515816716797 
0.06335019061768514 
-0.10487626590438 
-0.3765076813759003 
-0.61093544726296 
0.01489603683184782 
0 
-0.01773307328381792 
0.4390576391832348 
-0.5817458760978602 
0.01289243497297023 
0.9501205287809522 
-0.5340458475901064 
-0.1873342000210068 
0.1994075418851988 
-0.4590606073490455 
0.0381687451660058 
-0.3354305816345758 
0.05381104908312426 
0.1349059474520187 
0.00334530582933687 
0.1028452504371533 
0.02303553792485609 
0.1493121500063008 
0.09833038673748636 
0.3058059855210024 
-0.1149374395744631 
-0.03947998084538949 
0.07216600335854319 
0.288889496529385 
0.07436942146011152 
0.006512122614773313 
0.0223958053819357 
0.2236225530912334 
-0.01181212428436248 
0.452896408154224 
-0.002110095030386149 
-0.4284264459456592 
-0.02440153857622372 
-0.001928036585268018 
0.2182346832996527 
-0.1648235127704436 
-0.1448474312369294 
-0.01227023548494563 
-0.1210608399905435 
0.06402148130715893 
0.1538007050256876 
-0.005034158369865482 
-0.2270661447001684 
-0.6757985569627065 
0.2249180261158001 
0.08896677683095942 
-0.05512224941162588 
-0.001184199331940972 
0.001529157840079754 
-0.2460200789192108 
-0.4538936180227787 
0.3514622738895186 
0.3302717619534008 
0.7447100316338331 
0.4087007701085522 
-0.1750911709106861 
0.05912446098283061 
0.01522916213026364 
0.4717836644582519 
-0.3368060392695224 
-0.306357062969251 
0.0192753465337106 
0.0960986287164585 
0.02316977701482766 
-0.8534567866792997 
-0.2591513941968474 
-0.6801660067245813 
0.05787007854874601 
-0.04699438344443473 
-0.03841827829254763 
0.08819274399785351 
-0.08841073579773134 
-0.1029391724449012 
-0.006278003848272659 
0 
0.1114690115032525 
0.2980135341727764 
0.2820736457821844 
0.07336912872692361 
-0.4621871480592636 
0.01203726277060487 
0 
-0.04412217961614767 
0.03191531859855943 
0.08672504566876657 
0.1185811741185352 
0.6157956623886849 
0.01766269232075887 
-0.218005388003651 
-0.02443373635021184 
-0.3951183430688039 
0.04868248787513771 
-0.0233626555117827 
-0.1210722789642199 
0.3817135463901003 
-0.2836756568656311 
-0.3410139464663203 
0.008409838818419347 
0.01556122427521732 
-0.1724710840039417 
0.00144405217909318 
-0.4604355140370118 
0.5373818302391784 
0.9429311010235365 
-0.524641682132523 
0.05926595873543809 
-0.3097888210703418 
-0.05505308811988559 
0.1139119826920441 
-0.3560965696087437 
0.306166526918404 
-0.4386068731092093 
0.02399744219623478 
0 
0.07303495262839772 
-0.5486152789179561 
-0.03250918190183424 
-0.1625524700065856 
0.848731385438853 
0.03121733441850666 
0.1498193683312052 
-0.4529898113514778 
-0.01832727636972126 
0.1722816296671183 
0.09558259943550257 
0.5966507264786579 
0.2910264989425317 
-0.06441334181184755 
-0.08199074567196185 
-0.0006314272725572412 
-0.1089738073327987 
0.02315110972267923 
-0.7992528002797797 
-0.04695388227440526 
0.2444802779394544 
0.2350838908872394 
0.07212125787694246 
0.09220307854764259 
0.09892465074398595 
-0.007051024421858741 
-0.4286583762872916 
0 
0 
0.2394178187076657 
0.1738324526417234 
0.2144730559270066 
0.07790412721774283 
0.6938840746343552 
-0.5135861168282748 
-0.01996455963314276 
0.138252889216151 
0.02294992727021357 
-0.005627220061614007 
0.3732901861747364 
0.07900364248622041 
-0.2635130643604734 
0.0605370517368277 
-0.03874139009866565 
-0.4141648825091 
-0.04379769525344378 
-0.6616794047813748 
0 
0.5439948897089887 
0.01348609562738016 
-0.01042730760597299 
0.06458983601441902 
-0.148196823768229 
0.05387391146754163 
-0.04023917992428953 
0.1511985472663801 
0.00459916116230381 
0.90080716543312 
0.2381043743339065 
0.05146138240493545 
-0.1643074409162794 
0.4214864730274999 
0.1298205459704836 
-0.1888689870728311 
0.01763466929424249 
0.1639836805916258 
0.2684015595523359 
0.1758565755262991 
0.223919704121128 
-0.02082869906277997 
-0.003121909914798708 
0.07626342895416935 
0.2381278298077892 
-0.1657739613513549 
-0.001856030583365476 
1.182029736364431 
0.00448737861563843 
0.914021345072492 
0.04033352543901279 
0.06180445651786411 
-0.02210971625229001 
-0.156735543857037 
-0.01813937466074305 
0.1721208443579563 
0.01172948522800583 
-0.05218225459493804 
0.1533650171429856 
0.05717353180760194 
-0.04078379014050797 
0.01547830448906857 
0.1709552848201079 
0.05221422409612635 
0.0945735735350068 
0.1124384051844627 
0.06297729181712555 
0.5884912037967099 
0.1243779970475231 
-0.1983969874740258 
-0.09144322562590179 
0.1498128694988437 
-0.197053269781718 
-0.178164311941896 
0.006229537217481093 
-0.03642920864435339 
-0.1193429044699595 
0.09862113405654081 
-0.01182549019623621 
0.142602931392174 
-0.6804529809173295 
-0.2209972325766843 
0.02212339491839279 
0.05827656447142422 
-0.001380495447280505 
0.3700805655780306 
0.1142150420052964 
0.1124279740961522 
-0.2600045731610333 
0.1450740766937257 
-0.508558276701143 
0.06042349234650644 
-0.01199981895378478 
0.09189571841378179 
-0.03730055613992391 
0.03657461222672276 
-0.4893648216367194 
0.04284157363572585 
0.473358979459081 
0.04131041864792514 
0.01124585832777108 
0 
-0.01925874905605931 
-0.03975140171600875 
0.2434767943978468 
-0.02971297166978542 
-0.04572327264904814 
0.2210557659356237 
0.01486608979917771 
-0.001907768952967828 
0.6344972064017588 
0.1886563428721034 
0.7167679863471335 
-0.01780204459871872 
-0.5511195682474992 
-0.6332023497459377 
0.02255949957217003 
-0.1389004086448887 
-0.01348225760095713 
0 
0 
-0.100165455379355 
0 
-0.006321977247105075 
0.1564689627622175 
0.6920828648252183 
0.005596335876262531 
0 
0.1245414362676446 
0.2143219338091996 
0.04989414159371566 
0.003242701089060078 
0 
0.1646387083867434 
0.08300882237487307 
-0.3844267578187796 
-0.3111419880146428 
0.02010225825061652 
-0.1414640158681765 
0.007238058699413409 
-0.07988564202097441 
-0.1084906387778081 
0.0009990720684874533 
0.2297843214003523 
0.08453745012806839 
0.04713892133892602 
-0.556948347620146 
-0.0518731073991892 
-0.1454721377733456 
-0.7979382681151823 
-0.1328556646591458 
0.03063654134695063 
0.3630847251918583 
-0.07743214592412832 
0.05398552596174356 
-0.1254463133579211 
0.1694315066399549 
0.08470134395110915 
0 
0.05717494116625239 
-0.2988986747336842 
-0.02766428241384415 
0.08627833081313879 
-0.005706289436621346 
-0.8295756517535798 
-0.005173332177543359 
-0.05656103460007744 
-0.02818089760722002 
0.06623861228653687 
0 
0.0230843287193662 
0.07556536273007514 
-0.009748802847725342 
0.6899153579885636 
-0.07891014716309611 
0.2208803514772244 
0.766341013950817 
0.04144863596193308 
-0.02428738633717329 
0.1574438563258879 
0.03274123924526855 
0 
-0.07790471498620033 
-0.09557607066729044 
0.05371248906369927 
0.1181147599599228 
0.1255993427351584 
0.6973331996383183 
-0.04333542873682229 
0.3380625834581827 
0 
0.01693185078196205 
-1.084202172485504e-19 
0.288824072083925 
0.01360088760387724 
0.1229637895954942 
0 
4.607859233063394e-19 
-0.02345631354368651 
0.04506982965903648 
0.0234046164131478 
0 
0 
-0.2127660887169206 
-0.01290665337365294 
0.2191626370719113 
-0.08847289414165134 
-0.03047779257857283 
0.1376183608630726 
-0.2281823937969154 
-0.129596079876604 
-0.01757688518609462 
-0.00737452181619333 
-0.4688781516151091 
-0.1364270848284738 
0 
0.1261718980409673 
-0.07044991164553903 
0 
-0.01919775138195344 
0.1401824761397326 
0.08113402906662316 
-0.1833462668555725 
-0.06602932577550069 
-0.1132255203072499 
0.1648010976038197 
-0.03123091302308817 
0.2172708997411131 
0.3600612585042032 
-0.09323469643813193 
0 
0.1069687557494219 
-0.154194735153374 
1.360834062104252 
-0.004163812589441534 
-0.004194351204380322 
-0.3954126669989089 
0.1982982183735454 
0.1363396650966899 
0.6060882004719584 
-0.2386162072242776 
0.02233272630318908 
0 
-0.1596875161701136 
0.002199582534201131 
0.2604774540055013 
-0.04588658453698988 
0.36824907538896 
0.08104504484379878 
0.6499699462134648 
-0.2652553773574394 
0 
0.3821004639640222 
0.1268402334673151 
0.04104094925840239 
0.3047267002650298 
-0.0001753623010571191 
-0.3567278522012148 
-0.007595935375210006 
-0.1446008620853026 
0.6725560447286819 
0.0002754757558054681 
0.09236245271735878 
0.04316554878359871 
0.001523342239280759 
0.02485670583932118 
-0.1145461851471987 
-0.1199342926430805 
0.02744509093059444 
-0.1615883502079499 
0.03421898047379722 
0.005787709618642375 
0.01508500629787343 
-0.007197634010344189 
-0.6624739628629581 
0.3625423046237683 
0.4488472502309086 
-0.0009136709968935874 
-0.1239029989674048 
-0.204877732336312 
0.08217000427847738 
0.03884658769265234 
-0.1314538961292285 
-0.3321935973422339 
-0.1014722070572635 
0.6719133555924381 
0.2649360301415407 
-0.00744104839852873 
0.183611088264821 
0.07592337944490102 
0 
0.05434113277036436 
-0.5711052842868082 
0 
0 
0.09686580438720656 
-0.008729244190820429 
-0.02695367883353418 
0 
-0.3378586831498441 
-0.2622724614380706 
0.1569647290118505 
0.1895744732483315 
-0.1957322415196959 
-0.8401061714995055 
-0.1258950985948111 
-0.01071103022498985 
0.03759606124759416 
0.2071344633558481 
0.1370055627268169 
0.3870021899303036 
-0.3269914369318574 
-0.2638371067548452 
-0.1842203793019666 
-0.04342306002506278 
0 
0.06771530149429787 
0.1001785525882104 
-0.005177413089308689 
0.06044549422240553 
0.06272095864753167 
-0.1130905129110171 
0.01471686865126482 
-0.4139908880688073 
-0.1675163977578877 
0 
0.03122299566494058 
0.0529873502079107 
0 
0.1799431260774829 
0.02725403934841449 
-0.1759754942711438 
0.09594533573242836 
0.3105558039128791 
0.3218666350583874 
-0.1828937257913158 
0 
0.1869571711874146 
0 
0.02965665390562175 
0.4545454573563966 
0.03476081261506403 
0.2948172604353428 
0.3090817786755268 
-0.008473026923247749 
-0.01951861496061742 
0.005329473271219375 
0.4037872723806282 
0.6229563955834555 
0.8455660849452634 
-0.0009480297039020808 
0.08529415677723043 
-0.2013786663276598 
-0.2643098027399748 
0.1028446803654558 
0.6196107839464067 
0.02281742789152182 
-0.01217982183904314 
-0.006192067227381528 
-0.4718228324234172 
0.5394335586749724 
-0.02611791928660586 
0 
0 
0.9977989931999233 
0.04546482467653714 
-0.322413797701444 
0 
0.04122005260230922 
-0.6451910814510132 
-0.01151346994251753 
-0.01122228273100619 
-0.5706269186637978 
0.05347710178159913 
-2.168404344971009e-19 
0.009026305851336552 
0.1421839905697212 
0 
0 
0.04542186597546399 
-0.8384993844610132 
-0.2685326024114973 
0.1651827776644986 
0.09120045866596056 
-0.01537018196689103 
-0.1967087998222302 
2.155053620415371 
0.00627701191625874 
-0.0556528750862149 
-0.04291626887769454 
-0.1093201591801271 
0 
0 
0.1264504387506823 
-0.1262732756914595 
0.01517279013428519 
0 
0.068933572469382 
0.03355744734896923 
-0.1158803943333889 
-0.450286659184099 
0.1306879053161706 
-0.3053552565099876 
0.004266914877231827 
0.05047089787047963 
0.06618044728487364 
-0.03513925487526458 
0.08733386024433865 
0.005118553157449329 
0.1042662578751506 
-0.02784510377425631 
0.01663518406047301 
0.2926371948132224 
-0.02304615894735816 
0.01761360434980428 
-0.1000696288128921 
-0.2778059843895896 
-0.01605534733720946 
0 
0.01649697915266635 
0.07417302130580937 
-0.1862119758469895 
-0.1503584452376759 
0.02083784144878719 
0.1902505123265175 
-0.1618626469507577 
0.6820489960150977 
0.4422889258890193 
0.005769383239327768 
-0.002463778480000365 
0.2224160302132153 
0.006165360283135152 
0.4223143447405853 
-0.002401565598780141 
0.07030975991749867 
-0.01392756880781455 
0.03267032119876103 
-0.1368661667162631 
0.00280761584517689 
-0.08173461407643406 
-0.008755359149454399 
0.07869272096513351 
0.1137128776424233 
0.06014089883955412 
0.2332428669468782 
0.1105560146518695 
-0.0278081626099961 
0 
0.1077975795077276 
0.2635777956707445 
-0.006926746534678642 
-0.2901736710080836 
0.2301532698281904 
0.4115371836206324 
-0.2771506407636839 
0.2230755121400901 
0.06234686326258384 
0.02711119909219491 
0.009405182211370822 
-0.003409238590802431 
-0.02857415126987206 
0 
-0.05230928947158576 
-0.03615064282768383 
-0.02371056274315004 
-0.02417191439646204 
0.1079764068625657 
0.1531624827475151 
-0.3790950807396111 
-0.2077927759045955 
-0.05819097248689863 
-0.04362392389375479 
-0.6215570668668826 
0.1329417300185687 
0.01470770722602707 
-0.04650809995879001 
-0.01284799949236354 
-0.4610446565873517 
0.1144643324903398 
0.00426006736084095 
0.002052166132679534 
0.02559197615903766 
-0.2718282888051437 
0.2043091714110608 
0.03519280772618463 
0.1061229609563315 
0.01574562761194887 
0 
-0.03370549394889526 
0.03313504927038102 
-0.003522504065399181 
-7.360135270782639e-05 
0.1340589735287704 
0 
0.3502174733889232 
-1.214306433183765e-17 
0.07144912636585442 
0.01724978620890577 
0.359691051371243 
0.00518083490737263 
-0.1049233502825175 
0.189009842953078 
0.5310200668859176 
0.02840683850388508 
0 
0.155996371384775 
0 
-0.5090324276018895 
-0.06927213760651424 
-0.8066920548709874 
-0.01489355794014579 
-0.1064682990922177 
-0.156992058032336 
4.336808689942018e-19 
0 
0.1395565960124319 
0.7114333634174612 
-0.7134232468864062 
0 
0.2572191409648407 
0.2192435029228814 
-7.589415207398531e-19 
-0.1818669907330485 
0.06042199027052436 
0.04295260291841694 
-0.07030065578126124 
0.4489966436253296 
0.2431569291746019 
-0.05860925782503646 
0.02875430492057694 
0.008273074099259323 
0.1227060861071098 
-0.02503265751743471 
-0.04526305094222161 
0.1026495087214457 
0.02837038045577614 
-0.01005027501483604 
0.2440577331140083 
-0.1155341454812196 
0.04139700521211095 
0.4266987515530716 
-0.07624512279497184 
0 
0.2830107729026667 
-0.2298978391672615 
0.03037628108656472 
0.1926127575796284 
0.01162204339615392 
-0.09018373830688484 
0.0783372097059047 
0.001196487597352476 
-0.001464466908250911 
0.1388943243763773 
-0.350872983530857 
-0.1996319245882507 
0.2096605926863069 
-0.008447978552280373 
0.005746223620480631 
0.0803153225008245 
0.04407615736262809 
0.1181757084964842 
0.1162875503000238 
0.2077411993093211 
-0.2598384065987811 
0.01111207854316386 
0.06868365990925224 
0 
0.1660308991604308 
0.155500417448065 
0.02771298524420035 
-0.01681003985650839 
-0.1604074136262175 
-0.02275246645179378 
-0.1568212467042069 
0.02976066386331586 
0.01986482057788448 
-0.008327184395499081 
5.421010862427522e-20 
0.1134658354465466 
0.02791548245793913 
0 
-0.009851812523220638 
-0.01638046482292517 
-0.01774671381396202 
-0.0120144096844765 
0.6362180946705511 
0.03231775415804343 
-0.2168064154797958 
0.09634832194561586 
0.08325257383936598 
0 
-0.005359167012849152 
0.4138638187452227 
-0.02661770401971908 
0.01827483540354725 
0 
0.5930861649332798 
-0.5736675480567796 
-0.02467153366607534 
-0.1109805776761393 
-0.1456231707859171 
-0.05571307201913161 
0.0193907824914013 
0.1341211294437142 
0.00174995015747875 
-0.165425787094597 
0 
-0.04576210741535072 
-0.1756595150145336 
0.1173550284831473 
0.2327442412715984 
0 
0.005884460647611825 
0.1358050338952753 
0.8217378558029488 
-0.2411040188094082 
-0.1592908546567876 
0.1309928408489425 
-0.0351174829235626 
-0.4342776071154938 
-0.6403870443015575 
0.5420529275618806 
-0.1905822874632208 
0.0889682159955336 
-0.002018493393292722 
0.4284125510468228 
-0.07046067809483925 
0.003207108760139396 
0.1380534840442795 
0.3217005214453765 
0.1158095050551538 
0.07413035281416347 
0 
-0.05826483409695941 
0.006830228355810982 
0.5205701697005722 
-2.371692252312041e-19 
-0.01137398766142131 
0.1442680805615522 
0 
0.2930739306918852 
0.01099565929607941 
0.1538522431424277 
0.1885369867270487 
0.06248344579531948 
0.645542942701732 
-0.3164677571573201 
0.04191939897944984 
0 
-0.1528631566634662 
0.7523394128594859 
0 
-0.006783780767812294 
0.06404821761171184 
-0.6069302828252131 
-0.06075946766655536 
-0.0677036234383409 
0.008452943293928396 
0.2672993328243192 
-0.11534313174923 
0.2043714200521941 
0.1253385653061184 
0.1983769373870379 
0.1002057936005282 
-0.007193599322225033 
-0.001782399925965846 
-0.01689170488534508 
0 
0.009136584748730086 
-0.0867906985704006 
-0.5653729312940069 
0.005870178806357888 
-0.01660385313615732 
-0.0510865685066178 
0.04273856081084281 
0 
0.02858316751540033 
-0.01380656182048594 
-0.012459186545155 
-0.00238371416757188 
-0.3354578591508728 
-0.03151837936342142 
8.132294973482036e-05 
0 
0 
0.01359444678856596 
0.2205227478028546 
0.003960305094106089 
-0.1698968974481125 
0.1025237538674503 
0.05483423560132081 
-0.7028019557016287 
-0.3095321480483658 
0 
0.00256647807391421 
0 
-0.1788905766598818 
0 
0 
0 
0.2977626123785188 
0.7927871567020751 
0.03688840492670821 
0.008719112283851525 
-1.137776990279099 
0.523286146015399 
0.04270117669919718 
-0.1433775545740968 
0.05176514679917964 
-0.01433924240255642 
0.04505751585513618 
0.0708137939437604 
0.02039165544963828 
-0.07503712291171113 
-0.05449588553340506 
0.01461460864315123 
0 
-0.1775542023102192 
0.0007828922173556199 
-0.06909430910591095 
0 
0.07647412965567778 
0 
0.07397834778182048 
0 
0.008859980026283206 
0.0666497441111788 
0.08302407700051785 
0.02794356363457527 
0.0823518340714106 
-0.1615325310026757 
0.08847033593784438 
-0.2872350752739494 
0.06418232918760526 
0.122847925757301 
0.04041259847002814 
-0.362631779418193 
0.004648026185734633 
0 
0.1593335115132056 
0.2011908403607898 
0.2131397976757321 
-0.0900983830529327 
0 
0.04904792056960363 
0.2420321200564294 
-0.09934927350992567 
0.02270287508116701 
-0.6019823301963509 
0.02790995787633025 
0.2416329641772098 
-0.01324110124995179 
-0.1749838672552071 
0.2748165914754988 
0 
0.02521801279034095 
-0.152940305218635 
0.2780624774903102 
0.02987869946075386 
0.3733475751071409 
0.137232846656821 
0.03256519920971544 
-0.04280731498124588 
0.1434864979239747 
0 
-0.005384058184913086 
0.3826022157995596 
-0.1483714720883018 
0.1212925257482964 
-0.02170504277160151 
-0.03302369595620703 
0 
-0.5142000969678522 
0.4150001727129188 
0.04378775287009158 
0.3506042475454104 
0.040870118799471 
0.05081918493186176 
0.1177582258052422 
0.01778753292841383 
0.1381947126044696 
-0.07762550758785876 
0.05735731595824212 
0.1265721823145105 
-0.1105854419388274 
0.6700560543499436 
0.1501910333444415 
0.05052675383784824 
-0.01218695335622571 
0.04573316256724271 
0.002712685624731699 
0.5136767946463034 
-0.529469576698413 
0.09998948913470924 
0.01059366027653754 
0.2484081267220578 
0.04979099059061101 
0 
0.01836153411513727 
-0.2530592356494913 
0.07990269608132419 
0 
0.02611089313581793 
0 
-0.02515154350829022 
-0.04685296349224055 
-0.0735961035869402 
0.1070050830569468 
0.09928159390092239 
0.02907577961972339 
0.3437182902473394 
-0.03210955800769893 
-0.09125968406585112 
0 
0 
-0.1977608514459227 
7.207655214007797e-05 
0.1016711951731353 
0.07632540161066854 
-0.1399315451576577 
0.1784433726147208 
0 
0.05553569005697725 
0.241819168340431 
-0.2790750278291911 
-0.04615768884765092 
-0.1188048601843118 
0.09970233839577407 
-0.03083575310147172 
-0.06121989110731815 
-0.01353765212560124 
0.02517257701116618 
0.03520602579523967 
0.3813679382979754 
-0.4262891038644639 
-0.09632940422853661 
0.1119431678713146 
0 
-0.01615033805776663 
0.02271785203881664 
-0.001181189052481002 
-0.01715775568114613 
0.01383466300005932 
0.02729409397976031 
0.1531186929436135 
0.01156317866324237 
0.1890163789468573 
0.0416437527779971 
0 
-0.3770807633290356 
-0.0008038743566170131 
0 
0.3146749408099329 
0.103753533280995 
-0.1983023112887001 
0.2198726005087985 
-0.03653049187191838 
0.04830187881317172 
2.168404344971009e-19 
3.758876844273934e-05 
0.1057946550949687 
0 
0.09842348453390372 
0 
0 
0.009369065495667423 
0.4094959105707301 
0.1139067862791344 
-0.742634685957978 
-0.06902870454226358 
-0.2682904686938668 
0.02777879755982751 
0.09973206861118634 
-0.02129128429846387 
0 
0.2683898976508614 
0.1276757152563058 
0.0996582166909866 
-0.1474229169282518 
0.5197668097318024 
-0.1609523388196031 
0 
0.1171797689714175 
-0.07352137866099491 
0 
0 
0.5334529897005227 
-0.01173621134967484 
-0.3644192804304952 
-0.02465646948393795 
-0.09955534110244525 
0 
-0.106051646884716 
0.03669672954400845 
-0.06503624338814386 
-0.2392947006225459 
-0.0372415229138361 
0.00273417776018618 
0.09734088644578184 
0.03697758958410238 
-0.10642000916282 
0.008263461163842337 
0.02943845229365174 
-0.4212320767649272 
0.4313660496173691 
-0.08120384775315939 
0.1292173263387689 
0.02317906066478758 
0.2612365149518664 
-0.0645225868650473 
0.9834596759920639 
0.06089620599310606 
0 
-0.4339592665137362 
-0.1992625478979895 
0 
-0.673753163575046 
0.004806117206502532 
0.3431902494749685 
-0.07401069620411331 
-0.04609509931327078 
0.007670245487777004 
-0.2603141086116499 
0 
0 
0.0237222716294627 
0.2548250842958694 
-0.01494548937489905 
-0.06965660952031534 
-0.1016890199311216 
-0.04087186085684914 
0.02358385616988452 
0.06491791495309629 
-0.03975520850649941 
0.1525193017019218 
-0.00423991612992632 
0.01284168036776495 
-0.05524701746748281 
0.1489336553959967 
-0.0117113877167879 
0.001765083652849201 
0.01165432310415747 
-0.1653388720754808 
-0.04198684404831043 
-0.09799168985388748 
0.01899358888422669 
0.02653494797398888 
0.05212407711736385 
-0.1066320118618767 
0.08505317030143339 
-0.4310451297715067 
0.01878110512203833 
0.03793709183858564 
0.3385193445329315 
0 
-0.05154995254961102 
0.08399105154194561 
0.1288570318241152 
0.05780183692411838 
0.06074021049605545 
-0.05286667880175762 
0.02375089362393041 
0.1778151913241284 
0.1976349290183838 
0.05470766276394388 
-0.0533114891013473 
-0.06514617124294218 
0 
0 
0 
-0.03034880403489424 
-0.09558740480312357 
0.06334285339253619 
0.1982710567214707 
0.345449591671581 
0.04009700408263486 
0.0150690590033246 
0.6434047729994645 
0.01077378266337226 
0.03105099076326655 
-0.004340926649522768 
-0.259454494096397 
0 
0 
0.137061872544008 
-0.01291833711920647 
0.02170496821302577 
-0.08409015663284893 
0.0002670867355799165 
0.0002988302769682048 
0.1075873488806044 
-0.4910382004373745 
0.1232336724839654 
-0.03176911467381184 
0.07363405684627002 
-0.1947535954846794 
-0.1857680586747501 
-0.2491013584149044 
-0.006542667578804335 
-0.571175545595372 
0.3336476951491895 
-0.04646695717761978 
0 
0.1327821661166174 
0.02675810160080154 
-0.03635406188718562 
0.03666908328252911 
0.008869907277262314 
0.1348241721448812 
0.001904863248685319 
-0.02264438817852966 
0.08763969155827725 
0.4643946303078056 
-0.04618708140787416 
-0.08693002721189902 
0.03449462650154569 
0 
0.1304247257777417 
0.01826029486903857 
-0.4806603964266489 
0 
1.084202172485504e-19 
0 
0.1771514427434862 
0 
-0.002588719992214874 
0.1944075756215649 
0 
-0.1046968164849148 
0.05123544371759995 
-0.0484402302339597 
-0.1158880713677923 
0 
0.1510129532045548 
-0.4925646690510184 
0 
-0.01331927414812705 
-0.03696681436326253 
0.04665559572689623 
0.007761406252335315 
0.0959324996047084 
-0.01875764442539494 
-0.02720081066563894 
-0.1619967954358776 
0.2894782034366818 
0 
0.05629500803935574 
-0.1374246006306898 
0.02226647780180977 
0.02122614480274079 
-0.06058230675726922 
0.07206094627981806 
0.05204028496793552 
0.2077752521552557 
0 
0.3640926674030896 
0.02264649179892002 
0.0916056352667495 
-0.004519739373660932 
-0.02436011793037816 
0.5128364588903813 
0.3020997406125371 
0.05457666083753653 
0 
0.002426907617106429 
0 
0 
0 
0.1708403625283693 
0.2292453414719451 
0.2556685351692496 
0 
0.3863418547871081 
0.1020256014397406 
-0.1671912148140591 
0.0004530713484677859 
0.02350303398047747 
0.1134864491637445 
0 
-0.1485910101597669 
0.04570772872048109 
0.8380611827263986 
0.2300060394006484 
0.06916510119441593 
-0.2549930525705583 
0 
-0.04650169957693471 
0.2125018958615051 
0.3345496282463127 
0.008363778013530701 
0 
-0.1831547093453147 
0.1221590067153818 
0.3422602615658883 
0.05313116336370844 
-0.008497668011843712 
0 
0.01793755633785332 
0.07647381031931236 
-6.443944373627263e-05 
0.2354452694894533 
0.02235015552470653 
0.007125455005555963 
1.113464787465074 
0.02314008893640793 
-0.02326418008735965 
0.1604107116404998 
0.006474329587423081 
2.379953015526517e-05 
0.008329463918005186 
0.9712518985470826 
0 
-0.2122319429304064 
0 
0.1127538514186478 
0.05991760738828611 
0 
-0.2088782363139843 
-0.007118761255215342 
-0.007233777676538457 
0 
0.1790394550648622 
0.2380877267756751 
0 
0 
0 
-0.4654050694531095 
0.0823777577520628 
-0.001715951593986758 
0.01816740058007672 
-0.6197119449132998 
0.08042420575269282 
0.1847216586884201 
-0.012662278433051 
0 
0.1492225512232748 
-0.2478961719295659 
-0.103643464494916 
-0.05006778752997957 
-0.1870668697476888 
0.08430057204580514 
0.3681537538111389 
-0.1818981278449821 
-0.03731406698181169 
0.08701078503283523 
-0.6674628029089764 
0.2297655370684848 
0.268253631726399 
0.04351072546734828 
-0.03423141143854184 
0.02099389488901305 
0.2370059022784676 
0 
-0.01059285446000117 
-0.2825198345853988 
0.06007327476854144 
0.1448930554516204 
0.0719249082398169 
-0.08072791614259396 
0.09789953414458867 
-0.02577623329870314 
-0.2864200431360444 
-0.09361985708296201 
0.1914361673257994 
0.01902281704779618 
1.141707487508026 
0.01002842903944068 
0 
-0.2035557685494474 
0.0976860561428764 
0.3720244438311001 
-0.09906842504979077 
-0.01382351625135784 
-0.003382235289249952 
-0.287157282267622 
0.02607317815764308 
-0.08251713629771178 
0.0156533453718474 
0.04247855784003599 
-0.04433898254877992 
0 
0 
0.2360007894237215 
-0.0307670901216976 
0 
0.07380082266597095 
-0.00838755566408555 
0.03867973164443876 
0.1734065266906095 
-0.09671898822275232 
-0.214088713137854 
0.00580881777906285 
-0.07275266732835187 
-0.09114594895307941 
-0.02302053735596498 
0.118801606560106 
-0.0107814016240237 
0.00456522424616085 
0.06060872799529716 
0.2011585664213258 
0.0167611978072435 
-0.07988518458248373 
-0.06409052786940217 
0.02699086935306449 
-0.00886977815965574 
0.05530315305821169 
-0.6702495340185232 
-0.07597236762991144 
0.03351221129682039 
0.005698281560693364 
0.01550965575869892 
-0.112960083081257 
0 
0.07616707227006424 
0.4364093080350237 
0.2240251259325204 
0 
0 
0.004194845161430609 
0.03806150784115918 
0 
-0.007918764355405027 
0.02581994794109927 
-0.410668411066531 
0.3563302892751256 
0.05086528270703955 
-0.03619057265438273 
-0.02100444654691246 
0.4711651971536562 
-0.005779486688800277 
-0.3560292544413883 
0.7596525185038349 
0 
0.06150045617216501 
0.006627664974574093 
-0.02396971680274228 
0 
0.02239637135830983 
-0.3233351159166237 
-0.04263613193867202 
0 
-0.01962896390730305 
-0.2868987196628702 
0 
-0.05848950608766938 
0.03312003949368536 
-0.01078367916188871 
0.02710660512278613 
0 
0 
-0.007983895948957457 
0 
0.003062275351459953 
0.001032673869602597 
-0.2964245737808184 
0 
0.0003375841862279318 
-0.01512730564241646 
0 
0.01477580009063831 
-1.067216013288143 
-0.04537161947582008 
-0.3764439521363148 
0.08445546407297465 
0 
0.106172648671323 
-0.07936296394183925 
0 
0.071345412540243 
0.008549211471382313 
0 
-0.005638033338884926 
0.2892747995963577 
0.02713593211433482 
-0.08147484818054776 
0.006485143038862301 
0 
0.2188622539957335 
-0.006988713879036901 
-0.0108456678422086 
-0.03043887309580895 
0 
-0.004372099315669575 
-0.2210309689944501 
0 
-0.1447817789130639 
0.03773092939474488 
0.05432905753326801 
0.04796251224587885 
0 
-0.4111778531863353 
0.5186566260903157 
0.001264227292458886 
-0.06105827463800618 
0.01407240978289355 
0 
0 
0 
0.09700220962253829 
-0.1774806731409391 
0.03325285971843193 
0.02190542287936017 
-0.4315758750083877 
0.07142333517175765 
-0.05554844428347883 
0.08875149045257744 
0.1552678998390643 
-0.1384010280072473 
-0.07628231620787691 
0.01028723479936057 
-0.2712320040330045 
0.5111536716463714 
0.6957727565643222 
0 
0.03462781962811266 
0 
-0.1096824123796236 
0.0419451806881526 
0 
0.7498626678822429 
0.01397361395953342 
-0.171081419695454 
0.07344527851816961 
-0.27290708543018 
0.3656278412812576 
-1.084202172485504e-19 
0.08421568490525226 
-0.03631459853154628 
0 
0 
-0.0445054093033607 
-0.08850294610918609 
-0.05376295864043273 
0.08090738119087 
-0.03724278444606648 
0.102973441705705 
0.1596284189074914 
-0.008525148264437328 
0 
0 
0.5172027521597291 
0.2977562071079189 
0 
0.02496498735439465 
0.08318320426224263 
-0.2331851697984615 
-0.01743129313566788 
0.183513638106167 
0.003552438696422017 
0 
-0.04192767781362567 
0.1189146393569293 
-0.009534182876051362 
-0.05179684366311983 
0.08088689057257824 
0 
0 
0.1002643736393178 
0.106730269548166 
-0.08672987922320573 
-0.04719415078560342 
-0.07002534249875589 
0 
-0.06768043612465166 
-0.2123264123569692 
0.08622085790192896 
0 
-0.2897453158759761 
0.03564535081555129 
-0.02523214634534147 
0.2953624841621238 
0.01643364764300198 
0 
0.06230762897999865 
0.03289846930838368 
0.005248291145476894 
-0.01678079122565877 
-0.135833331362998 
-0.02463587417914319 
0.01979603968062989 
-0.008085597596564237 
0.0748481622692079 
0.002029210141675017 
-0.01138683142375552 
-0.1450345448940521 
0 
-0.3075058944674232 
-0.02628993659481517 
-0.05756953509416411 
-0.4570116263034964 
0.02397219959160023 
0.3325599726200538 
0.06146523280943948 
0.4610921978050309 
0 
0.3808452636424215 
0 
0 
0 
0 
0.02103316640665541 
-9.316900564110747e-05 
0.2794595854124025 
-0.04885215642860081 
0.03133745467235901 
0.458674327794735 
-0.06115516224041637 
0.05220991047879506 
0.1253025605946607 
-0.302292980219506 
0.194280741358788 
0.0264788051129543 
0.04219294684959047 
-0.2524434403623289 
0.03506918028287652 
2.175934670006616e-05 
-0.1943233467633925 
0.09389845766127176 
0.07268333441432329 
0 
0.2239182733198761 
0.002178720685924875 
0.07499343721492703 
0.5336396461205909 
0.5109501509132767 
0.09520919366428833 
0.07857590234862771 
0 
-4.607859233063394e-18 
0.04816099939671357 
-0.003745928329718097 
0.680862796761262 
-0.05582993522489551 
0.1055261898216311 
0.1797886760118129 
0.6278254868984474 
-0.05373803017531453 
0.2014515143605201 
-0.018735372065742 
0.2821283016923707 
0.04686000068057021 
0.2718810265786407 
-0.05428888898983356 
-0.007132023804186548 
0 
0 
-0.002478569391760081 
0 
0.2029566388242072 
-0.04824587060039374 
0.03324408846107702 
0 
0.03793330391213989 
0 
0.01211038724133579 
-0.09994498159077661 
0.03079508659006297 
-0.04137193869651856 
-0.155290783877447 
-0.008411174892202465 
0 
0.1757940196004236 
0.05534701992313423 
-0.03493167899785202 
0.1446809594694951 
0 
0.0463361204556024 
-0.02605426553456085 
-6.396792817664476e-18 
0 
0.06359478700417313 
0.0006634338407416808 
-0.01198095616583217 
2.439454888092385e-19 
0 
0 
0.05777020197471312 
-0.06640069836806231 
-0.1774516796226252 
-0.004413693233710674 
0.1429324068090033 
0.1641805827548973 
0.5436857027585577 
-0.1760646311456299 
-0.1436495513783168 
0 
0.1189759240015082 
0.3294360884854476 
0.2902334979899156 
-0.01380971027580434 
0.05221784237021805 
0.03355188691532116 
-0.04507458535283217 
0 
-0.2178890654668259 
0.005368417669373189 
-0.05171635570397559 
-0.03010393777402634 
-0.105922282166234 
0.005626924050166027 
-0.01824332276604035 
0.1173266104596947 
0.008504838101721948 
0.122113598904477 
0.07649021998518227 
-0.02143334884142293 
-0.005027252249501092 
-0.5988971537534038 
0.009475745458000156 
-0.007500348592009572 
-0.0348931361464897 
0.1052446946289406 
0.09198711197443177 
0.04029725370136535 
0.02377712886258677 
-0.003645419328255172 
0 
0.0316176524434828 
0.06961630048178762 
0.1498231042734747 
-0.4360268943224594 
0.0007577620984479279 
-0.02708253981786858 
0 
0.204500847300855 
0.02957508625604551 
0 
0.09984039248345869 
-0.08033316571213414 
-0.003140391895352159 
0.0019121935319986 
0 
0 
0.00115202305495076 
0.08034245369809696 
0.03647098712238812 
0.2017655522249799 
0.1297594955328322 
0 
0.762777469584484 
0.05331836260641197 
0 
0 
0 
0.5527283469241239 
0.09680975775928403 
0.0606504548841588 
0.1345128934803402 
0.04078935827957054 
0 
0.02278322431646257 
0.0534904969532816 
-1.432449600916371e-05 
0 
-0.02104289975384894 
0.00673926664356299 
0.3175567735148845 
0.2953424950074583 
-0.04903249766571924 
0 
0 
2.439454888092385e-19 
0.4823780808712248 
0.01412517026267756 
0 
0 
-0.06944309853057239 
0 
0.08520043340667958 
-2.168404344971009e-19 
0 
0 
0.002536304923601047 
0.0985579260874678 
0.04382885871078445 
-0.04920270985789735 
0.03601156148967991 
0.003725063510429483 
0.117904731110322 
-0.08950649074785021 
0.0007610228199943519 
0.02190639167043159 
0 
0 
0 
0.00787081650969621 
-0.01071132311822271 
-0.005492851504710758 
0.1322550534665155 
0.0007940999457604559 
-0.03647096412852344 
-0.01681989928037676 
0.190127695832097 
-0.06678684788848503 
0.06071710585556907 
0.4457438974087372 
-0.08455229448605386 
0.02358701903305669 
0 
0.04485557503580144 
0 
0.02899205894275952 
0.1322000119647911 
0.1937506429097882 
-0.0008034201595907657 
0.03661255332475715 
0.01000968937829845 
0 
0.002124844596919891 
0 
0.01105434628896845 
0.02249062730993869 
0 
-0.1919563157276959 
0 
0.1421859355481473 
0.00353566983136828 
0 
0.1296922410344613 
0.001833040686922491 
0.02296593896957563 
0 
0 
0.6561689530252599 
0.0426731027462889 
0.008687680569888686 
0 
-0.08642115223725379 
-0.05510994807226502 
0.02556748025108322 
0.006156520431497866 
0 
0.2775241241265237 
0 
-0.3222310942014679 
0.09948006472467363 
0.07241826596928518 
0.6654841562076783 
-0.03461527757858139 
-0.05977271845974497 
0 
0.04359891800519596 
0 
0.1554339526960176 
0.2857885636775914 
-0.1392574763434639 
0 
0 
0 
0 
0.1321212841634057 
0 
0 
0 
0.2091826106584099 
0 
0 
-0.1766209252134908 
-0.02632833662930997 
-0.05968129001036197 
-0.01567583166827664 
0.117455904754345 
0.1380199151317159 
0.014664587478855 
0 
-0.01804454893368301 
0 
0.01262084749095174 
-0.4112638714226389 
0.1384739452296323 
0.5106210633509312 
0.1490311767509237 
0.04902260213211725 
0.2610771905646426 
0.05542519077683489 
-0.06255517038888475 
-0.02872673547822028 
0.2339965174775523 
0.1063650313616211 
-0.06661753438118177 
-0.0008519555154101047 
0.09172319006763745 
0 
0.5285818005573134 
0.4224947932491543 
-0.08283792203738692 
0.1937284318053352 
0.02947805193514677 
0 
0 
0.1608803762915068 
0.00516015515489778 
-0.1087695955410573 
-1.13841228110978e-18 
0.0602705526893961 
0.00188187544730082 
0.1154960024743613 
-0.1779554330365932 
0.5977857371963055 
0.009232207554903995 
-0.04415170935391876 
0.01145185630799758 
0 
-0.1953259496459245 
0.09990628592298642 
0.1278820441545233 
8.673617379884035e-19 
0 
0.08371343862512608 
0.06139774407763766 
-0.03186577226446903 
-0.1054533712435087 
0 
0.09136457284584841 
-0.4531901030596838 
0.001439806032738636 
-0.009714729062498621 
0.4724941736966872 
0 
-0.00760799154303321 
0.03412265399582968 
-0.9198835929057287 
0 
0.2834254772473547 
-0.002367128711273953 
0.02570414931733572 
0 
0 
0.08622109915066105 
-0.1584298472881906 
0.1357190371613434 
0 
-0.1004121205765162 
-0.06681447699618956 
0 
0.09396790756625048 
0.008431414359536689 
0 
-0.06495254045750745 
0 
-0.005759319644196047 
0.008945195527348869 
-0.06466539516602469 
1.517883041479706e-18 
0.08015665411532318 
0 
0.01512691025629171 
0.03116966109821066 
0.1113145104682356 
-0.03019005656123908 
0 
0.1362044952537741 
0.2587315032663471 
-0.2739850056876434 
0.0177172701165405 
0.2758442043861685 
0.03928169551801523 
0.1448817563500591 
0.4172102015001602 
-0.1766284399284861 
0.0354743197940049 
0.8289537144681337 
0 
0 
0.01071583923107114 
-0.1032899803325536 
0 
0 
-0.01840134743840375 
0.004027364504627896 
0 
0.09559741578813814 
0.1164095462592843 
-0.06159946779710304 
0.03960538862608915 
-0.2026079031582953 
0 
-0.06035124454358316 
0.03301645469028246 
-0.01348461148773412 
0 
0 
-0.03589144379642278 
0.008462802240860282 
-0.03938958588697829 
-0.007180174091238986 
0 
0 
0.05467888013953942 
0 
0 
-0.008470250799345705 
-0.00397290721939948 
0.940741751289879 
0.02436988935969759 
0.1158894270388878 
-0.08470395906310556 
-0.01193709165477991 
0.02401750865170128 
-0.4847301075838075 
0.03758504049271353 
0.1226388496841926 
0.09615798637519216 
-0.5096644624559381 
-0.002365533406402482 
0.04080967925101532 
0.3223889563006226 
0.05698575484034876 
0.1353759058135805 
0.2017220120605565 
0 
0.02484248445647008 
-0.2514591681954548 
-0.1587983081309641 
-0.06994586030456573 
0 
-0.1018045905646686 
0.2780793548071635 
0.2411303943340683 
-0.1545707700526613 
0.02058546229834182 
0 
0 
-0.03948235123392381 
0 
-0.01636018087834681 
-0.1299845542520995 
-0.002851889046695452 
0.08091237295752234 
-0.04381349940278027 
0.04913209103568256 
-1.452830911130576e-17 
0.02725474880825855 
-0.04965135438464702 
0 
0.02237210857932292 
0.01683862276580955 
0 
0.05865065325544211 
0 
0 
0 
0 
0.02219665343009121 
0.11309305441991 
0 
0.05373319264096568 
3.469446951953614e-18 
-0.008690638011594214 
0 
0.02705550722414603 
0.43674235845423 
0 
-0.09935188314115334 
0.0004723723386545584 
1.301042606982605e-18 
0 
0.06832265588217086 
-0.03455990470758544 
0.002203186920079018 
-0.09900097225666549 
-0.154370936895639 
-0.00269338392108921 
-0.09245774252715516 
0 
0.003677340332122938 
0.03070852007434869 
0.2420809024193072 
0.03171027893568002 
0.003567400814331951 
-0.005219195264330313 
0 
0.07899001580705992 
0 
-0.00570438417578677 
-0.1498330711331035 
0.001930819367586068 
-0.0546103610587647 
-0.03038717377767278 
0.0146816408671084 
-0.05022478418083685 
-0.05629735910003202 
0.01039687147289411 
-0.006302046806141746 
0.1293600112762346 
0.08031632774396848 
0 
-0.08346668363467891 
0.08210131797250081 
0.1533840908364438 
0 
-2.710505431213761e-19 
0 
0 
0.0229886496732646 
-0.003441259310742212 
-0.02348789143801087 
0.006757954494641138 
-0.005944366578941021 
0 
-0.6943352210950705 
0.006843706344109367 
0 
-0.1494745572984168 
-0.1775882878873224 
0 
-0.008834375638918462 
3.252606517456513e-19 
-0.3596374475529852 
-0.002046732429448 
0.1031507201356368 
0.0414739386629086 
0.3121362589520481 
0.0005886628246690329 
-0.003647781222513557 
-0.05207319392014581 
-0.01000993417544507 
-0.1113645900825955 
0 
-0.01643836609012631 
0.1317507748700928 
-0.1295251318966564 
0 
0 
0.03193769540065727 
-0.005965349057797776 
0.1718847318748941 
0.3052881494655975 
-0.1394612018943274 
0 
-0.03509713106256336 
0.01587899886655456 
0 
0 
-9.75781955236954e-19 
0.01882442111625217 
0.2908696384075052 
-0.4014469193569399 
-0.1501656099571026 
0.01653375662324328 
-0.02781396080964772 
-0.003176541487773485 
0.001401187031096759 
0 
-0.2576327555335443 
0.06739057928119932 
0 
-0.001738228459069882 
0 
0.1680616472650269 
0 
-0.06662589118433852 
0.02073592340505404 
-0.153263433695872 
-0.03979102431393956 
0.09906833300490901 
-0.0035651345882959 
-0.07080926091347348 
0 
0.03070353281893886 
0 
3.469446951953614e-18 
-0.009633248403893388 
0 
-0.01825789937772334 
0.08785092965882602 
0.2061704622140702 
0 
0.08464239340649928 
0.106322145489413 
0.1690690556218966 
-0.1352623539642394 
0.07818414265455682 
-0.1753274756510477 
0.004655213350166324 
-0.01300083392209802 
-0.08204834104812121 
0.02594261814648977 
0 
0.4677368678092743 
0 
-1.387778780781446e-17 
-0.002255085749875797 
-0.008581837621174008 
0.02236838144534263 
0.001226630638843015 
-0.1385197437370989 
0.06694269835403666 
-0.3901370919404063 
0.1274037008321159 
0.01978526849674784 
-0.04292899451724168 
6.166399856011306e-19 
-0.04471916062992657 
-0.01913623751960855 
0 
-0.03856201169952762 
0 
0 
0.04103392732265741 
0.7299246838114598 
0.1356216399437383 
0.0657487028898278 
0.06126568306844496 
-0.01819562375793395 
0 
-0.01366891409216406 
0 
0.04686174506629678 
-4.336808689942018e-18 
0.02103457695172075 
0 
-0.001547589817605102 
-0.06372847037084224 
-0.008992376880467785 
0 
0.612106205463869 
-0.00376851233171632 
-0.01083638676904256 
-0.02965086784438837 
-0.01935227715872573 
0.04134510992065285 
0 
-0.03146341122371091 
0.03830449053510512 
0.117026295928701 
0.08379492691078748 
0 
0.1485817546895574 
-0.04662254406795857 
0 
-0.2910353399426783 
-0.03410317187863568 
-0.0633566895388406 
0.0176034543253064 
-0.06915603565401851 
-0.3608442304597976 
0.04001345480997276 
-0.03739922168650776 
0 
0.3873421335437723 
0 
0 
-0.003318242565458607 
0.0491496502835324 
-0.01866131132791836 
0.1348251801760776 
0.1316179849646734 
0 
0.006412186649880315 
0.04398249261377946 
-0.00616450950759013 
0.2096816908473824 
0.02650799702243907 
1.071789414046674 
0.006342734058502838 
0.05108183057366396 
-0.06609153703320249 
0.3881476441109596 
0 
0.01577240124180878 
0.06974506432316695 
0.004392124896996738 
0.08372284876147747 
-0.5777207191725682 
0.07709099774738207 
-0.06807490335763634 
0 
0.1615120335573925 
0.05659100390871044 
0.00469193242384823 
0.02418138017045542 
0.2211438320364505 
0.06102768024964249 
0.09644547896084528 
0.04908723770988938 
-0.01103218168028697 
0 
-0.01567534621844683 
0.04019884668360798 
-0.03294570246668739 
0.0633097696216901 
-0.01203038894151959 
-0.0330012116109579 
0.142155271670649 
0 
0.03187066530501489 
0.1239690208621901 
-0.1557759316942355 
0.08335687588577617 
0.4489805287113207 
0.4870860861962435 
0 
0 
0.008407560129350894 
0 
0 
0.3135817835034149 
-0.3413831720351092 
-0.4877479695265014 
0 
0.101173108097295 
0.02085497157708389 
0 
0.05538056409987214 
0.2502882199254108 
0 
0.03226064571596274 
-0.5302964547259039 
0 
0.06658358688107625 
-0.1216967662930985 
0.09963977758646243 
0.7713136404403184 
0.09506541084669372 
-5.063729947507983e-05 
0.02070879186480286 
0.1175007017247014 
-0.05441606985657831 
-0.01210174994223831 
0 
-0.00541634647483221 
0.1086017205705496 
0 
0.002032311624124659 
0.2646398792358169 
0.158049992809564 
0.2249178484343057 
0.1824535890338749 
0.07827147089811386 
0 
0.003376746833752494 
-0.01687524942285263 
-0.03859172639269579 
-0.0779959505280076 
0 
0 
0.05945621647300399 
0.1007916352616541 
-0.009758824743555754 
-0.8838174185942801 
0 
0 
0.1008404167042168 
0.01153925983491828 
-0.005467746146755431 
0 
0 
-0.0588276091210686 
0 
0.004070515805847186 
0 
-0.0008557338720498652 
0.05320042979407257 
0.006257435105638313 
0.2674372319395381 
0.02111738943627703 
0.05942130783464024 
0.302577498751409 
-0.0114148343664633 
0 
0.2667393700108299 
-0.1405519364276961 
0.01459987635031091 
-0.01897115116323443 
0.03010027080141055 
-0.003963069448910918 
0 
-0.01836449801781343 
0.2043951619413602 
-0.002635089264670885 
-0.006206069827338036 
0 
0 
-0.02864932761538706 
0.3217658915055604 
0.2271794711344882 
0.01170762079692726 
-0.07402032334413805 
0.3473163736487196 
0.2598267435029061 
-0.03134413842382584 
0.08798110378762954 
-0.1403097024105869 
0 
0.04434912863658184 
0 
0.2299705351609787 
-0.3320989032549515 
-0.04696233400430623 
0.08765533956452057 
-0.001506599948164314 
0.005831633931978828 
0 
-0.07118083026519884 
0.03924861152188353 
-0.02542694082325138 
-0.120411737926868 
0.002803445275980867 
-4.336808689942018e-19 
0.001174386453843898 
0.05518428766270164 
3.523657060577889e-19 
-0.009770157660446675 
0.3966877325840059 
0.03558161163033072 
0.01730876437333252 
0 
0 
-0.5643644443226505 
-0.1055525319289461 
-0.02978483665690976 
0.02854134557728308 
-0.003081379696788141 
0.004771366713131491 
0.04711614371721461 
0.1134030855500503 
0 
1.734723475976807e-18 
-0.03487776420263171 
0 
0.05682607825822093 
0.05268994883917413 
0.0793908697520453 
-0.05716757324334377 
0.007131045318444706 
0.03605067499267432 
0.09480031502807246 
-0.0004772538617410838 
0.1163671880827054 
0.03447470262479755 
0 
-1.301042606982605e-18 
0.008906994688733707 
0.01419964063012943 
0 
-0.05533804118360534 
0 
-0.2105898001732332 
-0.03994801262085924 
0 
0 
0.07560975595330706 
0.01414100559965279 
0.01780280770772054 
0 
0 
0.01419837448180019 
-0.08230317202214381 
0.01442941725748213 
0.8894887991501271 
0.0004885648892516114 
0 
0.3388992217937868 
0.01096697181961742 
0 
-0.07151343837129452 
0.09141114528877256 
-0.04145605182876175 
0 
0 
-0.1128831190594315 
-0.007794578313131795 
0.04048790195130336 
-0.00615802956783364 
0.02374157936857588 
0 
0.1649065101307596 
0.2295678397479013 
0.06437287011573826 
-0.1527668433990765 
0 
-0.04231757989628324 
-0.1120448457605505 
0 
-0.07122889551374913 
-0.009209614719603378 
0.000496932400758975 
-0.4175006984582147 
0 
0.151298079253523 
0.3103351285540238 
-0.06423907476802053 
-0.08177245515123087 
-0.007799805354329111 
-0.007153665256672627 
0 
0.06165353089082692 
0.2046426720579831 
0.1664376781360045 
-0.01232529055104421 
4.336808689942018e-19 
0.1933959334409631 
0 
0 
0.007695005598993516 
0.01075375940475708 
0.6372271271566101 
0 
2.168404344971009e-18 
0.2183825366912482 
0.07464764202828802 
0 
0 
0.01778490554498926 
-0.009178698238464355 
0 
-0.08374837788791001 
0.02755804616174756 
-0.1167524395489386 
0.04874291440085185 
-0.008050190917127055 
-0.3288763737710029 
0 
0.4185873446774805 
0.3304284872775266 
0.8610063393663447 
0.1058898109284514 
-0.07144868640098233 
0.01612979631667023 
0.3414395940857974 
0.01392832137346759 
0 
0 
8.402566836762659e-19 
-0.02832763515204417 
0.1850550046412513 
0.02957771288534204 
-0.002283209461325756 
0.0003661963495382186 
0.03307721876533677 
-0.03699328531655035 
0.04184411545158492 
-0.4068704362956461 
0 
-0.05324330467241927 
0 
0 
0.04788728697407162 
0 
0.1222486745400978 
0.1223147355421618 
-8.673617379884035e-19 
0.003646007834956138 
0.08035044873279068 
0.0310752875359622 
0.08394795934553123 
0.08457062148653365 
0.01669416437340619 
0.08789280102260154 
0 
0 
-0.2052932568553507 
0.1541158692150039 
0 
0.2585226076132491 
0 
0.001627288397482693 
0 
-0.006583018714564 
-0.004321135032562808 
0.05024723073468203 
0 
-0.09558257150327323 
-0.0004392127526963584 
0 
0.09767540377338416 
-0.006162339216349496 
0 
-0.0416236486802449 
-0.0001693438907484053 
-0.0136533622137767 
0.05269624494547 
0 
0 
-0.008384627491566881 
0 
-0.03883078240037706 
0 
0 
-0.2785039802039999 
0.08788335795818594 
0 
0.1439322810624915 
0.09236028359072729 
0 
0 
0.0008461767439866466 
0.1311143755983317 
-0.01802904440943718 
-0.2276777830477957 
0.3454165055937219 
0 
0.02642128106012289 
0.02609074053930521 
0.04002470970139421 
-0.07066753150207272 
-0.02764933329594553 
-0.01337906346745667 
0 
0 
0.1183627586414302 
0.01847955062343539 
0.09288417652674025 
-0.4810215903823644 
-0.05265527013079745 
0 
0 
-0.0004236502635901256 
-0.009604793307565659 
0.05392904772960295 
0 
0 
0 
-0.004654299486019159 
0.02715552466796579 
0 
0 
0.1666041045680171 
0.005434254465935062 
0.007457169014232537 
0.1265384575747697 
-0.00304347018942754 
0.3104125651757068 
0.01039497099628713 
0 
0 
0.0338191934591829 
-0.03423002423497489 
0.1263671182965445 
0 
0.147855213879866 
-0.03117467265702109 
0 
-0.1131709147747107 
1.084202172485504e-19 
-1.301042606982605e-18 
0.1501063036560084 
0.01172060172050428 
0 
-0.004378023211756632 
0.1777435378668661 
0.05741494299645783 
0.01793014240354202 
-0.02236494204422597 
0.2368603401206627 
0.07793278509327604 
0 
0 
-0.3846328916697755 
-0.006706334784346018 
0.335024853592313 
-0.005870071960809352 
0.6334730469013076 
-0.01868193863367977 
0.09186240269423417 
0.002783575220824115 
0 
0 
0 
0.01935153305304064 
0.1967167561871011 
0.1047013804831687 
0 
0 
0.02197702075098266 
0.3207753854242314 
0.01893026831978257 
-0.0005393756423927427 
0 
0.7492838837914332 
0.6886201579009206 
0.01516046872667553 
-0.03846457336264842 
0.4021278043838782 
0.07460614235368863 
-0.01609215750513909 
0.1306665388441952 
0.007568430626925835 
-0.002184029721238964 
-0.0002359226105773701 
-0.05026238036473625 
-0.04059228112092866 
-3.252606517456513e-19 
0 
0.009600268331332682 
0.0375339233744956 
0.01146018179325026 
0.1060094886143803 
0.04164270560833774 
0.01069918655822587 
-0.00241036032261747 
1.198558113049553 
-0.04344773889133722 
0.005117219204451889 
0.07953324638082895 
0 
0.1086410745012877 
-0.003934914360108058 
0 
0.0004935102349562057 
0 
-0.007233335643453691 
0.01770080261780034 
0 
-0.05235000299011808 
0.05351284527091981 
0.2444897205624486 
0.002708639671930664 
0 
-0.03018422841522749 
0.009212872059676733 
-0.004897705445187029 
0.009499250271591233 
0 
0.07653961706596399 
2.168404344971009e-19 
0 
0 
0 
0.09552402472904717 
0.2778253154278205 
0.007317595019883359 
-0.01886662771484025 
0 
0.2488194596525122 
-0.01713683746310396 
0.1205690397221711 
-0.05118887717219232 
0.008571257247443464 
0.05960357976615823 
0 
-3.388131789017201e-20 
0 
0 
0.1031930036978637 
0 
0 
-0.0479629846514826 
-0.03632493197111605 
-0.001268414000398404 
-0.02167617764634743 
0 
-0.1757049327499402 
0.0157711819852833 
0 
0.2351379613016832 
-0.02129334690414649 
0.006711111469438267 
-0.106871380245676 
0 
-0.006667593485372955 
0 
0 
-0.04231747866455371 
0.02198133107847691 
0 
-1.734723475976807e-18 
0 
0.07769047041387907 
0.1595932014703876 
0.1894402895367434 
0.006077930890690697 
0.5694634245920304 
0 
0 
0.01305032795519871 
0 
0.01300935904092423 
0 
0 
-0.03208529724575589 
-0.0001342188527766934 
0.005682164253817266 
0.2679382619420636 
0.04014538132057081 
0.2558630139721594 
0.06896795405519567 
0.04386660338700558 
0.0008443243016147229 
0.02103012002660167 
0 
0 
0.04801544752327092 
3.252606517456513e-19 
0.1027848737693784 
-1.084202172485504e-19 
-0.03985698534812363 
0 
0 
0.000625461991186749 
-0.2225349083256776 
-0.01717929309597908 
0 
0 
0.01758342369761919 
0 
0.03807150951827664 
0 
-0.3545237178606114 
-0.4227496487186172 
0.1194889093521364 
-0.149389711355396 
0.04103351780936619 
-0.0421755726252062 
0.3183297973185469 
0.002495880724779061 
0 
0 
0.1830398944219735 
0.5326992438235669 
0.1854635045101922 
0.02122117958647136 
0 
0.07783273671167761 
0.07040812127375064 
0 
0 
-0.01243456968474951 
0.06372958324744475 
-0.09622521921999487 
-5.421010862427522e-19 
-0.006830287618863452 
0.159028108541301 
0.02539161415270655 
0.00279424707729053 
0 
-0.2386560906443286 
0.1329987401986809 
-0.008710157770780613 
0.001804765156563845 
0.04547501417570144 
0 
0 
0 
0.0005286014062081236 
0 
0 
-0.06852366588555465 
0.008522524942998138 
0 
0 
0.262283711371359 
0.000375734837348559 
-0.001398890077177228 
-0.1341014218550143 
-0.003899141099565929 
-0.1491254436966002 
0.04210666604951965 
0.1366570947254701 
0.04440463689755313 
-0.008554311464926377 
0.3653123829497535 
0 
-0.06675700316815132 
0.3832237894571535 
-0.2277968189710818 
-0.0008639745085475423 
-0.07002573046882363 
0 
-0.02127547394357569 
0.003432466535274869 
-0.00215435834366429 
0 
0.01029599385010202 
0 
0 
0 
0 
-0.0182665493033458 
0 
0 
0.2255711309869652 
0 
-0.0665073076154708 
0 
0 
0.02237575615960078 
0.03484921457138262 
0.0487785824920788 
0.1019615407223024 
0.07904825703606704 
0.004614962346358311 
0 
-0.1488768070994513 
0.007003799385083575 
-0.05204233509369352 
0.00798981290791039 
0 
0 
0 
-0.0008742783702867698 
0 
-0.01080756427425719 
-0.1465255207266618 
0.06982699870846204 
0.1580096781513871 
0.05863107744604831 
-0.04459449435828732 
0 
0.06258046322929407 
0.02687641338345144 
0.03894597496350265 
0 
0 
0 
0.1719152501168923 
-0.03038452826769132 
-0.2534672841466841 
0.005278020045683091 
0 
0.1091266500702493 
-0.01916925552881158 
0.6076945059651189 
0.0824945601186311 
0.4189170405510148 
0 
0 
0 
-0.1826265669246898 
0 
0.1666004311368529 
0 
-0.3617804372779344 
0 
0 
0 
0 
0 
0 
0.001004020874934298 
0.3183099467455691 
0.06272639079514067 
-0.003399829946560456 
0 
0 
0 
0.01181645544441854 
-0.01951355785256312 
0.01847905243783662 
0.2433108180164572 
0.02466933058136362 
0 
-0.1215982135320739 
0.2736622200419025 
0 
0 
0.1134590621004216 
0 
-0.06345947348420453 
0.04700802653877795 
-0.005645911510818963 
0 
0 
0.02108178116888527 
-0.01410059357572416 
-0.0799218766019017 
0 
0 
0 
0.01526743343634418 
0.1768364903325294 
0.02234639482051625 
-0.03236528283882506 
0 
0.131772590782872 
0.04903114360249623 
-0.02927417383224807 
-0.001618114319960362 
-0.09896911381534507 
0.9363848481456652 
-0.2768114724281934 
0 
0.01363905098284413 
0.02534770675487842 
0 
-0.05222240125116299 
0 
0.08407554320998252 
-2.168404344971009e-19 
0 
0.001945397824484495 
0.1646408544482844 
0.09364500487076979 
-0.008601716774605748 
0 
-0.04041168712582049 
0 
-0.6169971481493219 
0.06347683769739967 
-0.05437214071944497 
-0.06602705071451062 
0.1295337138119565 
-0.2570810685664511 
0.1930904783116694 
0 
0 
-0.006852367854425628 
-0.02495473970107887 
0.1264088262415021 
-0.007330339072600721 
-0.3424182474754107 
0.239712700723912 
0.005103171583062043 
0.02248658261710292 
-0.05991338029665967 
-0.1202555965046157 
0.08128060952506302 
0 
0 
-0.01248247315162764 
0.0009732078934053388 
0 
0.03700770980676876 
0.01428506052181682 
0.4722187719686804 
0 
0 
0 
0.147857904144004 
0.0489673129293406 
-0.1259494453236208 
0 
0 
-0.1484991596181184 
-0.05511386913589344 
0.112190509392558 
0.1866137662997559 
0.06115605968678609 
0.07460571620667444 
-0.1623025675907109 
0.003492744318857673 
-0.06229066403404963 
0 
0.3257649996610135 
-0.003511519474707552 
0.1363524724815382 
0 
0 
0.1760476442207609 
-4.336808689942018e-19 
0 
0 
0.7701911686455722 
0.06665968068021895 
0 
-0.01023434728833943 
0.01022526803495842 
0 
0.04651152975181978 
0 
0 
0.01473874330389667 
0.03159991454391937 
0.3687086771472777 
0.009848081208771994 
0 
0.064034630900787 
0 
0 
0.03469495271471705 
-0.1049572898156518 
-0.009590212847810241 
0.03601393867216467 
-0.3737613575995327 
-0.03024892195233511 
0 
0 
0.04366589599927179 
9.75781955236954e-19 
0.02465906435555702 
-0.1034589632166354 
-0.008686937027529483 
-0.04522168090718066 
0.145622152721086 
0 
0.03589650748482175 
0 
-0.001237854930076378 
-0.00757222202108571 
0 
0 
0 
0.213430522772921 
0 
0.005772050333177414 
0 
-0.01355984792082413 
0 
0 
0.02210043624336345 
0.0935540606401444 
0.7322974111659274 
0.5139127692914957 
0.1354545756704272 
0 
0 
0.1425578444097098 
0.002330284698877775 
0 
-0.5178276646523614 
0.003716793756181733 
0 
0.002937654891657126 
0.05485069671846095 
0.007051938279519325 
0.0153121301798212 
0 
0 
0.4888228958733149 
-0.01859608033801333 
0.02496199095874142 
0.04384301943851968 
-0.04241285395274676 
0 
0.01661265299584418 
0 
0.3271888932004919 
-0.03209962857656248 
0 
0 
0.001171792183315144 
0.4164966892622023 
0 
-0.08093833274711287 
0.05621176070413021 
0 
0.1034191236469509 
0 
0 
0.1370371976511731 
0.02207342959308835 
0.009752742255182039 
0.0006480363929615966 
0.002204231319795848 
0.04046455089342837 
-0.08681368438313455 
-0.3894154793784757 
-0.08988998790395637 
0 
0 
-0.02429593317065988 
-0.01051550673104908 
-0.01344985015520768 
0 
0 
-0.00427938899857901 
0.06751379189910221 
0.0215981224258243 
-0.03614503288169699 
0 
0 
-0.01420806041948962 
-0.07058983433436165 
0.008889489132814427 
-0.02990722122935397 
0 
-0.1016203033336219 
0.2152357539967742 
-0.01559502552518907 
0 
0 
0 
0 
0.1524997753835793 
0.1962431151941708 
0 
-0.06408583316905853 
0.1025233982125598 
-0.003206219149126655 
-0.02051748477023783 
0.1332082217420305 
0 
0 
0.05448619771397468 
0.0004757513689472216 
-0.1454891689092352 
0.05036379729931802 
-0.04515541698958026 
0.2098823655887517 
0 
-0.2742144534799625 
-0.02088230173664139 
-0.03953259470106574 
-0.03745886444180914 
-0.02519426423961462 
0.1169976511080629 
0 
0 
0 
-0.001510141829336113 
0.09967996810462823 
0 
-0.07521399405674357 
-0.008688340355361977 
0 
0.1220418372326374 
0.01041495898153043 
-4.125050453128443e-19 
0.05399353367167788 
-0.162183905143481 
0.2105313315196049 
-0.01901307844766548 
0 
0 
0 
0.007445317291719286 
0.03164666705382805 
-0.03012253794417418 
0.1432811040858708 
-0.05314129747470999 
0 
0 
0.1655384166128035 
0.1439819635686762 
-0.05260061823284917 
0 
0.1786549538851231 
0.0325060274371426 
0.5699870372859733 
-0.1217210533184003 
0 
0.08367202417428841 
-0.3673932280569973 
0 
0.01146242851342671 
-0.07803290495957667 
-0.2508185714026748 
0 
-1.75098650856409e-17 
0 
0.0003714300825385614 
0 
0.009849668713196048 
0 
0 
0 
0.01076771232493114 
0.04557849078315671 
0.002057623943520333 
0 
0 
0.08759490737420057 
0 
0.1323009624043071 
0 
0.0006789653473467201 
0 
-0.0844665340594626 
0 
0 
0.01674354292494085 
0.3574833895457126 
0 
-0.05591345727115801 
-0.02149868083078477 
0 
0 
0.003852316981939405 
-0.06342765723724851 
0.4167796908369928 
0.006409482168486144 
-0.1278876341153758 
0 
0.02955095633825657 
0 
0.08858772257939956 
0 
-0.01139997766915205 
0 
0.444877640492424 
-0.08226415980976999 
0 
0.2874529439609754 
0.004015894500028456 
0.1483991796806743 
-0.00770414714336657 
0.2101094273856919 
0 
-0.004323377349019981 
0.06765192317268547 
0 
0 
0.008475117507467671 
-0.100658507916243 
-0.02087182231552258 
-0.1416773134249356 
-0.005190600089798127 
-0.4146496161043891 
0 
-0.001968129681642917 
0 
0.0639344118288656 
0.1061418058851592 
0 
-0.09808082347935072 
-0.2100352448731881 
-0.1466935123864843 
0.1113259428663028 
0.005432312707424516 
-1.951563910473908e-18 
-0.007873030746931783 
0.1159787441848907 
0 
0.1584675783437575 
0 
0.0475915047217501 
0.001094498800280991 
-0.07064868818150323 
-0.06746483759996771 
-0.003944407063315559 
0.06213337363243926 
0.01002948239965209 
0.01306396792852012 
-0.01298563456558147 
0 
-0.006651731611822986 
0.3553075412993307 
0.04478755672223581 
0.03617603550372599 
0.245236248656344 
0.05077726071554231 
0 
-0.02904653787097109 
0.02476971278152089 
0 
0.03529460358641854 
-0.02299569693583994 
0.2052227236081313 
0.0681016357034175 
0 
0.03029723180405851 
0 
0.02506807529716191 
0.1267738003372784 
0 
0.2863065129823152 
-0.101677516227788 
-0.201728671306858 
0.005496393254612876 
0.03262931556331215 
0 
0.008311734651959441 
0.04416420951279979 
-0.1377153012520846 
0 
0.008073121075526268 
0 
0 
-0.02131960824019765 
0 
0 
0.04452047886933264 
0 
-0.03788045853785005 
0.8000379693178096 
0 
-0.004346432278582229 
0.0356741505507485 
0 
0 
0.004370235260868632 
0.07521984949259912 
0.2690404732600771 
0.009359022836454657 
0 
0 
0.008469260445855192 
0 
0.02948991088681547 
-0.2375733845138544 
0.02085652835999787 
0 
-0.03838805996991503 
-0.03357780307702062 
0.03833985483079098 
0.0006361642987539331 
0.03063028086638674 
0.03991041431241985 
0 
0 
0 
-0.00993317798695985 
-0.004057454011815776 
0.1309017591135006 
0.01936651842050796 
0.64873801816798 
0 
0.1009086584679037 
0 
0.1769702965588061 
-0.327732748065893 
0 
0.0005556605350958762 
-8.131516293641283e-20 
0.01379432384801787 
0.07306091704564426 
0 
0.1847766329612073 
0 
-0.002100984743886394 
0.005483422536737019 
-0.04126013544792654 
0.06914004084633391 
0.06279554735857452 
-0.04819110741091396 
0.02054455796863402 
-0.02670204707548862 
-0.04212830596137181 
0.005238197178590777 
0 
0 
-0.004735362458932439 
0.02085180668616507 
0.2384625695716588 
0 
0 
0.05533823423161945 
0 
0 
0.3313116673312066 
-6.183340514956392e-20 
0 
0.01978824954805422 
0.01728104986379926 
0.03478141906680628 
-0.06687323356111963 
-0.01800759686495231 
0 
0 
-0.4955532194511175 
0 
0.0001164976780284515 
-0.1712041417221502 
0 
0.1069660406860608 
-0.3058365239729395 
0 
0.2423053030214478 
0.6802589325626339 
0.03485423389870891 
-0.1431288869449034 
0.118391146086449 
0 
0.038874672533026 
-0.0653076420356135 
0 
0.03771258311900279 
0.2196609665199652 
0 
0 
0.1024951392408163 
0.02081856557392002 
0 
-0.01953831723079078 
0.02800924567974491 
0.1332054561257954 
0.01497537932687939 
0 
0 
0 
0.240794951691958 
0.00809927770027756 
0.000893172367545577 
-0.0005746151590653039 
-3.252606517456513e-19 
0.01365953382243099 
0.5701362077395041 
-0.1912071959976803 
-0.01828502964637792 
0.5607153489410827 
-0.02265843758905318 
0.02437443764798184 
0.01552407049088139 
0.08818273191291957 
0 
-0.07434775563529385 
0 
0 
-0.004381621844003363 
0.035610133088793 
0.03192679890858266 
0.07829726085927634 
0 
0.09570298223237469 
0.07562590624485724 
0.1177907204116157 
-0.003022201505756814 
-0.115722096901179 
0 
0.06204923852209623 
0 
0 
0.3928948461401536 
0.1024272201417621 
0.03896365622243667 
0 
0 
0.0768255954752077 
0 
0.04841111399793479 
0 
0.04512710830330238 
0.1594865322194906 
0 
-0.01194766712938503 
0.05339185830778258 
0.4759660839539021 
0.008508723262744588 
-0.00141474546974185 
0.2003036073049743 
0 
0 
0 
0 
0 
0 
-0.008227694012177047 
-0.01818263303443309 
-0.04214505286138875 
0.04473384900625148 
0.04257820560238141 
-0.01842393818126042 
0.003694910197285652 
0.1194136824509081 
0 
-0.004934933189052922 
0.1058976157330869 
-0.004143460874016057 
0.05523980710794353 
-0.2188320277491833 
0 
-0.02746793204210907 
0 
0.0191381422788825 
0 
0 
-0.01524205805640811 
0 
-0.07486399450887607 
0.01800552378221321 
0.03296908102104996 
0 
0 
0 
0 
0.6183234092508725 
0.007215057855797932 
-0.0195523556387556 
0.0515818318490248 
-0.2393143135678468 
0 
0 
-0.04479027032707307 
0.03228589359499785 
0.002706808317768259 
0.0008723989754008473 
0 
0 
0.1092826473501589 
0.01963836446698931 
0.1125853342369455 
0.4440241826670295 
-0.04215675211960238 
0 
0.004847242206338292 
0.06239619459027886 
0.009913018573215651 
0 
0 
0.4908562479713215 
-0.3563247590574817 
-0.008506267898595746 
-0.03575343574153177 
-0.00525330219709012 
-0.01386575842812437 
-0.1470616330804968 
0.0741591788710398 
0.1791898863139647 
0.01769599237417594 
0.06415027491349116 
0 
-0.4189557417622212 
0.09347371779383473 
-0.04958851862473983 
0 
0 
0.5205005559873928 
-0.004764223577856141 
-0.03195739533434623 
0.0221259718989068 
0.01246438674268424 
0.01913520903092968 
0.01571048536106015 
0.0360856242659502 
0.02809073464956938 
0.00774892299545438 
0.004155493067058692 
-0.004577646812738076 
0.05746392178224785 
0 
0 
0 
-0.002355859254774427 
0 
-0.05758770271073877 
0.02335552817858336 
-0.04610427493875168 
0.009813241366182111 
0 
0 
-0.01583565142894137 
-0.03010475480934346 
0.0007527712976650759 
0.1252760729252786 
0.0003577601054516389 
0.0006638779917943863 
0 
0.01047854004926485 
0.02957336192597885 
0.02889416011624463 
0 
0.06611360083626694 
0.1229883581164083 
-0.6273283099751831 
0.402089040989264 
-0.02679049195097697 
0 
0.01611550181344947 
0.002479090874135499 
0 
0.04897228356115196 
0.0458266987815607 
0.0585101479853047 
-0.1031383106252732 
0 
0 
0 
0 
0.0144154677776389 
-0.2393582763942227 
0 
0.03034785529832405 
-0.00926869155538273 
0 
0 
0 
0.006507948388406293 
-0.3332742663712449 
-0.03369402111717707 
0.1241949892472815 
-0.06536935721994218 
-0.002002770382884525 
0.08739242978425608 
0.05570247690691908 
0 
0.06435432336525782 
0.2023431716155968 
0.06622214010286247 
3.469446951953614e-18 
0.1126887522512278 
0.1110918123367042 
-0.04551533115288643 
0.03440704355502306 
-1.734723475976807e-18 
0.03986731298917458 
0.003365546045906362 
-0.03031893306176004 
-0.06013402818713345 
-0.01179666284479442 
0 
0 
0 
0 
3.252606517456513e-19 
0.1889047310791476 
0 
0.2238577418892543 
0 
0 
0.03391553760350884 
-0.04685202065216841 
0 
-0.01010277522162862 
0 
0 
0 
0 
-0.09724360723492105 
0.007759743180519365 
-0.02565542476958401 
0 
0.02851338972308726 
0.05648111351759245 
0.2283225300280061 
0 
0 
-0.01808204630443732 
0.4046988562488636 
0 
-0.01412731955670767 
0.01883573825243174 
0 
-0.2939188782653188 
0.01792745634430117 
0 
0 
0.03252316219677865 
-0.2063265482769474 
-0.01835922256102487 
0 
0.001897099969544975 
-0.005671931581792919 
0.04235670081142457 
0.05847772864035679 
0.03738564513957361 
0 
0 
0.1323754758754138 
0.1518136651346643 
-0.006604281339166821 
0 
0 
0.05617313474653059 
0 
0 
0 
-0.02751484215816153 
0 
0 
0 
0.6195168368765668 
-0.07791382378826148 
0.0008648550794561087 
0.09794857772306947 
-0.02668314525839305 
0 
0 
0.1141405700133011 
0 
0 
0 
0 
8.673617379884035e-19 
0 
0.032919351839791 
0.08230312353227398 
0 
-0.01938825338511032 
0.05059889991879271 
0 
0 
0.003169837640021563 
-0.2212649152991266 
0 
0.06762524124985972 
0 
0 
0 
0.5306570819929373 
-0.8076789035121282 
0.1039023629464765 
0.05307750716760736 
-0.05129045010787719 
-0.003155455714630907 
0.09886544693616069 
0.5377662323144525 
-1.110103545777221 
0.07163523780770069 
0 
0.01829878566626974 
-0.005394193193586872 
0.03875036431453704 
-0.000487570668426598 
0.01632756895718577 
0.02431834387076267 
-0.005330644525701727 
0 
0.1044792650929786 
-4.336808689942018e-19 
-0.008141156694338413 
0.00699129236259832 
0.0504560546592966 
0.2050902278784209 
0 
0 
-0.4421854442095037 
0.5161800515085716 
0 
0 
0 
0.01838328410252073 
-0.07720829357170624 
-0.0002399706657146071 
0 
0.1007093346188867 
-0.03201155696465968 
0.0229792400274726 
0 
-0.003397894354001109 
0.008502144235127098 
0.003965637662616267 
0.01948037784364656 
0.007474219552330701 
0.02505313436298252 
0 
0 
0.05848566995488259 
-0.02166468265185475 
-0.01812935517276057 
0.0908472942424256 
0.0006690989968081645 
-0.2457168537912997 
0 
0.08236472594562733 
0.050912761634371 
-0.0494172119318136 
0 
-0.4544191742932243 
0.03086226959177297 
0.04431116888887653 
0 
-0.5966623010432749 
0.02652961408509725 
-0.01175892241188623 
0.1394193801901181 
0.1035926590124554 
0.006008197050518936 
-0.04483404462797454 
0.02151977627103825 
0 
0.02634163901358583 
0 
0.200483906505132 
0.02906347290149813 
0.001791118783475853 
0.1264330543554527 
-0.1176111929822152 
0 
0 
0.1705521971759447 
0.006693071996713863 
0.3002689886895994 
0 
0.09626544616025763 
1.000042720131482 
-0.0002386866463424266 
0.001369099570466028 
-0.00424670625016123 
0.2313351270788937 
0 
0.08001200165964878 
0.001315183278080779 
0.06649567324448587 
0.08003555315920001 
0.1878512589678299 
0.03034587358910332 
0 
0.04055127516837683 
0.0938398840873835 
-0.04188219194764146 
-0.005216316975092051 
-0.003823884518878396 
0.1879092552788917 
4.065758146820642e-20 
-0.01013758574859272 
0.01437792246911242 
-0.07199384325945637 
0.05988321119727183 
0.03774165149485352 
0 
0.01810116623550561 
-0.00197598150645651 
0.04166568540553696 
0 
0 
-0.03180441781473842 
-0.007665780195343702 
0.2548694388738088 
-0.0699070750782108 
0.1383852110830287 
0.03662826835827921 
0.06508408178817153 
0.1383852110830286 
0 
0.01014701164190532 
0.07155840027455683 
0.007346158130451382 
0.001758127852560396 
0.03187713662750813 
-0.00762820524279948 
0 
-0.01743251707657579 
-2.710505431213761e-19 
0 
-0.01535860153970793 
0 
0.06259615542776147 
-0.1070451009139757 
0.01833264406324827 
-0.2345644422170502 
0 
0.3276324392648022 
0 
0.01280586131549657 
0.02567029567030921 
0 
0.2809963636718832 
0.02410262341439227 
2.168404344971009e-19 
0.01208987842732385 
0.127450268683163 
0.08698816094661924 
0 
0 
0.1274904181240148 
0 
0.09476424413700668 
-0.10606616615532 
0 
-0.218955925456401 
0.1210193896598488 
0 
-0.07235856772424772 
0 
0 
-0.178522340183985 
-0.1981576730411211 
2.468886674387139e-05 
0 
0.04122830512060904 
-0.02314116301913988 
0.04296736742354852 
0.01977506570371046 
-0.6727535267802469 
0 
0.009202160192975383 
-0.03845828355958 
0.01066039920776931 
0 
0 
-0.02058501228650991 
0 
0.1660309731193256 
0.3606708034920723 
0.02294658622579182 
0 
-1.490777987167569e-19 
-0.08258650893778841 
0.03471705088728216 
0.02777525449278698 
0 
0.03541466481511139 
-0.121973778630367 
-0.01430965181198907 
-0.1252735638172004 
-0.002902275689568364 
2.168404344971009e-19 
-0.008743779151079451 
0.003537923175080013 
0.04162957903812042 
0.1292375869969486 
0.04242390857934553 
2.168404344971009e-19 
0 
0 
0.1327957298828809 
0 
-0.009726539366778961 
0.009922026185178182 
-0.004419584806542762 
0.2315788606937477 
0 
0.08523480363205767 
0.03428787689073504 
-0.02683636385179622 
0 
0.0306188219484974 
-0.05686908620121645 
-0.05419826058571613 
-0.1298452939690662 
-5.421010862427522e-20 
-4.336808689942018e-19 
0.4298605927700855 
0 
0 
0.01414257622678477 
0.05010503146205871 
0.09136013330583502 
-0.3660222745640474 
0 
-0.01175258737166572 
-0.003985546834914436 
0.120070366331827 
0.001488610303511481 
0 
-0.001739347452595757 
-0.4565102112287754 
0.3979638434433568 
0.01761426368930778 
0 
0.004249401147666444 
0.06504383943262815 
0 
0.01343603560337915 
0.02916983574386938 
0.06217966913876209 
-0.01359585638098382 
0.02389377442657822 
0 
0 
0 
0 
-0.1070215798964758 
0.06818839599326761 
-5.204170427930421e-18 
0.0004382104547672846 
1.084202172485504e-19 
0 
-3.903127820947816e-18 
0 
0 
0 
0 
0 
0.004360727706108642 
-0.02634866983799361 
0 
0 
0.08662370858026103 
0.03773783835001771 
0 
0.02171084266288267 
0.03904739431340854 
0 
0.2408339265719558 
0 
0.2528683417520776 
0 
-0.03795707709113846 
-0.2966966848645198 
-0.04595631169326145 
0.03563548648571732 
0 
0.6172040715208499 
0.1866180851506322 
0.2690031530210335 
0.01046750605437892 
0 
5.196516014626581e-05 
0.02679621385144427 
-0.1740916085446867 
-0.01492362450353293 
-0.005857932667033453 
-0.05156307042768771 
0.2031885078014483 
0 
0.8415773970634718 
-0.03975304654221164 
0.355986626549003 
0.1040127817321614 
0 
0.09474538793181582 
0 
0 
-0.02889826789205639 
0.1673753002160517 
0.04523402865472572 
-0.02189065996564426 
-0.2442318861769602 
0.09794665873190156 
0.005816872059198687 
0.04580900102775988 
0.001818933741386068 
0 
-0.004197165346239161 
0 
0 
0.0199269474482724 
0 
0 
-0.04219234590970971 
0.1365590056567139 
-0.02812135221384098 
0 
0.04289278438737642 
-0.0007296313127529298 
0 
0.002403558882865584 
0 
-0.1453278227001406 
0 
-0.5201235269025923 
0.02442764756328123 
0 
-0.01569978260428437 
-0.003129029079959471 
0.06081507323258454 
-0.1652904733726341 
0.03472092743909187 
-0.05740359346998593 
-0.05726223484636328 
0 
0 
0.03976880745483014 
-0.05837749806076706 
0.002152479403287734 
0 
2.710505431213761e-18 
0.06478560676896615 
0 
0.1619495089911443 
0.07382431260045232 
0.215437050128547 
0.01554679980679846 
0.02060551293838676 
-0.4656470883683395 
0 
0.1954144214907458 
0.08375837781834279 
0 
0.01383781522648007 
0.03171172099793227 
0 
0 
0 
0 
0 
-0.003531157340313487 
0.02120379896418652 
-0.02134326668780053 
0 
0.02125542995711931 
-0.06702523736837288 
-0.04845252239975444 
0 
0 
0.01136439030486329 
0.007424310579495386 
-0.01890902998652905 
-0.02447178071953589 
-0.04886868566439724 
0.1220714778315011 
0 
0 
0.00912291896284652 
0 
1.626303258728257e-19 
0 
-0.1185807004641677 
0.04471344287106379 
0.03942214310868434 
-0.02237722064160245 
-0.01201447990538172 
0 
0.009475655252871968 
-0.0168201618146757 
0 
0 
0.08441593478704104 
0.2470672985836547 
0.02854917876556728 
0.118899366635824 
0 
0 
0.03991165397011212 
0 
0 
0 
-0.003704399929563452 
0 
-0.06902310869572452 
0.01160855476901107 
0 
0.1248742965199199 
0 
-1.125629401131656e-05 
-0.02287861595201796 
0.0176685154175913 
1.084202172485504e-18 
0 
0 
-0.01062337729614181 
0 
0 
0 
-0.0112251257417119 
-0.01319641413842645 
-0.005519796618287292 
-0.004017621753253799 
0 
0 
0.01352950842467031 
0.00698531563380177 
0.1636668216609693 
-0.04474639401002474 
0.0375811195929404 
0.0002606198013335257 
0.04957524614911745 
0.2130894983108707 
0 
0 
0.0281294104649148 
0 
0.05538017949729221 
0.04098250772206482 
0 
0.02365025900664918 
-0.01846833902426975 
0.1159970632142718 
0.1080577079039228 
0.3430539096659869 
-0.1331927667217621 
-0.01485459085835431 
0.01094599636780987 
0.05756293894611838 
-0.002922216294878823 
-0.02877336521548021 
0 
0 
0.01683814777385265 
0 
0.01742444415201165 
0 
0.0261671022108067 
0 
-8.673617379884035e-19 
0 
0 
0 
0.03215683845232063 
0 
0.0435868608100586 
0.2689853601655963 
0.04052510995717909 
0.2615183320769813 
0 
0.005468890117405838 
-0.005825969635258036 
0.3033692985306765 
0.0949307833346781 
0 
0 
-0.1577695616993977 
0.3286364845643654 
-0.09971186828322545 
0.07353768185981412 
0.1659481285933309 
0 
-0.06191265485504946 
0.02408578826397345 
0.01122060835574948 
0.03124542951293809 
0.04554217134374793 
0 
0 
-0.02286501640704569 
0 
0 
0 
0.0600368055872755 
0.005593052710531703 
0.06899659030027269 
-0.02894945276147208 
0 
0.01460400077749381 
0.02201922219127276 
0.046365630668627 
0 
0.06378103798469821 
0 
0.02616378978911911 
0.08280714903539974 
0 
-0.0324192932489912 
8.131516293641283e-20 
0.09242767704600127 
0.5000664917596132 
0.1295220407014173 
0.02756452658435926 
0 
0 
0.008362283221556577 
-0.03869752297691451 
0 
0.04181231761128956 
0 
0 
0.1142306109729486 
-0.06992125101498495 
0.1281751798209974 
0 
-0.05553474009221621 
0 
0 
-0.1572527280203927 
0.06332090397636966 
-0.06386575026967875 
0.1283062466737258 
0 
0.02365590896122783 
0.09149518453689412 
0.1970998742785107 
0.06352032483704294 
0 
0.01788286086913693 
0 
-0.008156027189549253 
0 
0 
-0.0616179790934488 
0.007392785906187877 
0.6638414435261151 
-0.106590796498411 
-0.005115125708968101 
0.002596459777034148 
0 
0.02596442232989416 
-8.673617379884035e-19 
-0.009647741051119509 
0.4051498263150596 
0 
0 
0 
0 
-0.009977022195786922 
0 
0 
0.03864889328482096 
-2.168404344971009e-18 
0 
0.02653140511103128 
0 
0.008563776195021858 
0.5202281179552994 
0.01201946419263323 
0 
0 
0.02237204898916862 
0.213809787428532 
-0.002420617068473142 
0.0126522296043482 
0 
0.2413185751939709 
0 
0.02083327802221764 
0 
-0.01156202703922957 
0.3432817840071661 
0.0182328317795543 
0 
0 
-0.002164862771308207 
0 
-0.005428626898662708 
0.3514744643373291 
0.1168856739071247 
0.2462756492731736 
0.02401261022580867 
0.03202873417759027 
0.009727925962093275 
0 
0 
0 
0 
0.03901565215097283 
0 
0.1367948738191404 
-0.005900207295716133 
0 
0.2053494204597009 
0 
0 
0.0151244219860728 
0 
0 
-0.2020699671150804 
0.04543265251980173 
0.04444348748617538 
3.794707603699266e-19 
-0.02578737947412564 
0 
0 
0.03250833173792816 
0.006809235185101059 
0 
0 
0.05103000948628658 
0.2443115886432406 
0 
0 
0.007193069859904861 
0 
0.3034736399372746 
0 
0 
0.1478721151036608 
0.008025393291766077 
0 
-0.01600135806498943 
0.06896750824577691 
0 
0 
-0.06428591846622406 
0 
0.07085560618477725 
0.005354239960549772 
0 
0.03130933868604371 
0 
0 
-0.04641215248998417 
0 
-0.08751260293028884 
0 
0.004384455048629303 
-0.006350539609682656 
0 
0.02258465914435027 
0.006826683153920768 
0.3564472872050726 
-0.02803356341547675 
0 
-0.4149617232806629 
0.1488375302842477 
0 
0.001970712176412655 
-0.01085001203416846 
0 
0.02525293997573998 
0.1427096518774476 
-0.01316244705757338 
0.02273521999211971 
0 
0 
-0.001965397647742915 
-0.008164753932813976 
0 
0 
-0.009765193684277564 
-0.02390648501510563 
6.505213034913027e-19 
0.01154325339348734 
0.08908571534005745 
0 
0 
0 
0 
0.1822524478724595 
0 
0.1268788421990401 
0 
0.02311884949163687 
-0.02066095475298036 
0 
-0.09125515173783978 
0 
0.01331826805443574 
-0.01743958587841677 
-9.869039241391194e-05 
0 
0 
0 
0.06634552725838462 
0 
0.8480633156983025 
0 
0 
0.0325820569617188 
-0.1009959887109445 
0.075340994556888 
0 
0 
-0.002365965816729392 
-0.004770671916181618 
0.02867336668414654 
-0.02006061525267345 
0 
-0.003386848023818849 
0.07548288433929079 
-0.1485983971208724 
0 
0.01601567595595534 
0 
-0.01054199026381976 
0.1345238759950589 
-0.1249718562464804 
-2.788588483912573e-05 
0 
0.02483846857161662 
0 
0.01043162884543343 
0 
0.007951593638585989 
-0.001354863666333583 
-0.5483538196979835 
0.01290831984859476 
0 
0.04132574844361538 
0 
0.0468766536214756 
-0.005732704519197342 
-0.01917869848132574 
-0.004229223115456023 
0 
0.282135404220786 
0 
0.019357824447098 
-0.2655051685597031 
-9.75781955236954e-18 
0 
-0.1378041225832317 
0 
0 
0.01316832350999905 
0.0009565651070017662 
-0.0003947586480889384 
0 
0.07551393834655207 
-0.09072163571119449 
-0.0158789246027497 
0 
-0.03532842226775487 
0 
0.008357745204033675 
0 
-0.01125360500481329 
0 
0 
0 
0.04361712221142759 
-0.01871491650126347 
0 
0 
0.006294667729404957 
0.07085101783451307 
0 
0 
0 
0 
0.004137224956485159 
0.0221132343700084 
-0.02984983540273365 
-0.0002562676372786028 
0.04438170366732729 
0.6803094552236347 
0 
-0.005094802397852882 
0.00780206580308924 
-0.002835234721512996 
0.01876497872409164 
0.0262795786730972 
0.02517768485146716 
-0.002605285263950075 
0.004636638019375006 
0 
0.01894935130466708 
-0.06650541430177477 
0 
0.04165505264133005 
0.1920298961805381 
-0.006726593170292295 
0.2890863370649498 
0.02506968442277646 
0 
0.02817599168356713 
0.04603404906068073 
0 
0.05354339333189456 
-0.02323849228981416 
0.08147374196670558 
0 
0 
0 
0.02231457919366696 
0 
0.04624667427259119 
1.301042606982605e-18 
0.02947483381299726 
0.06193146626018512 
0.01952740899861541 
0.007897453073812802 
0.03319190253261946 
0.01979915961247196 
0 
0 
0.009098901895759378 
0 
0.3683133230520121 
-0.04408205855677121 
-0.0009904015622115715 
0 
0 
0 
0 
-8.673617379884035e-19 
0.1118544301657257 
0 
-0.2380959704355685 
0 
0 
0 
0.04001124646896904 
0.1171958441850244 
0.07364005728755055 
0.03511137102818777 
0 
0 
0 
0.1316639973709789 
0.05708185966906427 
0.0053589841350861 
0 
0.002784693927075513 
0.001119123690576879 
0 
-0.1389688559670844 
0 
-0.07461270709491483 
-0.0665412779688469 
0.02146143687764695 
0 
0 
-0.06865762697002627 
0.01138588152369207 
-0.04495716826190678 
-0.001506317392550196 
-0.03764380184880377 
0 
0 
0 
0.6403574126517233 
0.1237145709922863 
0.0002393872225544805 
0 
0.1802983906742132 
0 
-0.0665994853594369 
0 
-0.05222551334214984 
0.1137504676878699 
0.08820982484286027 
0.03731598088412521 
0.2029034919552378 
0 
-0.009853932514435634 
0.004798185519517298 
0.007308643762972263 
-0.009065135368706581 
0 
-0.008498855451126325 
0 
0 
-0.5559423580536006 
0.03165719595139815 
-0.08606186738547976 
0.1205665466905459 
0 
0.05784022439845234 
0.1057206751318034 
0 
-0.0593719277431619 
0.05434777232296243 
0.02723998759077794 
-0.0001075801286068814 
0 
0 
-0.1963781804278911 
-0.5941239125274268 
7.803366941476852e-05 
0 
0.1691673348457456 
0 
0.003199762292914953 
0.01765390912040964 
-0.0957329630058199 
0 
0 
0 
0.06856649087843369 
-0.009996672950584661 
-0.008145558171168172 
0.07595159535916413 
0.01027434260033291 
0 
0 
0.06633786871319017 
0 
0.2163110990224085 
0.09989167900445989 
0 
0 
0.6572901612729656 
0 
0.267268818432324 
-0.2123348977268502 
0.009518827599752581 
0 
-0.1830039901580247 
0 
0.003907872800417723 
-0.03747506927790143 
0 
0 
0.1065563309273938 
-0.006411782243966224 
-0.01213458054870078 
-0.04227906294317783 
0.01097640166487588 
0 
0.01606000965721543 
0 
-0.2021457251153377 
0 
0 
0.01904409187478593 
0.1430275554155386 
-0.0134651473964275 
0.02135852201415914 
-0.04616573924752938 
-0.00139925591077319 
0.01022645973006023 
-0.389262891950221 
0 
0 
0.0155076851287614 
0.01407283952022929 
0.02567394734271015 
-0.02690897153905137 
0 
0 
0 
-0.3012254777784658 
0 
0 
-0.01172237726854573 
0 
-0.01011540578208136 
0.006467193663425113 
0.2027119948261167 
0.05710566567233719 
0.01583698785588009 
-0.05370822139125073 
0.3059523885990652 
0 
0.01611154804649128 
0.008907001781479599 
0.2158276081238974 
