solver_type L2R_L2LOSS_SVC_DUAL
nr_class 2
label 0 1
nr_feature 5000
bias -1
w
0.4267106872236581 
0.1302865917091482 
0.5066467305610365 
0.5590332766987236 
-0.1127395768039847 
0.7297709372141089 
-0.02289668894170445 
0 
0.02649699605223956 
-0.4356556893325693 
-0.2803662047452591 
0.1765831995461202 
0.2671684658906376 
-0.06786696234879873 
0.1777634041217751 
-0.4521778046008043 
0.02966458959559769 
0.4645953851750835 
0 
0.8223840946938935 
0.3183516467422559 
0.246868678370731 
0.02141784448884937 
-0.1409288037111029 
0.0288549395622282 
-0.005020493098570098 
0.8368312858399325 
-0.312064920028269 
0.001489205959494095 
-0.01669242593805058 
0.1052259697864996 
0.05327787008190953 
0.3145264473403037 
-0.0007015556786113437 
0.08482923796987511 
0.1320824739054275 
0.07349038061263208 
0.1233571539269032 
-0.0138116677225946 
0.05194888508295228 
0 
0.4683699519811083 
0.1865753587561527 
0.2078299251876998 
0.2982011437252002 
0.08509492403831383 
0.3230626961442767 
-0.1909072065522365 
0.1314638185641617 
0.2874465318708833 
-0.2609048062968922 
0 
0.2954518403210906 
-0.005016398855118849 
0.03372841464951742 
0.01071212318584402 
0.04742797478318413 
0.5912619638933331 
0.2357569513652664 
-0.05471447212495629 
0 
-0.1041856694359475 
0.19802784183944 
0.103005034898123 
-0.329842117246577 
0.02876474108925939 
0.2788783227795174 
0.1908694220157839 
0.0660487841900451 
-0.1843246502514234 
0.7916148744136429 
0.5542912676930846 
0.7625867021269442 
-0.006411003010688717 
0.08945024533408294 
0.02564034391838282 
-0.1674181860811693 
-0.05763628086257936 
0.267792231625121 
0.07260183937411431 
-0.06412630312380377 
0.2443806928090592 
-0.02735760723186179 
0.3775684189810382 
-0.2761632077030712 
0.07065025428933924 
-0.3759388082215886 
0.01346876090571524 
-0.4155529900555193 
-0.23878398891641 
0.00837156839584525 
0.1223161363548276 
0.05371452909002395 
-1.342849044147554 
-0.03394686016688357 
-0.03420700215239375 
-0.02350179298806732 
-0.008078585177826079 
0.002725656077916075 
0.4274961731757136 
-0.008841452723797633 
-0.1248074613541207 
0.03499306526994329 
0 
-0.03016564602701215 
0.04141523998598703 
-0.02524282438819993 
0.008552906639160538 
0 
-0.09303206359534501 
-0.2463326427210266 
-0.33426510864574 
0.01091311132767598 
0.1745989198315399 
-0.3241081879438548 
-0.006040030063173703 
0.09418236022340776 
-0.1943902907560792 
0.4155800373865721 
0.4335008744453094 
0.07304997153667885 
0.06355541217665496 
0.1019880158613063 
0.02775180804175076 
0.1814612734905965 
-0.2208835586631435 
0.1033761895270705 
-0.02986963335018103 
0 
0.008547550872472267 
0.1167761810360298 
0.001687218185760224 
0.02616437965280799 
0.1019053882792388 
0.1234080181942261 
-0.4753850622140556 
0.003193549068596988 
0.2239394722252405 
-0.1004001771063293 
-0.1800540624565488 
-0.003406896796689216 
-0.02970278645731051 
-0.7054585875952107 
-0.05168953213895171 
-0.1220344209997243 
0.0505129860173673 
0.02592874455602638 
-0.01424698115812719 
-0.3188923289415931 
-0.4365306692826804 
0.1015139532978236 
0.1064363808387082 
-0.01331774605549583 
0.01173746945872812 
0.001969491219826761 
-0.5659448444169082 
0 
0.1113965823535666 
-0.09718447789060478 
0 
-0.06102693818349327 
0.1000129489810166 
0.1141621887750752 
-0.3974594456132126 
0.008503985530346439 
0.003340590884952257 
0.3267423482493231 
0 
0.04803099270212538 
0.1501671848863166 
0.3551786707016047 
0.1302370811998114 
-0.07399349359761215 
0.2327670202782769 
0.1509205923372934 
-1.020013176309862 
0.2472167704038184 
0.1691027653643396 
0.3433713507259841 
-0.0826323072028379 
-0.2073631671900467 
0.2520157540401998 
0.07705036066901139 
-0.005680763014885623 
0.02275339634956717 
-0.01514067848373552 
0.3687216410062609 
0.3619546212140109 
-0.1806908883401588 
0.1380610835084528 
0.1840627417501155 
0.07727764017602355 
0.1200119695922967 
0.1450177716462286 
-0.04091194676190326 
0.0344724020664072 
-0.1384411563613002 
0.1368335179190532 
0.2759619677665682 
0.2330763273143169 
-0.1737785412835814 
-0.01787413137906752 
0 
0.07385222943310596 
0 
-0.3592274038187477 
0.017602584017998 
-0.1933365322304674 
-0.2707929942555507 
0.1050927009564618 
-0.2187965787635252 
0.1733896880883073 
0.3046002059928085 
0.07664649869776928 
0.2099604555430632 
-0.007219167563447456 
0.1323192013909656 
-0.1185276999333204 
0.1648322412871325 
0.0003266165699330912 
-0.2585486654384398 
-0.1127506011563864 
0.1643443417089192 
0 
0 
-0.2702191379886953 
-0.03865473121759159 
-0.1050912292772086 
0.02353368009158259 
0.078035870329889 
-0.009527990251458271 
0.2022223652546492 
0.09274429917265758 
0.6038921815139988 
-0.2633281403195261 
-0.04918004959225075 
-0.0286008155377632 
0.1530776029159308 
-0.00685006910071981 
0.001334018740746199 
-0.009600762142304556 
0.02498377733823939 
0.1426309891063494 
0.7971131415578478 
0.1002217728306913 
0.1115746501045474 
0.02798557829638259 
-0.07360917912110274 
-0.2068088431993079 
-0.08246015362096247 
0.009935724769944894 
0.2674031760033327 
0.3878843826226822 
-0.09089197394686595 
-0.01745351583937339 
0.2800812496231831 
0.1064948954077488 
0.2921854366494725 
0.0170971043788153 
-0.03113500299590177 
0.05365897425816544 
-0.28836370006351 
0.4327368536600514 
0.1719475911735215 
0.01552273239398204 
-0.04973967136662227 
0.06160083997170066 
0.0100145934244422 
0.05914165896341441 
-0.1516827295038604 
-0.07334432328552859 
0.01686119365999278 
0.5502392683220512 
0 
0.3618529001589985 
-0.1017506045587739 
0.1031309500571107 
0.3395665963557978 
-0.01572481810534767 
-0.2042589245496628 
0.08384556677241843 
0 
0 
0.1965343017790607 
-0.2973000808051604 
0.2324297720208398 
0.08547962642377457 
0.1638112371591692 
-0.3967358972258135 
0.127451631274404 
-0.3328760799932961 
0.1544878061600147 
-0.01574912777580987 
0.3181758593512718 
0.06738757822547399 
-0.1989290879999395 
-0.007797816592508417 
0 
0.03766329035087415 
0.1122969064268636 
0 
-0.1453387256677045 
-0.2108063546878635 
0.5343168615081255 
0 
0.1131674579310374 
-0.2141083774566218 
0.03177183169356166 
-0.08526058398203887 
-0.1103605173975635 
0 
0.08136786292983189 
0.1819699598298856 
-0.4594915216653712 
0.005389625544260306 
0.7706672997584731 
-0.3384458799092289 
-1.162416904378213 
0.1890180287604142 
0.1183323716170032 
0.04728330320557486 
-0.2365717859438423 
0.1404210933831699 
0.1746868210800563 
0.006298251539827249 
0.1708921165465539 
0.0008770903393997611 
0.2086722971795364 
0.1225723993407569 
0.1870810626453169 
-0.5351839228457413 
-0.08320721394870208 
-0.3900277843430892 
0.2921508940581402 
0.09056149773387222 
-0.03484912246909815 
0.03790707460048408 
0.1583509112009272 
0.001979518778486319 
0.3155023725975444 
0.01661271927431369 
-0.03640086861789448 
0.1288564607092457 
0.0577686804451091 
0.1554064717087787 
-0.4348943744111644 
-0.6341364493283056 
0.1047659524617444 
-0.1464002606864268 
-0.1056836591023652 
0.06526477189622201 
-0.1046892097274744 
-0.004205451570380981 
0.006184299024786627 
0.1027259026801018 
0.06186975148122211 
-0.1092425254541457 
0.591696883932308 
0.008617473483254879 
-0.02477467600766031 
0 
-1.039769839563886 
0.1639376968829439 
0.6457369175104738 
0.3148474846778017 
0.37707278602664 
0.04174258612529024 
-0.07756787342051609 
0.5053811640900321 
0 
0.382429434439966 
0.0155403137837091 
0.09249624260745641 
0 
-1.901970087266658 
-0.1588939309187724 
0.4375422609190891 
0.04832184078826384 
0.429013427259913 
-0.03765032446230986 
-0.5301526705412266 
0.008944008162530515 
-0.003668549162804028 
0 
-0.2147190919006216 
0.03438569775028821 
0.09931913219241026 
0.3638911056385201 
-0.1111915496451295 
-0.7627666482972312 
-0.1459065543909534 
0 
-0.01601132545785933 
0.09583944664653087 
0.1596783290908099 
0.1504926663104113 
0.1816151747476313 
-0.01193328479476601 
0.000841314125735723 
0.08885804033663813 
0.154848220552673 
0.009706256135618941 
-0.03392151253424329 
-0.2517672224195115 
0.4566064746628196 
0.2956328996745334 
-0.1398772104345241 
-0.1099890648266757 
-0.09434830939494852 
0.01863372458442707 
0.08137194008470455 
-0.3223442603211679 
0.4570261981914154 
0.6259155992699337 
-0.5499643237174016 
0.1163938378472612 
-0.03197403061863291 
0.3985382836049822 
0.07575981222448719 
-0.003251855201131844 
0.2877898731557577 
-0.01787406771568593 
0.02426026101440223 
0 
0.09748886698187538 
-0.2542911433055133 
0 
-0.03163739491834511 
0.6699262398276942 
0.17472332445236 
0.1288325972411412 
-0.3356592323957693 
-0.03553185338816818 
0.1998351804852454 
0.1676991831373775 
0.48599952885849 
0.701187322847711 
-0.01737363380843397 
0.2754719198180305 
0.002385210212225143 
-0.3722195732956423 
0.02946700456909439 
-0.7673408071056869 
0.1611600035526366 
0.2656318586238026 
0.2155686913230462 
0.001590644335658373 
-0.04711661319705629 
0.112016816450761 
0 
0.06548918782189765 
0 
0 
0.2668087094507338 
0.2064757957243936 
0.108589672084493 
0.1681985798311406 
0.5626957578625494 
-0.09054179520346449 
-0.02144892011878262 
0.1050152068201465 
-0.1650842233631598 
-0.02422653439306264 
0.4933165462368351 
-0.01453430339147537 
-0.05473767202637175 
0.02056729225805893 
-0.06126249960391643 
0.1946854781551017 
-0.3012256359425287 
-0.01934533445701673 
-4.336808689942018e-19 
0.1438195424932429 
-0.07949695768562211 
-0.007200799019418621 
0.04307702445947743 
0.2523808050472953 
0.2062043581696436 
0.1329328645173928 
0.04603663533255133 
-0.04365750674149262 
0.869539191453457 
0.1518198152273347 
-0.04648687094517658 
-0.03477924560871221 
0.1367388552178623 
0.07836663501080751 
-0.05810738074009521 
-0.1150870619963607 
0.1268142178415614 
0.2389787396269593 
-0.42952117066415 
0.3481547982339731 
0.05687327994555035 
-0.06747652247283308 
0.04130929553512613 
0.1353480096957857 
-0.2731365469858695 
-0.002496994239370866 
0.4569720999093563 
-0.01465085656084082 
0.8247539369996153 
0.4629162230494299 
0.06280128025493797 
0.06991949932684506 
0.006838452713886983 
0.1902825449881617 
0.04888923531085874 
-0.0406542352902467 
0.01902402017190765 
0.2091056608960755 
0.02581433210352113 
-4.607859233063394e-19 
0.01757579520368699 
0.1665477561214581 
0.1008578505963548 
-0.1386659803106582 
0.1391251003918497 
-0.0768604949007958 
0.4497702088668361 
0.09131705939937139 
0.006415420471950923 
-0.1659463385522049 
0.08738029467454357 
0.07706266895094949 
0 
-0.001335880480577292 
-0.06252281683377252 
-0.1913016706550235 
0.1732288820684744 
0 
0.3203085208616559 
0.2376775612956391 
-0.2792268154870539 
0.007578489350528643 
0.1002310145586257 
0.03268266610332091 
0.1614536419673139 
0.05834192213516966 
0.03886810836019174 
-0.00156714556986618 
0.2030596499873598 
-0.0562329657482098 
0.06081213654128066 
0.06079225802569869 
0.00607641824042642 
0.01299274052109056 
0.03247554393573928 
-0.4785681073870753 
0.01666561881870697 
0.6879423539457282 
0.03212175486487825 
0.0597275084741734 
0.0005362803780693775 
-0.1097812455542739 
0.002677489712224311 
0.1566780580381531 
-0.02632932906989287 
0 
0.2763516974317647 
-0.04332898778766736 
-0.135966660680601 
0.4714444590011059 
0.2507943323441347 
0.03363820522237598 
0 
-0.1293649087936616 
0.1082346122022446 
0.006921069524286041 
-0.04563932019596421 
0 
0 
-0.06250449272619674 
-0.06407864080295088 
0 
0 
0.1491759338880035 
0.510104929339677 
-0.05870181488625895 
0 
0.1091513528835116 
0.1029303540718773 
0.08588656474878403 
0.02167954758890333 
0 
0.4068755695505808 
0.02679640622346504 
-0.1182592972031159 
-0.002844816694799144 
0.05874504614772439 
-0.1514192845402591 
0.009828305417160451 
0 
-0.04929610488184895 
0.002742247039156774 
0.188247374277676 
-0.05608473035460691 
0.03518302608161891 
-0.001462356801795512 
-0.1747590230921529 
-0.1188109686714745 
-0.07842877313724567 
-0.2275856860063201 
0 
0.2489627358647231 
0.003713919408108435 
-0.04260987603696194 
-0.04586397144704298 
0.1510846013157455 
-0.005555871551605594 
0 
0.05343544673739953 
0.009837688232366594 
0.04936510061646174 
0.03157334755785356 
0.06867911321147521 
-0.2487078017912 
-0.006797632591334784 
0.02765549794322865 
-0.4273823409364987 
-0.122524260217948 
0 
0.06195368980463089 
0.003791762895529897 
0.006132597001143484 
0.5852801053434066 
0.0752706090985477 
0.08081444229470074 
0.7732001527476391 
0.2015169820044023 
0.02039587751323033 
0.1462790943830603 
-0.00335817153895464 
0 
-0.02555740147680546 
0.1496109668397779 
0.07598028303378834 
0.03024282425776049 
0.1166511157073105 
0.8081726259393499 
-0.06714770261668675 
0.339832968910897 
0 
0.04524742559531453 
0 
0.248097765138173 
0.04004812669021966 
0.07028385466518292 
0 
0.01350614504004874 
0.05738280335818332 
-0.005589826986874969 
0 
0.003516173906571184 
0 
-0.05869371351835403 
-0.007520175125064406 
0.1386403870292104 
0 
-0.2437072904770531 
0.09325872471557554 
-0.009107515452544871 
0.0295581403617033 
-0.08925973127157862 
-0.006968353203431961 
0 
0.03223485570290645 
0 
0.2419337582846262 
-0.01878050245745852 
0 
-0.04376538198308838 
0.04364174764448409 
0.1760408379004503 
0.3417223405624057 
-0.06060899625812279 
-0.008177235812565652 
-0.05682234960234342 
0.04052898424228545 
0.1261291982072537 
0.1984599600190757 
-0.02967684825611545 
-0.1946699050537523 
-0.03825024450446289 
-0.06028495377600829 
1.197598689165174 
0.01826704747407204 
0 
-0.2051396264492737 
0.1252710464760899 
0.03565611640248171 
0.3052944297956559 
0 
0.0147542442768141 
0 
0 
-0.1664241469146266 
0.2853304093503323 
-0.01840881120970902 
0.2458016324023365 
0.1390494758112196 
0.3512142140662073 
-0.783404504554596 
0 
0.3160391811341042 
0.06658050578474374 
0 
0.4925407842628107 
0 
0.0007736245402946829 
-0.02367651775137226 
0.13012938215492 
-0.2982673466323558 
-0.005465918239820683 
0.3621644612874155 
0.094565214041333 
0.002375844271958063 
-0.07866997644550969 
0.1349173084838819 
-0.5440202085746647 
0.13060042369401 
-0.003905703316570942 
0.05241819876133248 
-0.01062879897212606 
-0.04117004440107296 
-0.002923888154591511 
-0.00765643464590594 
0.4041454358933529 
0.3224552969492593 
0.02487117415093478 
-0.2757464727582526 
-0.1073519916927149 
0.04042555389814223 
0.003635189016727349 
-0.02722924605972659 
-0.1534682187218583 
-0.4676874055963894 
0.3377296440762717 
0.2424254475729739 
-0.03547668626978884 
0.06912852289181043 
0.04598791663777774 
0 
0.2113047491411182 
0.001498562534719318 
-0.0541813236990448 
0 
0.08078606813624686 
0.1724179370063985 
0.01010213251947506 
0 
0.03330248189441475 
0.006057012845317589 
-0.14118488845542 
0.2887987241689863 
-0.2945390428357402 
-0.04753108826352465 
0.03828605320779756 
-0.1386416225106472 
0.08054598643120828 
0.09998411541133954 
0.3025453645610209 
0.2838535900592343 
0.1246196323124235 
-0.03509235864120492 
0.06370058208898732 
0.1005410355868227 
0 
0.08055126786689865 
-0.02361624726667254 
0 
-0.01494168695169962 
0.03481102170442526 
0.01317283239429742 
-0.00103691697979654 
-0.02829225920553666 
-0.05462889554409994 
0 
0.02304340873155282 
0.1904652167906036 
-0.3590621423176303 
0.1079386336573511 
0.004215844019558847 
-0.1105979748197943 
0.1363553775692957 
0.3527502632321571 
0.2442948962583938 
0 
0 
0.3039746782907931 
0 
-0.0004164630464957396 
0.5466767171445307 
0.027159152168676 
0.4077596026509135 
0.3374594166922817 
0 
-0.008679266123371334 
0.004311109972799525 
0.2352839174821088 
0.4161939165479432 
0.9676709333502569 
0 
0.06609049951043508 
-0.01882223680896284 
0.009323569920471692 
0.2133480157107336 
0.4480350562102831 
0.04801170279100479 
0.00784631863121482 
0 
-0.04990407346849412 
0.3902782484370531 
0 
0 
0 
0.334468833214371 
-0.04606071024178062 
0.0262774955351648 
-0.00607084493996126 
0.02369530475581146 
0.03232580532672446 
0.01642840757759258 
0 
-0.05869377188780695 
-0.09152908366574841 
0 
0.00480466433476835 
0.1013653395827584 
0 
0 
-0.07512036913499275 
-0.007692203155091113 
0.002922425500856251 
0.1753397638647813 
-0.01324474917847219 
-2.602085213965211e-18 
0.1014012645222828 
2.173696926527959 
0.01871397006519184 
0.21433802674597 
0.05220910890298832 
0 
0 
0.001712215071388069 
0.0615621545533826 
-0.2007187688933134 
0.01194283371997659 
0 
0.02269675809804533 
0.03281147428882938 
0.03335966912735214 
-0.00821875897536082 
0.1937077185369179 
-0.00134371994678176 
0.1357687065721011 
0.1681363999734451 
0.08088124192852453 
0 
0.04787460998793407 
-0.001521817593815846 
-0.1993820226728714 
0.1380846440577415 
0.01352753389688934 
0.05696055409393121 
0.01151918124050037 
0.0515290469200745 
-0.005871529831046481 
-0.1454834692565103 
-0.009491676920905108 
0 
0.02034896057076024 
-0.005732633010789815 
0.1505383680434817 
-0.09720535416211706 
0.09349814228109254 
0.5195310727396154 
0 
0.4907820269365352 
0.3052141855233012 
0.01076788451176473 
0.03394884696946355 
0.2919122471917209 
0 
0.3803294679656437 
-0.1411842040671398 
0.3364818441755799 
0.03407310714951023 
-0.1786788325998618 
-0.006649211502023136 
0.03719501093192544 
-0.009178242436160267 
0.004050533751910479 
0.09069051801127805 
0.1248825902358187 
0.03104695943876941 
0.1449982296476397 
0.04305567920237145 
-0.3679247405318316 
0 
0.07307994391565367 
0.2784453139479374 
0.4136102998432222 
0.06618178812542289 
0.09013174472026811 
0.2743261301394223 
-0.04206395906011764 
0.1504984575436939 
0.04614834383726875 
0.01897484747338153 
0.0008497123192656308 
-0.01930568463674569 
-0.1716069375294611 
0 
0 
-0.03126177648761826 
0.03767890512609703 
0 
0.02001693319644361 
0.09909480063016513 
0.01061344302638077 
0 
0.04047995165027421 
0 
0 
-0.103953903715826 
-0.0152108125878666 
0.003242074144390395 
-0.01208318000357133 
0 
0.1756770335102246 
0.02284139544190272 
-0.01164196974208428 
-0.004283038404936923 
0 
-2.600891792330666e-05 
0.04877037250546935 
0.1020673900383062 
0.02051549639028914 
0 
0.1359447933741773 
0.01538777517503478 
0.01222017470326315 
-0.009256408220271897 
0.03028039606707215 
0 
0.01077956200744534 
-0.10406511306 
-0.00778404448771529 
0.02946528173534313 
0.338223462883797 
0.01549323861929802 
0 
0.06312531880745258 
0.3332311139382236 
-0.1749577565421536 
0 
0.3934726672455298 
0 
0.02113906059952887 
0.003644869484807016 
0.01738177076221275 
0.06330389548175823 
0.01366395919934999 
0 
0 
0 
0.04464928169297353 
0.429325909290909 
-0.008707387770890989 
0 
0.1883982021699497 
0.02451391342329523 
-4.336808689942018e-19 
0.3101067995460535 
0.05019669054746433 
0.02378476707776725 
0 
0.3151659569611007 
-0.0007699329905442594 
-0.07531139453559454 
-0.08413253339603173 
0.0007474318755716548 
0.1071056019901736 
-0.03605009611797706 
-0.2359718921490979 
0.02504538058026573 
0.02890903607250614 
-0.03392662925983905 
0.3497262626248523 
-0.1278931843971915 
0.01586611264760384 
0.2932670877286891 
-0.008108207406068595 
0 
0.1299154727577433 
-0.07073838201697658 
0.0313078004337699 
0.130505301813437 
0.01309179656989385 
0 
0.1423901602967497 
0.0007509724863134019 
-0.008916245666856818 
0.1234381029166455 
-0.06034889289614757 
-0.07098713579406933 
0.1565917793575669 
-0.003240273224873541 
0.08900146991251878 
0.09549168681386014 
0.06069289729116677 
0.04967507768135297 
0.1169238271706892 
0.1732815443531435 
0.006652149685375368 
-0.02646603368952574 
-0.06955289465487102 
0 
0.1486655463145526 
-0.05964279785277964 
0.08348217794231892 
-0.03122674470334537 
-0.2562860925094481 
-5.421010862427522e-20 
0.07507204400169057 
0.03363402505772099 
-0.05360524335845704 
0 
0 
-0.04854274408164951 
0.0008404032864076842 
0 
0.03641773940079243 
-0.01345785200446116 
-0.05436266732256173 
-0.2258944120648514 
0.3584193233544375 
0.001433076636422213 
-0.04736160300406898 
0.07372437447038239 
0.01396397373488595 
0 
-0.006879219033960618 
0.1836708771767834 
0 
0.01021368649735041 
0 
0.5609254184766524 
0 
-0.004175940333810513 
0.04035598970963657 
-0.03176781397434423 
-0.3891804905871437 
0.09959420211396852 
-0.2798420541848053 
0.05995176294927544 
-0.4066276774333485 
0 
0.04463863740324444 
-0.03538870130770852 
0.3713094295697378 
0.2586737208797671 
0 
0.007343414398477565 
-0.03415178276158811 
0.3813941443042254 
-1.57299497290383 
-0.1191298708216762 
0.179778250319485 
0.02814428694271994 
-0.02460353324169883 
0.06776913293755009 
0.5084802698869184 
0.2076251738728994 
0.02802741014040356 
-0.04750493609093923 
0.1064994586236251 
-0.1257208106323311 
-0.0259488809081245 
0.01662098407873005 
0.3803888853651345 
0.06363988983440437 
0.0921184285945205 
0 
0 
0 
0.4310432388042928 
-0.9070607262648668 
0.01770535530218539 
0.06535692314596933 
0 
0.4259972877493562 
-0.3309540347020712 
0.1232262271439084 
0.1834838852196979 
0.07921602761489119 
0.4159251229498608 
0 
0.008207939449212229 
0 
-0.03085787882562539 
0.4518377503190575 
-0.001139566213382069 
0 
0.1005545732097364 
0.01295480868158254 
0.1842342890561442 
-0.008867842583498162 
0.01642521008857476 
0.3447698553919322 
0.0195504217304749 
0.2121031185108381 
0.1318458642678801 
0.1855577166521473 
0.04028323495346912 
0.003754290181457151 
0 
0.01029429505191583 
0 
-0.02176089861168116 
-0.08648544388696243 
-0.1302564785457126 
0.0818172476706913 
0 
0.0436167898979389 
0.02136013217029463 
0.003103403591173393 
-0.01847948132439374 
0 
0.003102537027976492 
0.007223242597217441 
-0.1296762600639333 
0.01430394734153769 
0 
0 
0 
0.03552867168787491 
0.07167561437303049 
0.01591010145755694 
-0.4123441730252007 
0.04837042247736795 
0.06485433769305853 
-0.3548901580228244 
-0.1000153774808294 
0 
0.07560512080674205 
0.0007089122619626806 
-0.4638221054493917 
0 
-0.01351487026182962 
0 
0.1759520174629522 
0.2728094112991823 
0.09602575972970703 
-0.01799203260687296 
-0.252261006997068 
0.4839610008474772 
0.03042148958765281 
0 
0.02253169671689981 
0.004681676462096906 
0.0645971897905875 
0.1736198645407033 
0.01013054658794029 
-0.009066010401647185 
0.007008611865862185 
-0.04306190285527047 
0 
-0.03194073872766567 
-0.2413367318026166 
0.1133238046749162 
0 
0.364944119653235 
0.001233003510961037 
0.03327039046430843 
0 
0.06065879956414771 
0.1207438939712286 
0.05806305033675091 
0.04658937641977753 
0.032005051032334 
-0.1038029942985094 
0.2341723569450079 
-0.157828083927419 
0.2750609677278386 
0.0608765978337252 
0.2024677054516412 
-0.005984502742865526 
-0.1630252341915213 
0 
0.1962904853192195 
0.2500553028599257 
0.28174939944547 
-1.222806813893424 
0 
-0.1276327037913984 
0.1543404916343549 
-0.002471919700705371 
0.01969775891508376 
-0.6412000484611082 
-0.02093647662156874 
0.05936563425628602 
-0.008634126891348414 
-0.2234422698266666 
-0.2285960932992736 
0 
0.0186034094640109 
0 
0.1122140133174223 
0.010005039127037 
0.3686809459025218 
0.007578720606624091 
0.0239962914308881 
-0.3885022022215494 
0.155700922438786 
0 
-0.001619152915601886 
0.5626011667272041 
-0.192237245524939 
0.03094246424109678 
0 
-0.03266227344338983 
0 
-0.05142575020197092 
-0.06699592887120198 
0.02523272192973151 
0.1757354444872067 
0.01824913685161914 
0.069216087326899 
0.286696331023276 
0.112150151011035 
-0.0489826670101453 
0 
0.1648770494607282 
0.1705401523336817 
-0.2347211979282418 
0.3964464767716508 
0.1378184898322598 
0.05763512551462475 
0.04183040671503211 
0.000102090319917436 
0.05243023747416348 
0.2867533694315936 
-0.2528447019208208 
-4.336808689942018e-19 
0 
0.153613913420183 
0.002518960679429585 
0 
0.01239830644225909 
-0.02457680651924617 
0.05057912322201237 
0 
-0.1214463914719305 
0 
-0.007335146767884716 
0 
-0.021671442138692 
0.05561444611905744 
0.1034079155571594 
-0.01824648259342374 
0.03297960892544488 
-0.03405480682039265 
0 
-0.01880769247231719 
0 
-0.02059207598156694 
-0.00523854635620242 
0.1408541829048389 
-0.03445320846452702 
-0.04020741699463673 
0.02954774225748107 
0.01323678039859887 
-0.1703501270092055 
0.1299272673778888 
-0.4662245510741789 
0.001495545555528215 
-0.02689989794670579 
0.06968583869182328 
0.04842329260418141 
-0.1269033532347684 
0.007404800044599608 
0.03278579075437487 
0.02686239783610492 
0.357243151905641 
-0.05331836703247814 
-0.01545251901692269 
0.1785937554877105 
0 
-0.002655167458841622 
-0.03320124795838222 
-0.1632271254235805 
0.000494936529828826 
0.01216280359452619 
-0.09678700500881048 
0.1135336012779171 
0.01668682894652747 
0.1492558086993518 
0.02589825359508717 
-1.09800317760414 
-0.06656776517816952 
0.09007486944857435 
0 
0.1723469921002911 
0.03059421866152696 
-0.09982321537973803 
0.067790045989763 
-0.0005305419421726595 
0.04933331130321564 
0.00384661067827911 
-5.421010862427522e-20 
0.03277566558847025 
0 
0.01626713751247318 
0 
0 
0.07620287760670666 
0.2867660650022911 
-0.1253174682306647 
-0.09019472356811459 
0.001335722934436826 
-0.7897506808843037 
0.0008213123162042437 
0.08028030418033484 
0 
0 
0.1597945631476905 
0.1880664322010588 
0.1633248858071904 
-0.0590163200700876 
0.1493450478906029 
0 
0 
-0.04258677057162708 
0.08330181095741329 
0 
0 
0.4961741529577496 
-0.2066894304278465 
-0.4327750080562371 
0 
0.001202136599371999 
0 
0.04594669022502468 
0.06195710058494559 
0.04472375826157721 
0 
0.03439642612816999 
0 
0.08515921156728319 
0.08728872903737328 
-0.1632332997181671 
0.001245947499644482 
0.02808726715499724 
-0.02591102099743122 
0.3506805252100557 
-0.01100073107886394 
0.1629950784537222 
0.004349220823583812 
0.3391918031217083 
0.1725858163921997 
0.8648830879888936 
-0.0564922202776495 
0 
-0.07603019351736023 
0.003210896736392277 
-0.01125409442455129 
-0.002695580480465854 
-0.03662079171072642 
0.6735185815668049 
0 
-0.01031244909527388 
0.01406767874903052 
-0.03165438178354583 
0 
0 
0.02323572697975058 
0.1219314117443401 
0.00149762119151608 
-0.1682674700927222 
0 
0.05571242174347983 
-0.257396651178512 
0.008050835080493186 
0 
0.07013721716578414 
-0.02999982105503605 
-0.1728557447603171 
-0.0502063329561588 
0.1239738461673986 
0.03687494755193915 
0.005262332313950292 
-0.1002652469493818 
0.0004590761366851751 
-0.006559712116437622 
0 
-0.0343778153628848 
0.0008752989387664162 
-0.1109996629458428 
0.0008811514942069255 
0.08629755925985653 
0.1173008841894213 
0.003346884513424859 
0.02581985659641814 
0.373486178539491 
0 
-0.2872365341560552 
-0.1277422924919402 
0.1617939563576829 
0.03043786740453631 
-0.0391082512581216 
-0.05449327913066583 
0.02751094530295183 
-0.08840947566897697 
0.1151341384954373 
0.05965303761959013 
-0.2538028324084265 
-0.2874766866733347 
0 
0 
0 
-0.01283204092738805 
0.03709012528172453 
0.04710540884014263 
0.03655087397909632 
0.3383702670970777 
0.00228262920281075 
0.008559286035198461 
0.50586691782055 
0.07171357311844817 
-0.06985798742663309 
0.07466385009884721 
-0.06365533993275505 
0 
0 
0.008725604784334796 
-0.06673364291239457 
0.06016762024795397 
-0.07234712727045602 
0.01078212917647752 
0 
0.1040923952160205 
0 
0.2270215050941861 
-0.4096521942166305 
-0.1203542232856288 
0.04413357915041911 
0.03905904077419801 
-0.267136766630753 
0 
0.02046713589060822 
0.3264829016891167 
0 
0 
-0.115665613946464 
0.04063501258808338 
0 
0.02644070144297339 
0.2405663400200206 
0.07714043101338919 
0 
-0.002661525079100317 
-0.007111259943685847 
0.3373554969037104 
-0.09389404517251125 
-0.02052093818964309 
-0.04645706320897657 
0 
0.08176662063463905 
0.02441859504436502 
-0.3850188099484541 
0 
0 
0 
0.2115275958790699 
0 
0 
0.3410572457896318 
0 
0.02150392186216327 
0.0855899128521147 
-0.01301709263728694 
0.001416178001598647 
-0.008957271960985657 
0.1063791443969138 
0.002268560643437642 
-0.003740398342780311 
-0.0120188121985071 
-0.01855980071915539 
0.07252728402773093 
-0.323892189694961 
0.08924135269810123 
-0.0008020214603787102 
0 
-0.005371669397150516 
0.3524161635551545 
0 
1.084202172485504e-18 
0 
0.02929033959873645 
0.07168159467599002 
-1.005560894834282 
0.02861436469655772 
0.06209534697618524 
0.0701543125530778 
0 
0.3354435816267434 
-0.01717098185095351 
0.2770622548994827 
0 
0.02746838678167767 
0.428230024370276 
0.11250459449787 
0.3744928410750806 
0 
0.00217972690335092 
0 
0 
0.005125096313534979 
0.1452054459785979 
0.1868896912264604 
0.09189544695808785 
0 
0.2169414482757047 
0.1116658032970423 
-0.8734382572369778 
-0.07834128353923812 
-0.001938416277029669 
0.08065493954741682 
0 
-0.04534294126282006 
-0.02085115493615772 
0.797740780793218 
0.1230736450387341 
0.06123052998954689 
0.04073732199388005 
0 
-0.04408478913843473 
-0.6453015039585217 
0.2935755446369587 
-0.1110549901066343 
0 
0.2069005846910258 
0.09725887263623313 
0.4834253488045072 
-0.454268867387944 
-0.1159016605342363 
0 
0.006869694471160689 
-0.3609271045187173 
-0.1136173914882518 
0.1443009229774281 
0 
0.08577127423415912 
0.6181951472112596 
-0.04049109365934622 
0.1708644522831257 
0.09362823332719203 
0.001087734634008636 
3.794707603699266e-19 
-0.2915238284857437 
0.817041996419445 
0 
-0.007773395215249122 
8.673617379884035e-19 
0.04075019720066735 
0.2029585008269855 
0 
0.01153340517862994 
0.00141158186052223 
0 
0 
-0.08510107103868587 
0.1854889524821146 
0 
2.168404344971009e-19 
0 
0.1504811118670045 
0.122496902364805 
0 
0.009054646402985792 
-0.01965358983026299 
0.03375276559017122 
0.141370056709203 
0.02071093027147399 
0 
0.1646857558810836 
0.07168269021239965 
-0.04413369718934439 
0 
-0.02185599428507878 
0.09158649165748886 
0.5452964304853004 
0.001421733462939746 
0.3029615102047951 
0.07935659339940251 
0.3862171651328384 
0.005710874410773229 
0.12336706534263 
0.01776432301410245 
-0.07515895290394624 
0.007421103624907394 
0.08236632415256456 
0 
0.0009752762893040654 
0.09792263104928677 
0.04500671445146864 
0.05029753091258202 
0.1446572053803016 
0.01542165695889613 
0.07474271849517625 
0 
0.001209961649674907 
0 
0.1877344348716515 
-0.1647539518195197 
0.7531790487864531 
0.2269890689148724 
0 
-0.02651504765125513 
-0.1225370724447651 
0.4588050825755575 
0.007742605550101142 
0 
-0.01020433619336552 
-0.05703284652250913 
0.001066660876742022 
0 
0.09617650970458144 
0.01981265477448128 
-0.02245749337790452 
0 
0 
0.1081346478057269 
0 
0 
0.09386598106808706 
-1.258808515428299 
0.020349414258615 
0.06452015992701075 
0 
0.05137127623458904 
0.0009139890965441165 
0.07321296615508993 
0.007335384899768578 
0.08760022624814005 
0.08620913857122652 
0.3979608994451406 
0.06508430159429421 
0.009978030015985387 
0.1699145356687897 
-0.0007151176562375479 
-0.4002130713648558 
-0.1426265660850232 
0.02351449616741184 
0.01377879490405722 
0.002797824794198412 
0.01829917298148239 
0 
0.04755808126019999 
0.008275120233558975 
0.0006571034323538638 
0 
0 
0.05284029774409358 
0.2909758386558019 
0.398930235162228 
0 
0 
0.007829191851065676 
0.05667541667240557 
0 
-0.001226097883995778 
0.1121121948871546 
-0.01005917949621488 
0.2571403067369585 
0.04318671734410882 
0.004539311226843351 
-0.5304961271545228 
0.2695112257976326 
0.05150905221111286 
0.1711023900169097 
0.5787262977714931 
0 
0.09938118929593846 
-0.2896153553842534 
-0.08658867109555425 
0 
0.005551924016514246 
-0.2852146884859668 
-0.0433246426618879 
0 
0.006777733961931372 
0.06113492401890755 
0 
-0.1076406689817707 
0.008838288477017103 
-0.05074022796538002 
0.04813033317336144 
0 
0 
0 
0 
0.005322248082894116 
0.01164833518993333 
-0.1144297822497474 
0 
0 
0 
0 
0.004015817887984229 
0.06960594756040285 
-0.05820678110952614 
-0.03588064787438015 
0.06618114753336127 
6.505213034913027e-19 
0.1518949589232399 
-0.04132210127699713 
0 
0.05465759702077549 
0.007563635879465378 
0 
0 
-0.3694201533941746 
0.02324822604888646 
-0.02288422912762363 
0 
0 
0.08537565414899558 
0.06868396864632441 
0.0396492023461042 
0.006823505548438761 
0 
0.06905108687345032 
0.0006466487695720393 
0 
0 
0.06531219089977856 
0.07536982686167541 
0.04254711739128585 
0 
-0.03001264453012585 
-0.1494182386882506 
-0.02606473191886669 
-0.05464733085461555 
-0.02583979971643415 
0 
0 
-0.1210890154708802 
0.05045713877889849 
0.006150163223831359 
0.03551987976922354 
0.0398864719112558 
-0.09144507252075827 
0.02832072826035687 
-0.005830315516335324 
0.06478305459211708 
0.08598851731276412 
-0.249113867724452 
-0.1110340375652571 
-0.2770581274346787 
-0.1662386198672667 
0.5117891738362322 
0.5219100415416092 
0 
-0.5846516440605591 
0 
-0.2305104115180263 
0.01428199748588774 
0 
0.4556960947209636 
0.06465337141987865 
-0.4751887033668717 
0.01694005187135485 
-0.03230919583944487 
0.2703968048778119 
0 
0.08158678416921027 
0.178360301411889 
-0.09240270779897315 
0 
-0.2360915629885361 
0.1440369721654003 
-0.01133272174499524 
0.08839935969963672 
-0.03306134333139819 
0.0246023311410498 
0.1369937006862237 
0.236472553027219 
0 
0.002528519335157134 
-0.217022059539294 
0.4558562219449867 
0 
0.02672074865945591 
0.08986287091749423 
-0.3957600744182946 
-0.02216637559457812 
0.2033520397739341 
0 
0 
0.01661947097436519 
0.1637894162468542 
0 
-0.03991414138949263 
0.04217747734414101 
0 
0 
0.1514168769133225 
0.08634050146762851 
-0.0272017122031274 
-0.1328145570298783 
0 
0 
0.1258216267509525 
0.0873101650341742 
0.09816240852326238 
0 
-0.03341378033510416 
-0.06155131867986638 
0.2757861172275154 
0.1573746230559258 
0.03212063951156648 
0 
0.04436191716661435 
0.01188321848620599 
0.06409581204194374 
-0.09903457294592119 
-0.03421977207862874 
0.0004043433730739803 
-0.07146560663882702 
0 
0.03870065997957494 
0.002815981839026295 
0 
0.003306508292034583 
0 
-3.900451536218962e-05 
0.02707284776500516 
-0.003649662457679623 
0.03964079492751924 
0.03122237025568265 
0.4586215567964854 
0.2108329532167273 
0.5402535925610987 
0.0005451568477218271 
0.4184712756103769 
0 
0 
0 
-0.007961887565610989 
0.008518369262820373 
-0.01887362606525451 
0.2212406337048979 
0.007506412814779994 
-0.06012575896383979 
0.2928981559740688 
0.0007131613073641954 
0.06818274905480633 
0.08042815138142205 
-0.0182747449924073 
0.3186746428966897 
-0.08187347397600106 
0.03979767379534086 
0 
0.03894479664743682 
0 
0.001441036297097321 
0.09139295018290261 
-0.01515405975475278 
0 
0.1187199126222531 
0.0040663294075374 
0.09919502618590902 
0.2342562377142569 
0.5898406013078301 
0.04176875774815859 
0.01419818977485445 
0 
0 
0.05056949293973245 
-0.0005013043447326724 
-0.1853560668383059 
0 
0.01343036437478706 
0.3654242891685816 
0.6836992387236958 
0 
0.1707581531487088 
0 
0.1456663184845619 
0.08964992549759992 
0.1439525578253492 
0.003211147190836392 
0 
0 
0 
0 
0 
0.06174045117104554 
-0.04645996950951667 
0.02074464375770412 
0 
0.04523433267634301 
0 
0.05026411757609255 
-0.01805218664430318 
0.08621237174465476 
0.008157582085866144 
0.004424733415523561 
0.09891409835440036 
0 
0.4094154430691077 
-0.07592681443724479 
0.02737475369991457 
-0.1227991255151514 
0 
0.01791627656382298 
0 
0 
0 
0.3419461388427011 
0 
0 
0 
0 
0 
0.02286309673914584 
0.004553734245828369 
-0.0103683627663747 
0 
0.08219589449496108 
0.06281835912932221 
0.2298283750827152 
-0.2124307463457295 
-0.005286288840556298 
-0.01249728747170659 
-0.03471469407179022 
0.0430872874188783 
-0.5065017765227215 
0.005999435861006096 
0.04877228725373007 
0.05883926951590144 
-0.03070680103829323 
0 
0 
-0.2483949093313884 
-0.2853886043751747 
0 
0.09399268316679188 
0.004852909104698933 
0.04576589594445743 
0.1753192356551279 
0 
0.1073566967037458 
0.1757591867309771 
-0.183112396338071 
0.007089335482704873 
-0.207378164563578 
-0.03474099910129265 
-0.005434293952070571 
0.03739924686157352 
-0.6893276752565024 
0.2887078099503332 
0.01593797745977387 
-0.05284981792479992 
-0.001149925714163461 
0 
-0.05816278119839169 
0.06591745301479938 
0.02220941861430768 
-0.3701494082796888 
-0.0001080713496454449 
-0.3775814726907753 
0 
-0.03636142256974408 
0.06350213042662223 
0 
-0.003853102559970342 
-0.1057818848001769 
-0.3564535059554825 
-0.06491672809010375 
0 
0 
0.007172570450650519 
0.01013194987379559 
0.06944868217860641 
-0.1061534916473147 
0.0622732186973973 
0 
0.3743507443681877 
0 
0 
0 
0 
0.6082674098482382 
0.06583989405898763 
0.0613146957121448 
-0.1671805409117423 
-0.04173369106075046 
0 
-0.009933217689413921 
0.1177184545656036 
2.710505431213761e-19 
0 
-0.03689954044626317 
0.006303209305559891 
0.317175131919158 
0.585412915786615 
-0.006895118391459247 
0 
-0.4248000185979878 
-8.673617379884035e-19 
0.5165139672357999 
0.001276140208045189 
0 
0 
-0.03473033669437871 
0 
0.1240179487033059 
0.003309074833985753 
0 
0 
0 
-0.319240029614387 
0.01773647793529341 
0.1195841694195784 
0.03420071818480398 
-0.0317372140088238 
0.09548680725076097 
0 
0.0008688108485316193 
-0.03018386541199465 
0 
0 
0 
0.005702124550112371 
0.04142946272123769 
0.009749458733396743 
0.2524874866499917 
0 
-0.06890975605131634 
-0.008823216633173243 
0.144527560314324 
-0.01414479591143115 
-0.005198845458854263 
0.4616273101185716 
0.009589555478036745 
-0.002602589155056067 
0 
0.08589716569510307 
0 
0.138412797216188 
0.3422221649848 
0.02528385712618366 
-0.01066165686406823 
0.02147673378099817 
0.005620436026231628 
0 
0.00969302226276135 
0 
0.03696836378639373 
0.01795205413188812 
0 
-2.602085213965211e-18 
0 
0.2204086893397162 
-0.02990169520579069 
0 
0.1697665102087726 
0.002591028387807419 
-0.01003662685972927 
0 
0 
0.5566189182210963 
-0.02173260607239838 
0.02043826164985749 
0 
-0.01333961511665659 
-0.01602067113011428 
-0.05124786766706449 
0.005690344896094522 
0 
0.5835610662878192 
0 
-0.1558060911206524 
0.05754599877610251 
0.0704137543723863 
0.6252762874701471 
-0.00259950722270851 
0.08621990168795174 
0 
0.07505724085995115 
0 
0.01741635189213316 
-0.370792681528935 
0.02142774425692901 
-0.003012932583633289 
0 
0 
0 
0.01927656727908239 
0 
0 
-0.003313621686318035 
0.2820190087939087 
0 
0 
-1.111233321333177 
0.03906075003572215 
0.008041520892346495 
0.003376178406413913 
-0.2755986103883735 
-0.06204673505084889 
0.003249217482837965 
0 
0.01369931751460856 
0 
0 
0.002934903388511594 
0.1340027698782722 
0.2485631022570043 
0.02136342691464134 
-0.5888337040132725 
0.2900717412416879 
0.09938248686213189 
0 
0 
0.1435130814241706 
0.09159673452054275 
0.03361670475685061 
0.005836076894511547 
0.1140354768923893 
0 
0.4495379882948646 
0.2843917241136759 
0 
0.01637817803697677 
0.05328233906078834 
0 
0 
0.06203194341166019 
0.002185571912871718 
-0.01626998339251658 
-0.02963263912337359 
0.04767601261241354 
0.00561052954129128 
0.2362941022505669 
-0.05973992922539675 
0.6602590302818648 
0.02621666071972084 
-0.06972365567552891 
0.01504327825302551 
0 
-0.2180470575357968 
0.06559126819220243 
0.009289037643086808 
8.673617379884035e-19 
0 
0.08525113341682851 
0.07955887840618579 
-0.004652821131504896 
1.084202172485504e-19 
0 
0.0463597165304733 
-0.03585713075730301 
-0.005192584160859746 
0 
0.2937808675007266 
0 
0 
0.03449636364049039 
0.1286887121798397 
0 
0.2363580051115469 
-0.01947716233088076 
0.01635875999267146 
0 
0 
0.06739489563238411 
5.973485954382362e-05 
0.06572172976592554 
0 
0 
0 
0 
0.04891091812753887 
0.01149593916949981 
0 
0.04366927220379962 
0 
0.0530266310378394 
0.08963403507400737 
-0.3037250934630764 
-2.168404344971009e-19 
0.0577296124009995 
0 
0.01481443779930571 
0.04208237193014127 
0.05232403166938747 
0 
0 
0.08598391335150142 
0.2541844404476187 
-0.01755126186319018 
0.009919612762678857 
0.1634636990713057 
0.141274550556758 
-0.2233536720523935 
0.3550471578624366 
-0.1168256963250068 
0.03365503397023623 
0.5201827964211845 
0 
0 
0.0480828126482141 
0.03558200560959476 
0 
0 
-0.003911804997520395 
0.00545409765330725 
0 
0.05988383039012268 
0.03263942435414063 
0 
0.02978262356904028 
0.01606415174356592 
0 
0.03669656478014809 
0 
0.07635748239512538 
0 
0 
0.00704766320445761 
0 
0 
-0.0318556922525765 
0 
0 
0.02778569067648783 
0 
0 
0.002139137043098493 
0 
0.6284602734782401 
-0.0367146714473767 
0.07215146003356403 
0.001478786062922897 
-0.003406760143476879 
0.004638495260965668 
0 
0.03576174807882203 
0.07422366054369217 
0.2594640653229377 
0 
0.01108641128728638 
0.03412142817282596 
0.2015482344827662 
0.03437127326400487 
0.1037385216698584 
0.2287427242758403 
0 
-0.08447742451204941 
0 
-0.024845187016496 
0 
0 
-0.04179766416900846 
0.2238533129692258 
0.2786295675005434 
-0.08204498552951098 
0.1732537715707421 
0 
0 
-0.06064431598038108 
0 
0 
-0.0190356206507448 
-0.05774092727514513 
0.04858980735881931 
-0.0234659455625963 
-0.2984888176239066 
0.04973897405564915 
0.01297942591082893 
-0.1636477740928866 
0 
-0.1111558026872762 
-0.02675046614080273 
0 
0.08597867779377581 
0 
0 
0 
0 
-0.0331540576893502 
0.01721776392776584 
0 
-0.007478531497949826 
0 
-0.6066173480626333 
0 
0.022986376580917 
0.378357662562067 
0 
-0.2563383497638206 
0.001417265837544953 
0 
-0.02215719726758818 
0.06907092228182204 
-0.4495705040215004 
0.004111992795265531 
0.04067586342115719 
0 
0.00953278748599155 
0 
0 
0.03510774027064276 
0.02907691754870632 
0.2196471041318217 
0.0002936008577104122 
0.006217126855693867 
0.001691382294124275 
0 
-0.03387690723264647 
0 
-0.1084586555430823 
-0.2802911066732336 
0.002048397916604739 
-0.3343909026043956 
-0.009939525675550513 
0.006880334286706318 
-0.01037502501597808 
0 
0.02552015455225915 
0.007154047828438307 
0.07461202603072417 
0.07400516045728849 
0 
-0.1173170091214487 
0.002573466621606903 
0.05463267119636451 
0 
0 
0 
0 
-0.04961142419309303 
0.05069960049519151 
-0.005058943324526254 
-0.08796754258192718 
0 
0 
0.0006508583842170076 
-0.1431992292368965 
0 
-0.1010099564702077 
-0.1719359765181252 
0 
-0.0005847857020353445 
0 
0 
-1.084202172485504e-19 
0.1846745089547458 
0.007648386189814991 
0.2792820716086509 
0.01096262295405879 
0.04217910474520767 
0.004677302236366067 
0.003076991413324555 
-0.05583609288099012 
0 
0 
0.1767408096981188 
-0.03117562183940155 
0.001675736276703794 
0 
0.03321318950459978 
0 
0.0842549323496373 
0.1214749730534935 
-0.2679795642929165 
0 
-0.7350618878123664 
0.05096610785635868 
0 
0 
0.002505102634204324 
0.06555845394737465 
0.2442555345881216 
0 
-0.03371108826894351 
0.0301100140602654 
0 
0.007977693278890996 
0.1820283904602111 
-0.02424557189140372 
0.04871541532276564 
0.1452526187326585 
0 
-0.006526966410328993 
0 
0.06948550979048963 
-0.05962909629048711 
-0.03670274267608364 
0.008713679125409352 
-0.04019356236110008 
-0.04180930311399157 
0.04389500075782097 
0 
0.002261205919213324 
0 
0.01396801338370183 
0.01580851190686605 
0 
-0.03719662603955768 
0 
0.01923231994854586 
0.1105449986769474 
0.2068969159585922 
0 
0.04586392371748676 
-0.2793820300929852 
0.2083876562132453 
0.1062917732092461 
-0.01242022704748895 
-0.1217786735006848 
0.02196969017175119 
0.03776167968025389 
-0.07287844786105641 
0.02649248090617645 
0 
0.2886589683455241 
0 
0.005377406334506942 
0 
0 
0.05096040815254554 
-0.01413169952049968 
-0.4177791842923344 
0.04519124796460743 
0.004073841814586442 
0.04185888107240249 
0.01213554329411603 
-0.174055329325045 
0 
-0.005689676173133783 
-0.006408088518626816 
0 
-0.01489361783760663 
0 
0 
0.02632625908952856 
0.3354478007835658 
0.06021821731701234 
-0.07850252703659209 
0.03026050137593057 
-0.01436541271367274 
-0.5717264122323062 
0.003537842245373427 
0 
0.07479978618744651 
-0.02502202714512587 
-0.01694832330822277 
0 
-0.08804224123834271 
-0.03528711797409136 
-0.01097028772474503 
0.0007146782999329017 
0.280639340334699 
0.1980973502927763 
-0.02435570182380099 
-0.02470354643082179 
0.002422476246177817 
-0.06730951206232924 
0 
-0.03992054404618997 
0.01746907761376065 
-0.0350116012003322 
0.112959637904626 
0 
0.08405205934956594 
0.001868965516046457 
0 
-0.03435763238628633 
-0.03647888129725801 
0 
-0.003582391081456659 
-0.03586097002215354 
0 
0.05104939562652679 
0 
0 
0.3715519748555664 
0 
0 
-0.1344461483950994 
-0.1632888323513163 
0 
0.04806824022137217 
0.2216840905311471 
0.003041328224166035 
0.04576775740532844 
0.0618491790724468 
0.01638132614155939 
0.1742764540880005 
0.05677256572833514 
0.8700786616185751 
0.01903490968837175 
0.06255240123698548 
0 
0.2916913388380262 
0 
0 
0.207227560848933 
0.003787963496856053 
0.1412189648859211 
0 
0.05067320878531033 
-0.13758131531422 
0 
0.1777864975091836 
0.05220914942974438 
0.007698466803458641 
0.02617560551750223 
-0.000762776199514776 
0.01029435779037489 
-0.08750977977646417 
0.02335948285739098 
0.03800540853141351 
0 
-0.01815282416020092 
0.06370679565791038 
-0.07661638725496385 
-0.2067392673641977 
-0.01060266550072936 
0 
0.04142804297510105 
0 
-0.1497890234000687 
0.1353861468942502 
0.2109489804057073 
-0.0366349434362725 
0.3967659761780729 
0.3478810798151181 
0 
0 
0.004400232316807704 
0 
0 
0.2746783117131449 
-0.03718436766523523 
-0.1752293834015076 
0 
0.02576852388103985 
-0.02392227307755871 
0 
0.02996699091159344 
0.3717016582848574 
0 
-0.006359532250146937 
-0.4048873408551701 
-0.009246771338140173 
-0.6851638657771959 
0.004132266465037934 
0.1027058994365172 
0.6521531803211551 
0.02297331047368622 
0 
0.01272086525604376 
-0.1891315662494002 
0 
0 
0 
0.008524308364903333 
0.1058770158381545 
0 
0.0004475105956177287 
0.1295859431644569 
0.03413619694364232 
0.3797682545219696 
0.2469813569590608 
0.04747010981133147 
0 
0.002332104289483829 
0 
0 
0.08357354312445463 
0 
0 
-0.02992757223025967 
0.01848086941987642 
0 
0.03029331154615786 
0 
0 
0.08046432465995541 
0.0005694698356497123 
0 
0 
0 
-0.2677663900355748 
0 
-0.006104760280898653 
0 
-0.009517111688670751 
0.01345336699112655 
-0.1215187684656047 
0.1997300481640008 
0.1014612254105816 
0.06007208710400398 
0.1655960578676939 
0 
0 
0.220702938594136 
-3.794707603699266e-19 
-0.04677673921068148 
0.02534581086345233 
0 
0.002595909959202285 
0 
0 
0.1802729620990353 
0 
0 
0 
0 
-0.1774654367475773 
0.04921746341390101 
0.0697552341661361 
0 
-0.02650179828750964 
0.2921339203488155 
-0.05248019963837307 
0 
0.1030899869619973 
-0.01183446994806901 
0 
0.06193081852374458 
0 
0.05336011202852035 
-0.01185801377622072 
-0.0193045184398374 
0.09786046741160273 
0 
-0.04255942318897429 
0 
0.213112575301518 
0.02911161854330343 
0.006756852287557367 
-0.7921562319250219 
0.006135165585659031 
0.01036705099074531 
-0.005602115861309105 
0.1535860491265546 
-0.02516120321509726 
-0.008741347401322869 
0.2119770676856396 
0.02206230943734183 
-0.07408072488512632 
0 
0 
-0.001729815655529636 
0 
-0.04339162213937672 
-0.05370774977528608 
0.01346369805699685 
0.05528592666712515 
0.04461277270156769 
0.04315925666256682 
0 
0 
-0.04139672143929132 
0 
0.04004762132324349 
0.08021200960906935 
-0.05776978623033236 
0 
0.02311341920529136 
0.02857322295086672 
-0.07954326171472714 
0 
0.1588761179227172 
0.03044188595982377 
0 
7.589415207398531e-19 
0.05765503116554684 
0.008391254541663123 
0 
0 
0.004950164511301614 
0.003262502876152791 
-0.002494585756651015 
0.02447308379998513 
0 
0.05289736454677043 
0 
0.02510561609938513 
0 
0 
0.01041953395869048 
0 
0.01731547185865387 
1.084741771075316 
-0.02119938995591947 
0 
0.4122497926673315 
0.01420027146667622 
0 
-0.0331307217084931 
-0.03439469903845757 
0 
0 
0 
-0.01705147488187592 
0 
0.05259091062500021 
0 
0.02224422313154746 
0 
0.293063965157697 
0.2523844062785023 
0.1634427619847197 
-0.2632658416229642 
0 
-0.05669030923015295 
0.3807084390385889 
0 
-0.03141922953916627 
0.04147712734887985 
0.0151966423738616 
-0.03168776468158868 
0 
0.05380950241890015 
0.2815609025801139 
0 
0 
0 
-0.03614714102592987 
0 
0 
-0.06646909273270227 
0.1526980824587071 
-0.1039742813831252 
0.002174764694167799 
0.1025871490240352 
0 
0 
-0.02049234680419318 
0.006783948706942261 
0.4434525190721502 
0 
0.004179720914980119 
-0.04900153982396011 
0.1392634853145227 
0 
0 
0.01530271218543504 
0 
0 
-0.03989745965924575 
0 
0.5886507880058005 
0.01200546387693387 
0 
-0.1912527800074337 
-0.09219339659840918 
0.5983063243805264 
0.2182247334206883 
0.1834386614299346 
0.08832962943569611 
0 
-0.031393087275623 
0.3309917882305287 
-0.01189998462008171 
0 
0 
-2.168404344971009e-19 
-0.01434289694035972 
0.05509383028104146 
0.005589698156860621 
-1.626303258728257e-19 
0 
0 
-0.3119745280609887 
0.02123231434657794 
-0.09862476551598785 
0 
0.03705265167293238 
0 
0 
0.1064405329400537 
0.001255531317940935 
0.1416078151306862 
0.134718554809577 
0 
-0.005116571647185918 
0.1021368379300392 
0.03858494751213962 
0.05225823326703777 
0.06840650835844261 
0.02351919771837641 
0.03941485809837447 
0 
0 
-0.2319631083487485 
0.1975388105140269 
0 
0.04432042207159541 
0 
0.01131303851946003 
0 
-0.04383145937044804 
0 
-0.1373026074438355 
0 
0.03195348824074538 
0.01656422903234 
-0.03105245167954869 
0.3770053753193126 
0 
0 
-0.03386304327706844 
-0.01620271953554375 
0.05619883570207382 
0.02189663513836966 
0 
0 
-0.01553779459810001 
0 
0 
0 
0 
0.1908496194319745 
-0.003076524304917224 
-0.00409704464577028 
0.2139263390911566 
0.1106390874981004 
0 
0 
0 
0.1417781621053671 
0.05336043682450913 
-0.006248643735832188 
0.2363194974580942 
0 
0.01556246170775751 
0.02746842624314575 
0.04335432556936598 
-0.003786067442552866 
-0.013231152802831 
0 
0.001735327651190109 
0 
-0.1310081022569669 
0.03022966492036131 
0.3076058734223783 
-0.0467121357944978 
-0.0006337936562560766 
-0.0362965206106657 
0 
0 
0.01894487233212214 
0.06287103463669973 
-0.00231415295636401 
0 
0 
0 
0.08116561846773156 
0 
-4.336808689942018e-19 
0.1608273494687868 
0.005544431185916563 
0.05587627528508227 
0.0040663294075374 
0.0002073820704536156 
0.2442236253855092 
-0.106290163889377 
0 
0 
0.01770024829504554 
4.668070078701165e-05 
0.03110941490028767 
-0.3602311189148297 
0.05201798000888785 
0.03045555406728692 
0 
-0.04214692375754227 
0 
0.01465636022021807 
0.1441966540753456 
-0.00281466747360505 
0 
-0.8370551241675696 
0.1944124878107401 
0.02682100940064626 
0.02451888885432446 
-0.4394109144943152 
0.06125691165707302 
0.02809671975082875 
0 
0 
-0.1185488824978835 
0 
0.3057721075056554 
0.01952703135663759 
0.352130192401141 
-0.003286478790618143 
0.03420199521007011 
-0.007184138023673592 
0 
0 
-0.01404477109855482 
0.009621972716996743 
0.04018387934526053 
0.1493016245101692 
0.0003103282192611106 
0 
0.03501886106246978 
0.2338183199897799 
0.006937854862185238 
-0.005041641023872174 
0 
0.6503758099793869 
0.8121027409657663 
0.01861417631059784 
-0.008070748778886591 
0.3625148277145261 
0.08557745149434373 
0.0120612030626299 
0.2069010467662824 
-0.3050147940825633 
0 
-0.01548162129372387 
0.03619507756022487 
0 
0 
0 
0.01250378094214611 
0.02116238765764701 
0 
0.05646720076419184 
0.002869736875586238 
0.01636604107873743 
0 
0.8704568890481803 
-0.009080920070495244 
0.00934757767532169 
0.03371122593156819 
0 
0.0665125406408664 
0.007741297811576554 
-0.001892933564562228 
0.001480686185974374 
0 
0.003724063958575581 
-0.4771465903234541 
0 
-0.07448378278925472 
0.03480827838241384 
0.04489398514813284 
0.02988206868935533 
0 
0 
-0.02299584617363361 
0 
-0.006078131996600108 
0 
0.08305512471700531 
0 
0 
0 
0 
0.163410388803453 
0.4198920811382875 
0.01400950510911943 
-0.2164524683254271 
0 
0.1166610387197221 
0 
0.0795734059539359 
-0.02729407820520006 
0.1020729690988895 
0.09147074417512303 
0 
0.01691399651623831 
0.00686011887838665 
0 
0.04086385364114665 
0 
0 
-0.2651563032174643 
-0.08165202171158678 
-0.1132213141839942 
-0.05358606639196621 
-0.03631718625522156 
0.00139535095657795 
0.02589760906963862 
-0.1419798512822494 
0.05427818458430451 
0.05695149874113132 
-0.007252186648894448 
0 
0 
0.0285441389970017 
0 
0 
0.008311785420739518 
0.04436080020157291 
0 
1.084202172485504e-19 
0 
0 
0.2225858488680576 
0.06393023710116974 
-0.01010693755277706 
0.4616491928883975 
0 
0 
0.009940383951067958 
0 
0.05304895654708129 
0 
0 
0 
-0.01963334057948032 
-0.003635922870698146 
0.3045388758728479 
0.00291345710297103 
0.5315754235687754 
-0.01861779794035423 
-0.09270239043636451 
0.00719296115349468 
0.0124906392903157 
0 
0 
0.01083834648941085 
0.0001138939671299418 
0.09573155447359391 
0.001598985375398243 
0 
0.003883374557473063 
0 
0.00234976586493948 
-0.06712948396681685 
0 
0 
0 
0.01014854388013784 
0 
0.02712491078342068 
0 
-0.05253689915537615 
-0.03827547697660245 
0.2643020998193104 
-0.01497795473744675 
0.1509553790997854 
0.07697413843268837 
0.2941063384429511 
0.00629307316285736 
0 
0 
0.3469916698124871 
0.1174441987543013 
-0.05496842883921426 
0.01283906653626845 
0 
0.1142300988859246 
-0.08777699701864772 
0 
0 
0 
0.0418109677788169 
0.01820080841170622 
0 
-0.006155017873438849 
0.1641224846046035 
-0.02549202889468941 
-0.4952588975471754 
0 
-0.1667410128221441 
0.02262746151142543 
-0.04763013391514075 
-0.002631602340436081 
0.1345717375979673 
0 
0 
0 
0.001585970755253848 
0 
0 
0.05747716968496971 
0.01210975570213389 
0.008286120624087763 
-0.001829126509676822 
0.2663786507993511 
0.07532447968102962 
-0.01102724788400547 
0.1377776414182492 
0.005060014024082778 
0.01116173004904899 
0.04233433938512509 
0.03175064187907951 
0.1383376502895075 
0.006375612215328423 
0.01374645767072221 
0 
0 
0.2928878260894168 
-0.2567496343988511 
0.005094488331260874 
0 
0 
-0.2314014294895018 
0.001806329361418736 
0 
0 
0.02008688392771314 
0 
0 
-0.02815725460232417 
0 
0 
0 
0 
0.08858116095166706 
0 
0.07278159585793717 
0 
-0.004325852142189829 
0.01725973683537406 
0.02228934410356247 
0.04420509568978882 
0.07086865656225984 
0.01858030682199806 
-0.01570500474900269 
-0.03390678565766218 
0.05640853472792849 
-0.2330563373418394 
-0.08533968421423585 
0.01162281106212979 
0 
0 
0 
0 
-0.009342679575314618 
-0.04674287833127288 
-0.007546422253399794 
0.07059174059747957 
0.2358901492942948 
-0.000779049091935935 
-0.0177610127045175 
0 
0.09390129052425879 
-0.09159679253668157 
0 
0 
0 
0.001938586896102231 
0.3667883093550904 
0 
0.1095335080425916 
0.008087979542102957 
0 
-0.02831032001176619 
0 
0.4711639279850877 
0.1755159292032519 
0.4737686930483528 
0 
0 
0 
0.01797474187678508 
0 
0.2256657599592553 
0 
0.02082974587086183 
0 
0 
0 
0 
0 
0 
0.04213517194924357 
0.3709819907288675 
0.02216269312379946 
0.01955943022145707 
0 
0 
0 
-0.02874942003448869 
0 
0.01598300482395291 
0.3064056631332751 
0 
0 
-0.0333935233260783 
0.3366765120146518 
-0.03725551664544569 
0 
0.06085493236200191 
0 
0 
0.01631909497671861 
0 
0 
0 
0.03299492386441057 
-0.01131692480355012 
0.0809862710952545 
0.001525230763940099 
0 
0 
0.01267176201763011 
0.08786209233017289 
0.00145544949058131 
0 
0 
0.0935010243960305 
-0.00361936111245678 
0.07585080300069136 
0 
-0.2321498004722543 
0.761966302911541 
-0.5569324976707269 
0 
0.008234637923502319 
0.01075493048027519 
0 
-0.03884980399781542 
1.355252715606881e-20 
0.03390022088618286 
1.084202172485504e-19 
0.0002048012874094679 
0.001305982007795727 
0.1485441122079739 
0.1250770692446307 
0 
0 
-0.01773381636918572 
0 
0 
-0.02887069621040881 
-0.01293792709562434 
0 
0.1447800668491435 
-0.03651432882250601 
0.1150695540416962 
0 
0 
0.04889313246039021 
0.01460127296328314 
0.05915461161094496 
0 
-0.01150316331807382 
0.08674791828507734 
0.008869334745382346 
5.421010862427522e-20 
-0.01868382289872803 
-0.008959624624871975 
0.0474180126085509 
0 
0 
-0.01179595367572649 
0.002919930290755537 
0 
-0.03200867423080284 
0.006277344831408374 
0.3197041797310601 
0 
0 
0 
0.03405077749495384 
-0.002183531989153448 
-0.003257569326740762 
0 
0 
-0.6152594969096191 
0 
0.171157610079753 
0.04844358658347662 
0.001375099914056863 
0.1627753397254802 
0.01140363038109341 
-0.01988884736515354 
-0.03119875486407312 
0 
0.2725540906338348 
0.004669435715618716 
0.2253180302180995 
0 
0 
0.08606635922054676 
0.0009069877408960613 
0 
0 
0.7592504947741772 
0.008203273867375059 
0 
0 
0.03037791831800096 
0 
0.1510802996599574 
-4.336808689942018e-19 
0 
0.002410640051767954 
0.0159676357702671 
0.7036283894802151 
0.007894450826437872 
0 
-0.1589718274647432 
0 
-0.2458947239554036 
0.03859163292449852 
0.2753862656842886 
0.0238673070339997 
0.02513891782358026 
0.0621089138600121 
0.01847099493376443 
0 
0 
0.02111816618417458 
0.02401977762636629 
-0.1089191229983721 
0.06237988422750592 
0 
0.1549070517697575 
0.1210161364636403 
0 
0.0007815281357219676 
-0.01281185290492011 
-0.03359050556146721 
0 
0 
0 
0 
0.2066686645207999 
0 
0.01223923396198717 
0.00458616091024357 
0 
0 
0 
0.02750144104146421 
0.1185143823532672 
0.7688677617943784 
0.24307688956504 
0.2041767806332076 
0 
0 
0.1192904128468855 
0.02848647809729799 
0.001822006212247281 
-0.01528946724717696 
0.02258269089763008 
0 
0.01018467729044121 
0.02758754803490595 
0.0106174499585668 
0.03113738882653393 
0 
0 
0.3196772150907172 
0 
0.0282565271332584 
0.04628005861114573 
-0.03043767190094859 
0 
-0.2239894138025111 
-0.02939467401032253 
0.006979415127238473 
-0.04883058524328397 
0 
0 
0.003517951138306595 
-0.01245130676724258 
0 
-0.00904623569512663 
0.04175678679387331 
0 
0.2075448229423088 
0 
0 
0.1141992385130187 
0.01547296833379275 
0.003768142237474542 
0.002434574469554002 
0.01361005612748699 
-0.0006804494869769165 
0 
0.1965398024002543 
-0.006021474766416735 
0 
-0.01497762087128814 
-0.01784667794660507 
0.0145184020285012 
0 
0 
-0.2520373857045571 
-0.1346576568052663 
0.11575309340299 
0.008024669041546733 
0.01848768672635644 
0 
8.673617379884035e-19 
0 
0 
0.01274883635670953 
0 
0 
0 
0.2199931138355126 
-0.006179653867192723 
0 
0 
0 
0 
0.04239449246906259 
0.1304749440939882 
0 
-0.00676446562299265 
0.1296008637966873 
0 
5.149960319306146e-19 
0.2355512966751488 
0 
0 
0.04059433483672888 
0 
-0.001323615241707421 
0.0583558830307374 
0.07791785308647743 
0.08272115877856384 
0 
-0.1798409270715845 
-0.1179097260761025 
0 
-0.07171307715803284 
0 
0.1356218006517856 
0 
0 
0 
-0.0188557557931759 
0.08912173828247903 
0 
-0.00655565817204018 
0 
-0.2682949790391801 
0.2851405983760233 
-0.1487540080660674 
0 
0.01970998713419699 
-0.006237775973326812 
0.1231738886806355 
0 
0 
0 
0 
0.006617474171933355 
0.07648683709580167 
0 
0.1124183746500674 
-0.009282049065045241 
0 
0.002396324846519434 
0.0959331793638017 
0.1509848701520718 
0.07053777360470274 
-0.01894835125791597 
0.2402470098501676 
0.03258483698233441 
0.3158516628482543 
0 
0 
0.1685007102368507 
0.2380059836463347 
0 
0.007510205546715568 
0.01351612574499137 
-0.4204001920261776 
0 
0.01136312357099814 
0 
0 
0 
-0.004962672235822824 
0 
0 
0 
0.06629456319041763 
-0.01331808631589583 
0.006134497336976896 
0 
0 
-0.001008693242131672 
0 
0.259482585381231 
0.02418445196098503 
-0.008896848165659511 
0 
-0.004916258130221985 
-0.00120562577967004 
4.336808689942018e-19 
0.01786624100075709 
0.1942351813702879 
0 
-0.1086047227813151 
0 
0 
-0.01630481406676145 
-0.004700658996792918 
0 
0.2752833898426059 
0.004168948423632722 
-2.032879073410321e-20 
0.0002201834445136197 
-0.02507373849041073 
0 
-0.008950536031647461 
3.252606517456513e-19 
0.0110651009257194 
0 
0.4114585882869488 
-0.02853149201864476 
0 
0.2024739026175988 
0.01197278744426765 
0.1514054213270357 
0.04045709507944642 
0.2064325630630092 
0 
-0.004585138341534871 
0.03179641081712429 
0.005506512416342492 
0 
-0.3690420393701803 
0.002568593321428186 
-0.04875909994719266 
0 
0 
0 
0 
-0.004667728904105022 
0 
0.1022673383078588 
0.1294716906455251 
0 
-0.9107014790961068 
-0.04705268452222281 
0 
0.04277639982656123 
0 
-0.006309222091931497 
-0.02014284127390321 
0.0140360003187115 
0 
0.2314631315654287 
0 
0 
1.301042606982605e-18 
-0.3422727772793159 
-0.0222378166686628 
-0.00480897820620969 
0.01472350651096381 
0.0002211934125283065 
-5.529431079676073e-18 
0 
0 
0 
0.1514174180945631 
0.06353345151940459 
0.3286197233422595 
0.3388455039732903 
0.02227710859298744 
0 
-0.192256499897602 
-0.08285951993407421 
0 
0.058448299863024 
0 
0.0501257474265323 
-0.2955835056126007 
0 
0.06833313725652861 
0 
0.007581931407472772 
-0.05797970057223299 
0 
0.1646330782691936 
0.002112250968722635 
0 
-0.04660704495754766 
-0.03579690622440828 
0 
0 
0 
0.01942769103002084 
0.002238362618884496 
0.02105186145364481 
-0.01668878681762337 
0 
0 
0 
-0.09673518838782379 
0.04308274884315508 
0 
-0.06092496733244507 
0.6899585275644047 
0 
0 
0.01844881659174702 
0 
0 
-0.03005468555097726 
0.06500661870304321 
0.0970924895922977 
0.001382086159240507 
0 
0 
0.0004983987158298679 
0 
-0.04237437905668475 
0.0497852552969851 
0.01780793256164161 
0 
-0.01938913066851439 
-0.03623592658404682 
0.05494864600045597 
0.007304312380548062 
0.03168723080673464 
0.01124905194300281 
0 
0 
0 
0.005078364086066697 
0.02143544233423857 
0.008789197888253273 
0 
0.09084725833831911 
0 
0.06743130949589581 
0 
0.1623648259283097 
-0.4975294986600919 
-0.01076339690714434 
0.002087532378082511 
1.301042606982605e-18 
0.05067152430167599 
0.1162045289551008 
0 
0.2555493419256884 
0 
-0.01266510286963076 
0.03539602529672947 
-0.1439638360288177 
0.04924007621000168 
0.02538405620543352 
-0.02306122872832495 
0.0327947891474929 
0 
0 
0.02653256482799945 
-5.421010862427522e-20 
0 
0.02090988887226745 
-0.06724805335621352 
-0.0213007795470564 
0 
0 
0.03017147613112474 
0 
0 
0.1058921567060525 
-0.275529097090904 
0 
0.04022109942871972 
0.004920706873028653 
0.07855334785188786 
-0.008469091961421857 
0 
0 
0 
0.1242655097227018 
-0.02017024713190625 
0.003809983325530716 
-0.1010372443838693 
0 
-0.05744968630629235 
0 
0 
0.2032392433331355 
0.5899752019632546 
-0.6315405450927408 
0 
0.2026322181938619 
0 
0.02199640435900159 
0 
-0.02821704479683928 
-0.2707746373782131 
0.397034758950837 
0 
0 
0.09909857093585055 
0.02138592934900318 
0 
-0.1820446375905644 
0.005956956218762247 
-0.1777992712537488 
0.02334686913609637 
0 
-0.1134738850625927 
0 
0.4070007599466129 
0.01896181823574603 
0 
0.02095678167720461 
-0.0322948117805406 
0.01106205624272301 
0.0839387537371553 
0.03748854440594037 
0 
0.1990371411612478 
0.01258858010255665 
0 
0.03276918140336164 
0.09335573538068399 
0.0130411689087154 
-0.003925635779060661 
0 
0 
0 
0.007681176247719736 
0.01326520810122925 
0.1638882617200054 
0.001595026268216654 
0.02772833357662128 
0.1042286126485733 
0.04728411780972043 
-0.01499187472968861 
0.02783536857349459 
-0.01302757324600658 
0.1682684569284549 
0 
0 
0.3992611815887162 
-0.01639604045337662 
0.04878158898391307 
0 
0 
0.08689752768899763 
0 
0.01123325231554369 
0 
0.1258855256988109 
0.336654172548584 
0 
0 
0 
0.4683954525016434 
0.02388668687416564 
-0.01672196089834956 
0.2118075448457555 
0 
0 
0 
0 
0 
0 
0.03097665518633337 
0 
-0.1079709354303139 
-0.3118096881211927 
0.1624128504525114 
0 
0.0003617549399561469 
-0.02814710613983179 
0 
0 
0.1707944401776019 
-0.2536418896612504 
0.0318232197285876 
-0.004510521718992034 
0 
0.003485485048214184 
0 
-0.00284806141997091 
0 
0 
-0.05610280478473943 
0 
-0.02444128961707443 
0.01361279494833356 
0.01117103687553309 
0 
0 
-0.04501847748504585 
0 
0.6079685980015628 
0.0005457081657148827 
0.003532368720183622 
0.008701580057296794 
-0.2362564852580578 
0 
0 
0.0165603507761173 
0.0197843315789601 
0 
0.002026457030608113 
0 
0 
0.117835320506873 
0.006602843044340554 
0.2961573591025543 
0.5546116466311884 
0 
0 
0.02845125690604078 
0.1611945264446586 
0.0004873031448573104 
0 
0 
0.4651603383034932 
0 
0 
0 
0 
0.00274895570232531 
0.007847029221717637 
0.004684430682068326 
0.1514326159333537 
0 
0.04443896901242084 
0.01519654671201746 
-0.03473579857776909 
0.0606004677689453 
0.165614768985412 
0 
0.01471438115757132 
0.6067741817951631 
0.01152869184115115 
-0.007475135803001564 
0.01113649982114315 
0.03949701928758328 
0.04266628905515718 
-0.1938233362037235 
0.123573780157843 
0.003823881043366021 
0.001479588051397719 
0.0123889796451747 
-0.1226353248366756 
0.003484050443096023 
0 
-1.788933584601082e-18 
0 
0.01002261549085595 
0 
-0.02586181998381977 
0.08818833572672333 
-0.2082602526420532 
0 
-0.3010222591523542 
0 
-0.008538135817902586 
-0.1040894249226283 
0.01695694301900149 
0.2311572577257646 
-0.02413620567453764 
0.002619975364170404 
0 
-0.02121732436370241 
0.02643116042036785 
0.0002683572313851138 
0.00841860466731649 
0.0002295781721234987 
0.05464397239884364 
0 
0.4191639574414838 
-2.656295322589486e-18 
0 
0.004944103840283574 
0.004626935517975974 
0 
-0.104383368358003 
-0.01266295647166108 
0.04683772311105855 
0.02031533507043106 
0 
-0.03871811580376787 
0 
0 
0.1052924490144126 
0 
0 
0.02972343369754789 
-0.008278217422031716 
0 
0 
0 
0.08988623681619339 
0.1049133941653323 
0 
0.09010103192285997 
0.008370339432256591 
0 
0.1610265139051612 
0.02925718834588572 
0 
0.004447218375286102 
0.04071430789491899 
0.0718966439237011 
0.01190499024816628 
0.03768451241909348 
0.009442408891991792 
-0.000905608797301094 
0.01776356926936052 
0.004909299033555112 
0.162951390900071 
-0.1418940355058164 
-0.1587219852421316 
-0.003876526246809505 
0 
0 
0 
0 
0 
0 
0.1970801812340147 
0 
-0.1344768369013541 
0 
0 
0.004428382953785347 
0 
0 
-0.008446464775791604 
0 
0 
0 
0 
-0.03055207330536764 
0.006739946669377974 
-0.06989634419705659 
0 
0.04841301209441994 
0.06619297085315019 
0.1155369405690146 
0 
0 
0 
0.2935072470059203 
0 
-0.1154613055181863 
0.002763813453735778 
0 
-0.2188527718601903 
-0.005191658914351124 
0 
0 
0.01987247521741758 
0.0222003515491687 
0 
0 
0.01496527979961406 
0 
0.006566407619184525 
0.06856027545208745 
0.002247646138159723 
0 
0 
0.115429530349323 
0.15089328621117 
0.007110387317495567 
0 
-0.03928575600829033 
0.02760071027338869 
0 
0 
0 
0.01105383405045542 
0 
0 
0 
0.5811812859784369 
-0.01845478793935666 
0.01918341091519739 
0.1167484766810157 
-0.0884666818337168 
0 
0 
-0.03369045839911408 
0 
0 
0.0008154645773970727 
0 
0.01553906019117607 
0 
0.01437681692493242 
0.1245500770204584 
0 
-0.01318189304171412 
0.007117990486144354 
0 
-0.06524366550501755 
-0.03016644835766942 
0.05902682934167412 
0 
0.1534702222333541 
0 
0 
0 
0.2734343419075844 
0 
0.02260158714907195 
0.05607759797198468 
0.01059987388513875 
-0.07645072123621141 
0.1013374272365509 
0.1394556596447511 
0.006641851583711764 
0.0362171792881817 
0 
-0.01289296503353998 
0 
0.02524431972413713 
-0.001381814899141787 
0.05761516918087113 
-0.1536407956729232 
0 
0 
-0.09099410471038299 
0 
0 
0.008272856023022955 
0.05221389422296226 
0.05284532314544632 
-0.03374549752908876 
0 
-0.3756098089502676 
0.04421513390995858 
0 
0 
0 
0.05578884182620291 
0.05013408310524459 
0 
0 
0.08389112739811087 
-0.009076589804820076 
0.008412870170000693 
0 
-0.08058077260946142 
0.000833990680713418 
0 
0.04470850326669625 
0.3021600100560054 
0 
0 
0 
-0.2360034583979067 
0 
0.01332576972590373 
0.02276801171476747 
0.006522621500334391 
-0.03319424088464371 
0 
0.008689000195835321 
0.1656924856211874 
0.008184295257394246 
0.02484165981848612 
0.09906537676334566 
0.03695757404993898 
0.05630091348466616 
0 
-0.8453324129808137 
0.01377962551893387 
0 
-0.2564710969304442 
0.08191031693309349 
0.006609748238009815 
0.01459732293305639 
-0.4792589077548567 
0.0009124834646821652 
0.04903658571599683 
0 
0.02888218245859873 
0.02530090584892 
-0.06546377081093793 
-0.003358117439406224 
0.06383512862606311 
0 
0 
0.02004300750486551 
0.0007744031583018613 
0.1387677367691093 
0 
-0.2366953225067782 
0.9523458742389764 
0 
-0.07034659134737703 
-0.03053769817524572 
0.1792657705514907 
0 
0.02939343121792162 
0.005641859009341029 
0.01702793579243356 
0.03623382341931606 
0.1623659871477789 
0.003108604817319982 
0 
0.02160308455740368 
0.1497499458576737 
0 
-0.002474648387245943 
0.08096415607547741 
0.03737711267560487 
0 
0.001730071245334307 
0.01265058039482047 
-0.8858552691252733 
0.1012767294904562 
0.001791201119412946 
0 
0.1584980461505026 
-0.01320257552303681 
-0.01097387062906197 
0 
0 
0.009928183624585087 
0 
0.03591897136904908 
0.01193569601692092 
0.2319136718304169 
0.02367962566139601 
0.01569846549784473 
0.2319136718304169 
0 
0.2321433464791099 
0.08307924792762611 
-0.01918625667349333 
0.00260007764775358 
0.00798899985102014 
-0.01221725664783556 
0 
0 
0 
0 
0.05281608493014835 
0 
0.0233232159240596 
0 
0.01611722302947959 
0.07468692595662116 
0 
0.3016427455404505 
0 
0.01597605005801073 
0.05136313788640131 
0 
0.4571427083324883 
-0.05291704826585347 
0.0007359479429191949 
-0.02274325657424067 
0.0357742165397505 
0.1361938486134809 
0.004550758519108909 
0 
0.116944547280266 
0 
0.2160094335213243 
-0.1111648166213932 
0 
-0.0440826355642856 
0.0294528640521133 
0 
0.01691127613827801 
0 
0 
0 
0.07838118370606345 
0 
0 
0.04577395373154741 
0 
-0.04069744647942285 
0.008265854654974345 
0.04740870739924522 
0 
0.003772413957887686 
0 
0.02738967156104542 
-0.09749064356607161 
0 
0 
0 
0.1814077388284539 
0.06692712618893354 
0.02807644196136282 
-0.03647321145923106 
0.008482166155146027 
0.04946675400571789 
-0.003580767438158302 
0.06502794107489752 
6.776263578034403e-20 
0.02530344686519329 
0 
0 
-0.007756335587503347 
0 
0 
-0.02152272865032406 
-0.02631697937030226 
0.00230360398915963 
-0.03144258931300561 
0.02676414200147412 
0 
0 
0 
0.04831107184990104 
0 
-0.01667380001600773 
0.150235215661294 
0 
0.04025435859878129 
0 
0.2211418947275094 
-0.05066775638570406 
0.02647947252585853 
0 
0.03966145906650025 
0 
0 
-0.1356588269735992 
-0.009889330355558478 
0.02446009173951332 
0.4519683735748639 
0 
0.001047025723665138 
0.01778552247652683 
0 
0.03375463751944793 
-0.1708232611955033 
0 
-0.0118486120390773 
-0.01106687759237687 
0.09408665678815875 
0.0313994495150504 
0 
-0.01120653637986073 
-0.1395797338010525 
0.4282420781950312 
-0.02181521760383689 
0 
0.09709306497028855 
-0.5205573359444785 
0 
0 
0.05196382443638375 
0.03841745625925726 
-0.02506942349894252 
0.05630123942199713 
-0.0145131834515514 
0 
-0.01328491468906551 
0 
0 
0.02868228828147472 
0.04795545095930725 
0.02599445009121856 
0.004028167306721165 
0.006545675126492656 
0.0007998946626052629 
0 
0 
0 
0 
0 
0.009102291909692993 
0.003290201325210255 
0 
0 
0.02712226334083903 
0.0381511413176524 
0 
0.02559260958432127 
0.1036847776411704 
0 
0.2764136508248307 
0 
0.1438400485851921 
0.001621476770757029 
0.002049863655170309 
-0.5739700248674601 
-0.06594097484906009 
0.01077600787738141 
0 
0.3112030822249706 
0.06962264257605885 
0.1625848367473494 
0.01301975032072536 
0 
0.002657357484919822 
0.006469107668046165 
0 
0 
0 
0.1901352547101548 
0.1040486391220346 
0 
0.5108241406093582 
0.002991878927647719 
0.2438100500294529 
0.1787979478984337 
0 
0.09049453035543423 
0 
0.01734777647151331 
0 
0.1530567861186801 
0.02058109451156659 
0.01135423322473345 
0.139180248549193 
0.1466778259863106 
-0.1117066138012131 
0.06737385351348815 
-0.00170166185589435 
0 
0 
0 
0 
0.01384180381045906 
0 
0 
-0.1158242173041656 
0.1004993581270461 
-0.2955508867020193 
-0.1593020397547132 
0.06802232824021953 
-0.02467157745376836 
0 
0.0003127656801858829 
0 
0.004310564134313966 
0 
0 
0.0001047681030124829 
0 
-0.04858751470600228 
0.002960130090355244 
0.02852744107051555 
0 
0.1023697822383128 
0.002417862103190274 
0 
0 
0 
4.674401987973002e-05 
-0.08150451192466533 
0.01483517826150725 
0.002197578355748392 
0.001818627622898645 
0.08657595863926103 
0 
0.14860820608906 
0.04417381878946182 
0.3695508708423529 
-0.2110547032640494 
2.710505431213761e-20 
-0.009538670215534464 
0 
-0.05611963467276175 
0.1395461282281257 
0 
0.02068515426593309 
0.01048568482468054 
0 
0 
0 
0 
0 
0 
0.06131830735483171 
0 
0 
0.0624879403354994 
0.02602696222908789 
-0.04863672236657916 
0 
-1.694065894508601e-20 
0.01036366192137997 
0.004409598485907306 
-0.006311944677512614 
0 
0 
0.05055773834237216 
0 
0 
0.003448091852145003 
0 
0.0002560806795454332 
-0.03402761824969798 
0 
0.216265318406057 
0.04652118188979661 
-0.1379102483112431 
0 
0 
0.02093957026150995 
0.05563982594673757 
0 
0 
-0.001555368077427557 
-0.05447205160638807 
0.01598422308764907 
0.1192414126132151 
0 
0 
-0.009256001950626919 
0 
0 
0 
-1.192706176312604 
0 
0 
0.04554346582719952 
0 
0.04931828602440542 
-0.07983627442417984 
0 
0.01215388418604846 
0.02094058526894753 
0 
0 
0 
0 
0 
0 
0 
0 
0.03052108061288817 
-0.01105351539345475 
-0.004706065936176584 
-0.004371011287703949 
0 
0.01255570560085788 
-1.843143693225358e-18 
0.1314857590089188 
-0.006143531476682778 
0.01768595609766621 
-1.084202172485504e-19 
0.01072493002923042 
-0.5107483728316586 
0 
0 
0.02161097726052763 
0 
0.02726398446053985 
0.03608985477132193 
0 
0.2786182877950846 
0 
0.1921176449234168 
0.06034871832542962 
0.3858720777021074 
-0.06465587489202275 
0.01557050678743849 
0.01466271220769386 
0.06304173887772262 
-0.001767047240942356 
0 
0 
0 
0.002884328721668404 
0 
0.1010952413846097 
0 
0.1355650236527116 
0 
0 
0 
0 
0 
0.0270672760857189 
-0.2108177265475676 
0.03181688146702925 
0.2273460828039109 
0.003479773938800355 
0.1757282079795916 
0 
0.004496794664836697 
0.006406463554170229 
0.3987254327489343 
0.02366892550600252 
0 
0 
0 
0.2096404202572746 
-0.02441162855976279 
0.05083874109598446 
0.1641994023606699 
0 
-0.05617547489556046 
0.0411992922272656 
-0.01897694796112729 
0 
0.01895544170410772 
0.005360173082322683 
0 
0.0008074443629131307 
0 
0.02539158194456882 
0 
0.01856279525974013 
0.01360816154433 
0.03138900353660839 
0.01650017536098941 
0 
0.02970750228533433 
0.009442154045949407 
-0.008594883416234635 
0 
0.02815644883677593 
-0.001078250438976318 
0.2287029533466169 
0.1536485845971595 
0 
-0.04417128559617235 
0 
0.1088528979653697 
0.2925664432344011 
0.1193575304570604 
0.04072515157518926 
0 
0.1722713101071399 
-0.03199656292342479 
0.06717245808978961 
0 
0.01192268809046579 
0 
0 
0.1307307740225014 
0 
0.06724825748832938 
0 
-0.1408130419382438 
0 
-0.03037452197951196 
0.06494887706804588 
0.00320344836305564 
0.0008037991175224617 
0.06211041483808194 
0 
0.006931704128781789 
0.1129602066009457 
0.07216681206829828 
0.02480182692305457 
-0.012777888024438 
0.01579481359728058 
0 
0 
0 
0 
0 
-1.734723475976807e-18 
0.6746077005401128 
0 
-0.001252477754665135 
0 
0 
0.009696975228686093 
-0.05055034709410706 
0.06374464170214054 
0.208482582239086 
0 
0 
0 
0.02776255219181904 
-0.3393492665420292 
0 
0 
0.01121782737471656 
0.05371325077107262 
0 
0.01308174494396066 
0 
-0.009472001406275564 
0.4931505575287506 
0.09961102788988582 
0 
0 
0.06870254279161521 
0.2303295368867405 
0.07433258156388348 
0.001844029618431728 
0 
0.1608915249314252 
0 
0.01039206505963446 
0 
-0.02012960132478828 
0.3642554307271754 
-0.03352314189195932 
-0.1266545190115876 
0 
0 
0.004924794176535092 
0.001779387027292604 
0.1849821390369463 
-8.483881999699072e-18 
0 
0.007585949048595322 
0.0405884117435332 
0.02452836910610224 
0 
0 
0.003865553717063324 
0 
0.05470498861996851 
0 
0.3010810376328871 
0 
-0.04020450060453521 
0.1306848903516474 
0 
0.0002415485225806904 
0.01491606060401811 
0 
0 
-0.05258006214439601 
-0.06891635287820548 
0.07489025220319996 
0.005579523109965606 
0.006614695518133236 
0 
0 
-0.06218941193861439 
0.004305438969397303 
0 
-0.006221470947578404 
0.03047276764536557 
0.1916655188247458 
0 
0 
0 
-0.03893622370246288 
0.0448112545855844 
0 
0 
0.158204904373231 
0.0007240733560023207 
0 
0.002940743446185727 
0.02526725357978717 
0 
0 
0 
0 
0.07584457135960015 
0.006987452310303934 
0 
0.07020934286375782 
-0.2016825250812352 
0.003259811962135023 
-0.04124016175066272 
0.00955903427054283 
-0.001986732263806157 
0 
0.02148226706987452 
0 
0 
0.005274698766194395 
-0.05771143468970871 
0.3669571810143709 
-0.04397723667265338 
0 
0.1111045981403143 
0.2442355959293253 
-0.07361545289137607 
0.002425284960707231 
-0.2752430565743368 
0 
0.04132268438216607 
0.1027425503556543 
-0.01336620910206585 
0.02837873769980478 
0 
0 
-0.004538893366119756 
0 
0 
0 
-0.004924170037168562 
0 
-2.176874674443552e-19 
0.001880582680575621 
0.07103426079110288 
0 
0 
0 
0 
0.09945572624715876 
0 
0.0713517323973874 
0 
0.0149467198498996 
-0.08723435569304414 
0 
-0.3103704986126052 
0 
0.04151950125600695 
0 
0 
0 
0 
0 
0.04969931850485018 
0 
0.8170992087445073 
0 
0 
0.01298601239784395 
-0.2208679568619206 
0.1037816955106372 
0 
0 
-0.07424125012296277 
0 
0.02857660269103133 
-0.01357403185444374 
0.0007378999011630023 
-0.003085004993281746 
0.01206100092044695 
-0.3579099031279981 
0 
0.07958281629346596 
0 
0.01258679749512297 
0.07522816501225228 
0.06637718221756084 
-0.0444768447346398 
0 
0.01486041415351591 
0 
0.02504718406068966 
0 
0.02692598184490802 
0.05396394750816181 
0 
-0.01024503573233033 
-0.02650273245217289 
0.03097995712294493 
0.003575454161246355 
0.02804303872203083 
-0.04211516966495817 
0 
0 
-0.3201655112283295 
-0.1702377178388546 
0 
0.01826309210488674 
-0.4027033770056818 
0.005391942313221176 
0 
0.02973018099598859 
0.02954721496417709 
0 
-0.09150585007104292 
0 
0 
0 
-0.007158366749131374 
0.01486851860780125 
-0.01156382090888993 
0 
-0.2876429165899546 
0 
0.008502840567163246 
0 
0.02603084776426845 
0 
0 
1.355252715606881e-20 
0.06527588411822985 
0 
0 
0 
0.01732794733408064 
0.0356528791431131 
0 
0 
-3.469446951953614e-18 
-0.371055858428431 
0.001789085748012912 
0.03080102596845722 
0.1625468397137595 
0 
-0.03129226960820297 
0.6398518809491828 
0 
0.000289005116241604 
0.009325450858536409 
0.01093292034645308 
0.00112322180439988 
-0.02759653341384205 
-0.01584555872071099 
0 
0.02618287675979409 
0 
0 
0.2407409434748991 
0 
0.01878155131843837 
0.02662627593397136 
0 
0.03419214948228803 
0.02134527581269531 
0 
0.06308690303708742 
0.03844118207298442 
0 
0.04977171210908476 
0.02731276891083478 
0.01071625272277892 
0 
0 
0 
0.02614804992395649 
0 
0.003866597895681802 
0 
0.01935233761895611 
0.1067043958701519 
0.01728620054162203 
0 
0.03006772017309368 
0.01460557459776197 
0 
-0.2985321231445021 
0.04607794126550894 
0 
0.4782023929770545 
0 
0.01993011422744474 
0 
0 
0.02133795764988289 
0 
0 
0.1551485682367761 
0 
-0.1221540189853533 
0 
0 
0 
-0.01438229984288378 
0.1215291927009824 
0.05276644192810844 
0.06490186672892752 
0 
0 
0 
0.08264052003502527 
0.05132545367840282 
0.03220473044640636 
0 
0.00310354230552669 
0.003357723653250866 
0 
0.03707151064270304 
0.00642684866337303 
0.04525393460613428 
-0.03735343518953504 
0.02821930072804394 
0 
0 
-0.0349990592666946 
0.009016255414379806 
0 
0.01270821438608156 
-0.06689050562486097 
0 
-0.005425679974697527 
0 
0.6299304223830449 
0.07432190418212724 
0.05692554708660947 
0 
0.05931503573972903 
0 
-0.1371535063774455 
-0.4253560397334766 
-0.03238165490358833 
0.1939881835091394 
0.04325937220140662 
0.004561022105025942 
0.05243179669438126 
0 
0.2045269145675204 
0.009201447752306028 
0.02688726555374516 
0 
0 
0 
0 
0 
-0.02342530463716988 
-0.18794834876071 
0.01756026784369161 
0.100346490832975 
0 
0.1980147742453102 
0.04729852946916539 
0 
0.04196792047578093 
0.03019881498313934 
0.0123241020970037 
0 
0.003647561719416342 
0 
-0.1297503923461572 
0.2205200077283061 
0.01888198349629586 
0 
0.2835509462035475 
0.005459217296250078 
0.007008207939563008 
0.02124669790196563 
0.09540850196431395 
-0.004752788082933994 
0 
0 
0.06128319119459579 
0 
-0.02964082053273193 
-0.009726295811149409 
0.007047271491951999 
0 
0 
0.01199807442529608 
0.0008518857602328795 
-0.07935454465241773 
0.0479798688838574 
0 
0 
0.4523351665376049 
0 
0.1403497438432729 
-0.3296084538792278 
-0.09989722880040655 
0 
0 
0.01536449152049325 
0.003627574332663247 
-0.004814271157533771 
0 
0 
0.05943483085290146 
0 
-0.01330917393129063 
-0.003368775375518912 
0.03846769594999122 
0.004415596848900302 
0.003526269713330415 
0 
0 
-0.0006271272388719933 
0 
-0.1176414279207153 
0.0612017772901168 
-0.002946223302354297 
0.01397163637567853 
-0.0123263748003084 
-0.09539068471351615 
-0.001685409767881965 
0.07272145639246534 
0 
0 
0.0161911335623228 
0.01175800386284775 
-5.421010862427522e-20 
0 
-0.0290553312990349 
0 
0 
-0.003739879824008318 
0 
0 
0.003123685853974977 
0 
-0.03344238525110155 
0.008086319845194328 
0.1387185146568796 
0.03131906643692507 
0.009561652123458905 
0 
0.3226827588314047 
0 
0.01054750110628111 
0.06137428541583764 
0.1470037581022597 
