solver_type L2R_L2LOSS_SVC_DUAL
nr_class 2
label 0 1
nr_feature 5000
bias -1
w
-0.2808767596939201 
-0.3084589275876906 
-0.007792018490501772 
-0.6327516937755335 
-0.5609998137547048 
-0.3294596939842278 
-0.2148602807023927 
0 
-0.1123526100110864 
-0.4229126205811907 
-0.1951474892200154 
-0.06757459846097359 
-0.2605267291050294 
-0.2735823879923232 
-0.2617576249848722 
-0.456730622947341 
-0.5130066279109853 
-0.2736459210939939 
0 
-0.5895866600691245 
0.2313952040915756 
-0.2915237986342176 
0.06397452931135479 
0.06326912882846016 
-0.1126768787188834 
-0.3168442447327069 
-0.3892211671272208 
-0.7614692082578415 
0.01389824111216338 
-0.05415041520397718 
0.007371815340762058 
-0.06420632566562749 
0.489825527630937 
-0.152640059717428 
0.009819290569945937 
-0.02118819710262242 
-0.03532394014175216 
0.1090480569667948 
-0.1758560568845135 
-0.06268452092783242 
0 
-0.1959725515057908 
-0.5018883363918077 
-0.01130036607687761 
-0.4358148799918025 
-0.131203601786969 
-0.004395714567771826 
-0.1323635123548382 
-0.0889004950534162 
0.7920319880106813 
-0.2077761628028922 
0.07308522156974122 
-0.004525152712430945 
-0.09271573480975036 
-0.2563160476592073 
-0.1273479745053505 
-0.3195057641739974 
-0.189394225257014 
-0.05765084012787778 
-0.1333795095363102 
-0.07524936697833276 
-0.1300142343560068 
-0.0328431876562785 
-0.001370128592242914 
-0.2985393302026906 
-0.4328662970172744 
-0.05816194249174212 
0.5390014752098002 
0.134361768058507 
-0.3218635429408125 
-0.5450038008470609 
-0.6879862747036503 
-0.306953662495757 
-0.01349535115595855 
0.2469354042635934 
0.103721109859238 
-1.039246108533171 
0.02442210712078301 
0.2002442594855529 
-0.04149203126015932 
-0.3353797110500874 
-0.1850542372643445 
-0.2678584975149294 
0.3270298922847752 
-0.3726688565196418 
0.03029158025404672 
-0.6312709529172669 
0.3973079566309252 
-0.579000247245381 
-0.2806515221369182 
0 
-0.4536064779423897 
-0.04778551192285124 
-0.9694419002508141 
-0.136843367307811 
-0.2294195196403912 
-0.03068016006398784 
-0.1506611211918152 
0.4257474467965136 
-0.263744613564065 
-0.001307979532467634 
-0.2240338384292234 
-0.1957010221283526 
0.02613264452221125 
-0.2767018306615989 
-0.2737034524604359 
0.0289921066269588 
-0.04249782303922478 
-0.03446798436823063 
-0.1420115340883392 
-0.1383203048880033 
-0.340141727523433 
-0.0798507676845492 
-0.1216913163223193 
-0.2600497212603845 
-0.04620005852782722 
-0.1067582385433231 
0.03378202531085141 
0.312938968293366 
-0.08715072226166823 
0.03535832550000494 
-0.2109342624180596 
-0.01061391210074355 
-0.05644587582270483 
-0.2544736898736202 
-0.02163611393360522 
-0.06690068999553839 
-0.01250205230688841 
0.02215261146368592 
-0.07224164233467964 
-0.05851518187479642 
-0.008444394495332196 
-0.1333352971474956 
-0.1635208002454431 
-0.2164314809898396 
-0.3636487360960343 
0.03457105401618076 
0.6987117118821251 
-0.03724053618614147 
-0.1227518913123169 
-0.04171374103550189 
-0.00132678308224539 
-0.1375737806262144 
-0.1829885510051841 
0.03391640398219554 
-0.02598351190458243 
-0.08090459316251288 
-0.1812663725780134 
-0.330416805691827 
-0.2427031107211763 
-0.07628002146782217 
-0.04952631271295264 
-0.01835163210781375 
0.2172347692988018 
0.007722103038209968 
-0.1923989692437418 
-0.03719017334320773 
0.1518205787172345 
-0.1370778538689077 
0 
-0.2175603543870719 
0.1815334396101933 
-0.2357177080838327 
-0.3087376055886819 
0.02096357579256691 
0.02964726474051246 
-0.05246925932858454 
0 
-0.07157282497688243 
0.1418420713214926 
0.6468817379068933 
-0.07203115307901482 
0.1048187193484039 
0.176642084323258 
0.01985141104432312 
-0.7747316044686158 
0.222861764060803 
0.1756375186601813 
0.02855883506131166 
-0.7816306754782966 
-0.3642592150377661 
0.007092773916009522 
-0.006694657980959653 
-0.03738591597296301 
-0.1011909057232563 
-0.007965027439775956 
0.1918102730659873 
0.05355660814644923 
-0.09563006696529271 
-0.1317472255915962 
0.490395570949805 
1.231568819574 
-0.2229844872013356 
-0.02046735283250959 
-0.1219855475949438 
-0.07915100793976698 
-0.4458455540025555 
0.3020183747712056 
-0.2440208897306757 
-0.08328989522650262 
-0.02312259036772037 
-0.589092183200646 
0 
-0.01890016117704455 
-0.01763698583925281 
-0.3457153400110903 
-0.002848131189261985 
-0.0703051184527063 
-0.02836617666427794 
0.4371600094876653 
-0.2047221224593018 
-0.0201078405957306 
0.03354043089919963 
-0.1355691220788475 
0.1400087119988747 
0.02407401754638392 
0.2411535001882601 
-0.2098588352844296 
-0.1185970934681312 
-0.3016373665026122 
-0.2212270048862117 
-0.2100941253289159 
-0.1986308389882315 
0 
0 
-0.06752323055290463 
-0.0267771302955228 
-0.2370188528458682 
0.09020569610425513 
-0.1981435017597163 
0.02204075836491734 
-0.3568013885379057 
-0.06220567500734559 
0.2118393119337034 
-0.7507944983518032 
-0.09658787131460204 
0.00586052237102935 
0.1921856896523146 
-0.04284260347095804 
-0.02674405894866408 
-0.02414091764699327 
0.01080191482708513 
-0.02955784522487648 
0.007906486504516868 
0.04114174422961211 
-0.04599663658909604 
-0.05050664730214771 
-0.2359491342450544 
0.07547936838621863 
0.001001158635759158 
0.5243442071754865 
-0.08282604214909009 
0.03462111013336708 
-0.752059285681745 
0.2908891508752437 
0 
-0.05258937478885066 
-0.3432206008830428 
0.01647483526448747 
-0.259491414594033 
-0.0008677859064319466 
-0.04643123099572146 
-0.1130167867355422 
-0.07530923248172001 
0.02915900028719413 
-0.1052572599157733 
4.336808689942018e-19 
0.2640747126538874 
-0.008545702706209494 
-0.210349257161896 
-0.4938708385420268 
0.01004520493963343 
0 
0 
0.004954646972066792 
-0.2391612682910738 
-0.01451917884514569 
0.03424414780298616 
-0.0828269228455781 
-0.3188683949873652 
-0.3088461567328891 
8.893845946170154e-21 
-0.6273497422585556 
0.5287556342381087 
-0.4534322859446642 
0.4807452533165608 
-0.01140500368124603 
-0.02009333987906112 
-0.1684633364598851 
-0.02856547643343642 
-0.303919793051824 
-0.3012292913966397 
0 
0.00570587843730854 
-0.006319073034096699 
-0.07296449886457929 
-0.006311786952575225 
0 
0.01728912950550632 
-0.03917581255986334 
0 
0.08120870602977237 
-0.08452354643107088 
0.07779824753183626 
0.002321779166385935 
-0.1419239452967582 
-0.2072253604439986 
-0.6999535034061116 
0.1262223667370941 
-0.1131168476539332 
0 
-0.1730916479692724 
0.06124623155631178 
-1.171176852294952 
-0.05169498058276881 
-0.2772309404328809 
-0.4771692258151328 
-0.6024003431080147 
0.4864403035091897 
-0.3334205149142979 
0.02596502554848581 
-0.08920118647026483 
0.02923450132834213 
0.08487632532123801 
0.05318259587259588 
0.6062014776214584 
0.1077258453637972 
0.9186589706562424 
0 
-0.03070883692694108 
-0.1283482458209329 
-0.3509240801344634 
0.0419831637608605 
0.1729587361786592 
-0.03875730074865791 
-0.03104716702862486 
-0.03437750627443505 
0 
-0.1646424013837089 
-0.1576110338572093 
0 
-0.672299497909645 
-0.1487291500438868 
0.1794795772674843 
-0.0007127332250112697 
-0.1519920040636733 
-0.5343021544866378 
-0.05771352730469722 
-0.04930777746503337 
-0.1889275953331316 
-0.103084186277342 
0.08568466070808592 
-0.05570039333314564 
-0.03825402643225884 
0.0263753493584279 
-0.007738229929008842 
-0.03503468048738774 
-0.6977837403784998 
-0.008212607809829107 
-0.2682913071388802 
-0.2801654299718469 
-0.02183743731744517 
-0.03367846750543029 
0.04896552431814032 
0 
0.06396899212578883 
-0.08599227194334559 
-0.04296683968333558 
0.005323218669209579 
-0.08262166015185324 
-0.1958462258454305 
0.007854738155522463 
-0.1762446447791765 
-0.01832937444632134 
-0.3155109359328893 
-0.08208131793700137 
-0.08756022995777403 
-0.0347070299264674 
0.0253708182661005 
0.1505828405197482 
-0.2992544204823019 
-0.0133274394763323 
-0.08358837563950772 
0.02728891418496506 
0.2199553223402687 
-0.1124923061800196 
-0.1249905161269871 
0.04266650308672409 
-0.1164006562811602 
-0.9019601111561196 
-0.09191918461427104 
0 
0.006770901429396137 
0.0715750524988589 
0.1162020036819094 
0.4230771489467505 
-0.003992901369650496 
-0.003462048961311541 
-0.001997787135312018 
0.01685508932681079 
-0.01991943230562711 
0.7233264785324514 
0.01952318948283974 
-0.3275144598543441 
-0.1009162915673488 
-0.6097134838802264 
-0.1966027566681869 
-0.008168395855817178 
-0.2500800562849213 
0.02526786802074378 
0.08669864275329557 
-0.6606644772012885 
0.09911138133756989 
-0.07270206130801365 
-0.6073944418808004 
0.2101747715078865 
-0.1344990184512341 
-0.05362895481686418 
-0.06281169207873963 
0.30218270220877 
-0.2126449027297929 
-0.3843485368198283 
-0.005441075356993254 
0.02945896398499576 
0.1534662087723682 
-0.2425833657009769 
0.01026209680807533 
0.04562315338292992 
0.008298255686040297 
0.121846134127621 
-0.2155676160065172 
-0.8000637632633149 
-0.1941187628359247 
-0.07068080462938045 
-0.09273664904566782 
0.0715918895488129 
0.247485277656069 
-0.01196577198188196 
-0.04954669591689224 
0.2065022452047856 
-0.07396069180449286 
0.1034313990396721 
-0.2490681498187648 
0.002066121723765144 
0.01016998112853045 
0.5260539941044984 
-0.02767849483818614 
-0.2120940211421933 
0.6380005503107272 
0 
0.1732675717665854 
0 
0 
-0.2666767781102812 
0.6367512544703287 
-0.07462325497543698 
-0.02503583986371513 
-0.009877944359285141 
-0.4575144547267863 
-0.04515672056731408 
0.01359760322189976 
-0.02800621672395339 
0.02754287232331815 
0.2780664671005954 
-0.008297576789061272 
-0.8507805924404167 
-0.02605474122555467 
-0.1318301242172306 
-0.1839723989441784 
-0.2383568362230401 
-0.426792973450557 
0 
-0.009711287930759597 
-0.002919203699825708 
-0.07287951186824848 
-0.005823068900642229 
0.00338950730220557 
0.2616983183584243 
0.004291254225540943 
0.03975922807790632 
0 
0.2652896675664715 
0.3027359459046906 
0.02001446523925843 
-0.05889250258455687 
0.3535759878706963 
0 
-0.1335395567802398 
-0.003415084804726052 
0.1379275431497956 
0.5935785403967591 
-0.4604468643624108 
-0.01811771084330092 
-0.05167156936840393 
0 
0.04661592941939648 
0.09076777983772043 
-0.03862803529525467 
0.01799880626561644 
-0.02756903432921164 
-0.06728899449874491 
0 
-0.2026449964648047 
-0.01997441455757082 
0.02953506404908212 
-0.05233484004514465 
0.1767514821768766 
-0.08392544281423232 
0.02126546655732448 
0.01833294508556178 
0.04802563980290622 
-0.02008388186773179 
0 
-0.3666375613896212 
-0.01319344215912486 
0.1284262481525829 
-0.6911936883908557 
-0.03310456203906105 
0.1790943604032947 
0.01594186689212151 
-0.1846200950179023 
-0.0198102689558257 
-0.1359938750974769 
0 
-0.3258624467884852 
0.02690507357671179 
-0.05650229639763048 
-0.09107283265098561 
-0.04253692881656138 
-0.2546226088241712 
0.04246350749724756 
0.02217777810813456 
0.03457175241948322 
-0.3928097358784079 
-0.187553929035066 
0.1411755951247085 
-0.01407298080793766 
0.1888816950411238 
-0.1422040054103362 
-0.01703547227882818 
-0.276388529587236 
0.329790059203125 
-0.2665625988858508 
0.01812252305578127 
-0.03401190796919432 
-0.02737265599144268 
0 
0.08538909304442613 
-0.4217634799890739 
-0.02877558279537118 
-0.4136159880353202 
0.4785970771058764 
0.1003348526987859 
-0.005852249915914718 
-0.005282322951478232 
0 
0.2037404482826955 
1.390627823934829 
-0.007985613567837837 
0.3110120097513518 
0 
0.004376679138579184 
0.05001679018818282 
-0.01413318651201462 
-0.1539722460952908 
0.04563365986804103 
-0.1852244937348423 
0.09037163106997809 
0.0318590028318765 
-0.04723734730890947 
-0.0229197851336016 
0 
-0.01602131100935308 
-0.504021094943916 
0 
0 
-0.02412480430775411 
0.001833984101572594 
0.08442849278786652 
0 
0.03909363210546423 
0.05086004533067785 
-0.03014743187312753 
-0.02925205245660691 
1.084202172485504e-19 
0.3864849841863154 
0 
-0.2350054294140652 
-0.2189297109014404 
0.03022208834093549 
-0.06029364124723945 
0.02057763256370152 
-0.04909778395752257 
0.1826360827643032 
0 
-0.009696853420476843 
-0.2207991357558118 
-0.1578405602647709 
0.1562253482859331 
-0.06311351787067727 
-0.02110856218811998 
-0.06259170963201247 
-0.3430543545074002 
0.09527688680581635 
0.01993657684463084 
-0.0176796180030111 
0.1705697425572241 
-0.1265532793246274 
0.19624689573636 
0.2041853232148045 
-0.01291606683211849 
-0.03875789040383455 
-0.4321867346778286 
-0.01292339277608253 
0.09918072022635832 
-0.00604644837923858 
-0.4680855350951498 
-0.002054417760834619 
0.1872616369188243 
-0.004514481480198227 
-0.1124542979491905 
0 
-0.0786706852651347 
-0.09445440175340097 
-0.002769319278034807 
0.1187512739941006 
0.3710069920068988 
-0.03449758428894045 
0.951874716595519 
-0.08150164781633257 
-0.005187202595705386 
-0.02986935386961267 
0.08135293281777926 
0.01654409211495956 
-0.02545718287357885 
-0.09131314514662654 
-0.1063679077931541 
0.1431832202687678 
-0.02327724199458663 
-0.003803978167925611 
0.06655475740238841 
0.07070815651536283 
0 
0.1083324016703446 
-0.02210485068567555 
-0.02291087452314761 
0.2468295770471959 
-0.008435864657589076 
0.799771371680676 
-0.002962209116436122 
-0.1242858129053038 
0.1250336143906903 
0 
0.06053768968984564 
0.519315960563474 
-0.09709008238468202 
0.0140688015729402 
-0.06492794857003882 
-0.01090880187266337 
0.1550727878199694 
0.08437288674380274 
-0.8520323702751817 
-0.2246838907000225 
0.01794985710820733 
0.01795779183819279 
-0.005450737915502214 
-0.4661094684700303 
0 
0.2736944688892515 
0 
0 
0.002021725598784212 
0.1175191084832019 
0.2681909261696316 
-0.1152001338334131 
0.1699678925852665 
-0.01984808717769904 
0.08138986409817685 
0.03354651279608444 
0.5182343785853714 
0.01549411645070281 
0.04933231154704892 
-0.06889873182797669 
0.1338624316746999 
-0.1767288715801861 
-0.06633299886066378 
0.08361462989157989 
0 
-0.2579416411007777 
0.03513796713527988 
-0.1087412684523706 
-0.005395832930591891 
-0.03206489182308347 
0.01284900793355386 
0 
0.02410127334290597 
0.1996158234592148 
-0.08942906284921491 
-0.01910587340088309 
0 
0.03938066504608865 
-0.03216473847445871 
-0.1412992127098395 
0.01139899831417301 
0 
0 
-0.0006819083249788257 
-0.1132319560189573 
-0.008100171937648885 
-0.02659269751270493 
0.005048045485380301 
-0.07281467851947683 
-0.09609172536297964 
0.09891946306860483 
-0.01382415588275663 
-0.1479380071003217 
0.2430115025299114 
0.3027634014012489 
0.04471108713807571 
-0.1371589115651307 
0.1608834812264663 
0 
0.2697488391016623 
-0.002235347359851228 
0 
-0.01544184759654033 
0.3210838069839714 
-0.2796729372641154 
-0.2016491702115017 
0.07643495422902925 
-0.4111551904066903 
-0.2122006198108075 
0.02340947556480893 
-0.03374739426401647 
-0.1149622231431314 
-0.2467585185576628 
-0.4507142564800095 
0 
0 
-0.02182457913639459 
0.02024916188703068 
0.0300807333359522 
0 
-0.02124895724790673 
-0.08667091223222895 
0 
0 
0.1742378561958343 
0.01151857066895229 
0.04354175546763805 
0 
-0.01281275735234108 
-0.007611153506461451 
-0.4946070506832406 
-0.03895409454697637 
-0.5079038531742455 
-0.02881008002591529 
-0.009180494898514364 
0.008402250549139291 
-0.02828582521210168 
-0.06181389913503904 
0.388874578089248 
0.2902889915277999 
-0.1150689164109625 
-0.005604235284834972 
-0.09042495269228064 
-0.07902517857340058 
-0.3194989387664913 
0 
-0.06649995068151662 
0 
0.1156824158300931 
-0.08687196544328785 
0.1276281183026285 
-0.08066197002245115 
0 
-0.1038211477900109 
0.01770635058435729 
-0.02949950284374751 
0.0494659768899731 
-0.03332433298539279 
0.05984775122832577 
0.4894757626359855 
-0.08973025008742241 
0.2132727692809407 
0.6758273874117126 
0.2512170027601086 
-0.03570926090897474 
0 
0.278778294562784 
0.01379443081482845 
0 
0 
0.01423765793113181 
0.1956508990839964 
0.1192789639863425 
0 
-0.05764844794545956 
0 
0.02425240388500256 
-0.1643441116195677 
0.00217999125306218 
0 
0.06764089476645528 
-0.03844072897517036 
-0.01464367225928259 
0.1076009528082112 
0.407845180694593 
0 
0.005191063138717039 
-0.03328952661969238 
-0.03625647698776408 
0.4275224902663594 
-0.0416636501688818 
0 
0 
-0.2664887169097148 
0.03318634686612196 
-0.04771726444242907 
-0.002005384376678401 
0 
0.2956707568029822 
-0.01737938774386748 
0.02904454241179804 
-0.4445711833970731 
-0.3125834483686705 
0 
0.004067680324324923 
0.09468611803037107 
0 
-0.0003100220113079174 
-0.04136337416044442 
-0.03438763769457118 
-0.08992619649578289 
-0.03961453889690753 
-0.124966363358375 
0 
-0.3006333341346203 
-0.003157701875368431 
0.002431576735433331 
0.2349544259739804 
-0.1402386578814694 
-0.07205599263675193 
0.01042612804778443 
0.03062369630179546 
0.06955475804395217 
-0.06652963174194665 
0.004625642682157778 
0.7052836656647445 
-0.03607776739130028 
0.01179198152565816 
0 
-0.1787925581251143 
0.04332176989816205 
-0.08342459358507209 
-0.09774583676697637 
-0.007383837989525906 
0.3098661396943006 
-0.0001702717681784207 
-0.05308796739125975 
0.1852263704876213 
-0.03661109532957205 
-0.002746173457474502 
0 
0.1347857033868301 
0.003307281054138267 
-0.03856091009407798 
-0.2143863817412403 
-0.1197334676682747 
-0.03198983478591082 
0.02765831344092467 
0 
-0.1058309816702757 
-0.3513986155429623 
-0.01996155525682155 
0.01894655347356019 
-0.1636793624719082 
-0.1624774392075294 
0.005727439215843608 
-0.03683991305467845 
0.04329404212973361 
-0.09890899800080415 
0.09350637951618249 
-0.08652408908640316 
0.09916885471245199 
-0.09174881087217504 
0.1492837960944593 
-0.04898154260462025 
-0.3825214163638827 
0.05600045131121607 
0 
-0.118881021967501 
-0.2218307768556907 
-0.04943435141883565 
-0.01056477807060278 
-0.1920917423176261 
-0.03804188107907223 
-0.02479561851181588 
-0.006045153691186973 
0 
-0.01511942775468516 
-0.4604928656590823 
-0.02908291265026798 
-0.2821934940951574 
0.04539755674945463 
-0.0165774949928724 
-0.0950144261880248 
0.2360432256692079 
0.03178914629379143 
0.01146770885647014 
0.1476401443102469 
0 
-0.001544649412753306 
0.001754788276459236 
0.01390682169366698 
0.01027971367621118 
0.05189932790085785 
-0.2579484783960096 
0.3523197932172607 
0.002565835505816857 
-0.003929538277597078 
-0.04749249729342012 
-0.05144717038192845 
-0.04822200543400069 
-0.215859706053838 
0.05879656726258554 
-0.06254178661916654 
0.01310273309296522 
0.006305189403890414 
-0.2577952613081243 
0.03029998408546121 
-8.673617379884035e-19 
0.07770539613949133 
-0.0450495475482012 
0.02995871154166617 
-0.1420860429655478 
0.003497045395172998 
-1.275268652317602 
0 
0 
-0.09521036521371518 
-0.01616268745061302 
-0.02630331903629095 
-0.05439793316162087 
-0.2731173309630796 
-0.00664131260556437 
-0.02327302554581832 
0.05459974019565848 
0.1237117747703772 
0.02979958108766673 
0.04056141811510207 
0 
0 
0.004582467228188922 
0.005551929110707662 
-0.0717734621652963 
0.006267832317494148 
0.01753888277206338 
0 
0.09650413063101258 
-0.02489721361437271 
-0.2142552136847896 
-0.2864364474692131 
-0.03381736713751712 
0.01185842699290162 
0.1516079935296535 
0 
-0.00772805823972591 
0.07395449320885915 
-0.002656545358003224 
-5.421010862427522e-19 
0 
-0.3964115135311498 
0.006779643813349635 
-0.007905605286251758 
0.05352696743209664 
0.107470235095292 
-0.0009674188015017198 
-0.03488021953495195 
0.1548007410319249 
-0.02151838665286686 
0.02879875625705467 
0.3121606734318937 
0.08372294261965239 
-0.01845093550332479 
-0.04275078720537062 
-0.03028550114063406 
-0.1174414555203446 
0.04651555561714033 
0 
-0.1112507955605015 
0 
-0.1069842999872841 
-0.009607690910031384 
0 
0.0716317790290454 
-0.26837763269335 
0.09538003517200713 
-0.02427603633223711 
0.06054221582255705 
0 
0.03953308225004952 
-0.02878320959844395 
0.3718935593821005 
0.01424636776869078 
-0.02925519994280072 
-0.5803958720679556 
0.3888045818496667 
0.0107818863003559 
-0.2505885419503274 
-0.03950680920802623 
0.1158963520405721 
0.0792805099741324 
0 
0 
-0.02512413636453438 
-0.02751410348564685 
-0.1293740541397259 
0 
0.07042419746206788 
-0.06469218768187901 
-0.0295933315973528 
-0.1590664769190881 
-0.4603727852446589 
0.01271766085501727 
-0.03874799993278502 
0.1740238961584985 
0.03953841584420893 
-0.3564127060540558 
-0.003189221857208744 
-0.03812240009918948 
-0.01769631523450431 
0.08218944828970486 
-0.00362019526651226 
7.47623282150894e-05 
-0.04281641187188998 
-0.03316527965324981 
0.1261264266807523 
-0.0003334373321615843 
0.004126029577859631 
0.09668431551699599 
0.03957515193383771 
0.2458389519645632 
2.804135702195925e-05 
-0.006978566766351455 
0.0302147228185018 
0.002751248308121005 
0.003489870977191699 
0.004745000132028847 
-0.08312507521977773 
-0.0311522346184013 
-0.06634951886294922 
-0.2974162098144658 
-0.2944187336046839 
0.05489133444194941 
-0.06294208503257714 
0.2810423339928388 
-0.50839811699355 
0.0003201835296358099 
-0.01849536481860919 
-0.02208206643812267 
0.8736798476642321 
0.1554251943290111 
0 
0 
0.1476137761374578 
-0.5025688280334144 
0 
-0.2146465663983627 
0.06856137806506146 
-0.08114291801341642 
-0.05323175199916802 
-0.1199105276770261 
0 
-0.2076180000114375 
0.002904206646214791 
-0.1789967475494086 
0.3818438747966807 
0.07188792555746575 
-0.01933205734586019 
-0.07159944181947631 
0.2269056724386997 
0.4465611656788793 
0.08622605626498159 
0.6364246199412409 
0 
0 
0 
-0.188044553912128 
-0.1192118121762936 
0.1111862656262108 
0 
0.2273702514800009 
-0.06810774350229583 
-0.1420601612584246 
0.07302557879496645 
0.04887787614877698 
0 
-0.06956502197512703 
0.0001655727893724488 
0 
-0.0493952114544571 
6.850893646351714e-05 
-0.01006515949919878 
0 
0.03492033554154515 
0.003548890888948885 
-0.4961022987824494 
-0.0319743330362689 
-0.01855953491176565 
0.1903358659399461 
-0.04725406694637979 
0.07253225843903417 
0.008621221908234854 
-0.003631674811894174 
0.1569223069835002 
0 
0 
-0.09124029088542052 
-0.00266538213569021 
-0.01970402202808794 
-0.431749387950128 
-0.04577285092971461 
0.2599583709059664 
-0.00325133756765494 
0.04128129398654736 
0.05735107992071983 
0 
-0.001713741634914165 
-0.01663334551546479 
0 
0.08533740895243601 
-0.1241275053330732 
-0.002953089386118429 
0 
0 
0 
0.1251360860870266 
0 
0 
-0.1251382203275941 
0.001867711437041866 
-0.04397002494109456 
-0.08153567501302232 
-0.248757774558271 
0.5174843748547611 
0.00924667607835182 
0.04970830017000127 
-0.3884246769496512 
0 
0.009388016989465833 
0.7641977228502138 
-0.04919695751010358 
-0.01577529172646473 
0.3308798523803913 
-0.06297524592975751 
-0.07785433210319823 
0 
0.001972311405635843 
-0.01456972364312627 
-0.003943798303185571 
-0.1458459035459692 
0.009930865461638256 
0.4977285348163274 
0.01474382677693339 
-0.1205728478457435 
-0.02048203064901291 
0.04141687109710807 
0 
0.2386717139677539 
-0.05355477791461258 
0 
0 
-0.1701044693107971 
0 
-0.1758953582841803 
-0.05062384249022672 
-0.05454109787250254 
0.1510520722595516 
0 
0.08772074212632157 
0 
-0.2389065679800168 
0.03064456316668353 
-0.05274202244704165 
-0.02769653809419253 
0 
0.0276367649237818 
-0.03788633973690616 
-0.001477383548751428 
0 
0.1196055998086049 
0.1482265082793479 
0.5851380186528443 
-0.4757672049895364 
0 
0.02095173748663503 
0.07514257398658007 
-0.02599719897286584 
-0.1115967921676651 
-0.04029705411691671 
0.1568350645796264 
-0.02430194743401989 
-0.04190022537497472 
-0.03319042543551726 
-0.2763213553900091 
-0.002192344439403635 
0.3809876199761004 
-0.03011797634017899 
0.004814683726910087 
0.2495015007093717 
0.0593329307768303 
-0.04097283997914769 
-0.09256774119776558 
-0.1048844046795107 
0.1829857465185158 
0 
-0.07251113675276012 
-0.02021086434687608 
-0.1069461311024145 
-0.01622225466015764 
-0.004919353135554348 
-0.07857208321694513 
0 
-0.1472477143310383 
-0.2298994110455204 
-0.08261971306813226 
-0.00596982769542342 
0.07925398686192633 
0.003115693199746847 
0.1086275015500547 
-0.03037965738535776 
-0.2469250987826093 
-0.01590774389512727 
0 
0.3877144663099584 
0.02021817590259465 
0.2601139399725874 
-0.1192231655134388 
0.008774981567204666 
0.08336170351005326 
0.01077673452737323 
-0.01349013807710696 
0.09098292473840172 
0.05400586694839378 
0 
0 
0 
0 
0 
0 
-0.1073207982376196 
-0.01845784481965882 
0.2830566525445132 
-0.05014217872219585 
0 
0.01730981263546117 
0 
-0.2478130932076068 
0.08032637054366681 
0 
-0.0005519272916543592 
0.2880374098478273 
-0.00557987521939218 
-0.01757872281290803 
0 
-0.20900059453489 
-0.1018940954521448 
0.1547586395637703 
0.5467825509246705 
0.05337991555908214 
-0.03721956151840698 
0.002604255385097177 
0.02244997268916467 
0.008454737257071614 
0 
0.02583619789092928 
0.02963549194393153 
-0.3578970963945655 
0.06175343072460661 
-0.1011791995111369 
0.01324637191582733 
0 
0 
0.01735614559637915 
0.2281838592316615 
-0.1748400400037713 
-0.01226926677468448 
0.09200348290024801 
-0.01633200761380486 
0.0128601190326839 
-0.01171441190383769 
-0.02752997053303366 
-0.02856187624826572 
1.257396796468523 
-0.06960625861622731 
-0.06249772623663426 
0.08045424336160634 
0.1209215991567859 
-0.005011756356088442 
0 
-8.470329472543003e-21 
0.04611603654873821 
0 
0.4767043418741452 
0.04318619283529124 
-0.1444314197693866 
-0.01678013207806991 
-0.03480029372377558 
0.2404321949319321 
-0.009293313247851997 
0 
0.05593238361733568 
0 
0.1669213489684417 
-0.01559932111852227 
0.290548701959768 
0 
-0.3131809058442592 
-0.02260536863782396 
0.3254427319294779 
-0.04505374056294525 
0 
0.4450987615954057 
-0.02887740394476902 
-0.006922214896606301 
0 
0 
0 
0.09557537619225701 
-0.03366569708279908 
-0.01513469542993361 
-0.04996325356773088 
0 
-0.09930965095177981 
0.08826377947049578 
-0.01374646633289717 
0.06756463057662179 
0.04091691246296288 
-0.008603975515306391 
0.009782837009124577 
-0.2137701984763434 
0.01519989180337608 
0.04890006709605957 
0.07628427596648023 
0.03615551243404417 
-0.02803753055517964 
-0.01761575108448317 
0.04083918931895954 
0 
0.09299163835033478 
0.4616998498505195 
-0.1560868453642981 
0.04791690872228564 
-0.01688198073120761 
-0.1097091002538423 
9.691686303700951e-05 
0.02486408731521902 
0.165517568365888 
-0.01236474176698263 
-0.1351673111120608 
-0.01298305498529829 
0.5615983088663711 
-0.1152130746928063 
0 
-0.01703322622153402 
-0.07418144761427875 
-0.01318301914602225 
-0.05475729953121729 
-0.0006010808624869467 
-0.03273179091280563 
-0.0029814489225013 
-0.08969585918200566 
0.01192649146199866 
-0.1316453436801108 
0.3037518396197196 
0 
0 
0.01754041374602785 
-0.007068385453334281 
-0.03496824785632192 
-0.04325224679576293 
-0.05227234020150282 
-0.135639084242385 
0.006420981043304704 
-0.002921139539230456 
-0.1496821908859361 
-0.1175034374482113 
0.1072888254330746 
-0.01961807392499684 
0.297212601829151 
0.1243014830989875 
0 
-0.02359262779451227 
0.03062133750663364 
-0.0281053357846022 
0.08210274939322414 
-0.009729322906137117 
0.02169654926534525 
0.0644636406372313 
0.04954346703396256 
0.04599295027440487 
-0.07345850316296831 
0 
0.0218840856564906 
-0.001318532979853426 
0 
-0.0726650211464453 
0.1142605249760665 
0.2222774186977726 
0.01316728360859209 
0.09793375423218004 
0.002466640448209001 
0.01431502596170181 
-0.1193985068209717 
-0.1325589450585332 
0.2826282376372135 
-0.7641209474677585 
0.02066370093659307 
0.003626273773171781 
0 
0 
-0.07546968386492095 
-0.0680179419371069 
0 
0 
0.01549992089219103 
-0.1412383833320787 
0.03268100492263099 
0.1136294195119109 
0.006783031118147271 
0.01697428917825449 
-0.111830880854387 
-0.3032721523258724 
0 
-0.02120957445065655 
0.08081833279401494 
-0.1012434899473045 
-0.08334189611417529 
-0.06872302253030667 
0.02213646579263397 
0 
0.003832588424094333 
-0.1725208381995657 
0.3900574723582707 
0 
0.04936236979059413 
0.4122105707943297 
-0.0193377161395411 
-0.01048208247950741 
-0.002287805971807644 
-0.02853145467152333 
0.1987938352015598 
-0.125235738089484 
0 
-0.00618746933903638 
0.1207131494335779 
-0.007502997280814427 
0.03941071331839387 
0.1495246672167509 
-0.02049742803430235 
0.01139523555984773 
-0.2225336133956549 
-0.02510877653124451 
0.02748220885855744 
-0.05831387252953231 
-0.03729879070430443 
-0.006554432752493172 
0.06155681316783393 
0.006278544319663886 
0.1153214114826764 
-0.2470761050024241 
0 
0 
-0.01215510830606096 
0.01425326800823538 
0 
-0.1522234101028742 
-0.0195344187233513 
0 
-0.01966346393036564 
0.01543642073003309 
-0.002420856759146799 
-0.006683994619255804 
-0.01642722425431092 
0 
0.006845768849289997 
-0.07285559603624484 
0 
-0.003974893036368226 
-0.07334255471698296 
-0.01429658683404753 
0.09247451435044089 
0.03524885245086285 
-0.00356580230409621 
-0.01389554831885336 
0 
0.0104088948818796 
0.01854242537546955 
-0.04466842466260109 
0.004692138483596733 
0 
-0.0701005604241364 
0 
-0.03439968616313172 
-0.03202503070795596 
0.1189777654684132 
-0.2067202064264145 
0.1113824110108447 
-0.3729810171438506 
0 
-0.03678304090127767 
0.2125337118875569 
-0.008057389117563395 
-0.06604602498168302 
0.01079760175092385 
-5.421010862427522e-20 
0 
0 
0 
-0.1009274057336819 
0.1203710003346952 
0.01350003329669325 
-0.000514963099919342 
-0.07017887566362101 
0 
0.03270221872807241 
0.04691420451115143 
-0.948877526224908 
-0.02040258595305103 
0 
-0.01971006809720613 
0.09977595923651127 
0 
0.09075468733862824 
-0.007836070930164954 
-0.06037370277683515 
0 
-0.06875761164056082 
0.002686256004527527 
0.2984163459113794 
-0.01052047249594827 
0 
-0.3833291453160173 
0 
0 
-0.04476286346246273 
-0.02339352616337454 
0 
0.03583031733757868 
0 
0.02181399295644763 
0.05143801182041673 
0.03489061100106396 
0 
-0.1235145413773459 
-0.07894775157586223 
-0.0766850580347125 
0 
-0.1941925193607417 
0 
-0.1592816052529271 
-0.003787334410294594 
0 
-0.04403418710382266 
-0.02255775438407795 
-0.02022742736793764 
0.268794809513997 
0.0189712784655829 
-0.3322930977382705 
0.1627853996576803 
0 
0 
-0.05106145935213277 
0.1476712348810147 
0.2247782153377656 
0.1642537042032326 
0 
-0.2199596466959524 
0.02397147129260142 
-0.2462130967205729 
0.1407856681081365 
-0.0668540083734613 
-0.005006868737707705 
0.09364842117559954 
0.2021694950744551 
0.0659585394865356 
0.2235001484632214 
-0.1297628830087421 
-0.0845019684371323 
0 
-0.03620381345555252 
-0.03370355665693894 
-0.00430377137778986 
-0.1641097952478429 
-0.05194110400453755 
0.0279122875820724 
-0.1412809459890477 
0 
-0.005981813570787648 
-0.1269451090186393 
-0.2763345922483529 
1.124108259759777 
0.01435483970140775 
-0.006328531271571017 
-0.0059011656097612 
0.07815596488144241 
-0.1351884827793473 
-0.008386340153262752 
-0.03596743664414232 
-0.006407774846590937 
0.04902640047425923 
0 
-0.002022300784166645 
-0.02527974466881738 
0.2319526543213754 
-0.04111972137971812 
0 
0.2196303458638142 
-0.002319275941975074 
-0.05794494010925214 
-0.07933218023614234 
0 
0.07867295656858114 
-0.0246511703337442 
-0.03027742853059695 
-0.1222607576985373 
-0.0284944629805012 
-0.03025741281260301 
0.009677255435607083 
0.1380339719146323 
-0.06722703138485064 
0 
0.1729965009371091 
0.3230034753869824 
-2.918381131076432e-05 
0 
0.2213289426752154 
-0.6843000622605288 
0 
-0.03475915329595657 
0 
-0.0366924106803848 
-0.004462203911779213 
-0.5474253924707252 
-0.1509373232597506 
0.05180457911742647 
0.1182775479358295 
-0.5670777290339594 
-0.1047739918871198 
0.008112555660931785 
0 
0.283987552169301 
-0.2603493807593418 
-0.02884508719966964 
-0.00298553122324124 
-0.02357094534986058 
0 
0 
-0.0002627289327997267 
0 
-0.005020230657737617 
-0.06720103909466653 
0.222830860601494 
0 
0.05306532152790957 
0.1733150193175599 
0.03055571784199517 
0.00651520728140339 
0 
0.007423761756160358 
0.0306476399104909 
0 
-0.2030765771122112 
0.07090765061236373 
-0.127791895966202 
0.1082590686969056 
0 
0 
-0.05568365846002677 
-0.03076471626616793 
0.006797158658892928 
0.01817214398433087 
0.06809526009594676 
0.1492739162031585 
-0.323942756687223 
-0.05125386845967959 
-0.4966514061437305 
0 
0.1506266446852839 
-0.1765452275241254 
-0.0449533685089496 
0.3140048770858587 
0.03317171774037986 
0.08255540265657263 
0 
-0.04220900925095993 
0.1064271411932839 
0.09121074143095248 
0.03206916172717799 
-0.01428317177038508 
0.2353154231448569 
-0.03913982562958181 
0 
-0.04422533425128278 
0.005011940199968974 
-0.1417911634314281 
0 
0.3551285292366354 
0 
0 
0.3084417780032089 
-0.4034425803917063 
-0.07643486546453351 
-0.04963521995839283 
0.001784570224301377 
0 
-0.1035808763449542 
-0.01369473985240136 
0 
0.04509031159358426 
-0.09153375083505448 
0 
0 
0.05694357382027182 
0.1060929538484107 
0.07545760987565774 
0 
0.4748441343011296 
-0.01839861455387513 
-0.1019472608527546 
-0.002714749443634885 
0.1566332939419335 
0.1081425316871266 
0.1123745907144203 
-0.04018163118711852 
0.00179614004233776 
-0.04998268177497759 
-0.004426218742220625 
0.03565527419143472 
0.02633962523192678 
0 
-0.01479626069676898 
-0.2696982040028774 
0.09304522374836842 
-0.3876980515246702 
0.01123034178171107 
0.7554876408321337 
0.1615961320075022 
-0.009508232577732477 
0.04874613966547169 
-0.1404280877411015 
0.02706611616887059 
0.1897120967670759 
-0.2123536791532338 
0 
-0.02837221295932274 
-0.09523214453927087 
-0.04044366752779566 
0.0004817156566844409 
-0.155378965642242 
-0.07178199172112115 
-0.07320159646261061 
0 
0 
-0.04984460164871694 
-0.07926454702836289 
-0.002471189017879357 
-0.2285082483090626 
0.005705766637523649 
8.620489726124103e-05 
-0.004009998860559465 
0.1858693999001878 
0.1367290294709207 
0.003271082638411357 
-0.05412518979333177 
0.0950971372932807 
-0.05499511851135577 
0.1281120021718402 
-0.05789743052275719 
0 
0 
-0.4741528231750632 
-0.001705596948069947 
-0.02753572655898489 
0.01243698299813 
-0.0367312599676281 
-0.009015297886697162 
0.01834135354556859 
-0.1648079988831185 
0 
0.1202869174923332 
-0.132864387389628 
0.01303383218485275 
0 
0.01963805364942709 
0.08854440602210101 
-0.07458702267249942 
-0.02488612928235515 
0.01217949937899225 
0.4192277596287399 
0 
-2.710505431213761e-19 
0.02792336378470005 
0 
-0.01777863818270095 
0.009506030292445809 
0 
0 
-0.3136901891527034 
0.0597471955249864 
-0.1134068669261577 
-0.1615299752680076 
-0.1053977069822231 
0.04048642858506229 
-0.001624900222421789 
-0.05271257575912151 
0.02954161729727229 
0 
-0.2396102421358363 
0.01592620075334919 
-0.01254303756701833 
0.02196526497810926 
-0.002828205444698085 
0 
0 
-0.03023457891927923 
-0.03380272851670688 
0.1242619795276882 
-0.09323749435836652 
0.0354104353138827 
0.08390497906266126 
-0.01405735916449944 
0.1074897197639739 
0.4794452966986882 
-0.01268520358174127 
0 
0.3645544409751751 
-0.01786520334118086 
-0.009348727309099773 
-0.03567868398821734 
-0.07517283183885146 
0 
0.07357366468314876 
-0.368429413084775 
0 
0 
0 
-0.00412410106911906 
0 
0.00127070043641751 
-0.02603131099366254 
0 
0 
-0.1067105406057606 
-0.02250614293814062 
-0.08639060847164808 
-0.01303626759400199 
0.4288377969160363 
0.01180469923787072 
0.02913035504330641 
0.2860649294388293 
0.2009917218232515 
-0.4414065574056688 
-0.1514847482298358 
-0.3065001280565905 
-0.07667246351045846 
-0.03230422413951221 
0 
0.05811716435607292 
0.00601154558303812 
0 
0.3443296826547942 
0.004712165860918186 
0 
0 
0.02383469180873009 
0.001975003642563746 
0 
0 
0 
-0.1241247288544601 
-0.1065633733532462 
0.1136566927971348 
-0.178530087304018 
0.004223707069662276 
0.09405070977446468 
-0.008280238912305834 
0.1525882007679863 
-0.06152046475438532 
-0.006911078015352581 
0.1721418669209353 
-0.0140558903303989 
-0.003132975824562989 
-0.002381484201562846 
-0.1985908160732494 
0 
0 
0 
0.7402588978443625 
0.03228650317934881 
0.3925284758768292 
-0.004785929973254386 
0 
0 
0.03125861621131964 
-0.003863878288388628 
-0.04220539977990645 
0.1839972986270588 
0.125328329346835 
0.05632498522206538 
-0.05630016333559842 
-0.004945689893306512 
-0.2473383450746787 
-0.01114222155256185 
-0.006882050519311939 
0.4160788452247974 
0.003793478697911677 
0 
0.00510658205837904 
0 
0 
0.2260918801382606 
0 
-0.01068268687335805 
-0.01822809313517165 
0.1632253123406278 
0 
0.004693934775153854 
-0.009247066101600962 
-0.03502137759323328 
-0.009286836576504583 
0 
0.06035685271124154 
-0.1499018699033072 
-0.07681768853943538 
0.08881368153232097 
-0.02556245118695538 
-0.06431642955191913 
-0.01011575979642091 
-0.05906460781671413 
0.1549937434543341 
0.02445555709168715 
0.01962490423606952 
0.02639345221693884 
-0.01060646126752407 
-0.006946309234588475 
-0.006910920926102918 
-0.1925133882017569 
-0.0100128802543349 
-0.04627623300444469 
0 
0.288049232703016 
0 
0 
0.05875939451030584 
-0.01569293622431023 
-0.4509082461028587 
-0.2051042692381312 
-0.1520081264736899 
0.02541955797625499 
-0.01653679845662623 
0.04083916817509685 
0.2687932756297319 
-0.06578927454340691 
0.002707475919922727 
0.01600700980461763 
-0.01210621351261554 
0.1645690371016251 
-0.1246925839560831 
0.1170223323321398 
0.06331423747442227 
0.00310202145914739 
0.004844131409796672 
-0.0573536365813085 
0 
-0.3100114215659938 
0.3057823880688019 
0 
0.1253772083805687 
-0.01858559901784545 
-0.4924206710021401 
0.4929471529984557 
0.002075917695010256 
0.117896509702282 
0 
0.0153055767121608 
0.07153470213060573 
0.1058088266106714 
0.03249681699578535 
0 
0 
-0.0008300183106777861 
0 
-0.001955457435900703 
0.01524068870980421 
-0.02463577528625301 
-0.01463120327533031 
0.03341102829823248 
-0.1029539510510402 
0.1918109734256139 
0 
0.009817893126081681 
-0.006879002224292054 
0 
0.005381301754613166 
0.2028598686496537 
0.1977197807884281 
-0.1644320437123718 
-0.5848077245886156 
-0.03180381333090837 
0 
-0.04867876811428175 
0 
0 
0.2566471913784208 
0.003867606936489743 
0 
-0.09916904400793604 
0 
0 
0 
0 
0 
0.01187741248012816 
0 
-0.02665277965172366 
-0.145073444329938 
0 
0.1520134861898151 
-0.02455124274548166 
-0.04013001991569989 
0.7788359300879732 
-0.0407846138615574 
0 
0 
-0.1899320204862869 
0 
0.2826950540090064 
0.004386762802931893 
0.2728100027212726 
0 
0 
-0.04856810924630314 
-0.0008533061706909808 
-0.002259160984479314 
0 
0.154927730517811 
-0.005710822598162806 
-0.02418697743898079 
0.2841532307251954 
-0.1379531636118637 
0 
-0.001318140177713531 
-0.04294020360327311 
0.1486482584983506 
-0.02967222946721575 
0.102341681100521 
0.0188483184134747 
0 
0.01590430972811116 
0 
0.003204823108647012 
-0.01803095555224714 
0 
-0.004324106479446238 
0 
0.6460951221119785 
0.002638626732752956 
0.00288646344056789 
0.3048691147933935 
0 
0.04459769166412281 
0.2467423104210543 
0 
0 
0.2655903361183288 
0.3145239157789936 
-0.0001628486382601708 
0.02330551917057736 
0.1913824284141195 
0.05057189892636899 
-0.04517390018781144 
0 
-0.02861335966116193 
-0.02498153268308518 
0.0113776663064925 
0.0223676167353563 
0.06947373753971776 
-0.0156495689316722 
0.02488806388103004 
0.002510575211409924 
0 
-0.04701228349389198 
0 
-0.004311369525068919 
-0.05591399665026806 
0 
0 
-0.0009431027663639143 
-1.084202172485504e-19 
0.0876390857209224 
0.0006632004173660915 
0.2701694984684596 
0 
0.01555004634347539 
-0.01879440675117855 
0.195823751451815 
-0.06396570973177758 
-0.1814721564259759 
0.03649952455792285 
0.1301448886599179 
0.07287719394966785 
0.1110629429008739 
-0.02548318632601237 
0.02052800232663159 
-0.01102332015183846 
-0.03917681077724353 
0 
0 
-0.001980449631856765 
0.0001483934272983136 
0.09019039708263842 
0.005373491404510233 
-0.3112207153247389 
-0.00472282005796021 
0.02136927073415926 
0 
-0.05527255557687978 
0.002934716667670945 
0.1596803477195446 
-0.05434441644565358 
0.01859672139942289 
0.009487047836389654 
0.2647304943596989 
0.01273401185588974 
0 
0 
0 
-0.0181393927348739 
0 
0.03789763551097697 
-0.103507938772045 
0.002378291633015623 
-0.04746847284852413 
-0.1636382974722927 
-0.09727191875051087 
0 
0.116059485695511 
-0.0008216527842972583 
0.07425617479978018 
0.09536817840749633 
-0.3380760393734833 
0 
0 
-0.2760991741552823 
-0.01270128615052058 
-0.009643695674045437 
0 
0 
0.07902674713067392 
0.004676250351569755 
-0.02282294904832567 
0 
0.04411027403802902 
0 
-0.1518622322953223 
0.00235108223844477 
0 
0.04488123054759195 
-0.02868129612282804 
0 
0.01660071745391553 
0.08470770712999769 
0 
0 
-0.01331274129021932 
-0.01096547532690524 
0 
0 
0.3094312154917221 
0.0373100853687934 
0.1250604330192561 
0 
-0.1743967573865149 
-0.01865040793548126 
0 
-0.01132279120485364 
0.0143256533690129 
0.1176715235298123 
0.05752570211346289 
-0.01569866210503408 
0.1683431063267853 
0.3590836414707222 
-0.2743501240469896 
0.007034995583876876 
-0.0008147062926343295 
-0.006765175025827105 
0.01573039768392703 
0.08962779297093047 
0.1239678302298909 
0 
0.009344024012947016 
-0.01006656367349111 
0.2473214709854216 
0.01242244805633702 
0.02002074404538172 
-0.1250054498150686 
0.07394592411652591 
0.1424748004305394 
0 
-0.1441812092010214 
0.04586445543192142 
0 
0 
-0.01964051471913736 
0 
-0.1123813341239512 
0 
0 
0 
0 
-0.01555398682487179 
0.005814268702978532 
0.0490924431582047 
4.336808689942018e-19 
0.03602899419990509 
0.07125613005785779 
0 
-0.0228196823315961 
-0.0147016991056513 
-0.02088108998110575 
-0.02337342429144135 
0 
1.348476452028846e-18 
-0.004450069945909783 
0 
0 
0 
0 
0.1225430152791421 
0 
0 
8.143735596198424e-05 
-0.01172989089549144 
0 
-0.001518447489709701 
0.01177609414600629 
0 
-0.03943621715936416 
0.1716200067843838 
0 
0 
0.06480292408077896 
-0.01695080068038243 
-0.07251122034261899 
0.1739289482376901 
-0.0457827963535257 
0.09529210473901671 
0.0004652603985692479 
0.07119306855954793 
0.02344570028922259 
0 
-0.01868774819895688 
0 
0.135854475603214 
0 
0.07423046500735044 
-0.03393408624589897 
-0.03032317750593174 
0.2610956373753472 
-0.005683125183994445 
-0.005017696514087564 
0 
0 
-0.1987254703841189 
1.084202172485504e-19 
-0.01272311501752235 
-0.1091499397759189 
0.003012548711696789 
-0.04970802154773012 
-0.002463141299326185 
0 
0 
0 
-0.04461732987520645 
0 
-0.2061109337243998 
0.5488879164303776 
0.09211256546474395 
0.01907664733850194 
0.005482795037290171 
0.02202082575219267 
-0.0003433107256244265 
0.1139402143823991 
0 
0 
0 
0.01412823901102878 
0 
0 
0 
0 
0.3957912626372971 
0 
-0.08161202026365566 
0.2089253401101276 
0 
0.02824831418520292 
0.1580014143111916 
-0.03074578843602916 
0 
-0.02665491109693653 
0 
-0.08201104216300309 
-0.05183499823574031 
0 
0.2609740462569877 
0 
-0.4805788575678204 
0.6359582666540956 
0.03274152421356382 
0 
0.003288963818665914 
0.3786858185791003 
0.05015408298404137 
0 
0 
-0.004702874370892194 
-0.1613281497391375 
0.2859132617649026 
-0.006910396870458736 
-0.05383063348310652 
-0.07399264129816698 
-0.01185803288581124 
0.03107594858436239 
0.06690414037782372 
0.1040042633798131 
0 
0.03668109415706836 
-0.04167147747083202 
0.04660229451256341 
0.09526505376455309 
0 
0.01396532493917908 
0 
-0.0357498505228088 
0.1690596410748416 
0.01241352962572878 
0.1132271716351127 
1.084202172485504e-19 
0 
0.03588067361202662 
-0.2319899072796058 
0 
0.03161141298685154 
-0.1564438276702372 
0.3276170654334851 
-0.0006085466491185064 
0.01226783889732335 
0 
0 
0.07784629752368169 
0.01318123681330096 
-0.04048010349607516 
-0.006482105960070763 
-0.001846469999708257 
0.06227008934128681 
-0.03185389468547966 
-0.07481216958623257 
0.02051334219006372 
-0.01084276504699607 
-0.05440154243124572 
-0.09834040703378442 
0 
0.001604110343437627 
-0.05498203554573088 
-0.002720500526222073 
0.0410936719065302 
0.03486138731631927 
-0.305240966354446 
0 
-0.00520226988404866 
0 
0.05068003565185409 
0.004066166158023811 
0 
0.02768062779726457 
0 
-0.3338344422238295 
0.1536889458525303 
0.004552110353333307 
-0.01333268910444291 
0 
0.07454943359327422 
0.002601600235143265 
-0.04166127389882648 
0 
0 
0 
0 
0.2790512967590768 
-1.355252715606881e-19 
-0.05261022192050462 
0 
-0.7935445192542175 
-0.01293591481996419 
0 
0.4556806553693054 
-0.0202178683343639 
0 
0 
0 
0 
-0.09267650149628204 
0 
0 
0 
-0.02811829505172525 
0.3395345356893662 
-0.167253657961182 
-0.1903146096659829 
0.03465702656025607 
-0.02544154752852161 
-0.1068173274318847 
-0.01111782510690441 
-0.18498547785457 
0.3582763377850573 
-0.1508643401192754 
-0.004615959195508913 
0.5024846245543667 
0.1273019105884198 
0.02686067677377918 
0 
0 
-0.05986799205505314 
0.4679899120979153 
-0.005064057055388121 
-0.2768839216510091 
0 
0.4843146765659518 
0 
-0.01840442910409349 
-0.002283792190464978 
0 
-0.1348245051271472 
0 
0 
-0.03931731504707415 
0.05617706653999906 
-0.00752391141750912 
-0.008432320789258317 
0.03864146028193023 
0.4912222616251151 
-0.005468785869278074 
0.02919624718970966 
0 
-0.0322266736362004 
-5.421010862427522e-20 
0.07154017535432118 
0.505675095134497 
-0.009769270053708696 
0.05511660546412402 
0.1935843753105714 
0.4299159675392704 
-0.1105675049676934 
-0.004291255800417465 
0.08116257181505844 
-0.002645952974919046 
-0.07489380491783737 
0.01112482894230554 
-0.0457897074174027 
0.0152307658452579 
6.635236622512956e-05 
0 
-0.5476146678883629 
-0.002419910186170706 
0.3752344259744675 
0 
0 
0.02949033806709907 
0.0873143039385942 
0 
-0.01111517904321689 
-0.2307607854288167 
-0.03111548323068519 
-0.05435526668688607 
0.08951255231314806 
-0.03887253685784315 
-0.01155988903812241 
0 
0.2095040404501272 
0 
0 
0.1876243804175108 
-0.09464742687129109 
-0.03571435679596539 
-0.006469083128315951 
0.009421744042910424 
0 
0 
0 
0.08264398712242374 
-0.00347392454476584 
0 
-0.06609793957422737 
0.201392757113912 
0.4773285853317189 
-0.02253178612175644 
-0.03012980692367684 
0.06373438636530641 
0 
0 
0.008522919250472787 
-0.0928751051726559 
0.06014726655119219 
-0.001783006432234579 
-0.009233225278353099 
-0.6762163039527457 
0 
0.1248262999975005 
0.02617612314345108 
0.00556961898761514 
0.04631740844581083 
-0.2590429494370404 
-0.01824249107784105 
-0.069798188280489 
-0.0284246366010952 
0 
0.01523915705240726 
-0.1190551147313552 
0.05235103969183295 
-0.2551589264223815 
0.007193025966412464 
-0.01900843753718592 
-0.09423519688198753 
0.01427269276852142 
0 
-0.02941040737868511 
0.0117728334167388 
0.1452694298822993 
-0.03609403611077698 
0.01492240398157549 
0 
0.2524109098881323 
0.2846691048175076 
0 
0 
0.3247238656390172 
0 
0.05213379934824126 
-0.05680943882151197 
0.2318590437366847 
-0.2501206292858175 
0.3289457938022874 
0.0387764470849332 
0.02325400597418708 
0 
0.1115942940465625 
-0.09618437238882936 
-0.2466629692810816 
0 
-0.04640299826636974 
-0.01402178841541676 
0.01023069733536232 
-0.0668440456900274 
0.07943471815184763 
0 
0 
0.1797213695526864 
-0.001002129978487831 
0 
0 
8.470329472543003e-20 
0.1249145697001221 
0.01437035287173117 
0.008363971356135012 
-0.03223979742739778 
0.008413586072682193 
0 
-0.000631590321525912 
-0.1204167945586358 
0 
0.1145016687615264 
-0.09752794451933165 
-0.341045772427202 
-0.09888034182881218 
0 
0.4458942826597599 
0.01450828042698149 
-0.02877282400594875 
-0.0009027936786625293 
-0.09244090269158078 
0.05478964831593516 
0 
0.03118452527654762 
0.002326847879926354 
-0.002841694210308725 
0 
0.06491351161137421 
0.03587954005970224 
0 
-0.002302139965822313 
0 
0 
0.00110646981277794 
-0.1057709920557784 
0.004798335055272699 
0.04842221549459265 
0.0366743611578939 
0 
0 
0 
0.08216505230861655 
0 
-0.02967899877504119 
-0.00211913146149925 
0 
0 
0.01478762427737776 
-0.05968056384852871 
0.1657084698909488 
0 
0 
0 
0 
-0.01325652573405105 
-0.02095382964654231 
0.1331163281151389 
0.08836425375933867 
0.002489551627253486 
0.02474341224725991 
0.006411247574174446 
-0.0002079531478599618 
0.1694349766011351 
-0.09643621524434617 
0 
0.01466057254095133 
0.3121958312437404 
0 
-0.006748114652013282 
-0.1126584421481013 
0.04914838365289851 
0 
0.02339031483132596 
0 
-0.02927582393740677 
0.00247634440226488 
-0.001430906979625824 
-0.09906976224172938 
0 
0 
0.0876618685522861 
0 
0.06098599841113216 
-0.07319609919498048 
0.05227565024991605 
-0.002518749339395394 
-0.2831599667733887 
-0.002149141602202139 
0 
-0.4491457411315601 
0.01445927313089329 
-0.04527479036985135 
-0.02574249430888982 
-0.03637487005849382 
0.0388114539256751 
0 
-0.004560977299655671 
0 
0.03782747774114828 
0.07095543454250205 
0 
-0.0003960615319431461 
0 
-0.00385569210492208 
-0.03064978774239724 
0.01153086335452743 
0.09485062033538233 
0.3268969062014813 
-0.00109579494681828 
0.03155748941447725 
-0.01829197352910254 
-2.168404344971009e-18 
0.1107999277136943 
0.2287223807543401 
0 
0.03124857125856308 
-0.001203670938923184 
0 
-0.005220214946324584 
-0.03355130379457514 
-0.5720571954249192 
0 
0.1581530170361894 
-0.001222681976174408 
0 
0 
0 
-0.001872582020012253 
0 
-0.002061597826878855 
0 
-0.06174709685217271 
0.0579584590579751 
0.05659323184061167 
0 
0 
-0.007438807217706358 
0.4891712968403962 
-0.210625056345638 
0 
-0.000876147964115362 
0.01025025732888331 
-0.04053432346190888 
0.4042703417489951 
-0.01061415872412733 
0.09439674280960027 
0 
0 
-0.001933292587592845 
0.06570629548664197 
0 
0 
0.02888971545689506 
-0.4497257795288981 
7.806255641895632e-18 
0 
-0.003592217908760314 
0 
0 
0 
-0.09914736480849982 
0.1309724720855041 
-0.08846316118647768 
-0.03954813881226513 
0 
-0.03255275870988471 
0.01717032781795651 
0 
0.03236882827400796 
-0.04157056063843443 
-0.2069112367892572 
0 
-0.04903396786823768 
0 
0 
0.05626634100949552 
0.01545669439761319 
-0.1635713266437792 
0 
0.1409062345939552 
0.1626262905974389 
0.1249265429892854 
0.5209254613222359 
0 
0.0215862289934429 
0 
0 
-0.1170554732410394 
0 
0.1277758581553625 
0.07399468360169728 
0.003646081042629186 
-0.3836460679547408 
-0.04499253064241075 
0 
0 
-0.009228124650292747 
-0.001581360519911314 
0 
0.2230562856607942 
0.04996743172836097 
0.05350724673477186 
0 
0 
0 
0 
-0.01758866110460711 
0.08357628240246577 
0.01968229861932712 
0 
0.06424722445049541 
0.01230037569034481 
0 
-0.01708408091666334 
0 
-0.004236872774897324 
0 
0 
0.1559661954392967 
0 
0.1122225562099654 
0.05588736723140045 
0.228126396613583 
0.008690886069947267 
0.2385283695990666 
0.05546686153738366 
0.04376751810853199 
0.06897854386968148 
0.0397256827580348 
-0.02095358017750107 
0 
0.02196855788528969 
0.1710723426329245 
0.101838773452212 
0 
-0.06695353981835581 
0.1888602074187911 
0 
0.02980131135730622 
-0.1265433053493326 
-0.1015832777998887 
0.192394093398496 
0.09354472903838726 
0.01515704680094945 
0.04383599342973146 
0 
-0.2329828926948568 
0 
-0.005632601151457658 
0.03331930130671008 
-0.0248084370712007 
-0.03362095814551622 
-0.005624152687477282 
0 
0 
-0.0852247484014451 
-0.006180168685591438 
0 
0 
0.1685379543335903 
0.03746542238339613 
-0.009326847505712816 
-0.04550297474670931 
-0.05222299545849426 
0 
0 
0.2879712405825318 
0.08126678482739068 
-0.001892338895999162 
0.1587105287283398 
0.01607897441580946 
0.2881409568641299 
-0.02741997568196445 
0 
0.02990332814449217 
0 
-0.002480162628883988 
0.0195976369636659 
-0.01586993127567871 
0 
0 
-0.09170893745295983 
0.004643991236283028 
0.01814837122470172 
0 
-0.1647745271219362 
-0.01769335468775494 
0 
-0.06319105038620855 
0.04420205819304596 
0.2911933981215748 
0 
0.006281284763805823 
0 
0 
0.2120793759883896 
0 
0.002564270282302381 
0.3575939429304362 
0 
0.003247461753297541 
0 
-0.01411258953993645 
0.01976689253672695 
0.045496974632525 
0 
0 
0.01924442640654356 
-0.01417150507086728 
-0.1892460342938429 
0.1361623409434917 
0 
-0.05588879246429679 
0 
-0.1615737996702796 
0 
-0.01266607276724606 
0.001949249918724427 
-0.6563526618040794 
0 
-0.5329203864792631 
0 
-0.01406276742554541 
-0.01992654745148334 
-0.1135449791236357 
-0.001809264786864007 
0.2548272602074249 
0 
-0.09611191395735054 
-0.1627117313728924 
0 
-0.2025654198194592 
-0.02187117311197286 
0 
0.1906914833974824 
0.06198499290171929 
-0.1196371033128205 
0 
0 
0 
0 
-0.0242945015457676 
0 
0.03607733083955766 
-0.1657593467344635 
0 
-0.01171970184523767 
0.01237756073743677 
-0.004327525137378403 
0 
-0.03107755306460435 
0.08766316594159788 
-0.08675900351427926 
-0.03351285764343447 
-0.02863069422659465 
0 
0 
0.1567815179604504 
0.1718347148458292 
0 
0.02956005141973852 
-0.03598100758603037 
-0.04672012813168986 
0.1429886536002553 
-0.01444256051155469 
0 
0.01314063244972786 
0 
-0.02996439731736204 
0.1661648702138018 
0.01010584946355084 
0 
0 
-0.003215455787301641 
0.04495592355348327 
-0.03862649545843069 
0 
0.03091333478643898 
0.0627022878346407 
0 
0.01469489581951564 
-0.0001833340349934939 
0 
-0.2516970806990317 
0 
0.0625501932072617 
-0.009607544945872798 
0.1863726889026583 
0.1436534096920029 
0 
-0.005287773455644134 
0.2940706859510687 
0 
0.08284290680617115 
0 
0.4072276823504226 
0.001841859394535395 
0 
0 
0 
0 
-0.1348065572876482 
-4.336808689942018e-19 
-0.02815742857755943 
0 
-0.02541998699196268 
-0.0407286013189522 
-0.1809402968224889 
-0.003513364853013783 
0.04813922842782804 
0.3861157634176165 
0 
0 
0 
0 
0.1123330322968343 
0 
0 
0.5177127943896097 
-0.002963957856218718 
-0.01388700268210095 
-0.001217757428668934 
0.2957453945570934 
-0.104035895542602 
-0.002834432850573016 
-0.01390324782122882 
0.1864422918322926 
-0.0001060221099986926 
-0.05897376231143744 
-0.03259834442606854 
0 
0.08453793270571124 
0 
0.01656416199491359 
-0.007503599302317305 
0.01576163196172706 
0 
-0.06076422218428058 
0 
0 
0 
0.02843167254748519 
-0.03485057438234215 
0 
0 
0 
-0.008582030135011321 
0 
0.0450692252043805 
0.2995736169198921 
0.1336283367975065 
0 
-0.005472856365718925 
-0.02448122041683915 
-0.01079489352695438 
-0.05345185675706129 
0.03422305993809299 
-0.07062660949651739 
-0.0588283598325135 
0 
0 
0.0003592981481771553 
0 
-0.07894683668975322 
0.02284084308059651 
0.738385625306507 
0.01024270222932727 
0 
0.003697988248395783 
0.1822235190930289 
0 
-0.2334575021548379 
-0.03296586548616279 
0.03293268242156478 
0.08047269295049415 
0.006835226671332524 
0.38045044335425 
-0.01251492999577663 
0.0615057566665836 
-0.1817657090243624 
3.469446951953614e-18 
0 
-0.1247115427423221 
0.0157941713563769 
0.03221727141901712 
-0.166877336605114 
0.02224872183160872 
0.07696404382720715 
0 
-0.06621199216365579 
0.1210612732419993 
-0.202046625799789 
0.02083830449410281 
0 
0.3405169171268069 
-0.0890310068917744 
0.001725692606615888 
0 
-0.001275600892905712 
0.01183623835634698 
-0.1245262163128922 
0 
-0.008159703254676912 
-0.008445172566260366 
0.1468947290805111 
-0.01222819906308578 
0 
-0.004686314006970117 
0 
0 
0 
0.009351575824894159 
0 
0 
0.1481185770763946 
0 
0 
-0.1662508416619813 
-0.02326789432551179 
-0.01498103145605415 
0 
0.07049869374686672 
0.1549764541165317 
1.582454658354513 
-0.02630396629426007 
0.01133179969439319 
-0.005746491358249682 
0.02143859770265542 
0.02220764291436191 
-0.02512812989355978 
-0.06828715882151792 
-0.01836910002208858 
0 
-0.1062156924103914 
0.04320105782871744 
0 
-0.3580573692704066 
0.0327733998751276 
-0.03465606985393262 
0 
0.01566813522356465 
0 
0.0265387544031639 
0 
0.1405384208105552 
-0.0422472959517538 
0 
-0.02872446437516748 
0.0137813773069775 
-0.04138645869009108 
0 
0.02441543037030321 
0.142966617694489 
0 
-0.04181849911671816 
0 
0 
-0.06656126291896981 
0.002530061172407522 
0.05485841720883398 
0 
0.02585762135166126 
0.04034999497069643 
-0.01966235427911538 
0.0392242272188904 
-0.03178933963673798 
-0.01602669101556355 
0.036031523550056 
-0.001922478246197855 
0 
0 
-0.08405920062955151 
-0.0006693759905575172 
-0.007246965746116658 
0 
0.007893186652179284 
0.01115013127873157 
-0.008533011284027451 
0 
0 
0.1187227923532599 
0.02606080762669436 
-0.01324414965609299 
0 
0.05382148842635452 
0 
0.00269282564231153 
-0.01416983152591849 
0 
0.02329380568564803 
0.5800234404414146 
-0.001555280246894475 
-0.01229885496961079 
-0.1188765619242303 
0.07978645317743173 
0 
0 
0 
0.0266564586193452 
-0.01836800210109815 
0 
0 
0 
0.0440215203752404 
0 
0 
-0.01255489805796112 
0 
-0.07287739530730365 
-0.02408695139192391 
-0.02580932877117804 
0.413994761891275 
-0.04491364924189 
-0.06685169046388539 
0.0710562162040535 
0 
0 
-0.01541586411876885 
-0.01649512029899807 
-0.0118509054940072 
0 
0 
-0.03068912568024254 
0.1815303406827692 
0 
-0.167310350344049 
0.2292502913595456 
0.04412220696134139 
0 
0 
0 
0.006105762343526077 
0.7685813897574554 
0 
0 
-0.2021385071913439 
-0.1503810827615908 
-0.0007455409735545764 
0 
0 
0 
0 
3.469446951953614e-18 
-0.03400341168361042 
0.2113806498149758 
0 
0 
0.3393277781979759 
0 
-0.2776076150076657 
0 
-0.436841391522175 
0.6279009166111971 
0 
0.08525314292194894 
0 
-0.2432644044336779 
0 
0.5347760058590533 
0.009019514359010479 
0.01893892672031229 
0.1437970350437966 
0 
-0.09070290005119205 
0 
0 
0 
0.1268053859558568 
-0.6844910847406233 
0 
0.06869253118386645 
-0.02526560064890554 
0.2566734862666752 
-0.03457155932358585 
0 
-0.01246413272307422 
0.259089699846951 
-0.2704076947906875 
0.1442203584902725 
-0.009183948699233677 
0 
0.001349472837318336 
0 
0.07520477827417969 
0 
0.02246496169698278 
0.02840450803905263 
-0.0002413222984842291 
0.009222350204066688 
0 
-0.06625361602612022 
0 
0 
-0.007230840298255746 
0 
0.01718919734313279 
-0.005950986238910236 
0 
0 
0.03057999751418428 
0 
-0.05300788465726747 
0 
0 
-0.3036068363407003 
0.002886556507453836 
0.01827848790139752 
-0.0490319030146634 
0.0127381563771319 
0.0153175306675082 
0.02227926293155519 
0.1156175936484797 
0.009576555240741734 
0 
0 
-0.008788467248148401 
0 
0 
0.00379344496580719 
-0.06336828100425168 
0.4447329153752913 
0 
0.2082722149442834 
0 
-0.003892575379029063 
0.01384146531915854 
0 
0.03511447938843267 
0 
0.05373979368895763 
0 
0 
0.04078285692655753 
0.06745113200820177 
-0.3221840671658333 
0.09535874797950988 
-0.003614430542029784 
-0.5206721044550753 
0 
0 
0 
-0.09962764954230831 
-0.003555964731013511 
-0.02617950395938615 
-0.2498821397249499 
-0.01668726652969219 
0 
-0.1128060229275269 
-0.000812110759737793 
0.0388173439314137 
-0.2943775319134777 
-0.113660181581239 
0.02142109985363431 
-0.05046632606814171 
0 
0.02165620858352343 
0.0635803511943959 
-0.005737495652557876 
-0.01694100878604027 
0 
0 
0 
0 
-0.0006474185883436736 
0 
0 
0.1176469810428595 
0.3214454508680706 
-0.005394667265044385 
0.002169668013425086 
-0.03576492540167851 
0 
0 
-0.3997953997869557 
0.06963137516713143 
-0.003079261143995092 
0.004932039112101211 
0 
-0.08328834477343114 
0.02475158438089585 
-0.1694943810984063 
0 
0 
-0.009788114374234935 
0.0791226010372086 
0.06704281180476171 
-0.007032543134192917 
0.0485560306497381 
-0.02829529306229179 
-0.01574922377432691 
-0.02902795314329258 
0 
0 
-0.06430945338970731 
0 
0.3707976401342645 
0.110784628848123 
0 
-0.004214662883972185 
0.6040256725343165 
0.005548914632876084 
0.0008599620665769777 
-0.2239445621906987 
0 
-0.01423961104206467 
0.07375881974958963 
0 
0 
0 
0 
0.02089072414301965 
-0.07441640591772901 
0.09679403613378013 
0 
0 
0 
-0.2467635015979967 
-0.2305149715484853 
-0.02308756282776726 
-0.009520424622238987 
0.01647244314114405 
-0.01790951320554382 
0 
0 
0 
-0.01339983543598193 
0.01147124469425738 
0.0906723558488669 
0.01090864988419183 
-0.04778780410264649 
0 
0 
0 
-0.03789945073512317 
0.08270137615998456 
-0.01777194681699311 
0 
-0.01198223122313657 
0.2768329082285464 
0.004501549937212389 
0 
0.008931172147194449 
0 
0 
0.01523932480310703 
-0.01643671551675099 
0 
-0.03359023940422257 
-0.07089594691086952 
-0.05334904000161519 
0.1395083364487111 
0 
-0.01564668623047546 
0.06767975903794729 
0 
0.006519719583577588 
0.06148082264889814 
0 
0.06379732049406935 
-0.001019261610839398 
-0.1509864889016586 
-0.1015098504823796 
-0.01345594469609354 
-0.009420353819033469 
-0.02195019993166056 
0.153741681927969 
0 
0 
0 
-0.004341522530004902 
-0.001494605434994105 
-0.03336376950638904 
0.0442568565723507 
0.01091522472987075 
-0.006824823991266191 
0 
-0.003268779609330794 
-0.04425693910133307 
0 
0.007689627945687943 
-0.113262598930548 
-0.00361319711754302 
-2.710505431213761e-20 
0.01321589975520492 
0 
0 
0.003089958923280639 
0.1785971957260345 
0.1573580306130587 
-0.1209183588653771 
0.1162767273878544 
0 
0.04853656338732197 
0 
0.07486612870248459 
0.004837994707404028 
-0.009939893281783617 
0.01970031516814601 
0.02083775726550644 
-0.09061993324595774 
-0.002546163063754118 
0 
0.008943677795960794 
0.1321654895280589 
-0.01074965960888724 
0 
-0.008827286851680582 
-0.2162907576476789 
0.2535540755321853 
-0.09649050530147169 
0 
-0.002519033423876914 
0.009092197332878549 
0.08955527379154148 
0 
0.02060572511868411 
0 
-0.01775985932691455 
0 
0 
0 
0 
0.003299488426111045 
0 
0.03143640640521888 
0.003376918709051315 
-0.02549032326497172 
0.2438349349096382 
-0.0214629965914218 
-0.2242181958710149 
0 
-0.03176841732298651 
0.2144567488936839 
0 
-0.04256048010955674 
0 
0.1412726163719692 
0 
-0.04597816815011363 
0 
0 
-0.01811192621130999 
0.01731975112248532 
0.4059210279598595 
0.07159731593027681 
0.01072821952030331 
-0.00635462531332046 
0 
1.301042606982605e-18 
0 
0 
0.06095403043233403 
0 
0.03976018259464858 
0.001783628473052717 
0.01242673687154829 
-0.01029256437956113 
0 
0 
-0.0002040459056226422 
0 
-0.06097881319620375 
0 
0.07749394649722728 
0.004348929234474048 
-0.3284335681025042 
0 
0 
-0.4879193899092134 
0 
0 
0.01962247735486117 
0.2507075444429004 
-0.006545057455796383 
0.01910804069037434 
-0.650767735545602 
0.06781562969195244 
0 
0 
0 
0 
-0.0045380016746016 
0 
-0.1482002510021296 
0.006842911596597078 
0 
0 
0 
-0.27256044664289 
-0.01885633728589619 
0 
0.03193340069852017 
-0.03252650524061872 
0.2476232077486618 
0 
0 
-0.09904946157046186 
-0.02432271497911255 
0.07320815185796155 
-0.007916937409014495 
0.08189480937401789 
0.01975821546382419 
0 
-0.1649350748073472 
-0.01571039921775713 
0 
0 
0 
-0.03439873496583431 
-0.2569912613634098 
0 
0.03834429044971447 
0 
0.01112773186486983 
-0.00542203473007885 
0 
-0.04564123641640432 
-0.02472772414791116 
-0.01477885784256357 
-0.02338784177297451 
-0.007871393350029536 
0 
0 
0.00505772296270605 
-0.1980505639836564 
0 
0.01564770942487371 
-0.177796554254043 
0 
-0.04203830241221999 
0 
0 
0.0199205917539584 
0.5546942036027244 
-0.01312063604704136 
0 
0 
0 
0.08111498429001421 
0 
0.02618607367762992 
-0.02238147171667085 
0.0450558571123477 
0 
0 
0 
-0.04196789523853051 
2.710505431213761e-20 
0 
-0.08338891048589224 
0.01405535754916903 
0.05378806706908195 
0 
-0.0474430876882865 
-0.2100250911227719 
0.009620612768563823 
0.1712402166635307 
0.05042202505438734 
-0.006405327528406564 
0 
0 
-0.00841979057492641 
0 
-0.04905062538937117 
0.01699792581473415 
0 
-0.1960824246716458 
0 
0 
3.252606517456513e-19 
0.05763037993435093 
-0.1356327264959107 
-1.517883041479706e-18 
0 
0 
-0.01231914540834323 
-0.03326993316044369 
0 
0 
0.1835971282151735 
-0.1669375731773109 
0.003543454018530569 
0 
0 
0 
-0.04624379528944339 
0.02216469003553786 
0.04157207380256826 
-0.003255991386456312 
0.145572476739413 
0.01126817805517631 
0 
-0.0101180315834917 
-0.09797315474747936 
-0.03389985978379937 
0 
0 
0.01381166986305491 
0 
0 
0.1863641519378302 
-0.2520863806962042 
0 
0.3332188432768454 
0 
0 
0.0003870569607403157 
-0.02286913174301753 
0 
0 
-0.03520053608992969 
0 
0 
0.232125242174896 
0 
0.04326486104342676 
0 
0 
0 
0 
-0.03888335300574947 
-0.05305829459220496 
-0.06733068828841045 
0 
0.07711237349330972 
-0.03361186365756841 
-0.002451246492433831 
-0.2318712820859992 
-0.003969980148474698 
0 
-0.0151056694210191 
-0.01225866685860974 
0.06421343423077344 
0 
-0.1576225540013715 
-0.006158056080904442 
-0.007333488113846538 
0.0241502615579892 
0 
-0.04397102697385515 
0 
0.2916852808030866 
-0.009460223007801307 
0 
0 
0.005394812026162817 
0 
0.06526633047086523 
0.2417180131041057 
-0.01617869434885666 
0 
0.0631883586988268 
0 
0 
0.1534315828784407 
0 
0.03674761871340356 
0 
0.02779073473138672 
-0.02091068676810794 
0.04962522925995724 
0 
0 
0.003010957152077317 
0 
0.01686962515689585 
0.01223259677279603 
0.1269254952705779 
0.1520888913418682 
-0.0847899198382763 
0 
-0.007393916099735805 
0 
0 
-0.04435129095397299 
0.05579750322529793 
0.003133638963652539 
0 
0.0397165677356885 
0.4798955561722484 
-0.06201361221792764 
0.150870372732381 
0.03450930160455108 
0 
0 
0 
0 
0 
0.0004833376255028487 
-0.007881217402176552 
-0.05184349791406391 
0 
0 
0 
0 
0 
0 
0.1010751452219207 
-0.01978092765707029 
-0.1665462039600949 
-0.01912916269552172 
0.07917832430351059 
-0.0009547622925135135 
-0.002236182317026559 
-0.4692436847599594 
0 
0 
0 
-0.002487725376695936 
0.03141733326397407 
-0.01197247341986801 
0.02321458126504908 
-0.005473392148822032 
0 
0.01407091676286868 
0 
0 
-0.004849159629780375 
0 
0.01090850493604336 
0.0002642501087679549 
0.001047714731883261 
0 
0 
-0.02836738789307686 
0 
0.01415849258253489 
0 
-0.01220643135687843 
0 
-0.267027777617786 
0 
0.01603039001889156 
0.06048560030967758 
-0.01901429495885177 
0.03405940468722915 
0 
0 
0 
-0.002803140924231258 
0 
0 
-0.004942080984733951 
-0.009947198801168147 
0 
0.008988334257292303 
0.008838742138289358 
0.0179896857664616 
-0.2891432863112821 
0 
0 
-0.003368440491448204 
-0.02267524428848013 
0.05498464385336387 
-0.05431990702869752 
-0.009741377542134879 
0.01407565902959127 
0.002235746344247566 
-0.2007466504578946 
0.0336140843873361 
0 
0 
0 
0.07810417509830471 
0.4071238026716439 
0 
0.002317614214246987 
0 
0.07607931538434377 
-0.005588011579149378 
-0.002799816934940126 
0.2470065654618985 
0.08561711041008124 
-0.1092892764355076 
0.4810960703011807 
0.008401518402831496 
0 
0 
-0.1140264930113869 
-0.001584041264978329 
0 
0.05449355663984144 
0 
0.09031160054067013 
-0.04431039354752588 
-0.03361534652268332 
0.1935316873294725 
-0.05112177161558304 
0 
0 
-0.0002186708749954707 
0 
-0.01726688375301436 
-0.004453029173066672 
0.218679887919866 
-0.01049069153925584 
0.008405213117095356 
0 
-0.002699303418771216 
-0.003559924581357778 
-8.673617379884035e-19 
0.0210725227899984 
0 
-0.05497339404026401 
0 
0 
-0.005401664114249438 
0.1585356048292732 
0 
0.04349708095925206 
0 
-0.05011173510835205 
-0.02074196733633677 
0.0340822592884515 
0.04543625717715858 
0 
-0.1332468304182174 
0.007173550121041856 
0 
0 
-0.2699281181329585 
0 
-0.08271827485077816 
-0.0003112075963362495 
0 
0 
0 
-0.0411730267757503 
0.04401305562005602 
0 
8.673617379884035e-19 
-0.0022593034442312 
0 
-0.01881452853096843 
0 
0 
0.06945256191709992 
0.0392453995895573 
0 
0.02807838729558093 
0 
0.01091012499959055 
-0.03496423548182762 
-0.03214426365325547 
0 
0.08974449268364099 
-0.6501341727561096 
-0.02768801989381625 
-0.01595328916887158 
-0.1167722569644463 
0 
0 
0 
0.1343412413976452 
0 
0.4996308578373702 
2.710505431213761e-20 
-0.1017316275847883 
0 
-0.01452325745424247 
0 
0.02015902454656916 
0 
-0.01928882949109962 
0.04037423592138341 
0 
0 
-0.009497141551095057 
-0.01639389404200502 
0 
-0.02258894825912581 
0 
0.09383672593261344 
0 
0 
-0.03592672259541468 
0 
-0.08372290418762202 
-0.0365163655251573 
0 
0 
0.0385968975568543 
0.007209153797241065 
-0.4042289814991525 
0.1039745803913034 
0 
0 
0.02866326858272727 
-0.003050463145561548 
0 
0 
-0.008863084402030921 
-0.01377310132443714 
0 
0 
-0.002754529922143284 
0 
0.005008262371313056 
0 
0 
0.03390401479743023 
0 
-0.01429930083340758 
0.006258723541823647 
0 
-0.03300263882191514 
0 
0.01330420920225878 
0 
0.01520249647624446 
0 
0 
-0.03011424586821268 
0.006300359319828323 
0.0314108768659325 
8.131516293641283e-19 
-0.05063578865724573 
0 
4.336808689942018e-19 
0 
0 
0 
0.8091856894390994 
0 
0 
0.06421004953746615 
-0.007956336166317973 
0 
0.003219096264561871 
-0.03844000702714039 
0.01190597409329586 
-0.0009914850042980047 
-0.001012483817059753 
0.07069949930158614 
0 
0 
0 
0.1961046707843416 
0 
0 
0.5015629475820311 
-0.04595565116182541 
1.734723475976807e-18 
-0.02189205563339958 
-0.04091204145153544 
0.009357313474844042 
0.5009421772036537 
-0.008736791033901868 
0 
0 
-0.002127558216194619 
0.001753557114139097 
0.02684162330285586 
-0.02927809422779969 
0 
-0.03367552330208664 
0 
0 
-0.02363881160435692 
0 
0 
0 
-0.004586756483954621 
0 
0.03921318133844656 
0 
-0.01996807380179421 
0.02943807475187564 
0 
0 
0.2493186376818473 
-0.04653503177701009 
0.02899784276675639 
0 
0.0418077800543592 
0 
-0.03388752753275935 
0 
0 
-0.05303180662770861 
0 
0 
0.03781794966015434 
0.1448256275184376 
0 
0 
0.5876231288301677 
0 
0 
-0.04621976737189915 
0 
0 
-0.2608728940635479 
-0.00546609841959736 
0 
0.02992914623737508 
0.04765072734671707 
0.1072676308217006 
0.1246886244341174 
-0.003374060144837792 
0.01774418363134371 
0 
-0.4128007701844216 
0.1310196193398899 
0.4104140750883976 
-0.111508306059724 
0.08912115467823518 
-0.01606022133918788 
0 
-0.1197733730563289 
0 
0.01436267112892659 
0 
0 
-0.00016212355757589 
0 
0.8119806879518821 
0 
0 
0 
0.08672249220343754 
-0.03002235597552195 
-0.02915997528676728 
0 
-0.002225840448972593 
0.0001420325342145194 
0 
0 
-0.002206501574701762 
-0.02174995609444617 
-0.1658449117230992 
0 
0.02292623674056241 
0 
0.04954967102528219 
0.01312809546731694 
0.0385904309503077 
0 
-0.02230055815753345 
0.01089380794061774 
-0.000749862163094656 
-0.01110068807526655 
-0.003321430281013781 
0.3256339621746728 
0.04889026017812937 
0.06241554310968766 
0 
-0.2573110166554113 
0.02048604322584582 
0 
0 
0.0662071522554878 
-0.005341690727908629 
-0.0164629864593949 
0 
0 
-0.04213211622574881 
-0.01170326740526584 
0.362111286707174 
0 
-0.06519431321006737 
0.04631475765425257 
0 
-0.06519431321006737 
0 
-0.03061161720569897 
0.04313659031846551 
0 
0 
0 
-0.1437338395845273 
0 
0 
-0.003243611132729973 
0 
-0.05647670209445379 
0 
0.1040136615416724 
-0.578305197259209 
0 
0.2641297847715558 
0 
0 
0 
0 
0.02995532392903365 
0.3434030650619438 
0 
0.03893536173098069 
0 
-0.01237743536156638 
0 
0.007048512029845739 
0 
0.04407358092959249 
-0.04327503504872091 
0 
-0.0491912597948902 
-0.09969335351995692 
0.8010933671136 
-0.01039614562095968 
0 
0 
-0.004407710611411596 
0 
0 
-0.2273963820690807 
0.002008714978624553 
0 
0.144322153907636 
0 
-0.001949349198697672 
-0.08719814594029329 
0.06420589691925824 
-0.1737944147160879 
0 
0 
0 
0.02747437560897206 
-0.0186723101458634 
-0.02672380734070847 
0.02744934717294114 
0 
0.201105852854954 
-0.004877866617956974 
0 
0.01484085520127861 
0 
0.007780219959601379 
0.02497290339853838 
-0.01119857460683367 
0 
0 
-0.003328677135726017 
0 
0.1659233979006422 
0 
-0.02380281260528981 
0.01276053474436427 
0 
0 
-0.06345416202060532 
-0.02079121981900295 
0 
0 
0 
-0.1391624490335795 
0 
-0.005993302850582239 
-0.001283691768912905 
-0.0142897547636943 
0 
0 
0.09289594589991886 
-0.1148869701882972 
0.04986448813261603 
0 
0 
4.336808689942018e-19 
-0.1085715010558462 
-0.1681560220518769 
-0.04888903062948086 
0.02332644487482806 
0 
0 
0 
0 
0 
0 
-0.3117737627001337 
0.01987981266425248 
-0.04808607730889405 
0.005888505365308286 
-0.008783002114291324 
0.08424942303334335 
0 
0.01900815400066054 
-0.1077888098456106 
-0.03195161196041242 
0.002452359113922636 
0 
-0.006120632565916237 
-0.2842279170820033 
0.03213285901022922 
0 
0 
0 
0.01728126372043152 
0.07316944597363303 
0.2046025543298318 
-0.05016720073102799 
-0.01579558527907056 
0 
-0.01242727901723006 
0 
0 
0 
-0.01477588852133562 
0.02940335034613363 
0 
0 
0 
0 
0 
0 
0 
-0.01341646904123825 
0.09022038170140233 
-0.01682209093892214 
0 
0 
0 
-0.002521393962900356 
-0.007074001538264266 
0.01393235273640969 
-0.0339334805570323 
0.01440843171789251 
0.01911700499986398 
0 
0.1437680937716684 
-0.02876460969879902 
0.001496346537488578 
-0.3462416251895409 
-0.06894325561312668 
0 
0 
0 
0.04728218781458549 
-0.01385855430790782 
0.1209171531592362 
0 
-0.2217526495054094 
0 
0.1787477833592668 
0.06418449299876898 
0 
0 
-0.1165510042085944 
0.02301530323140783 
-0.004916338299000579 
0 
0 
0.231742788403661 
0 
0 
0 
0 
0 
-0.01108461651006546 
-0.3318032521090085 
-0.0802515697476668 
-0.01893731824601737 
0 
0.03061358590211222 
0.0193813573513506 
-0.001841714596188944 
0 
0 
0 
0 
0 
0.0257159020647314 
0.1901608042921045 
-0.0474955725481765 
0 
0 
-0.02405097863823307 
0 
0 
0 
0.03202519573889494 
0 
0 
0.02334628706789344 
0 
-0.01343919916542405 
-0.02766866074425974 
0.007937783385010012 
-0.01496217414866851 
0.06201037141897914 
-0.009396014278384247 
-0.0314744765907496 
0.003922653294138592 
0 
0 
0.1015330320778705 
-0.02072941490206226 
0.0222908330013184 
0.03148116614065352 
0.01078287232369163 
0 
0.02219057885018341 
0 
0.471499393914554 
0.05894075071799765 
-4.87890977618477e-19 
-0.03131704979418 
0 
-0.07205121875852501 
-0.00408908992926829 
0 
0.009034279270823228 
0 
0.06575383321288146 
0 
0.009436615861661743 
0 
0 
0 
0.1097125077180524 
-0.01289907245727486 
0 
0.04870873394068677 
-0.006633051243889951 
0 
0 
0 
0 
0.002758461806326233 
-0.003033974319427908 
0 
0 
-0.02648306909824007 
-0.02047661179392814 
0 
0.0348260657405103 
0 
0 
0 
-0.003109374863133318 
0 
0 
0.01277465410584877 
0 
0 
0.06755680293544741 
-0.002036730332913 
0 
0.3436422859968111 
-0.02989395082606479 
0.03185880597075771 
0.0221896868208479 
0 
0 
0 
-0.008479615386549443 
0 
-0.05190802253571723 
0 
0 
0 
-0.03631393979510512 
0 
0 
0.04447396797540321 
-0.002133873423832614 
-0.01841360411291581 
-0.0112091675767076 
0 
0.08208697999045336 
0 
0 
8.131516293641283e-20 
0 
0 
0 
0 
0.2713149480698702 
0.02446660484075992 
0.0002985226517454265 
-0.003752347565973695 
0 
0 
0.03056431512649142 
0 
-0.02645158866077568 
0 
0.02077499986729044 
-0.0376145781939329 
-0.01097375442327339 
-1.734723475976807e-18 
0 
0 
-0.002199661590083881 
0 
-0.003375561517805876 
0 
-0.1146418200931973 
0 
0.09359568885373092 
0 
0 
-0.2792805982437878 
-0.01566998956083724 
0 
0.004697196774618296 
0 
0 
-0.003325143355694143 
-0.008320226108633845 
-1.01643953670516e-19 
0 
-0.2380602781203796 
0.4901066297949228 
-0.0518768694599851 
0 
0.07007504005033394 
0 
0 
0.01653438820741055 
0.0009934004971094647 
0 
-0.001981383695821022 
0 
0 
0 
0 
0.05959683222452646 
-0.008081338266841258 
-0.07360796490849396 
0 
9.172777247950827e-05 
0.007416485518218631 
0.4071431261557408 
0 
-0.0127920177883197 
0.04084211814642971 
0.02783616320732046 
0 
0.01252920216589169 
0 
0 
0 
0.03123154614844185 
0 
0 
-0.2980276477177519 
0 
8.673617379884035e-19 
0 
0.0137577112352452 
0 
0.002481695298230185 
0.04055047306057374 
0.002576892117453345 
-0.008888658170504648 
0 
-0.01261549037956632 
0 
0.1599915834919837 
0 
0 
-0.01634629516580345 
-0.008728941803187685 
-0.03349025520028998 
0.04927582191266263 
0.2641346122584518 
0 
-0.00503237335758762 
0.340077351430594 
0 
0 
0.01612167347880966 
-0.1954483735044661 
0 
0.01657140069516245 
0 
0 
0.1326674334853803 
-0.02827804275234535 
0.05934976887018204 
0 
-0.001606194850903595 
0.2372603557026411 
0 
-0.02252944427786157 
-0.009712918782750589 
-0.03143620723442512 
0 
0 
0 
0.07632104607588704 
0 
-0.003420420323179547 
0.04505315789968061 
-0.03071580540106088 
0 
-0.1624114997763027 
0 
0 
0 
0 
0 
0.06024545773539682 
-0.03070812788550677 
0.03612851498447034 
0 
-0.01848001679544388 
0.01772912204374028 
0.0433156765887961 
-0.06474094994067317 
0 
-0.01677782986948875 
0 
0 
0 
0 
0 
0.00227843298368811 
0 
0 
0 
0 
-0.03317789587013428 
0.5102179472370226 
-0.03230785311076911 
0.7371323943409744 
0 
-0.05766737632532581 
-0.002631217257829496 
0 
0 
0 
0 
0 
0.02181499461342165 
0 
0 
0.5219472568135693 
0.1146583458966252 
-0.005008027524970171 
-0.003435481237983237 
0 
0 
-0.06900520132779006 
0 
0 
-0.03488507832967633 
0.05007384922744368 
0.05319497953009796 
-0.0003167120806363154 
0.01112597852447696 
0 
0 
0 
-0.0006831399426859876 
0 
-0.2510069791452096 
0 
-0.05483152721442824 
0.003314760824296234 
0 
0.01047622546986714 
0 
0 
0 
0 
-0.03987623637859364 
0.09868065908338094 
0 
-0.02262286493800453 
0 
0 
0.1820503809970054 
0.1583447276798108 
0 
0 
0.05247403976181673 
0.1534905528377021 
0 
0 
0 
-0.01598156119584123 
0 
0 
0 
0.03936696016360206 
0 
0 
-0.01825635757163051 
0.2985096629862863 
0.03263721280533095 
0 
-0.02358901694527629 
0 
0.03267173826796363 
0.03058855702762091 
0 
0 
-0.06281040991386044 
0 
0.003742800054469872 
0.04137423813281531 
-0.04390785182393546 
0.02306639454858116 
0.119769045426379 
0 
0 
0 
0.01141970004980225 
0.03675489398045566 
-0.009494394397919213 
0 
-0.001071030135267306 
0.005708452960901996 
-0.04965082510333101 
-2.168404344971009e-19 
-0.1022419449461099 
-0.01979063137648189 
0 
0.06281331809967582 
-0.05176519042909891 
-0.01426170379216121 
0 
0.03125271513665328 
0 
-0.002957854021060276 
-0.04507715607751576 
0.08353633828432974 
0.131026974094958 
-0.0074800006550712 
0.003955099467885766 
-0.07584085727554653 
0.01857117169100184 
0.09400758907976894 
0 
0 
0 
-0.04749573876826531 
0 
0 
0.0874144366233999 
0 
-0.01010769844457884 
0 
-0.1153437687207531 
0 
0.03141615464925405 
-0.01394704046005116 
-0.02315970538577071 
-0.001382058348642761 
0 
-0.002270489257148802 
-0.03758494975916455 
0 
0 
0 
0.01495130153604469 
0 
-0.06647509072378451 
0.02109790480250869 
0 
0 
-0.004701539330699145 
-0.02914088809017719 
0 
-0.01470020347791182 
0.008350710472473264 
0.01294172890444689 
0 
0.08965434753599787 
-0.01055420058246852 
0.02314459959075274 
0 
0.04785594762169011 
0.03483067542362267 
0 
-0.07583581058392841 
0 
0 
0 
-0.00241441352650604 
0 
0.03400518962206663 
-0.08610400642336592 
-0.001041982114678737 
0.01728957067665045 
0 
0.002838635029118173 
0 
0.02261777910620631 
-0.002492975271717563 
-0.02412514377518049 
0 
-0.01369350014022681 
0.1088418215432959 
0 
-0.0182320364960754 
-0.3555310646599873 
0 
0 
-0.007433648264102528 
0 
0 
-0.06757577884438826 
0.0201507260905909 
0 
0 
-0.03305047334589623 
-0.002085739284255161 
0.004863332515114344 
0 
-0.09040858738577678 
0 
-0.21105811573751 
0 
0.01024290863137074 
0 
0 
-0.07648755431050212 
-0.005717052589125552 
-0.0320756972668584 
8.673617379884035e-19 
0.09655396226372513 
0.009291957951155481 
-0.001941192351867889 
-0.004591069669483098 
0 
0 
0 
0 
0 
0.07614313930208935 
0 
-0.02265811116750781 
0.1118813881753979 
0.002537462965590376 
-0.006484106971082933 
0.26185301435032 
-0.001819962118747465 
0 
-0.03116851395833721 
-0.09511522807130879 
0 
0.02049234930985847 
0 
0 
-0.3985353392925711 
-0.03810340835586429 
0 
0.02655043165284557 
0 
-0.07600093721808764 
0.005090872015783772 
0 
0 
0.01604104191727597 
0 
0.06513677545718373 
0.4519730594584666 
0 
0 
0 
0.02446018105661016 
0 
-0.03611396561110226 
0.1971199644329298 
0 
0 
-0.05589842320988585 
0 
0 
-0.07839799220465146 
-0.00409491999133811 
0 
0.03087254854931787 
-0.001627270584238393 
0 
0 
-0.0438441157259406 
-0.0005708265531724791 
0 
0 
0 
0 
0 
0 
0 
-0.00209446438493194 
0 
0 
0 
0.1231531070976434 
-0.004794301859316237 
0 
-1.734723475976807e-18 
0 
0 
0 
-0.04689853657387927 
-0.03272163018361382 
7.747599452523772e-05 
1.084202172485504e-19 
0 
0 
2.168404344971009e-19 
0.07790157268333782 
0.003506938262883951 
-0.06413826525730454 
0.04880153580267124 
0 
0 
0.5771203838608948 
0.02431061867573081 
-0.006141254099921247 
0 
-0.0003755017674092219 
-0.1865527946463228 
0 
-0.02345305229044837 
0 
-0.5149229862565171 
-0.02295458589527342 
0.20239838281893 
0.124800543290084 
-0.008504674993502255 
-0.00146341167486242 
-0.07532444850623086 
-0.08855524955200704 
-0.01516451985681613 
0 
0.008867361964616634 
0.002511943249043945 
0.03346120525345912 
0 
-0.03370356879051263 
0 
0 
0 
-0.03862867082225227 
0 
-0.0005390661163591069 
0 
-0.0005996441784408153 
-0.003360942496627654 
-0.0608695163176649 
-0.04201206591358007 
0 
0 
-0.003657116862545778 
-0.02049255912418227 
-0.04067809820919596 
0.1378831238116282 
0.01432450377968802 
-0.03662937370765505 
-0.07435516997296661 
0 
-0.04633050124368901 
-0.01117346575683651 
0 
0 
0 
0 
-0.03471128299864323 
0.002770896745243854 
-0.07079724967142248 
0 
0 
0 
0.005226750340660611 
-0.04178385000676818 
-0.1457238424043818 
0.01283269501825471 
-0.006828226255416204 
0 
0 
0 
0.4332631489358632 
-0.1912646883697023 
0 
0 
0 
-0.01311606320606055 
-0.000903587107116245 
-0.06590608613985974 
-0.1947246252789644 
0.01105948396114442 
0 
0 
0 
0.005730378534819252 
0 
0 
-0.000266516431856148 
-0.06512305972416663 
-0.03027573934902004 
0 
0 
0 
0 
0.01933426219267062 
0 
0 
0.009630712017431176 
1.355252715606881e-19 
-0.14946218564708 
0.08422394176255875 
-0.03558839761507797 
-0.0626611413241919 
0.02846688636706823 
-0.1351805247915113 
-0.006532797954191185 
-0.1439072787149401 
0 
0 
0 
0 
-0.04066673957934107 
0 
-0.1904258961493804 
0.3702053460654793 
-0.001085571292177558 
-0.1128384716611687 
0.0733809930722889 
0 
-0.00789690790907913 
0 
-0.02407124790317064 
0.09144473572783521 
0 
0 
0.001677221964780404 
0.09286051675885233 
0 
0 
0 
0.2082268529556239 
0.3246363857304504 
