solver_type L2R_L2LOSS_SVC_DUAL
nr_class 2
label 0 1
nr_feature 5000
bias -1
w
-0.05011522986261687 
-0.04532613138612639 
-0.0379002191521322 
-0.007562147056139543 
-0.05035955124100468 
-0.451949244104039 
0 
0 
-0.07648911636503554 
-0.02249405294152089 
0.0747823600411729 
-0.2512919029994831 
-0.08576490817548235 
0 
0.02642937102261551 
-0.1147500952060267 
-0.03196653444487702 
-0.1939966452011601 
0 
-0.3607237643769911 
0.06661403450676709 
-0.0923995937512629 
-0.01393366899146208 
-0.004566725808375196 
0 
-0.08992824320523979 
-0.5755083345684007 
0.02303721900525004 
0 
-0.02071244890728113 
0.2219129722754405 
-0.02601355629234197 
-0.1784347564452488 
-0.1436234621145535 
0.1731721454573661 
-0.0722748637970817 
-0.2034666439009891 
-0.2699368804249703 
-0.08825945846069538 
0 
0 
-0.008606643608420401 
-0.07882292934750605 
-0.07616001554924313 
-0.4979374820316896 
0.03767310770769199 
-0.006934947740182702 
-0.1143950529578315 
-0.05257260147334815 
0.3955972702524857 
0.07087123371308882 
0 
-0.03083442350780273 
-0.009544917098704326 
0 
-0.02373294050606051 
-0.03864696169557162 
-0.292296818741444 
0 
-0.2413473815958332 
0 
-0.01210128729417283 
0.1438479168113935 
0 
0.179762164230838 
-0.2121997780710488 
-0.07733824172568769 
0 
-0.1135522289554026 
-0.0534916539578176 
-0.8742752371971096 
-0.01055316809325084 
-0.001941038586129168 
0.05848726700607584 
-0.03772517149595238 
0 
-0.1454515145859474 
0.002071210949066984 
-0.1697705010429038 
-0.007608348512152057 
-0.06476736860833343 
-0.06466275347177555 
-0.08420615013010872 
0.02701753768420384 
-0.01972540600486868 
0 
-0.1056646736586435 
-0.1052360936785866 
0.136028649800936 
-0.2965009593058474 
-0.01183710674761417 
-0.3779756698329062 
-0.01095628211410253 
0.05996448267743374 
0.05664015754260694 
-0.08313417424092316 
-0.3581903999615156 
-0.1513718797254462 
0 
-0.009230670931757281 
0 
0.007191003421886172 
-0.07323445055373465 
-0.004418483145055174 
-0.007911077678924683 
-0.002996403337773836 
0.05206683303836403 
-0.002600732247445449 
0 
-0.105062531806723 
-0.01501431279378428 
-0.05172423518689885 
0 
0 
-0.1106069136592508 
0.02290227896500844 
-0.1961672309600517 
-0.03405220822641095 
0.2370456165129782 
-0.5727175305610964 
-0.08130476815745957 
0.4607286221344378 
0 
-0.01594089244232308 
-0.06671167901848493 
-0.2703518665581428 
-0.01136456771565563 
-0.2042356966905693 
-0.02080590128803439 
0 
0.004292368835466699 
0 
0.002909958833632922 
-0.0537965303258089 
-0.3488872104687577 
-0.538086083003118 
-0.0794360084520816 
0.02033996199138367 
-0.03840753806149685 
0.03556193817140246 
-0.004936730892867129 
-0.004134508369359462 
-0.02280325180725295 
-0.02393247283290948 
0.09133416366449566 
-0.05359804609633091 
0 
-0.07092334553763389 
0.004648169693390142 
-0.02878822537819903 
0.0687982878544547 
-0.002809272127763938 
-0.04710339016023258 
0 
0 
-0.148017557998048 
0 
0.04878818096745247 
-0.06546468894495334 
0 
-0.2166357744594013 
0.01558644151336969 
-0.005449452258939551 
-0.4716227979007606 
0 
-7.013068947226938e-07 
0 
0 
0.04027770481069329 
-0.4385152568710082 
0 
-0.08205220475263628 
-0.1887564926612106 
0.00341607048717951 
-0.06186671829473831 
-0.1145085643124718 
0.2592927097370296 
-0.2058999139738752 
0.07675567245906932 
-0.3292618012891246 
-0.02709520691665585 
0 
0.005005891169021896 
0 
-0.202083208316217 
0 
-0.4924184069858088 
-0.1687458763150151 
0.185338383267267 
-0.1873910026633271 
0.02919690844953388 
0.8066537355890357 
-0.009109413668250875 
-0.00187377289360704 
-0.09404363075286322 
-0.1475280018965135 
0.004907356620936405 
-0.1093869364236233 
-0.2002906398518172 
-0.02629267856556387 
0 
-0.06219336551761302 
0 
-0.01887025416726381 
0 
-0.0768853102802123 
0 
-0.06517526337351509 
0.01867439262761995 
-0.02775580953140214 
-0.1337074478794057 
0 
0 
-0.02128392300891936 
-0.05818052682850367 
0 
0.1555196771450806 
-0.01063277132310406 
0 
-0.001755243473892831 
-0.106942561091394 
0.04343435546109371 
0.0548043083708143 
0 
0 
-0.001849005626906618 
-0.2698587697790301 
-0.01350829317848651 
-0.01328205608458405 
-0.02215601452797292 
0 
-0.0002357005187109743 
-0.1979843591288887 
-0.01040802547809125 
0.05099122604403631 
-0.1458802808248354 
-0.017546433241854 
0.122598421197327 
-0.02007660794084294 
-0.0006413961494942048 
0.01678330789337364 
-0.009988176484632747 
-0.009913085754706105 
0.05446363454920765 
-0.002430398891347791 
0.07932238546823719 
-0.01425451589540125 
-0.2097613949296897 
-0.1481592980255005 
0.002002223358288238 
0.1918929539242004 
0 
0 
0.03775155439900766 
0 
0 
-0.0101253588928029 
-0.1101056589195811 
0.1610025885116143 
-0.01143857434522524 
0 
-0.008180088263796704 
0 
0.07334565615670742 
0 
-0.0277400331574109 
0 
0.1251804035978019 
-0.02845302398005161 
-0.008576539290934758 
-0.07598412370846391 
-0.01651059115780967 
0 
0 
-0.006106527138968841 
-0.02515645449430091 
0.01703933152785093 
-0.1077791168383948 
0.01025848997581475 
0 
-0.2326835852678469 
-0.524556480107002 
-0.02535151677979345 
-0.05390611846950404 
0.04964601889231059 
0.5079078773572495 
-0.02699448989502011 
-0.01642945456683783 
0.01250977611572318 
0 
-0.1102483615880098 
-0.03076319742579486 
0 
-0.03241991287011697 
0 
-0.1463869590052437 
-0.004900511867311341 
0 
0 
0 
0 
-0.06567245856443979 
0 
0.02585304692472002 
0 
0.04892120594876391 
-0.008360087119120223 
-0.03504975631014692 
0 
-0.05800602850607982 
0 
-0.1603589611815524 
0.009997395423237233 
-0.1891807989898607 
-0.0351707331826644 
0 
-0.03227501722957398 
-0.002671854734546979 
-0.2052604247536172 
-0.04502576643129534 
0.004817337738378918 
-0.004223265757501867 
0.001787238670412173 
0.01287221988351282 
0 
0.08081958607250637 
0.006733124053337452 
0.05247818353523664 
0 
-0.01149605259160502 
0 
-0.2839233505869702 
-0.0002187892969973235 
0.01638887237568305 
0.0030897642352584 
0.01963551775448743 
0.09366593468076938 
0 
-0.01039236714618106 
-0.2488702188851983 
0 
-0.080017531848638 
-0.01054860558997471 
0 
-0.01503036173117272 
-0.07550455336895484 
-0.03588347638362468 
0.07296060926342646 
0 
-0.09422556503195698 
0.01090629367799335 
-0.01662478750875147 
-0.02533735895308414 
0 
-0.1258878914654654 
-0.02276785410626859 
-0.04736219094040152 
0.1704711050339698 
0 
0 
0 
-0.393910173926623 
-0.08804057644043126 
0 
0 
-0.1260530937975338 
0 
-0.07039810918400265 
-0.01941612676145037 
0 
-0.2993622484246239 
0.01679898928360888 
-0.04242498817227845 
0 
-0.05756491169778519 
-0.2566745837528155 
-0.5527398357878585 
0.02070265312080306 
0.03424285262183812 
-0.03317242704843051 
-0.0295119346115486 
-0.005525300250701041 
0 
0.01036128905020518 
-0.01197163337830357 
-0.06481229814626042 
-0.2507310717880275 
0 
0.0004561088434866523 
0.1095847962411577 
-0.07217635137466046 
0 
-0.007192531576626015 
-0.1054610571743236 
-0.08461206099369104 
-0.1246084417097512 
0 
-0.00535257126435636 
0 
0.009580595859119401 
0.001200023064254054 
0.8669592474076051 
-0.04895492502757912 
-0.0300514083601165 
-0.0872757216197004 
-0.1279818619464897 
-0.01168641991923046 
0.05312706017104187 
0.1542599930268775 
-0.01595483564892218 
0.01376519211730021 
-0.01412364589607023 
-0.004907226531096465 
0 
-0.08278335202539969 
0.03576775330628917 
-0.1179258152290648 
0 
0.01154822914188743 
-0.4216159902592306 
-0.4928375627696625 
0.7148511931055003 
0 
0.3552313895009784 
0.08162131718921088 
-0.0188719720433219 
0.0111186307755965 
0.004433530464424322 
0.04096085790233951 
0.09368164383381346 
0.02409045665137356 
-0.2303085564802313 
-0.2674991258519928 
-0.2740381104164654 
-0.1172212939736612 
-0.02843710017240647 
0.2676265638457811 
0 
0 
0.08587804307267027 
-0.2129688583332592 
0.01776166385774385 
-0.09814063334929773 
-0.0561367102182618 
0 
-0.5486480184786329 
-0.1082958566533837 
-0.01468153975506275 
0.01636903374361498 
0 
-0.0191249152727596 
0.02641827051835765 
0 
0.1768702563284707 
0.2714037137710015 
0.02646739430339578 
-0.06051380218000204 
0 
0.1824578074118546 
-0.2934208038457539 
0 
0.03208671477000635 
-5.114816076737388e-05 
0.02862469432387351 
-0.008839622527725645 
-0.04358430192502682 
0 
0.02858728737714356 
-0.4693098611046175 
-0.1862264839439301 
-0.01984684741392548 
0.09919993741337897 
0 
-0.003915485191909635 
0 
-0.0009682714596402306 
0.08902165484274824 
-0.1172356923289767 
0 
-0.01880294327723017 
-0.03587822157920786 
0 
-0.02655855566188936 
-0.08652591673926183 
0 
0.04578652961437552 
0 
-0.006571152241836566 
0 
-0.0897765596725279 
0.1175326848274336 
-0.1471505263835773 
-0.005913205136146767 
-0.0208092883811831 
-0.01018156110015416 
-0.02952469636514318 
-0.2373296782404927 
-0.005291163625507309 
-0.007044859065475157 
-0.01963187769844151 
-0.2220729164684696 
0 
-0.002780283347278482 
-0.02284710914610476 
-0.1432396171381468 
0 
-0.0001326958702982524 
0 
-0.005691892701815959 
0 
-0.002802022207954136 
0 
0 
-0.06647619309356974 
0.03901941072064234 
-0.09716055117425611 
-0.03318379169736383 
-0.02933628964086146 
-0.1324989115297391 
0 
0 
0 
0 
0 
0.3194859522755585 
0 
-0.04189317610870957 
0.02902156391289028 
-0.1670469710654787 
-0.1702958702267898 
0 
0 
-0.03005965629916157 
-0.03512125195493868 
0.08537983628711843 
0 
0 
-0.04511687552896448 
-0.03102196707780853 
-0.04632279953685091 
0.2666501216888064 
0.1424050543538484 
0 
0.01471265046745555 
-0.02463893298176348 
0 
0 
0 
-0.455727914645814 
0.08888246791215601 
-1.062749199120612 
-0.08643651911308151 
-0.006985194130004356 
0 
-0.02709664764710111 
0 
0.5757119063713007 
1.069571713141741 
0 
-0.1700655482976856 
0 
-0.03412753706248289 
0 
0.05754139165165201 
-0.7858818662621198 
0 
-0.02197076793228409 
-0.06194412825454104 
0 
0 
0 
0 
0.09111804168294049 
-0.005565733413755984 
-0.005521361772785962 
0 
-0.2247627016543695 
0 
-0.003216046897257026 
0 
-0.00263757138758903 
-0.2022832343903751 
0.1813763374968932 
-0.1230876425166138 
0 
0.2752432888296898 
0 
-0.03047142414710395 
-0.009481042917256365 
-0.09677792730157604 
0 
0 
0 
0 
0.09240462477502308 
-0.1150956401843102 
-0.2231419178887686 
-0.1497108002208203 
0.03170060192563916 
-0.002382851379841715 
-0.01022801788055011 
-0.09718849253280457 
-0.2724023509001836 
0 
-0.008806761085411348 
0 
-0.0393020974038685 
0 
0.2243846665427274 
-0.02135594147383208 
-0.07585768350093797 
-0.07104757167105689 
0 
-0.007389038680899677 
0 
-0.1692723895707497 
-0.0166500072233016 
-0.01530565729354732 
-0.01774418375465846 
-0.02946070244166847 
-0.04645666348123377 
0 
-0.01887585622044488 
-0.070849464281911 
-0.003062053023059773 
0 
-0.000321196803629645 
0 
0.1380189684344653 
-0.01173663942951422 
0 
-0.1771858420487788 
0.01219915069683005 
0 
0 
-0.04085133107885709 
0.004973978855085191 
-0.02019727041247362 
0.001718160139182452 
-0.4256469216625236 
0.1556257990151102 
0 
0 
0.004143989804463156 
0 
0.1252674621165268 
0 
0.06220553048988176 
0.02597203953853727 
0 
0 
0.1136046527039139 
0 
-2.515687853345272e-19 
0 
-0.01376762967698782 
0 
0.08256740933239454 
0 
0.01005525481200618 
0.05506080600432951 
0.2698536366361742 
0.004062856039248482 
-0.01179205476628271 
0 
-0.0005215536687802446 
-0.1324060443043258 
0 
-0.1554893288309529 
0 
0 
-0.02212656271001993 
0.2136767904929782 
0.02916505972227002 
0.1112401433399346 
0.105495912621203 
-0.02696148086124112 
-0.02881086024840656 
-0.008225981353653737 
0.4282696183818262 
0 
-0.000462337649058767 
-0.03360796362787988 
0.08738068364138367 
0 
-0.002944604647837504 
0 
0 
0.1086035590234311 
0 
-0.05731856858755999 
0 
0 
0.0116445430231974 
-0.02452196441561727 
0 
-0.1153493222649351 
-0.2313904608640333 
-0.007386056978336134 
0 
0 
0 
-0.1146993181585441 
0.2107072116338064 
0 
0 
0 
-0.01619687891873473 
0 
0 
0 
-0.1428674238307935 
-0.04924774456871955 
-0.03697446073105904 
-0.08474722031304391 
-0.03089605620289803 
0.01607433782223962 
0.01578416539375722 
-0.01846221765941034 
-0.1039223779200222 
0.0689032166313247 
0 
0.1981592414861774 
0 
0 
0 
0.02246484910170766 
-0.1256812892688626 
0 
0 
-0.02289130334414631 
-0.009369259105375526 
-0.02406061355086718 
0 
-0.01584865376748764 
-0.01376330297576898 
0 
0 
0 
-0.117432458706804 
-0.03755225742930434 
0 
-0.03282852646011677 
-0.5705145367422187 
0 
0 
0 
-0.07270149323997674 
0 
-0.004752360416239282 
0 
-0.02093113350166905 
0.05396474977604048 
0.1138436700131967 
-0.2192362396965472 
-0.2576229389475888 
0.3790578891414589 
0.03013905539939385 
-0.1524912614540063 
-0.09312035314577734 
-0.1967693195891741 
-0.4330530240109634 
-0.06583432162638574 
-0.2281224239055549 
-0.01247502659518386 
0.03078648390926955 
-0.02891608383488209 
0.0430607479560831 
0.01183536182864304 
-0.06929086229014327 
0 
0.2581180069631198 
-0.09880847928391971 
-0.01117849747783684 
-0.253843363315221 
-0.0810708289282111 
-0.01420240734544328 
0 
-0.0699550178423233 
0 
-0.04044130452806661 
0.01944391330079648 
0 
-0.06549601905844898 
0.1096222107030301 
0.2659049500388041 
0.1200621960929288 
0 
0 
0 
0 
0 
0 
0.03139045199551768 
-0.2297098955047007 
-0.134420950185137 
0 
-0.04753916963607013 
0 
0.01517775127841516 
-0.6322760341206737 
0 
0 
0 
-0.2632628588162534 
0 
0.00958161049982136 
0 
1.734723475976807e-18 
0.04466069440822645 
0 
0.1298034412492775 
-0.2936235155299707 
0 
-0.008646971947298857 
0 
0.02986522736831638 
-0.3187505093467682 
0 
0 
0 
0.025641647185496 
0 
0 
-0.06417156034105249 
-0.09649403752345906 
0 
0.009865492113250586 
0 
0 
0 
0.002109229737773851 
-0.007435899518886272 
0 
-0.2377254431976584 
-0.01908091817746649 
0 
0.06115460876630519 
0.01552322599471145 
0.0440092999510029 
-0.006177213506663741 
-0.2014784289773038 
0 
0 
0 
0 
-0.01973757445664266 
0 
-0.00992252662471664 
-0.05075589529315096 
-0.04719400851686827 
0 
0.06412149323937594 
-0.06526739305547005 
-0.01943042212625523 
-0.07401171304105546 
0 
0.0471316185963582 
0 
0 
-0.04248205994594503 
0 
-8.131516293641283e-20 
-0.04706335992522186 
-0.06858696256788464 
0 
0 
-0.1345253638361447 
0 
-0.1363347743622867 
0.006491070153930069 
0 
-0.05825445511121915 
-0.141590881648534 
-0.01361979548751722 
-0.06632790488839908 
-0.8438778028579608 
0 
-0.07104315942196655 
-0.189826393234701 
0 
-0.04767344589783565 
-0.03312406770011788 
0 
-0.06525087140140921 
-0.2516425653583633 
0.1664535800134427 
-0.004687069382499105 
-0.0006476967749646158 
-0.01752472857513585 
0 
0 
-0.01502261487980871 
-0.02811185885929509 
0.6912402895165861 
-0.4766580098706538 
-0.002703356507178313 
-0.005559373508698565 
0.05698847678478101 
0 
-0.01099178916164721 
0.1232369071723599 
-0.9832456618680322 
-0.007252300116560152 
-0.07195429870514286 
-0.02576809388737039 
-0.003016375567410718 
0.1175099057414328 
-0.03665375351701891 
-0.0262779245570453 
0 
0 
-6.505213034913027e-19 
0 
0 
-0.1893352250624395 
-0.0654124456998109 
-0.293639455726139 
0 
0 
-0.003952660825072335 
-0.02786319114668391 
-0.01627884706320628 
0 
-0.0003560793934048106 
-0.09960931714825083 
-0.002102755559190664 
0 
0 
0 
0 
0 
0.2099262271175149 
0.06377686820533389 
0 
-0.002933721276600978 
-0.04444579010160235 
-0.02370252651922183 
0 
0.02373942030028268 
0 
-0.001871674064389363 
-0.01043272040440133 
0 
-0.04719292514406995 
0 
-0.008231153370554333 
0.05341920340274364 
-0.04852986883677042 
0.2186325332246207 
-0.002207631466550911 
-0.001503933157364463 
0 
0.2102788989079956 
0 
-0.495492794661819 
0 
0.05813499099300824 
0 
0.1655876784599382 
0 
0 
-0.3737750838877067 
0.008720062042445662 
0 
0.01363995916666273 
0 
-0.04089103076007878 
-0.001572156787398929 
0 
0 
0 
0 
0 
-0.03516202572866137 
0.04211997883204616 
0.007024384718442836 
0 
-0.5318032460693629 
-0.03435378914986077 
-0.02329510359766438 
-0.01776820744194198 
0 
0.04504855724572606 
-0.04744344035176149 
-0.04900700355274819 
-2.168404344971009e-19 
0 
0 
0.0269082856778631 
-0.005860299089081981 
0 
0.0002228958413596008 
-0.01580474865116669 
0 
0 
0 
0.006304187066520337 
-0.009475762090071031 
0 
0 
0.4360473187664783 
0 
0.07410545422156034 
0 
0 
0 
0 
0.127709966734164 
-0.3165429230275394 
0 
-0.002675435142876019 
-0.2320498486347142 
0 
0 
0 
-0.01559527384484097 
-0.01943885506736862 
0 
-0.006168892709786248 
-0.09339326975717487 
-0.04270047431140167 
0.1425833223298439 
0 
-0.005262401987090805 
-0.1232711873503574 
-0.02423006017017566 
-0.09744368070377132 
-0.006767939880524424 
0 
0 
0 
0 
0 
0.02816122207674959 
-0.01445678176229327 
-0.1016953670669793 
0.2298565158872649 
0 
0 
-0.2387231585016795 
-0.03736873170059146 
0 
0.3297818852424214 
0 
0 
0 
-0.1629003490762063 
0 
0 
0 
-0.003178747262644054 
-0.06478154165577119 
0 
-0.1362378665037586 
-0.001454843566824617 
-0.1685198270214179 
-0.2307508207712874 
0 
-0.01271969980706685 
0 
-0.4200317905205154 
-0.2373132820818596 
-0.02617838256049704 
0 
-0.08655645187045377 
-0.2623641241441308 
-0.0006925055631046015 
-0.03471472036576644 
0 
-0.01574494952676421 
0 
0.210064211116494 
0 
-0.08584084442507373 
0 
-0.3762824322215574 
0.3843063851086938 
-0.5127589684326632 
3.388131789017201e-20 
0 
-0.05283839638712608 
0.1456784780970153 
0.01440387040045455 
0.01694393046104586 
0 
-0.006940884302551044 
0 
0.01130441839095866 
-0.008621140905809146 
-0.02429457841417873 
0 
-0.1570752186565511 
0.06403199666972574 
-0.3525884280502549 
0.04947511532050848 
-0.499243657691312 
0 
0 
0 
0.05551416884695176 
0 
0 
-0.03159351099305455 
0 
-0.01626223056721344 
0 
-0.1011611409866249 
-0.005653209993613947 
0 
-0.5020104143400298 
0.003730729923198583 
-0.03488784511076019 
0 
-0.01115496124333046 
0.03827325542342847 
0 
0 
0.02085598813752909 
0.02408899285811711 
-0.1241836455248915 
0.1230501211149437 
-0.04309126760036799 
0.3305408986393649 
0 
-0.07843950157946773 
0 
0 
-0.01094101461957801 
0 
-0.0140920563132034 
0 
0.04308763126668286 
-0.005560274410403644 
0 
0 
0 
0.105138416546312 
0 
0 
-0.06940462124070093 
-0.3122242954327981 
-0.04379145484655698 
-0.01374652687478502 
-0.336429263493572 
0.2855063020410114 
0.006329970706926284 
-0.1215566341968878 
-0.02754031132745981 
0 
-0.06726003926795336 
0.2103340766473051 
0.3436593242387792 
-0.1655379730923999 
0.03329298480095464 
0.01896447870709706 
-0.02769796736255867 
0 
0.01067558247254224 
0 
-0.002667979966030527 
0.04834682532886681 
0.1689986469999215 
0.09481044298483207 
-0.03522918606650622 
0 
0 
-0.0295799684302477 
0 
-0.0253280890138682 
-0.00105475444417352 
-0.00069458137382494 
0 
-0.05331671879572907 
0 
-0.129492360947252 
0 
0.03478205790724487 
-0.03063626319908915 
0 
-0.01386774549230384 
0 
-0.009987458254914946 
-0.01981022874194366 
0.02035571070851766 
0.0626979982772442 
0 
0.04799331033362137 
-0.1357042483321327 
-0.01849327720888165 
0 
-0.01599260683316529 
-0.04061006673975494 
0.02823704091152476 
-0.08062028530402976 
0.03738440710524502 
-0.03443054676221993 
0 
0 
0 
0 
-0.03717957592656127 
0 
-0.01748772984649425 
-0.007099039729005541 
-0.165276131980982 
0 
0.01779944776509649 
0 
0.02154675829559871 
0.06073347920543073 
0 
-0.04909989803056419 
0 
-0.09703726613456053 
-0.03505518855681743 
0 
-0.003511257098291106 
-0.03853070532352624 
-0.03016715079274001 
0 
0 
-0.01957146908955262 
0 
-0.1349200577981853 
-0.002531718026627896 
0 
0.06604698962340227 
0 
0 
-0.07503323197317009 
0 
0.1186035172487437 
0 
-0.03291122898049346 
0.1007308909674232 
0.0341029255508831 
-0.02017236966219304 
-0.1244371703133446 
-0.03742539926107103 
0.02678782327933683 
0 
-0.03311808337239705 
0 
0.0183781183407486 
0 
0 
0 
0.05049394162784274 
0 
-0.006661863357702723 
-0.1446337871287623 
-0.1549249388551374 
0.02848302841018688 
0.03673834878723463 
0 
-0.01639246486325355 
0 
-0.009857869061142329 
0.2759486079160658 
0 
-0.0406083836081737 
-0.09274237258732337 
-0.02519770136701911 
0 
0 
0 
0 
0.002020373239329477 
0.01406224940336467 
-0.02920490063951813 
-0.02654468948168352 
0 
0 
0.1627996030512312 
0 
-0.03538556214656617 
-0.04468102252610714 
0 
0.002585802349104956 
-0.04556660562072783 
-0.02153906441716827 
0 
0 
0.01560271140647046 
-0.1396157687409852 
0.01328500908949774 
-0.01303152297706637 
0.01751127042334878 
0 
-0.06744464059465002 
-0.0107616077055435 
0 
0 
0.2103138010070641 
0 
0.06766423190770163 
0 
0.007777648529944922 
-0.003500029272141951 
0 
-0.5375527765514662 
0.01196264264530522 
0 
0.01578077287910742 
0 
0 
0 
-0.1145188556963343 
-0.09227200891256773 
0.01427568053644635 
0 
0 
0 
0.1657508342782574 
0 
0 
0 
-0.002881406392808077 
-0.03899454429474666 
-0.1208158580641649 
0 
-0.1058151320206839 
0.429346674183573 
-0.002606978430647707 
0 
0 
0 
0 
-0.001985585372079983 
-0.0344431504644095 
0 
0 
0 
-0.0967875457135489 
-0.09903072066990043 
0 
0 
0 
-0.0001825991608654301 
-0.1157330499378184 
0 
0 
0 
-0.03494333497774547 
-0.1049784804951095 
-0.1035216258259257 
-0.02146494477588594 
0.04855522246647326 
-0.001316404063439663 
0 
0.1727468492921647 
-0.3959726089818768 
0.06413239871604057 
-0.09934080780561858 
-0.1107688208434564 
0 
-0.1412826238487513 
-0.1852978994621284 
0 
-0.3284559181032763 
-0.0310732228583248 
0.02725333016782265 
-0.6882483426957381 
0 
0.00393718130561989 
0 
0 
0.007555665296268011 
0 
-0.04859863695243127 
0 
-0.02156817935822923 
0.01058061526765606 
0 
0.06804827325469201 
0 
-0.06878292433214864 
-0.006671038533412368 
0 
-0.05241660637276971 
0 
0.01588804229112111 
-0.003503008387647681 
-0.2525920540593891 
0 
0.04252766540763139 
0 
0 
-0.5779211317851344 
0.007586092025389234 
0.002923781910730941 
0 
-0.0655351775130552 
-0.005156774522133812 
0 
0 
0.04176652531717064 
0.00490134274128998 
-0.003777911975415469 
0.01295341773366364 
0 
0.2490996114358684 
0 
0 
-0.06418515012005352 
0 
0 
0.03644101265799148 
0.2642594420745756 
0.01065509768001665 
-0.08385319531080614 
-0.02442440579771503 
0 
-0.1006511267625916 
-0.2943637351795245 
-0.03135034337689124 
-0.00330740221296979 
-0.1319150912913652 
0 
0 
0 
0 
-0.03314179784428755 
0 
-0.01683297246452668 
0 
-0.144656437626207 
-0.004123121576866674 
0 
0.03233263004631286 
-0.01792336808088438 
-0.03126761277584088 
0 
0 
0 
-0.05626670114535102 
-0.0120895460053474 
0.09672501410426093 
0 
0 
-0.000451047363678391 
0.01527508215531851 
-0.003247118544340461 
-0.0008687428406768302 
0 
-0.2259055713199006 
-0.1072780999721245 
-0.1476556932209892 
-0.1086249597620647 
-0.4713094874383845 
0 
0.02808739632550048 
0.1960774767291658 
0 
-0.02231906399765985 
0.01402102469104863 
0 
0.1649896800684875 
-0.2535184612280942 
-0.01086361798741258 
0 
0 
-0.1004844702711733 
0 
-0.06153514251808862 
-0.01294213987900075 
0 
-0.03390087695595941 
0.04470321315748708 
0.03103666081099449 
0 
0 
0 
0 
-0.02748607841124751 
0 
0 
0.01349074892677558 
0 
0 
0.06931463605597826 
-0.001081111984540371 
0 
-0.0001436099108015124 
0 
0 
-0.000448506829052603 
-0.004767897048980544 
0 
-0.1622993477072279 
-0.01295065969738242 
-0.02819325917697538 
0.02414535670149104 
0 
0 
0 
0 
-0.003655903035650179 
0 
0 
0 
-0.01115919801056986 
0 
0 
-0.005754432788730841 
0 
0.06654180921051261 
0.07380299775919431 
-0.00820330275338603 
0 
0 
-0.05814733239747909 
0.009972401776287094 
-0.1690680267595583 
0 
0 
0 
0 
0 
0.0733791313596403 
0 
0 
0 
-0.1524330729871432 
0 
-0.1422074326341645 
-0.04784038777127166 
-0.04014254505499896 
-0.006391859018482323 
0 
-0.01604245324471444 
-0.04360174830937686 
0 
0 
0 
0 
0 
-0.01273683396908292 
0.01913514167548699 
0.002552540732229384 
-0.006997681536263207 
0 
-0.02145684225521416 
-0.06624104213014838 
0 
-0.2710332039385626 
-0.008226328015446109 
0 
0.01715763371103153 
-5.421010862427522e-20 
0 
0.02928565247403423 
0 
0 
-0.008735927708854853 
0.004632383999408296 
0.02140642120631004 
0 
-0.02986401168562638 
0 
-0.07575651268769359 
-0.2514494666295481 
0 
0 
0 
-0.004114253661395961 
0.3108802030864034 
0 
-0.1504838363837007 
-0.06308817922357486 
0 
0 
0.03497881253328109 
-0.002211395145418799 
0 
-0.1733748767713804 
0.04161790211015543 
0 
-0.002964835608837758 
0.08662802417765698 
0.004667839154191852 
0 
0 
-0.07272238096859067 
0.08325253383523874 
0.138976261500237 
-0.1476874259168461 
-0.008018176201812159 
-0.02002923369846043 
0 
-0.07030918726480291 
0.07189045395201429 
0 
0.1717712291820946 
-0.01270093713980706 
0 
0 
0 
0.2097955782688991 
-0.001420074170089919 
-0.02313798770977121 
0.1380963069669612 
0.03870050172151206 
0 
-0.0003460445154090195 
0 
-0.2137126392486452 
0 
-0.03747438302483282 
0 
0 
0 
-0.03273919294948594 
0 
0.04814102828977029 
0.08445039586503683 
0 
-0.006802632543700502 
0.1534633507488466 
0 
-0.01742402810137962 
0 
0.01374069079367654 
0 
-0.0134664384846547 
-0.1307424106728355 
-0.02078314740975349 
0 
0.311783747367456 
0.1166977122926857 
-0.009534668672350513 
0 
0 
0 
0 
0 
0.01140236949836131 
-0.05887089979452206 
-0.005135799313723766 
-0.05380698444283091 
0 
-3.355207781254002e-05 
0 
-0.02790836487484987 
-0.04353256553207607 
0.5504612711273011 
-0.01866038326362496 
-0.06835490140081081 
0.02794486606624026 
0 
0 
0.02006375618460425 
-0.0674151038861014 
0.006280569911494065 
-0.005519663727300253 
-0.02482389912478371 
0 
0 
0 
0 
0.1322307886245773 
-0.07247933419594768 
0.02293407555934516 
0 
0 
-0.8695331519476154 
0 
0 
-0.008791300119540496 
0 
0.001893269212085839 
0 
-0.02952043270665583 
0.00157951286267385 
-0.04831120049809037 
0 
0 
0 
-0.1266952058993037 
-0.2002146801606424 
-0.0211602267251194 
-0.03950187686049832 
0 
0.03564515350665207 
-0.006738349492748418 
0.05907879343576574 
-0.08800721680213229 
0 
0.001595542800565166 
-0.01070561263959089 
-0.08555498895060321 
0.2293290070818824 
0 
0 
0 
-0.07300308936382509 
0 
0.1069721746604039 
0.03305282271486618 
0 
0.006737159789529028 
0.02337591967347521 
0 
0.04391575912969823 
-0.08951051883556564 
-0.01990216137285095 
0 
0.2657610410816413 
0 
-0.03110465209455316 
0 
-0.01422228495371957 
0 
0 
0 
0 
-0.1720358618855307 
0 
0 
0.0223391610127383 
-4.945171510084834e-05 
0 
0 
-0.0710040433254039 
0 
-0.01330806908302207 
0 
0.1281928328401992 
0 
0 
0 
0 
0.01549600084816423 
0.003152712726606794 
0 
0 
0 
-0.01925511276168134 
-0.01445611743752851 
-0.01095343500216685 
0.01474265246210541 
-0.359993029354878 
-0.2149729100459485 
0.1289233635017912 
0 
-0.06074099837776643 
0 
0.01003486926370989 
-0.002780713794536113 
0.006509729057944229 
0 
0 
0.09588402436541578 
-0.186709247362698 
0 
0 
-0.01740353398878376 
-0.05784670830976676 
0 
-0.03758739777185278 
0.06137332724091636 
-0.01953505024103586 
0 
0 
0 
0.04784241581948337 
-0.002265700580941728 
-0.1855342350618497 
0 
-0.1426827773161989 
0 
-0.006446938192503138 
-0.01283873932074334 
-0.1119485509695342 
0 
0 
0 
-0.006057326886078602 
0.1060941682146151 
0 
0 
-0.245524769835555 
-0.1395755673265775 
0.06746026050946757 
-0.02279851134963842 
0 
0.0389185590596093 
0 
-0.01196492689511864 
0 
0 
0.1355810989303744 
0.03858204511668676 
0 
-0.00464816628739762 
-0.05288153230818027 
-0.000829493223188836 
0 
0.07432366283466149 
0.3038424664559861 
0 
0 
-0.005905373691886085 
0 
0 
0 
0 
0 
-0.2155630760095945 
0.01803413969465375 
0.01576428276690321 
-0.04067717936494552 
-0.02415489227681048 
0 
0.06112092541311322 
0.01348079448918274 
-0.003569054798288667 
0 
0 
-0.003206423328596712 
-0.0324338500912041 
-0.004536199465440004 
-0.04332842157996626 
-0.00288129078108085 
0 
0.006801348961514783 
-0.02770593230534722 
-0.4154494075629477 
0 
-0.003587474342249423 
1.020188172040753 
0 
0.004958476063381244 
0.5867846921215031 
0 
0 
0 
0 
-0.01470855334758243 
-0.01092825980301639 
0 
0 
0 
0.1072465177982332 
0.01416799279089317 
0 
0 
0 
0 
0 
0 
0 
0 
-0.08048082948044731 
0.01232143884283773 
-0.005047687990798267 
0 
0.03493054079099694 
0.01861887194619207 
0 
-0.05721625191669488 
-0.07716433260023975 
0.1698320973217383 
0.05604317308362031 
0 
-0.05236831310385288 
0 
0 
0.05244845309949541 
-0.005739295407120646 
0 
0.08402050520996523 
0 
0 
0 
0 
-0.01075673249501271 
0 
-0.06590680877370192 
0 
-0.01291932158233018 
-0.1679097273404643 
0.1112120053151695 
0 
0 
0.02036567666120144 
0 
0.3186615288290158 
0.01589186143136742 
-0.06777213255393082 
0 
-0.009081921548553305 
0 
0 
0 
0 
0 
0 
0 
0.04396219157411979 
-0.4445854991536943 
-0.05943673517417815 
0 
0 
0 
0 
-0.02205543022714158 
-0.03877699846435119 
-0.05312033286306739 
-0.08051491548057094 
-0.05465243586011977 
-0.01605833628175203 
-0.1909985160591584 
-0.01712592129049419 
0 
-0.007776655008956267 
0 
0 
0 
0 
0 
-0.0662770661957847 
0 
0 
0 
0 
0 
-0.001357098276888657 
0 
-0.0015087588033519 
0 
0 
0.03879821103496603 
0.1374426861894872 
0.05293570499291066 
0.3128712507681571 
0 
-0.09391072799431854 
0 
-0.1077760843778887 
0.01679556376519277 
0.01313875526972566 
0 
-0.006225181825268178 
0 
0 
0 
-0.04413777264359103 
0 
-0.01587331373497128 
0 
-0.02172156850963358 
0 
0 
0 
0.3689182697580308 
-0.1383720716836738 
0.05467937730736119 
-0.1316553436342703 
0.00341512886072108 
0 
0.1558610806039834 
0.08986923556112636 
-0.06511867209099029 
-0.02287291741594708 
0.1939822604450304 
0 
0.04410445193717862 
-0.03006361533377666 
-0.00460889903363626 
0.06960519504272787 
-0.1711790926235532 
0.07856781965834458 
-0.3226535451409178 
0 
-0.05073161960322169 
0 
0 
0.06139387843033869 
-0.09739967884304346 
-0.004242666763700225 
0.3522745587769746 
0 
0 
0 
0.1073813782831448 
0 
-0.08103921568309004 
0 
0 
-0.2961607916612757 
0 
0 
0 
0 
-0.0006691372240617187 
-0.1169441082935756 
0.04559417159776981 
-0.004117619728256853 
-0.05219432717045988 
0.02691928220504105 
0.02256762717878661 
-0.001982389690711514 
0 
0 
0 
-0.003650245651178878 
0.05745132872844572 
-0.03601551584571395 
-0.03764672906046423 
0 
0 
0 
0 
0.1198559190882314 
0 
0 
-0.2053473270521597 
0 
0 
0 
0 
0 
-0.006546950867772186 
-0.004544710788991523 
-0.1554315779061372 
-0.1101401828187169 
0 
-0.003859256281447892 
0 
0 
0.0003446560717595391 
-0.05866708960211744 
0 
0 
0 
0 
0.2722862190706385 
0 
-0.2559680158149903 
0 
-0.0008123719510494152 
0.02119408458279797 
0 
0 
0 
-0.3227329551809227 
-0.06093103391113677 
0.01902702829345075 
0 
0.03166635156540819 
0 
-0.1068578723897517 
0 
-0.006908382823009456 
-0.2095510898981091 
-0.05688197083953119 
-0.03448723471875518 
0 
0 
0 
-0.02601010199378669 
-0.5589832980966063 
0 
4.336808689942018e-19 
0 
0.07515590055748647 
0 
0 
0.081073162670087 
-0.0004353330655470297 
-0.01298253435526214 
0.2159317355228274 
0 
0 
-0.03146639232755173 
-0.004210763078061001 
-0.03424223086968765 
-0.01014160879509579 
-0.006100449074388544 
-0.04635269784212281 
0 
0 
-0.01904965485930995 
0 
-0.01578202767569464 
0.06560104315593004 
-0.07764355548925699 
-0.305604251920752 
-0.007127489024513114 
-0.01045546699479429 
0 
-0.07942686879299618 
0.004361533366370297 
0 
-0.078769819043765 
0 
-0.009124061216518665 
0 
0 
-0.01125261773682412 
-0.02900675667098035 
0 
0 
0.004133163567541421 
-0.2553611793998378 
0 
0 
-0.0006645588621617977 
-0.006424538305463226 
-0.160276431243715 
0 
0.1089790240777473 
-0.006934899059994179 
0.02264713075386739 
0 
0 
-0.0152042175355997 
0 
0 
0 
-0.01224896659214826 
-0.04855759794032879 
0 
-0.03419831405643159 
-0.04089907430531975 
0 
-0.01065684382834813 
0 
0.1582597756790341 
-0.06668066386312156 
-0.05938149364920764 
-0.01258107779892223 
0.07117303391632203 
-0.3113237604943306 
0.01371444241302284 
0 
0 
0 
0 
-0.001019711427695199 
-0.02009443587146023 
0 
-0.02541808326877373 
0 
-0.02630139595656223 
0 
0.2402735512381253 
0 
0 
0.1592076403195133 
0 
0 
0 
-0.274260340246486 
0.04587642095995371 
-0.163176632640053 
0 
0 
0.04017675892924687 
-0.04311011639191041 
0.0208933029090966 
0 
-4.065758146820642e-19 
0 
-0.05642923472300936 
-0.004502153406558632 
0 
3.794707603699266e-19 
0 
0 
0 
0 
0 
0 
-0.01717810985093566 
0 
0 
0 
0.001102533009839043 
-0.02977638295998615 
-0.03874277878672159 
0 
0 
0 
0 
0.03520273615732979 
-0.07935648541062368 
0.09758241024378467 
0.2559693890322134 
0 
-0.005826770713463414 
-0.0945754494065832 
-0.7266048522263742 
0 
-0.07590310249623586 
0 
0.04658297009846718 
-0.131705776951936 
-0.03879389243533913 
0 
0 
-0.01341358659949947 
0.1340839116938235 
0 
0.01021665188514421 
0.006916576538847177 
0.05476961963385263 
0.01798384337650406 
0 
-0.01344748300643174 
0.01564228175851647 
0 
0 
0 
0 
0 
0.05280748614378895 
0 
-0.00188742741117852 
0 
0 
0.01002500969017345 
0 
0 
0 
0.02485716836081271 
0 
-0.119576058894311 
0 
-0.01214695545333484 
0 
0 
0 
0 
-0.02606082114978734 
0 
0 
0 
0.04267317184287833 
0 
0 
1.301042606982605e-18 
0 
0 
0 
0 
0 
-0.05679228364321247 
0 
-0.01228198460659315 
0 
-0.03623825443607623 
0.6104640170617454 
0 
0.03325189613409023 
-0.05243231467725171 
0.03065555262698413 
0.01304840811644108 
-0.03243152553212202 
-0.1215869551290789 
0 
-0.2088351128878408 
-0.02268328787884299 
-0.03298359236191751 
0 
0 
0 
-0.04684995136190233 
0.02127012598916693 
-0.002890386310410519 
-0.03451556497002901 
0 
0 
-0.2581233092652355 
0 
0 
-0.0165915185816944 
-0.002929691807615914 
-0.4667365644088676 
-0.1932415357589984 
-0.02424248675824352 
0 
0 
0.2056290074614124 
0 
0 
0.1043497578798209 
0 
0.06849943063363713 
0 
0 
0 
0.09311055822950534 
0.01183877052305126 
0 
0 
-0.006816392711925991 
0 
0 
0 
0 
0.09742571501206441 
0 
-0.01417890622304947 
0 
0 
0.1514356030010171 
0 
-0.007628885204858615 
0 
-0.02527995004686778 
-0.07752155729316151 
0.06144472074918697 
0 
0 
-0.02899362405080998 
-0.001581250483986194 
-0.3248830676054689 
0.008364115474365009 
0.008871988931873504 
0 
0 
0.02220815353659874 
0 
0 
0 
0.02849349734003042 
-0.06636195447553561 
-0.01783359183729293 
-0.002776290323522324 
0 
0 
0.2680167426766257 
0 
-0.03601780939633704 
0.02395088270080071 
0 
0 
0 
-0.01368185052290642 
0.007202582667959515 
0 
0 
0 
0 
0.01227350195951978 
0 
0.09021436452554588 
0 
0 
-0.03713826615079888 
-0.003924037664611369 
0 
0.0844512325186513 
0.0530947176903398 
0 
0 
-0.001134962458975264 
0 
0 
-0.2815858615538799 
0 
0.003668965135132299 
0 
-0.01350247900425945 
-0.10773520775643 
0 
-0.00720917397962163 
0 
0 
0 
-0.00912330929467469 
0 
0 
0 
0 
0 
0 
-0.06976456579515845 
0 
0 
0 
0.02328250865642957 
0 
0 
-0.02780007897837403 
0 
0 
-0.08267041729434958 
0.2469448235265582 
-0.03371177305637765 
-0.01091805557885014 
0.01256065377541801 
-0.02032417774072678 
-0.1764509258041151 
0 
0 
-0.007406770219509628 
-0.00504398949491008 
0.05137757626669246 
0 
-0.1451416377426866 
0 
-0.01376376613201351 
-0.02107552696924235 
0 
0.004230111281833733 
0 
0 
0 
0 
0 
0 
0 
0 
0 
-0.03606398081450275 
0.00105052332708907 
-0.07527076509742923 
-0.01725858706750371 
0.2077535901558184 
0.02092639578399994 
-0.01368237206314747 
0 
-0.01936693778299999 
0.08306753250245638 
-0.04089301205340268 
0 
0.09182338730479694 
0.05480967628095757 
0.02271550329896093 
0 
0 
0 
0.05334029956205193 
-0.005963092561333511 
-0.269868711524726 
0 
-0.0009582891888318875 
0 
-0.004945660309495303 
-0.03418063947200355 
0 
0 
0 
0 
-0.0004674310524621683 
0 
0 
0 
0 
-0.3548301794968127 
-0.01835437230435875 
-0.07470766779905709 
0 
-0.1105391149701817 
0 
4.743384504624082e-19 
-0.01285286191941755 
0 
0.02125743004326031 
0 
0.07147951269991652 
-0.1466128179582297 
0 
0 
0 
-0.04426686845859925 
0.0009002726498465632 
-0.06631541933550533 
-0.01266947053049695 
0.05864194534310653 
0 
-0.4218289387328818 
-0.000110767096662135 
-0.02894818414476497 
-0.02393207657817798 
0 
-0.005192504087527804 
0.01175854753595334 
0 
0 
-0.001005311947854287 
0 
-0.0642065629719176 
-0.2454966010276523 
-0.006429879241954738 
-0.02543966965851577 
-0.005983834886238265 
0 
0 
0 
0 
-0.1712521619273162 
-0.08470460672044963 
0 
-0.002197131893117655 
0 
0 
0 
0 
0 
0 
-0.05389853544882262 
0.009224227736589211 
0 
0 
0 
0 
0 
0 
0 
-0.01313446458324547 
-0.002182936446584052 
0 
0 
0.1011594684205962 
0 
0.0850980624543432 
-0.01092860525634837 
0.01844035886572272 
-0.01296887306874996 
-0.1759342038447375 
0 
0.1175656083864965 
-0.01065889886754817 
0 
-0.006426813144781927 
-0.04048322751992108 
0 
0 
-0.03000519796190254 
-0.01164889606883911 
0 
-0.1125182296084006 
0 
-0.01305751330524424 
0.03200774704188426 
-0.01177465478294465 
-0.2881980937357172 
-0.004220961481209157 
0 
0.3971822475030817 
0.4719729563390406 
0 
0 
0 
0 
0.04928066314540253 
-0.5523046028963042 
0 
0 
0.04224104002819272 
0 
-0.07717369676288699 
0 
0 
-0.02487692919743907 
-0.239987255032423 
0 
0.02552804402237064 
0 
-0.04443064020710298 
0 
-0.02094863079946193 
0 
0 
0.2371937278460358 
0 
0 
0 
0 
0.0592078626594808 
0 
0 
-0.1336618052613398 
-0.001399826640438898 
-0.6086101177369013 
-0.03507710122588919 
-0.07352867524318449 
0 
0 
0 
0 
0 
0 
0 
0.03603658948166479 
0.01879207462203194 
-3.049318610115481e-20 
-0.1074672929528083 
0 
0.06376724796501186 
-0.0117001997777281 
0 
0 
0 
0 
-0.1170268462996916 
0 
-0.005900467655349727 
0 
0 
0.02887346329755141 
-0.04948939374301042 
-0.003206390665378673 
-0.03632595445966107 
0 
0 
0 
-0.01445653486654095 
5.421010862427522e-20 
0 
0 
0.01498107547946157 
0.02113932846209202 
-0.0003785407792232264 
0 
0 
-0.03215306084809792 
0 
0 
0 
0 
0 
-0.05358654217073997 
-0.01076883218019744 
0 
-0.001293493296490223 
0 
0.01807980069468325 
0 
0.02511365509810667 
0 
0 
0 
0.04604877103441202 
0.04614500686691216 
0 
-0.106584742914236 
0.1278408992336563 
0 
0 
-0.01442028586779873 
0.02353644875239489 
0 
0 
-0.00119367170932212 
2.602085213965211e-18 
-0.008236939964356749 
0.2000461405264807 
0 
-0.06138113515316876 
-0.008282749802600783 
0 
-0.003037255380540066 
-0.03114384424727743 
0 
0 
0 
0 
-0.003907233975757502 
0.002420734833828993 
-0.01051833863896007 
0.01534779411827419 
0 
0.05958717761504254 
0 
0 
1.081449025971798 
0 
-0.1574363286450959 
0 
-0.02424209131326023 
0 
0.01510001606451463 
0 
-0.03679277883487846 
0 
0 
0.4533051884016485 
-0.02663602468925326 
-0.01328359408536531 
0.3324380250126809 
0 
0.005878924817419568 
0 
0 
0 
-0.004572405742616937 
0 
0 
0.07444157008631189 
0 
0 
0 
0 
-0.004318329378150262 
0 
0 
0 
0.1510702516473377 
0 
-0.2029340480187008 
0.01450047762138126 
0 
-0.005420613675565893 
0.02042565003607052 
0 
-0.01057011127101668 
0 
0 
0 
0.432517276046367 
0.04284898033313492 
-0.02733891963475628 
0 
0 
-0.1116125205931163 
-0.05534489480682915 
0 
0 
-0.0201957878743307 
0.07115733014854785 
0 
0 
0.009228184101222484 
0 
-0.1451186617015199 
0 
-0.04062983766187748 
0.1702610481131812 
0 
-0.5267206965256209 
0 
-0.01661838493664993 
-0.001680553184025701 
0 
-0.002257939609014674 
0 
0 
-0.008262255158390627 
-0.03201820221343364 
0 
-0.02920475561429991 
0 
0 
-0.05639989851004102 
0 
0 
0.05328270364730869 
-0.03321358311702047 
0 
0 
0 
0 
0 
-0.05633837194364186 
0 
-0.1297010134873694 
0.01744381552573141 
0.03431855384820965 
0 
0 
0 
0 
0 
0 
0 
0.001153459289591857 
-0.03162632085142176 
0 
0 
0 
0 
0 
0.001446233341062163 
0.02710344003007134 
0 
0 
0 
0.006224737951439084 
0.1091181229950463 
0 
0 
-0.01978209189476741 
0 
0 
-0.06229199344925111 
0 
-0.001870851065421597 
-0.08180830047149311 
-0.3301540843085913 
0.122977144279467 
0.1683390022709133 
-0.02549504725444876 
-0.06918021406837949 
-0.008788346848174209 
0 
-0.05836301963640782 
0 
-0.009247212977707956 
-0.04638647060555545 
0.02543727744137079 
0 
-0.001290324230025975 
0.1039618692297521 
0 
0 
-0.2868873538556982 
0 
-0.6115998943214787 
0 
0.04076305687419524 
0.02429260415121612 
-0.008976021272376535 
-0.0281706638034811 
0 
0 
0 
0.02697318843919144 
-0.03383338598102005 
-0.01283284664500908 
0 
0 
0.03363090057463181 
-0.6804324233125036 
0 
0 
0.05888442642401479 
0 
-0.1203472200595365 
-0.03412081352109572 
-0.5426456062514037 
0 
0 
0 
0 
-0.02761009674799818 
-0.01512857388547495 
0 
-0.08392039091187568 
0 
0 
-0.007077100550534311 
0 
0 
0.03555682099521711 
-0.01012749531582481 
0 
0 
-0.004473866679044334 
-0.03024439858978875 
0.1377937490239866 
0 
-0.01822342728729561 
0 
0 
0 
-0.02822906484511174 
-0.1929556013046957 
0 
0 
0 
0 
0.01226575643215577 
0 
0 
-0.01259642754507951 
0 
0.02994414486941829 
0 
0 
0 
-0.04025096396728314 
0 
0 
0 
-0.008749251384948011 
-0.05395245554653448 
0.373702481406043 
0 
-0.06696373006401168 
0 
-0.02058645459392052 
0 
0 
-0.03168948776315712 
-0.0319114518426994 
0 
-0.07098563008326302 
0 
0 
0 
-0.007975921188320146 
0 
0.1217822902795275 
0 
0 
-0.3881840593048402 
0 
-0.1898721913932462 
0 
0 
0.1197542526768636 
2.602085213965211e-18 
0 
0 
0 
-0.0251376703462144 
0 
0 
0 
0 
-0.01818606343771143 
0 
0 
-0.007939899500771704 
-0.003395942094843269 
0 
-0.009026140608145244 
-0.02034730480962878 
0 
0 
-0.05904509568857381 
0 
0 
0.4248675644403874 
-0.1169567649200949 
-0.009340146132386632 
-0.03275290243643868 
-0.1738849116738374 
0 
-0.03601240316345582 
0 
0 
0 
0 
-0.009513304298415955 
-0.02800500094473689 
-0.002773244929132026 
0 
0 
0.03238947250964884 
0 
0 
0 
-0.005747479507217667 
0 
0 
0 
0 
0 
-0.05921155919708468 
0 
-0.02652145179449844 
0 
0 
0.02587604617000818 
0 
0 
-0.03183163305826085 
0 
0.06312344539132593 
0 
0.02789019944115527 
0 
0 
0 
0 
0 
-0.1191534892059455 
0 
0 
0 
0 
0 
1.897353801849633e-19 
0 
0.02681172356051427 
-0.1339634004991905 
0.02918718640631624 
-0.0008993320879224258 
0 
0 
0.04491740878765516 
0 
0 
-0.1210416901503158 
-0.0005122892134133921 
-0.2521435968716665 
-0.02935020694225892 
-0.01189349741605291 
0 
0.03412940967592535 
-0.003738619817855759 
0.1723497751096601 
-0.04097833321855159 
-0.005660942032705564 
0 
-0.01758005074167892 
0.03362790567932763 
0 
0 
0.01548820872275195 
-0.01185903204276176 
0 
0 
0 
0 
0 
0.01482550064832159 
0.02122593746364461 
0 
0 
0 
-0.003104032067799063 
0 
0.1529738618153789 
0 
0 
0 
-0.02504646907533615 
0 
0 
0.03678802529914214 
0.2557564999314056 
-0.02328200474039933 
-0.03790969201185464 
0 
0 
0 
0 
-0.01454591481625082 
0 
0.1191534977531409 
-0.03545382135887362 
-0.2529624716500798 
0 
0 
0 
-0.004516028425516008 
0 
0 
0 
-0.03723098591441507 
0 
0 
0 
-0.07400535182262513 
0 
0 
0.09903834966860929 
0 
0 
0.01120161247505374 
0 
0 
0.4970590999662365 
-0.1321170608562175 
-0.09678584865798254 
-0.4861753319511194 
0.4888573608548247 
0 
0.5703560323852359 
-0.01406913579572932 
0 
0 
0 
-0.02798074775034415 
0 
0 
-0.03562288517635111 
-0.03669753581912554 
0.2096033272440324 
0 
-0.4478418499405801 
0 
0 
0 
0 
0 
0 
0 
0.3359549723039476 
0 
0 
0 
-0.001605344399565959 
0 
0 
0.02265593119503239 
-0.05838440641022269 
0 
0.03563583232338063 
-0.4978455489289745 
0 
0 
-0.02393957261087861 
-0.04216646914044238 
-0.03882345132312297 
-0.1450466867650521 
-2.168404344971009e-19 
0 
-0.2137746741190983 
0 
-0.3129222696563603 
-0.04061951627842483 
0 
0 
8.673617379884035e-19 
0 
0 
0 
0 
0 
0 
-0.02844099684599341 
0.06933803053179435 
0 
0 
0 
-0.08051203985457317 
0 
-0.2026333886192586 
0 
0 
0 
0 
-0.01419579777004521 
0 
-0.01159726667310027 
-0.04001110458357947 
0 
-0.01567547877414346 
-0.03016239770960318 
-0.03190130424402063 
-0.03051599929453485 
0.05519613371263515 
0 
0 
0 
0 
-0.2884068206776337 
-0.001428823397502234 
0 
-0.04387406381062103 
-0.09335792184568144 
-0.04808947836501261 
0 
5.963111948670274e-19 
0.04857434488759127 
-0.009250631055558066 
0 
0 
-0.01284840022618165 
0.008186047951395414 
0 
0 
0 
0 
-0.01762452075180386 
0 
-0.1488297439969114 
0 
0 
0 
0 
-0.01328257661853554 
0 
0.02418023120133924 
0 
0 
0 
0 
0.03473729946421973 
0 
0 
0 
0 
-0.03209825723240688 
0 
-0.02566424446522921 
-0.02763876065377982 
-0.01303222152043383 
0 
0 
-0.007885253258100512 
0 
-0.002061477798099329 
0 
0 
0 
-0.08210017077872024 
0 
0 
0.02081973212223753 
0.1149843902639338 
0 
0 
0 
0 
0.06538875490312553 
0 
0 
0 
-0.1639144451118972 
0.04692878202315286 
0 
0 
0 
0 
0 
-0.004418988414739726 
0.1821341697727475 
0 
0 
0.1810808073037606 
0 
-0.4556998979432828 
0 
-0.2418977718134342 
0 
-0.0552360233030184 
0.04046023375317632 
0 
-0.1105526520403475 
0 
-0.003487111969822893 
0 
0 
0 
0 
-0.1156250507121984 
0 
0 
7.860465750519907e-19 
0 
0 
0 
-0.02182872653393707 
0 
-0.06278557795424816 
0 
0 
-0.01031360776008177 
0 
-0.07050607143563453 
0.3604008340653342 
0 
-0.002474215089859331 
0.03167879857131846 
0 
-0.0004969257453401709 
0 
-0.01778017702529187 
0.07812006812076808 
-0.05220574996313092 
0 
0 
-0.01389757980852233 
0 
0 
-0.005121887025311941 
0 
0 
0 
0 
0 
0.04505790807567293 
0 
-0.005885952779638107 
0 
0 
-0.1750095529263843 
-0.0100992174122388 
-0.005591733018981534 
-0.1738430797990181 
0 
-0.02298487957206383 
0 
0.01686224663874985 
0.05195159959984357 
0 
0 
-0.1348422996253392 
0 
0 
0 
-0.1729259564259172 
-0.1894921112666174 
0 
0 
0 
-0.001581022262901102 
-0.001159409664756054 
0 
0.009692139400335354 
0 
0.003655595395646736 
0 
0 
-0.01469757757803674 
-0.00316463029527522 
-0.01311788769470894 
0.1914508453675386 
0 
0 
0 
-0.008478544731258456 
0 
-0.2063596906031187 
0 
-0.005164285327148335 
-0.0676869037004072 
0.007083578859863034 
0 
0.03013652747396708 
-0.1376895744646645 
0 
-0.0382242299690279 
-0.04952103027962834 
0.03898465579502883 
-0.01005198154511068 
0.0584785671417316 
0 
-0.01810005491559465 
0 
0 
0 
0 
0 
0 
0 
0 
0 
0 
0 
0 
0 
0.09694602942864915 
0 
0 
-0.1686565246530952 
-0.03192481492260318 
0 
-0.01074775411310328 
0 
-0.09386308553857119 
0 
0 
0 
0 
-0.009126700890598199 
-0.00291339353835229 
2.846030702774449e-19 
-0.0002109497966581208 
0 
0 
0 
0 
0 
0 
-0.01005025542580656 
0 
0.05322725313723165 
0.2409959083928679 
-0.5983120602452643 
0 
0 
0 
0.1041608512272168 
-0.08041601646953872 
0 
-0.1302800732871983 
-0.06408732079833998 
0 
-0.004346180793656171 
0 
0 
-0.04556718110671775 
-0.003318505327147374 
0.1895974159659175 
0 
0 
0 
-0.01645594701443866 
-0.189606379531146 
0 
0.1606165041160525 
-0.09847942557214558 
-0.0171885265572462 
0 
0 
0 
-0.005067922704201536 
0.02016575314717528 
-0.0007311175655590483 
0 
0 
0 
0 
0 
0 
-0.01151709617274919 
0 
0 
0 
0.04463352335037918 
0.09034931807929661 
0.0003320005464257444 
0 
0 
0 
0 
0 
0 
0 
-0.02294833594395432 
0 
0.04734454387647533 
0 
0 
0 
-0.05407320214538081 
0 
0 
0 
-0.003662008751892675 
0 
0.03608730029121106 
0 
-5.149960319306146e-19 
0 
-0.01084259881109765 
-0.004112231944270133 
0 
0 
0 
0 
0 
-0.008553993854630685 
0 
-0.0002214050252249888 
0 
0 
0.1214242059342857 
-0.03656853919813276 
0 
-0.03068935396335812 
-0.06217615132357435 
0 
0 
-0.01165250982660458 
0 
0 
-0.04026421444328917 
0.004164075982248386 
-0.4797900516464534 
-0.01982187226914731 
-0.1453162719821216 
0 
0 
0 
0.05088459359774434 
-0.004886359861162965 
-0.002777715499557177 
-0.1662345730355002 
0 
-0.2053825666181402 
0 
0 
0.0009120557834905165 
-0.2064409571208474 
0 
-0.02952136131980417 
0.003125022772006249 
0.03133432886644148 
0 
0 
0.03415188614597527 
0 
0 
0 
0 
0 
0 
-0.005853523325157489 
0 
0.003365642606060759 
0 
0 
0 
0 
0 
-0.0305540444708192 
-0.006715685513842693 
0.0003252346744717459 
-0.001835622192819904 
0 
0 
0.001137311584112561 
-0.05652762780824896 
-0.0003100098930760478 
-0.02204405607757172 
0 
0 
-0.03735783418049793 
0.03451631099303746 
0 
0 
0 
0 
1.205110371418463 
-0.002840563381956827 
0 
0.01323065604608789 
0 
0 
0 
0 
-0.009103597689880729 
0 
-0.0214905223274833 
0 
-0.0529262449560668 
0.03782802770813573 
0 
0 
0 
0 
0 
0 
-0.01220251526455552 
-0.01645099654099857 
-0.001317614068732494 
0 
0 
-0.2248678778565308 
0 
0 
0 
0.05506550723632093 
-0.03330506801255217 
0.6690261189425103 
0 
-0.08337955051815943 
0 
0 
0 
-0.02176817187869798 
-0.09001029122104218 
0 
-0.009134456298402361 
-0.1946217739159361 
0 
0 
0 
-0.09501414069619753 
-0.003774369537565377 
0 
0.07444910828252624 
0 
0.07833424971521881 
0.1266563122663172 
0 
-0.01060699407848977 
-0.06443261918972495 
0.1318372687164722 
-0.03074493754450685 
0.07883984044507267 
0 
0.04845344249654381 
-0.3761577468834021 
-0.01190962191805541 
0 
0 
0 
0.07641507967665018 
-0.03830768675979155 
0 
0 
0.5761574989502168 
0 
0 
0 
-0.154848686214712 
0 
0 
-0.0498677335320582 
-0.02421708936370909 
0 
0 
0 
0 
-0.0013027197395299 
0 
0 
0 
0 
0 
-0.008460413973117626 
0 
0 
-0.0380678276804342 
0 
0 
0 
2.168404344971009e-19 
0 
0 
-0.09635667611309719 
0 
0 
0 
0 
0 
-0.0181912201156855 
0 
-0.01980228551735477 
-0.005379898355553284 
0.009078675360417551 
0 
0 
-0.01351713879571043 
0.2136642424070745 
0 
0 
0 
0 
0 
0 
0 
0.001426874697145772 
0 
0 
-0.005890681081734988 
0 
0 
-0.00409052485248015 
0.06642351972366067 
0 
0 
0 
0 
0 
-0.01566172223072911 
0 
0 
0 
0 
-0.02705621802409065 
-0.004416922775203759 
0 
0 
0 
-0.005548097064902415 
-0.001374820530190346 
0 
-0.002379268340203103 
0 
0.04958179645171715 
0 
0 
-0.1525114313644094 
0 
0 
-0.007249111483505153 
0 
0 
-0.663261587030659 
-0.006915361734751937 
0 
0.3199220745948486 
0 
0 
0 
-0.0002251204840691608 
0 
0 
-0.1447371093391601 
-0.02034551754415851 
0.009990104086115911 
0.04948231153965284 
0 
-0.1631462966902239 
0 
0 
0 
0 
0 
0 
-0.06386165841672849 
0 
0.04874448728960701 
0 
0 
0.06570173845206559 
0 
0 
0 
-0.05038841133204862 
-0.05953222411023692 
0 
0 
-0.009203100734738959 
-0.002435292356143122 
0.01083437881247771 
0.1056643136380392 
-0.1278821710089122 
0 
-0.08227322193248347 
-0.01457375668418896 
0 
0 
-0.03212077569392184 
0 
0.1953682635832855 
0 
0 
-0.003807855759001505 
0.01908171676818426 
0 
0 
-0.008486766250718529 
0 
0.02103546537650314 
0 
0 
0 
0 
0 
0 
0 
0 
0 
-0.08389696424500749 
-0.001186671416661081 
-0.004840904806512427 
-0.008633908700537807 
0 
-0.005856279100678942 
0 
0 
-0.008029327628043268 
-0.003980455878095463 
0 
0 
-0.09003937894579306 
0.2672738768743191 
-0.0002214162172928737 
0 
0.07250114439497285 
0 
0 
0 
0 
-0.004014242197048136 
0 
0 
-0.09036987227736468 
0 
0 
0 
0 
0 
0 
0.002604219884441322 
0 
-0.1159212048299111 
0 
0.1334581519661226 
0 
-0.006580943822675924 
0.00832561360059147 
0 
0 
-0.01067793860872643 
0 
-0.0005646047523923459 
0 
0 
-0.004738796750979553 
0 
0 
0 
0 
0.021763280067219 
0 
-0.02480169919821718 
0 
-0.004598881974526482 
0 
0 
0.3494578238594336 
0 
0 
-0.01754340402646892 
-0.01807274667965326 
0 
0.1365493105633546 
0 
0 
-0.04350874854712965 
0.0158543893128823 
0.007335138594287829 
0 
0 
0.1352273314043244 
0 
0 
0 
0.08083719879309847 
0 
0 
-0.0001070365702829889 
0.03245463871959892 
-0.001451092971266759 
0 
0 
0 
0 
0 
0.07645041232626865 
-0.003408485279626388 
-3.388131789017201e-20 
-0.05163909180353635 
0 
-1.383855306766198 
-0.009665929071305243 
0 
0 
0 
0 
-0.2469217800861181 
0 
0 
0 
0.2149139978316806 
0 
-0.005319096918725568 
0 
0 
-0.1215535105588402 
0.6406498004221175 
0 
0 
0 
-0.01661900293373069 
-0.038433650658918 
0 
-0.003401821321738429 
0 
-0.007539242349329204 
0 
-0.001789692408618188 
0.01704646854729478 
0.07365947177481413 
0 
-0.1518181417084191 
0 
-0.006576823789370381 
-0.005664554976758076 
-0.001917916842258267 
0.3154635045648075 
0 
0 
0 
-0.122755662751687 
0 
0 
0 
0 
0 
0 
-0.1061946033914087 
-0.03839755232060488 
0 
0 
0 
0 
-0.05392355390938735 
0.1088055759073966 
0.3097831446553508 
-0.01467617455875758 
0 
0 
0.0009614715713323326 
0.3475322499252461 
0 
0 
0 
0.1104411977853801 
-0.006512847257686833 
0 
0 
0 
-0.1160545329169961 
-0.05697020340651255 
0.05472229105797784 
0 
-0.02591164704467543 
0 
-0.05826165439633058 
3.794707603699266e-19 
0 
0 
-0.09558860917928755 
0 
0 
0 
0.01856176022547867 
0 
-0.013402494030866 
0 
0.1581732180994732 
-0.003000679826490659 
0 
0 
0 
0 
0 
0 
0 
0 
-0.1070962096432312 
0 
-0.201437836948896 
0 
0 
0 
0 
0.3286062545202552 
-0.006781153427677305 
0 
0 
0 
-0.001827012702024392 
0 
0 
0 
0 
-0.09650667510229498 
-0.07678517251328495 
0 
0 
0 
-0.01755000728803029 
-0.02783597177463923 
0 
0 
0.06741976080496856 
0 
0.1507520883765279 
0 
0.08505209288200476 
0 
0 
0 
0 
0 
0 
0 
0 
0 
-0.0168733196729679 
-0.01318446521408232 
-0.01224184859375532 
0 
0 
0 
0 
0 
0.0342179544745233 
0 
0 
0 
0 
0 
0 
0 
0 
0 
0.008371092835760303 
-0.07135647849406035 
0 
-0.004804046961424425 
0 
0 
0 
0 
0 
0.05998806159336349 
0 
0 
0 
-0.1050518563207851 
0 
0 
-0.09612505881331804 
0.0175434117841668 
0 
-0.01166248844917639 
0.1684835838986774 
0 
0 
0 
0.1197567296009419 
0 
0 
-0.01163854761843565 
-0.001555179240541313 
0 
-0.01074453909354002 
0.08029922216205417 
0 
0.2355358416858877 
-0.005922250946656196 
0 
0 
-0.05530266115905762 
-0.01971664152020507 
-0.030471746163583 
0.01781148462926729 
0 
-0.1139423143918547 
-0.00194966479575346 
0 
0 
0 
0 
0 
-0.01730590949383783 
0 
0.01663767402852284 
0 
-0.02968208250882002 
0 
0 
0 
0 
0.06321849441167179 
-0.138664543689583 
0 
0 
-0.004294957819800906 
0 
0 
0 
-0.09146319365477362 
0 
0 
-0.05512950771532266 
-0.01721200716114975 
0 
0 
0 
0 
0 
-0.04808911523052613 
0 
0 
-0.09909386446229065 
-0.009682329716630368 
0 
-0.04995808762560585 
0 
-0.001628874145550915 
0 
-0.01778794141190056 
0 
0 
-0.0732312575689695 
0.008057246195895554 
0 
-0.1401273332895989 
0.1980708743077533 
-0.05733433301093695 
0 
-0.004363570631575941 
0 
-0.006854431554955804 
0 
0 
0.03781501910471247 
-0.07129750980957622 
-0.08499674246683257 
0 
0 
0 
0 
0 
-0.03432136825316524 
0 
-0.007520123314606713 
0 
0 
0 
-0.01416320202006993 
-0.07920447286112532 
0 
-0.000101412900255309 
0.003276747840560103 
0 
-0.006414329638839203 
0 
0 
0 
0 
-0.0517380453679991 
0 
-0.004067999592351101 
-0.05867987021839534 
0.3879262178385414 
-0.002533103421500443 
-0.05085794318795963 
0 
-0.02244779595021742 
-0.04854995000585489 
0 
0 
-0.09857258816456725 
0 
0 
0 
0 
-0.02003579020285685 
0 
0 
0 
-0.1001583803217605 
0.01409604877306202 
0 
-0.1001583803217605 
0 
0.01596909976866706 
0 
0 
0 
0 
-0.1202670747682954 
0 
0 
0 
0 
0 
0 
0.004207696996595898 
-0.05993334404873317 
0 
0 
0 
0 
0 
0 
0.1032129024381327 
0 
0 
-0.03353005965319326 
0 
-0.009627143462232203 
-0.01792278061140279 
-0.07171724683919445 
0 
0 
-0.06837077895075859 
0 
-0.02803943162956824 
-0.3492489033927052 
0 
0 
0 
-0.01172437372314955 
-0.1204932106802107 
0 
0 
0 
-0.02541433114887221 
0 
0 
0 
0 
0.0009417124617933854 
0 
0.1474515529288485 
0 
0 
0 
-0.0962822905696254 
0 
0 
0 
0 
0.5096283682820917 
0 
0 
-0.2955609455994003 
0 
-0.1844072707389234 
0 
0.00733896469773703 
0 
0 
0 
0 
-0.07532434504444724 
0 
0 
0 
-8.775261333554552e-19 
0 
-0.0413007469168949 
-0.0004859389870148363 
0 
0 
0 
0.1690900962191433 
0 
-0.007658555245507567 
0 
0 
0 
0 
-0.006963095301921425 
-0.03985331427616862 
-0.005578851236600739 
0 
0 
0 
-0.2161132524715401 
0.03495137532684545 
-0.01394536240999843 
0.02538527690096793 
0 
0 
0 
0 
0 
0 
-0.1953814561656761 
0 
0 
0.01137644556854293 
0 
-0.02863778969437392 
0 
-0.01549452642761328 
0 
0.0230913359085503 
-0.05622817047852343 
0 
-0.01742085146919243 
0 
0.1207419416539542 
0 
0 
0 
-0.01544376317138629 
-0.004378810128697011 
-0.4022076134099484 
0 
0 
0 
0 
0 
0 
0 
0 
0 
0 
0 
0 
0 
0 
0 
0 
0 
0 
0 
0 
0 
0 
0 
-0.0002102038954786638 
0 
-0.0598142161337774 
0 
-0.003097810593032372 
0 
-0.0137488183825665 
0 
-0.01161394902762114 
-0.1396496998761935 
0 
0 
0 
0.03531473532867099 
-0.01287665326189008 
0 
0 
0 
0 
-0.1079835110245181 
0 
-0.02354743988992144 
0 
0 
-0.07956926075532619 
0.001991600916918477 
0 
0 
0 
0.01227266468871357 
0 
0 
0 
0 
0 
-0.05830853571172778 
-0.003956574841230108 
-0.06549307456460128 
-0.1588291218278186 
0 
0.01045101447291962 
0 
0 
0 
0 
0 
0 
0 
-0.006765699763342725 
0.1417343930079296 
-0.004106687367549581 
0 
0 
0.07143031960718738 
0 
0 
0 
0.4984487952030912 
0 
0 
-0.002526817727412101 
0 
0 
-0.115657261768386 
0.04064450086604825 
0 
-0.002600663156493268 
-0.009206299065488912 
0 
0 
0 
0 
-0.2376294540613281 
0 
0.003965525458750573 
0 
0 
0 
0.01146522840939191 
-0.002167508758160257 
-0.1775062805023184 
-0.05343275010837201 
0 
0 
0 
-0.02429833209498995 
-0.01295228819990132 
0 
0 
-0.09823007258728438 
0 
0 
0 
0 
0 
0 
-0.05505487335631349 
0 
0 
0.05172201499780527 
-0.004020721437986011 
-0.01315945304021436 
0 
0 
-0.00272444396512874 
0 
0 
0 
0 
0.01844634782559605 
-0.00578685071190839 
0 
0 
0 
0 
-0.6385365370783268 
0 
0.01228243479685307 
0 
-0.08203997138350651 
0 
0 
0 
-0.01235845367805411 
0 
0.4014885369489432 
0 
0.01978399208929381 
0 
0 
0 
0.01760777457346015 
-0.1230999281563179 
0 
0 
0 
0 
0 
0 
0 
0 
0.01170529491926416 
0 
-0.002984713268305577 
-0.02632778434293378 
0 
0.05487570395781566 
0 
-0.02426038293666631 
0 
0 
0 
0 
0 
-0.01352859699558677 
0 
0.01760080957001223 
0.01850191493584472 
0 
0 
-0.04040579242227762 
0 
-0.0121575575685362 
0 
0 
0 
0 
0 
0 
0 
0 
0 
-0.01754047968668027 
0 
-0.09285924141133049 
0 
0.005490303317380494 
0 
0 
0.3606724828353322 
0.00379614614877771 
0 
-0.06437497050445215 
0 
0 
0 
0 
0 
0 
-0.1052336094799762 
0.1392613683048211 
-0.006985530124966987 
0 
0 
0 
0 
0 
0 
0 
-0.1327585808830929 
0 
-0.009185811518867371 
0 
0 
0 
-0.006421626689789193 
-0.02019575250783134 
0 
0 
0.1712892228006743 
0 
0 
0.0314459089856142 
-0.002946582013155857 
-0.000640821892779247 
0 
-0.03062056929603959 
0 
0 
0 
0.001048639001290503 
0 
0 
-0.2400125718095968 
0 
0 
-0.01204167133165441 
0.004014769313374719 
0 
-0.01905662720681226 
-0.05183187723790879 
0.0250458340249903 
-0.01015232239329319 
0 
7.589415207398531e-19 
0 
-0.06575266461272761 
0 
0.008576395398884178 
-0.01100325259392817 
0 
0 
0.04419524470125505 
0.09304925215634076 
0 
0 
0.2216301411055985 
0 
0 
0.008585064630350773 
-0.00898763555460569 
0 
0 
0 
0 
-0.03114237730454629 
0 
-0.006110467813978305 
0 
-0.002948153759013437 
0.6067580711561329 
0 
-0.006587203023724638 
0 
0 
0 
0 
-0.009538314314537052 
0.02789152204843978 
0 
-0.004729634866180566 
0 
0 
0 
-0.01563762022929971 
0 
0.01309532508441423 
-0.004779965616141975 
0 
0.08724218645817168 
0 
0.02475551071709284 
0 
0 
0 
-0.06007608091596311 
-0.01287124287146368 
-0.01654093133942998 
0 
0 
0 
0 
0 
0 
0 
0 
0 
0 
0 
0 
0 
0.006738944729332157 
0.01412562675285704 
0 
0 
0 
0.07461733898267464 
0 
0 
0 
0 
0 
-0.003805400715952104 
0 
-0.007033483364430044 
0.0332368325886346 
0.07276050772043154 
0 
0 
0 
0 
0 
0 
0 
0.01468191870256277 
0.01618770455727609 
-0.03153712772673511 
0.05967027467813477 
-0.04077734524732565 
0 
0 
0 
0 
0 
-0.07601850470690952 
0.02239238093900794 
0 
0 
0 
0 
0 
0 
0 
0 
-0.001637250073758767 
-0.04989660053158956 
0 
-0.1015520487318531 
-0.01057796645515127 
0 
-0.1473970751869935 
0 
0 
0 
-0.005852342635921198 
0.1237858983157481 
0 
0 
-0.005375355443219582 
-0.0001654389159283284 
0 
0 
0 
-0.02425770881436168 
0 
0 
-0.009237552124246226 
0.001721803099063089 
0 
-0.001896583898331642 
0 
0 
0 
0 
0 
0 
-0.2488098682154847 
0 
-0.02111198698367885 
0 
-0.005656407912515383 
0 
0.003098100543528683 
0 
0 
0 
0 
0 
0 
0.0917455589285928 
-0.01979370691676947 
0.01353564076543697 
0 
-0.02115119134792071 
-0.005966564542002413 
0 
0 
-0.0807552441838057 
0 
-0.02283824379786616 
0 
0 
0 
0 
0 
-0.3980492510553038 
-0.009446785688069665 
0 
0 
0 
0 
0 
0 
0 
0 
0 
0 
0 
0 
0 
0.01309380046247258 
0 
-0.05446996439416457 
0 
0 
0 
0 
0 
0 
-0.003004103279552852 
-0.002386878991433551 
0 
0 
0 
0 
0 
0.1517079448609879 
-0.04733285087990965 
0 
0 
0 
0 
-0.0669638138495328 
-0.01659691360277021 
-0.004878036703713272 
-0.003375904002819563 
0 
0 
0 
-0.01834134651820253 
0 
0.01557178311053767 
-0.04091189228885444 
-0.0005612048696280462 
-0.008149192403307781 
0 
0 
0 
0 
0 
0 
-0.001453607837757834 
-0.2880535413475273 
-0.01174103326378891 
0 
0.02574736310854643 
0 
0.04415372692350131 
0 
0 
0 
-0.3664334845152398 
0.05956400555868522 
0 
0 
-0.07829019026842017 
0 
0 
-0.006648022021170346 
0 
0 
-0.07350619539179837 
0 
0 
0 
0.01143876415910367 
0 
0.01870410212469594 
0 
-0.4182140355821277 
0 
-0.03326608962058135 
0 
-0.0134754012827801 
0 
0 
-0.009684405412057119 
-0.006349199513181363 
0 
0 
0 
0 
0 
0 
-0.01452563241622672 
0 
0 
0 
0 
-0.0340505271044727 
0 
0 
-0.03310957233351557 
0 
0 
0 
0 
0 
0 
-0.02533974599962837 
-0.004847690765702327 
0 
0 
0 
0 
0 
0 
0 
0 
1.084202172485504e-19 
0.02886929113370895 
0 
0 
-0.08085428630243192 
0 
0 
0.2335209277987146 
0 
0 
0 
0 
0 
0 
-0.003296602855672958 
0 
0 
0 
0 
0 
-0.02752679242683712 
-0.01341368461493009 
0 
-0.2676977226200571 
4.336808689942018e-19 
0 
0 
0 
-0.01087295030630591 
0 
0 
0 
0 
0 
0 
0 
0 
0 
0 
0 
0 
-0.04863196569885746 
-0.06006149351680253 
0 
0 
0 
0 
-0.01011226590926991 
-0.0006629344681806316 
0 
0 
0.01587655293970369 
0 
0 
-0.109955742998124 
0 
0 
-0.05796197177993979 
0 
0 
0.03853105112598103 
0.0009269139204976368 
0 
0 
0 
-0.03150632315718865 
0 
-0.05403064955785215 
0 
0 
-0.0005139175271538805 
0.1775869535646083 
0 
-0.004494618464215747 
0 
-0.4445886721276422 
0 
-0.0058006004090027 
-0.01419081066274088 
-0.05802693877903987 
-0.01398865423334816 
0.04927072640200551 
0 
-0.07201183797657981 
0 
0 
0 
0 
0 
-0.2912667920843084 
0 
-0.3583746512235483 
-0.07053025657941554 
0 
-0.002355628073802974 
0 
0 
-0.05325478768551495 
0 
0.04062624209316133 
0 
0 
0 
-0.01786162685451356 
0 
-0.06387089888792005 
0.07527541487440351 
0 
0 
0 
0 
0 
0 
-0.003720194519005572 
-0.04522244558201065 
0 
0 
-0.09228001066018095 
0 
0 
-0.1263752739910817 
0.09016715823023859 
0 
0 
0 
0.3584438681026708 
-0.1998198711432428 
0 
0 
0 
0 
0 
4.336808689942018e-19 
-0.01010119795336008 
0.1702043582099561 
0 
0 
0 
-2.303929616531697e-19 
0 
0 
0 
-0.08147396884265933 
0.01601539600925762 
0 
0 
0 
0 
-0.02260645842899702 
0 
0 
-0.001858462907040621 
0 
-0.00686410557361734 
0.02634879515284743 
0 
-0.02478888931286158 
-0.01278850002530914 
-0.1377519540625495 
-0.001883797208719725 
-0.06108112912406716 
0 
0 
0 
0 
0 
0 
0.004122858647943426 
0.1744042410614022 
0 
-0.1549307340836259 
0 
0 
0 
0 
0.02844564535472403 
-0.01119688886644136 
0 
0 
0 
-0.007918882355121649 
0 
0 
0 
0 
0.2020572950478825 
