solver_type L2R_L2LOSS_SVC_DUAL
nr_class 2
label 0 1
nr_feature 5000
bias -1
w
0.03692743589741956 
-0.163501761649856 
-0.0794672939090048 
-0.1775841326725174 
-0.1898310977406613 
-0.2392570239060967 
-0.2730931397057479 
0 
-0.09830084932487214 
-0.1314376642945021 
0.07953525106582633 
-0.2100852899263536 
0.05260497701218 
-0.03592711655949797 
-0.02183148875306276 
-0.1210181144203192 
-0.2471651231114852 
-0.003507798515213548 
0 
-0.4454558314691917 
0.06745190317017047 
0.2402187231641981 
0.04310356681969669 
-0.04107038171409797 
-0.07665456933279245 
-0.02651492228495238 
-0.8140977798389287 
-0.1713222685253998 
0 
-0.01915609466136693 
-0.2303692049040052 
-0.002414842197619949 
0.1789967005376271 
-0.08790920001797813 
0.1613506878169641 
-0.003724660847520968 
-0.2133418404684855 
-0.1499483898275472 
-0.03121495970395673 
-0.08073750739331609 
0 
-0.09709571869128866 
-0.1862513051548277 
-0.1470803592771345 
-0.1747304068498793 
-0.01918698063480153 
0.03664813376261656 
-0.1643309613093968 
-0.02014694700532595 
0.1062813004513898 
-0.09624019857593552 
0 
-0.07261379999036731 
-0.04269264452370521 
0.1478482802476773 
-0.05064576665576306 
-0.0654178582026661 
-0.3291217543873422 
-0.05741392566029601 
-0.2377942823120257 
0 
-0.1013338584984159 
-0.09309018318074412 
-0.003632695596625716 
-0.01708081194795119 
-0.2407844219081809 
0.1328898440911263 
0 
-0.02309595497088493 
-0.03159120932913685 
-0.3003145050139423 
-0.02239396696401039 
-0.07938534367499131 
-0.005264644435364049 
0.2522192725239169 
-0.04131968002509959 
-0.047446383167176 
-0.01227113615798798 
-0.2593680844794109 
-0.00919513239840518 
-0.178509360062403 
0.2198813131578825 
-0.1801510050402909 
0.09110830775679127 
-0.2458858287747775 
-0.2794214835407214 
-0.4171489009239075 
0.1092048252233902 
-0.523122740113838 
-0.5162563855437639 
-0.02138279100331538 
-0.6253147860030644 
-0.03003749278220147 
-1.201489099900312 
-0.1337008061171578 
-0.146861221358052 
-0.2894966530146652 
-0.111449084040782 
0 
-0.005534438923443627 
-0.0005770039293799723 
-0.0581894797922299 
-0.2103591233988761 
0 
-0.0004506040467336972 
-0.04399320694138776 
-0.01249829436561402 
-0.02273129740690417 
-0.007794980847722183 
-0.1798251204437639 
-0.322760821467446 
-0.09752248830592514 
-1.084202172485504e-19 
-0.0297937700853528 
-0.1186675774462188 
-0.1054967421449081 
-0.07238161635872661 
-0.09977306794625933 
0.1317747361725812 
-0.2484980603157063 
-0.08207459663601045 
-0.2464615912857669 
-0.04356249662372174 
-0.09444954555627608 
-0.1335459828663564 
-0.04283097713006645 
0.02381896278043153 
-0.001946892915808967 
0 
-0.02898447552339381 
0.02338706830453847 
0 
-0.06694020182655804 
-0.06198632585908235 
-0.155194903992806 
-0.09698737476993728 
-0.1907926202548015 
0.02393241083334267 
0.04757009993868527 
-0.03190488311054517 
-0.01827571742570643 
-0.06173070178073167 
-0.02790974668414476 
-0.1284508825946696 
0.06604886743809781 
-0.1219157204641172 
-0.02629384084731789 
-0.0242317052904456 
-0.2731978133916213 
-0.06831900207906216 
-0.07776795750794646 
-0.002952235473044852 
-0.4255825357242335 
0 
0 
-0.1582045773362539 
-0.02500378232277764 
0.07385307634292362 
-0.1067986291624076 
0 
-0.1454782829438656 
-0.1282478689043117 
-0.2443923657215963 
-0.219001850116169 
0 
-0.04168345045494361 
-0.02636819065405879 
0 
-0.05116480406576964 
-0.242605680324848 
-0.004457670930415654 
0.1562323245442717 
-0.09985506286249685 
0.03252937974720917 
-0.04334061739224392 
-0.4246271814107632 
0.2802335018125693 
-0.0738970380714591 
0.3341646572526986 
-0.1231189716616597 
-0.03894146084817176 
0 
-0.08264340295092167 
-0.001787989566954098 
-0.3279682195569543 
-0.01294296119521522 
-0.3845013302107786 
-0.2478985785307937 
-0.08537262308370758 
-0.03580648276698594 
-0.1619290122018971 
0.2121601603331802 
-0.03308377132430576 
-0.0009094881903972869 
-0.1296192624382723 
-0.2105052902269831 
0.1222684781039989 
-0.1723308802347473 
-0.2528408067373335 
0.015172051083369 
-0.04220176591947308 
-0.03885873690032742 
-0.001229885569971348 
-0.1175172511507584 
-0.003196540566659547 
-0.475761204230725 
-0.03259199274482882 
-0.2087396821301864 
-0.0271806437455768 
0.1481816839895105 
-0.07846523970947963 
0.05803722532060902 
0 
0.1440200871539073 
-0.1178018393964795 
-0.001528597737109591 
0.2153348213202383 
-0.06980573970848357 
-0.005073595419040153 
-0.03648137894653505 
-0.1714615468591943 
-0.2299252128073497 
-0.3141863441970613 
0.01516643152007583 
0 
-0.1897498330324227 
-0.2496043847298635 
-0.2665476261673183 
0.05884911624854416 
-0.008783917258539761 
-0.01841890821139569 
-0.1569685913888219 
0.0984201950320025 
0.06248671493092119 
-0.01501446092727701 
-0.1514319171172947 
-0.02231188578111273 
0.1064832947343348 
0.0008078767763927855 
-0.01167311484502221 
-0.04940875392547461 
-0.01549441910410399 
0.00476251253791781 
0.02424069218275485 
-0.03336373555802417 
-0.03889061790192636 
-0.007304024116541435 
-0.1468022071922259 
-0.08117207441554923 
0.2419173440617724 
0.02275406477635982 
-0.04217907379146311 
0 
0.1162386408550353 
0.06485954900899407 
0.003245145412898973 
-0.01597680366706635 
-0.6977027052052732 
-0.07027801138808965 
-0.007068980545847276 
-0.002724920511009822 
-0.1681662406674035 
-0.0005811893762377778 
0.01249885241886291 
0.1389015671751359 
-0.0367144542718836 
-0.03570389803715979 
0.09815063208071809 
-0.1237678824905192 
-0.1848959814501011 
-0.02421276196668525 
-0.04981044092952012 
0 
0 
0 
-0.03658777688949803 
0.003516585127524223 
0.4034077182104354 
-0.03131822424869724 
-0.100072529226196 
-0.5020376748677853 
0 
-0.02208582204997453 
0.02544564288831221 
-0.01840497712071113 
0.1797591252043766 
-0.104816486053297 
-0.02149354909574494 
-0.07480310919478933 
-0.004458443874952835 
-0.5701449409993793 
-0.06756503566973701 
0 
-0.04862074030292125 
0 
-0.04484854146324318 
-0.006025182050115779 
0 
0 
-2.168404344971009e-19 
0 
-0.3303807139571628 
-0.04479260257868008 
0.005646944571542763 
-0.01656057735674988 
-0.1307109761528162 
-0.01641664366670917 
-0.1557078581981408 
0.007135856744699019 
-0.09172553208201925 
0 
-0.1116510919519114 
0 
0.01809805686697372 
-0.002039754448552789 
0.00542405640438307 
-0.3911954073365095 
-0.2250852980256485 
0.04467363777176186 
-0.0929423492314375 
-0.05514764778904965 
-0.06302091217222856 
-0.01253258860532008 
0.002502097032811223 
-0.01107945430889662 
0.2151623775406186 
-0.0130335831658225 
0.3979674004993699 
-0.168068081822293 
-0.01126449025799904 
-0.1695945536306574 
-0.03268337914084293 
-0.1772667681665125 
0 
-0.02814857350325678 
0.03012839208003942 
-0.0458373770088224 
0 
-0.01494674840860153 
-0.5575707798074339 
0 
-0.2955441926337171 
0.01738007897188974 
-0.01726338260182851 
-0.03697875415905821 
-0.1636110398566038 
-0.6751816390870778 
0.08931923047607537 
-0.1202681667556389 
-0.0003722432914257221 
-0.1161004003538996 
-0.01302407428464649 
-0.003276162226546939 
-0.02121892028121337 
0.3060934197645325 
0.01299430118493389 
-0.05997582745947575 
-0.310465041824638 
-0.009589377628579535 
-0.07499950382969446 
0 
-0.570259506463007 
-0.08451116408464771 
0.101963263927639 
0 
-0.6119064577754871 
0 
-0.07707260639015411 
-0.0329901315571799 
-0.0471869099163096 
-0.3702137670484563 
-0.02643528514615899 
-0.2008537525366252 
-1.301042606982605e-18 
-0.3569115283503909 
-0.1916279809438421 
-0.1168326445647779 
-0.08601801992865327 
-0.07671094328529611 
0.01181542998744536 
-0.2151117927910635 
-0.01475954082273702 
-0.1047546777359851 
0.01784928928848561 
-0.0772255271244315 
-0.04023229530819001 
-0.4656349728228033 
0 
-0.205964583401577 
-0.8168780609634808 
-0.006920942114733636 
0 
-0.01208950506092059 
0.2047174228379052 
-0.07512157627582701 
-0.1314162119944682 
0 
-0.01711333934489309 
0.129829028914324 
-0.01694664895380412 
-0.07675668862466832 
0.1879277132059413 
-0.002170715207434936 
-0.001097246486705363 
-0.2019514441961593 
-0.2176657962745901 
-0.002940593756580873 
-0.1419347715419701 
-0.2292226040148072 
0 
0.01449415502998629 
-0.3928817471057334 
0 
-0.0154101813563502 
-0.7576582363763619 
0.05552061734865681 
-0.1775178391110874 
-0.04895527798408767 
0.05299560573333286 
-0.2068881175078096 
-0.152234419866743 
-0.1932857575518735 
0 
0.03517205619898166 
-0.187146203435397 
-0.06994894021439538 
0.02276641522500051 
0.03322757354964866 
-0.07809349903608824 
-0.1058357801911764 
-0.02158337329540987 
-0.2077307743984075 
-0.6848346850993748 
0.02641267792289008 
-0.2108942883410144 
-0.004385941270295307 
0.2103977133475845 
-0.03351219434415634 
-0.0457382730700205 
0.01725449410929726 
0.3139006604585536 
0 
-0.7427455213019504 
-0.04516033714482427 
0.03960036677215469 
0.2271329475388278 
-0.09382500341254975 
-0.04897830121396793 
1.319527194625129 
0 
-0.06680246615433896 
-0.006180127289781479 
0 
-0.5928863698007362 
-0.03934059537765235 
0.01488655719888666 
-0.1868098004821326 
6.505213034913027e-19 
-0.03308877445740621 
-0.2540549981967157 
0 
-0.0368893846306142 
-0.0223705442997539 
0.09162635102257045 
-0.1511498575066584 
0 
0 
-0.2178858109088834 
-0.06328183198540321 
-0.0475548022390667 
-0.003928823646642288 
0 
-0.007949795449907104 
-0.03788999270605752 
-0.01912893488583851 
-0.01108648078979436 
-0.04829187136786185 
-0.001578753855741447 
-2.989937045280966e-06 
-0.06847593356758076 
-0.1028797829794768 
0 
-0.1399556009027625 
-0.09049057723565851 
-0.0824330520922374 
-0.005776462291077873 
0 
-0.02949070531229792 
-0.1489602523638716 
-0.1403162884373477 
0.1065242039863212 
-0.4828204393451369 
-0.162066792965769 
-0.0047631588071661 
0 
-0.2291212887702573 
0.03689430784994717 
-0.1293242211259375 
-0.002092422991831027 
0.07838487940673697 
-0.09153648337056364 
0 
-0.003989645249792045 
-0.02459561430736977 
-0.02272450239376585 
-0.003320889976217025 
-0.09092620227494173 
0 
-0.007941889354199946 
-0.01845188865591996 
0.09348476528787754 
-0.1097549077996893 
0 
-0.1287414964587376 
0.05461035846947907 
-0.1193344172154633 
-0.0848717202071689 
-0.004426395917223532 
0.04966101228769246 
3.388131789017201e-20 
0.01587089183441488 
-0.02856569497617854 
-0.01480283825456199 
0 
-0.1312252611984952 
0 
-0.006195088447009773 
-0.02132396257567611 
-0.02872879014452271 
-0.09303073145402917 
0 
-5.421010862427522e-20 
-0.008068237557600361 
-0.0119337828113311 
-0.06501845799398115 
0.04157255085919344 
-2.168404344971009e-19 
0.2465286015747218 
-0.007952704098970731 
-0.002807582009343149 
-0.141315089746857 
0.06808098980691729 
-0.1633358898362968 
0.02016200567555839 
-0.1492773106060139 
0 
-0.003500635154506327 
0 
-0.4598128129003084 
-0.0564687618955568 
-0.5366363626098932 
-0.3205424644936036 
1.517883041479706e-18 
0 
-0.08040412957232354 
0 
0.2861861595687271 
0.08444618514661825 
0 
-0.009371741649678205 
0 
-0.01295538497718735 
0 
-0.02917166450234875 
-0.4089246130435982 
-0.02200448336401032 
-0.1105151364091914 
-0.02864932882241424 
-0.003219909664107203 
-0.003323611462264226 
0 
0 
-0.02314081180260914 
-0.01400113668758426 
0 
0 
-0.06430297993254468 
0 
-0.008875031079756627 
-0.006359196900327997 
0.0521095521393713 
-0.3943964072493537 
-0.2657055425261791 
-0.002461824004279425 
0 
0.4173489061411609 
-0.007122399498426964 
-0.04710197003250474 
-0.02410506021898942 
-0.01240532980073791 
-0.005614265659596974 
0 
0 
-0.0491408536488511 
0 
0 
-0.1658449481351213 
0.01234160080420311 
0 
-0.007294430910918932 
0 
-0.1513608168244546 
-0.05928721861551414 
-0.01027622059952673 
0 
0.00775407892542834 
-0.01518497947172882 
-0.005605547938604867 
-0.1159789237474651 
0.1981990246862202 
-0.1545292462320163 
-0.03761854587238674 
-0.004193291098406231 
-0.007041286980094378 
0.1511531073905893 
-0.002207839155211623 
-0.3264084147023146 
0.007746192793561067 
0.006064412271587339 
-0.02892890872593235 
-0.03125484255043343 
0 
-0.03161772660385846 
-0.01171027946419473 
0.026261215545248 
0 
-0.1370265116054959 
-0.001805418962071099 
0.169486335542706 
-0.03094079429669312 
-0.02211629259107678 
-0.09244419873649105 
0.001599182665350017 
0 
-0.01106791006772099 
-0.02299985108295235 
0.01499296948522149 
-0.1469711970166452 
0.08335516269452986 
-0.08249555487936742 
0.01495478797473153 
0 
0 
0 
-0.004745536871989798 
-0.02151604703208148 
0.06068443496757359 
-0.0287286627991923 
0 
0 
-0.01808936868270509 
-0.02080145284615112 
0 
0.109579617063703 
0 
0.02357937131804422 
0 
0.03074124263363898 
0.01930104264887605 
-0.09920567676580906 
-0.151003880202133 
-0.0275745070656036 
-0.07598147607487439 
0.0291506921992055 
0 
-0.002505427562638629 
-0.05636482819857706 
0 
-0.07829877060378376 
0 
0 
0.007881937242889325 
-0.08121375808293987 
0.0296626749782649 
-0.1548925220984434 
-0.1186662294289166 
0.03124311615932899 
-0.0640395077450745 
-0.01826245645536259 
0.1405579765402877 
-0.001158261765771718 
0.02424121389756726 
-0.02779984286608898 
0.01922191349089358 
-0.04562126193311812 
0.3814792494925058 
0.04020422941702317 
-0.01712050986841551 
0 
0 
-0.06527531055439977 
-0.00118861883113313 
8.673617379884035e-19 
0.3573191876035112 
0 
0.04206533311702519 
-0.0737411992787332 
-0.01391373737749984 
-1.626303258728257e-19 
0 
0 
-0.001172203478753021 
-0.02551931574435956 
0.1429558029254649 
0 
0 
-0.01590410310672509 
-0.009874241992341722 
-1.219727444046192e-19 
-0.001762315327822599 
-0.01385270816549572 
-0.149758377144061 
0.007615506216712213 
1.084202172485504e-19 
-0.1119896095264166 
-0.005123893007279403 
0 
-0.002581685823664634 
-0.1576362289493357 
-0.1470840625952637 
-0.007503109028048897 
-0.03012793589913441 
-0.0236169231822395 
-0.01782591051640657 
-0.003847638751633472 
-0.006496465942369088 
0.1983108190269113 
-0.3016433033369019 
0 
0 
-0.1210797131919049 
-0.03740373291400099 
-0.0590815270286277 
0 
-0.0119953273695569 
-2.168404344971009e-19 
-0.0363240731726347 
0 
0 
-0.07901108977606515 
-0.04160867381949134 
0 
0 
-0.3592604479361982 
-4.065758146820642e-20 
0 
0 
-0.01076860037274872 
-0.02048705740970268 
0 
0 
0 
-0.02374209673210566 
0.1098094983235204 
-0.1833295964015738 
-0.125533532063216 
0.0926808403251218 
-0.02524414651809259 
-0.04718106755004344 
-0.04119097806575358 
0.2112346304045147 
-0.3016239130758462 
0.06421891098191199 
-0.06402473427813425 
0 
-0.04395028796464377 
0.01245933335031184 
0 
0 
-0.05473122652369419 
-0.00195026165587298 
0.1730712609570789 
-0.08309757727342261 
-0.01360991513326457 
0.01336506890232969 
-0.03170495943439515 
-0.07811547853689137 
0 
-0.3029647692378503 
0 
-0.3875025950032274 
0.1471744126120176 
0 
-0.1032007840542649 
0.02600371079937599 
0.03054352965724799 
0.1982624906355035 
0 
0 
0.07491066311001679 
0 
0 
0 
-0.002382787724533709 
0.01142390094024574 
0.1967402396095872 
0 
-0.07201957885984184 
0.01776559893362335 
-0.00787336479917094 
0.1799165733054416 
0 
-0.001959010442011129 
0 
0.1943782906541333 
-0.006287843597941475 
-0.1214707902473674 
0.2486993960711974 
-0.2230095281199758 
-0.005953953850508851 
-0.008937457578254066 
-0.1783005378449725 
0.3776025549046933 
0 
0 
0 
0.1143471580471868 
0.07291629884596608 
-0.0146249887363255 
0 
0 
-0.004710713641056075 
0 
0 
-0.2639244549633304 
-0.0322374398901666 
0 
-0.3149710379347561 
0 
-0.005057402869627036 
0 
-0.04363134868007714 
-0.02837693101874406 
0 
-0.06164472434971002 
-0.1062433687199321 
-0.009357134214392621 
-0.1484247084295032 
0.02148825671010911 
0.06451445497684559 
-0.07055211203972236 
-0.08912159407333994 
0 
-0.006271748409460274 
0 
0 
-0.007270311462839019 
0 
0 
-0.1099068353427616 
0.02483332011312071 
0 
-0.00488692495128585 
-0.03485175557977446 
-0.03141398302532895 
0.1730491384495111 
0 
0.0274005560682226 
0 
-0.02033589154209765 
-0.1090982220910463 
0 
0.004963392213154697 
0.3227517151531333 
-0.04454393116083918 
0 
0 
-0.2914331278462053 
-0.0364793033176229 
-0.002260707216244503 
0 
0 
-0.1878165941209755 
-0.1464607554446805 
0 
0.01271855353135077 
-0.6269676608048224 
0 
-0.009698336482809837 
-0.04696034248062229 
0 
0.008540426962716121 
-0.0461134195576423 
-0.009164477022485608 
0.03983100530209172 
-0.1678092977536436 
0.2818594667856794 
0 
-0.2270538553195377 
-0.0133508617245227 
0 
-0.03585507313035507 
0 
-0.02021817008541434 
-0.2397732257703207 
-0.505528789984571 
-0.006902033603637036 
0 
-0.08859299157745802 
0 
0.06505207592400936 
0.04719952139384236 
-0.3684403714262989 
-0.09438396564615202 
0.1186552042653688 
-0.01446532179122935 
1.626303258728257e-19 
0.06074721551239477 
-0.1051015215408221 
0 
0 
-0.007113499028227805 
0 
0 
0.01726055613290774 
-0.05381276544398379 
-0.05653868253024187 
-0.07990917193862385 
0 
0 
0.06399752771330615 
0 
0.0151920157766803 
-0.002157545302713271 
-5.756849472833728e-06 
-0.05983849517470329 
0.06939919715920861 
0 
0 
0 
0 
-0.008752205479884215 
-0.1351489185703472 
-0.4700263283914342 
0 
-0.02325139281280791 
-0.09327364625432406 
-0.2586426382874747 
0.4302201756375918 
0 
-0.004574915382014998 
-0.004007472747307912 
-0.003026996876335646 
-0.002939442409027913 
-0.1825999414727546 
0 
-0.01296095316847682 
0 
-0.08070041536673342 
0.2887544549813155 
0.02621296839516422 
0.1154909620363631 
0 
0.04613528303284101 
0 
-0.08827326659414476 
0 
-0.08265213968409189 
0 
-0.1051906812346363 
-0.005626374688678932 
-0.00687513274169645 
0.2064383887654974 
0.09944512197065059 
-0.08871629612844774 
0.06893320102853548 
0 
-0.02794620921015301 
-0.008296374388251494 
-0.005617036261005883 
-0.00521893926529483 
0 
0 
0 
-0.05896771390934328 
0.001221345798591349 
-0.04279722244894018 
0 
-0.060218848709772 
-0.06312585531665528 
-0.03579445342317541 
-0.1049002273482282 
-0.00945798357730555 
-0.02813548467937314 
-0.03987373131199163 
-0.05422585636932031 
1.355252715606881e-20 
-0.05533792445522168 
0 
0 
-0.06245746220272321 
0 
-0.02952010285524044 
-0.0117445660834717 
0 
-0.01450257980572792 
-0.0863690501440145 
0 
-0.0107720111772644 
0.08405699367184662 
0 
-0.005781647715128614 
-0.1157949149466095 
-0.06413213172910137 
0 
-0.007982504750022617 
-0.001037904636216951 
0 
-0.02518258192449383 
-0.2399667201072636 
0 
-0.02600181383228878 
-0.1631648709214933 
0 
0 
0 
-0.03010250544569149 
-0.1057041201732069 
0 
-0.01702484632250427 
-0.01220688513730359 
-0.03194201014660412 
0.1181545773331805 
-0.01782303148286658 
-0.03090284109352431 
-0.06444103211424701 
-0.08118767724184871 
0.04748666407820418 
0 
0 
-0.03361015566737255 
0 
0 
-0.007237621993724867 
-0.0008451338216123298 
-0.09261906616704725 
-0.03651302159150163 
0.6458277779793793 
0 
-0.004431960389555818 
0.3905312028919223 
-0.04156031379246001 
2.042382523177109 
-0.009114880955183024 
0 
0 
0 
-0.3630015790788633 
0 
-0.003980280725094164 
0 
-0.01564662102647964 
-0.3014925557236178 
-0.06681252364543859 
-0.06990659250631992 
-0.1636791336565713 
0.001971409433329214 
-0.4340990139694029 
0 
-0.006117371939608095 
0 
-0.1657715952086911 
-0.150618684706164 
0 
0 
0.1233355811166103 
-0.1322253173949995 
-0.0009566542656836919 
-0.009364995377988322 
0 
-0.02129803648322441 
-0.01083023303393236 
-0.1178292529938393 
0 
-0.1612842600344385 
0.0207589653250102 
-0.118079586234206 
0.6222633929698144 
0.3299118778374514 
0.0568240737076337 
-0.01437358009569641 
-0.1574970390388629 
0.368960821595548 
0.02897113331460887 
0.1016380945440744 
-5.421010862427522e-20 
0 
0 
-0.01903159957071173 
-0.02769971645910752 
-0.00157689603491081 
0 
-0.1476236235952651 
-0.009650978788799561 
0.5192463698789288 
0.0868307968774554 
-0.1185476690327183 
0 
0 
-0.03302050855266397 
-0.09560314346989524 
0 
0.05364629585396289 
0 
0 
-0.02018939732983718 
0 
-0.0120378563737584 
-0.01154298041362561 
0.0229923041436792 
-0.05714354297572828 
-0.04144504192867654 
-0.01899584472469365 
0 
-0.1107905637285047 
0 
-0.004088229568212123 
0 
-0.1915119226302791 
0 
-0.102584395128017 
0.007491511325166794 
-0.137582547324407 
-0.1875648664182405 
0 
-0.0536669157293445 
0.02563869593803579 
0 
-0.05534533383721292 
0 
-0.002018536053367223 
0 
-0.007383185727193881 
-0.01604949516148201 
0 
-0.008512655294404687 
0 
0.03337605905616098 
0 
0 
-0.04244668882667885 
-0.1270695997449487 
-0.1171675793232744 
-0.461576846927701 
0.08633020322218739 
0.2354392451655541 
0.03855124110918814 
0 
-0.1592677686398304 
0 
0.1075732906907823 
0 
-0.01394713110383447 
-0.05489005138930504 
0.05535121552200276 
-0.03892851670831705 
-0.3730237641545431 
0 
0 
0 
-0.009744342666706486 
-0.01522874993404822 
-0.0598243191330915 
-0.05605871230829278 
-0.03907516677357201 
-0.01225963382135614 
-0.003682865033083712 
-0.01380088378333975 
0 
-1.490777987167569e-19 
-0.01129630532810904 
-0.01364290025762 
0 
0.03472238257214447 
0 
-0.256589400844309 
-0.002098419588979333 
-0.0196055476419566 
-0.07321184482373952 
0 
0 
0 
-0.1444657366548261 
0.0008743352744709862 
-0.01286810483423307 
-0.1589557302216321 
0 
-0.04688770397183824 
-0.5003441379839515 
-0.06257291407163026 
0 
0.001051759011553672 
0.09659661979129579 
0 
-0.2045538516734546 
0 
0.02433330893512041 
-0.005300196907067361 
0 
0 
0 
0.01247686630114575 
0 
-0.08208097488741836 
-0.03706242731547933 
-0.2300342116106844 
-0.109481132968565 
0.09401652317950875 
0 
0.004324443076062025 
0.1412089050465615 
0 
-0.04565392764626209 
0 
-0.4066659777587991 
-0.001061137946249028 
0 
0.1603956013645502 
-0.1121674150036344 
-0.2436978226302913 
-0.002499838231890898 
0 
0.03979871843486225 
0 
-0.5867516946389104 
-0.2198271651388611 
-0.04701920848394577 
-0.01805500226590001 
-0.06958737092868886 
0 
0.04009423358153826 
-0.01679991823585588 
-0.1805356419349235 
-0.00547862770911027 
0 
0.03667842767396455 
-0.09188700379677411 
-0.07534709484155547 
-0.1398818825277445 
-0.02111226877013083 
0.01263523519766865 
0 
-0.06195457319653642 
0 
-0.06992549717801659 
-0.002843946421150227 
-0.005332478741259075 
0 
0 
0 
0.0065254806104634 
-0.08689724211977008 
-0.1954444060143023 
0.009369046959904937 
-0.006295218475282952 
0 
-0.02311747229032977 
-0.004225185716641803 
-0.05015428147045497 
0.009342777398864901 
0 
-0.07326926513818183 
0.1323533662781662 
-0.006554184274876168 
0 
0 
0 
-0.01139368998617572 
-0.002497905948354387 
0.1677226225960696 
-0.0298838309543196 
-0.1000228448258342 
0 
0 
-0.1345136404834211 
0 
-0.03493839438683793 
-0.05501743883788993 
0 
-0.01541554892281404 
-0.01058077081229029 
-0.1275097055549637 
0 
0 
0.03486305720258873 
0.1399383092257865 
-0.06341889703124035 
-0.009512605722285258 
0.1130288195763785 
0 
-0.001542830920228334 
-0.01066614732320472 
-0.00314230767896445 
-0.01898756823443952 
0.1171403324250945 
0 
-0.2266715890781961 
0 
-0.003434176739818092 
-0.008596893341626709 
-0.01099364312642582 
-0.04744572203593424 
-0.1162832902729007 
0 
0 
0 
-0.1061257022657779 
-0.01174880316625389 
-0.01675673889903568 
0.03509470890660443 
-5.421010862427522e-20 
0 
0 
-0.005802997333225491 
0.02061484231505221 
0 
0 
0 
-0.1292068147231682 
-0.1859262757247399 
-0.03566175964249932 
-2.891473361346429e-05 
-0.100517053434586 
0.3205339710273272 
0.002514917991387552 
-0.008796337954319751 
0 
-0.003539615161154026 
0 
-0.09851916822271994 
-0.03363424395777409 
-0.006498683942177875 
0 
0 
-0.05571979413139388 
0.0416485119998679 
0 
0 
0 
-0.3065594793559727 
-0.307060702177064 
-9.242077075718882e-06 
-0.00369264455509959 
0 
0.01453841649459334 
0.02301828306433293 
-0.02315948035433836 
0 
-0.006458636348339508 
0 
0.04381470153712624 
0.01271519843738114 
-0.122815397964382 
-0.01867150525704 
-0.005043031965020543 
-0.04097324880901647 
0 
-0.04304567625442834 
-0.1464608240285875 
-0.005579521540742947 
-0.003978731283796264 
-0.007332334028139788 
0.05367236715125689 
-0.1648190972944053 
0 
-0.0636634149116253 
0 
0 
-0.06928967730784252 
0 
0.01430179805669634 
0 
-0.04470111773827255 
-0.04243776924715442 
-0.04682952665483158 
0 
0 
-0.04373484147879632 
-0.002736413048172875 
-0.003030859203358906 
0.04460940073294123 
0 
0.0336046702756904 
-0.03493599474870476 
-0.4225587440471911 
0 
-0.02102922814388426 
-0.01367155381603167 
-0.0304379335387182 
-0.05330472184529936 
-0.004480920800118368 
0.01729414635812085 
0 
0.02557680144315408 
-0.05025023692505767 
-0.003707593803358361 
0 
0.0005568624592593835 
-0.01229728887841149 
-0.0203762546086186 
0.07854924312404796 
0 
0.01814083786245114 
0 
0 
-0.2656162372032218 
0 
0.04632853764309289 
-0.06010267462026127 
-0.04756071080284502 
0.00427057892127235 
0.004921765833188628 
-0.08866236253370134 
-0.02290480881717013 
-0.07119829800028879 
-0.09539514248519515 
-0.4530364329006686 
-0.03355292164624483 
-0.1297052612325443 
0 
0 
0 
0 
-0.009602631336508747 
0 
-0.006199596479138294 
0.132226652504178 
-0.2952756263351103 
-0.0887003063763467 
0 
-0.01056187086805622 
-0.01817123101170483 
-0.1961811876419061 
-0.007956449537057316 
0 
0 
0.04229089065483489 
-0.03337974323789258 
0.165671960803247 
-0.02004307821415566 
0 
0 
-0.008105385835241417 
-0.09749792173646016 
-0.02529277250198435 
-0.01138171137496597 
-0.05969718967032795 
0.3222085961023465 
-0.03252644074794742 
-0.2231920760520358 
-0.1174347229377938 
0 
-0.003494793211487146 
0 
-0.1750764577604365 
-0.05445154863841808 
0.362520427781791 
0 
0.125888670246279 
0.5438601458176612 
-0.01939895899225337 
0 
-0.005841459042267627 
0.009079324735738976 
0 
0.06349360487904604 
-0.00321856961959859 
-0.03008417689397551 
0.1311690635114328 
-0.00754143256818764 
0 
-0.02527998627153973 
0 
0 
0 
-0.08163811557065789 
0 
0 
-0.02946803078314891 
0 
0 
-0.04965971209357919 
-0.1829860731996295 
0 
0.04440497853478433 
0 
0 
-2.134517888913073e-05 
0 
0 
0.132246645700818 
-0.1714172933413722 
-0.05401815190010494 
-0.05773405012023418 
-0.001969895495993627 
0 
0 
0 
0 
0.0003692576559437309 
0.005609324521639212 
0 
-0.02510707104767711 
0 
-0.01458323292769787 
-0.004249812149926857 
0 
-0.0981951983476292 
-0.1415161675136308 
-0.06893565470518392 
-0.0006326536767308209 
-0.00800250841324136 
0.04634592212684158 
0 
-0.2176139714253258 
0 
0 
0 
0 
0 
0.01679532330775432 
0 
0 
0 
-0.04839257804265282 
0 
-0.3347263853958828 
0.3175277301748777 
-0.02454633386073276 
0.0001612592037612336 
0 
0 
0.002937381927312336 
-0.005617193299208649 
0 
0 
-4.086748670512059e-06 
0 
-0.08121080618314326 
-0.1303961740061736 
-0.0547022279770776 
-0.02775446027810554 
0 
-0.4310358464380857 
0 
0 
-0.08430264120529116 
-0.03746472906390153 
0 
0.01650804169866798 
-0.02419482001263466 
0 
0.03175918609451027 
0.04472471345315088 
0 
-0.01541292988010301 
0.003040670485475321 
-0.000979342666456459 
0 
-0.09353677631389294 
0 
-0.1346068172689589 
4.336808689942018e-19 
0 
0 
0 
-0.001748758925234956 
0.120971086572085 
0 
-0.2255009476045834 
0.133038841104769 
0 
0 
-0.1447209838653729 
-0.007282772398492104 
0.00581762244953046 
-0.2109420325136145 
0 
0.07483709322446759 
-0.03412413931229918 
-0.001888851104223595 
-0.06535821277768225 
-0.002467540122508582 
0 
0.004694557505571319 
-0.02175228558386298 
0 
0.3728646736912199 
-0.004252452297224076 
-0.1088099787785515 
0 
-0.04621579851590643 
-0.01500961716336769 
0 
-0.01771898033962696 
0 
0 
0.5713162468947421 
0.7843730340190118 
0.112127852697274 
-0.05377377677521802 
-0.009156936684885276 
0.3606643210272322 
0.02561171035892964 
-0.004056761405541098 
-0.01810952718265386 
0 
-0.07041689752545439 
0 
-0.004988269082727771 
-0.00205251847006537 
0 
0 
-0.1432242965718893 
-0.003756417572549754 
0.131446171465366 
0.009251652978265627 
0 
0.1749499538619924 
-0.06105910580470891 
-0.003927068046273388 
-0.07589461854365009 
0 
-0.004131970561794623 
0 
-0.06563834864485354 
-0.03797247862409994 
-0.06128684885541274 
-0.007606123273820089 
0.1513366896834577 
0.005176547644853696 
-0.004116869436781538 
0 
0 
0 
-0.007473998505428637 
0 
0.3171747500665929 
-0.06902436174793644 
0 
4.37123952253572e-05 
-0.005954326767373294 
0.07739916761483556 
-0.002082065537482019 
-0.2366912084733946 
-0.004875462397373441 
-0.1143784241615213 
-0.04318838369781976 
-0.1052454307170303 
-0.002556952363338792 
0 
0 
0.1007582414735901 
-0.2554839540806146 
0.05470353436579671 
0 
-0.1008628316781571 
0.02291873786680455 
0 
0 
0 
0.00474921220357336 
-0.008044170039822697 
-0.3079013190467959 
0 
-5.421010862427522e-20 
-0.4425657267316417 
0 
0 
0 
0 
0.003433380552205007 
0.03291856216359895 
-0.08903273726615246 
0.004390895581697912 
-0.3125189353517125 
0 
0 
0 
-0.04417307081950919 
-0.1220655205433301 
0 
-0.2748053100280662 
0 
0.03596835428982963 
0.003106924514439659 
-0.01063092158771719 
-0.1858178552708863 
0 
0 
0 
-0.01966117333363932 
0.1726186941738363 
0.03805504870393902 
-0.02316927944366693 
0 
-0.07577608694738446 
0 
-0.01047989856609311 
-0.01281333643249558 
0 
0.7089144362690274 
-0.02923538436566038 
0 
-0.02544910869191513 
0 
0.02901222148542629 
-0.01021392819839677 
0 
0 
0 
0 
-0.1269651067787908 
-0.1779417242780678 
-0.1672883856286476 
0.1643701651479931 
0 
-0.1208151035619119 
-0.0100280751704682 
0 
0.06478377565610857 
-0.08181049371159135 
0 
0 
-0.3201614261445621 
-0.009520888583503336 
0 
0 
0.07658372456010283 
0 
-0.002985144115977055 
0 
0.1246520088780328 
0.8114270266913549 
0.02667506436026489 
0 
0 
-0.005574793176151972 
-0.002532064019848298 
-0.1286196851210812 
-0.03728292404557162 
0 
-0.01350105516256558 
-0.3379304430780755 
-0.009330201674495929 
-0.003360798593613394 
-0.03675783564383164 
0.02077773704975558 
0.0235981169865796 
0 
-0.009922002133424446 
-0.09783766469372102 
-0.1571681053267364 
-0.0676596659211632 
-0.2556036663522395 
-0.05515076280311405 
0 
-0.02690118402709938 
-0.06091907463367659 
-0.001757300482287317 
-0.02635327324561062 
-0.04338678433494701 
-0.05747912392111731 
0 
0 
0 
-0.04026299969440236 
0 
-0.1569132219690857 
0.00709934122514685 
0 
0.09704910893708719 
0.1165818642052047 
-0.05441781699529617 
-0.07213525392341634 
-0.01933616062855009 
0.01218714041721356 
-0.01159438711205707 
-0.001810633409926338 
-0.07416778326082794 
0 
0 
-0.2291381979527717 
-0.04174013077822875 
0 
-0.06242276045425105 
-0.01052991498994063 
-0.008813959748412278 
0 
-0.4895210884183787 
0 
0 
-0.5061869121638666 
-0.05335217024978135 
0 
0 
0.05071839209794783 
0.02946230219367102 
0 
0.1255481549246791 
0 
0 
-0.003846378293208763 
-0.03214908219833065 
0 
-0.009000125879136216 
0 
0 
-0.008393518739585963 
-0.001383879441476534 
0.01428160937690902 
0.08516865119659818 
-0.1353046409028956 
0 
0 
-0.1224056420708536 
-0.1018183616794497 
0.04285811490973757 
0 
-0.02326436018132757 
-0.03417189463527537 
-0.02976841574232181 
-0.01068797115241389 
-0.03971613849387846 
0.004135599361844943 
0 
-0.03145171834395242 
-0.0606532990172537 
0.08096924715979861 
-0.004095917539220014 
0 
-0.004510129242393911 
0 
0.08968422300325915 
0 
0 
0 
0 
0 
-0.02314182067556567 
-0.03892153712390667 
-0.002398949402500995 
0 
0.0599288952025624 
0.0533403028009922 
0.1742192911434351 
0 
0 
0 
-0.004196896665837842 
0 
-0.1842860820718484 
0 
-0.01439331518225368 
-0.01264454799998942 
0.00015530317736344 
-0.03234075385834706 
-0.00320925912849839 
0.5124113382471958 
-0.0007040197599459983 
0 
0.07411742237634593 
-0.05498167396333544 
-0.1987522708878567 
0.01191859150491155 
-0.008929085602837346 
-0.1445208957695087 
-4.065758146820642e-20 
0 
-0.005507051506905721 
-0.04174157859562417 
0 
0.03058856446914134 
0 
0 
0 
0 
-0.01462615673452581 
0 
-0.004930392752189804 
0 
-5.421010862427522e-20 
0.00569322831632442 
0.07186422660107833 
-0.2239591549865902 
0.02227116340346421 
-0.08521607641384973 
0 
0.03997714524484416 
-0.08423830117982645 
-0.002435400939548413 
-0.02941821790850089 
-0.05379677119007237 
0 
0 
0 
0 
0 
0 
0 
0.03515122358413515 
-0.1470227862042255 
0 
0 
0 
0.01111087025991273 
-0.006013919441388764 
0.01237555523097687 
0.3171349917122993 
-0.149089614275935 
-0.05832874393336307 
-0.1007553176343331 
0 
-0.03117011417053959 
-0.001696510267722835 
0 
0.2075239564652009 
0 
0 
0 
0 
0 
0.1799852505679241 
0 
0 
0 
0.6928762037040408 
0 
0.04765420646623783 
0 
2.168404344971009e-19 
-0.008130392517762193 
0 
-0.06906974677439111 
-0.07365902994250752 
-0.04889818502255183 
0.1000607514363709 
0 
-0.02292772878668868 
-0.008514928035087688 
-0.3257040071872407 
0.03411638588668348 
-0.1055322515536303 
0 
-0.02995187800102606 
0 
0 
-0.04822546776113726 
-0.446166755011794 
0 
0.03898257636852811 
0 
0.3648188347621472 
0 
0 
0 
-0.08582411403438288 
0.01632110839321927 
-0.01407264328922114 
-0.001540167801551501 
-0.01685497312261424 
0 
0.01553445661177967 
-0.04544133979982498 
-0.04671557981762974 
-0.03984503274843069 
-0.05316644911741598 
0 
0 
-0.08341026779255468 
0 
-0.001783757417771949 
0 
-0.009055071551860989 
-0.07624647853508788 
0 
-0.09272662956998466 
0 
0 
-0.06977824613673898 
-0.03389103946952782 
-0.5929573884048992 
-0.008942655485327577 
0 
0 
-8.673617379884035e-19 
0 
0 
-0.08288252371681734 
1.355252715606881e-20 
-6.776263578034403e-20 
0.1560762138951642 
-0.1453239541511689 
5.996993266560446e-19 
0 
5.421010862427522e-20 
-0.2048807643081098 
-0.1301873555361313 
0.07964942810723816 
-0.1134193837557791 
0.05947171510973796 
0 
-0.01883774443146563 
-0.04346239641891916 
0 
0 
-0.01651425793906012 
0.02281620402486608 
-0.03426451432485407 
-0.08091914832986297 
0.03920774008828608 
0 
-0.06815737229426728 
0 
0 
0.08539734278323445 
0 
0 
-0.208310198369504 
0 
0 
0 
0 
0 
0 
-0.6842161826177297 
0 
-0.09123976564859265 
0 
0.09583058215286765 
0 
0 
0 
-0.08958751495583056 
0 
0 
0 
0 
0.2225758586814645 
0 
-0.03010282570177938 
0.0227138474688332 
6.938893903907228e-18 
-0.0294746365336886 
0 
-0.006339202155322134 
0 
-0.3568855270272011 
0 
-0.06044976045435722 
0 
0.05300298712558488 
0 
-0.0145821762259836 
-0.04509342618634294 
0.05348109993194269 
-0.1158642442304199 
-0.1369534809078376 
-0.04456992750167187 
0.0399051371296515 
0 
0 
0.03508879118842369 
0 
0 
-0.00587547208699135 
0 
0.1533595413911926 
-0.2304125692288423 
0 
0.5368073494150888 
0 
0.03810746710795074 
0.0506370248006948 
0 
0 
0.06858531454732618 
0.03836040579023934 
-0.01612148600753106 
-0.2153602366500558 
0.01268751134304731 
0.04025110824727764 
-0.00210302417719804 
0 
-0.2407467513320146 
-0.01090527550386674 
-0.04379251894132724 
-0.08524385770365434 
0.07841979562552019 
0.1534025177502892 
-0.004931042777132397 
-0.006147491352480538 
0 
-0.01824355167018031 
0.235218549921565 
-0.003862318227296277 
0.07689742551207789 
0 
-0.107853193626937 
0.02462001760286639 
0 
0 
-0.07417244445342278 
0 
0 
0 
0.8136169657040649 
0 
0 
-0.05148691854937525 
-0.003372687933909782 
0.05470974759006195 
0 
-0.0668170483881874 
0.04818745417867643 
0.04897243305024344 
0 
-0.0707886466199602 
0 
-0.07266611255575896 
0 
0 
0.02828865816899851 
-0.06131713746765424 
-0.3283907714732187 
-0.06931869783940492 
-0.0009427098634975077 
0 
-0.04433727909821419 
0 
0.2264391923025722 
-0.1392670367930888 
0 
0.2329982339626364 
0 
-0.04573889316505228 
0 
0 
0 
8.673617379884035e-19 
0 
-0.02182200581474037 
-0.06714935660543775 
0 
-0.004575354777068553 
-0.00680762283745203 
-0.03698859583143942 
0 
0.005451681794655626 
-0.003193892326555332 
-2.710505431213761e-20 
-0.03698063102131008 
0 
0 
0 
-0.1461658561625436 
0 
0.009422904666132905 
0 
0.6468541031634836 
0 
0.1183898900104303 
-0.02665870779972517 
-0.005322137164183684 
0 
0 
-0.1345273780032945 
0.01274575941378268 
0 
0 
0 
0 
0 
-0.1549706371750319 
0 
0 
-0.007238485880590812 
0 
0 
0 
-0.05423224564760794 
-0.01724746885781009 
-0.05927564635470972 
-0.266453475839858 
-0.2305870141032657 
0 
0 
0.01349402805936263 
-0.05571820700979009 
0 
-0.1537124048127128 
0 
0.01288428150642446 
0.05470952781688681 
-0.3346322201608087 
0 
0.1135742041613732 
0 
0 
-0.01178814557537047 
-0.05935384917476579 
0 
0 
-0.05291707953933254 
-0.07757148264381564 
0.04788896894665729 
0 
-0.03172459429950338 
0.000499899729668879 
-0.1054351972239108 
0 
-0.003571568694586853 
-0.07999438931310808 
0 
0 
0.008240050680157478 
0 
1.084202172485504e-19 
0 
0 
-0.001918721258397079 
-0.004921441794687152 
0 
-0.003596418379734575 
0.07236034433811901 
-0.05965410797673368 
0 
-0.05719244462715331 
0 
-0.2176884329790327 
0 
-0.1040900685882232 
0 
0 
0 
-0.001389711302162589 
-0.01173714727452027 
-0.005539139843693296 
0 
0 
-0.04835382309788961 
0 
0 
0 
1.084202172485504e-19 
0 
-0.01735647958168425 
0 
0 
-0.003292322764828653 
0.07398777026110567 
-0.02241451282555616 
0 
-0.05020122619002958 
-0.02276079618929026 
0 
0.02410359442189228 
0.05306107546798294 
0.01955401343937894 
0 
0.2434037119233106 
0.03882424182513502 
0 
-0.02409419627222237 
0 
-0.0003728660885917767 
0 
0 
0 
0.003351156676193356 
0.04838070721801042 
-0.08822429298160532 
-0.00818326094232223 
0 
0 
-0.03466533359323756 
0 
-0.002900654845840062 
-0.2902163829361536 
-0.003884340399048116 
-0.07676521510476354 
0.07948612088297566 
-0.01979744234807531 
-0.08566557282228618 
0 
-0.1040398045282722 
0 
0.1240646230911618 
-0.007801702360227979 
0 
0.03065117268979054 
0 
0 
-0.002406330577606679 
0.05805825087913428 
0.008074456875005024 
0.307998376001578 
0 
-0.02027605078723208 
0.01136404088738779 
-0.1265026543385758 
0 
0 
0.03610877940893465 
0 
-0.01624954287495183 
0 
-0.01268407924204906 
-0.001122841620629291 
0.0006464387167997592 
-1.464802486427744 
0 
-0.04078542759465632 
0 
0.001572842428384162 
-0.00784353224926781 
0 
-0.01112771477721262 
0 
0.07611365718014949 
0.02447285695394915 
-0.006374900056965869 
0 
0 
-0.06349187319195564 
0 
-0.01765835655584403 
-0.07526106694486159 
-0.009998210437621717 
-0.09087367637072728 
-0.01056176181188992 
0.003040726881951162 
0 
0 
-0.2201560860547618 
-0.02486159169538658 
-0.04545182382438058 
0.003757080535505988 
0 
-0.003060763880383708 
-0.08873873715841113 
-0.0175620481045039 
0 
-0.0828175236725356 
0 
0 
0 
0.05267554810444312 
0.01182530090524331 
-0.08403057907476967 
-0.003253726536708364 
0 
-0.1129391095978871 
-0.1608001263296651 
0 
-0.05823738680976614 
-0.05125120541708782 
0.5636185796503416 
-0.001984817955320138 
-0.007042824117064717 
0 
0 
-0.2480975742990432 
0 
0.1243664136561192 
-0.05548871711302 
-0.03631723612169804 
-0.01690507276017052 
0 
-0.03300645271554157 
0.0005400804201956752 
0 
0.01586875849640667 
-0.04728329586926131 
-0.1086089773940906 
0 
0 
0 
-5.421010862427522e-20 
0.01256228802466869 
0.03561049597236226 
0 
-0.03933642370398051 
-0.004548492296005693 
0 
0 
0 
0 
0 
0 
0.02934910276252128 
0.1544894678508486 
0 
-0.007107852482951818 
0.1835948558435028 
-0.006709315417739703 
-0.3336385979608123 
0 
0 
0 
5.421010862427522e-20 
0.1244014183833968 
0 
0.03284099512289915 
0 
-0.1007582672007933 
-0.04105852843428776 
0 
0 
-0.004931077228989527 
0 
0 
0 
0 
-0.006128273322698454 
0 
0 
0 
-0.1512931422573737 
0.02486223256006006 
-0.04903326934186897 
-0.04852656268100744 
-0.02920633383451355 
-0.004532072046218354 
-0.0004551627201615669 
0 
0.5114936820293757 
0.2422921513870374 
-0.01368304739309047 
0 
0.3008611381047639 
-0.1711841304034525 
0 
0.01161039137603417 
0 
0 
0.45779310345536 
-0.01357700813795836 
-0.03860636804831761 
0 
-0.002939091600095734 
0 
-0.002288734688737395 
-0.0222887483405154 
0 
-0.03051723414246266 
-0.00128472064835296 
0 
0 
0 
0 
0 
0 
0.1433875590035115 
0.1069104126591526 
-0.0321777661512304 
0 
-0.02987201499048597 
-0.0006739828568990146 
0 
0.02906044904243292 
0 
0.1299703051155851 
0.1047531344392423 
0.1671695592453296 
-0.3129866486397701 
-0.008777405439293215 
0.004411099013499099 
0 
0.03640307667849051 
-0.00791406645942744 
-0.05459354691298281 
0.03843037455416893 
-0.3021747902725219 
0 
-0.001803819382649247 
-0.00499160160878906 
-0.04027497217902373 
0 
0 
-0.02021501370220817 
-0.02653181205823733 
0 
-0.01745812248266507 
-0.06358525645018394 
-0.006102088340761252 
-0.03025427123427647 
-0.007639286677084368 
0 
-0.01616960960597523 
0 
0 
0 
0 
0.09412853019240282 
0.02274911271219975 
0.0238009485631199 
0 
-0.06698914698018904 
0 
0 
0 
0 
0 
0 
0.002780115106803514 
0.01133682517800044 
0.1873714262477466 
0 
0 
0 
0 
0 
0 
0.2851670713116186 
-0.0039351317820847 
0 
0.0002206201620880751 
0 
0 
-0.2152676132047553 
0.03476643673014405 
0.04784987065288551 
-0.002085175963240809 
0.01312770547446268 
0.009311206990227704 
0.0005825581984744385 
-0.01240945213411799 
0 
0 
-0.02076603333389271 
0.039950647637842 
-0.003257017633462168 
-0.002665606722422638 
0.01671014674705929 
0 
0.02469404155942948 
0 
-0.01486273633400005 
0.06233005271117054 
-0.2013672223204223 
-0.06356805590812019 
-0.01993240506256398 
0 
0.02015509784674106 
0.04283027213987428 
0 
0 
0.0207385807530393 
0 
-0.07521240476786874 
-0.1774428524759023 
0.4676943590088376 
0 
0.087522621982003 
0 
-0.04094916295037467 
0 
0 
0.005326399214913699 
-0.05958603907779667 
0 
0.06673871521934216 
-0.001073414006666489 
-0.04684979589154906 
-0.0752543212158286 
0.009949182722867645 
0 
0 
0.184402895545679 
0 
0 
0 
0 
0.02742640686052332 
-0.002261156310162992 
0 
-0.004881415932689154 
0.008534704011836147 
0.0044012574563703 
0.1455900919099832 
-0.216545109723138 
0.00446999909912375 
0 
0 
0 
0 
0 
0 
-0.08121496081240882 
-0.02283754823585592 
-1.517883041479706e-18 
-0.221292788765724 
0 
8.673617379884035e-19 
-0.0008710012586157894 
0 
-0.02217704750504376 
0 
0 
-0.0595575152239855 
0 
-0.04407413936684886 
0 
-0.02256007639050471 
-0.002563752329021778 
-0.03020529327649785 
-0.01999599969578957 
-0.003314817654912143 
0 
0 
0 
0 
0.03757127975262747 
0 
-0.008039321728405853 
-0.0232397822480112 
0.0005170817914108644 
-0.01041809443414118 
0 
0 
-0.003402386043767319 
0 
0 
0 
0 
-0.004729950010569202 
-0.3648249740622758 
0.1666853956567952 
0 
-0.02435708809791086 
0 
-0.05000319833389995 
0 
0.01542334204066336 
0 
0 
0 
0.05492335445561837 
0 
0 
-0.05267295449024335 
0.06164308822745696 
0 
0 
0 
0.02252934285291353 
0 
0.09543065459351288 
-0.1289113215336044 
0.0002531641815189702 
-0.01290440047009197 
0.02058646228530054 
0 
0.06809979038797841 
-0.0133129184429954 
0 
-0.008516694558462663 
-0.06711363823170366 
0 
-0.002112926920047188 
-0.3419908701585448 
0 
-0.02058095522411022 
-0.01193654412903127 
0 
0.008854612190237058 
0 
-0.02070071399715981 
0 
0 
0.116757647326206 
0 
-0.01726786460743496 
0 
-0.001317525471922644 
-0.01182621278781328 
0 
-0.08781066270030274 
-0.3134735209356096 
0 
0 
-0.03589188337946192 
0 
0.3294739993462673 
0.00842556847831126 
-0.008677252737862278 
0 
0 
0 
0 
0.03790248529553231 
0 
0 
0.2437455710843041 
0 
0 
0 
0 
0 
0 
0 
0 
-0.06142344735228093 
0 
-0.233392172727127 
0 
0 
-0.01273249736145289 
-0.07107766822269806 
-0.02674541317821182 
-0.01593698627434032 
-0.006811447153819611 
-0.06260788826140763 
0 
0 
0 
-0.009731823533509881 
0 
0 
0 
0.05666710735374576 
0 
0 
-0.02392738493048838 
-0.0178922307426894 
0 
0 
-0.04337085030719543 
0 
-0.1155299906717031 
0 
-0.04061179051061228 
0 
0 
-0.09064632345955224 
0 
-0.01530709530165939 
0 
0 
-0.1084970579838325 
-2.168404344971009e-19 
-0.0067813118225692 
-0.02086759260373733 
-0.003185308016651815 
0 
-0.004784129906193508 
0.06947191631970691 
0 
-0.2997855299260181 
0 
0.03703787475877935 
-0.03654046418753965 
0.006376789559378718 
0 
0 
0.3447127107270189 
0 
0 
0.06594895200476319 
0 
-0.06984024363949635 
-0.006227372790107122 
0.03332759010394892 
-0.0765643102253292 
0 
-0.0519674216654595 
0 
0 
-0.007112519161805598 
0 
0.4871507476129824 
0.04557480009645963 
0.009856016947246591 
0 
0 
0 
0 
-0.03993656988129183 
-0.005943123156347738 
-0.007193560219339157 
0 
0 
-0.08766670981763861 
0 
-0.01460767127120714 
0 
-0.001930959440167773 
0 
0 
-0.00502991517208495 
0 
0.02587710696740015 
0.01921862143704826 
0.264613468683142 
0 
0.02177965431375547 
-0.01886170254907716 
-0.01164132817908717 
-0.01364023762560947 
0.01689749382963127 
-0.1375231472199439 
0 
0 
-0.001859491881444869 
0.009252234566735174 
0 
0 
0 
0 
0 
0.08005188502113637 
0 
0.02389063255716882 
0 
0.01213832059982739 
0.01036154105095101 
0 
0.02858571906877882 
0 
0.02444602404664313 
0 
-1.626303258728257e-19 
-0.03545465437582252 
-0.006873822457391942 
0 
0 
-0.03446168672214264 
-0.1085908458460179 
0 
0 
0.4992474128932372 
0 
0.01494175146942269 
0 
-0.1258703361751528 
0 
0 
0 
0 
-0.06184396125166879 
-0.1346797416818242 
0 
0.01254226095000373 
0 
0 
-0.04098075742788785 
0 
0 
0.01103458379978856 
0 
0 
0 
-0.05405740691393964 
-0.005989620144507022 
-0.08912677379658386 
0 
-0.1444078567037867 
-0.04344214347090006 
0 
0 
-0.09578316550123206 
0.2498336933799526 
0 
0 
0 
0 
-0.007566944517678007 
0 
0 
0.05823078774757513 
0 
0.0002649921353078774 
0 
-0.001874126418325373 
0 
-0.2571981549927777 
-0.009086894767031256 
0.06383396787949137 
0 
-0.001965897108757389 
-0.04409108847039258 
0.3592526430772439 
0 
-0.02279162207542567 
0 
-0.005907761010414053 
0 
0 
0 
-0.02956494447194316 
0 
-0.1805732480406928 
0 
-0.01037466154009783 
0 
-0.03994772250788371 
0 
0.1344797629046334 
0 
0 
0.00424498343215541 
0 
0.1113645893240373 
0 
0 
0 
0 
0 
0 
0 
-0.0008808296229481954 
-4.065758146820642e-20 
-0.01138842841969288 
0 
0 
0 
0 
-0.02260790842579382 
0.004339010616489513 
0.04120836543362354 
0 
-0.004158853932473313 
0.04155530495753106 
0.007366016984750639 
0.01165520267990638 
-0.168830520639058 
0 
0 
0.07047653475940778 
-0.1514394418571084 
0.1032791010955096 
-0.04440888896020938 
-0.08799702019539772 
-0.002494389349418659 
-0.01226434452690654 
0 
0 
0 
0 
-0.008065277006152109 
0.1002243892870008 
-0.009989111460989613 
-0.03166782589321304 
0 
0.1216450787375826 
0 
0.006772717986510175 
0 
0.02440717337439864 
0 
0 
-0.001596081932420935 
0 
0 
-0.07971120755387016 
0 
-0.05402653306216502 
0 
-0.02227240101243152 
0.03362611754767112 
0 
-1.037861908027807e-05 
0.1965029990567878 
0 
0 
0 
0.004440522266461844 
0 
0 
0 
0 
0 
0.0007264666732353852 
0 
-0.818474615071772 
0 
0 
0 
-0.2455271704722008 
0 
0.1646052470112752 
-0.04497987352619707 
-0.02037455910166066 
-0.02543022363941766 
0 
0 
0.1878161866888524 
0 
0 
-0.01283965877358931 
-0.02526061899479899 
0 
-0.01449334157168193 
-0.4435020538779851 
-0.007003504225204056 
-0.03423756967921168 
-0.009429143427034995 
0.03015749190229587 
0.01745593416255694 
-0.0107300710846459 
0 
0 
0.01436897570711037 
-0.001975078451990306 
0.04399863229601617 
0 
-0.001577535193717675 
0 
0 
0 
0 
0 
0.009456563639783236 
0.009001211150787426 
0 
0 
0 
-0.008724907206988545 
0 
-0.1481168559893115 
0.147553205322122 
0.5618190426867414 
0 
-0.02245205337221687 
0.004218428431269005 
-0.005928075975000893 
0.1241385846145054 
0.08417878721762001 
0.03726401032817749 
-0.05747321393786055 
0 
0 
0 
0 
0.0240213895445777 
0.01721017067632523 
0 
-0.161487587239437 
-0.005321943126476727 
0.05926112546378894 
0 
0 
-0.002634837349018523 
0 
0 
1.338642132343624 
-0.005716467055132744 
0 
0 
0 
-0.1232928969720797 
-0.1195393388435559 
0 
-0.067697468199204 
0 
-6.776263578034403e-20 
-0.142566667036956 
-3.794707603699266e-18 
-2.547875105340935e-18 
0 
-0.01482387217427006 
-0.1572223473632353 
-0.1329892303452245 
-0.03613281834538078 
0 
-0.07411032492043855 
-0.0230168662105468 
0 
0 
-0.03979214337726237 
-0.02178698329753257 
-1.913964964487165e-05 
0 
-0.000790861539699971 
-0.003526488758379629 
0.1399461488253191 
0 
0 
0 
0 
-0.02157245111538951 
-0.006786630701493621 
-0.002956932680953434 
0.03478789276879001 
0 
0 
0 
0 
-0.3211157983564493 
-0.03596826014020819 
0 
-0.2575572868231027 
2.710505431213761e-20 
0 
0 
-0.00475297998276902 
-0.01416879968982607 
0 
0 
0.02737021292779687 
1.084202172485504e-19 
-0.0432869022130155 
-0.003532416025754723 
-0.5371715130523528 
-0.04917983204357214 
-0.06591603888988039 
0 
-0.2600917178613184 
0.001926882841725606 
0 
0 
-0.3064417888408189 
0 
0 
0 
0 
-0.01243737064084663 
0 
0 
0 
-0.001613132785677073 
0 
0 
0.04279068730484538 
0 
-0.03575575260558349 
-0.002621121221344907 
0 
-0.01820565201786315 
0 
0.00503184446936392 
0 
-0.0109552021128937 
-0.00226484519113793 
0 
0.05137330326795723 
-0.05703317048051013 
0.009077528362033162 
-0.003976245176221714 
0 
0 
0 
-0.02144067638804065 
-0.01086211628434892 
-0.08929244772365405 
0 
0 
0.04995654588447814 
-0.215170968451663 
-0.08790588622703792 
0 
-0.005422601342260483 
-0.05732100476785016 
-0.135714050887552 
0 
0 
0 
-0.01095340312456243 
0 
-0.005276202162691636 
0 
0 
-0.002715498534540756 
-0.002058921682913763 
-0.1299689177764052 
0.01955023358703262 
0 
0 
0 
0.0003503813321870449 
0 
-0.09371344619379783 
0 
0 
0 
0 
0 
0 
-0.1249917323330109 
0 
0 
-0.1371511480978076 
0.008016997346071125 
-0.02222213509424173 
-0.01028077782999186 
-0.01198205282304678 
0 
0 
0 
0 
0 
0 
0 
0 
-0.003776272638520438 
0 
0 
0 
0.01706283368466601 
0 
0 
0 
0 
0 
0 
0 
0 
-0.04341317597363142 
-0.01467771715888988 
0 
0 
0 
0 
0 
0 
0 
0 
0 
-0.04700521320427592 
0 
-0.04920445273271327 
0 
-0.3795819473501512 
0 
-0.008238984413949602 
-0.0229064234259151 
-0.008513363563147892 
-0.01810604678811689 
0 
-0.0271386724673439 
0 
0 
0.01010384964836422 
0 
-0.0196737872116669 
0 
0 
0.03059785652904724 
0 
-0.4627244914092206 
0 
-0.07996817814690953 
-0.1026619213546679 
0.2486475343466073 
-0.1641897095072782 
0 
-0.1828231629592684 
0 
-0.09046790930462044 
0.1010491684471333 
0 
-0.05213279160724651 
-0.05472834735421998 
0 
-1.355252715606881e-19 
0 
-0.02510644008502361 
-0.1892335113694281 
0.005400961913398209 
0 
0 
-0.01587638705632633 
-0.001573746018950709 
0 
0.04878169626890023 
-0.01254642243635699 
0 
0 
-0.0557902149917897 
-0.004694006529920562 
-0.05856742198368935 
0 
-5.954484794956964e-05 
0 
0 
-0.3544207337641146 
-0.07913970460987839 
0.008024912951074608 
-0.02411764291452343 
-0.2477872618839947 
-0.02886197588305346 
0 
0.0003513103674430748 
0.02645588962993162 
0 
0 
-0.02960161063199914 
0 
0 
0 
-0.08280854383296431 
-0.03273052706772987 
0 
0 
0 
-0.00738272468347693 
0 
0 
-8.131516293641283e-20 
0 
0.02239909218654369 
0 
0 
0.07055777714009798 
-0.001753603089030314 
0.05442625468764349 
-0.003726467943578431 
-0.007022147546262267 
-0.1062079785563445 
0 
0 
0 
-0.1186040392988974 
-0.002867931022357188 
-0.2275018501933965 
-0.1062617743236952 
0 
0 
0 
0.02346751462792035 
0.06050104315871341 
-0.1215742026465513 
0.09908556334606897 
0 
-0.0470603832105138 
0 
0 
0.0179653279081765 
0 
0 
0 
0.01692716488885774 
0 
0 
0.06374299525579856 
0 
0 
0 
0.06303975157833776 
-0.004563767345806337 
0 
0.02827797334456335 
-0.01672247698403799 
0 
0.312074035780698 
0.001231860471258342 
0 
0.02461954021539036 
0 
-0.02035999635601369 
0 
-0.3752181407700478 
0 
0.003428716541319377 
-0.01847159772628786 
0.06639159119144915 
0 
-0.01313204476694765 
0.02546010749362779 
-0.04752043369982818 
0 
-0.08163165122173457 
0 
0 
-0.01322147414195789 
0 
-0.2277781952997212 
0.0004018943954009332 
-0.4087628798238064 
-0.006048196131527642 
0 
0.3015574881723944 
0 
-0.08471681540202484 
0 
-0.009195345112167862 
-0.02034949707870236 
0 
0 
0 
0 
0 
-0.0110199688548721 
0 
0 
0 
0 
-0.05714328604317432 
-0.1971293021061948 
-0.02287411213559694 
-0.01908684779911757 
0.04359682825905618 
-0.008390260112543858 
0.04542883248454631 
0 
0 
-0.060539675011614 
0.04652327677864032 
-0.002920107616606432 
-0.002683309613917296 
-0.008962955535015228 
0 
0 
0 
1.897353801849633e-19 
0.05509127349962792 
-0.003965913706329757 
0 
-0.06141180035825664 
-0.01973512263184246 
-0.07570341438579002 
0 
0 
0 
0 
0.03754082597394195 
-0.007722124761731128 
0 
-0.001131973361843337 
-0.03012472836840423 
0 
-0.1256854399707058 
0 
0 
0 
-0.03280995861642069 
0 
0.02338671480418999 
0 
-0.05303244715536148 
0 
0 
-0.007288073209646386 
-0.001195351948114239 
-0.02815265744219566 
-0.002316837578730615 
-0.2454575609158929 
0 
0 
0 
-0.003380009052002652 
0.0535923974481726 
-0.004391470082714186 
0 
-0.002987502972311091 
0 
0 
0 
-0.008245909958418354 
0 
0.1118187341182118 
-0.0670239074619564 
-0.01298253374966279 
0 
0 
0 
0 
0.03191193527239603 
0 
0 
0 
-0.00661457229280338 
0 
0.03023292938167546 
0 
-0.05494213079933474 
-0.005983022687508989 
-0.1830825893851473 
-0.08398157636092964 
-0.01512935270108515 
-0.139789744152776 
0 
0 
0 
0.03841995996805389 
0 
0.04602305864128791 
-0.007861532785290299 
-0.2977491447316177 
0.01749887169413353 
-0.01103933417481443 
0 
0.1814509713898871 
0 
0 
0 
0 
0 
0.0295005368629352 
0 
0.05165113557583229 
0 
0 
0 
0 
0 
-0.01045311322409402 
0 
0 
0 
0 
0 
-0.02087329003670277 
0 
-0.02661038225852791 
-0.0838387719487248 
0 
0 
-0.002520995200508143 
-0.02412056454722923 
0 
0 
0 
0 
0 
-0.05877865407660161 
0 
-0.009421560406366745 
0 
0 
0 
0 
-0.2305941720186434 
0 
0.08212805367894258 
0 
-0.04720558421304939 
0.04841094337249938 
0 
0 
-0.002581646173641231 
0 
0.001281252876922787 
0 
-0.024736959097413 
0 
-0.1249354803142803 
0 
0 
-0.004023282346773699 
0 
-0.1495017907564097 
0.103177291299108 
0.01738727802123317 
-0.01603505307855793 
0 
-0.006398423361164638 
-0.153614880132701 
0.2928786633879686 
0 
0 
0.1879942371713819 
0.07722474074927599 
0 
-0.01624487499536373 
-0.01213709138056913 
0 
0 
0 
-0.1635836765815617 
-0.013698942498726 
-0.01431581675912734 
0.009097268763665321 
-0.2959593235135517 
0.005120458789166871 
0 
0 
-0.0296263742320195 
0 
-0.03249023332455007 
-0.08516567796693816 
0.03016483503049193 
0 
-0.002311712689272417 
-0.3113592724711825 
-0.0462254432322985 
0 
0 
-0.001885921867727455 
-0.1110798881238101 
-0.0944775833813979 
0 
0.015350170461153 
0 
0 
0 
0 
-0.2829065710586182 
-0.002957872125088369 
0 
-0.03837587208221819 
-0.02254870182196166 
0 
0 
0 
0 
-0.001956589980861456 
0 
0.001266289207130345 
0 
0 
-0.00276097880909237 
-0.02310017952357217 
0 
0.03164569552339883 
-0.04901278750071882 
0 
0 
0 
0 
0 
0 
-0.01495185971973708 
-0.001870300455445105 
0 
0 
0 
0 
1.301042606982605e-18 
0 
-0.04743840947673117 
0.04278282032211683 
-0.01486860190236633 
0 
0.04771194753479095 
-0.007132138745574952 
-0.0001118319782213589 
0 
0 
0 
0 
0 
0 
0 
0.01941226458448302 
2.168404344971009e-19 
0 
-0.004576536702059777 
0 
0 
-0.006884825102228448 
-0.1722042350071073 
-0.0164314762993251 
0 
0 
0 
0.1404423013841423 
0.02242445882472344 
0 
0 
0 
0 
0.04493605901119 
-0.0217469753946073 
0 
0 
-1.084202172485504e-19 
0.002834682714046957 
-2.168404344971009e-19 
-5.941647942848954e-06 
0.2679608265875373 
0 
0.04417241092012714 
-0.02275187486197274 
-0.0700768024806285 
0.04962879257396461 
0 
-0.006569689937529931 
-0.02352453261163639 
0 
0 
-0.6883809800754822 
0.04255373389583896 
0 
0 
-0.00278841249591514 
0 
0 
-0.00862277173527172 
0 
0 
-0.006151955753019602 
-0.1288372033856977 
0 
-0.1257497949426463 
0 
-0.008682373747391489 
-0.003645793279036497 
0 
0 
0 
-0.1377830099760499 
0 
-0.08399316191935302 
0 
-0.04411703525636167 
0 
0 
-0.1046706412192937 
0 
0 
0 
0.058270784875233 
-0.001670352217849172 
0 
-0.005883874208557982 
-0.002336826490471255 
-0.01229834595198389 
0.004983855371653861 
0 
-0.007650769559629823 
0 
-0.4043112612956723 
-0.0144972249848253 
0 
-0.001387432224324983 
4.336808689942018e-19 
0 
-0.004008751667049433 
-0.006971150912079666 
0 
0 
-0.07433746191074082 
0 
0 
0.5903288976438182 
-0.008565770132686086 
-0.05020183042430568 
0 
0 
0 
0.05958535422716766 
0 
0 
-0.1569645216894947 
0 
0 
-0.05122586967344243 
0 
-0.08260631098030541 
-0.01735427542130634 
0 
0 
0 
0 
-0.136621611971656 
0.01863081590511264 
0 
0 
-0.05711832719453967 
0.07972146177323343 
-0.06667160971174009 
0 
0.0530279757061048 
0 
0 
-0.009078212595972288 
6.776263578034403e-20 
-0.388133789345586 
-0.008214858210459858 
0 
0 
0 
0 
0 
0 
0 
0 
0.007522036565903048 
0 
-0.01101313777176423 
-0.1894260093401868 
-0.02561910197066696 
-0.003676947383351331 
-0.003263549772789106 
-0.06451468487945757 
0 
0 
0 
0 
-0.02656736204730707 
0 
1.169866232487868 
-0.01012269481849679 
0 
-0.002278407679872432 
0 
0 
-0.002618844531309293 
0 
0 
0 
-0.00120453963721789 
0 
0 
-0.0239311981094102 
0 
0 
0.09576791165093725 
0.0195837379469522 
0 
-0.04069618446995544 
0 
0.0515701109629973 
0.1543631742251033 
-0.006223543799947245 
0.1679150438299653 
0 
0 
0 
-0.2680188395036047 
0 
0 
0 
0 
0 
7.589415207398531e-19 
-0.02835411616777446 
2.168404344971009e-19 
0 
0.0006847954540656015 
0 
-0.04291898986362722 
0 
0 
0 
-0.03367767699543008 
0.08402873636701322 
0 
-0.07534498577385125 
0 
0 
0 
0 
0 
-0.2539096855766393 
0 
0 
0 
0.02360228767557868 
-0.08513094533018971 
0.004433774348019082 
0 
0.002582906534463243 
0.07504194922552739 
0.09824053499930344 
0 
0 
0 
0.06890480439233557 
-0.04756821233607906 
0 
0 
0 
-0.003636184563193892 
0 
-0.08586269435725415 
0.08386568204271917 
-0.05642516753129458 
0 
0 
0 
-0.01067607328107366 
-0.01194113882388238 
-0.05291950737781741 
0.07718698277786268 
0.009701430379947583 
0 
0.04039059451925414 
-1.941442476408741e-06 
0 
0 
-0.002103198613899447 
0 
0.03723395189789726 
0 
-0.007436283343046145 
0 
0 
0 
0 
-0.004686450539864794 
-0.007857329936400703 
0.008282202986070077 
-0.002340171246027572 
0.03290830054280538 
0 
0 
0 
0 
0 
-0.004931564670854268 
0.01413372962164287 
0.006482816768729294 
-0.01312214166802835 
0 
0 
0 
-0.006910694968440265 
0.1489464678341003 
0 
0 
0 
2.168404344971009e-19 
-9.633952495817049e-07 
0 
0 
0 
0.08150591572526225 
0 
0 
0 
-0.1111827071325976 
-0.005461679323551865 
-0.0116644200115639 
0 
-0.1331149222565664 
-0.02084141610580582 
-0.0329789838438516 
-0.006532294413385405 
-0.008963474799580583 
0 
0 
0 
0.03541484272502227 
0 
0.04212569708698098 
0 
0.01705956120322686 
-0.04409048019337473 
0 
0 
0 
0.01930991719763887 
-0.005965046079271211 
0.4829677030243772 
0 
0 
0 
-0.002637296559419451 
0 
-0.06490296417793361 
0 
0.1581501833496913 
-0.03163399012701674 
0 
0 
0 
0.2387161274885737 
-0.02893239017316549 
0 
0 
0 
-0.009906322933515762 
-0.05894111508917697 
0.02101954419522783 
0 
0 
0.02536257689956072 
-0.003513029101389277 
0 
0 
0 
0 
0 
0 
-0.3117852239673216 
-0.2174988651405518 
-0.003148041741706048 
0 
0 
0 
0 
0 
-0.006157119715271967 
0 
0 
0 
0 
0 
0 
0.005193893800969333 
0 
-0.002486383713363297 
0 
0.007344386506488341 
-0.007042928223180602 
-0.005760506984707294 
0 
-0.09377502702667088 
0 
0 
-0.002440017773820853 
0.05056834349335847 
0 
0 
0.2145713001154198 
0.004767722669932611 
0 
-0.001963728008888139 
-0.00962717877938838 
0 
0 
-0.002439924081531295 
-0.01190320021543584 
0 
0 
0 
0 
0 
0 
-0.005919836138829341 
-0.03872491431334298 
0 
-0.03729692375702634 
0.06090045315919832 
0 
0.05203797488666757 
-0.006279963217459114 
0 
0 
0 
-0.02808912426414206 
0.01395712544584546 
2.032879073410321e-20 
0 
-0.05291977780503572 
0 
0 
0.00559043034392518 
0 
0 
0 
-0.0513331281463786 
0 
-0.008677247773431217 
0 
-0.03870595706685636 
0 
0 
0 
-0.1545261613530709 
-0.02459512589896141 
-0.1239533093837333 
0 
0 
0.002028202329811355 
-0.006191613075467549 
0 
0 
0.01576071798697776 
0 
-0.004601999579161157 
-0.02471301272095911 
0 
0 
0 
0 
0.01083492108140141 
0 
-0.05351554537542898 
0 
0 
-0.0140793549542494 
-0.01244650665341855 
0 
-0.08355817098705728 
0 
0 
0.09230030738794752 
-0.005259272375860424 
4.336808689942018e-19 
0 
-0.5205672907005272 
-0.04061052140957538 
0.1010600203857878 
-0.1129080607982272 
-0.3271729442629552 
0.007231738164129291 
-2.143026780555162e-06 
-0.1133244284758141 
0 
0.01934282728773564 
0 
0 
-0.01576437768332408 
0.003076130390674473 
0.07992806863463053 
0 
0 
0 
0 
-0.002507667429472449 
-0.008865385255452732 
0 
-0.05590755944835395 
0 
0 
0 
-0.01699473655292484 
-0.01987281229533298 
-0.03897053670492418 
-0.04310784143377008 
0.01321168984951737 
0 
0.02529612126092962 
0 
0 
0 
0 
0.01761034423423045 
0 
-0.07135350297202857 
0.01851949558151889 
-0.02146581893952018 
0.04191324794146261 
0.02865832479413004 
0 
-0.2053217707338299 
-0.01259681884231104 
-0.00480112131476646 
0 
-0.02701047615128895 
-0.004385146248524931 
0 
0 
0 
-0.01142012631631366 
0 
0 
0 
-0.1289184333939249 
0.01160668219779657 
-0.04024671574993233 
-0.1289184333939249 
0 
-0.0006790531116478802 
0 
0 
0 
0 
-0.01087250138655588 
0 
0 
0 
0 
-0.006679522896765449 
-0.01448886099387221 
-0.02997340493913599 
0 
0 
0 
0 
0 
0 
0 
0 
0 
0 
-0.04107268611113558 
-0.01252438637720682 
-0.01030047580664047 
0 
-0.06828038276802639 
0 
0 
-0.09327368319479293 
0 
0.08325347049232572 
-0.2751585865263805 
0 
-0.03148984530870205 
0 
0 
1.626303258728257e-19 
0 
0 
0 
-0.3214937171777623 
1.084202172485504e-19 
0 
0 
-0.01010915561374541 
-0.01057565113173077 
0.02940303702673096 
-0.02543029734830736 
0 
0 
0 
0 
-0.02767435783890904 
0 
-0.02418507636348217 
0 
0.01650776675386868 
0 
0 
0 
0 
-0.02031843220647617 
-0.002125359892141313 
-0.02657486327156079 
0 
0 
0 
0 
0.1545480954432254 
0 
0 
0 
0 
0 
-0.03414666059826332 
0.00471492039039025 
0 
0 
0 
-0.01282459363364783 
0 
-0.1516879715125854 
-0.01183982594267826 
0 
0 
-0.02474032136841861 
0.008810323638785053 
-0.01966449931128314 
-0.004290752524170031 
0 
0 
-0.0003373872870449566 
-0.00373040913124731 
-0.08241566718220876 
-0.00436937820085947 
0.01312955268184623 
0 
0 
0 
0 
0 
0 
0.3827767171631842 
0 
-0.00335994135664981 
0.01329494771762748 
-0.02583987583244451 
0.04173701363738881 
0 
-0.002988194623390003 
-0.1166166999830167 
-0.103861453609389 
0 
0 
-0.004799301664765228 
-0.05392583167770924 
0.05569061108826677 
0 
0 
0 
-0.006600367990667821 
-0.002013398574412488 
-0.1685571181271571 
0 
0 
0 
0 
0 
0 
0 
-4.423073119652997e-05 
0.003014755486288523 
0 
0 
0 
0 
0 
0 
0 
0 
0 
0 
0 
0 
0 
0 
-0.03028928822303879 
0 
-0.1280605838547313 
0.01709832528144296 
0.1769717521887957 
0 
0 
0 
0 
0.03953174581501515 
0 
0 
0 
0 
-0.01111634283081493 
-0.003041077068781477 
0 
0 
0 
0 
-0.01662004785297354 
0.1816984972229687 
0.007700345699561617 
0 
-0.01546802542989398 
0 
0 
0 
0 
0 
0 
0 
0 
0 
0 
-0.005352861993821162 
-0.3146368890150226 
-0.02576760608415803 
0.01310360353344977 
0 
-0.005681303103819911 
0 
-0.02479222390218243 
0 
0 
0 
0 
0 
-0.02680907437104132 
0.0401887018513931 
0.08735398972964073 
0 
0 
-0.006016873297628685 
0 
0 
0 
-0.0316728720021959 
0 
0 
0.01820296880498829 
0 
-0.1079515568105062 
0.001438154193650892 
-0.003093166594256422 
0 
0.003508355251827504 
0.008361012811874454 
0 
0 
0 
0 
-0.1980759751594802 
0 
-0.01490279679134869 
0 
0 
0 
-0.01139236015732649 
0 
-0.0115687827701281 
0.09223665961551057 
0 
-0.005314033326366902 
0 
-0.0504847721128192 
-0.005405307938081872 
-0.0008260824775052683 
0.00941303311548052 
-0.001173711263801714 
0 
0 
0 
0 
0 
0 
0.01625143297420944 
0 
0 
0 
0 
-0.01344310540998851 
0 
0 
-0.007333771373000581 
0 
-0.003137756882543305 
0 
0 
-0.002900813319609765 
-0.02869152004998006 
0 
0 
0.03094614394955767 
0 
-0.5671446193942123 
0 
0 
0 
0.009022418082380195 
1.24683249835833e-18 
0 
0.0002349934541380647 
0.003336959624004512 
0 
0.2300880778745415 
0 
0.03406218292981179 
0 
0 
0 
0.05928934751562268 
-0.04297171556329861 
0 
0 
0 
-0.6749241705081608 
0 
0 
0 
0 
-0.01262845028308193 
0 
-0.1426410158325039 
-0.01831717743354134 
0 
0 
0 
0 
0 
0 
-0.007264299471494316 
0 
-0.005087223380336204 
0.03519136060698953 
0 
-0.03771395812372307 
-0.0005066754964148169 
0 
0 
0.004248740615496309 
0 
-0.001400144009762189 
0 
0 
-0.01038804574935549 
5.421010862427522e-20 
0 
0 
0 
0 
0 
0.006137007485225305 
0.06940609731578622 
-0.1616810026500308 
0 
0.2348182610972896 
0 
0 
0.1135454445157162 
-0.01785192750940911 
0 
-0.0001118653957059523 
0 
0.004990811859433875 
0 
0 
0 
0 
-0.06829454107538389 
0 
0 
0 
0 
0 
0 
0.1280918621759218 
0 
-0.08575837481428665 
0.02801374047790058 
0 
0 
0 
0 
0 
0 
0.01558249821022697 
0 
0 
0 
0 
0 
-0.06588691905580805 
0.05097050215795406 
-0.04098549013293787 
0 
-0.0001347427640108764 
0 
0 
0 
0.08845398369765657 
0 
0 
-0.003779527434819512 
0 
0 
0 
-0.007347773786003743 
0 
-0.01814287662738098 
0.1016205800966717 
0.05145884436642462 
0 
0 
-0.04261135966636948 
0 
0.06152295726115327 
-0.01278473025052394 
-0.07287985889088895 
-0.03142460941904042 
0 
-0.04492541793564231 
0 
-0.007387571805832385 
0 
0 
0.1450672270938488 
0 
0 
-0.01421655950423484 
0 
0 
0 
0 
0 
-0.001609990011840165 
0 
-0.01317339754362067 
0 
-0.006835331374083728 
0.1063752765459709 
0 
0 
0 
0 
0 
0 
0 
0.02742195529669316 
0 
-0.0002957142695198836 
0.004489384729227177 
-8.131516293641283e-20 
0 
-0.06826287798983438 
0 
0 
-0.04159474702261548 
0 
0 
-0.002021353119343041 
-0.001135041804926247 
0 
0 
0 
0 
0.04521150149854551 
0.0139705361245256 
0 
0 
0 
0 
0 
0 
0 
0 
0 
0 
0 
0 
-0.004080107528616846 
0.02052651437189995 
-0.03082976109799491 
0 
0 
0 
0 
-0.08675389772482078 
0 
0 
0 
0 
-0.004617968602443077 
0 
0 
-0.06149133971076134 
-0.3198131947040524 
0 
0 
0 
0 
0 
0 
0 
-0.003388720802754023 
0.1504847814190323 
7.925710267106547e-05 
-0.02362587280070724 
-0.02559749827711405 
0 
0 
0 
-0.3175390977282523 
0 
-0.01859902976706151 
0 
-0.1136503021080862 
0 
0 
0 
0 
0 
0 
0 
-0.09042018637333354 
0.05817931391038664 
0 
-0.02499831763066585 
0.02956430066406149 
0 
-0.02124264190017678 
0.01217775282918925 
0 
0.03253831639600342 
0.006406210141797047 
0.1074185945214805 
-0.00882376203732237 
0 
0 
-0.004718637925453574 
0 
0 
0 
-0.001264653395190524 
0 
0 
0.003477574930916572 
-1.355252715606881e-19 
0 
0 
0 
0.1384074712456514 
0.000224929951062537 
0 
0 
0 
0.02545467932981722 
0 
-0.0003435257304449311 
0 
-0.01835203768754196 
0 
-0.02090019841848152 
0 
0 
0 
0 
0.005148985577851204 
0 
-0.004274971226226294 
0 
-0.001222733518922652 
0 
-0.001922866798560409 
0 
-0.004464680438677962 
0 
0 
-0.0126264260950671 
-0.07369779701190433 
0 
0 
0 
0 
0 
0 
-0.04136237188028686 
0 
-0.008559361219091545 
-0.02370458942172756 
0 
-0.007755245291344828 
0 
0 
0 
-0.1024163160400683 
0 
0 
0.01571595508522437 
0 
-0.005819072964670807 
0 
-0.1746858273963422 
0 
0 
-0.007067864708815906 
-0.00835178555351888 
0 
-4.336808689942018e-19 
0 
-0.008588385620396497 
0 
0 
0 
0 
0 
-0.131637779573499 
-0.1466781199226776 
0 
0.02674261342636549 
-0.006117696165743279 
0 
-0.007550282216382677 
-0.002457858221272523 
0 
-0.03990487805249172 
0 
0 
0 
0 
0 
-0.01230914799703524 
-0.008055916949763802 
0 
0 
0 
0 
0 
0 
0 
0 
0 
-1.086051888096545 
0.02053753056448352 
0 
-0.02244675565794591 
0 
0 
0 
0 
0 
-0.01626922262923094 
0.2752306712114241 
-0.01260670519491657 
0 
-0.09176936693092243 
0 
0 
-0.03615292971393679 
0 
0 
0.007500878204157301 
0 
0 
0 
-0.02168528481290659 
0 
-0.008990795205855188 
0 
-0.4921965046645994 
0 
-0.0007908802927907501 
0 
-0.001166614943119393 
0 
0 
0 
-0.001312719466787771 
0 
0.05428787431812268 
0 
0 
0 
-0.08607858348160197 
0 
0 
0 
0 
0 
0.0580489070739561 
0 
-0.008676200980629944 
0.07392752946677876 
0.7203411072101684 
-0.005753001926540234 
-0.4585214746835473 
0 
0 
0.01291414710055368 
-0.04002209651222324 
0 
0 
0 
0 
-0.02696982440597688 
0 
0 
0.02516434954707991 
0 
-0.006605402829099359 
0 
0 
0 
0.02795098600968452 
0 
0.01893848575178331 
0.04985390180269959 
0.02724387809548961 
0 
0 
-0.005760139217187544 
0 
0 
0.02016062019626914 
0 
0 
-0.2362955335417727 
0 
0 
-0.05881496096533062 
-0.01572450060364573 
0 
-0.1209444106834027 
-0.01999103533264093 
0 
0 
0 
-0.01278564292352192 
0 
-0.007137588712922601 
0 
0 
0 
0 
0 
0 
0 
0 
0 
0.005738887881385872 
-0.06057642422121926 
0 
0 
0 
0 
0 
-0.02271569193053407 
-0.01819968088336427 
0.010169494279095 
0 
0 
0 
0 
-0.3432917349169096 
0 
0 
0.008518840895307911 
0 
0 
0 
-0.03375925140005142 
0.02830645177331857 
0 
0 
-0.2499642096614741 
0 
-0.01666799493984248 
0 
-0.004862897746425295 
-0.001789383143184557 
-0.04810266127959308 
0 
0 
0 
-0.177108090302506 
-0.0009847737951300568 
-0.0768775781153129 
0 
0.01124587593384944 
0.08020252913827097 
0.05411175399688932 
0 
0.005069689518869215 
0 
0 
0 
0 
0 
-0.01098902177297749 
0 
-0.01709826311421474 
-0.04025302387184234 
-0.002014708491230794 
0 
0 
0 
0.01137685472921624 
0 
-0.04254033487039082 
0 
0 
0 
-0.07584364684174846 
0 
0.06827062805143728 
-0.003973428341029432 
0 
0 
0 
0 
0 
0.02730767032938921 
-0.03463799973261165 
-0.003976681561619335 
0 
0 
0.001189380236877538 
0 
0.1690200851012358 
-0.100449302889077 
-0.04449415870584971 
0 
0 
0 
0.0575311646420159 
0 
0 
0 
0 
-0.00274285381990815 
0 
-0.02480337899962909 
-0.2115447578622655 
-0.04293168184508141 
0 
0 
0 
0.005368738996784644 
0 
0 
-0.6570784908974066 
-0.1307302757453775 
0 
-0.0506803122626483 
-4.336808689942018e-19 
0 
0 
-0.01861845951788706 
0 
0 
0 
0 
-0.04818673437253456 
-0.004175548258199674 
-0.03901488927085524 
-0.006712715996185514 
-0.00444080222842675 
0 
-0.07091943709751246 
-0.0681306272715738 
0 
0 
0 
0 
0 
0 
-0.1006294072814904 
0 
0 
-0.02201828087569623 
0 
0 
0 
0 
0 
0.06111612105994308 
0 
0 
0 
0 
0 
0 
0 
-0.01499980881684323 
-0.1856480271514604 
