solver_type L2R_L2LOSS_SVC_DUAL
nr_class 2
label 0 1
nr_feature 5000
bias -1
w
-0.3445893746289724 
-0.3087149837584414 
-0.4296058065456993 
-0.2716093420219269 
-0.317724968250667 
-0.4909220340820033 
-0.6039634310522107 
0 
-0.4908083331675487 
-0.5496011053684237 
-0.08373141181590439 
-0.03713048677342473 
0.0693881056936152 
-0.4111287935295436 
-0.1650142921027448 
-0.4672773093353313 
-0.1891838896240349 
-0.6406085196456289 
0 
-0.3300276826698443 
0.04852565274514873 
-0.05362642942359257 
-0.08021467570735105 
-0.03331461043394568 
-0.251784753092606 
-0.1476756420088595 
-0.3219751353921464 
-0.2807886190875313 
-0.01598076398700903 
-0.1879329553988177 
0.03366537209762724 
-0.07403875407403965 
0.3338739283849244 
-0.4842615972402792 
-0.2622054313133429 
0.0390278826580818 
-0.4313719888588046 
0.0003820828040469484 
-0.0737626656397271 
-0.1068400404949664 
0 
-0.1489698445593069 
-0.09856371697463839 
-0.1205602248573039 
-0.4321300135327684 
-0.1192694979824078 
0.03538966285422143 
-0.07988366215173689 
-0.007251699369888648 
0.08585864959821678 
-0.1021839292269032 
0 
-0.1507360267926671 
-0.007703734301826565 
0.1490699807232922 
-0.11140883527718 
-0.07828169524602162 
-0.1818203745966463 
-0.1792392212789708 
-0.1159187847187601 
0 
-0.04719350211318691 
-0.09031310977028872 
-0.0386149130230679 
-0.2595981145699839 
-0.06764081750389707 
-0.02454397099714778 
0 
-0.06790056121457035 
-0.1797998158848006 
-0.2716804983454394 
-0.2464590456252875 
-0.2135375016597976 
-0.1943748077023705 
0.2052157364770001 
-0.0627447835145878 
-0.1137755819462011 
-0.1288645143718284 
-0.1337864550960725 
-0.05194202793089722 
-0.4200646302028049 
-0.1194395477970898 
-0.7231423456846225 
0.04766451057675015 
-0.1626489446748604 
-0.1059102684696536 
-0.3483140209199475 
-0.0699435997598688 
-0.3575165624731292 
-0.2530027004866712 
-0.01556124451560643 
-0.3487671716234499 
-0.05319317054394394 
-0.449399621403716 
-0.1181164496660606 
-0.3221978037227635 
-0.02557876231442066 
0.01335601634760522 
-0.007989936786886854 
-0.344006099824682 
-0.06465856188814598 
-0.1100564436443504 
-0.335327320702702 
0 
-0.1686787031352437 
-0.3442650203234496 
-0.0610241530611928 
-0.0728067491890827 
-0.0001137103269884819 
0.001383079888897857 
-0.2187790381272473 
-0.04814770942852605 
-0.03068826234118599 
-0.0325937877788682 
-0.08564932872160676 
0.004312750868004331 
-0.03954476622664423 
-0.06662514267529841 
0.1817548413428963 
-0.327490984143909 
-0.259874229175637 
-0.04669903719580016 
-0.02774292171653068 
-0.05887337345690326 
-0.2724397153147999 
-0.02323223507666063 
-0.04255906795574871 
0.05497882371391647 
0 
-0.05900769404684263 
-0.03225966244917408 
-0.06375517560111381 
-0.257745057925798 
0.003840974309364195 
-0.2587304092660743 
0.06113011144422035 
-0.1710126822183401 
0.000859182681112823 
-0.08436285138138516 
-0.2222313635238957 
-0.04595724072284299 
-0.007740895644535675 
-0.0230166997179472 
-0.1188361916758341 
0.08834943717109031 
-0.1604080911544662 
-0.07945313541582859 
-0.007760843350277536 
-0.2301842844974132 
-0.08864891604261042 
-0.1171908794082669 
-0.03765830131044919 
-0.4229351767851027 
-0.001124161895802451 
-0.0001348852950500499 
-0.2235674860681574 
-0.04127203734394124 
0.161776592126211 
-0.1452479261777058 
0 
-0.01090773785120231 
-0.1450698152430897 
-0.06772879123580701 
-0.07118053239482017 
0 
-0.1314911338687317 
-0.3787012041746958 
0 
-0.1251427835004667 
-0.4100038102508023 
-0.0008469004149011047 
0.1559782843111228 
-0.01540236975342476 
0.04715349757554661 
0.003263887554183309 
-0.8494865124748101 
0.2155698841141462 
0.08206339663865322 
0.1066910056571121 
-0.05671925241980547 
-0.006345420688434889 
-0.06415432364432228 
-0.2046543440281298 
-0.1234933807606212 
-0.1298872358153003 
-0.001979307449524906 
-0.1575740578831174 
-0.1467632206601191 
-0.1722263503754653 
-0.3307332796547027 
-0.08389753492009784 
0.1109307410293288 
-0.01844388355249819 
-0.0239615342990365 
-0.05592516190387172 
-0.01220517971861655 
0.2672103132899725 
0.1529799504842189 
-0.28721123043354 
-0.002866868184632568 
-0.0437947253607579 
-0.09800219092113251 
-0.01014398507531583 
-0.1226671460229467 
-0.02717860422148184 
-0.3017104122011973 
-0.002431119634628228 
-0.08478272159400507 
0 
-0.2370507933579087 
-0.1071341751394932 
0.03132592813550013 
-0.178034063786629 
-0.0232878275528626 
-0.0398733970319759 
-0.05216155395691811 
-0.01824077170386246 
-0.04148316438141036 
-0.01508791033901615 
-0.1538316505336947 
-0.3647473843678793 
-0.1340156228762312 
-0.3267703616299824 
0.01417829525999845 
0 
0.07942238792263032 
0.0312530145895394 
-0.4014243714191301 
0.03970775322137735 
-0.2490232357129029 
-0.0275580113842872 
-0.02563864349987421 
0.09868689781533097 
0.1016725100662061 
-0.09791917081691269 
-0.02544278241191818 
-0.01512779876719808 
0.1046560256436366 
0 
-0.1208664200082958 
-0.03701614334826982 
-0.00818178368146949 
-0.02557917916925482 
-0.4289529084557394 
-0.0269347430046659 
-0.023128069382718 
-0.1090338927129858 
-0.2091144968375735 
-0.06669783334134842 
0.2257113643326305 
0.2082498027286434 
-0.05562129527795054 
0 
0.0401363226723942 
0.05292700299550613 
-0.01761829142498241 
-0.08547480732609052 
-0.02049121364164352 
-0.1225741742476718 
-0.06042545364821136 
-0.09722774383481435 
-0.005298483675112552 
-0.1057298078756266 
-0.07894370288942436 
-0.03781932238583251 
-0.4948027533953104 
0 
0.06535271599230079 
0.04289638339580973 
-0.06033223103767534 
0.02399569486570059 
-0.04952765755424431 
-0.07560702389477435 
0 
-0.002932697275394959 
-0.03389440069123718 
-0.02249430172365681 
0.3170083224802528 
0.0112093866323945 
-0.06618086952343785 
-0.01274444600703345 
-0.003949120109158067 
-0.01217129617431462 
0.02280044515222441 
-0.0817863405191686 
0.3234455619803603 
-0.03943976962434555 
-0.2647114956527334 
-0.03463032945320905 
-0.2347465969563095 
-0.2428516238819132 
-0.1857936191292612 
-0.1596711677141679 
-0.01830273551998631 
0 
-0.1646766362401162 
-0.0171182187425261 
0 
0 
-0.07064218294093737 
0 
0.0003815898224533953 
-0.0006346297288789453 
0.0482125907637117 
-0.03989170021022783 
-0.0466908310477987 
-0.05102006515788778 
-0.06302623771933707 
-0.009121817619225226 
-0.009914892238032078 
0 
-0.07293346771798312 
-0.02635466307808589 
-0.005032970441554391 
-0.06891354889433549 
0.004304446954841859 
-0.3660242857648656 
-0.07475268614867529 
0.06075554401202213 
-0.009942161252721446 
-0.002228300905510334 
-0.01165331029509982 
0.01627433904703634 
0.01545729287456795 
0 
0.07004866440666277 
-0.007174900975064294 
0.3377509843583744 
0 
-0.004948816057684421 
-0.05368086133045588 
-0.3780132589878658 
-0.05093871518917481 
0 
-0.06353774331811651 
0.01222054645297468 
0.1343249695278676 
0 
-0.2948196927097559 
-0.3568972564546826 
-0.008158529708672816 
-0.01875630718877491 
-0.05080643498122184 
-0.1591562949623026 
-0.05744113829937564 
-0.06818389447769328 
-0.02155589455667524 
0.002938624118531311 
0 
-0.04462735326421243 
-0.1721869770529195 
-0.02104336608719069 
-0.212651771524034 
-0.009070757886869818 
0.1631297025805851 
-0.06831560757135664 
-0.1329424907619913 
-0.1925397203337444 
-0.006491776601877437 
-0.004401839067814483 
-0.01988444929698115 
-0.03324298491129708 
-0.1331347803298989 
0.04514446821151463 
0 
0.1663302195417858 
-0.02269585068624133 
-0.0008146725237001952 
-0.0185427281480162 
-0.02747682711327071 
-0.4905868418492245 
-0.01011803027392443 
0.03767313163553817 
-0.09984386818749205 
-0.7461879202562625 
-0.05493150688343691 
-0.09121246594515312 
-0.03757196073020912 
-0.1372755765437607 
-0.04976715137055482 
-0.06433510448722031 
-0.0395576729695168 
0.003370709961427334 
0.0135831542868815 
-0.4070350645912392 
-0.07886352252341478 
-0.06307087531263336 
-0.002049978740012471 
-0.2059073896625399 
-0.09943407546893673 
-0.2735688903597145 
0 
-0.02070554820810323 
0.2819953718678074 
0.01403229273448178 
-0.3185758289106705 
0 
-0.07037218334509469 
-0.03460773987649722 
-0.01546989958827247 
-0.2055265047976965 
0.1202797905462793 
0.02276554703855843 
-0.008546313317398824 
-0.2241092103402608 
-0.4746706696946854 
0 
-0.3321887340472227 
-0.1327808008684502 
-0.1002959499244076 
0.01253383993758037 
0.09142562318344016 
-0.003189707984249742 
-0.0139395115423011 
-0.1702220783104501 
0.02959607580596444 
-0.09012350063564784 
-0.02800122610770013 
0.02720463256093971 
-0.06697768048631628 
-0.09743132099053937 
-0.2327262986032561 
0 
0.03540831839992165 
0.00338695071148756 
-0.03815025344758709 
0.01985785175098239 
0.01988201699967925 
-0.0464089655020638 
-0.04463553201734761 
0.05730415193211201 
-0.1915590916908451 
0.06125032470936263 
0.01444240858606553 
-0.007483506687083931 
-0.02700798775123344 
0.1756238120735068 
-0.06221922725355655 
-0.3444884407017723 
0.02109858315881422 
0.380288738417804 
0 
-0.0868261096441716 
-0.07881331236341213 
-0.01314859466794548 
0.3161839324228495 
-0.03967817987573443 
-0.05579599236400976 
1.15768286166181 
0 
-0.4888981416893738 
0 
1.490777987167569e-19 
-0.06346508972241122 
0.2087796817710265 
0.01249545342202566 
-0.1884189444439308 
-0.002079432984847018 
0.004097642627056697 
-0.04071413048820143 
-0.008552462385817 
-0.01041275220932276 
-0.04595111701756605 
0.08477196682634566 
0.00758283398476469 
-0.004131164057373948 
-0.01158873427032602 
-0.01482931785372505 
-0.04273020228293975 
0 
-0.2591331984635861 
0 
-0.02372518143840088 
-0.1487787102315379 
0 
-0.002908938489798551 
-0.1116102122856797 
0.2081806434641004 
-0.02235082086726886 
0.03728321494493547 
-0.005281844491400084 
-0.07584036211142757 
-0.1900138402658606 
-0.0779844084019001 
-0.0446678995498356 
-0.09690641531560065 
0 
-0.09344717247389718 
0 
-0.09932448179992073 
0.143374397835282 
-0.05060474323414792 
0.0004111881888010891 
-0.04767161526816226 
-0.005770901071224134 
-0.1231889950187572 
0.02574275817065328 
-0.01692541457708971 
0 
0.1287729315818619 
-0.06257623671082684 
0 
-0.004273035461736292 
-0.02511288059566522 
-0.001788108284998864 
0 
-0.1613193226318796 
0 
-0.02212920258575514 
0 
0.02951471447332915 
0.003943767949649675 
0 
-0.003478558673642655 
-0.02729258309059917 
0.04070930607050716 
-0.1175971397148449 
0.0211163785701149 
0.08671356272319815 
-0.05463928939189423 
0.01137484987096919 
-0.004311439588674242 
-0.033649638940721 
0 
-0.2200016551217563 
-0.1067945229868745 
-0.03423301048139985 
0.00852658974547333 
-0.3758024525585868 
-0.0006259622570978992 
0 
-0.07666142985466279 
-6.526701192146463e-05 
-0.06949032867764095 
-0.02427082351467817 
0.03391682228668136 
-0.01368244619729094 
0.3801939779983372 
-0.0119089726865058 
-0.01910756985658233 
-0.01879312028098987 
0.111435507522579 
-0.1727983958663294 
-0.008567837910020417 
-0.09487718571113875 
-0.01193580096589363 
-0.002031402474423037 
-0.02865947777087459 
-0.03996840998591573 
-0.02171927137260548 
0.3108809883847009 
-0.04295167882082213 
0 
0 
-0.0180397220954743 
-0.02141346411944009 
0.2052289611405974 
0.084460722302314 
0.003507366307341608 
-0.04503039420629043 
-0.02328365617896177 
0.002315924544580327 
0 
-0.01754002092592338 
-0.1517555614338049 
0 
-0.07921813322396168 
0.0217617473293165 
-0.01852333408678137 
-0.1009601886222771 
0 
0 
0 
-0.01955199874032513 
0 
0 
-0.1080341326831634 
0 
-0.03514059582410607 
-0.003667204416239496 
0.01636416469996287 
-0.2046538752620015 
-0.05626248085440933 
-0.01909185653161959 
0 
0.4197516870702378 
-0.01030806475328459 
-0.1066094982555734 
0 
-0.081475253860727 
-0.01906819058746617 
0 
-0.005579568748213424 
-0.1722996739725899 
0 
-0.01005701285625597 
0.06649981535777048 
0.005173943085080409 
0 
0 
-0.007714001281562586 
-0.008898262908439286 
-0.0248928452157175 
-0.05831545279784157 
-0.00505316295211401 
-0.02255262043921509 
-0.0113689631277615 
-0.0110899488265867 
0.008757000647079013 
0.2797293781355031 
0.03844497860156693 
0.009014277004995991 
0 
-0.01168568422618739 
0.1487600762755094 
-0.1154055277948685 
-0.01154091246237259 
-0.009899615229886381 
0.06308742959306227 
-0.003300378119953707 
0.01264116086956396 
0 
-0.0722270803429912 
-0.04687425972649709 
-0.09788596842150878 
0 
-0.006666106696162077 
-0.04796486233028947 
0.2001570590375459 
-0.0973297175072575 
-0.0016010686268252 
-0.03176330228375646 
0.03293077352112148 
0 
-0.0159518148222974 
-0.07097017314820864 
0.01970117187251822 
-0.05556893087592939 
0.09699250066114648 
-0.1741275144663841 
0.1344702182948531 
-0.003247888109653963 
0 
-3.469446951953614e-18 
0 
-0.03942276575136335 
0.03675536148412807 
0.03638049484808161 
0 
0 
0 
0.06439620757696714 
-0.01759783427405185 
0.1145501105049035 
0 
-0.1966447700730518 
-0.002308599022795739 
-0.01028494664952192 
0.0206263648692843 
-0.1269409774469848 
-0.04178444493532921 
-0.01704994492765532 
0.11887180817795 
-0.2245469131346954 
0 
0 
-0.2445601410932719 
-0.00126448289203044 
-0.00164501640791664 
-0.03781505933399767 
0 
-0.02366501107222363 
-0.01316698510904299 
0.003195696429988596 
-0.1031184273278916 
-0.01265560910251943 
-0.02650452514458906 
-0.04206024332126288 
-0.1282780222207984 
0.2056458792156933 
0 
0.01378588489096774 
-0.001397674459042256 
0.01019369703516638 
-0.00598235503952559 
0.4255043267260036 
0.01995652332370074 
0 
-0.08512245008781148 
0 
-0.08932879845984439 
-0.02069250117318332 
-0.4715162451114088 
0.2123784815394399 
0 
0.0338625169407511 
0 
-0.004187666566501707 
0 
-0.01111521404252444 
0 
1.355252715606881e-20 
0.04358815501144992 
0.07153525078590908 
0 
-0.0002297898834181696 
-0.05494249895204924 
-0.0744747032124649 
-0.07147563050228668 
0 
0 
-0.01402628599441599 
-0.1235735655254028 
-0.01770192070855506 
-0.04162524013813387 
-0.04459466190305209 
0 
0.1374385839609226 
-0.007334929740815476 
-0.1613392473023595 
-0.01572264111630443 
0 
0.06616653701600671 
0 
-0.03399990325041644 
-0.007981946711807754 
-0.08373155458538004 
-0.1922207293667549 
0 
0 
-0.01549959383216446 
-0.1877194569822351 
-0.02819932787875047 
-0.01476276470614314 
-0.02009811826125603 
-0.009811895167534978 
-0.01369325694977945 
0 
0 
-0.05956209268033204 
-0.04373341000103721 
0 
0 
-0.008089988455887131 
-0.2326439704256032 
0 
0 
-0.113583240409681 
-0.01790810165102542 
-0.1527948452966539 
0 
-0.02470067424042576 
-0.2192671518394457 
0.1863188013404834 
0 
0.0072349743245614 
0.0793228521138673 
-0.01473290245639992 
-0.01099236718993988 
-0.02970478204612052 
0.1820832833644404 
-0.006122367712169595 
0.1339071472767085 
0.01958665869959095 
0 
-0.2170179158915637 
-0.01212934346939932 
-0.01932048943835497 
0 
0 
0 
0.1211983683090479 
-0.08102344274293712 
-0.2060290134565692 
-0.006465687286329567 
-0.3007257877497327 
-0.015090917688519 
-0.1219211946713865 
-0.1480419541299715 
0 
-0.04409510539736491 
0.08571828221340118 
0 
-0.08158208546673634 
-0.05175548334135464 
0.03914470155688538 
0.1566594078837881 
0 
0 
0.06456100652767581 
0 
0 
-0.002088185156207008 
-0.0008870289233307564 
0.2047182776680083 
0.1446781867475604 
0 
-0.06421410892759256 
0.01660811950511916 
-0.05735227333691009 
0.3652533563760609 
0 
-0.008173085923074978 
-0.00769600777223205 
0.1049240449209839 
-0.04803999077686939 
0.01436780713975949 
0.350132324439729 
0 
-0.00708923136605864 
5.529431079676073e-18 
-0.2671537191764349 
0.3713110821665275 
0 
0 
0 
0.07986394334037453 
0.1849403308090098 
-0.03184314702241585 
-0.003842021160819597 
0 
-0.01998872641742909 
-0.0296951703175864 
-0.03578096307182006 
-0.04324998502931686 
0.008883739896625753 
-0.007173752581095426 
0.006393448204069197 
-0.03821525328433818 
0 
0 
-0.01046358324357083 
-0.005707333398141229 
-0.001388724661163903 
0.1119867007986837 
-0.117649118401529 
0 
-0.05559884835481856 
-0.004513927348170522 
0.05432400695600566 
-0.06886490486490907 
-0.07715112129722135 
-0.1561039491362182 
0 
-0.02165657353015639 
0 
-0.01906858043048069 
0 
-0.02781768049541707 
-0.002322396301007091 
0.02353805918207025 
-0.002274188919875246 
-0.03966364715381165 
0.03046929806578903 
-0.002072051556463403 
0.1073969208522265 
0 
0.03223994375392933 
0.005726436520958177 
-0.05395724423074719 
-0.008996862978572842 
0 
-0.00427040470849501 
0.2291016573592504 
0.03999286234947883 
0 
-0.01890579399705732 
-0.006051948022365289 
-0.1598050658790862 
0 
0 
0 
-0.07439315078178989 
0.03177691384927411 
0 
-0.04162517599585867 
0.07759162489012143 
-0.4957389008703587 
0.0385915145212591 
-0.04441863359614533 
0 
0.02752294855859281 
-0.4989331012331906 
0 
0.07018905634844071 
0.00598398030831728 
0.2661985612012106 
-0.002639296521159566 
-0.4988331096330109 
-0.04941025218225251 
-0.006068951787327378 
0 
-0.004012455771866554 
-0.05552235910244582 
-0.030947837769051 
-0.02088104829976404 
-0.02847009510662358 
-0.008825338429659456 
-0.001993257056091693 
0 
-0.1303593241027947 
-0.07326555072912232 
-0.03125811560982601 
-0.1273600128712221 
0.05246410654611793 
-0.002057111894372099 
-0.01252819197833555 
0.102680549013279 
-0.05060958564716455 
0 
0 
-0.03229957362117129 
0 
0 
0.01153577274148991 
0.09330111723551758 
-0.01028963270774001 
-0.02711133076357887 
0 
0 
0.2000700966041521 
-0.01558300657518921 
0.002223295566592068 
-0.001191778098601478 
-0.01746915890927147 
-0.0403937951865142 
0.05915324271828106 
-0.001681895370687753 
-0.006284281948972732 
0 
0 
-0.006686888249723865 
-0.007810574459310596 
0.05162334259648552 
-0.04630507728724095 
-0.1567302505854205 
-0.031762303059619 
-0.4710710410065225 
0.2747346647147872 
-0.00373323418210149 
-0.03198214397018698 
-0.0388980025003597 
0.008701967533820651 
-0.01077823572608288 
0.02918730325465766 
0 
-0.04363061541832795 
-0.08111876160520441 
-0.01408084401207333 
0.2009711448233725 
-0.01742198876691523 
0.1286481118165656 
0 
0.1323261174762494 
0 
-0.4183277950937027 
0 
-0.002042256472689858 
0 
-0.2396239584656869 
-0.0358853597138586 
0 
-0.03712846962830892 
0.08500073806253544 
-0.007888583566426285 
0.03691572434275018 
0 
-0.09227970463036513 
-0.08198645706785612 
-0.0002085081105697828 
0 
-0.02964385791494702 
-0.0005953934221622846 
0 
-0.2226297500328641 
0.007530985206112024 
0.0222449638427048 
0 
-0.09291956269554733 
-0.07287067106682017 
-0.01361572547852872 
-0.04133047179268799 
0 
-0.02773266702581453 
-0.05257914017695863 
-0.03016296389188313 
-0.178858013715243 
-0.06172747803722049 
0 
-0.005442415918629841 
-0.138765398238555 
0 
-0.2496774432177032 
-0.07469840324571028 
0 
-0.5700379146738758 
0 
0 
-0.02704621142921201 
0.04397552278785361 
0 
-0.02864133777992936 
-0.003149373357099124 
-0.09951667461475064 
0 
-0.1286821192824202 
0 
0 
-0.002664976371954834 
-0.09834981291085751 
0 
0 
-0.08878100068107715 
0 
0 
0 
-0.04985353875806356 
-0.07150605802256609 
0 
-0.07881764671306216 
2.302839192335628e-06 
-0.05068942809884761 
-0.1518574098087623 
0 
0 
-0.218280495049827 
-0.02178792985244545 
0.01998437233203583 
-0.009823718297183925 
0 
-0.08613577946051966 
-0.02625899056463951 
-0.03722325833270485 
0 
0.01293550444849404 
0 
-0.0972760831633868 
0.5711871078423836 
0 
-0.003085825797413397 
0.2675914068663209 
6.009698631806738e-05 
1.823247760702493 
-0.002356054012086135 
0 
0 
0 
0 
0 
-0.03372029061964949 
0 
-2.710505431213761e-20 
-0.4139564892616076 
-0.07873241548253618 
0.04140471026786037 
-0.04766847740583145 
-0.05609119207829937 
-0.3566749734567089 
0 
-0.0443332942506373 
0 
-0.0123186069298777 
0.06061050791921552 
0 
0 
0.2387925460020384 
-0.2083885483465521 
-0.04050359799651813 
-0.02562965981311744 
0 
-0.002819950840393573 
-0.002443935227972629 
-0.1929844222656501 
-0.04598826799580199 
-0.1585925673084531 
-0.02691908535394894 
-0.1666374226716472 
0.6711292053711342 
0.2365282877299502 
0.1047852215422853 
-0.009620845579210384 
-0.01825522900894818 
0.3734112964231001 
0.02103772103508946 
0.06026301793793965 
-0.009541979054124164 
0 
0 
-0.01258129302207872 
0 
-0.0008744240197589915 
0 
-0.0689721679964605 
-0.0446734149559316 
0.5841164319390363 
0.04717275241789778 
0 
-0.00868507921779605 
0 
0 
-0.005562535183293526 
-0.005607096129774866 
0.03743134649758347 
0 
0 
-0.04256316090774928 
-0.03495913189767615 
-0.2454465627371317 
-0.01836139359151428 
0.003046031331826803 
-0.02354677899508562 
-0.004985903842499757 
0.0283503193889999 
0 
-0.09425409564646439 
0 
0 
0 
-0.003026476271200861 
0 
-0.006286483654958014 
-0.04932845554960898 
-1.016828317414277 
-0.009366140631421558 
0 
0.01080199466404138 
0.04784425240838198 
0 
0.007428832758650441 
-0.02025461841703558 
0 
0 
-0.007178171456643942 
-0.002439896976859283 
-0.07845173591669116 
0 
0 
0.02062019351495985 
0 
0 
0.0133950591552156 
-0.1445783233470049 
-0.07592771841000062 
-0.2586249871590925 
0.1636774651835621 
0.07969267633449237 
-0.02580137579025614 
0 
-0.01742086806107851 
0 
0.05991305818033515 
0 
0.01829199352903238 
-0.354224689736316 
0.06240195899042374 
-0.003261944493484002 
-1.000341019021989 
0 
0 
0 
-0.00528522140086765 
0.01657959017195848 
-0.01358303600163095 
-0.4112397673924819 
0.004360007943148996 
0 
-0.06828265461547278 
-0.02479782253895043 
0 
-0.1229714007632012 
-0.1101843179091568 
-0.01936184270878402 
0 
-0.0212275604686716 
0 
-0.0008586500446600492 
-0.2766981819995281 
-0.077327655239779 
-0.01623989838349664 
0 
0 
-0.07319430659166418 
-0.3881136268932271 
-0.001894001860838829 
-0.09049246799177464 
-0.02973495268005971 
0 
0.0001323582537640644 
0 
-0.001784539695493434 
0 
-0.002793895399614991 
0.07045533302087617 
0 
-0.1224177208857166 
0 
0.01000079250432909 
-0.03351109750094788 
0 
-0.07561926582772931 
-0.7982705699520185 
-0.008512520927140466 
0 
-0.1300241954397885 
-0.1840565764089757 
-0.00613827342269326 
0 
0.05393437490078889 
-0.01695670137868258 
0.01438411492680412 
0.07533098676706496 
0 
-0.03775390178919061 
-0.01164742803505766 
-0.1673973049015665 
0 
0 
0.1342169947303369 
-0.3203111510893805 
-0.1459813253051685 
-0.004227045475141914 
-0.2327381226331169 
0.006287357590876855 
0 
-0.01195114271475149 
-0.006218234662739437 
0.01008307553847281 
-0.001578600766862732 
0 
0.000520885063458316 
0.01500914059935105 
-0.1062332550835416 
-0.04247815419119259 
-0.0130277401703403 
-0.009022221141720708 
0.01006359065166675 
-0.03161414234858087 
0.03003039748599477 
-0.03102126491962638 
-0.053020877118959 
0.00197321533161422 
0 
0.007786639273359991 
0 
-0.004711259102192262 
0 
0 
0 
0 
0 
0.01241333052890563 
-0.1010005129461126 
-0.159056447393969 
0.003187513764056417 
-0.01027766781897792 
0 
-0.08944209509594374 
-0.0367182671471783 
-0.03498872604453235 
0.02148575793698883 
0 
0 
0.1603277164882179 
-0.0106858135854409 
-0.01302611554238625 
0 
0 
-0.03278834071190814 
0.01805621958034196 
0.2531082135425129 
0.03459345165515097 
-0.1213437742338091 
0 
0 
0.01153455204692161 
0 
0.05836042346411517 
-0.01187344997809095 
0 
-0.03127862796300824 
-0.02124614405177327 
-0.01080118303123513 
-0.007655408639714647 
0 
0.008388027924363328 
0.07709818265846485 
-0.02862179090416349 
-0.06858635021978528 
0.02763182953325974 
-0.03374627969699021 
-0.001164487083131828 
-0.006982360823743276 
-0.09373736323769627 
0 
0.07429610519668597 
0 
-0.1924623277117183 
0 
0 
0.004919086841625116 
0 
-0.01802763194304632 
-0.006869500469432376 
0 
0 
0 
0 
-0.00846672600882396 
0.02915796761423878 
0.0922121046150014 
-0.006067772331606766 
0 
0 
-0.01007914286051073 
0.07387417427604122 
-0.0008852675463255283 
0 
0 
-0.1219277562934327 
-0.03131117796043706 
0 
-0.01350310567261631 
-0.01345566332153315 
0.2575972395760573 
-0.0003200217986121638 
-0.004448864767267391 
0 
0 
0 
0 
-0.01680852573630632 
-0.02508617394816899 
0 
0 
-0.01956492213482266 
0.1127142871712382 
0 
0 
0 
-0.6373668958913434 
-0.05935901920919016 
0 
-0.1075854818463833 
0 
-0.05825259940743628 
0.04753873727124548 
-0.05150539240328274 
-0.01451353057330041 
-0.05108358023119199 
0 
0.03057141688568649 
0.0100297235050488 
-0.001691489275066242 
-0.008259151675755519 
-0.0379765705038978 
-0.007777457604162223 
0 
-0.2401674301999206 
0.1176063468786977 
0 
0.003993491970636609 
0 
0.03744953757204851 
1.084202172485504e-19 
0 
-0.4691168783286106 
-0.3486985897464619 
-0.04417716150712993 
-0.01756778869335156 
0 
-0.02694992593121241 
0 
0 
-0.04531384838673001 
0 
0 
0 
0 
0 
-0.009105244647394367 
8.131516293641283e-20 
0 
0.008801133360397959 
-0.01182835788806428 
-4.336808689942018e-19 
0 
-0.02729013692807689 
-0.01081440584236107 
-0.005572090572013942 
-0.04928101855522279 
-0.06231037389990279 
0.004021363685430756 
0 
0.02597706373137612 
-0.08290654303822817 
0 
0.002965193441079978 
-0.07748421572664375 
-0.03522986064037333 
-0.09566399689899231 
0.1968100356970046 
-0.01518959435471991 
0.08838327143728784 
0 
0 
0.02706838216963297 
-0.002554479837215103 
-0.02618159999490063 
-0.005036100164056004 
0.138910889483926 
-1.398752421041723e-05 
-0.0007153188974486975 
-0.0009284948726376564 
0 
0.01242825232688587 
-0.133901503942639 
0 
-0.02730240970592962 
0.1984521087200132 
0 
0 
0 
0 
-0.0151033972724929 
0 
0 
0.1738570526944054 
0.1822288204837304 
-0.07959027640612619 
-0.1582855802119595 
-0.0239973617407136 
-0.07479696574943792 
-0.3633294207574632 
1.084202172485504e-19 
0 
0 
0.09634232482212995 
-0.008416674150618293 
0.1024706343063626 
0 
0.0006559354851087453 
0 
-0.03526041879094099 
-0.002494493717212143 
0.1354036341318819 
6.23416249179165e-19 
-0.03340871884477536 
0.2432414099313494 
-0.1018974738000315 
-0.02501865281407022 
-0.05212461569129253 
0 
0.0690525594590277 
-0.007064287510991966 
0.01593276637534916 
0 
0.2432311031002044 
-0.009911050578675654 
0.1647099400809954 
0.4650112487616628 
-0.01545878153370977 
0 
-0.0115566725252894 
0.03534902133977422 
0 
-0.003307325503769889 
-0.000426978305560248 
-0.02404316160488832 
0.1361672304009056 
-0.003599889288697952 
0 
-0.2983142094210323 
0 
0 
0 
-0.004541288153292139 
0 
0 
-0.04851145246790591 
-0.003929023867432395 
0 
-0.05780775510279373 
0 
-0.008610085942867806 
0.04036610662902407 
0 
-0.006991132793016931 
0 
-8.131516293641283e-20 
0 
-0.0001777173126361072 
0 
-0.04582410518043253 
-0.01601215225525994 
-0.007999841262856628 
0 
0 
0 
0 
-0.001957836635476341 
-0.0004402851620012513 
0 
-0.04752530799974779 
0 
-0.0159498050144943 
-0.03844440136009269 
0 
-0.2481652678006179 
-0.03602254565304789 
0 
-0.06210743458989602 
-0.1969385273320315 
0.01985124061683668 
-0.005858706760133384 
-0.2389413781237393 
0 
0 
0 
0 
0 
0.01844236272509905 
0 
0 
0 
-0.02983961271585077 
0 
-0.1014296454683699 
0.1960862591988666 
-0.5571361434500782 
0.0001830230032512845 
0 
-0.00288756344968812 
0.007706586792637172 
0 
0 
0 
0 
0 
0.2157190289881658 
-0.004325722505600905 
-0.05100853226863582 
-0.0620397418801291 
0 
-0.06119128970779467 
-0.1864334582430591 
0 
-0.08179701697484947 
0 
0 
0.01328469894494398 
0 
-0.01200392188721894 
0.03308093938896549 
0.04502514397609418 
0 
-0.03818341280876932 
-0.3217874259173902 
0 
0 
-0.4841530085237876 
0 
0.1676687363427463 
0 
0 
-0.0310201542085295 
0 
-0.03980464361604812 
0.2650001319502467 
0 
-0.2832199644346383 
0.03975801637240005 
0 
0 
-0.008281165114947862 
0 
0.01259870641185204 
0.1138837462160953 
0 
-0.0307968416238462 
0.07084685924178642 
0 
-0.04046592317647275 
0 
-0.00883329011757634 
-0.02982749040497548 
-0.00782853454866091 
0 
0.3183312710710737 
-0.05137757434734363 
-0.02136057391780482 
0 
0 
-0.01076946250470803 
0 
-0.01303759724029283 
-0.05302935106794959 
0 
0.5230387833612158 
0.6450917666232113 
-0.06122913735565656 
0.0605881898501761 
-0.02069650597412998 
0.2840185045429207 
-0.0922095446681121 
0 
0 
0 
-0.04897307938997427 
0 
-0.01806640024040086 
-0.05876889765295983 
0 
-0.01061148374199648 
0 
-0.02705383191858559 
0.1943018776638973 
0.01491867946738265 
-0.001549489414360929 
0.2522355388310574 
0 
0 
0.002136610750948222 
-0.002605828470165177 
-0.001634817729308727 
0 
8.673617379884035e-19 
2.032879073410321e-20 
3.252606517456513e-19 
0 
0.19951884112332 
0.01121038784662617 
-0.4209755910012543 
0 
0 
0 
0 
0 
0.1855029496563148 
0 
0 
-0.01242689960796628 
-0.002449675853493559 
0.1052645197181 
-0.00316736250893273 
-0.0781025965442944 
-0.0844595981492727 
0.009190237332994847 
0 
-0.4377633037215167 
0 
0 
-0.002961431745865942 
0.1327040196146879 
0.008742542230746208 
0.03269073546142558 
0 
-0.006615505869637937 
0.02464101994624186 
-0.05618242544863943 
0 
0 
0.01303789259764541 
0.03419086452018686 
-0.006479752618682854 
-0.03469912340017035 
-0.0941012493671617 
-0.270668913551241 
0 
0 
0 
0 
0.004834736885071762 
0.0345649763071979 
-0.01732272748921186 
-0.04672332616786636 
-0.04712949619502876 
0 
0 
-0.08752283354481892 
-0.00660216946263642 
-0.07616186650036211 
-0.01018317875591469 
0.0716047742282067 
0 
0.03851678319435749 
-0.02907353522929441 
-0.04422276688885748 
0 
0 
0 
-0.002286826490135425 
-0.004362482126239389 
0.150903659335495 
0.07090569273454764 
0 
0 
-0.07539276912608445 
0 
0.003331640604345537 
-0.01145634271890972 
0 
0.6492921052046586 
-0.001603669407954822 
0 
0 
0 
-0.0998537464254186 
0 
0 
-0.06525232396272922 
0 
0 
-0.04249574635888759 
-0.00643588719751247 
0 
0.1330153190984212 
0 
-0.008298377398677609 
-0.03374187195117392 
0 
0.06153094003798888 
-5.839593777998455e-05 
0 
0 
-0.3718935960776941 
0 
-0.03009586946959503 
0 
0.0617050612885663 
0 
0 
0 
0.1202234135081589 
0.6438473016559916 
0.006533800631603617 
0 
0 
0 
0 
-0.02451409419750166 
-0.008574945184608454 
0 
-0.03507570278387213 
-0.05426598998007714 
0.01445087886318262 
0 
0 
0.02233912862288779 
0.03505590744672369 
-0.023346742446278 
-0.01635909310184944 
-0.2799284344635521 
0.0002545621169918925 
0.008733558297512562 
-0.09405378955892107 
0 
0 
-0.02163043721291437 
0 
-0.2709064834347639 
-0.03864208219756866 
-0.04281853225939848 
-0.08746900681019944 
0 
0 
0 
-0.002949521343118388 
0 
-0.3216294956036541 
0.02739922059354426 
0 
0.05992280160790406 
0.06667933277481447 
-0.06763844654674246 
0.01164093704960531 
0 
0.03251492660326184 
-0.042970427572484 
-0.04489750709000831 
0.08562862813710123 
0 
0 
-0.04787986123715027 
-0.004943787017088598 
-0.006039644734639418 
-0.0655607003043454 
0 
0.003374315652792825 
0 
-0.06559249515089431 
0 
0 
-0.3135177754134484 
-0.05125623928137656 
0 
-0.001808468559109114 
0.04662987679148911 
0.05047104233686016 
0 
0.1524955827072865 
0 
0 
-0.289238107769465 
0.03322461180870995 
0 
-1.084202172485504e-19 
0 
0 
-0.03188779182906651 
0.02607935657158487 
-0.008401488327890467 
0.06892209000275476 
-0.04788537188545564 
-0.03040871774170984 
0 
-0.01333252314841263 
-0.02018609354978636 
0.02400600562537178 
0 
0 
0 
-0.003664299567298007 
-0.01267106895779124 
-0.02970954824555498 
0 
0 
-0.1903792470037396 
0.001601495483324989 
0.2594367859493245 
0 
-0.01747004221041068 
0 
-0.005979454141755029 
0.06522474873739308 
0 
-0.01116909266726176 
0 
0 
0 
-0.00426192456008427 
-0.00671122028222919 
-0.01402892421374488 
0 
0.0783594712458333 
0.05067926078055113 
0.2715169414509625 
0 
0 
0 
0 
0 
0 
-0.0007085560720395254 
0 
-0.008986160397812077 
0.009948514195054005 
-0.01260967959036385 
0 
0.2982657893707472 
-0.02299308706172249 
0 
0.01095845849936088 
-0.1239023912378573 
-0.2548340188291432 
-0.03443931130699642 
0 
-0.001158136039907341 
-0.006260102815144579 
0 
-0.02342698992292354 
1.355252715606881e-20 
-0.02284230393144581 
0.02151021985809013 
0 
-0.009104847134905669 
1.734723475976807e-18 
-0.04550581761590072 
-0.009927033207465913 
0 
0 
0 
-0.00881077834707784 
0 
0.1087663882684059 
0 
0.02104473877066726 
-0.01666770827857173 
0 
0.02599602680969554 
0.08518266580081978 
0 
-0.008427898065397404 
0 
0 
-0.03830700076139728 
0 
0 
0 
0 
0 
0.006807938535298769 
-0.1368019048726251 
0 
0 
0 
0.003780112538199542 
0 
-0.04628066730474906 
0.2022333463045043 
0 
-0.01065839390730022 
-0.08832200449268132 
0 
-0.01773815054943327 
0.02787535650534283 
-0.003640760463858219 
0.09527490025102923 
0 
0 
0 
0 
0 
0.1519331116408461 
0 
0 
0 
0.4655042288093726 
0 
0.03159175729596553 
0 
0 
0 
0 
-0.06148853600291267 
-0.04277685257704433 
-0.3412506174685733 
0.1086741982155491 
0 
-0.02736802194842708 
-0.002383025219518341 
-0.1749022605307776 
-0.0005955973002316148 
-0.03791668990410332 
-0.004029525928808885 
0 
-0.008416609851946691 
0 
-0.1699510829139826 
-0.03453142984333744 
-0.003208169101622776 
-0.01885585038146594 
0 
0.04441147179925046 
0 
0 
-0.001971257905701388 
0.02828829004680573 
0.01272676689575227 
-0.003748134123083039 
0 
-0.01672503003974265 
0 
0.06202230999385447 
-0.1342350846453133 
-0.04582914439326541 
-0.05227341086046442 
-0.04552484370214773 
0 
0 
-0.02779601487622455 
0 
-0.1142490520162761 
-0.2414003595238906 
-0.006972953072641297 
-0.007020520248601647 
0 
-0.1887351787186318 
0 
0 
-0.01594948712903781 
0 
-0.5955578294708147 
0 
0 
0 
0 
0 
0 
-0.0515352572335145 
-0.005930078610159155 
-0.001850968195688642 
0.1089011412501705 
-0.004414533987316486 
0 
-0.004744939948249402 
0.001209237262451027 
-0.1399728784426728 
-0.001727248960074168 
0.07422589956702083 
-0.04849258492924106 
0.1098396954225917 
0 
-0.02139579363251562 
0.003306354619454508 
-0.001532944208019982 
-0.001435931768280791 
0 
0.02198626007978407 
-0.03074850722893806 
-0.01662060755729198 
0.0467895950248804 
0 
0 
0 
0 
0.0845968072110909 
0 
0 
-0.05752155695536824 
0 
0 
0 
0 
-0.05718441972325709 
0 
0 
-0.01868984020064537 
-0.1162666352511575 
0 
0.07020079909395686 
0 
-0.02596390964108534 
0 
-0.01761374746455667 
0 
0 
0 
0 
0.258104405144361 
0 
-0.0650672269476083 
0.02442073258083165 
-0.2414150707791031 
-0.01315442157482322 
0 
0 
-0.00617090300223708 
-0.1369917332613999 
-0.02843895704988011 
-0.001607329712654802 
0 
-0.006336131109347609 
0 
0 
0 
0.02022642087801661 
-0.0596997909479163 
0.03274331167094548 
0.008187040301530621 
0.04017319298267657 
0 
0 
0.02413353334575639 
0 
0 
0 
0 
0.1531578764952911 
0 
0 
0.7994438645799596 
0 
0.04524502674496755 
0.02170943632838691 
0 
0 
0.0669189023287948 
0.03249874421579162 
0 
0 
0.01021016130378115 
0.06672915712755313 
0.01367123522689802 
-0.006172257094079378 
-0.05433048899614813 
0 
-0.06228338841335154 
-0.185103758169542 
0.0108100221897314 
0.06647105048068991 
0 
-0.008432127409487991 
0 
0.01674261815866296 
0.03784508644121898 
-0.03226297055167093 
0.002022570943357496 
-0.01914655679684478 
-4.743384504624082e-20 
0.01942022143517905 
-0.06451154844169484 
0 
-0.01948686961086957 
0 
0 
0 
0.8307151529682498 
0 
0 
-0.05534348639064671 
-0.01587432253458596 
0.06309531666354092 
0 
0.03303321145392289 
-0.008483485669292348 
0.03455632838342038 
0 
-0.0115248617639277 
0 
0 
-0.007850680084076857 
0 
-0.1715984102046911 
-0.01308525993942064 
-0.4034761528949738 
-0.04059887257742326 
0.02748141961853605 
0 
0 
0 
0.2256677192094399 
0.02126856874515758 
-0.01407222732209516 
0.1585206977368401 
0 
-0.1825668630697783 
0 
0 
-8.673617379884035e-19 
-0.05316575899311443 
0 
0 
-0.06775371702123199 
0 
-0.1750815999815651 
-0.0134681193925567 
-0.008140952820908268 
0 
-0.009212907101595599 
0 
-0.01127621978207894 
0 
0 
0 
0 
-0.2698462747956806 
-0.0009298071747094436 
-0.03048395208842423 
0 
0.6966792929628575 
-0.005566090774957187 
0.0953089404819073 
-0.007974523924123442 
0 
0 
0 
-0.2139986190691187 
0.001531017821244289 
0 
-0.04028862728229057 
0 
0 
0 
-0.02358939959213326 
0 
0 
-0.01797713808647829 
-1.084202172485504e-19 
0 
0 
0.006768417029570268 
-0.03830619336487191 
-0.0005151455055241471 
-0.01284079712811921 
0 
0 
0 
5.618188101724765e-05 
-0.004998437278613601 
0 
-0.00453884161323539 
0 
0.02640539179746024 
0.07194316170383755 
-0.00662116508172869 
-0.1099765895548635 
0.04724494814166676 
-0.01009576884707444 
0 
0 
0 
-0.03154986773335457 
0 
-0.004957122098383289 
-0.02454927617793701 
0.09261226224040896 
0 
-0.09927010003182983 
0 
-0.05439871388075378 
-0.1052220066090655 
-8.673617379884035e-19 
4.336808689942018e-19 
0 
0 
0.01981122567733138 
0 
0 
0 
0 
-0.04972221258632726 
-0.09476247668323599 
0 
-0.01681507829454578 
0.05823134007239381 
-0.0096313392043506 
0 
-0.2678456532098482 
0 
-0.03545479234337823 
-8.673617379884035e-19 
-0.007751339669047276 
0 
-0.003683627826431124 
-0.009245760523379356 
4.336808689942018e-19 
0 
0 
0 
0 
-0.07988758041552844 
0 
0 
-0.0006889332542193526 
-0.01808091322125154 
-0.005936705750993611 
-0.004990300937066364 
0 
-0.05037337383661525 
-0.03381563866897929 
0.06745519614080671 
0 
0 
-0.03823790926790407 
-0.1491894587708242 
0 
0.01876450412918678 
0.04272496990727172 
0.0327841093125931 
0 
0.1592846742231966 
0.02640565230058721 
0 
0 
0 
-0.03026080921986831 
-0.01575411243008371 
0 
-0.04636738495995459 
-8.242264404760171e-05 
0.07490104426671396 
-0.005293155329674016 
-0.1078756798651531 
0 
0 
-0.001743953610637627 
0 
-0.04092946929305602 
0.04493257502874278 
0.0002338970681761405 
0.01449731676711488 
0.09343665542844788 
0.00215605575768872 
0 
0 
-0.05503913200980777 
0 
0.09065598333547249 
0 
-0.002850523179875555 
0.001286104121246985 
0 
0 
-0.1149625334602888 
0.04050975880266614 
0.004441353671234611 
0.3100673017927914 
0 
-0.006921518069015743 
0 
0 
0 
0 
0.0313109379036225 
0 
0 
0 
0 
-0.01366970995446043 
0 
0 
0 
-0.0282835128613961 
0 
0.01765763941067091 
0 
0 
-0.03847732460199173 
0 
-0.07574303164258453 
0.0269141238606446 
-0.02668882333572878 
0 
0 
-0.04480559131738945 
0 
1.084202172485504e-19 
-0.02008850453232681 
0.03634737080354301 
0.02346707150360197 
4.011548038196366e-18 
0.01181550250064303 
0 
1.084202172485504e-19 
-0.03023723034798501 
0 
-0.03248013014354543 
0.001769183102860165 
0 
-0.0665290991101716 
-0.002974757530515628 
-4.258733996231267e-05 
0.002241543158252396 
0 
0 
0 
1.192622389734055e-18 
0.0300840284378568 
-0.01794218226108123 
-0.06220763200769189 
0 
-6.938893903907228e-18 
-0.005151800405880298 
-1.231192098211292 
0 
-0.1103859332797467 
-0.009819989251262189 
0.4997325922611138 
-0.007943504277794781 
-0.01438533123793925 
-0.02045417388087517 
0 
-0.1701118878818608 
0 
0.179774943103704 
0 
-0.01068322831408927 
-0.02605646241077121 
0 
-0.01835413406597921 
0.009515724890188364 
4.065758146820642e-20 
-0.1104326692364739 
-0.01797604355265373 
0 
0 
0 
0 
-0.1805149897089466 
-0.04468402291117277 
0.09043360091714657 
0 
-0.01943228132741326 
-0.01570319826773963 
0 
0 
0 
-0.0005499433995225636 
-0.2832119169134528 
0 
0.04456732784006941 
0.1424852770924958 
0 
-0.003341065046630255 
0.1214518469852073 
-0.03274901144208262 
-0.2426227187708321 
0 
0 
0 
0 
0.126768818867744 
-0.06563334823007567 
0.07956440805211659 
0 
-0.4939163531859396 
0 
0 
0 
-0.009731496118387955 
0 
0 
0 
-0.1164393923374762 
-0.0451055620463677 
0 
-0.005996017276378908 
0 
-0.277402006798239 
0.01069117964186267 
-0.0427656648627183 
-0.08990635916448257 
0.03932156463266398 
0.003910856280429015 
-1.355252715606881e-19 
-0.4198105242055082 
0.4711387030019398 
0.2375074658707699 
-0.1058763134180851 
0 
0.1828704791002365 
-0.08958288315684247 
0 
0.007677499521692305 
-2.59928632631231e-05 
0 
0.3674094748419128 
0 
-0.1374030153533883 
0 
-0.06340034304214173 
0 
0 
0.006012848853963778 
0 
0 
0 
0 
0 
0 
0 
0 
0 
0.2361258849963887 
0.0856844766411463 
0.04961090249191533 
-0.003789411657579117 
0 
0 
0 
0.008124547396697449 
0 
0.09445644561492433 
0.03992648176663898 
0.1901976885547721 
-0.234511274509782 
0 
0.002077155857047593 
0 
0.08191607524227905 
-0.01282149954824541 
-0.08141978358120841 
0.06677493113571925 
-0.00385493352725743 
0 
0 
0 
-0.006077297236517297 
0 
0 
0.002788933595530009 
0 
0 
-0.09775102404614922 
-0.03441657529279032 
0 
-0.008633041036570725 
0.02893413841873235 
0 
0.0007297498158127856 
0 
0 
0 
0 
0.09476082230488805 
0.02899253238953684 
0.05474168408565679 
0 
-0.02213539339355123 
0 
0 
0 
0 
-0.1052264355155058 
0 
0.009484185781634267 
-0.001291354238859397 
0.1559778540284792 
0 
0 
0 
0 
0 
-4.336808689942018e-19 
0.3693898476057597 
-0.007086446672940453 
0 
0.003887126230012693 
0 
0 
0.006644926208071211 
0.00710320383874547 
0.03587626502879018 
-0.01996536412093219 
0.007802665659973031 
0.01143141427132048 
-0.02024559537245684 
-0.02027076591395579 
0 
0 
0 
0.02632937587114534 
-0.06195713300407571 
0.02621764325556888 
-0.07785288919415229 
-1.626303258728257e-19 
0.03458282858272806 
0 
-0.0009008980273978371 
0.03816114838239777 
0.07586988563860277 
-0.08250612836820112 
-0.01405840942222386 
0 
-1.387778780781446e-17 
0.04311797708113157 
0 
-0.08998473015210069 
0.01938740308164738 
0 
-0.05752239095284398 
-0.2345016804755507 
0.2884748851111605 
0 
0.05561363025912665 
0 
-0.01336267724950816 
0 
0 
-0.1104394414767384 
0.0009431189985945123 
0 
0.05317300818238961 
-0.06036731905608379 
-0.06739779765352448 
-0.1791039652944638 
0.005603712352649553 
0 
0 
0.1669515709914126 
0 
-0.006359278651272492 
0 
-0.002975908468073684 
0.05120868247365055 
0 
0 
-0.002107420829413883 
-0.15461536722303 
0.04052470011626536 
0.1749705101981315 
-0.07060070661689501 
0.002104891497862143 
0 
-1.626303258728257e-19 
-0.01990408205525309 
0 
0 
0 
-0.03617345563520093 
-0.02247475197401764 
-0.003555420455613766 
-0.2605429689125499 
-0.04435814025386329 
-3.469446951953614e-18 
-0.01238769943128626 
0 
0 
0 
0 
-0.1067698623212318 
-0.02743407644745003 
-0.002592898901132784 
0 
0 
0.006133802468854467 
-0.05306119934891205 
0 
0.01203333643111609 
0 
0 
0 
0 
-0.04830550956806786 
0 
0 
-0.03579982481987296 
0.009110510007026083 
-0.02454061551495461 
0 
0 
0.01734446933375686 
0 
0 
0 
-0.01160821929785274 
0 
-0.03337224262132903 
0.1503710132838812 
0 
-0.008802755185635799 
0 
-0.03721502606020217 
0 
-0.01053975609650671 
-0.01167761309407052 
0 
0 
0.06068737548861471 
0 
0 
-0.1677459690558608 
0.05480819358214607 
0 
-0.1475975931722162 
0 
0.0002707239292646294 
0 
0.04104536276929822 
-0.1593101195016984 
0.004460522198733693 
0 
0.03259294869364419 
0 
0.06366289486005175 
0 
0 
-0.01874825722167961 
-0.01666101415664924 
0 
0 
0 
0 
-0.09819362776348267 
-0.01499213141070727 
-0.04908879061775513 
0.02077975210451928 
0 
-0.005274436998494995 
0 
0.01565879675934266 
0.1189719132304947 
0 
-0.004225692609595154 
-0.036588995914993 
-0.005574289497864888 
0 
-0.02348378654653475 
-0.008291785719026761 
-0.09022812995007667 
0 
0 
-0.002636925356482125 
0 
0.3464636332572172 
-0.02396001955752087 
0 
0 
0 
0 
-0.001851930912862831 
0.006915033734770161 
0 
0 
0.1880725388242058 
0 
0 
0 
0 
-0.006151847825789537 
0 
0 
0 
-0.0156286334665862 
0 
3.469446951953614e-18 
0 
0 
-0.02277894704480017 
-0.005447033690152029 
0 
0 
0 
-0.1005208610309087 
0 
0 
0 
-0.003448045210461121 
0 
0 
0 
0.1122905752999292 
-0.009160697615630443 
0 
-0.0555899784483395 
-0.0623632757098811 
0 
0 
-0.003307989620601531 
0 
0 
0 
-0.02875815428962405 
0 
0 
0 
-0.1048811005026933 
-0.07346094774168399 
0 
-0.005021004281516386 
-0.4063732366229215 
-0.05604336842177928 
-0.01261017346974577 
-0.001445764584216906 
-0.02082173530147327 
-0.03351267959833738 
-0.1140882288480637 
0.01103862900339501 
0 
-0.008064578599365406 
0 
0.03634912252743946 
0.07884030139801587 
-0.1362237130979211 
0 
0 
0.2429718058871433 
0 
0 
0.08569827382908712 
0 
-0.1929586616139258 
0 
0.0237185267728862 
-0.1042230414486889 
-0.2771079303094439 
0 
-0.00384401025552304 
0 
0 
0 
0.2943656532232469 
0.03601392992140964 
0.006955738068976976 
0 
0 
0 
-5.204170427930421e-18 
-0.01117050019858409 
0.002853069996037034 
0 
0 
0 
-0.003895850640473238 
0 
-0.04639975747838201 
0 
-0.02901798491164559 
0 
0 
0.0625622343652414 
0 
0.00310835240515311 
0.1060892635504594 
0.2473731466624643 
2.710505431213761e-20 
0.02826866521659609 
0 
0 
-0.02940731263842255 
0.01332870988007765 
-0.05601015572090212 
0 
0 
-0.2368197155710332 
-0.06565656924603008 
0 
0 
-0.002848013349341143 
0 
0 
0.1203272522572395 
0 
0.0167113810024415 
0 
-0.1500374996540503 
0 
-0.005496539497172984 
-0.03578475309870922 
-0.00392534004204823 
0.02628307761275633 
-0.2132746590861744 
0 
-0.02832900099359504 
0.003749262930375734 
0 
0 
-0.06199730362142425 
-0.0154233989875371 
0 
0 
0.5620625176985067 
-0.06458462262339029 
0 
-0.02026585319740954 
0.04738329525651815 
0 
0 
0 
-0.001867728799899814 
-0.001423362342899372 
0.002507783873086733 
-0.2140132896401763 
-0.0549343596688916 
0 
0 
0 
0 
0 
-0.001324294500459461 
0 
0 
0 
-0.009026718974978833 
0 
-0.01707001730821987 
-0.008436768299440851 
-0.01261318383966592 
0 
0 
0 
-0.001843054974749594 
0.06408268437778686 
0 
0 
0 
0 
0 
-8.673617379884035e-19 
8.639736061993863e-20 
0.07473259796700131 
0 
0.004668919967029615 
0 
-0.002969975415322298 
0 
-0.05086343715542964 
0 
0.04453972696488323 
0 
0 
0.005587331002743538 
0.3843693292331899 
0 
-0.06026030545674279 
0 
0.05799546284721434 
0 
-0.003833870303688813 
0 
0 
0 
-0.01150312613060736 
0 
-0.02260168642051672 
0 
-0.2583171115272917 
-0.01240149870539142 
0.06005568714513997 
-0.002193081622509971 
0 
0.01139799254148769 
0 
0.01391911216197242 
0 
0 
0 
-0.008689994629834438 
-0.02640736094180094 
0 
-0.003160426298824941 
0 
-0.01645664550409055 
-0.06281454315329597 
-0.01357085963393602 
0 
0 
0 
-0.02430069685699807 
-0.02928547344061235 
0.07477178843619234 
0 
0 
-0.04802480066185582 
0.002783455480967662 
0.02644343035917003 
-0.02532121451930207 
0 
0 
0.1340574868121885 
0.0439379606964492 
0.1024603509126192 
0.0002065303566433514 
-0.1474575995565556 
-0.03236835565249703 
0 
0 
0 
0 
0 
-0.02286549960898985 
0.1104162182367351 
0 
0 
-0.00803983158249055 
0.06511844091137887 
0 
0.001300943307669986 
0 
0.005987215685008447 
0 
0 
0 
-0.003236036542651779 
0 
-0.07690182754603198 
0 
0 
-0.0007961755805067852 
-0.001997285632078031 
0.005612059256144051 
0 
-0.04029834481263413 
0.1489991190146528 
0 
0 
0 
0.009616443286889457 
0 
0 
0 
0 
0 
0.0252710254882501 
0 
0 
0 
0 
0 
-0.1039716516588044 
0 
0.1362730031928756 
-0.005380784801644019 
0 
0 
0 
0 
0.1199395797330871 
0 
0 
0 
0.005104942477898521 
0 
-0.1638651556870032 
0.01073455986863096 
-0.02176692207397486 
-0.05846988421311731 
0 
0.07021314182005123 
-0.03373395605846276 
-0.09912199875872441 
0 
0 
0.03690513896825972 
0 
0.04849238340051116 
-0.005444427424839726 
-0.007387388285590983 
2.710505431213761e-19 
0 
0 
0 
0 
-0.0288021018475035 
0.002217606964806639 
0 
-0.008427177729321082 
0 
-0.02952054760875577 
0 
-0.01310627794752631 
0.07217673814007959 
0.4273833859653007 
-0.02037681304898088 
0 
-0.001780395883397783 
-0.00218502970438872 
0.07154972211332253 
0.1120393748447492 
0.05140138432748676 
-0.01589543567177919 
0 
0 
0 
0 
0.02400276563817511 
0 
0 
0.009872824593902173 
-0.04738299946441144 
0.04303512917068716 
0 
0 
-0.00022252853007523 
0 
0 
1.175109901156442 
0 
0 
0 
0 
-0.2187860478463117 
0 
0 
-0.3210796411101496 
0 
1.301042606982605e-18 
-0.06638856873270674 
0.003578725947981749 
0.01873050990308364 
0 
-0.1228150046187194 
0.05309385070180684 
-0.1527337997770481 
-0.1168894073468606 
0 
0 
-0.3144088692014965 
0 
0 
0 
-0.001288947389021131 
0 
0 
-0.003999111469537566 
-0.1182542352875062 
0.08984318103000002 
0 
0 
-0.08413332297332166 
0 
-0.02181362561487074 
0 
-0.009286098147181027 
0.02410333653119064 
0 
0 
0 
0 
-0.01426670311186187 
-0.007940542595311776 
0 
0 
-0.0112870294788755 
0.001907837187892066 
0 
0 
-0.3829227680608353 
-0.008578865396774353 
-0.1435580359356388 
0.02006432028785046 
-0.06829526749919053 
-0.1105044827263359 
-0.01077729099708497 
0 
0.02572177118735704 
0.03756222509410157 
0 
-0.1490669628815221 
0.01608983346135776 
0 
0 
-0.008460088685450185 
0 
0 
0 
0 
0 
0 
0 
0 
1.084202172485504e-19 
0 
0 
0.1234405206067478 
-3.252606517456513e-19 
-0.06556665711857633 
0 
-0.04500594992519336 
0 
0 
0.003273061218773726 
0 
-0.1190712391052026 
0.009421247649422834 
0 
0.02732015439141599 
0.01095091727127923 
-8.175327372534103e-05 
-0.0022611739993082 
0 
0 
-0.004190410273967756 
0 
0 
0 
0 
0 
0.02497697400740224 
0.03664275212170386 
-0.02507730206630033 
0 
-0.009226355692244574 
0 
0 
0 
0 
-0.0005354554315136881 
-0.03149658174079276 
0 
-0.1217883356748463 
0 
0 
-0.01289371556241465 
0 
-0.1296104577261467 
0.01542118578036456 
0 
0 
0 
0.003030851824587991 
-0.0716890296083034 
-0.009461171253999636 
-0.01647661251916974 
0 
-0.2767442945039049 
0 
0 
-0.01241126510262552 
-0.03985043805797856 
-6.776263578034403e-21 
0 
0.0851349076219155 
-0.00958493620227786 
-0.03051297547119895 
-0.03817643588554336 
-0.01408368733717786 
0 
0 
-0.02495519440243259 
0 
-0.0284819426645211 
0 
0 
0 
-0.0266181232679434 
0 
-0.0101774113679232 
-0.3123716227712812 
0.02146354136351155 
0 
0 
0 
0 
0 
0 
0 
0 
-0.0184820208743437 
0 
0 
0 
0 
0 
0 
0 
0 
0 
0 
0.02484735147078238 
0 
-0.002107458592402001 
0 
-0.09673483972408321 
0 
0 
0.06136538155608848 
0 
-1.734723475976807e-18 
0 
0 
0 
0 
0.008130982657641783 
0 
0.01037067417644641 
-2.528403643369189e-05 
0 
0.02335842050634091 
0 
-0.01863864531045346 
0 
-0.02692734375215922 
-0.0007600896936997481 
0.1426151278626195 
0 
0 
0 
3.469446951953614e-18 
-0.0920127845511975 
-0.2903777054917032 
0 
-4.336808689942018e-19 
0.01346957827289583 
0 
-0.04032682566808014 
0 
-0.002004423881189272 
-0.01919629291127202 
0.0007019044047214105 
-0.001373055355345007 
0 
0 
0 
0 
0.04374333853363993 
0 
0 
0 
0 
0 
-0.02686410887990587 
-0.01486063188442326 
0 
0 
0 
-0.147246854633845 
0 
0.006457976939991028 
0.03375108768986556 
0.1197112218264599 
-0.01293616937424672 
-0.1054426249322197 
-0.03642036702978312 
0.04610204353794987 
0 
0 
0 
0 
0 
0 
-0.02477240564096201 
-0.01093983692055905 
0 
0 
0 
0 
0 
0 
-1.609362599783171e-19 
0 
0.03065121400503775 
0 
0 
0.08869356251101665 
0 
-0.51799886345007 
0 
0 
-0.001857074980945477 
0 
0 
0 
-0.2496322374830158 
-0.02624529507586011 
-0.01736626194319035 
-0.2574194090105167 
-0.009032622290562077 
0 
0 
0.02523103581863744 
0.0500670901692804 
-0.1238574246808964 
0.2022473843487589 
0 
-0.05098939478682214 
0 
0 
0.0141710152998335 
0 
-0.03345587847734784 
0 
0.02053344063581533 
0 
0 
-0.01806696383888119 
0 
0 
0 
0.03168259779505792 
4.336808689942018e-19 
0 
0.03215578144111813 
0 
0 
0.02616846043013221 
0.009748332703717444 
0 
0.02585088072832272 
0 
-0.03334477803057537 
0 
-0.02234141229070751 
0 
0 
-0.04243750949796609 
0.03555518006880648 
0 
0.007437467523063487 
0 
0 
-0.008013112694331354 
0 
0 
0 
0.01451172831371316 
0 
-0.006761513441256775 
0 
-0.007728835081664848 
-0.01737921945796644 
0 
0.2590219139647446 
0 
-0.1115086525336795 
0 
0.00640247204511701 
0.03690408671230104 
0 
0 
0 
0 
0 
-0.003995020354076981 
3.252606517456513e-19 
0 
0 
0 
0 
-0.08882279441385436 
-0.004145713707557563 
0 
0.02352831484364521 
-0.003376742453140137 
0.0364493821012382 
0 
0 
-0.003566480590039466 
0.02119641209181247 
0 
0 
-0.005018433888088925 
0 
0 
0 
0 
0.04714640747041685 
0 
0 
0 
-0.06877423878446672 
-0.001834611798925707 
0 
0 
0 
0 
0.02407129581154656 
0 
0 
-0.00759459676688628 
-0.02737228901498371 
-0.003696284612130521 
0 
0 
0 
0 
-0.009903895214165003 
0 
0.02514416410345995 
-0.01267621171117313 
-0.0277386318216001 
0 
0 
-0.01787834940062259 
-0.007058694203756079 
0 
-0.008027144083978231 
0 
0 
0 
0 
0 
0.0834857995402459 
-0.01878053538208957 
-0.00238027869571201 
-0.05689602000288093 
-0.01617595342089806 
0 
0 
0 
0 
0.1082578091582416 
-0.175508018721382 
-0.04373056741599031 
-0.004937848027992684 
0 
0 
0 
0.02117926677463284 
0 
0 
-0.006346534395259687 
-0.06948448109468183 
0 
0.04402049494741993 
0 
-0.03003095304245831 
-0.00793264332818654 
-0.01386960028559438 
-0.04208784742014716 
0 
-0.00292431387265024 
0 
0 
0.001960795590035689 
-0.09714432456101407 
-1.626303258728257e-19 
0.04633221057335196 
7.300910870248573e-06 
-0.1596310143606748 
0.01380307555613994 
0 
0 
0.1896693931214838 
0 
-0.01187166686350391 
0 
3.469446951953614e-18 
0 
0.03705157249981786 
0 
0.03445855897719827 
0 
0 
0 
0 
-0.004788211906039228 
0 
-0.0001440576611197519 
0 
-0.04575345110174277 
-0.07972626768442753 
0 
-0.005813997882826182 
0 
0 
-0.09894632863723994 
0 
0 
0 
-0.001400169652899409 
0 
0 
0 
-0.008117669976240537 
0 
-0.02168789248730051 
0 
-0.001674612345251687 
0 
0 
0 
-0.00246672761148619 
3.049318610115481e-20 
0 
0.0530836219860824 
0 
-0.002126078450470758 
0.03020822345706306 
0 
0 
0 
0 
0.02062063411693501 
0 
0.01409426887422376 
-0.0259580894537868 
0 
-0.002022503366467162 
-0.007170249100062836 
-0.01821435296429764 
0 
-0.007291007365066313 
0.1078504792491347 
0.01361782655733332 
5.421010862427522e-19 
0 
-0.03353188799497513 
-0.01817410369857634 
0.2066947814134899 
0 
0 
0.1983535393552075 
0.06062712815592864 
-0.3023930858485605 
0 
0 
0 
0 
0 
-0.4721093338288132 
-0.04782697942247673 
0 
-0.03802184477496239 
-0.01340861006880883 
0.01307025652190457 
0 
0 
0 
0 
0.000720388259823876 
-0.0497874978896188 
0.0456391122061107 
0 
0 
-0.0210530443763891 
-0.008056205423336793 
0 
0 
0 
9.75781955236954e-19 
-0.03029162094077037 
0 
0.01706152976791406 
0 
0 
-0.09860434034894119 
0 
-0.05520709575108297 
-0.004155021731531796 
0 
-0.03479250770957636 
-0.01056667649292242 
-0.001905824832407294 
0 
0 
0 
0 
-0.01428417061423334 
0.02037980705999057 
0 
0 
0 
-0.02681545537818431 
0 
0.02192621594051802 
0 
0 
0 
0 
0 
0 
-0.03696448240085183 
0 
-0.006876362535714692 
0 
0 
0 
0 
-0.003095909720664857 
0 
0.02119118027436006 
0.02584728659306285 
0.03757256876797618 
0 
0.03198531199233176 
-0.03664506094552021 
0 
2.168404344971009e-19 
0 
0 
0 
0 
0 
0 
0.03043244987652368 
-2.602085213965211e-18 
0 
-0.01072366191680042 
0 
0 
-0.01625791375838041 
-0.02705301260777318 
0 
0 
0 
-0.001727174230883232 
-0.09166947984216171 
0.009425205209438573 
0 
0 
0 
-0.007997353349386468 
0.05515161821087097 
0 
0 
0 
0 
0.01480333678217278 
0 
0 
0.1490006858856834 
0 
0.03484311080649739 
-0.004280504967435645 
0 
0.08600227051215803 
0 
-0.0009009476880521217 
0.001613445187644739 
0 
0 
-0.2151721019813778 
-0.3192215389891306 
0 
0 
-0.01088732361015503 
0 
0 
0 
0 
0 
-0.243800490916737 
-0.1762917950133047 
0 
-0.115722475760958 
0 
-0.2832929057476374 
0 
0 
0 
-0.00149984342455905 
0 
0 
-0.04995200723066415 
0 
-0.09780877536531674 
0 
0 
-0.1323213999380328 
-0.03002151689118118 
0 
0 
0.05552115231403353 
0.008818634438798136 
0 
-0.3111818312958415 
-1.072506778995915e-05 
-0.002375447797184505 
0.007623320997603514 
0 
0 
0 
0 
0 
0 
5.421010862427522e-20 
0 
0 
-0.1653532142102675 
0 
0 
0 
-0.0399965883750512 
0 
0 
0.6150052196399651 
-0.0162521978461208 
-0.05674489811625345 
0 
0 
0 
0.09286246677305673 
0 
0 
0 
0 
0 
-0.02110462117377274 
0 
-0.01518966597808451 
0 
0 
0 
0 
0 
-0.009697499434373249 
0.0131719939603803 
-0.01791465735379526 
0 
0 
0.03559786490914559 
0 
0 
-0.01433895309203175 
-0.01078041954579561 
0 
-0.02366391399150669 
0 
0 
-0.02131714180597903 
0 
-0.05512291177730644 
0 
0 
0 
0 
0 
0 
0.02997968733865341 
0 
-0.3041757364982419 
-0.01202946526989928 
-0.0289000927534839 
-0.01162608990908222 
0 
0 
0 
0 
0 
0 
0 
-0.01926835644971576 
1.071057996029052 
0 
0 
-0.02114069204802571 
0 
0 
0 
0 
-0.03888824412540243 
-0.008379806124464113 
-8.673617379884035e-19 
0 
0 
6.505213034913027e-19 
0 
0 
0.06446766129606822 
-0.006522029956715259 
0 
-0.03499912750239298 
0 
0.05191652425910678 
0.09652017635531344 
-0.002902525098024568 
0.1755203855633473 
0 
0 
0 
-0.01214960557208606 
0 
0 
0 
0 
0 
0 
0.005910873553466258 
0 
0 
0 
0 
0 
0 
0 
0 
0 
0.07054215419675164 
0 
0.005858646373949699 
-0.1715614741322265 
0 
0 
-0.4506596548881165 
0 
-0.1824017807085798 
0 
0 
0 
0.01830238594629768 
0.003000918360155014 
0.007371509053884486 
0 
0.01671889057405875 
0.09376445177935111 
0.07068185870203078 
0 
0 
0 
0.09386076293541699 
-0.1469577007975224 
0 
0 
0 
0 
0 
-0.01900388913475547 
-0.06283369135911872 
0 
0 
0 
0 
0 
-0.0764412271299907 
0 
0.08217977098620077 
0.01384836713378814 
0 
0.008586215224592172 
0 
-0.007373549474859469 
0 
0 
0 
-0.02471318442873019 
0 
0 
-0.005879260582330278 
1.301042606982605e-18 
0 
0 
0 
-0.04386901835372058 
0.007930759014280765 
-0.003316548529163296 
0.0273366023391093 
0 
-0.004144572159276029 
0 
0 
0 
0 
-9.486769009248164e-20 
-0.0307172237782551 
-0.006350580926934413 
0 
0 
0 
-0.002352705321748949 
0.1360911019443772 
0 
0 
-0.03955329013252045 
0 
0 
-6.776263578034403e-19 
0 
0 
-0.06718840411312994 
0 
0 
0 
0.01697940715703885 
0 
8.673617379884035e-19 
0 
-0.1916284779171418 
0 
-0.008887253102260517 
0 
-0.04672966059783703 
0 
0 
0 
0.02849977800955171 
0 
-0.1783519722870661 
-0.02398641570460315 
-0.004889633751846725 
0 
-0.005158750096461749 
0 
0 
0.01890127756662231 
-0.00930022343747695 
0.4240214422232464 
0 
0 
0 
0 
0 
-0.01532319452699566 
-0.003359962262803414 
0.1445803943686001 
0.03557616749951024 
0 
0 
0 
0.2543691319351615 
-0.01463101950496732 
0 
-0.03382689892459437 
0 
-0.003764212976215825 
-0.04136783125154573 
0.02259910693100202 
0 
0 
0.007091928273441816 
0 
0 
0 
-0.01605356385802254 
0 
0 
0 
0.004997274450580664 
0 
-0.008706602510628891 
0 
0 
0 
0 
0 
-0.0006580101022001552 
0 
0 
0 
0 
0 
0 
0.002445768480043397 
0 
0 
0 
0.06917178944332462 
0 
0 
0 
-0.02809397286322554 
0 
0 
0 
0.05694162716665543 
-0.008847259761860668 
-0.02470795353451247 
0.07630317089257924 
-0.1271732916502462 
0 
0 
0 
0 
0 
-0.001555605003066937 
-0.0240252075258458 
0 
0 
0 
0 
0 
0 
-0.02390075896884399 
-0.1299890853787478 
0 
-0.003422314861115538 
0.04865836018183411 
0 
0.1169618717947792 
-0.005200365507624332 
-0.00594067128539365 
0 
0 
1.084202172485504e-19 
0.003662040804672685 
0 
0 
2.168404344971009e-19 
0 
0 
-0.01832048645431193 
0 
0 
0 
0 
0 
0 
0 
-0.3664528780221961 
0 
0 
0 
0 
-0.01759924250886001 
-0.05862165712700917 
0 
0 
0.01131692172623117 
0 
0 
0 
-0.003945676399449316 
0 
-0.08461259248505981 
0.04963080504583018 
-0.006878557040552079 
0 
-0.02634618470887631 
0 
-0.09065692650001511 
-0.01577718965948195 
-0.01746591187270176 
0 
0 
0.04827935189866815 
0 
0 
-0.01874029211412448 
-0.04057329273969792 
0.002151878722401415 
-0.08331815347866001 
-0.03351704859436504 
0 
0 
-0.4980164627983767 
-0.001124481009588363 
0.0528708800455786 
-0.07067574263055891 
-0.01618143948192165 
-0.01430706294989468 
0 
-0.04885338093553163 
0 
0.01654864425879862 
0 
0 
0 
-0.003128033038721566 
0.03393009403993396 
0 
0 
0 
0 
-0.006842355285681287 
0.001456395818986188 
0 
0 
0 
0 
0 
-0.01646076605680964 
-0.006107771597870224 
-0.02609076787862035 
0 
0.001586985282845561 
0 
-0.008969087390658995 
0 
0 
0 
0 
0.008153364981208512 
0.0004594075578361858 
-0.006376795305529967 
0.03746663959533874 
0.1342848330390466 
0.05747664652438805 
0.02035040763341546 
0 
-0.02139860093799826 
0.03579526547503493 
0 
0 
-0.07992657540802085 
0 
0 
0 
0 
-0.008494974747216017 
-0.01396731314801798 
-0.1594486969170664 
-0.00755706458246236 
-0.1053337666003187 
-0.02587727140872313 
0 
-0.1053337666003187 
0 
-0.01393909289213065 
0 
-0.01048035001408925 
0 
0 
-0.1966645279801926 
0 
0 
0 
0 
0 
0 
-0.05193758944351926 
-0.002172858698389809 
0 
0 
0 
0 
0 
0 
0 
0 
0 
-0.008382676663312688 
0 
-0.01373613490111474 
0 
-0.004085365801784158 
-0.005842801074241536 
0 
-0.08335566363257076 
0 
0.08091813889401153 
2.168404344971009e-19 
0 
0 
0 
-0.01229851629153897 
0 
0 
0 
0 
-0.04856867038077703 
0 
0 
-0.02270192157839333 
0 
-0.029194315656786 
0.06290669687648653 
0.000163826064890496 
0 
0 
0 
-0.001597312230943346 
0 
0 
0 
0 
0.0884641028202503 
0 
0 
0 
-0.0181082838423085 
-0.04357131864814352 
-0.1000164695999238 
-0.03265732381229425 
0 
-0.01789769715534025 
0 
0 
0.01856428327896068 
0 
0 
-0.0001922388955619162 
0 
0 
-0.0303807083627789 
-0.04754765363905886 
0 
0 
0 
-0.01568384254013324 
0 
-0.6268046078797319 
0 
0 
0 
0 
-0.006021428591870286 
0.009782054458911371 
0 
0 
-0.003682127916054776 
0 
-0.008560907672877677 
-0.1415803384079385 
-0.008396462629742533 
0 
0 
0 
0 
0 
0 
0 
0.4220886676959572 
0 
-0.00335897494704704 
-0.0009394446446139804 
-0.1042812980387154 
0.03638153532300355 
0 
-0.005361808204798996 
0 
-0.04126624586353762 
-0.007703364129471946 
0 
-0.03273507151181066 
0.02842070997378766 
0.02473620221172599 
0 
-0.0186092619297631 
0 
0 
-0.004243300324560808 
0.01816159140659682 
0 
0 
0 
0 
0 
0 
-0.03354581493555121 
0 
0.008341433751121402 
0 
0 
0 
0 
0 
0 
-0.005515230393435547 
0 
0 
0 
0 
0 
-0.007498585330208924 
0 
-0.008505319082203708 
0 
-0.1079286662637541 
0.02930658331201511 
0.1961180920677935 
0 
-0.01412999565252033 
-0.3239332544848649 
-0.03005731402564841 
0.02733323341973361 
0 
0 
0 
0 
0 
0 
-0.004866734192915926 
0 
0 
0 
-0.006705097235012565 
0.2020139016377876 
0.01464825996145399 
0 
-0.08695698408190651 
0 
0 
0 
-0.005490280258323918 
0 
0 
-0.002227959614177451 
0 
0 
0 
-0.01298431722051777 
-0.4833546645240124 
-0.002321286557609284 
0.02001534112732044 
0 
0 
0 
-2.168404344971009e-18 
0 
0 
0 
0 
0 
0.07459372274425173 
-0.002126902535456171 
0.05135891001843584 
0 
0 
-0.005058022423505281 
0 
0 
0 
0.004775841426373894 
0 
-0.2092077768223493 
0.02512479436368795 
-0.02561759963861409 
-0.03468963974130108 
0.02533896646631693 
-0.0749939169964863 
-0.00166774472773473 
-0.01179181716720108 
-0.01260080628589772 
-1.084202172485504e-19 
0 
0 
0 
0.01310372740897009 
0 
0 
0 
0 
0 
-0.03983719159616853 
0 
0.1682672767362106 
0.08381961894576129 
-4.336808689942018e-19 
-0.01269722987365204 
0 
-0.01971426656803732 
-0.0008198811263310392 
0 
0.008843416064014693 
0 
0 
0 
0 
0 
0 
0 
-0.01815297916526113 
0 
0 
0 
0 
-0.003626436658945087 
0 
-0.03562735120689019 
-0.0007916962677728671 
0 
0 
0 
-0.02897153849712059 
-0.02064579399423117 
0.02746402224067896 
0 
0 
0.067898400475097 
0 
0 
0 
0 
0 
-0.02726003475374172 
0 
0 
0.004140370539192568 
0.01086854921632652 
0 
0.1125492794931185 
-0.01671058282334262 
0.03204615756272945 
-0.0006151209084328289 
0 
0 
0.06551156481279871 
-0.02276645731079477 
0 
0 
0 
0 
0 
0 
0 
0 
0.02417674194889053 
0 
0 
-0.001699626808118393 
0 
-0.03108182387714226 
0 
-4.87890977618477e-19 
0 
0 
0 
0 
0.0005610249626355986 
0.04822676944915578 
-0.009538329169814534 
0 
0 
0 
0 
0.002994738325406519 
0 
-0.2828386409223729 
0 
0 
-0.03118514345888867 
0 
0 
0 
0 
0 
0 
0.002816374218729449 
0.04842764325694407 
-0.08049488020005721 
0 
0.104691703252828 
-0.02133488259065979 
0 
-0.07985394474778194 
-0.02055203855199679 
0 
0.001278962783051516 
0 
0.003517789600011647 
0 
0 
0 
0 
-0.1008492106134583 
0 
-0.007192685569473016 
0 
0 
0 
0 
0.1224064101310945 
-0.005012489674834535 
0 
-0.2718294127329581 
0 
0 
0 
0 
0 
0 
0.02386534985849514 
0 
0 
0 
-0.06999561883048061 
0 
-0.007648148606953038 
0.01976585893579542 
-0.03742171307353681 
0 
-0.03177410374084964 
0 
0 
0 
0.08481922180122797 
0 
0 
-0.133148714030795 
0 
0 
0 
0 
0 
-0.003566059319312474 
0.1024257029144811 
0.03433027374384786 
0.0004281037645595226 
0 
-0.01186205520605058 
0 
0.08056661435404341 
0 
0 
0 
0 
-0.01609239277351527 
0 
-0.01390558729456937 
0 
0 
0.2292781046256147 
0 
0 
0 
0 
0 
0 
0 
0 
-0.01437250082446356 
0 
0.001797742289779175 
0 
-0.007914663735882819 
0.07672310802810432 
-0.002981454767384402 
-0.001953799807005105 
0 
0 
0 
-0.02116711667813915 
0 
0.02405816987005456 
0 
0 
0.003164357093741034 
-0.01992500447819116 
0 
-0.01166255395009218 
0 
0 
0 
0 
0 
0 
0 
0 
0 
0 
0 
0.01889195507835355 
-0.09932474456962591 
0 
0 
0 
0 
-0.001330449432179641 
0 
0 
0 
0 
0 
0 
0 
0 
0.02044583592181605 
-0.03022951856449722 
0 
0 
0 
-0.006335851780093421 
-0.09201712643616219 
0 
0 
0 
0 
1.084202172485504e-19 
0 
0 
-0.02874821198230476 
-0.002696558331180187 
0 
0 
0 
5.963111948670274e-19 
0 
0 
0 
-0.03430582285682986 
0.09959877469902582 
-0.006529815044178956 
-3.115832919419741e-05 
0 
0 
0 
0 
4.336808689942018e-19 
0 
0.03632773465917771 
-4.336808689942018e-19 
-0.01030666101414182 
0 
0 
0 
0 
0 
0 
0 
-0.06389171446835176 
-0.01563379558668397 
0 
-0.0683843042468457 
0.02739978676720634 
0 
-0.01754642733910495 
0.02234962276688431 
0 
-0.08959158867666527 
-0.02459308050609436 
0.0587823633651464 
-5.421010862427522e-20 
0 
0 
-2.168404344971009e-19 
0 
0 
0 
-0.01261417605405262 
0 
0 
-0.03450703216763212 
0.01691114766338228 
0 
0 
0 
0.09400753576232666 
0.003963060784723802 
0 
0 
0 
0.02075050097599955 
0 
-0.0007429841224847147 
0 
-0.00408569193941351 
0 
0 
0 
0 
0 
-0.03939694590310824 
0.003629278848117018 
-0.006197401397751592 
0 
0 
-0.005119711180825502 
-0.004693682371023066 
0 
0 
0 
0 
-0.001728574622199939 
0 
-0.007782395253065042 
0 
0 
0 
0 
-0.06192295388674299 
-0.037038797897661 
0.008475664562270366 
0 
-0.001491935007322711 
0.002713078495355187 
0 
-0.003366047854029628 
0 
0 
3.981054852095212e-20 
-0.01191150204274202 
0 
0 
0.04192969873182646 
0 
-0.003087787520645857 
0 
-0.07715097239211154 
0 
-0.009889475125972925 
0 
0 
0 
0 
0 
-0.0004690350510540112 
0 
0 
0 
0 
0 
-0.1406389093606185 
0 
0 
0.1051919228467881 
0 
-0.02186552183241379 
0 
-0.005185533627939941 
-0.006360535087550833 
-0.03074202392447391 
0 
-0.5076027419436498 
0 
0 
0 
-0.008338727155935016 
-0.007151055559464454 
-2.207575816039763e-05 
0 
0 
0 
0 
0 
0 
0 
0 
0 
0.05868567741940439 
0 
0 
0 
0.0006321869264044579 
0 
-0.006276046410976724 
-4.644379438305017e-05 
-0.011804670026761 
0.2118745937031177 
0 
0 
-0.03271281134082898 
0 
0 
-0.02208938792269416 
0 
0 
0.04152105699150162 
-0.008407618098243806 
0 
0 
-0.03481614952229947 
-0.09904375504322649 
-0.02934386760125469 
0 
-0.01185097725027939 
0 
-0.06464657254740382 
0 
-0.003781721170009488 
0 
0 
0 
0 
-0.09569797723056672 
0.05465254371925721 
0 
0 
-0.04974508070049158 
0 
0 
0 
0 
0 
0 
-0.246837186237343 
0 
0 
0.02948856733370824 
0.6688372147290035 
0 
-0.1212448344738602 
-0.2360083856956711 
0.00472539977392457 
-0.27130387618944 
-0.02563435856472531 
0 
0 
0 
0 
-0.1377494321578294 
-0.02429073776044855 
0 
0.02377860343253023 
0 
-0.02272515144839064 
0 
0 
0 
0.04498454366915383 
-0.004602156044998031 
0.03564395476487773 
-0.2101455854046138 
0.02929118293796951 
0 
0 
0 
0 
0 
0.005640115235187363 
-0.02056966438666343 
0 
0 
0 
0 
0.0003303473569998154 
0 
0 
0 
-0.0006216248298850593 
0 
0 
0 
0 
0 
0 
0 
0 
0 
0 
0 
-0.1768276532890545 
0 
0 
0 
-0.0118780275202347 
-0.03271308152609739 
-0.00265120089328581 
0.00232162032764717 
0 
0 
0 
-0.01201109752131946 
-0.02322059641141041 
0.008183809587239419 
0 
0 
0 
0 
-0.1715548794551725 
0 
0 
0.01773618625863992 
0 
0 
0 
-0.03276258655641382 
0.01961256859191896 
0 
-0.005129506298132715 
-0.0008864625488637389 
0 
-0.1487710790441335 
0 
-0.6369827785274623 
-5.421010862427522e-20 
0 
0 
-0.002793718910816877 
0 
-0.003250132838305633 
-0.0406615485920618 
0 
0 
-0.004605421469995794 
0.06326359715296404 
0.02327382728690124 
0 
-0.005134947342659377 
0 
0 
0 
-0.07448497836405586 
0 
0.02320572825733364 
0 
-0.06684737513786035 
-0.05468452876463393 
0 
-0.02095047544411363 
0 
0 
0.004288968687388793 
0 
-0.02397786816429326 
0 
0 
0 
0 
0 
0.1486382952289312 
-0.01296634841231128 
0 
0 
0 
0 
0 
0.02580389619107671 
-0.05074973083835609 
2.168404344971009e-18 
0 
0 
-0.03000918231487911 
-0.02578214323353927 
0.1827980763329226 
-0.003112188931374039 
-0.001819912876704638 
0 
0 
0 
0.06195670321387084 
-0.02274425877980014 
0 
0 
0 
0 
0 
0 
-0.1059706932587809 
0 
0 
-0.002140564299347791 
0 
0.01662571202893178 
-4.336808689942018e-19 
0 
0 
-0.05086269635129056 
-0.003113650518250128 
0 
0 
-0.03974334864465767 
0 
-0.0001075482540462696 
-0.001902955423900099 
0 
0 
0 
-0.002200358904341954 
-0.006782654582824951 
-0.02623142494302492 
0.005586260220044783 
-0.04014285975734899 
0 
-0.001228163994561955 
-0.09402596303584777 
0 
0 
0 
0 
0 
-0.002894854711038792 
-0.04934519476440615 
0 
0 
-0.1112683124014918 
0 
0 
0 
0 
-0.01214587259375341 
0.04866630952702246 
0 
0 
0 
-0.002348611027275315 
0 
0 
0 
-0.1086184321763074 
-0.164650026258244 
