solver_type L2R_L2LOSS_SVC_DUAL
nr_class 2
label 0 1
nr_feature 5000
bias -1
w
-0.1530233582851919 
-0.07142166874488423 
-0.1503830896275731 
-0.1604122762754503 
-0.01572542496059874 
-0.07088452869673596 
-0.02781202575374137 
0 
-0.02265954963436986 
-0.0808196655894296 
-0.1543953963596673 
-0.05737549981190618 
-0.03817411785125846 
-0.07015493751074661 
-0.01312876998856936 
-0.05906036782105636 
-0.004276783137804877 
0.1120367694748911 
0 
-0.2055484864564809 
0.1661394513031313 
-0.04748046932473247 
-0.006664540643012349 
-0.001163481589379522 
0 
-0.05433337873894854 
-0.4649046807764676 
-0.05332646685467531 
0 
-0.06547286087813602 
-0.01867398141213613 
0 
0.882082649249339 
-0.1341343440236021 
-0.1552864467820302 
0.1251291173163863 
-0.00134556999377816 
0.5253203335321255 
-0.002163236552114541 
-0.03878178510214401 
0 
0.01581202736804393 
-0.08879293686416899 
-0.01117997095002545 
-0.5248065797905769 
-0.02181742035512227 
0.003678527786323155 
0.180972355024845 
-0.05117920827269972 
0.1532128007000004 
-0.1100686057003725 
0 
-0.07221486512347963 
-0.07593239821562002 
0.484156213903714 
0.02306813986590588 
0.05458028267131167 
-0.05242913035564589 
0 
-0.1291664508820902 
0.03576193982816938 
-0.134147198977222 
-0.0150247360641788 
0 
-0.1327478617243077 
0.07233585159602833 
-0.148424206635392 
0.01431027910163949 
0.03154103148766839 
-0.06591256692655037 
-0.07349995471261396 
0.2581900066174662 
-0.0003347871830821088 
0.2769172606237317 
-0.1362487829172219 
0.1225373283529626 
-0.09179382509826135 
0.0122594998769452 
-0.1749530520635867 
0.001181086936392386 
-0.1082337631042257 
-0.01974165519074603 
-0.006098486626545339 
0.08782554266546934 
-0.09562912351265368 
-0.2353506580973863 
-0.06809915317396845 
0.005045358815748995 
-0.1506759039532371 
-0.1077333151149906 
-0.00661049207351979 
-0.1320686626831244 
-0.005947280988104946 
0.3528327829384273 
-0.1311127001675003 
-0.01331040153583717 
-0.1303499602288213 
0.4130758222057936 
1.084202172485504e-19 
0.3944103180746341 
0 
-0.01647306430740865 
-0.07443866470597718 
-0.001188436474748058 
-0.2033126258996237 
-0.003617134905765965 
-0.06117606834770471 
-0.01732965559163512 
0 
-0.244415431265772 
0.01219007773841944 
0 
-0.005306252154053547 
0 
0.04048639449714288 
-0.1123121580268804 
-0.1945202267449101 
-0.06106169756201962 
-0.2380969916009109 
-0.1473325125031601 
-0.09682487132498883 
0.07315621810921644 
-0.003502946381069585 
-0.06350191186304763 
0.02691441214378622 
0.007778981111765278 
0.07574162020117575 
-0.1857079949356866 
0 
-0.00514378092928938 
0.03312030355448709 
-0.001194022675052995 
0 
-0.08224759802761338 
-0.08958978295483304 
0.1366392730162717 
0.01311882703866636 
-0.01279581505126837 
-0.119622699888501 
0.04444126622385421 
0 
0.007559047787477685 
0.001792176160565423 
-0.01061101239321987 
-0.2015869204037211 
0.03241248266692407 
-0.04678266998254674 
0.02049960222442096 
-0.02297061744917027 
0 
-0.3104771181114694 
-0.002052801391522868 
-0.3855265418977208 
0 
-0.002430880509441195 
-0.0132308059471501 
0 
0.1125490528763588 
-0.09302495924406116 
0 
-0.5232593719432995 
0.4442144145031738 
-0.04887641779830157 
0.005701466856342071 
0 
0.04211614242561489 
-0.006292491540562963 
0 
0.08811731452142986 
-0.06824202341881157 
-0.03146146157532011 
-0.05311857961804639 
0.1000952966747002 
0.1434304858474385 
0.02596409324691826 
-0.01316985956527554 
-0.03814541804664576 
0.01892223441905454 
0.0269086412598089 
0 
0 
-0.0303597881920028 
-0.01461464458106142 
0 
0.221116343132426 
-0.04937489034841518 
-0.2787498138026405 
-0.0150349322101732 
-0.1020490963153572 
0.2134794463426518 
0.3391569405212699 
0.4768020629490371 
-0.004532625777541813 
0.002975998167241189 
-0.01436414093087672 
-0.08294322962019386 
0.1763808169444314 
0.8723552181966467 
-0.1206701300380462 
-0.001642227321116019 
0.01088459766619984 
-0.1185239759712261 
0.01479404041635965 
-0.03043603679028341 
0 
-0.02264336617071866 
-2.168404344971009e-19 
-0.1122311534049638 
0 
0.08043378133103672 
-0.1379302194435898 
-0.001594775283785039 
-0.002627118909060649 
-0.03300871198221827 
0.05414998806528246 
0 
-0.1036401708062684 
0 
-0.002838800449307073 
-0.1232145376064898 
-0.0296872044363024 
0.01958850220359211 
0.1447834224717746 
0.02349980198736522 
0 
-0.7952171089656587 
0.1763290618985324 
-0.02860538010644275 
0.08943139087278604 
-0.07724146922458851 
0 
-0.002384850628520455 
0.05121319751420184 
0.2487807179238463 
-0.002522071299329281 
-0.02564607961548826 
-0.09375705882924483 
0.3577342549229539 
-0.07370751619995988 
-0.04369753504547869 
-0.01724483731879145 
0.0007992551520144291 
0.04798259880176847 
0.2112011788184066 
-0.04154369534402601 
-0.4516796668854426 
-0.01360847873379996 
0.05766809788126315 
0.02328203876441376 
0.1492274371716355 
0.2243275551969069 
0 
0.09681775512529775 
-0.002360489353712712 
0.03867910578942778 
-0.01198516797915412 
-0.008989504494819243 
0.1679446033158829 
-0.2564939680945395 
-0.005505132288501902 
0 
0 
-0.004340607685841508 
0.09305437432340095 
-0.002198595173040191 
-0.005684559970417141 
0 
-0.01855311371786017 
-0.08684212319995087 
0 
0.1031206208099724 
0.01357057886542351 
0 
0 
5.421010862427522e-20 
0 
0.01817542746391949 
0.2552451848586392 
-0.05664083355095331 
0.00467265933260835 
-0.1778493276213929 
-0.01140480402893149 
0 
-0.9396887622358732 
0 
0.8518432271443975 
-0.01861814241073263 
-0.03172230824531976 
0 
0 
-0.03967341998915841 
-0.04279114593793584 
0 
-0.2223546457075816 
0 
-0.00660628657882049 
0.003215350745339896 
0 
-0.01394954190481999 
-0.06743061803257404 
0.01711709473422374 
0.1619617944177079 
0 
0.01556316475431203 
0 
-0.033572086393922 
0 
-0.002510725627042737 
0.01039420181596019 
-0.0400787444351206 
0 
0.1109782191036089 
0 
-0.07355501776044054 
-0.008444518182192214 
0 
0.008431794283143629 
-0.0187471585146968 
-0.1622510335976066 
0.02906579412284368 
-0.08200844618371478 
0 
0.08986963609104638 
0.0421922371685821 
-0.01973350500671282 
0.7549498563584025 
-0.002253777371305664 
0.3408469114729456 
0 
-0.005639600689515962 
-0.0005675698294957194 
0.02168289188732575 
0.08643100103976872 
0 
-0.0009494957921757094 
-0.01328646703455932 
0.2332272855071816 
0.0270746991121357 
0 
-0.3996892829915226 
0 
-0.009063072774002067 
0.1676867838247641 
-0.4869706108638628 
-0.03269618330718189 
-0.1876290609033362 
-0.01677102628511518 
0.01169479894614752 
0 
-0.2195964035696789 
-0.05370561856770769 
0 
-0.1007791703454146 
-0.005724991178810012 
-0.01939439614407384 
-0.004171373815969492 
-0.06268507772610067 
0.08201659903491965 
0 
0.0246030812687836 
0 
0 
-0.01407851600605915 
0 
0 
-0.1426645818997064 
0 
-0.06286916225286407 
0.008986861560499096 
0 
-0.1759451943741319 
0.09855680795539919 
0.3031414018157578 
0 
0.0462555221546511 
-0.0006773770112071205 
0.03043016715293387 
0.03490726194811535 
0 
0.01378797923667131 
0.01690332036402292 
0.2827306322760468 
-0.03039371998771763 
0 
0 
-0.003502323960790437 
-0.1275154419352457 
-0.01361359091279427 
0.01691422255738189 
-0.01359062868895772 
0.01808879949232443 
0 
-0.007124399992309388 
0.151901263936333 
0.5529698048831757 
0.1326174391375228 
0 
0 
-0.08084937064787458 
0.000544048541665035 
0.1435720831875447 
0.4961977788148766 
0.07605942956470194 
0.03214774739619362 
0.01538217515163696 
-0.03643771935908708 
-0.006652492440399475 
-0.1341086092758217 
-0.1981964437440036 
0 
0.02077992924468986 
-0.0005250945970468603 
0.01823210933717195 
0 
-0.321760352551207 
0.1411299126518859 
-0.03316356713156976 
0 
-0.04164082489660949 
-0.01787794401398805 
0.03705626202348619 
0.09988717888245313 
0 
-0.09224432349045285 
0.4624321171182142 
-0.007888871274493527 
-0.324529029164547 
-0.01594252718479666 
0.01210516219000142 
0.1387634588511116 
0.01326502027958574 
-0.1646945616762373 
0.4669877024925769 
0.1507210067410724 
0.00804953177883741 
-0.001564298819598863 
-0.002984799933242935 
-0.004218093497668431 
0 
-0.2614519637772559 
0.01704934668434235 
0.06634833854298698 
-0.005428212685869477 
-0.02398354900680587 
-0.003195350799906366 
-0.4415197530039574 
0.06365126543360998 
0 
0.217066474740363 
0 
-0.0925466859336708 
0.02771686811388603 
0 
0.02830319019611826 
-2.010117812006204 
-0.1104497447869995 
-0.09088153529387308 
0.01721638654423267 
-0.07188103829499615 
0.2493120174719686 
0 
-0.07841063982954945 
-0.03716726233303946 
0.1492469454696007 
-0.02297604887319514 
0 
0 
-0.03956014117074668 
0.224508322986889 
0 
-0.01245166478837386 
0 
0 
0.003757347551379247 
-0.03115220816519344 
-0.03910895491604803 
-0.0004533226386283717 
0.3397334555616908 
0.01651300816980794 
0.001238842944300515 
0 
0 
-0.01290939773289157 
-0.0405756783166572 
-0.001717297657730336 
0.003713681788418702 
0 
2.710505431213761e-20 
0 
0.1499096591296526 
0.4685835035270701 
-0.263879613473947 
-1.355252715606881e-20 
-0.008431196321139114 
0.01518188358246743 
0.1001317159284989 
-0.02890534191560152 
-0.01631511092363279 
0 
-0.0009990758980112386 
0.1486354760704592 
0 
-0.0006326351495970784 
0.1254587273778561 
0.0583220524171924 
0 
0.1339145109699915 
-0.003102514914152348 
-0.0521406038360552 
0 
-0.0281688400413405 
-0.002610614129713293 
0 
-0.2124898502410405 
0.02300998321285209 
0.1118285655799333 
-0.002842028743122029 
-0.03061593014667738 
0.1125553797538739 
-0.0178906440955119 
-0.002497179184855814 
0 
0 
-0.00323694027166389 
-0.004219492113680882 
0 
-0.001806793964044941 
-0.005982498676135846 
-0.01632795882480216 
0.089744805981092 
0 
0 
-0.0004466642384022046 
-0.0269802902018632 
0 
-0.0158125794262052 
0 
0.08599561506306033 
0 
-0.00521923966407879 
-0.001642878264780811 
0.2646803450724222 
-0.0358556420357079 
-0.008252440592989664 
0.001347972593354543 
0 
-0.03108439628458486 
0 
-0.3197703284354604 
0.01837811615087981 
0.1025712950602968 
0.1387232231803147 
-0.06597877223758737 
0 
-0.03436420507757704 
0 
0.3575982149574825 
0.2247586234888344 
-0.03894714226948812 
0.3994987332454892 
0 
0 
0 
-0.0366316077667843 
0.01087626525480398 
-0.02849257294469212 
0 
-0.02063909546783091 
0 
0 
0 
0 
0.02381643005212532 
0 
-0.02469712244481986 
0 
-0.6324797724960901 
0 
0.02363357205560659 
0 
-0.09715601105325677 
-0.3699851564164789 
0.1960086606298771 
0 
0 
0.2269146645009334 
-0.01746065148015358 
-0.03510797076331492 
0 
0.0378389963428412 
0 
0.01063161566974478 
0 
-0.5712348193269425 
0.02180787854496223 
-0.009094423308092492 
-0.08334738312138069 
0.007467524038211833 
0.0258364572343302 
0 
0 
-0.06378937286622158 
0.09662639186288911 
-0.006915595690638422 
0.0440321285542719 
0 
0.003571038045530743 
0 
0.0981648890162715 
0.02970503456779825 
0 
0.05494544707482404 
0 
0 
0 
-0.01298209140722914 
-0.04018461699346085 
-0.005491407757744232 
-0.03979406701672052 
-0.001889072937849783 
0.001367953766551148 
0 
0.02274003557175553 
-0.0448952060298065 
0 
0 
0.02886240484587978 
-0.005869288148989881 
0.2800858964694471 
0.02703616493951632 
-0.04048238164083932 
0.03783206744349128 
0 
0 
-0.1025637909379208 
0.002424003466927109 
-0.01965872063791803 
-0.04850025362776593 
0.25823935974454 
0.2113588860932598 
0.1717005736390483 
0 
0 
0.3135932642239419 
-0.003308243369037428 
0.3538348795615724 
0 
0.118260517825803 
0.159305043873054 
0 
0 
0.1346746844618912 
0 
0.01989118581677485 
0.008023878465248402 
-0.1677915657819505 
0 
0.06205641066238187 
0 
-0.07642074055716049 
-0.03340262912755183 
0.02569637683596819 
-0.08326797030294247 
-0.02205573031542044 
0.006225457621604673 
0 
0 
0 
-0.1099579127332302 
0 
0 
-0.03807342986713873 
0.03518589185675439 
0.02637208553355709 
0.1624787056304597 
0.1870540074572452 
-0.01355203115560968 
0.04771595662514042 
0.002468487462677125 
0.2003635036501526 
0 
0.05872330437433775 
-0.005553649401372668 
0.2026054045363752 
0 
-0.0004768909955848549 
0 
0 
-0.002781372348764663 
0 
-0.03547433541306028 
-0.02744765201749956 
-0.001466179708082648 
0.2823359923468091 
-0.012073720541396 
0 
0.008809953066289455 
0.0003451095217969554 
0 
0 
0 
0 
0.01369140301909538 
0 
0 
0 
0 
0.09892176742332603 
0 
0 
0.1785728252971966 
-0.03923449790951705 
0.170247557008799 
0.04426549066543462 
0.1560370786756244 
0 
0.07107616366488693 
0.2626623575848773 
-0.05039925026515162 
0.08304902328479155 
-0.009598942120210972 
0 
0.08473970963128456 
0 
0 
0 
0.2512599664068264 
0.1248039779179101 
0 
0 
-0.009728031970564873 
0.0008091581406137559 
0.04919514347101114 
0 
-0.02076504925172702 
0 
0 
0 
0 
-0.0676282135084232 
0.03937621319581832 
0 
0 
0.08965385743196826 
-0.02306965290041909 
-0.4037711224014667 
0 
0.1629094705819058 
-0.003030068313074766 
0.05959519401024221 
0.002614775746501368 
-0.005002390787549907 
0.004300999461646861 
0 
-0.01641769705733035 
-0.1015878226004456 
-0.1647529172215745 
0.002875337044186478 
-0.04569541773136741 
-0.01402727155191692 
0.04875347169008343 
0.02624649025588776 
0.1226679781194438 
-0.1218943333417172 
0 
0.002208211777813651 
0.09392477291952912 
-0.01134973561308822 
0 
-0.02402041808302294 
0 
0.0425677109953707 
-0.04782892501433094 
-0.001772297226266236 
-0.002241802039747566 
0 
-0.02507659922069953 
0 
-0.2005305567622563 
0 
-0.3224344723669492 
-0.01940581795697954 
3.469446951953614e-18 
-0.0421549429536804 
0.005067629010723713 
-0.001120263446430648 
0.1500820404820995 
0.006087502857322676 
0 
0 
0 
-0.008421248806775136 
0 
-0.02570366107352515 
0.2025782827582468 
0.1812126935167758 
0 
0.01147016071351157 
0.004859483943412088 
0.01696364715519917 
-0.1048432533162706 
0 
0 
0 
-0.02631875262667478 
-0.006942556947613363 
-0.0187530727283088 
-0.02374423153339616 
0 
0.05076783472446492 
0 
-0.1403976726182052 
0.8056135713492044 
0 
0 
0 
0.1962325850758895 
-0.08233252329759283 
-0.000572018382843117 
0.02615128907380159 
-0.003457797845309753 
0.1376381652287864 
0 
0 
0.09746528689054257 
-0.06582531086352536 
0 
-0.1300543286640806 
-0.00688561301637249 
0 
0 
-0.09108313779572953 
-0.001228167781073429 
0 
0.03207980705998914 
-0.03099353612046549 
0 
0.04723850746701565 
0.004010614925590655 
0.01345833342420899 
-0.005569068641254159 
-0.1136201544515941 
0 
0.009034910888375509 
0 
0.03073372731131145 
0 
-0.01116438087006407 
0.8337475875963998 
-0.2451566365995881 
0.07236692836099089 
0 
0 
0.001850819434222357 
0 
0.007876772968697324 
0.002541725314140509 
0.01947353212401579 
0 
-0.01694103623892515 
0.09524908415057416 
0 
0 
0 
0.172759891840452 
0 
0 
0.04915907264954292 
-0.009395105752675244 
0 
0.01517016562710654 
0 
-0.3119831055587088 
0.1677348820399563 
0 
0.1722644196728711 
0.2566578980840494 
-0.00128546199337037 
0.0237856380826619 
-0.00309455529968486 
0 
-0.03213072895160039 
-0.1821575793361518 
0 
0.00129657314424338 
-0.01828961419548084 
-0.03085153267195263 
0 
-0.02011156393624778 
-0.06897346394084043 
-0.02050317313608334 
0 
0 
-0.003258017501147928 
0.05621599942455876 
0.4688900436662269 
-0.01654592294054976 
0 
0 
0 
-1.761828530288945e-19 
-0.1419692826159175 
0.2284872738956925 
0.03632535738750811 
-0.3045767095330975 
-0.005231508070835485 
-0.1094275443146264 
-0.01298194509644961 
-0.06374839818860134 
0.03615020691798906 
-0.009438956545043238 
0 
0 
0 
0.00315585351336823 
-0.02286437370271582 
0.1341006482056755 
0 
0 
0.1543631179471901 
0 
-0.007908505418824929 
-0.00400608836390681 
-0.01091682072363508 
0.01349769116167147 
-0.2491409602504212 
-0.06706496082968953 
0 
-0.445397338033177 
-0.1357787343848406 
-0.02486560343677635 
0 
0.2263291576169624 
0.2911263747911913 
0 
-0.006676362602201078 
0.006031760722734463 
-0.1265476445072795 
0 
0 
0 
0.04358013692357692 
-0.04356801720353587 
0.01073943566007603 
0.1095206627977025 
0 
-0.04026267785603442 
-0.7006670442917979 
0.05376451944886918 
0.06707173830709945 
0.08262307555671915 
-0.0001062058863902199 
0 
0.001105308212728607 
0 
-0.006320095380317621 
0 
0 
0 
-0.4561718470179045 
-0.03666856059126937 
0 
0.2602792980811796 
0.01576746387631288 
0 
0.05161711145691493 
0 
0.0269277060108044 
0 
0 
0 
0 
0 
0.01024352396686725 
-0.1402876579217342 
0.07692275967830761 
0.08687756549612458 
0 
-0.01002875914034435 
-0.007041358765162034 
-0.004907352317357512 
0.05248374329892385 
0 
-0.03310752165196751 
0.03960059969115975 
-0.01978869924515254 
-0.006467535653761865 
0 
0 
0 
-0.02800463283311386 
0.06421021008139652 
0.1279110167697063 
-0.009889202611840201 
0 
0 
0 
0.01950589156211249 
-2.168404344971009e-19 
0.01636404142558967 
0 
0.155805430825899 
0.01686206096699137 
0.03068313228364856 
0 
0 
0.002864057865654638 
0 
-0.01346191463849274 
-0.03033446274339304 
0 
0.09675414234955255 
0.005384557195647674 
0 
0.005795348099772062 
0 
0.02913580109041434 
0.1661095509187547 
0 
0.01137345060088237 
0.07929143457874334 
0.00225694774874451 
0.2849458348990435 
0 
0.2659946616349509 
0.02354536598131736 
0.1597650199992446 
0.06969391015468047 
0.002641072370598051 
0 
-0.02744647625057363 
0 
0 
0 
0.01193724447359678 
0 
-0.01183056579768913 
-0.1372168371949282 
0 
-0.004828286339673349 
-0.0006803306450099032 
-0.0630360345665797 
-0.05364969197521099 
0.004436622124549806 
4.336808689942018e-19 
-0.2433779714793961 
0 
0.1504637613605986 
0.00596892445847935 
-0.0255786118919354 
-0.007577791702676136 
-0.003035893768971567 
0.04364803122853772 
0.08424436356545237 
0.1387422507140019 
0.3643496040125772 
0.07354582116098854 
0.8662302575881029 
0 
0.007245971712180274 
0 
-0.0136062889991396 
0.2081314881780518 
0 
0.03911208650742417 
-0.1536647481942294 
-0.04587807981721471 
0 
-0.02915242105001229 
0.001453792099081628 
0.005017200510056934 
0 
-0.003028375361602548 
0 
0.002151666995127858 
0.02528219447779264 
-0.02155295813982006 
0.09714869596939966 
0.3651099387716074 
-0.1076332884948746 
0 
-0.0108749482703749 
-0.04475771143710161 
0.02789773568849411 
-0.08505408220486697 
0 
-0.08042985166634863 
0 
0 
0 
-0.04891445677440505 
0 
-0.01594809904848533 
0 
0.1025514878468759 
-0.05206992090964085 
0.06987666644790763 
-0.005569777324419154 
-0.01080324882964777 
-0.002001068865310367 
0 
-0.006063066421668396 
0 
0 
0 
-0.03673801533202885 
-0.006212289599131294 
0 
-0.02352958639317343 
0 
0.003855390230868613 
0.09104369889462936 
0.01036235025084643 
0 
0.004791268088402487 
0 
0 
0 
0.264263195774676 
0.007312616002749859 
0.06448843116180861 
0.02115777796753509 
-0.05608905505078311 
0.3512610920556611 
0 
-0.004228472010094929 
0.05462551445847939 
-0.02196671411803688 
-0.07629929029719802 
0 
0 
0.07609529508901935 
0 
-0.03260760527244945 
0 
0 
0 
0.08978190827697854 
-0.000814034558938088 
0 
0.0119055064126531 
0 
0.06430776530247759 
-0.04571033942794154 
-0.0005979406792258899 
-0.07736672692140713 
-0.008103402974965729 
0 
0 
0 
0 
0.1222171328731932 
0.02086612994820089 
-0.2094533454579499 
0.09480503145996531 
-0.04180732805015792 
-0.1038197325491521 
0 
0.3549547212397422 
0 
0.05785250682091479 
-0.03211976046406333 
0.08120256630086072 
0.3727775193135009 
0.003252221372148118 
0 
0 
0.007130882534738387 
0 
0.2138830605645155 
0 
0 
0 
-0.08239122799315365 
0 
-0.1290305041290703 
0 
0.04824067996248048 
0.06493872395013917 
0 
0 
0 
-0.02027840237185233 
0.02174472665907934 
-0.1055002203102089 
0.03356349732360091 
0 
-0.1814857914912172 
-0.02342395858285065 
0 
0 
0.0687436781363478 
0.1858061042680391 
0.0202393696418892 
0.006105028345162512 
0.2544643904064871 
0 
-0.03077821005546694 
0 
0 
-0.003794435415741432 
0.1062289992713726 
0 
-0.005124016708485929 
-0.03763209222199716 
-0.1224915323261084 
0 
0.02250211842988929 
0 
-0.007762886929972842 
0.2408252938711736 
0 
-0.008641374603079607 
0 
-0.07428693015568273 
-0.005094391876742706 
0 
0 
0 
-0.01325198238758331 
0 
0 
-0.005814813607604598 
0 
-0.05502139828104392 
-0.1155944051012531 
0 
0 
0 
0.01975004208176352 
0.05707357931290632 
0.03111122600201409 
0.1190662526277081 
0 
0 
0.01603967303624275 
0.03137952197325154 
0.0338105277725097 
-0.1391726929832771 
0.0169114482391514 
-0.1295002846700788 
0 
0.04535315080342191 
-4.336808689942018e-19 
0.009843168185402115 
0 
0 
0 
0 
0 
0 
-0.02648628529921546 
0.4016037235689888 
-0.6701929114710758 
0 
0 
0.01061772796118813 
0 
0 
-0.1728924242959484 
0 
0 
-0.1121940773920486 
-0.001387306349976607 
0 
0 
0 
0 
0.05606009121634254 
0.5265558594342648 
-0.1688446641076926 
-0.2211622420396045 
0 
0 
-0.2825772608609175 
0 
0.2621765150751068 
0.01441291722594796 
0 
0.01741569259596686 
-0.09744623574718736 
-0.1590131911540206 
0 
0 
-0.08904750767619547 
0.01811150745717762 
-0.001278383446463668 
0 
-0.03956890386081807 
0 
0.001139816044405847 
-0.005975037065472997 
-0.007121215466681974 
0 
0.420196546208256 
0 
-0.2473208026549115 
0 
0.0705808783715357 
-0.01817742765267565 
0 
0 
0.002075027047513171 
0 
0.02416275046333212 
0 
0 
-0.008036155445690333 
0.03981501042975215 
0.03586532326145304 
-0.001707833988339329 
0 
0 
-0.06708016693618786 
-0.01330930517694856 
-0.003960135888890182 
0 
0 
-0.05512571638880926 
-0.1067234691648332 
0 
-0.005025124598212702 
0 
-0.1542398914312289 
-0.03550004573998693 
-0.02650878546701986 
0 
-0.02988416678756169 
0 
-0.04504787482006418 
-0.02372086130169715 
-0.007175350762196024 
0 
0 
0.06846973509968504 
0.03081881834581446 
0 
0 
0.4720893228830816 
0 
0.1967882588802811 
0.2101515036678177 
-0.007565132317061372 
-0.1075544532794107 
-0.01964049987854015 
0.09335996254517877 
-0.009080756159362538 
0 
-0.03222840471966994 
0.006458232495394324 
0.09979313955155818 
0.6941344120715792 
-0.3778556646817978 
0.1139348960373597 
0 
-0.08975128226730945 
0 
-0.008862651889240163 
0.07576373883697066 
-0.003754854690915682 
-0.05827578147436162 
0 
0 
0.08264564736897283 
0 
0.06538111188656517 
0 
0 
-0.005547699544545102 
0 
0.00709188000031487 
0 
-0.02030445046843256 
0.03128449861340259 
0.01363527358800088 
0.08368196834144799 
0 
2.168404344971009e-18 
4.336808689942018e-19 
-0.00740567203358094 
-0.006630612101572627 
0 
-0.0705837943393671 
-0.01365583750684842 
0 
0 
0.0005014386678086432 
0 
0.03331292070909774 
0.01735812824941044 
-0.4566085537927831 
-0.117796133582137 
0 
-0.03903096525746427 
-0.02116278258080551 
0 
0.004447967280764836 
-0.02202451380300608 
0.04064585532961726 
-0.01694719281841572 
-8.767509466823811e-05 
0.01187374660259639 
-0.1243242142144315 
0 
0.1507773406713975 
-0.177657472620965 
0 
-0.02482704102707022 
0.0785764573076641 
0.2629472290882167 
0.1090059996234024 
0.03171570137972372 
-0.02091478155002322 
0 
-0.0144485370260943 
0 
0.2205400972017345 
0.006657995042953063 
0.5137675511403533 
-0.2929855373699395 
0 
0 
0.02053345986130637 
0.01234602851192166 
0 
0.01929977701021617 
-0.005522872027737226 
0.04678040145354376 
-0.01434572383130828 
0 
0.1485446735077814 
-0.1067459696043883 
-0.004877638634176417 
-0.003535610231092395 
0 
0 
0.01325920098086556 
0 
0.07584026488577726 
0 
0.04248780623103526 
0 
-0.004464259919338729 
-0.1334502570494896 
0.01904798732932668 
0 
0 
0.1447742563912935 
-0.01010910978618383 
-0.002024653544552322 
0.002027326554304042 
0 
0.153644825470808 
0.05615750018795976 
0 
-0.1191365042637587 
0.2103927096025477 
-0.007585167419653972 
-0.03618536796975536 
0.4997416563009058 
0.03084455756933501 
0.006927682204453976 
0 
-0.09293806151599968 
0 
0.001291120205300812 
-0.0831881924250724 
0 
-0.4051036578865041 
0.07831813300011006 
-0.01950675553022613 
-0.0007834425595322642 
0 
-0.003465107151674881 
0 
0.2510597299458033 
0 
0.008709198875206159 
-0.0230995603387167 
0 
-0.000790560761249186 
-0.04445050816658549 
-0.03594207856190818 
-0.007002938981115411 
0.03728264651415687 
0 
0 
0 
0.04294855376230387 
-0.01735760824973637 
-0.004243022485281984 
0.02456753810425683 
0.02652429707366956 
0.006845353491557011 
0 
0 
0 
0 
0.1025706735988784 
-0.01593064194162572 
0 
0 
-0.01228919620798106 
0 
0 
0.1097549308471099 
0 
0.07693972449830658 
0.1395293375835221 
0 
0 
-0.0290153712722547 
0.160995290315681 
0 
0.003181883762047817 
0 
0 
0 
0 
0 
-0.03650761081831909 
0 
-0.004088797472502837 
0 
-0.1451154676578929 
0 
0 
0.04871430411372792 
0 
-0.07077891685400912 
0.003366856658730105 
0 
0.09719883398958164 
0.355909977649298 
0.02235066846700109 
0.002346713585454777 
0 
0 
0 
0.007632125349680583 
0.2062390399578695 
-0.01537750670258953 
0 
-0.1647627423601216 
0 
0 
0.1342211049833829 
0 
0 
0.07223891433359513 
8.673617379884035e-19 
-0.01667413485197364 
-0.002741865317646308 
0 
0.03339929718635228 
0 
0.01853649224890084 
0.007126423854052614 
0 
0.09932351370001388 
0 
0.4400605138766772 
0 
0 
0 
0 
0.001407556216586502 
0.1457941554646545 
0.01402544025541619 
-0.2416411387072503 
-0.01478839968171756 
0 
0 
0 
0.02052279240209246 
0.0300012364362848 
0 
0 
-0.01323942291223032 
-0.1285809640406714 
0.04810806347996659 
0.001844069182908428 
-0.001997699451313399 
0 
0.09648749231997568 
-0.02811119696869092 
0.04384566968729342 
-0.1199785695241917 
-0.02562962355597269 
0.007004601460949522 
0 
0 
-0.0212556096278522 
0 
-0.006689730727928073 
0.03122667982765579 
-0.6975705081045031 
0 
0 
0.1110896620264964 
0.3357329427748866 
0 
-0.2993623935665944 
0.01832100006795782 
0 
0.00275283757010175 
0 
0.05489626992520022 
0 
0 
0 
0 
0 
-0.04559508803067024 
-0.02166241546168765 
0.09540006385998367 
0.1056618341503427 
0 
0.09851413548612883 
0 
0 
0.09962961701604346 
0 
0 
0 
-0.02387943607231469 
0.006876646200872266 
0.1146953946593188 
0 
0.1461371009390526 
0.01380678369632204 
-0.008744781642096383 
0.0362161973203915 
0 
0.01796477958617762 
-0.02447149815553374 
0 
0.1356694205255754 
-0.02128822792722368 
0 
-0.007333625583569349 
0 
0.08318952244609958 
-0.04931822388682476 
-0.2922179514854343 
0 
-0.04590848942427515 
0 
-0.05233487535236398 
0 
0 
0 
0.09160919356117538 
-0.004929324771854083 
-0.01665371283314746 
0 
-0.01680077468696409 
0 
0 
0 
0 
-0.007395793327545287 
0.03747414070959655 
0.02082835297126042 
0 
-0.05174085920042912 
0.007125355236790012 
0.001951351879547706 
-0.01816724473179199 
0 
0.009497777913042972 
0.02758848919361378 
0 
-0.006952543911638965 
0.08333577806679726 
-0.1273013208246495 
0 
0 
0 
-0.05198379588529137 
0.003229831067207184 
0.0478158472187817 
-0.02304845160852878 
-1.219727444046192e-19 
-0.03442441148128498 
0 
0 
0.001647890416153095 
0 
-0.008730679218882081 
0 
-0.02969823342450049 
0.1741969918745065 
0 
0 
0 
0.2286863761385315 
0 
0.03132466586432223 
-0.0349456275430845 
0 
0 
0 
0 
0.02501951921192234 
0.02342180657600134 
-0.02047075518876763 
0 
0 
-0.0006974192016824292 
0 
0 
-0.02821732825402156 
0 
0 
0 
0 
0.01651954705555317 
0 
0 
0.03114320014160839 
0 
0 
0 
-0.2217317449013228 
0.05378688537214295 
0 
0 
1.309055650204368 
0.1910393101425248 
0 
-0.00273387573861515 
-1.166874675734462 
-0.05002487649720676 
0.05131390856082869 
0 
0 
0 
-0.01402797715060743 
0.009445978672005473 
0.03013358148071146 
0 
0 
-0.1498166435452543 
-0.0434275937957427 
0 
-0.02411887141996542 
-0.6716629849403569 
0.04000843788117134 
-0.0684114928237461 
0.009571131540613809 
-0.004267844823815309 
0 
0.1423640035400758 
0.04295723559784526 
0 
0 
-0.01160607388014276 
-0.1897669262890156 
0 
0 
-0.008999332461675627 
-0.03699508906444047 
0 
0 
0 
0 
0 
-0.01216185829382455 
-0.007866811440749254 
-0.005605287145240283 
0.2357126348591288 
0.09118885228195278 
-0.0402118803951645 
-0.02471169927715802 
0.01391733781731831 
0.2847302646951439 
0.01596225498436303 
-0.00458066272425665 
0.2015300281722326 
0 
-0.082628929757387 
-0.002135397091568773 
-0.1152296203788088 
0.03722753320772901 
-0.01231185325490669 
0 
0.1421846204086162 
0 
-0.104905158246629 
0 
-0.05360351455776153 
-0.0919536420236475 
0.0006874270616142563 
0 
-0.01469683944331022 
0.227049470737594 
0 
0 
0.1249004084315185 
0.0148236103875124 
0 
-0.01258359905761428 
0.07532734009797208 
0 
0 
0.008453190666823363 
0 
0 
0.09017274187502729 
0.0533479047586697 
0 
0 
0 
-0.6727204206520314 
0.07925255504593964 
0.01814515213285755 
0 
0 
0 
0.006634593899477586 
0 
0.0564179392882037 
-0.07491782848034696 
0 
0 
0 
0.06381736590315507 
0.05843913538009265 
0 
-0.008156826937200793 
0.279132464319179 
0 
0 
0.007900699021706578 
0 
0 
0.02449942709518727 
0 
-0.003690984603286159 
-0.0007168234487971235 
-0.0007607993288139198 
0 
0.09766355500165495 
-0.08626007034226836 
0 
0 
0 
0 
-0.008454091747124047 
0 
0 
0 
0 
0 
-0.04362637649881788 
-0.03033081625532005 
0 
0.03432247917148883 
-0.3810476192951677 
0 
0.6756380163359802 
0.03877333743602764 
-0.07088859085299096 
0.05724798167704635 
0 
0.01508850841926683 
-0.004127618938948373 
0 
0.009096227686153775 
0.006706417757350208 
0 
0.03729695744942117 
0 
0 
0 
0 
7.31578905310833e-05 
0 
0 
0 
-0.02095918439719447 
-0.005073482697802937 
-0.009151912552760702 
0.01411818989753576 
0.05418595362460172 
0.3230053643650213 
0 
0.02856583336903282 
0.08822713203577934 
0 
0.101490329618083 
0 
0 
0 
0.02845798490814128 
0 
0 
0 
0.493672081089373 
-0.07531426299886652 
0.003931062686096252 
0.02876619748630011 
0 
0 
-0.4785579723294563 
-0.002825093723051122 
0.01840201717178027 
0.06612576761702627 
-0.0003887522232871644 
0 
0.09024333472669116 
0 
-0.0581668430227576 
-0.0455575661330441 
0 
6.505213034913027e-19 
0.09068196911924278 
0 
0 
0 
0 
0.02329406155748428 
-0.008425777493733322 
0 
0 
0 
0 
0 
0 
0 
0 
0 
0.03894922369276067 
-0.02924585150441842 
-0.6584287883053647 
-0.02771781729488134 
0 
-0.09751370366020735 
0 
-0.093698015939102 
-0.1090721124800466 
0.06180707554557629 
0 
0 
0 
0 
0 
0.02269230611594869 
0 
0.06159947767312993 
0 
0.4112542411788178 
0 
0 
-0.005439540484361208 
0.1250715257099435 
0.1730343859458315 
0.005756362959913557 
-0.1662322105453407 
-0.03535144864993799 
0 
0.03428603459039678 
-0.002904021063469443 
-0.1347334140040558 
0 
0.00338962610214503 
0 
0.02708809986044853 
0.03110306449611936 
0 
0.0134478200050201 
0 
-0.08775646508828826 
0.103808288389671 
0 
-0.4019646619106401 
0.02743537072371334 
0 
-0.01393186552054079 
0 
0.03715649233717355 
0.1356528749136319 
0 
0 
0 
0 
0.001600912299763686 
-0.01207295893451066 
0.03062373856076881 
0 
-0.2584331070852147 
-0.0159732879295903 
0 
0 
0 
0.04887426970626611 
0.0002810792508386924 
0 
-0.09772227130524674 
0.08712185564236065 
0.009425390612301396 
0.02542181240913003 
0.0723568471889966 
0.02572242709070344 
0 
0.007833616024522011 
0.0766963168700262 
0.01735293843837524 
0.004335489720685501 
0.1183041900712023 
0 
0 
0 
0 
-0.6521318372198261 
-0.4045458533652686 
-0.02405051204123105 
0.02562901742392264 
0 
0 
0 
0 
-0.008597584217238339 
0 
0 
-0.003792583709826986 
-0.1177517420627329 
0 
0.000400709572151813 
0.003921041085516183 
0 
0.01618440010585365 
-0.027510372868947 
0 
0 
0 
0 
0.03177948806976668 
0.2545940879770383 
0.006617015570326804 
0 
0 
-0.05671345546167523 
0 
0 
0 
0.1550014775649872 
0 
-0.1162110694659819 
0.00491826160673506 
-0.08816074752582377 
0.03584345364247132 
0 
0 
0.06626063512303311 
0.02924926104377862 
0.09200965407438021 
0.02738425766743665 
0.0136077997757383 
0.005480317995400928 
0 
0 
-0.001724349043944956 
0 
0 
0.4453121367238569 
0.01371014617728418 
0 
0.1804541105245352 
-0.002472761582595903 
0 
0.07196852991446788 
0.02743718327686169 
0 
0 
0.1111946691700321 
-0.004577065318176966 
-0.150419452842352 
0.007434580320552098 
-0.02942934833878996 
-0.1962638812930873 
0.03401879285139672 
-0.02401332810795348 
-0.04360152760757839 
0 
-0.2375804681126515 
0.006351666101961639 
0.275983451972963 
-0.4618473975874909 
-0.03720466887682384 
-0.01137866663499013 
0 
-0.02815562224891438 
0 
-0.01401772826395496 
-0.09409087181314459 
0 
-0.07305852054946914 
-0.03348319527441499 
0 
0 
-0.08911525561254829 
0 
0 
0.0005814799217010015 
-0.05831521817148903 
0 
0 
0 
0.05591747969274776 
0.01739676925425309 
-0.001975283272921024 
-0.2949770408205788 
-0.005207674775399829 
0.009193954568850578 
0 
0.02467072355475567 
0 
0 
0 
0 
0 
-0.01535373681299766 
-0.00619658686360277 
-0.02901097021525033 
0.02358400672495854 
0 
0.02045585620625715 
0 
-0.04710207897014975 
0.00848864513193036 
-0.003658163218097388 
0 
0.160807965833992 
-0.04630531684297507 
0 
0 
-0.04428087062461657 
0 
0 
0 
-0.02077808955020251 
0.08429115255898112 
-0.002472357941798249 
0 
0.06965332139895301 
0 
0.1201834045796235 
0 
0 
0.05049846226287125 
0.1009533779372946 
0 
-0.01716283451989064 
0.1424640425072141 
0 
-0.04756099725728943 
0.007472060906940051 
0 
0.006153800950598891 
0.007113612657981024 
-0.01900275127659682 
0 
0 
0 
0.06643978152051185 
0.1124408067894016 
0 
-0.08775701502174536 
0 
0 
0 
-0.01539916065373581 
0 
0 
-0.01318119013722161 
0 
0 
0 
0.1601721482021984 
0.0336605325646232 
-0.1607579326595034 
0 
0.01436100781153554 
0.03058870305028246 
-0.09391612081613207 
-0.03541728243883924 
0.06642588380930262 
0 
0.02593083692643654 
0 
0.0496013658220941 
0.05662173413076096 
0.1843549073968823 
0 
-0.02450192778130481 
0 
0.03723948928004638 
0.2980325579425674 
-0.1731545361312798 
0 
0.01060171802972469 
-0.01651941794407069 
-0.1127159081312691 
0.06482139840178197 
0.009021003059805591 
-0.003264869640542904 
0.1041620238063437 
0.1893607782379205 
0 
0 
-0.0008302120629889776 
0 
0 
0 
0 
-0.02844672631270722 
0 
0 
0 
0 
0 
0.09375670424303036 
0 
0 
0 
0.06172261259877635 
0 
0.01981886740118948 
0 
0.00644637006148329 
0 
0 
0 
0 
0 
-0.01527362659149645 
0 
-0.04410048015348154 
0.06767483012839923 
0 
0 
0 
0 
0 
0 
0 
0 
6.505213034913027e-19 
0.249420103883026 
0 
0 
0.03487909808242183 
0.03200758999790249 
0 
0.07067527348259005 
0.3086620413875876 
-0.01493546572130267 
-0.001359264253926962 
0.2480384305435144 
0.1131913516409765 
0 
-0.0859485265624918 
0 
-0.2054251323488327 
0 
0 
-0.01149617519135073 
-0.02184177547386052 
0.7123788388800608 
0.04838386062584408 
0.05292138648026337 
-0.02999067332806424 
0 
0.02121826609734362 
0 
0.01736888078621927 
0.08074426025953212 
0 
-0.2577580471588133 
0 
-0.3129474896218978 
-0.04012472389080863 
0 
0.02461721089345488 
0 
0 
0.1913137038822764 
-0.04878315605375682 
0.0967293653697763 
0 
0 
0 
-0.005971269599951739 
0.001486676599937953 
0 
0 
0 
0 
0 
0 
0 
0.6601965216026914 
-0.1946951213739984 
-0.1514099667759557 
0 
0 
8.673617379884035e-19 
0 
0.006059390070519256 
0 
-0.05860294747302675 
0.02254835161981381 
-0.02948056490219538 
0 
0 
0 
0 
0.1609556853745467 
-1.626303258728257e-19 
0 
-0.004216399587299121 
0.02062893550698056 
0.3766961783392135 
0 
0 
0 
-0.01279023850485992 
0.3395509389843215 
0 
0 
0 
0 
-0.07128204506361269 
0 
0.03433315214306432 
0.04893673075595455 
0 
-0.01310493656204219 
0 
0.1241672015156659 
0 
0 
0 
0 
0 
-0.1016266113780558 
0 
0.008993637170975644 
0 
0 
-0.02689987100531735 
-0.0006220003803068558 
0 
-0.2075416081650463 
0 
0 
0 
-0.006973863654777352 
0 
0 
-0.06275588550980001 
0 
0.06553090590709156 
0 
0 
0.03818681023853224 
0 
-0.02156482650011088 
0 
0 
-0.04204768029815551 
0 
0.03366983910526896 
0.06621360267049957 
0.02317331295697377 
0 
-0.1590544450374289 
-0.02039032741730294 
-0.03007279433185486 
0 
0 
0.0517617714979084 
0 
-0.2044863074240466 
-0.004331508457095599 
-0.0061022229672394 
0 
0 
-1.1889210371279 
0.06277067720524816 
0 
-0.003690053459435384 
0.03329181914598597 
0.4247093428846622 
-0.06827907478556136 
0 
0 
0 
0 
0.171351091288577 
0 
0.1227529538414395 
0 
0.0292560036442427 
-0.02733325786740545 
0 
0 
0 
0 
0 
0 
0 
0 
0 
0.006347534850599809 
0 
-0.01955649426645923 
0.01011794708066964 
0.04246693289366177 
-0.004179349034050127 
0.0453880270394192 
-0.02261586230298136 
0 
0 
0.101843735463807 
-0.0157531894070028 
-0.00583123506501014 
0 
0.1094636810228062 
-0.1765038524789361 
0.01669033342067334 
0 
0 
0 
0.003712447409476069 
-0.004852594762464436 
-0.02627245327773793 
0 
-0.01379153709486689 
0 
-0.005447800924237732 
-0.001092050412567101 
0 
0 
0 
0 
-0.02192207202332415 
0 
0 
0 
0 
0.1644659351697459 
0.007692711181630923 
-0.06069981984412719 
1.734723475976807e-18 
0.112339546581724 
0 
-0.09322222530152648 
0.04365007954869234 
-0.0248247585749078 
0.05532040335853609 
0 
-0.6478348199799598 
0 
0 
0 
0 
-0.009005010643052671 
-0.01409967119774119 
0.08482376410396411 
0.04171697259955618 
-0.03080768193870523 
0 
0 
-0.03546232112305 
-0.06770078234675433 
0 
0 
0.03978392238475748 
0.1551466023673091 
0 
0 
-0.1067903733904509 
0.006088347253256682 
0.05107393412967116 
5.251604272976662e-20 
0 
-0.002136253378973239 
0 
0.1543338784152923 
0 
0 
-0.02551194359876965 
0.107841656400472 
0.04185421422269658 
0 
-0.1112974574226313 
0 
-0.01179507127908177 
0 
0 
-0.06499773589001671 
0 
0.1086135237147228 
0.008249428397735346 
0.06189660881251287 
-0.3837273652557128 
0 
0 
0 
0 
0 
0.01398538915535365 
0.05588442644973547 
0 
0.001332845333887826 
0 
0 
0.1669667220586548 
-0.1100877572087844 
-0.08944648610323118 
-2.710505431213761e-20 
-0.08035719338185873 
-0.0227042839784696 
0.2339207727819705 
-0.0424920579866246 
0 
0 
-0.01422770990740886 
0.0057097605110983 
0.4199474197214372 
0.01416077849952172 
-0.0387645313183828 
0 
0.2298676548676991 
0 
-0.04615949055858479 
0.06705631406306556 
-0.246507644562514 
-0.01383319585105897 
0 
0 
0.04772145233999944 
-0.0009104947713653782 
0.03510529140596981 
0 
2.168404344971009e-19 
0 
0.1341495975162856 
-0.01345260934823474 
0 
-0.004146339091999292 
-0.07382213146694153 
0 
-0.000639574630293334 
0 
0 
0.1807327129973031 
0.01573848539129857 
0 
-0.1331816708909427 
0.0298486388579124 
0.07728404926282699 
0.3788624091342433 
0.1328605414983118 
0 
0 
-0.2190877105111912 
0 
0 
0 
0 
0.05540958996085988 
-0.7175176182987502 
0 
-0.01050990275899634 
-0.01644620041342042 
0.0008299444961645485 
-0.09286099344518095 
-0.0857969985084278 
-0.03640991448146261 
0.05233714132185099 
0 
0 
0 
0 
0 
0.1048358597632545 
-0.004132909981502881 
0 
0.05421921496501375 
0 
0 
0.01441427367660867 
0 
0 
0 
0 
0.1686641870569596 
0 
0.07488064364472108 
0 
0 
0.05034129368643239 
0.1687866619351919 
0.08797910328289599 
-0.01072672797585084 
0 
0 
0 
0 
-0.03114727981514165 
0 
0 
0.0002851727227396327 
0 
0 
0 
0 
0.07355133713891435 
0 
-0.004450689236473313 
2.49366499671666e-18 
0 
0 
-0.1152624812932445 
0.1222630236592296 
0 
-0.007201086500250957 
0 
0.0005829126496711324 
0 
0.02704307112549352 
0 
0 
0 
0.04675758693538757 
0 
0 
-0.03092856062643654 
0.08732640063288817 
0 
-0.0351738800477589 
0 
-0.03389264100732269 
0 
0 
-0.03503835248403482 
0.004805914718082106 
0 
0.02227848707202977 
0 
0.1072802573394704 
0 
0 
0.06342201446612562 
0.314191030588157 
0 
0 
0 
0 
-0.02359987233077928 
0 
0 
-0.01310092226750514 
0 
-0.0115732651311346 
0 
0 
-0.0183922380413711 
0 
-0.0132248940749745 
0 
5.421010862427522e-20 
0 
0 
-0.06350086417537874 
0.03101627904036081 
0 
0.0004673883853434976 
0.135813573497984 
0 
0.00209724609896754 
0.174085955277944 
-0.03574375183367468 
0 
0 
0 
0 
-0.272309476937743 
-0.332787343904174 
0 
0.4548048166102848 
0 
0 
0 
0 
0 
0 
-0.0001933884778875607 
0 
0.2172715534198235 
0 
0.01686975539349145 
0 
0.02091246243494524 
0.02542419175471852 
-0.04143129165066769 
0 
0 
0 
-0.006349293023339233 
0 
0.1967577941499062 
0.02125064953017072 
0.03320878947927341 
0 
0 
0 
0.1275270957923599 
0 
0 
0.0334771180940544 
-0.07955897746718399 
0 
0 
0.08070285086392463 
0 
0.2599451740936696 
0 
-0.003830413418393516 
0.5280683362695062 
0 
0 
0 
0.0490101702395201 
0.01099730187764899 
0 
0.01384458554543942 
0.01731373118610901 
0 
-0.03726170962316713 
0.02531677001182005 
0 
0 
0 
0 
-0.007767716864583894 
0 
0 
-0.01897475350146571 
0.06915179902338756 
0.04255769432850893 
0 
0 
0 
0 
-0.04526572002685428 
0 
-0.2112568705744899 
-0.04348499735629481 
-0.008692043273170389 
0 
0 
0 
0 
0 
0 
0 
0.00587797584477385 
-0.04243125881911897 
0 
0 
0 
0 
0.008036695589188301 
0.1380584943636111 
-0.01022241740983673 
0.0181065913400241 
0 
0.0004927675834010104 
-0.03705942877207086 
0 
0 
0 
-0.009573809260580162 
0 
0 
0.2537968952718593 
0 
0.09968430278009995 
0.4007995698841108 
-0.432202847189273 
0 
0.05632935940647184 
-0.04709002040870998 
-0.1298903604007796 
0.08411516498379465 
0 
0.1069600131781918 
0 
0.02205109919743164 
-0.08406337930487219 
0.006552561239708253 
0 
0 
-0.0009557222560044727 
0 
0 
-0.01311320530877735 
0 
0.1456121083211861 
0 
0.04782052204541093 
0.1584345740751777 
0 
-0.1440485688009721 
0 
0 
0 
-0.03572427910337323 
0.02434470790745709 
-0.0002080974310799763 
-0.08451474676040066 
0 
-0.004874400148587413 
0.007013565591031298 
0 
0 
0 
0.03704728807254369 
-0.02213487391520661 
-0.0168362103903447 
0.05617360094289361 
0 
0 
0 
0 
0.03277901040281759 
-0.01661629613843305 
0 
0.3251402121672191 
0 
0 
0.009943050349448663 
0 
0 
0.006905643753807444 
0.1562183890389253 
0 
0 
0.01458203642101982 
0.00153452381262351 
0.2517156585324808 
0 
0 
0 
0 
0 
-0.05293331006328197 
-0.4307768961591591 
0 
0 
0 
0 
0.011730052247178 
0 
0.002781542921533934 
-0.2265245862879798 
0 
0 
0 
0 
0 
0 
0 
0 
0 
-1.084202172485504e-19 
-0.01857105770955385 
0.1981469181617693 
0 
0.008104258625906552 
-0.03962519603803611 
0.02553986160070135 
0 
0 
-0.04634777225839781 
0 
0 
0 
0 
0 
-0.01080384972270885 
-0.04287776464998197 
0 
0.1243555182602634 
0 
0 
-0.03355674653295234 
-0.004519487962316223 
-0.1423143678242991 
0 
0 
0 
-0.08641608668011226 
0.07368097843038598 
0 
0 
0 
0 
0 
-0.1079308164585936 
0 
0 
0 
0 
0.0458086875306873 
0.0164091729906266 
0 
0 
0 
0 
-0.01764024882310572 
0.07891799905350674 
0 
0 
-0.1347777891773421 
0.01064454997193355 
0 
0.08123356292571861 
0.06991587777423365 
0 
0 
0 
0 
0 
0 
0 
0.259554343056653 
0.003151655966650448 
0 
0 
0 
0 
-0.05482974670471467 
0 
-0.01932586900587368 
0 
0 
0 
0 
0 
0.02150048561890607 
-0.07770687302926146 
0 
-0.021120026972727 
-0.004982562869220816 
0.08413476506198739 
0 
0 
-0.1467999595553115 
-0.0007692337301243615 
0.03184242832823476 
0 
0.01011816527337111 
0 
0 
0 
0 
0 
0.6457217834868177 
-0.02857242159193284 
0 
0 
0 
0 
0.01664826998978379 
0 
0.01744657032346483 
0.3025163824073274 
0 
0.022464572980158 
-1.084202172485504e-19 
0 
0.08025792019126403 
0 
0 
-0.06798461014207155 
0.03894240783503328 
0 
0 
-0.3253889746412841 
0 
-0.1085446278102047 
0 
-0.04624271779215818 
-0.01989987735759741 
0 
0 
0 
0.3550732295785123 
0 
0 
0 
0 
0 
0 
0 
0 
0 
-0.04629556901759599 
0.02520093434858672 
0 
0 
0 
0.008328132250663563 
0 
0.03693655960954526 
-0.02357752534552281 
0 
0 
0.008011283959575252 
-0.004427081275621251 
0 
0.00698573583786368 
-0.1518664183706792 
-0.04389528608739345 
0.00945868619682497 
0 
0 
0 
0 
-0.003735577988852648 
0 
-0.003159726328349682 
0.06831467976617736 
0 
0 
-0.3832802286261116 
0 
0 
0 
0 
0.04791058369952975 
1.084202172485504e-19 
0 
0 
0 
-0.1078083909426159 
0 
0 
0.3218975565477604 
0 
0.006710742229235041 
0.4326822316750891 
0.01543839713061048 
0.04854466979865508 
0 
0 
-0.06260160208820792 
0.00690650490112661 
-0.06614744434485069 
0 
-0.571439201756041 
0.01923240391385879 
0 
0 
0 
0.005866237686204473 
0.04535249071101604 
0 
0.001428164596310844 
-0.05867568858843037 
0.03335886761219153 
0 
0 
0 
0 
0 
0 
-0.008668940710284137 
1.897353801849633e-19 
0 
0 
0 
0 
0 
0 
0.01927017395614886 
-0.0129915770304766 
-0.01917190819925881 
-0.5392262329712684 
-0.00334903784527748 
-0.06407352547641453 
0.01898545537630723 
-0.0006075919328653603 
0.02229942183323453 
0.02031546962136699 
0.01021537654798477 
-0.006213979564753885 
-0.0373390931282141 
0 
0 
-0.2894655219972505 
0 
-0.2978753536084918 
0.03286350739761091 
0 
0 
-0.02652004537408034 
0 
-0.5118369475042094 
0 
0 
0 
0 
0 
0 
0 
0 
-0.01741469746313459 
0.4759323896964115 
0 
-0.04564682983619719 
0 
0 
-0.01749745129894162 
0 
0.001886984190030674 
-0.006403932341852311 
0.07424561809121172 
0.02542047968834929 
0 
-0.01277525106638408 
0.02617923490924549 
-0.2001867318012342 
-0.003425832414791997 
0 
0 
0 
0 
0 
0 
0 
0 
0.03189265339284589 
0.2362854558873111 
-0.1579862222685632 
0 
-0.08273567550950493 
0.001979060669535975 
0 
0 
-0.1084064985750356 
0 
0 
0 
0.007969006720193265 
0 
0 
-0.07123083882372186 
-0.003408965932706119 
0.06304704917200241 
0 
0 
0 
0 
0.003386867159498704 
-0.09030286919155275 
0 
0 
0 
-0.00303903065115409 
0 
0 
0 
0 
0 
0 
-0.0696342069204295 
0.280546104966652 
-0.004940533274150727 
0.01200186333641019 
0 
0 
0 
-0.0005071678983100621 
-0.004792000372464726 
0 
0 
0 
0 
0.05280636429630205 
0 
0 
0 
0.03258869309464005 
0 
0 
0 
0 
0.3254430131830715 
0 
0 
0 
-0.01982588333449364 
0.05362108900445685 
0 
0 
0 
0 
0 
0 
0 
0 
0 
-0.1830520662921844 
0 
0.02790432141215059 
0 
-0.008215694756309122 
0 
0 
0.4278251881933081 
0 
-0.1109576445578346 
0 
0 
0.001350978138223469 
0 
-0.04874575047822018 
0 
0.06668771963729007 
0 
0 
-0.2563874271126194 
0.2390531677246149 
0 
0 
-0.0145394618757539 
0 
0.03609795624547966 
0 
0 
0 
0.06823079443573545 
-0.010578360819098 
0.07250929070115805 
0 
-0.02541350878822649 
0.04368719139715571 
0 
0 
0 
0 
-0.006949974055562151 
0 
0 
0 
0 
0 
0 
-0.01502485792418403 
-0.009016888714889393 
0 
0 
-0.05595957054584304 
-0.009455453642345808 
0.1651539194429381 
0 
0 
0 
0 
-0.2528516553663391 
0.1594533622711324 
-0.001440716325629211 
-0.1599793311268903 
0 
-0.0309340847399354 
-0.01527102679909969 
-0.02318521556122771 
0.008561366039298688 
0 
0 
-0.003379275839923962 
0 
0.01660856896875048 
1.084202172485504e-19 
-0.008132396931666345 
1.301042606982605e-18 
0 
-0.006597798259588845 
0 
0 
-0.3659450492039851 
0 
0.004990560694658216 
0 
-0.02306051460956951 
0 
0 
-0.06382595258777744 
-0.04600380530825223 
8.673617379884035e-19 
0.1377905630409557 
0 
0.04600708233970043 
0 
0 
0 
0 
0 
-0.1572584384928883 
-0.1317216867369743 
0.008617401305364569 
0 
-0.0006528638548106381 
0 
0 
-0.1569761690933865 
-0.1687394513009016 
0 
-0.03393940583169781 
0.09711674695137555 
0 
-0.03669304875035102 
0 
0 
0 
0 
0 
0 
0 
0 
0 
0 
-0.02447030397228374 
0 
0 
0.004239222580080027 
0 
0 
-0.07442462809485782 
0.01259545678104519 
0 
-0.01745633472668662 
0 
-0.01173245038028899 
0 
0 
0 
0 
0.03158938537355501 
-0.02092348523543641 
0 
-0.01077119468969747 
0 
0 
0 
0 
-1.084202172485504e-19 
0 
-0.01701840296228108 
0 
0.0002561258266389465 
0.02737011019326228 
0 
0 
0 
0 
0.1254801338063642 
-0.05489051429925908 
0 
0.07020997677619316 
0.1250782985988476 
0 
0 
-0.01048277825803862 
-2.405573570202213e-17 
0.01045827124636479 
0 
0.09920218792543697 
0 
-0.2130124668230502 
0 
0 
-0.03942070796217591 
0 
0 
0.01265520491482593 
0.01258538516465626 
-0.01201414539455182 
0 
0 
0 
-0.0455945294188858 
0.006204987436363763 
0.0271967341089775 
0 
0 
0 
0 
0 
0.02303472729491237 
0 
0 
0 
0.002624738332453446 
0.04150481667003168 
0 
0 
0 
0 
-0.001194032782681202 
-0.003148842351960096 
0 
0.01537686369372855 
-0.02296514978895995 
-0.009221320687211803 
0.008481528124200603 
-0.03261460270737104 
0 
-0.04740878600573341 
-0.03275694783393065 
0 
0 
0 
-0.0463238271840692 
0 
0.01446662707285869 
0 
0 
0 
0 
0 
0 
0 
0 
0 
0.1735381599765823 
0.009890758196278196 
-0.01167020727004364 
0 
0 
0 
0.01089604528661294 
0.01379494572424878 
0 
0.01746638044018954 
0.00303547347053812 
0 
0 
0 
0.02051642676514808 
0 
0.06974311894789337 
0.1102161516868076 
-0.0004139981878505839 
-0.02465840765120704 
-0.001858775656065322 
0 
0.02452430202900639 
0 
-0.04233088366741111 
-0.03216752216047557 
0 
-0.04339296196248708 
0 
0.03666768395061969 
0 
0 
0 
0.3351595617021037 
0 
0 
0.2836939169614427 
-0.03710315649223242 
0.3424734662655015 
-0.004397612212716079 
0.01908999602920285 
-0.008776860435663133 
0 
0 
-0.01872361323046891 
0 
0 
-0.007031047553962399 
0 
0 
0 
0 
0 
0 
0 
0 
0 
0 
-0.10134872838253 
0 
0 
0.06063970318513309 
-0.8117949620343232 
0 
0.03037405707156395 
0 
-0.009404054189413138 
0 
0.008640425023843969 
0 
0 
0 
0 
0.5278281550171527 
0.01594502305353435 
0 
0.01431380717886031 
0 
0 
0 
0 
-0.02525496310871937 
0 
-0.1609369550566911 
0 
0.07875894721024125 
0.07139838918458433 
0 
0 
0 
0 
0.04520013456676845 
0 
0.07682930451453659 
-0.003293185946062907 
-0.01568503567577657 
0.1117028312430178 
0 
-0.01742431383866535 
0 
0 
0 
-0.08113965139976261 
0.001507099567403942 
0 
0 
-0.009100142079016452 
0 
0 
0 
0 
0.04507265744191595 
0 
-0.1133274233754744 
0.008830699982682464 
0 
0 
0 
0 
-0.003852182012085451 
0 
0.0158288328190796 
-0.004861111968132531 
-0.02601819728339891 
0.3578585535656559 
0 
0 
-2.168404344971009e-19 
0.1518144515732082 
-0.04458110248994603 
0.2690171952593853 
0 
0 
0.02930545848515995 
-0.3493604802125864 
0 
0 
0 
0.008103882727263118 
-0.03159283795112285 
0 
0.008535419557006348 
0 
0 
-0.006825106629967105 
0 
0.07533820058333292 
0.0008282614754204519 
0 
0.05535077505973492 
-0.007038326512748351 
0 
0 
0 
0 
0 
-0.01173188668994117 
0.04467224510789097 
0 
0 
0.0101768782461611 
0 
0 
0 
-0.01404924523366091 
0 
0 
0 
-0.0490278796715858 
0 
0.005241178718532586 
0.03269407001371171 
-0.01207866035489826 
0 
0 
0 
0 
-0.007542933625728077 
0 
0.06532083829293363 
-0.03496805184262818 
0.02633642149108056 
0 
-0.02544080293457766 
-0.02761481562461962 
0.08415020744225586 
-0.003631109737800172 
0.004396346789135083 
0 
0 
0 
-0.00978413951272997 
0 
-0.01638293860336066 
0 
-0.005887635555013784 
0 
0 
0 
0 
-0.08651443139467746 
0 
0 
0 
-0.02982506459185121 
0.002256477662608981 
0.2940526888138942 
0 
0.01467576421454316 
0 
0 
0.179219018223993 
-0.007710323943184695 
0 
0 
0 
0.05336259117941718 
-0.05529068069243055 
0 
-0.01008107545923052 
0.09552640323961138 
0 
-0.01358062945832302 
0 
0.1270489499602933 
0 
-0.02531426849627185 
-0.01684256078597116 
0 
0 
0.04121696330718081 
-0.07867638353606966 
0 
0.08559063798182488 
0 
0 
0 
0 
0 
0 
0.03178661110907567 
0 
0.01320281587373272 
0.1563350383214467 
0 
-0.002639126516149618 
0 
0.003321507669571456 
0 
0 
-0.0007181074080213363 
-0.3924518347713186 
0.1298641205010081 
0 
-0.01637383945310694 
0 
0 
-0.02012075409441349 
0 
0 
0 
-0.00635762964932306 
0.04209949343274896 
0.02190236549497409 
0 
0 
0.06607785373847296 
0.02127551988456136 
0 
0 
0 
0 
4.336808689942018e-19 
0 
0 
0 
0 
0 
0 
0 
0 
-0.04824549311056196 
0 
-0.01359802759221393 
-0.2950994797465583 
-0.03590084214951286 
0.304504850541695 
0 
0 
0 
0 
0 
0 
0 
0 
0 
0.1248692300065364 
-0.2604147360711746 
-0.05221036392015593 
-0.0008657568862055935 
0 
0 
-0.1608634922082915 
0 
-0.02075218946662335 
0.04346673358086044 
0 
0 
0.04791959470852895 
0.009038087422929275 
-0.1242045946008575 
0 
-0.01456757174484741 
0 
0 
0 
0 
0 
0 
0 
0 
0 
0 
0 
0 
0 
0 
0.08181924947855718 
0 
-0.08086181291041987 
-0.03554065415994058 
0.006061828270741845 
0 
0 
0.0977982064709121 
0 
0 
0 
0 
0.002493928759696686 
0 
0 
0.03535387382863004 
-0.008002890420215255 
0 
0 
0 
-0.0006518033254496986 
0 
0.01598924054601422 
-0.01106831008367541 
0.006677729420938629 
0 
0 
-0.0319500594097465 
0 
0 
0 
-0.04617336665376073 
0.02536966220445627 
0.00210921344099468 
0 
0 
-4.336808689942018e-19 
0 
0.1346829750397807 
0 
0 
0 
8.673617379884035e-19 
0 
0 
0 
0 
0 
0 
0.08576459626412182 
0 
0 
0 
0 
0 
0 
0.502884257310363 
0 
0 
0.05547180561118058 
0.0881060128313535 
-0.04481092012336546 
0 
0 
0 
0 
0 
-0.08048857022251543 
0 
0 
0 
-0.0699168457427576 
0.1235618107118745 
-0.0006104418829894613 
0.0221146716504583 
0.07208640727110623 
0.03996161891145446 
0.8265373198928171 
0.005125296773658423 
-0.007321432231043585 
0 
-0.1048006161381626 
-0.0005818189332551214 
0 
0.1318299678180012 
0 
-0.2219561902195029 
0 
-0.02077665931447169 
0.5304919262797233 
0 
0 
0 
0 
0 
-0.02103221866939946 
-0.1514008312070502 
0.3700725665739792 
0 
0 
0 
0 
0 
0 
-0.01927712590581745 
0 
-0.004027522668163788 
0 
0 
-0.007910770624692708 
0.02952924481057973 
0 
0 
-0.004720116551246758 
0.04672059552207623 
0.1374261054124155 
-0.04511314910620703 
0.01782535171509519 
0 
0 
0 
0 
0 
0.05068318616888563 
0 
0.1842420482060485 
-0.006146900998857334 
0 
0 
-0.01094199244955408 
-0.03125369367456637 
-0.1207025908155828 
0 
0.01273137019535896 
-0.05941363614035493 
0 
0.07070891741234306 
0 
0 
0.08541211147973374 
0.01433718783030624 
0 
0 
0 
-0.04046481358749892 
0 
-0.02835148228853493 
0 
0.2875713446031991 
0 
-0.002108824217904778 
0 
-0.009027865630527538 
0 
0 
0 
0 
0 
1.329193088860929 
0 
0.1532758736015243 
0 
0 
0 
0 
0 
0 
0 
0 
0 
0 
0 
0 
0.1294817995817632 
0 
-0.005481839952257408 
0.006307750709275976 
0 
0 
0 
0 
-0.03692903471042564 
0 
0 
0 
0 
-0.006686470103131851 
-0.0228642319867307 
-0.0007209575379340414 
0 
0.0006104509019992763 
0.03399057242236331 
0 
0 
0 
0 
0 
0 
-0.04427361896113941 
0 
0.1230580564808971 
0 
0 
0 
0 
0 
-0.05921850942151233 
-0.01784202553072461 
0 
0 
0.01314771117006966 
0 
0 
0 
0 
0 
0 
-0.008099135216810504 
0 
0.002026733308638018 
0 
0 
0 
0 
0 
-0.7346928542835094 
0 
0 
0.02037108662598589 
0.26075147928739 
0 
-0.003051887759195173 
-0.02544998539524049 
0.01325688396665791 
0 
1.409462824231156e-18 
-0.03339995876691207 
0.02917366681541274 
0 
0 
0.007404267939269813 
0 
0 
0 
0 
0 
-0.03048822743460788 
-0.01248607806861102 
-0.02554342209476755 
-0.1176155974019075 
0 
0 
0 
0.01337965050397781 
-0.02977848943200921 
0.01321678369987579 
0 
0 
0 
0 
0 
-0.008025710921444718 
0 
0 
0 
0.03175569045172571 
0 
0 
0 
0 
0 
0 
0 
-0.2740833185925288 
-0.00660013868238457 
-0.02463152176933494 
0 
0 
-0.1180529459641081 
0 
0 
0 
-0.01441358262429315 
0 
0 
0.108997584554795 
-0.08851232493323839 
-0.004809099542135237 
0 
0.0254344992142406 
-0.02483699064604884 
0 
0.02696754722195113 
0 
0 
-0.01034071182771527 
0 
0 
0.1119589567939459 
0 
0.01453356740708461 
-0.02475781186543146 
0.004661737497185871 
0.05050524034700807 
0 
0.09488034407780283 
-0.04038922407703927 
0 
0.07694548538584732 
-0.3972718670891935 
0.003740754906120284 
0 
0 
0 
-0.008138615085167918 
0 
0 
0.07103002584727121 
0.007388501794035237 
0.3073228621019229 
0 
0 
0 
-8.673617379884035e-19 
-2.168404344971009e-19 
0.03310665492842302 
0 
-0.06267843683357389 
0 
0 
0 
0.01422269701705058 
-0.1542500052221462 
-0.009615019167686449 
0.0609515863281558 
-0.1917119257202708 
0 
0.1268641269671622 
0 
0 
0 
0 
0.06840385573843735 
-0.08856404066624936 
0.003396535805410794 
0.06503986761022647 
0 
0 
-0.1511407752162493 
0 
0.09188647068630677 
0.2984118517712213 
-0.004835611085517481 
0 
-0.0353120400481506 
0 
0 
0 
0 
0 
0 
-0.01095554490513061 
0 
-0.01958350724829258 
0.0264724007171534 
0 
-0.01958350724829258 
0 
-0.03571697519829943 
0 
0 
0 
0 
0 
0 
0 
0 
0 
0.01119283753829652 
0 
0.004497609028703984 
0 
0 
0 
0 
0 
0 
0.04739772089516835 
0.01357123372479551 
0.7175825623973249 
0 
0.1406657531097672 
-0.08348408294735736 
0.01664472113447022 
0 
0.01635980001307537 
0 
0.007788428003409284 
-0.03423408380159711 
0 
-0.001093442521752851 
0 
-0.01532586145391796 
0 
0 
0 
0.2634745076594306 
0 
-0.05285235693411236 
-0.04754985152987764 
0.005824799031683801 
-0.009789153701025366 
1.084202172485504e-19 
0 
0 
-0.01297165560953887 
0.005836436982706405 
0.1927145445526958 
0 
0 
0 
0.06927361278089982 
-0.003403898031851199 
0 
0 
0 
0.01761885410165637 
0 
0 
0 
0 
-0.00945126650652074 
-0.003452693439969129 
0.01283279615386325 
0 
0 
0 
0 
2.710505431213761e-20 
0 
0 
-0.02490232417628114 
0 
0 
-0.02283368530047083 
0 
0 
0 
0 
-0.008796655624588418 
0 
0 
-0.0007896625319040667 
0 
0 
0 
0 
0.04983210374328932 
-0.01878775902721347 
0 
-0.05110152538848277 
0 
0.3535343609347496 
0 
0.009321940068781759 
0 
0 
0 
0 
0 
-0.009425186515403493 
0 
-0.005354084664964628 
0.1060222159448382 
0 
0.02474228626330165 
0.3961477001593765 
-0.01816458269116448 
0 
0.00846967143790236 
0 
-0.08505639783373671 
-0.009334863568626291 
0 
0.1163347634725918 
-0.01722889154158681 
0.01022109710382948 
0 
-0.05998949345869098 
0 
0 
0.009560175588844276 
0.3382407668492582 
0 
0 
0 
0 
0 
0 
0 
0 
0 
0 
0 
0 
0 
0 
0 
0 
0 
0 
0 
0 
0 
0 
0.02527911564970343 
-0.002708969157631815 
-0.4853051969614453 
-0.344476208558369 
0 
-0.005124833465772874 
-0.09095461454592185 
-0.03913762522196394 
0 
-0.03408119365345606 
0.005603185617211608 
0 
0 
0 
0 
-4.336808689942018e-19 
0 
0 
0 
0 
0 
0 
0.08910637524476649 
0 
0 
-0.04681912452063019 
-0.06979017957790459 
0 
0 
0 
0.04084149073331322 
0 
0 
0 
0 
0 
0.04429915391517065 
0 
0.01402649676142568 
0.01154497456366061 
0 
0.2577032164945612 
0 
0 
0 
0 
0 
0 
0 
0.2532229264397343 
0.01830895941085837 
0 
0 
0 
-0.06222082646689903 
0 
0 
0 
0 
0 
0 
0.02859403746473994 
0 
0 
0 
0.01101391517182097 
0 
0.0453162880604006 
0.01993763343497307 
0 
0 
0 
-0.04064038138892648 
-0.05297349395224654 
0 
0.02670655792402559 
-0.07045270357931481 
0 
0 
0.03685922581571345 
0 
0.2198458102464625 
-0.00651886506862783 
0 
0 
0 
-0.08499651773834982 
0 
0.03258604669226293 
0 
0 
-1.35598928635578 
0 
0.03212982045940243 
0 
0 
0 
-0.006486388132104409 
0 
0 
0 
0 
0.004274393837085043 
0.04510446101702564 
0 
-0.0111512522054877 
0 
0 
0 
-0.05269011850812579 
2.168404344971009e-19 
0.01141705054331655 
0 
0 
0 
0 
0.04383878042240322 
0 
0 
0 
-0.04622726114927029 
-0.009689381935317057 
0 
0.05999398401050302 
0.2052474499440987 
0 
0.2392088276044854 
0 
0.06359385382815852 
0 
0.1241553183156324 
-0.004826654743001479 
0 
-0.008800449232414607 
0 
0 
0 
0 
0 
0 
0 
0 
0.04018119733937743 
-0.04453160849397907 
0 
0.02381235487821285 
0 
0 
0 
-0.003572713491351605 
0 
0 
0 
0 
0 
0.05824644372592484 
-0.003024899163955054 
0.01569135479838792 
0.1318414264114029 
0 
0 
-0.01251454222117443 
-0.05003487899958865 
0 
0 
0 
0.009652743637934284 
0 
0 
0 
0 
0 
0 
-0.01408489558604659 
0 
0.06112258159394391 
0 
0.1817071831152329 
0 
0 
-0.003944136171591289 
-0.0444599121575058 
0 
0.1333802689765327 
0 
0.06090305359126177 
0 
0 
0 
0 
-0.0187548609671966 
0.005767818689285063 
-0.0123376461475085 
0 
0 
0 
0 
0 
0 
0 
-1.099785456055238 
0 
0 
0 
0 
0 
0 
-0.01262148622673776 
0 
0.0151997754942042 
0 
0 
0 
0.01532664315027787 
0.08309920646142263 
-0.06647092894084557 
0 
-0.005770410444548066 
0 
0 
0 
0.08671220975032512 
0 
0 
0.004035760685141148 
-0.00494312486993803 
0 
-0.0672876484628335 
0.02904335004329926 
0 
-0.06218560432509587 
0.02333063407970816 
2.710505431213761e-20 
-0.01981571320487666 
0 
0.01082694719690448 
0 
-0.0971525594817141 
0 
0 
0 
-0.005071692914491655 
0 
0 
0.1671509045139168 
0 
0 
-0.2625618181519495 
0 
0 
0.007100660551157858 
0 
0 
0 
0 
0 
-0.006641687957251246 
0 
0.0759577113656381 
0 
-0.1232917927600427 
0.03605926298365258 
0 
-0.0007669286989686095 
0 
0 
0 
0 
0.03398712196354878 
-0.1384168519065236 
0 
-0.002257418025955669 
-0.01493903830515979 
0 
0 
0 
0 
-0.2150797274428158 
0 
0 
0 
-0.02805714872249296 
0 
-0.0001855781871089976 
-0.00325518753250118 
0.004575156383550243 
0 
0.07942080927136108 
-0.0006031686399628987 
0 
-0.005021987725836004 
0 
0 
0 
0 
0 
0.2363038480550732 
0 
0 
0 
0 
0 
0.3765753281780153 
-0.02733959288025096 
0 
0 
0 
-0.02062767413127803 
0 
0 
0 
0 
0 
-0.003526582811226605 
0 
0 
-0.008997955878345766 
0.02557383248118188 
0 
0 
0 
0 
0 
0 
0 
0 
0.05092746349766995 
-0.009528837411022896 
0.005288852746863013 
0 
0 
0 
0 
0 
0 
0.1181641137080771 
-0.02251551922475406 
-0.009395069678659817 
0 
0 
0 
0 
0 
0 
0 
0.03731135162852432 
-0.0182822488799514 
0 
0.03753547070197339 
0 
0 
0.005828877765171586 
0 
0 
0 
0.05825478258514662 
0.164045488303287 
0 
0 
0 
-0.01838899453997484 
0 
0 
0 
0.03050887857799954 
0 
0 
0 
-0.006484621073173961 
0 
0 
0 
-0.5287672900127833 
-0.05965617023371513 
0 
0 
0 
0.05892030504346132 
0 
0.0123449920103744 
0 
-0.01200376045500408 
0 
0.4333495239393359 
0 
0 
0 
-0.005283412510997288 
0 
0 
0.002876128958466357 
0 
-0.02761951635467634 
0 
0.229958889914657 
0 
0.006711605823623648 
0 
-0.1006227766963057 
0 
-0.152208203898415 
0 
0 
0 
0 
0 
0 
-0.003804703449831956 
0 
0 
0 
0.04657929698116953 
0 
0 
0 
0 
0.9083541735126047 
0 
0 
0 
0 
0.0178009672313905 
0.02589485318832935 
-0.01212821341124834 
0.3746876638873669 
0.1332841857867116 
0 
0 
0 
0.0002070302160576678 
0 
0 
0 
-0.005069421472354452 
0 
0 
0 
-0.01136266874851895 
0.3911226662652637 
0 
0 
0 
0 
-0.01363828125141675 
-0.03085578883102192 
0.01797430160631874 
-0.02499257458904024 
0 
0 
0 
0.3451596545333835 
-0.004853897845261071 
0.03629558037932523 
0.0167072053993086 
-0.03433954693425054 
0 
0 
0 
0 
0 
0 
-0.01768265841735409 
0.00019469818862768 
0 
0.05125522284436473 
-0.004759079461817384 
0 
0 
0 
0 
0 
0 
0 
0 
0 
0 
0.02539807731420842 
0 
0 
-0.2181039065276708 
0 
0 
0.01791125638212517 
0.08526943651033388 
0 
0 
-0.009444138005322605 
0 
0.003359211361113073 
0 
0 
0 
0.004364879780025889 
0 
0 
0 
0 
-0.01317132686734822 
0 
0 
0 
0 
0 
0.04595086681609543 
0 
0 
0 
0 
0 
0 
-0.04802741607508038 
0 
0 
-0.01653218570962657 
0 
-7.318364664277155e-19 
0 
0 
0 
-0.003026679815562079 
0 
0 
0 
0 
0 
0 
0 
0 
-0.002338566674777188 
0 
0 
-0.04708880932880955 
0 
0 
0.01886673694510948 
0 
-0.3561060216865756 
0.5563202888451726 
-1.084202172485504e-19 
-0.005046371291933049 
0 
0 
0 
0 
0 
0 
0 
-0.2551475040463094 
0 
0 
0.04370256075520288 
0.00632063032740691 
0 
0 
-0.02620364439117926 
0 
0 
0 
0 
0 
0 
0 
0 
0 
0 
0 
0 
0 
0 
0 
-0.02017995671229828 
-0.1232228984595093 
0 
0 
0 
0 
0.1014397243622693 
0.04458176563425747 
0.0001771773905398751 
0.2003896552391371 
0 
0 
0 
0 
-0.00591925761302884 
0 
-0.003267252333197846 
0 
0 
0 
0.67053051693398 
0.01847865804870675 
0 
0 
0 
0.2656702669416351 
0 
0 
0 
0 
0.01534467913879057 
0.2404901634644052 
-2.602085213965211e-18 
0 
0 
-0.06223219335581555 
-0.04324842055004433 
-0.001796247411496263 
0 
0.09376044140645697 
0 
-0.002351038790472786 
0 
-0.005697108732096759 
0 
0 
0 
0 
0 
0.02389926632145042 
0 
0 
-0.02530829848593629 
0 
0 
0 
0 
-0.007876906154372041 
0 
-0.004705774968907746 
0.0139691333527992 
0 
0 
-0.000377859267704758 
0.3269684495756709 
-4.336808689942018e-19 
0 
0 
0 
0 
0 
0.03552393349970628 
0.01332358712825162 
-0.006749331500820108 
0.05597233193913973 
0 
0 
0.07922627379484137 
0 
-0.003546452121546229 
0.03939315846598379 
0 
0 
0 
0 
0.01523066612525117 
-0.09368827618146122 
0 
0 
0 
0 
0 
-0.02216222541651284 
0 
0 
0 
0 
0 
0.02147599947760398 
0 
0 
0 
-0.009623547511441833 
0.02851859176939346 
0 
0 
0 
0 
-0.01100734881065421 
0 
0 
-2.059984127722458e-18 
0 
0 
0.03955740250069324 
0.003935853699732903 
-0.03351203252381387 
-0.006279921920071556 
0 
0.07980006216962174 
0 
0 
0 
0 
0 
0 
0 
0.009825109986084051 
0 
-0.03854128824213222 
-0.01035509978546853 
0 
0 
0 
3.469446951953614e-18 
0 
0.03792538008124073 
0 
0 
0.02045234249761988 
0 
0 
0 
0 
-0.07150894697013498 
0.4617135953084568 
